nep4_zbl 1 C 
zbl 1 2
cutoff 6 5 44 34
n_max 4 4
basis_size 8 8
l_max 4 2 1
ANN 80 0
  2.2751780e+00
  3.3586614e+00
 -1.0270868e-01
 -1.6316632e+00
  3.6729443e-01
  2.1410713e-02
 -1.5910845e+00
  6.5447050e-01
 -5.8573377e-01
  5.6858915e-01
 -5.6467090e-02
 -1.4077528e+00
 -1.1152657e+00
  2.4045993e-01
  1.8380035e+00
 -6.5346235e-01
 -1.3160068e+00
 -2.2120798e+00
  9.7302699e-01
  1.7347519e+00
 -8.9495856e-01
 -7.7653164e-01
  9.1426623e-01
  2.2083540e+00
 -5.6398624e-01
 -9.0736613e-02
 -1.1729109e+00
  5.3879637e-02
 -1.5285534e-01
  1.2565684e+00
 -5.2460748e-01
  8.4234819e-02
  1.7624751e-01
 -3.4744054e-01
 -1.8415539e+00
  1.4826366e+00
  1.1327518e+00
  3.0727954e+00
 -1.3667643e+00
  1.0402877e+00
  1.2630790e+00
  2.0248978e+00
 -3.0126333e+00
  1.4032497e+00
 -1.2115430e+00
  2.1743956e+00
  9.4847763e-01
 -9.8039937e-01
  5.4479402e-01
 -8.7438536e-01
  2.0714405e+00
 -2.7891889e+00
 -1.7495419e+00
 -1.9157443e+00
 -3.4549767e-01
  4.2142394e-01
 -2.0263658e+00
  1.6626325e+00
  4.1924033e-01
 -7.1997792e-01
  9.2126232e-01
  3.0458163e-02
  3.2547388e+00
 -3.4399667e-01
 -1.3096092e+00
  3.4725511e-01
 -6.8201464e-01
  1.6920122e+00
  6.2008478e-02
 -1.1268480e+00
 -3.1518722e-01
 -1.2208893e+00
  3.4035835e-01
 -1.3046752e+00
  1.3476281e+00
 -1.4434196e+00
  2.6942844e+00
  1.1559517e-01
  5.8155274e-01
  8.9796913e-01
 -4.3399200e-01
  5.5702084e-01
  4.4679266e-01
  1.7263789e+00
  7.9596215e-01
  1.2161335e+00
 -2.7433008e-01
 -1.4432889e+00
  4.8740916e-02
  2.5476298e+00
 -1.6016383e-01
  1.6162591e+00
  8.7598431e-01
 -1.3959903e-01
  8.6191612e-01
 -1.1730918e-01
 -3.5466025e+00
  9.4961202e-01
 -3.3644649e-01
 -9.9378377e-01
 -1.2953345e+00
 -5.7618129e-01
  8.2966548e-01
 -9.9723750e-01
  4.6840867e-01
 -2.1291595e+00
 -1.0630229e+00
 -1.6778579e+00
  3.8702366e-01
  4.7486909e-03
 -2.2236156e+00
  2.3144814e-01
  3.0303371e+00
  3.7738207e-01
  4.2450207e-01
 -2.9738808e-01
  2.6027827e+00
  7.8330362e-01
  2.1958065e-01
 -2.2176735e-01
 -2.7485818e-01
  2.2989194e+00
  2.3998013e+00
  6.9523215e-02
 -3.2683617e-01
 -3.0245686e-01
  1.2930042e+00
  1.1151431e+00
 -8.9779246e-01
  3.0773494e-01
  1.3345110e+00
 -1.0097755e+00
 -2.0978301e+00
 -1.4694713e+00
  1.1134212e+00
  1.0595849e+00
  6.7820579e-01
  9.3579091e-02
  1.2198879e+00
  2.8461507e-01
 -8.5139805e-01
  1.1190593e+00
  1.6158916e-01
 -2.0450878e+00
  4.6753234e-01
  2.6501161e-01
  3.4394574e+00
  8.0870962e-01
 -1.3917609e+00
  3.7211072e-01
 -2.2904579e-01
 -1.5014353e+00
 -9.1781247e-01
 -1.7670889e-01
  1.1819271e+00
 -1.8132457e-01
  7.0488250e-01
  2.1475014e-01
  7.3621577e-01
 -3.4825465e-01
 -9.0200984e-01
  4.4342050e-01
  5.7893664e-01
 -3.9426330e-01
  2.1404626e+00
  9.6951246e-01
  4.4576207e-01
 -5.2560306e-01
  3.5534322e-02
 -4.5922112e-01
  1.2929562e+00
  5.0857037e-01
 -7.4417579e-01
 -3.3881778e-01
  9.5390373e-01
 -1.7812929e+00
 -2.5816619e+00
  7.1238035e-01
  1.1237755e-01
  1.7574586e+00
 -2.5840092e-01
  3.1907520e-01
  2.1527672e+00
 -3.6335826e-01
  3.5394804e+00
 -2.0577641e+00
 -3.1502739e-01
  2.7395017e+00
 -1.1222219e+00
  1.5996504e+00
 -6.2544274e-01
  1.7832125e+00
  2.9480913e+00
  6.5145701e-01
  3.0431724e+00
  4.4907701e-01
 -7.6593208e-01
 -6.3455552e-01
  2.6894188e-01
  1.6500157e+00
 -3.6867063e+00
  4.3562260e-01
  5.0979310e-01
  1.2890151e-01
  6.8932801e-01
 -2.6529670e-01
 -2.2392513e-01
  9.4529587e-01
 -1.1000845e+00
 -1.3223199e+00
 -1.1324420e+00
 -3.9482421e-01
  1.0197970e+00
  1.4087965e+00
  2.5408354e+00
 -3.6956151e+00
 -1.5647055e-01
  7.6072407e-01
 -6.7048877e-02
  1.5720155e+00
 -6.6806269e-01
 -1.7075487e+00
  1.9779615e+00
  9.5268393e-01
  1.5685766e+00
 -5.0523216e-01
 -1.6180029e+00
 -9.0329480e-01
  2.5900917e+00
 -1.6529294e+00
 -1.2296326e+00
 -2.6503108e+00
 -1.3075701e+00
  1.9735341e+00
  7.9222786e-01
 -1.5669677e+00
  6.8802059e-01
  3.3732611e-01
 -1.1640854e+00
  4.8604134e-01
 -6.1541742e-01
  4.6644750e-01
  1.8063594e-01
  6.3039996e-02
 -1.0409206e+00
 -4.8723974e+00
 -4.7668523e-01
 -4.4958603e-01
 -7.3625195e-01
  2.5387750e+00
 -3.5900133e+00
 -2.7465324e+00
  1.3629353e+00
  9.4749019e-02
 -1.6145173e-01
 -5.1913589e-02
 -1.8440430e+00
  1.4836190e+00
  2.3534897e-01
  1.0739237e+00
  3.4871602e-01
 -2.0980330e+00
 -1.0672690e+00
  2.3587427e+00
  1.0637283e+00
  1.0442756e+00
  6.3570642e-01
 -1.3621447e+00
 -8.9419192e-01
  1.6639515e+00
 -7.8475738e-01
 -1.6944537e+00
 -9.8755467e-01
 -4.8451164e-01
  1.0615032e+00
  1.3184009e-01
 -2.4788779e-01
  1.0226296e+00
 -3.5434976e-01
 -2.1577638e-01
 -4.2869210e-01
  1.5989186e-01
 -7.5147748e-01
  2.5698528e+00
  2.5036016e-01
 -1.8165897e+00
  4.9545851e-01
 -1.6048792e-01
 -6.2116843e-01
  5.6563503e-01
  5.8060372e-01
  1.6242820e+00
  1.5768923e+00
  1.1750014e+00
 -4.3508637e-01
 -3.8026264e-01
 -5.3045267e-01
 -3.1388217e-01
 -1.0593965e+00
 -1.4210169e+00
  1.9617813e+00
  2.2486301e-01
  1.0292789e+00
 -8.3760321e-02
  3.3066721e+00
  1.4367185e+00
  1.4942552e+00
 -1.3874701e+00
  9.2306370e-01
  1.2199616e+00
 -1.1631589e-01
 -1.1698338e+00
  7.4668097e-01
 -8.7662965e-01
  1.0197563e-01
  3.5927701e+00
 -3.3915728e-01
 -6.8997157e-01
 -2.1607566e-01
 -1.4558201e+00
 -8.0577576e-01
  5.0559795e-01
  2.6410669e-01
 -2.3536319e-01
 -8.3400619e-01
  6.4159811e-01
 -1.5808042e+00
 -3.6467534e-01
  1.1855854e+00
 -1.7563051e+00
 -1.8471197e+00
 -1.4003425e+00
 -5.6991976e-02
 -2.0598750e+00
  4.3991709e-01
  7.1927482e-01
 -9.7045344e-01
 -1.1947256e-01
 -3.8335633e-01
 -2.5273731e+00
  2.0079708e+00
  4.5269966e-01
 -2.5453478e-01
 -8.5632592e-01
 -1.3090464e-01
 -6.5007913e-01
  5.8834326e-01
 -8.1913716e-01
  1.7050821e-01
 -3.0678195e-01
  1.4558390e+00
  2.0941751e+00
  7.7432811e-01
 -8.4982491e-01
 -1.8438806e-01
  1.6167824e+00
  6.0170013e-01
  3.9935255e+00
  1.5118183e-01
  2.0124234e-01
 -4.2963728e-01
  1.0736881e-01
  6.6268861e-01
  6.9773769e-01
  1.0542428e+00
  8.5042155e-01
  6.9254035e-01
 -3.1963786e-01
 -4.4642517e-01
 -4.3234006e-01
  3.2727246e+00
 -1.7102799e-01
 -5.5738318e-01
  5.0381962e-02
  4.8134607e-01
  1.3704551e+00
  3.9925301e-01
  2.3695566e-01
  3.0752645e+00
  1.2882406e+00
  1.4269392e+00
 -1.3105240e+00
  7.0596415e-01
  5.2625734e-01
  3.1995746e-01
  1.8269873e+00
 -3.2427016e-01
 -3.5326579e-01
 -3.2274204e-01
  7.3399585e-01
 -1.0367353e+00
  3.6426976e-02
  9.7347224e-01
  9.8497444e-01
  1.7323631e+00
  4.9697158e-01
  2.7590200e-01
 -8.8304955e-01
  4.3807051e-01
  1.1662518e+00
 -1.4230300e+00
  1.0794392e-02
  1.7023733e-01
  4.7634054e-02
 -1.1671131e+00
 -2.1979570e+00
 -2.4038906e+00
  1.3669143e+00
 -2.2324689e-01
  1.4521027e+00
  6.4197993e-01
  3.1926227e+00
 -6.2644428e-01
 -1.0702851e-01
  1.4891973e-01
  9.2097765e-01
  3.7569663e-01
  1.4468153e-01
 -4.1738030e-01
  6.6416168e-01
  5.3396040e-01
 -2.7969718e-01
  1.8751638e-01
 -3.3375457e-01
 -1.7350214e+00
 -1.8787229e-01
 -3.9967152e-01
 -2.3731239e+00
 -1.4753624e+00
  1.8827386e-01
 -1.5888494e+00
 -2.5519884e-01
 -6.5638262e-01
 -9.7285563e-01
  4.4053450e-01
 -7.1829325e-01
 -1.5665758e+00
  3.8550572e+00
 -4.1553700e-01
 -1.2617697e+00
  1.2498573e+00
 -1.2855711e+00
 -3.0734533e-01
  1.5328304e-01
 -5.3840089e-01
  8.0348092e-01
  1.9116481e-01
 -1.3353643e-03
  5.7337835e-02
 -3.9422189e-04
  4.5541784e-01
 -2.9771557e-01
 -3.7681720e-01
  8.1090373e-01
 -3.1007342e+00
 -2.7048704e-01
 -7.3364246e-01
  9.3923873e-01
 -6.5334344e-01
  1.9817557e+00
 -2.1892214e+00
  1.2382916e+00
 -1.1704300e-02
 -4.6467069e-01
  2.0609820e+00
  9.8407781e-01
  9.4490170e-01
 -1.0697935e+00
  6.7304379e-01
 -1.2287934e+00
 -1.0845451e+00
 -1.8942991e+00
 -8.1417685e+00
  2.0638001e+00
 -1.2362492e+00
  7.3767871e-01
  9.5888788e-01
  1.2238584e+00
  1.9126399e-01
  4.9821782e-01
 -2.1228793e+00
 -2.7992420e+00
  1.0953686e+00
  4.9351195e-01
  6.3617969e-01
 -3.1975043e-01
 -4.6341902e-01
  3.7449077e-01
 -1.0193892e+00
 -3.2207006e-01
  8.0942404e-01
 -3.5348603e-01
  4.3203646e-01
 -5.2675498e-01
 -2.8518525e-01
 -3.9362812e-01
 -2.7825987e-01
 -1.0455941e+00
  5.9888345e-01
 -4.4960487e-01
 -1.0277588e+00
 -1.3063992e+00
 -5.1981181e-01
  7.2152084e-01
  1.4168332e+00
 -1.2292567e+00
  1.5715821e-01
  3.6338595e-01
  1.3099960e+00
  1.4476445e-01
  1.0437360e+00
 -9.8392743e-01
  3.4728095e-02
 -1.0744920e+00
  5.1739383e-01
 -7.7685344e-01
 -9.2258441e-01
 -2.1374404e-01
 -7.0914739e-01
 -1.1607985e+00
  1.0299139e+00
  1.1213565e+00
  7.6622784e-02
  3.0237439e-01
 -1.0578824e+00
  1.2634869e+00
 -1.5888123e-01
 -1.5417802e+00
  5.9768075e-01
  2.1146481e-01
  7.4852787e-02
 -1.3817691e+00
 -1.2327309e+00
  1.7850243e+00
  3.3182150e-01
  2.2414827e+00
  3.1072023e+00
 -3.4119217e+00
  1.8858567e+00
 -2.4436030e-01
 -2.6269119e+00
  1.6310713e+00
  2.2475171e-01
  1.7358793e+00
 -5.3191310e-01
 -2.9270008e+00
  1.8002393e+00
 -9.6888578e-01
 -5.8402067e-01
 -7.1889544e-01
  7.0969701e-01
 -2.2362962e+00
  1.4196923e+00
 -5.1772392e-01
 -7.5176233e-01
 -3.5135067e-01
 -9.8795950e-01
 -6.4415681e-01
 -5.5094427e-01
 -1.3360238e-01
 -3.5363209e-01
  1.8703781e+00
 -2.6207752e+00
 -1.8341010e+00
  1.7727021e+00
  1.0877850e-03
 -6.4251858e-01
 -1.5522149e+00
  1.6091597e-01
  9.7887784e-01
  1.1384785e+00
  2.0140336e+00
 -7.8917742e-01
  4.0996337e-01
  9.5510191e-01
 -1.0131492e-01
  2.1549726e-01
 -9.2940235e-01
 -2.8269693e-01
  6.7384762e-01
  2.0937333e-01
  1.3785666e+00
  1.1432940e+00
 -4.6824764e-02
 -4.8107755e-01
 -6.8894225e-01
  4.5998824e-01
 -5.6542373e-01
 -2.8642383e-01
 -7.4601859e-01
 -6.2251586e-01
  6.9153398e-01
 -1.0272006e+00
  1.1923800e-01
 -2.0067264e-01
 -3.0680895e-01
  1.3388847e+00
 -2.2706277e+00
  1.0840088e+00
 -2.2489009e+00
 -2.1906950e+00
  6.7733133e-01
  6.7775410e-01
 -2.4280693e-01
  9.4973308e-01
 -3.5934763e+00
  2.9803219e+00
  1.0374452e+00
 -1.6462371e+00
  2.2334085e+00
 -1.9946128e+00
 -1.8217291e+00
 -9.6801972e-01
 -2.3540424e-01
 -2.4957449e+00
 -2.6202555e+00
 -7.6208961e-01
 -7.5028306e-01
 -5.1022738e-01
 -1.9108316e+00
 -2.2550621e+00
  4.9469104e-01
 -8.9479136e-01
 -1.2887779e-01
  1.4522889e+00
 -3.7932608e-01
 -1.9071485e-01
 -8.9460939e-01
  1.2564100e+00
  3.5111833e-01
 -1.0174669e+00
  4.7071022e-01
  5.3404367e-01
 -2.3406026e-01
 -8.2093346e-01
 -3.8787451e-01
 -3.8515229e-02
  1.4281862e+00
 -1.0691330e+00
 -9.0842956e-01
 -2.1963318e-01
  6.6833772e-02
 -1.1641934e-01
 -9.8569167e-01
 -3.6421397e-01
  4.6069339e-01
 -1.0859096e+00
  7.3139316e-01
 -3.7903669e-01
 -4.8468229e-01
  3.5012320e-01
 -4.4829887e-01
 -1.4051540e+00
 -7.8640562e-01
 -1.2609979e+00
 -1.3427733e-01
  1.2125497e-01
 -3.6753175e-01
 -4.6318552e-01
  7.4428862e-01
  9.7193950e-01
  4.4739780e-01
  7.8711289e-01
 -2.0850198e-01
 -4.8902106e-02
 -1.1208334e+00
  8.1171101e-01
  2.6145598e-02
 -1.2861081e+00
 -4.0945065e-01
 -4.7344407e-01
 -4.9472403e-02
 -3.7382638e-01
 -5.2829349e-01
 -1.9763172e-01
  4.4707346e-01
 -2.3474708e-01
 -1.4161068e+00
  4.5628569e-01
 -9.6962476e-01
 -2.1128495e-01
  5.2222842e-01
  7.1702015e-01
  3.7590313e-01
  1.6538864e+00
 -8.1469244e-01
 -9.4152570e-01
  1.2875766e+00
 -7.4927092e-02
 -1.8349925e+00
 -9.8936546e-01
 -1.9428876e-01
  1.4493242e-02
  1.6362106e+00
 -1.9568803e+00
 -5.9609908e-01
  8.6173318e-02
  1.5447861e+00
 -1.5020640e-01
  3.3466828e-01
 -1.3217237e+00
 -1.3145041e+00
  8.4116471e-01
 -9.3871586e-02
  1.1054544e+00
 -4.9727589e-01
 -8.0242687e-01
  1.4202616e-01
 -1.0394954e-01
 -6.4347005e-01
 -3.3419591e-01
  1.5896779e+00
  1.8719667e+00
  6.6401124e-01
 -1.4718075e+00
  2.6607119e-02
 -5.6596118e-01
  1.4123669e+00
  8.5478795e-01
 -5.6365836e-01
 -1.2544593e+00
  1.7576761e+00
 -3.1019324e-01
  5.8774483e-01
 -1.2747729e+00
  3.6170438e-01
 -8.5079640e-01
 -1.0176218e-01
  2.0633988e-01
  3.3400002e-01
  4.5738512e-01
  2.8936940e-01
  5.1559287e-01
 -1.0949416e+00
 -3.0471098e-01
  3.3088889e+00
  8.7421441e-01
 -8.9110649e-01
 -1.2792335e+00
  2.4406920e-01
 -2.1476269e+00
  1.1036682e-01
  1.6467949e+00
 -1.0880419e+00
  8.0958448e-02
 -2.9871693e+00
 -1.9268373e-01
 -2.6984182e-01
 -6.3703102e-01
 -1.7237217e+00
 -2.4799120e-01
 -9.4218284e-01
 -2.9045696e+00
 -4.9054325e-01
 -5.3726864e-01
  1.2031668e+00
 -5.2964002e-01
 -3.5026348e-01
 -7.8050470e-01
 -2.7597392e+00
 -2.7120438e-01
  9.2062795e-01
  2.1930993e+00
 -2.1868081e-01
 -2.1161800e-03
 -7.9025477e-01
 -2.2392502e+00
 -8.4478861e-01
 -7.3833269e-01
 -1.3175343e+00
  1.1041826e+00
  4.5143145e-01
  1.6213992e+00
 -1.1049827e+00
 -1.6766002e+00
  1.9077065e+00
  6.3715324e-02
 -5.0979400e-01
 -3.8510859e-01
  1.0671365e+00
 -2.7217522e-01
  1.5364362e-01
 -1.5484256e-01
 -1.7566282e+00
  1.9369232e-02
  1.3585017e+00
 -1.0582647e+00
  8.6285770e-01
  4.4780788e-01
 -2.7107241e+00
 -4.9385425e-01
 -8.6316693e-01
 -1.2733039e+00
 -1.2562551e+00
  1.0515046e+00
 -2.8553686e-01
  4.6474734e-01
 -3.3531111e-01
 -8.2665068e-01
  3.5956469e-01
 -2.7892455e-01
  1.6758338e+00
 -6.0784024e-01
  1.0841435e-01
  1.7206396e+00
  1.1179427e+00
  2.2454023e-01
 -3.7203746e+00
 -1.8681548e+00
  7.0833251e-02
 -1.8763711e+00
  1.0030626e+00
  3.4851822e-01
 -7.8447439e-02
 -2.1996043e+00
 -2.1745877e+00
  5.6833631e-01
 -1.0357524e+00
 -3.9078179e-01
 -8.5570198e-01
 -1.3174660e+00
 -9.4542943e-02
  6.0253453e-01
 -1.0149549e+00
  3.6115691e-01
 -1.0985285e+00
 -5.1731479e-01
  1.7150728e+00
  2.8780608e+00
 -9.1394015e-02
 -2.6350896e+00
  1.7747949e+00
  3.1067207e-01
  8.3549917e-01
 -3.3326688e-01
 -1.4327249e-01
  1.0263323e+00
  5.9282082e-01
  1.0601256e+00
 -9.7231179e-01
  2.4857891e-01
 -9.2946362e-01
  1.9837631e+00
  1.3310877e+00
  9.2716688e-01
  1.5616610e+00
 -7.9660015e+00
  5.6698076e-02
  2.4037895e-01
 -2.4678788e+00
 -2.7957672e-01
  2.7742288e+00
  1.0175173e+00
 -6.4753699e-01
 -2.6235781e+00
  1.6316046e+00
 -1.3975048e+00
  1.4799997e+00
 -1.0901585e-01
  1.1098143e+00
  1.7803703e-01
  6.7801207e-01
 -5.6534570e-01
 -6.9667554e-01
  1.0606194e-01
  2.0023270e+00
 -5.5784744e-01
 -1.7102283e-01
  7.5870097e-01
  3.7829478e+00
  5.9955567e-01
  1.4520134e+00
  3.9237165e-01
  3.0689821e-01
  4.9200732e-01
  2.6240304e+00
 -1.2647019e-01
  3.0039189e+00
  9.6690333e-01
 -3.1348724e+00
 -1.4836138e+00
  2.5700154e+00
 -1.9044615e+00
  9.4765943e-01
  7.0973235e-01
 -2.3538756e+00
 -1.7057078e+00
 -1.4083282e+00
  1.3151149e+00
 -1.8036737e+00
 -2.1489236e-01
  1.1010020e+00
 -6.1600447e-01
 -5.9951025e-01
 -3.2984301e-01
  9.2728686e-01
  9.2671269e-01
 -1.1037284e+00
  1.7503309e-01
 -2.7410631e+00
  6.5024406e-02
  1.5396737e+00
 -2.0439427e-01
  1.3248777e-01
 -2.5664926e-01
 -3.3703008e-01
  3.9244369e-01
 -9.0354994e-02
  9.2753120e-02
 -1.7844350e+00
 -2.4722703e+00
  1.6436608e+00
  2.9347628e-01
 -1.9881855e+00
  1.0369025e+00
 -5.0690806e-01
  1.1412690e+00
  1.9346737e+00
 -2.4378278e+00
  4.3977264e-01
 -1.4110454e+00
  1.7199781e+00
  3.2634612e-02
  1.4131879e+00
 -2.4519828e-01
 -8.7542456e-01
  1.6692851e+00
  1.6759059e+00
 -3.0947676e-01
 -1.0573894e+00
  3.9571267e-01
  5.9946620e-01
  3.3788300e-01
 -1.0971712e-01
  1.5797999e+00
 -7.6762807e-01
 -8.6708051e-01
 -2.1215153e+00
 -1.1045112e-01
  7.1795505e-01
 -1.2330655e+00
 -2.7722755e-02
 -2.9113966e-01
 -8.9207210e-02
  1.1053526e+00
 -5.1795870e-01
  1.0023574e+00
 -3.9255245e+00
  1.3074360e+00
  1.1868714e+00
 -4.6163064e-01
 -8.9171392e-01
 -2.7538964e-01
  2.1463025e-01
  1.7850457e+00
 -2.1532915e+00
 -8.4588397e-01
 -6.3899446e-01
  7.9390877e-01
  1.1336632e+00
 -2.6037768e-01
 -2.8631642e+00
  2.3908081e+00
 -9.8925248e-02
  9.5612153e-02
 -5.9715486e-01
  3.6406210e-01
 -2.1216893e+00
 -3.6093342e-01
  5.5392039e-01
 -1.0023146e+00
  9.2062974e-01
  3.3151555e+00
  1.3133454e+00
 -9.2953509e-01
  1.4288577e+00
 -6.6855860e-01
 -2.3504840e-01
 -5.8899617e-01
 -1.7617997e+00
 -1.1095618e-01
  2.0688696e-02
  4.0382094e+00
  1.0748463e+00
  3.5655206e-01
 -1.0166012e+00
 -3.5394418e+00
 -1.1397102e+00
  8.0468869e-01
  2.3025072e+00
 -4.1918116e+00
  2.6527292e-01
  1.0851896e+00
 -7.3434389e-01
  4.3884478e+00
 -9.4674647e-01
 -6.0900789e-01
  2.2735598e+00
 -8.1979170e-02
 -1.0234352e-01
  1.6574951e+00
  9.6059006e-01
  1.9901404e-01
 -1.6545208e+00
  1.6729199e+00
 -1.6329758e+00
 -3.8811478e-01
  3.8605640e+00
 -3.0942444e-02
  1.4816974e+00
 -7.0700139e-02
 -9.7286433e-04
  8.0058795e-01
 -1.0474020e+00
 -8.0675550e-02
 -2.5884898e+00
 -1.6972607e+00
 -3.3809945e-01
 -2.9160352e+00
  2.7816048e+00
 -8.3774328e-02
 -5.0147045e-01
 -1.7131292e+00
 -8.9320654e-01
  4.4681165e-01
  4.7424674e-01
  1.3328642e+00
  5.0314963e-01
 -4.5968902e-01
  5.1873678e-01
 -4.6650866e-01
  1.6515905e+00
  1.1390542e+00
 -2.7995872e+00
 -2.4551798e-01
 -1.2070508e+00
  6.8007812e-02
  1.5305620e+00
  1.8176312e+00
  7.0038652e-01
  1.6073461e+00
  2.2244695e-01
  8.1711590e-01
  4.8062471e-01
 -1.3083854e+00
  8.0983418e-01
 -1.2328840e-01
  7.9759771e-01
  6.5007991e-01
 -3.8936085e-01
 -1.8360252e+00
 -2.3040614e+00
  1.9045356e-01
 -1.2742324e+00
 -3.3502033e-01
  1.4993464e+00
 -8.4871817e-01
  3.9431745e-01
 -6.8924509e-02
  1.1366557e+00
  8.6486965e-01
  5.4751742e-01
  3.0896666e+00
 -1.3484988e+00
 -1.7906924e+00
  6.8421708e-04
 -1.6541147e+00
  2.2149146e+00
 -2.0188727e+00
  1.1542169e-01
  1.5325624e+00
 -7.6529229e-01
  7.4397415e-01
 -5.8251996e-02
 -3.5018454e+00
 -4.3525968e+00
 -4.2461088e-01
 -1.1439784e-01
 -1.2957820e+00
  1.4458610e-01
  5.0344324e-01
  4.4578925e-02
 -4.1160874e-02
  3.9251536e-01
 -7.9341257e-01
 -9.6424705e-01
  2.4626341e-01
  2.5085254e+00
  8.6857194e-01
  3.6468010e-02
  1.6024107e+00
  2.4454999e+00
 -2.5396030e+00
  1.1167259e+00
 -9.4818339e-02
  3.1386092e+00
 -5.1753874e+00
  1.0427171e+00
  6.9680560e-01
 -3.8137224e-01
  8.7206107e-01
  2.8203139e-01
  3.5673043e-01
 -3.5838121e-01
 -2.8979857e-03
  1.0781142e+00
  1.4040298e+00
 -1.3765192e+00
 -1.3101255e+00
  1.0872184e+00
 -2.3345878e+00
 -1.2478337e+00
  8.4545448e-02
  2.0788579e-01
  7.8177053e-01
  6.6054709e-02
  2.3631818e+00
  4.8604783e-01
 -1.2343478e+00
 -3.8796777e-01
 -2.3238857e-01
  5.1977676e-01
 -2.1842351e+00
 -1.1218250e+00
 -2.0826552e+00
 -1.9842989e+00
  2.4208827e+00
  2.5397623e+00
 -3.3449650e-02
  1.4162596e+00
  2.1187714e-01
 -2.0824370e+00
  1.1204829e+00
  1.5515815e-01
 -4.1866103e-01
  6.3017505e-01
 -3.0413284e+00
  1.9974911e+00
  1.7819207e+00
 -2.4801071e+00
 -1.9383265e+00
 -1.8910789e-01
  7.3149925e-01
 -1.1312779e-01
 -7.3613697e-01
 -1.5061425e+00
  1.9263345e+00
  4.1942534e-01
 -7.6250449e-02
  5.6007403e-01
 -4.9259400e-01
  3.7390321e-01
 -4.1816524e-01
  1.0569271e-01
  1.1075834e+00
  2.0196141e-01
 -4.4363257e-01
 -2.0382385e-01
 -1.9819763e+00
  4.6799654e-01
 -2.3890085e+00
 -4.9777293e-01
 -1.1261652e+00
 -4.7958720e-02
  6.1863279e-01
 -3.7719136e-01
  2.5200120e-01
  5.2401769e-01
 -7.0182151e-01
 -3.8290638e-01
  7.4952376e-01
  1.7212375e+00
 -7.4673377e-02
  3.3323789e-01
 -6.8467654e-02
 -2.1911077e+00
 -1.2040057e+00
 -6.4844650e-01
  1.4051478e+00
  1.3118354e+00
  2.1974046e+00
 -1.0650898e+00
  4.7215514e-02
 -5.7230580e-01
 -1.1287228e+00
 -4.1232127e-01
 -6.4742023e-01
  6.6296446e-01
  7.4665740e-02
  1.8435571e-01
  4.3351138e-01
  1.1514124e+00
 -3.8904718e-01
  9.6309870e-01
 -5.4343611e-01
 -2.2348017e-01
 -1.8208077e+00
 -8.1063133e-01
  5.7816476e-01
  2.2043114e+00
  3.5092506e+00
  3.6222574e-01
 -2.6079955e+00
 -1.1026675e-01
  1.4889084e+00
 -1.3964275e+00
  5.0449145e-01
  1.4576327e+00
 -9.9335098e-01
  7.0749231e-02
  1.7489675e-02
 -1.0238270e+00
  1.3567883e+00
  1.2144514e+00
  1.5703703e+00
 -6.6663057e-01
  1.8427136e+00
  1.2534517e+00
  1.0114887e-01
  1.2576993e+00
 -3.9308456e-01
 -4.2310736e-01
  1.8576601e-01
  5.0891507e-01
  6.0163045e-01
  9.2648274e-01
 -2.3464429e+00
 -5.9261590e-01
 -9.4580942e-01
 -1.3846012e+00
  4.5847008e-01
 -1.9343106e+00
 -5.8106158e-02
  8.0498230e-01
  1.0494661e+00
 -3.0686891e-01
 -1.4269215e+00
 -2.2926912e+00
  6.8793565e-01
  3.2355881e+00
 -1.4026345e-01
 -8.9208877e-01
  2.0786962e-01
 -5.8646524e-01
 -3.6625698e-02
 -1.3158822e+00
 -7.1891731e-01
 -7.4720770e-01
  4.1331196e+00
  4.1116267e-01
  6.4581394e-01
 -1.6544752e+00
 -1.1126928e+00
  3.2786518e-02
 -1.2140199e+00
  4.4925588e-01
  1.7135729e-01
 -1.1720092e+00
  2.0501266e-01
  3.8771018e-01
  3.6846176e-01
 -5.4789454e-01
 -2.3241122e+00
  3.0670670e-01
  5.8051735e-01
 -2.7519506e-01
  3.6353278e-01
  7.7042812e-01
  1.4651428e+00
 -1.1438885e+00
  1.2679831e+00
 -4.0274870e-01
  1.9086716e+00
  6.3576275e-01
 -1.5602608e+00
  3.1372923e-01
 -3.0597132e-01
  1.2189331e+00
  1.1314752e+00
 -5.3133965e-01
  6.5626293e-01
 -5.3562003e-01
  5.0495607e-01
 -1.3412479e+00
 -4.9655133e-01
  2.5934085e-01
 -2.1979902e+00
 -4.5138496e-01
 -6.4380902e-01
 -1.3680234e+00
 -2.2917339e-01
  2.7503154e-01
 -9.1685778e-01
  4.8337397e-01
 -9.3504362e-02
  1.2299422e+00
  6.0923922e-01
 -1.9296727e+00
  1.5008813e-02
 -2.1129401e+00
 -1.3536750e+00
  7.9278117e-01
  1.1082486e+00
 -7.8904486e-01
 -1.3557470e-01
 -2.3873794e+00
 -2.3340538e-02
  1.3627510e+00
 -1.4920058e+00
  6.3365683e-02
 -3.9494705e-01
 -5.4878380e-02
 -3.7575104e+00
 -1.5535814e-01
  2.4516757e+00
 -2.3116529e+00
  1.6886990e+00
  8.0309671e-01
 -6.7157310e-01
 -6.6005498e-01
 -1.0404531e+00
 -3.3078948e-01
 -6.1212164e-01
  2.8527972e-01
  2.1713374e+00
  2.8384560e-01
 -4.3906167e-01
  3.2534052e-02
  1.0552905e+00
  4.4769582e-01
  1.8922803e-01
  2.1099605e-02
  2.7577156e-01
  5.8383173e-01
 -1.9536464e+00
 -1.0357131e+00
 -8.0161858e-01
  6.5126091e-01
  6.2711269e-01
  6.6707301e-01
  2.8564527e+00
  3.0715973e+00
 -1.1770358e+00
 -7.7052563e-01
  7.3728395e-01
  5.2732095e-02
 -1.3405493e+00
 -5.2907541e-02
 -4.4523385e-01
  1.3006973e+00
 -3.9515042e-01
  5.4102635e-01
 -1.5814608e-01
  7.5981230e-01
  9.4351405e-01
  3.4879932e-01
 -1.1881164e+00
  1.4159985e+00
  1.3714559e-01
 -8.4012277e-02
  1.2163616e+00
  5.1499182e-01
 -1.2604702e-01
 -1.0025591e+00
  4.1036451e-01
  1.0343903e+00
 -1.9320582e+00
 -1.2837269e+00
 -3.5235937e+00
 -3.1386075e+00
  2.2605169e+00
 -1.8964530e+00
  6.3783422e-02
  1.2752223e-01
  2.0056813e+00
  1.7542273e+00
 -4.8071387e-01
  1.2278788e+00
 -1.7621104e+00
  3.0529696e-01
 -7.4460948e-01
  1.2449368e+00
 -1.5705098e+00
 -1.0825415e+00
  3.6412629e-01
  1.3193899e+00
 -2.9181201e+00
  2.1467198e-02
 -1.0108613e+00
 -7.8328741e-01
 -1.4385339e+00
 -1.8818800e+00
  9.6590650e-01
  2.0313540e-01
  4.7375607e-01
 -4.0911463e-01
  2.0313675e+00
  2.7328661e-01
  8.0374223e-01
  4.0525311e-01
 -4.8409948e+00
 -2.2728014e+00
 -2.2288477e+00
 -6.8066788e-01
  1.1277682e+00
 -1.2981249e+00
 -4.2820191e+00
  7.2021761e+00
 -1.4285100e+00
  1.3794933e-01
  1.9135500e+00
  1.0127354e+00
 -1.1111846e-01
  2.4393547e+00
  1.2900262e+00
  2.3784990e+00
 -1.1529356e+00
  2.5006521e+00
  1.2181697e+00
  1.1949655e+00
  1.6417301e+00
 -1.5630383e+00
  7.0401073e-01
  3.2021036e+00
 -1.5021056e-01
  5.3683776e-01
 -9.5971400e-01
 -1.1877991e+00
 -9.4595355e-01
 -2.2342129e+00
 -2.9256111e-01
  9.4274467e-01
 -1.0767775e+00
 -2.8755710e-01
  9.8053110e-01
 -7.9004371e-01
  1.2510508e+00
 -3.0733415e-01
 -1.2039922e+00
  1.1339997e+00
  1.3158755e+00
  1.0296007e+00
 -4.4106621e-02
  5.1358122e-01
  1.2086704e+00
 -5.9814537e-01
  8.3736598e-02
 -6.7377770e-01
 -2.9552078e-01
  6.1930352e-01
  3.7684369e-01
 -4.1159779e-01
  5.5175871e-01
 -3.3297160e-01
  3.1914741e-01
  8.9263242e-01
 -4.3619236e-01
 -9.3482479e-02
  2.3575097e-01
 -9.0318692e-01
  1.1108864e-01
  1.7816629e-01
  4.8502067e-01
  3.9130726e-01
 -3.9996296e-02
 -7.4683130e-01
 -3.9049375e-01
 -5.7271361e-02
 -6.8929785e-01
 -2.7496761e-01
  3.1105659e+00
  7.4278611e-01
 -1.0882372e+00
  1.7604440e+00
 -2.5569305e-01
  2.6201352e-01
 -1.0475063e+00
  2.7994645e+00
 -8.4476829e-01
  3.8976364e-02
 -4.3763021e-01
  2.6848953e+00
  1.8577361e-01
  5.4736722e-01
 -8.4650093e-01
 -4.7185829e-01
  7.6096833e-01
  1.8186386e+00
 -1.1816237e+00
 -2.7529845e-02
  7.7744669e-01
  8.3429253e-01
  4.6872173e-02
 -8.1307811e-01
 -1.2975262e+00
 -2.2469348e-01
 -1.6559130e+00
 -1.9251142e+00
 -4.6450543e-01
 -1.2962043e-01
  1.9975221e+00
  1.6262970e+00
  5.4066598e-01
  1.0776294e+00
  1.2997338e+00
 -2.5474489e+00
  1.7878386e+00
 -2.3645175e+00
 -1.7896165e+00
 -7.5226718e-01
  1.2227947e+00
  1.7908201e-01
  6.4754432e-01
 -1.0991145e+00
  3.1763119e-01
  3.5009131e+00
 -3.5401046e+00
 -1.0837367e+00
  6.5090543e-01
 -4.6933773e-01
 -4.7663870e-01
  5.1965910e-01
 -1.4209435e+00
  1.1598189e-01
 -2.2240132e-02
  6.9120693e-01
 -2.0642525e-01
 -6.7602819e-01
  1.4070767e+00
  6.8461156e-01
 -4.9229898e+00
  2.1322861e+00
  5.2155743e+00
  5.9523791e-01
  2.8546429e-01
  3.2809135e-01
 -1.7237768e-01
  6.1867285e-01
  4.9092877e-01
 -1.8622328e-01
  3.6603503e+00
  5.0563103e-01
 -2.4871857e+00
 -3.5595506e-01
  1.2196468e+00
 -2.0997691e+00
  6.2424028e-01
 -1.7546705e+00
  6.3143706e-01
  1.7968892e+00
  2.7798159e+00
 -5.4233658e-01
 -2.6948351e-01
 -7.0119846e-01
  1.1041018e-01
 -1.4303670e+00
 -1.6082520e+00
 -8.8378197e-01
  1.3763428e+00
  7.9648119e-01
  1.0697606e+00
 -1.5375831e+00
 -1.4461434e+00
 -6.2359005e-01
 -1.5865820e-02
 -1.0797409e-01
  9.5444882e-01
 -9.0569901e-01
 -7.1376359e-01
  6.3811463e-01
 -3.9195311e-01
 -6.3488305e-01
  5.2713740e-01
  6.9022202e-01
 -1.6547897e-01
 -1.4724822e+00
 -3.0580108e+00
  5.2974677e-01
 -1.9097809e+00
  1.1322529e+00
  1.8305042e+00
  2.6696796e+00
 -1.5530773e+00
 -1.0574100e-01
  3.0703584e-02
  2.3994920e+00
 -2.0759380e+00
 -3.0300419e+00
 -5.0458145e-01
 -7.9704040e-01
  4.4757352e+00
 -1.9795864e+00
 -2.4059922e-02
  1.6398503e+00
 -4.2046788e-01
  1.0416948e+00
 -1.4667410e+00
 -1.2075993e+00
  2.1714692e+00
  4.8871756e-02
 -3.9497473e+00
  3.6981897e+00
 -3.1300366e-01
  2.4934022e+00
  2.1559253e+00
  5.1320046e-01
 -8.7882769e-01
  1.2278492e+00
 -1.8550619e-01
 -1.5409237e+00
  1.4348173e+00
  1.3582644e+00
 -3.4816821e+00
 -2.0414517e+00
  2.0630045e+00
 -1.3223689e+00
 -2.5076771e-01
  9.7981679e-01
 -1.7626444e-01
 -4.5911193e-01
 -3.2165641e-01
 -4.9103108e-01
  7.6830351e-01
  8.0493748e-01
 -2.5761163e-01
  8.5487562e-01
  9.3858111e-01
 -8.9550328e-01
 -1.6664588e-01
  1.2847807e+00
 -6.5323949e-01
 -6.4483100e-01
  3.5531908e-01
  6.1178464e-01
  2.5510499e-01
  2.7805433e+00
 -7.4415803e-01
 -1.0805509e+00
 -4.0784130e-01
 -3.4199238e-01
 -2.8105396e-01
 -1.2687299e+00
 -1.0441457e+00
  6.7837410e-02
 -1.0302752e+00
 -1.6778826e+00
 -2.1805716e-01
  7.2095364e-01
  3.7507820e-01
  3.0158868e-01
  7.2748208e-01
 -3.2542539e-01
  1.4924777e+00
 -9.4697684e-01
 -1.3676006e+00
  3.2535377e-01
 -2.1974320e+00
  1.0879319e+00
  2.3373176e-01
 -2.6828177e-02
  3.4000543e-01
 -9.0575641e-01
 -6.5590107e-01
  6.8868989e-01
 -6.6422671e-01
  1.2132586e+00
  1.3481716e+00
  1.2593408e+00
 -7.6221406e-01
 -6.8097639e-01
 -2.4863048e+00
 -1.6634561e-01
 -2.7421790e-01
  3.7559208e-02
 -2.1628265e-01
  7.3153108e-01
  4.1050762e-01
  7.2745883e-01
 -7.1351521e-02
 -1.7357579e+00
 -3.6156092e+00
  7.5143903e-01
 -9.8014903e-01
  4.5833507e-01
  1.8652186e+00
  5.6614435e-01
  2.1488986e+00
 -2.4051352e+00
 -4.5418358e-01
  7.3019779e-01
  2.5806677e-01
  1.1162207e+00
 -6.9229847e-01
  2.6373969e-02
  1.2298217e+00
  9.9582531e-02
  4.4631677e+00
 -1.5841933e+00
  2.3553333e+00
 -2.2624607e+00
  1.8287014e+00
  2.0234497e+00
  4.1533145e-01
  8.5197455e-01
  2.1389906e-01
  1.4200245e+00
  1.7103573e+00
  8.1986624e-01
  5.8407766e-01
 -5.6896728e-01
  3.1657284e-01
  1.0422498e+00
  9.5165633e-02
 -3.5412648e-01
 -4.8993459e-01
  1.5408413e+00
  1.2085961e+00
 -2.8693700e+00
 -7.2021924e-02
 -2.0208147e+00
  3.6105781e+00
 -4.8527056e-01
 -2.1722849e-01
  1.1416166e-01
  7.2969168e-01
 -1.7950612e+00
 -2.3371606e+00
 -6.0381204e-01
  1.4434816e-01
 -9.6771635e-02
 -6.5394759e-01
  8.7642443e-01
  4.2112789e-01
  6.7096162e-01
 -2.4776271e-01
 -1.9863307e+00
  2.2983410e+00
 -1.1544716e+00
  9.8609388e-01
 -9.7439557e-01
 -1.1764129e+00
  1.3824960e+00
  9.6168512e-01
  7.4958766e-01
  6.5268081e-01
 -9.0213728e-01
  1.2147262e-01
  2.2483766e-01
  8.8962466e-01
 -1.1231347e+00
  6.3956866e+00
  1.2689589e-01
 -1.4889454e+00
 -5.0353193e-01
 -1.8656728e+00
  4.5347481e+00
  4.9831218e-01
 -1.1376526e+00
 -1.5267959e-01
 -3.9847193e+00
  7.0411122e-01
  1.3776246e+00
 -3.1764002e+00
 -8.9644051e-01
 -2.1451173e+00
  1.4707813e+00
 -1.6123456e+00
 -1.2478501e+00
 -1.4980544e+00
 -1.5599650e+00
 -3.8032543e-03
 -1.7899936e+00
  2.5095513e-02
 -2.8118880e+00
 -1.6796896e+00
 -2.0966756e+00
 -1.2219826e+00
  1.3759445e+00
 -3.8776958e-01
 -2.9490215e-01
  7.3501331e-01
 -2.0542531e-01
 -6.1952525e-01
  3.3315298e-01
  1.2121489e+00
 -1.6225934e+00
 -2.6242573e+00
 -1.6042664e+00
 -2.6501222e+00
  2.0803385e+00
 -2.2312301e-01
 -7.4151295e-01
  9.7473222e-01
 -1.5280429e-01
 -4.8279503e-01
  1.0999265e+00
 -1.3121293e+00
  3.9850399e+00
 -2.0025182e-01
 -1.4615571e+00
  1.2382039e+00
  3.2336885e-01
  1.5510249e+00
 -7.3762149e-01
  3.4686005e-01
  3.5903162e-01
  6.9379933e-02
  3.8110691e-01
  1.5080967e+00
 -2.8423470e-01
  7.2073525e-01
  5.3314120e-01
  4.2596415e-01
  2.8864810e-01
  8.9266598e-01
  1.5065991e+00
 -6.7629325e-01
  1.3580869e-01
 -8.3575293e-02
  2.4469674e-01
 -3.7644905e-01
  9.3095016e-01
  1.1200099e+00
  8.4725773e-01
 -1.6049827e+00
 -3.2687563e-01
  3.4058580e-01
  2.3892381e+00
 -7.1816307e-01
  2.8055152e-01
 -7.1624094e-01
  3.1294620e+00
  9.6863639e-01
  2.1329173e-01
  2.8195100e+00
 -1.3712479e+00
 -5.0113612e-01
 -1.3532397e+00
  4.3194154e-01
  5.6184900e-01
 -3.6259503e+00
  2.7119725e+00
  9.9823689e-01
  1.4738134e+00
 -1.0495186e+00
  2.9080851e+00
 -2.1922131e-01
  3.1209749e-01
 -2.1307178e-01
 -9.7475570e-01
 -1.5292136e-01
  2.1356275e-02
 -6.6151184e-01
  3.5981730e-01
 -1.1661900e-01
  1.8042876e+00
  1.5585982e+00
 -2.9462859e-02
 -2.0404940e+00
  2.2713432e+00
 -1.9473013e+00
 -3.4040432e+00
  5.7654339e-01
 -4.5553126e+00
 -2.0941708e+00
  3.3299525e+00
  4.0170741e+00
  1.1482767e+00
  9.8574096e-01
 -1.3962597e+00
  2.9933250e+00
  1.9506523e-01
  7.1974504e-01
 -4.6613522e-02
  2.2563272e+00
  2.2028983e+00
 -6.3470298e-01
  1.2005620e+00
 -1.3893065e+00
  1.0217055e+00
  8.7679124e-01
 -3.4596062e+00
 -4.5649919e-01
  9.4959605e-01
  8.2687013e-02
 -1.7973708e+00
 -6.9234806e-01
 -2.2641383e-01
 -7.7996433e-01
  7.8294444e-01
  4.7446296e-01
  1.0688041e+00
 -4.6072683e-01
 -1.9344538e+00
  2.5160291e+00
 -5.9794283e-01
 -1.3956726e-01
  3.2842982e-01
  9.4536924e-01
  1.6810089e-01
 -3.8566431e-01
  1.2017827e+00
 -1.1391749e+00
  5.5520540e-01
 -1.6877465e+00
 -1.4744307e+00
  1.2738755e+00
 -6.4920783e-01
  1.5981526e+00
 -1.5946572e-01
  3.1780571e-01
  4.0893960e-01
  2.8498358e-01
  6.9216752e-01
 -4.6172664e-01
  2.1658578e+00
  4.0671021e-01
  2.1792197e+00
  4.5283720e-01
  5.4633009e-01
 -1.4229589e+00
  1.0480087e+00
  7.8468245e-01
 -1.0458599e-01
  1.6080911e-01
 -4.6680584e+00
 -2.1686338e-01
  8.2375699e-01
 -9.1733313e-01
  7.3523933e-01
 -1.8215909e+00
 -1.2129979e+00
  8.4074855e-01
  1.9609717e+00
  9.5936805e-01
 -8.4602785e-01
  2.7453718e+00
  7.3286754e-01
  3.5046640e-01
 -3.8368928e-01
  2.1675205e-01
  1.0627195e+00
  1.6985817e+00
  7.7544296e-01
  2.1995451e-01
 -2.4577734e+00
  3.1072369e+00
  1.8407501e+00
  2.9472566e-01
 -4.8963395e-01
 -2.1579474e-02
 -2.1050754e+00
  2.0733075e+00
  2.1116441e-01
  1.3905631e+00
 -2.3250805e-01
  8.8169110e-01
 -2.1741898e+00
  2.5114725e+00
 -1.7638400e+00
 -1.0687323e+00
 -2.9614061e-02
  9.5888535e-03
  1.6635904e-01
 -1.7215621e-01
  2.4449098e+00
 -5.2471346e-01
 -2.5705113e+00
  3.3280525e-01
 -6.9724798e-01
 -4.8517370e-01
  1.9069892e+00
 -1.7821264e-02
 -5.5397487e-01
  2.9086890e-02
 -4.1472480e-01
 -3.5284579e-02
  2.6366255e-01
 -1.1587960e-01
  2.6980340e-01
  8.9306927e-01
  7.4555963e-02
 -9.3080711e-01
  1.5217700e+00
  2.2799888e+00
 -2.4717100e+00
  2.0546209e-02
  6.5108997e-01
 -6.4644229e-01
  6.6299289e-01
  8.5254318e-01
  3.1420350e-01
  1.6164101e+00
 -4.3591300e-01
 -2.9907340e-01
  6.5216889e+00
  6.4308345e-01
  3.8608804e-01
  1.0223621e+00
  1.0095327e+00
  2.2834449e+00
  2.6592348e+00
 -3.8872371e+00
 -6.3545138e-01
 -5.5098718e-01
  2.0955369e+00
  1.8315229e+00
  4.6801832e-01
 -5.2650124e-01
 -1.1773831e+00
  1.7671827e+00
  5.5013925e-01
 -1.5413927e+00
 -7.5357491e-01
  2.3915761e+00
  1.5499370e+00
 -2.6534388e+00
  6.4791870e-01
  4.9835977e-01
  8.4274673e-01
 -5.6408219e+00
  1.6604641e-01
  1.4488875e+00
 -1.7742878e-01
 -1.3778666e+00
 -2.4701120e-02
  1.4414756e+00
 -1.1690576e+00
 -6.6310078e-01
  1.0161890e+00
 -1.6825086e+00
 -3.2238610e+00
  1.7889643e+00
  3.2321986e-02
 -7.1582013e-01
  7.5927979e-01
  2.4317485e-01
 -5.3761387e+00
 -2.5034270e-01
  2.4197832e-01
 -1.1624089e+00
  4.3952584e+00
  9.3802907e-02
  6.6798532e-01
  2.9532865e-01
  4.0859027e+00
 -2.6065462e+00
  8.2494849e-01
  1.9766274e-01
 -2.9697483e+00
 -1.6415396e+00
  3.9222118e-02
  1.2543093e+00
  3.6418486e-01
  9.0176105e-01
  5.5546546e-01
  1.2691383e+00
  5.1558477e-01
  9.4646269e-01
 -2.0390044e-01
  4.0754530e-01
 -1.7961805e+00
  5.0515670e-01
  6.0724771e-01
  8.0356367e-02
 -2.0737875e+00
 -6.5401912e-01
  1.8524925e+00
  1.5009052e-01
 -1.6985954e+00
  1.1290994e+00
  8.2869035e-01
 -1.8438473e-01
  2.9480257e+00
  2.2425592e+00
 -2.3940470e+00
 -5.7155079e-01
  6.6495079e-01
  1.6072210e+00
 -8.0688685e-01
 -4.1976336e-01
  4.0036622e-01
 -2.3924272e+00
  1.0146161e+00
 -3.3378112e-01
 -1.1269013e+00
 -1.6152940e+00
 -1.8579713e-01
 -1.4558874e+00
  7.1809942e-01
  4.4570446e-01
 -4.6268269e-02
 -2.4684866e-01
 -3.0546895e-01
 -3.9380908e-01
  5.5398619e-01
  6.9475836e-01
 -4.8979256e-01
 -2.8842434e-01
 -3.3857191e-01
 -2.1847388e-01
 -3.6363244e+00
  1.3065313e+00
  5.9363276e-01
  2.0525079e+00
 -4.8129886e-01
  1.0219979e+00
 -1.1932508e+00
 -1.5136473e+00
  2.1013188e+00
  1.1312263e+00
 -1.4921137e+00
 -2.7790201e+00
  5.8543241e-01
 -7.0025659e-01
 -8.9924473e-01
  6.6281325e-01
 -5.0749224e-01
  4.3634853e-01
  8.5078669e-01
  5.5087262e-01
  2.8269565e+00
  1.9590680e-02
  1.6586233e+00
  1.0789404e-02
  2.3605194e+00
 -1.4980439e+00
  4.7806731e-01
  1.8672685e-01
 -2.9793218e-01
  5.6046379e-01
  7.0879763e-01
 -5.5832756e-01
  1.1244461e-01
 -1.0958593e+00
 -2.0173976e-01
  4.1369364e-01
  1.0457085e+00
  6.6762912e-01
 -4.3465905e+00
 -3.7254786e-01
  3.0016100e+00
  2.5818939e+00
  1.4432459e-01
  5.8389634e-01
 -3.7403765e+00
  3.1563652e+00
  1.0032254e+00
 -8.5217673e-01
  8.2476085e-01
  6.3610423e-01
 -3.3501751e+00
  3.1681371e-01
 -7.0210588e-01
 -6.1652398e-01
 -1.2949204e+00
 -7.4262410e-01
 -3.2371621e+00
 -7.6342350e-01
  7.5887936e-01
 -8.9657122e-01
  1.2659528e+00
  7.5917596e-01
  3.0365050e-02
 -6.3994855e-01
  1.7728810e-01
  8.6854291e-01
  8.3089244e-01
  4.2091528e-01
 -1.2256593e-01
 -5.4860201e+00
 -2.6994495e+00
 -2.2360594e+00
 -3.4246686e+00
  7.0223719e-01
 -4.0096750e+00
 -3.8156605e+00
 -1.0375859e+00
 -2.9162648e-01
  1.2207631e-01
 -9.1670406e-01
  2.3573105e+00
  2.9437492e+00
 -5.7798660e-01
  3.0852717e-01
 -8.6166018e-01
  3.5453491e+00
 -2.9768056e-01
  1.9691868e+00
  2.3106207e-01
 -2.5406837e-02
  1.6845012e+00
 -6.4106137e-01
  1.1664464e-01
  1.7545505e+00
  1.2744509e+00
 -2.3252642e+00
 -2.9179537e-01
  1.0781859e-01
 -2.3045106e+00
 -2.3836184e+00
  3.8136703e-01
  3.4195861e-01
  6.0112602e-01
 -4.8197573e-01
 -1.0078393e+00
  2.2304339e-02
  1.0060555e+00
  1.6379356e+00
  2.7117374e+00
  7.4349952e-01
  8.7311578e-01
 -1.3122650e+00
 -1.3409804e-01
 -3.5839695e-01
 -6.6781223e-01
  4.2728882e+00
 -8.6642081e-01
 -4.1377826e+00
  2.7313367e-01
  1.0750872e+00
  1.9393402e+00
  2.3124358e-01
  4.7546363e-01
  1.1092521e+00
  4.2431882e-01
  5.8595318e-01
 -1.1527141e-01
 -8.7131232e-01
  1.9969275e+00
 -8.9420170e-01
 -9.7679418e-01
 -1.2472408e+00
  2.1143720e+00
  1.2319269e+00
  4.9851897e-01
 -7.7017540e-01
  1.6053032e+00
 -6.4075178e-01
  2.9484811e-01
 -5.0201666e-01
 -9.3462038e-01
  1.1622535e+00
  5.5175048e-01
 -5.8193052e-01
 -7.1079677e-01
 -5.5427098e-01
 -9.6980828e-01
 -6.1834574e-02
  9.9748991e-02
 -3.5922718e-01
  2.2255924e+00
 -6.1628866e-01
  6.9711816e-01
  5.8820918e-02
 -3.0275042e+00
  1.8923628e+00
 -3.0173552e-01
  1.5988332e+00
  7.3243771e-03
  2.8773270e+00
 -3.4564536e+00
  2.3448470e+00
  8.4942198e-01
 -8.5296208e-01
 -3.1803551e-01
 -2.7418861e+00
 -6.9988620e-01
 -8.4452325e-01
 -2.4659444e-01
 -2.4149810e-01
 -3.9236984e-01
 -1.9444913e+00
  4.5878670e-01
 -9.9798614e-01
 -5.4450369e-01
 -9.1567177e-01
 -1.5649693e+00
  2.1248169e+00
  2.0499694e+00
 -1.1231847e+00
 -2.8532794e+00
 -1.8007003e-01
  7.3533237e-02
 -1.2462568e+00
  9.2060536e-01
  8.5156786e-01
 -1.1557624e+00
  1.2106125e+00
  9.3603349e-01
  1.4334487e+00
 -2.0641994e+00
 -2.7984431e+00
  9.7664487e-01
  9.4387108e-01
  2.8858869e+00
 -3.0745595e+00
 -4.8445213e-01
 -2.8514175e-02
 -1.5415981e+00
  1.4928536e+00
 -1.3286767e+00
  3.8229656e-01
  4.6236020e-01
 -2.9615769e-01
 -4.6151778e-01
 -1.6596380e+00
 -4.7787926e-01
 -7.6305562e-01
 -1.4396027e+00
  6.8971362e+00
  3.0627193e+00
 -5.0542682e-01
  2.9242417e-01
  5.9644365e-01
  9.5183200e-01
  1.1902504e+00
 -5.0508027e+00
 -2.7594545e-01
  7.4281675e-01
  4.1830392e+00
  1.7847883e+00
 -5.1998539e+00
 -4.4155943e-01
 -2.1961477e+00
  2.8775694e+00
 -1.2471371e+00
 -3.3688822e+00
  1.8630261e+00
 -1.4925120e+00
 -1.8854144e-01
 -2.0084231e+00
  9.2783526e-02
 -6.4007068e-01
 -4.0654323e-01
  1.3340575e+00
  1.1963038e+00
  3.2522014e-01
 -1.2136149e-01
 -2.0436664e+00
 -1.8550220e-01
 -1.6415587e-01
  3.6896417e-01
  5.8851713e-01
  2.0963237e+00
 -2.3495133e+00
 -1.6769732e+00
 -3.3511090e+00
 -1.7723718e+00
 -1.3973719e+00
 -4.7513416e-01
  2.5112684e+00
  2.4180558e+00
 -7.9021096e-01
 -5.5058986e-01
  3.4071025e-01
  5.3906116e+00
  2.3570073e-01
 -3.6483938e-01
  9.5312917e-01
 -2.4662292e+00
 -1.9056967e-02
 -2.1932600e-01
  9.9197680e-01
  3.4973202e+00
 -2.8523931e-03
  5.4029129e-02
 -5.1983148e-01
  2.2548099e+00
 -1.9071980e+00
  4.5610271e+00
 -7.2708827e-01
  1.4065984e+00
 -2.5410527e-01
 -2.3977544e+00
  1.1731076e-01
 -1.6290338e-01
 -1.3070052e+00
 -1.4577702e+00
 -1.3955781e+00
 -1.4861860e+00
  1.4550949e-02
  4.3487865e-01
  7.0339745e-01
 -2.5503848e+00
 -5.5648040e-02
  1.8434186e-01
  2.0122819e+00
 -3.1891069e-01
  7.1352023e-01
 -2.8385832e+00
  1.4237456e+00
 -1.2550902e+00
 -9.0917371e-02
 -1.8673457e-01
 -1.0125834e+00
 -8.5174620e-01
  6.1614060e-01
  1.3457640e+00
  3.3789560e-01
  8.2764256e-01
  8.1893319e-01
  6.5123403e-01
  6.1614076e-03
 -1.8261912e+00
  6.4202440e-01
 -2.4609122e-01
  2.9367426e-01
 -6.4029241e-01
 -5.5627459e-01
 -4.3275881e-01
  3.7719089e-01
 -1.8201674e+00
  2.2128269e-01
 -1.0030182e-01
  2.3134034e+00
  4.1357592e-01
 -1.3172177e+00
 -1.9837704e+00
 -1.2918713e+00
 -2.7288836e-01
 -3.6749780e+00
 -2.2008829e+00
  2.0633261e+00
 -1.1385436e+00
  2.1752877e+00
  8.4639788e-01
 -1.8091503e+00
 -2.0147443e+00
  1.1897897e+00
 -7.1048939e-01
  1.5334501e+00
  1.9335563e-01
  1.2539499e+00
  2.2524421e+00
  4.1410761e+00
  6.9981271e-01
 -3.3932382e-01
  9.9966073e-01
  1.8266536e-02
  2.1157254e-01
 -1.4838537e+00
  2.2902563e+00
 -3.3021990e-02
 -7.9020786e-01
 -5.6077719e-01
  4.0803030e-01
  9.5709288e-01
  6.2657857e-01
 -9.9039447e-01
  4.8763952e-03
 -6.4159125e-01
  1.5447034e+00
 -5.6242961e-01
  9.7772706e-01
  1.5200744e+00
 -3.8846262e-02
  5.7307076e-01
  2.9377446e-01
 -4.8388720e-02
  3.2131842e-01
 -2.0489590e+00
 -1.4917721e+00
 -2.9854152e+00
 -2.4208069e-01
  8.2881409e-01
 -4.0429244e+00
 -2.1260124e-01
 -1.3973036e+00
 -8.0463111e-01
 -4.4626299e-01
 -8.5250831e-01
  9.1942209e-01
 -1.3328711e+00
 -1.9474196e+00
 -1.4524888e+00
 -1.5906910e+00
  2.2376758e-01
 -1.8115375e+00
 -4.8765704e-01
 -7.5385827e-01
 -5.2739096e-01
 -1.2762057e+00
 -5.0044832e+00
  1.9632379e+00
  3.8795090e+00
  1.2803197e+00
 -4.5032758e-01
 -1.2632178e+00
 -9.7327161e-01
  8.1519479e-01
 -2.4121695e+00
 -3.2547987e+00
 -1.2829483e+00
 -1.1561586e+00
  1.4319734e-01
 -1.3238249e+00
 -8.7296921e-01
 -1.9687825e+00
 -7.4628150e-01
 -3.0995898e+00
  2.6488197e+00
 -8.1426054e-01
  1.6299398e-01
  2.2035401e+00
 -2.5687757e+00
 -1.5988730e+00
 -1.5821397e+00
  5.4216154e-02
  2.1746809e+00
 -2.8951840e+00
  2.1374273e+00
 -1.7262595e+00
  5.9234548e-01
  1.3546170e-01
 -5.7517999e-01
  6.0980672e-01
  1.2899950e+00
 -2.8730276e-01
  6.0967642e-01
  4.6420228e-01
  4.9011260e-01
 -1.0863334e+00
 -1.0711720e+00
  5.9434104e-01
 -3.0116384e+00
  4.0082583e+00
  3.3959467e+00
 -3.2440567e-01
  2.8504843e-01
 -2.4107883e+00
  3.1998060e+00
  1.7058094e-01
 -6.0317665e-01
 -6.8067652e-01
  4.7089076e-01
  1.4952785e-01
  1.2645427e+00
  8.0045015e-01
  6.7137647e-01
 -1.0308020e+00
  1.3597775e+00
  1.6170955e+00
  1.3659655e+00
 -9.5036185e-01
 -9.5438105e-01
  8.7503844e-01
 -6.0808259e-01
  1.1116331e+00
 -1.6881794e+00
  5.9058022e-01
 -1.2195255e+00
  3.8004366e-01
  1.2479769e-01
 -9.4885081e-01
  1.4800316e+00
 -2.2776444e+00
  2.5711882e+00
 -2.9980299e+00
  1.1885979e+00
  2.3920876e-01
  1.9783394e+00
  3.8173661e-01
 -4.8739558e-01
 -5.5527884e-01
  2.2077913e+00
  1.4211556e-01
 -3.3652527e+00
 -7.3414451e-01
 -4.0113908e-01
 -8.2019049e-01
 -2.5249836e+00
 -5.2810133e-01
 -9.4160193e-01
  9.4641650e-01
  5.0316334e-02
 -1.1936697e+00
 -2.1160429e+00
 -7.8348955e-03
  2.8699625e+00
  4.2893183e-01
  1.3025820e+00
  1.1648929e+00
  7.4024493e-01
  1.3919605e+00
  3.8474283e-01
 -4.0426001e-02
  7.8572625e-01
  5.0790638e-01
 -4.9444586e-01
  3.8308680e+00
  2.6560144e+00
 -2.3120356e+00
  2.5993941e-02
 -2.6197198e-01
 -2.0010775e-01
 -1.5674969e+00
  1.7969002e+00
  4.1165936e-01
 -3.4071285e-01
  1.7664475e+00
 -1.6258506e+00
  1.4928967e+00
 -1.1372380e+00
  7.2487466e-02
 -1.8326050e+00
  5.8115906e-01
  2.6798110e+00
 -8.6172330e-01
 -3.3343086e-01
 -6.4167911e-01
 -7.2095400e-01
  7.5009316e-01
 -2.5895780e-01
  1.7864476e+00
  1.2594604e+00
 -3.5879126e-01
 -6.7621732e-01
  1.7801787e-01
 -5.9791499e-01
  3.6507789e-02
  3.2015356e-01
  3.9502659e-01
  1.9882303e+00
  2.0998757e-01
  1.2263164e-02
 -4.1005387e+00
 -1.9546416e+00
 -1.2789942e+00
  1.8969783e+00
  6.0327621e+00
 -3.6909235e+00
  3.0240691e+00
 -2.7588348e+00
 -1.7389884e+00
  1.2266315e+00
  4.9415261e-01
  1.9261624e+00
 -1.2696699e+00
 -1.8546557e+00
 -2.0429580e+00
  1.2126362e+00
  3.7869072e-01
 -9.7477689e-02
  1.4771603e+00
  1.9235550e+00
  5.1638082e-02
  2.4718080e+00
 -1.3322474e+00
  1.1984364e+00
 -8.8023877e-01
 -2.7383263e+00
 -9.6875161e-01
 -4.2729047e-01
 -1.5269381e+00
  6.0370404e-01
  9.0820211e-01
  7.9649633e-01
 -1.8160172e-01
 -9.7087413e-02
 -5.0340915e+00
 -4.1859314e-01
 -2.5872955e+00
 -9.9836580e-02
 -1.9497335e+00
 -1.0424044e+00
 -1.2740533e+00
 -2.2925625e+00
 -1.0950189e+00
  1.2370525e-01
 -3.6000490e+00
  7.4444103e-01
  3.5278065e+00
 -4.3020764e-01
 -8.4972084e-01
 -1.3080045e+00
 -1.5548991e+00
 -1.2147986e+00
 -3.0435008e-01
  3.5789077e+00
 -1.7608370e+00
 -6.3955343e-01
  5.9324527e-01
 -1.2560716e-01
  1.9565451e+00
  1.6894766e+00
 -2.4594522e+00
 -2.5152647e-01
  9.1513139e-01
 -1.8372612e+00
  5.5471718e-01
  8.2500702e-01
  4.5796895e-01
  3.5305658e-01
  1.2816753e+00
 -1.1820671e-01
  1.6572175e+00
 -1.4177743e+00
 -7.0159787e-01
 -3.6235435e+00
 -7.0920300e-01
 -1.1728153e+00
 -1.2142771e+00
  4.5237592e-01
  6.4476931e-01
 -8.7822622e-01
  1.3573302e+00
  5.9672195e-01
 -1.8527348e+00
  5.4381639e-01
  8.3011532e-01
  2.1910389e-01
  1.1747690e+00
  8.9385629e-01
  2.6564064e+00
 -2.7940438e+00
  1.8611829e+00
 -1.5883105e+00
  5.3041571e-01
 -1.1134754e+00
  3.0992517e-01
 -6.3999701e-01
  4.8902658e-01
  5.0513154e-01
 -2.9775820e+00
  7.3293582e-02
  7.9590112e-01
  5.6243546e-02
 -5.5870783e-01
 -1.3251495e+00
 -5.2678313e+00
 -3.5454290e+00
  3.8249121e+00
  3.7113876e+00
  4.3461952e+00
  2.8948262e-01
 -1.2919803e+00
 -1.4276174e+00
  1.8790529e+00
 -1.6245929e+00
  1.4634517e+00
  1.1340096e+00
 -2.2519946e+00
  2.8880780e+00
 -5.9067726e-01
  5.1252317e-01
  2.1773446e+00
  2.1888123e+00
  7.1380854e+00
  3.7631390e+00
 -2.5588062e-01
  3.9219558e+00
  9.1124773e-01
  7.0068984e+00
 -4.4284591e-01
  8.8706249e-01
  3.4536669e+00
 -1.9467676e-02
 -3.4023413e-01
 -3.2838610e-01
 -8.8264930e-01
  2.8226621e+00
 -5.3043161e-02
 -1.1640637e+00
 -3.1216711e-01
 -1.2774431e+00
  9.6001053e-01
  1.8669977e+00
  1.0079230e+00
  1.6623656e+00
  5.7955670e-01
 -1.9419479e+00
  8.8382179e-01
  1.1377928e-02
 -1.0173340e-01
 -1.0433192e+00
 -1.5894023e+00
 -1.1453270e+00
  2.7833974e-02
 -2.8793588e-01
  5.6760776e-01
  1.0616835e+00
 -2.0291362e+00
 -1.3682010e+00
  1.0022001e+00
  2.2700253e+00
  2.2374084e+00
 -1.4227700e+00
 -1.1373134e+00
 -4.2648640e-01
 -1.6970916e-01
 -3.9663308e+00
 -2.0466394e+00
 -3.3976397e-01
 -5.5039096e-01
  5.4816759e-01
 -5.7538711e-02
 -1.3932143e+00
  2.5964707e-01
  7.2044742e-01
 -5.3226024e-01
  7.6441240e-01
  2.1108696e+00
  1.4552625e+00
 -1.5374707e+00
  1.1164032e+00
  8.5583472e-01
  1.6038619e+00
  7.3610151e-01
 -3.8080370e+00
  2.0657518e+00
 -1.5609686e+00
  2.0439491e+00
  9.8992944e-01
 -2.8169062e+00
 -5.0817180e-01
 -1.6345513e+00
 -1.6756178e+00
  1.0781837e-01
 -2.2248077e+00
  3.6462553e+00
 -3.4680543e+00
 -1.0102115e+00
 -8.8962322e-01
  1.9664574e+00
  8.4543598e-01
  2.1355631e+00
 -1.7907341e+00
 -1.7606015e+00
  1.7917963e+00
  2.4965841e-01
  1.6104289e+00
  1.5892329e+00
  7.1505022e-01
  1.8711977e+00
 -8.3732378e-01
 -7.9011351e-01
 -1.3611795e+00
 -8.9690131e-01
  1.7188385e+00
  1.2656754e+00
 -4.4608098e-01
  1.1254094e+00
  7.7734691e-01
 -4.5659233e-02
  1.0670258e+00
 -4.1619688e-01
  1.0617412e+00
 -9.9299237e-02
 -2.1082446e-02
 -1.5698955e+00
  2.0641425e+00
 -1.2254324e+00
  2.3086728e-01
 -1.4548668e+00
  2.5145733e-01
  2.5849199e+00
  4.1732955e-01
  2.1698546e-01
  7.7768445e-01
  1.3390949e+00
 -6.9083035e-04
  7.3609453e-01
  2.5429318e+00
 -2.6408634e-01
 -3.7306005e-01
  9.0550709e-01
  7.6149118e-01
 -1.0471852e+00
  1.3679569e+00
 -5.1496172e-01
 -1.8672507e+00
 -1.6589143e+00
 -3.1504761e-02
 -3.5959771e+00
 -1.0227138e+00
 -2.1882348e+00
 -2.5444654e-01
  1.9124936e-01
  7.6332527e-01
  2.8387913e-01
  1.2744150e+00
  2.5867146e-01
 -8.2863986e-01
  3.1388298e-01
  4.1113418e-01
  8.3553439e-01
  8.8162982e-01
  1.6468008e-01
  7.3800802e-01
 -8.9468360e-01
  1.1429621e-01
 -1.3920375e+00
  4.4851434e-01
  2.8901455e-01
  4.6355152e-01
  3.5361812e-01
  3.9550966e-01
 -1.4772062e-01
  2.7475111e+00
 -4.7248793e-01
  5.3223610e-01
 -3.5718289e-01
  5.8157450e-01
 -3.6020082e-01
 -7.1330911e-01
  1.3344541e+00
  5.4295516e-01
  1.5712726e+00
  2.9031911e-01
 -2.0545202e-01
 -7.4047822e-01
 -2.4507487e+00
  1.5386213e-01
 -6.8884432e-01
  1.1815675e-01
  3.0429915e-01
 -4.3329927e-01
 -1.4979741e-01
 -3.2843771e+00
 -6.3881451e-01
  2.6104057e-01
 -1.6809191e+00
 -4.4033390e-01
  5.6742239e-01
  5.9504843e-01
  2.5920802e-01
  5.8808476e-01
 -1.5791724e+00
 -7.1945959e-01
 -6.5232712e-01
  5.3685975e-01
  5.5646712e-01
  6.4262408e-01
 -6.1182016e-01
 -1.7910730e+00
 -1.8837837e+00
 -6.1896986e-01
 -4.6595532e-01
  6.7750978e-01
  3.2773218e-01
 -4.5562524e-01
 -7.4849629e-01
 -7.6535243e-01
 -2.5236136e-01
  3.3193541e-01
  8.3403307e-01
 -3.7896112e-01
 -7.0888162e-01
 -3.4503022e-01
  4.5514953e-01
 -4.1467905e-01
  2.8824735e+00
  2.4737051e-01
 -1.2147686e+00
  9.8066676e-01
 -9.4167638e-01
 -2.3341165e-01
 -2.9826937e+00
 -1.9912571e-01
  2.0142305e+01
 -2.1220167e+00
 -3.5058734e+00
  3.0018988e+00
  1.4276818e+00
 -6.6946158e+00
 -2.5465055e+00
  3.0429623e+00
  5.4183216e+00
 -7.7619028e-01
 -3.4969118e+00
 -7.3016191e+00
 -1.7222154e+00
  2.2435218e-01
 -3.9881647e+00
  5.6196856e-01
  4.2658553e+00
  7.4812281e-01
  3.0529532e+00
  7.1321678e-01
  1.8191031e-01
  8.2629174e-01
 -7.4728590e-01
  2.8126163e+00
 -7.1271653e+00
 -3.1795254e-01
  4.5599957e+00
  5.0689363e+00
 -1.7577537e+00
 -1.3091168e+00
 -1.7473332e+00
  1.1585722e+00
 -7.1945560e-01
 -1.5810995e+00
 -1.0224848e+00
  3.5712593e+00
  3.8867342e+00
 -9.0598041e-01
 -2.1763539e+00
  1.1146898e+00
  6.4989619e+00
  5.4564571e+00
 -3.5949869e+00
 -6.0180402e+00
 -2.1255903e+00
  2.0921965e+00
  1.4204311e-01
  3.1496754e+00
 -4.4526401e+00
 -2.9995444e-01
  3.6035011e+00
  5.2702713e-01
  7.4935865e-01
  1.7975729e+00
  1.3592644e+00
 -1.8973451e+00
 -4.0920115e+00
  6.5448780e+00
  4.2657018e+00
 -2.9347482e+00
 -3.3474650e+00
 -1.6215163e+00
 -7.0250326e-01
 -8.5809392e-01
  1.2769005e+00
  8.3281412e+00
 -1.0009906e+00
 -4.9237709e+00
  1.6992534e+00
  4.6613688e+00
  4.7011173e-01
 -3.4016671e+00
 -1.5866208e+00
 -1.3080939e-02
  2.4487374e+00
  4.1649094e-01
 -3.2598469e-01
 -2.1584206e+00
  1.6456582e-01
  3.2323938e-02
  8.5349256e-01
 -1.2260854e+00
 -3.2826703e+00
 -4.5743780e+00
  1.9408752e+00
  1.5254618e+00
 -2.0270345e+00
  1.6816525e+00
  4.4447951e+00
  1.4934634e+00
 -2.3296809e+00
  4.1251560e-03
  4.1251560e-03
  4.1251560e-03
  4.1251560e-03
  4.1251560e-03
  5.2743582e-03
  5.2743582e-03
  5.2743582e-03
  5.2743582e-03
  5.2743582e-03
  4.1027446e-03
  4.1027446e-03
  4.1027446e-03
  4.1027446e-03
  4.1027446e-03
  2.3731452e-03
  2.3731452e-03
  2.3731452e-03
  2.3731452e-03
  2.3731452e-03
  1.4660439e-03
  1.4660439e-03
  1.4660439e-03
  1.4660439e-03
  1.4660439e-03
  7.1759237e-04
  7.1759237e-04
  7.1759237e-04
  7.1759237e-04
  7.1759237e-04
  5.9611837e-05
  5.9611837e-05
  5.9611837e-05
  5.9611837e-05
  5.9611837e-05
