nep4_zbl 1 C 
zbl 1 2
cutoff 6 5 44 34
n_max 4 4
basis_size 8 8
l_max 4 2 1
ANN 80 0
  2.3738089e+00
  3.4811578e+00
 -1.1284329e-01
 -1.2244850e+00
  1.4526099e-01
  1.0168967e-02
 -1.3590487e+00
  7.3190182e-01
 -3.9488396e-01
  7.1511531e-01
 -6.5342844e-02
 -1.4448956e+00
 -1.0857983e+00
  1.4128107e-01
  1.8369881e+00
 -6.5605319e-01
 -1.2930717e+00
 -2.2984540e+00
  9.8501033e-01
  1.7327836e+00
 -8.2508737e-01
 -1.0360141e+00
  8.8711655e-01
  1.9933445e+00
 -5.3680766e-01
  1.8910865e-01
 -1.1729269e+00
 -7.7137254e-02
 -4.9851522e-01
  1.2314140e+00
 -5.0523871e-01
 -9.9003023e-01
  1.7569585e-01
 -4.7363764e-01
 -1.9184208e+00
  1.4709704e+00
  1.0769159e+00
  3.0825934e+00
 -1.4701905e+00
  1.0404644e+00
  1.2301235e+00
  2.1007638e+00
 -3.0332477e+00
  1.3842143e+00
 -1.2007327e+00
  2.1744888e+00
  9.4754624e-01
 -9.1058475e-01
  6.2940258e-01
 -8.7459642e-01
  2.0738611e+00
 -2.7894402e+00
 -1.7428365e+00
 -1.9186580e+00
 -3.1880870e-01
  4.2197648e-01
 -2.0503969e+00
  1.6686026e+00
  4.3298665e-01
 -7.1791571e-01
  9.4200677e-01
  3.2795675e-02
  3.2559688e+00
  3.8755611e-02
 -1.3053468e+00
  3.4881088e-01
 -6.9331914e-01
  1.6833113e+00
  1.7326295e-02
 -1.1569275e+00
 -2.7939910e-01
 -1.2650228e+00
  3.6131170e-01
 -1.3185372e+00
  1.4595197e+00
 -1.4434625e+00
  2.6990743e+00
  1.4243490e-01
  6.4140576e-01
  7.1550232e-01
 -4.4895819e-01
  5.7844472e-01
  6.2551343e-01
  1.8562473e+00
  7.2836190e-01
  1.1972625e+00
 -2.4857444e-01
 -1.4483118e+00
  4.7970239e-02
  2.5909586e+00
 -1.7387745e-01
  1.5528190e+00
  7.5603276e-01
 -7.2405320e-01
  8.5655516e-01
 -1.1561590e-01
 -3.4727721e+00
  1.2496119e+00
 -5.3897011e-01
 -8.4902996e-01
 -8.6641747e-01
 -8.2253635e-01
 -2.0958854e-01
 -1.0602602e+00
 -2.3994286e-01
 -2.1290638e+00
 -1.0622590e+00
 -1.6765627e+00
  5.2555197e-01
  3.4632746e-03
 -2.2237546e+00
  2.2765891e-01
  3.0322518e+00
  3.4431720e-01
  6.0851520e-01
 -3.2336217e-01
  2.6017823e+00
  7.9500705e-01
  2.0477410e-01
 -2.2159646e-01
 -2.7570063e-01
  2.2988732e+00
  2.4029303e+00
  6.8613991e-02
 -3.3693907e-01
 -3.9810136e-01
  1.3545133e+00
  1.1155232e+00
 -7.3103583e-01
  3.2172611e-01
  1.3277056e+00
 -1.0610336e+00
 -2.1276464e+00
 -1.4880856e+00
  1.6282258e+00
  1.0189021e+00
  8.3301115e-01
  3.6821592e-01
  1.2445251e+00
  3.7853149e-01
 -4.0765113e-01
  1.1962299e+00
  1.0238619e-01
 -2.4254138e+00
  4.1084325e-01
  2.2747245e-01
  5.8693895e+00
  1.2830342e+00
 -1.1013506e-01
 -2.4970542e-01
 -2.7053940e-01
 -1.5327641e+00
 -2.1068470e+00
 -3.6894165e-02
  1.1736952e+00
 -1.8355355e-01
  6.9889534e-01
  9.1619238e-02
  8.2882255e-01
 -4.4012260e-01
 -1.5847381e+00
  4.1232708e-01
  5.7647729e-01
 -3.1625637e-01
  1.1072489e+00
  9.1157383e-01
  4.2342401e-01
  3.5622174e-01
 -1.1052747e-01
 -1.8284327e-01
  9.5153868e-01
  6.0462236e-01
 -7.7987230e-01
  1.1672075e-01
 -1.3359003e-01
 -1.7570001e+00
 -2.5766139e+00
  7.0465344e-01
  1.4047003e-01
  1.5765064e+00
 -2.6588696e-01
  2.9678065e-01
  2.1537147e+00
 -3.7313798e-01
  3.5369291e+00
 -2.0596097e+00
 -7.9449311e-02
  2.9544642e+00
 -9.7108281e-01
  1.5921487e+00
 -5.8531260e-01
  1.7832664e+00
  2.9458373e+00
  6.3551664e-01
  3.0270073e+00
  4.4763198e-01
 -8.1523293e-01
 -5.7061756e-01
 -7.4381649e-01
  1.6887279e+00
 -3.6752074e+00
  6.4466083e-01
  2.5452840e-01
  2.6573351e-01
  6.6141909e-01
 -2.4396902e-01
 -2.2139114e-01
  9.5356113e-01
  3.3567294e-01
 -1.3360124e+00
 -1.1471446e+00
 -3.9351904e-01
  1.1119087e+00
  1.3933167e+00
  2.5343544e+00
 -3.8383183e+00
  1.6915904e-01
  7.6127464e-01
  7.7816433e-01
  1.5857363e+00
 -3.8637882e-01
 -1.7132837e+00
  1.6507565e+00
  9.4740713e-01
  2.0123832e+00
 -5.1655215e-01
 -1.6521436e+00
 -5.2872086e-01
  2.5945556e+00
 -1.6348897e+00
 -6.9386268e-01
 -2.6589708e+00
 -1.3402900e+00
  1.9989864e+00
  1.1569471e+00
 -1.0375921e+00
  7.3512393e-01
  2.0792489e-01
 -6.3192213e-01
  7.7006173e-01
 -1.8093117e-01
  4.8499513e-01
  2.7706540e-01
  1.0597812e-01
 -1.0901774e+00
 -4.8650064e+00
 -4.8758388e-01
 -4.3615213e-01
 -4.4525221e-01
  2.5155280e+00
 -3.5701373e+00
 -2.7475846e+00
  1.4761009e+00
 -1.9514019e-02
 -2.1360254e-02
  1.9555767e-03
 -1.8466071e+00
  1.2740464e+00
  1.4437444e+00
  1.0738875e+00
  2.4047028e-01
 -2.0941958e+00
 -1.0679878e+00
  2.3582592e+00
  1.0268546e+00
  1.0500869e+00
  6.3704932e-01
 -1.3675132e+00
 -9.0229136e-01
  1.6573895e+00
 -7.4328506e-01
 -1.1293918e+00
 -3.4364000e-01
 -4.9791673e-01
  1.8158380e+00
 -1.5454449e-01
 -5.0548732e-01
  5.6901592e-01
  1.9435960e-01
 -1.3145223e-01
 -1.3704014e-01
  1.4047970e-01
 -9.0425724e-01
  2.5692415e+00
  7.3209457e-02
 -1.8504035e+00
  4.2304000e-01
 -1.9348401e-01
 -5.9737694e-01
 -2.4660808e-01
  5.5783278e-01
  1.6353939e+00
  1.8890097e+00
  7.5156343e-01
 -5.1435083e-01
 -4.3595162e-01
 -7.1646839e-01
 -2.9099312e-01
 -7.9810387e-01
 -1.5549365e+00
  2.0591977e+00
  3.3408234e-01
  1.0198514e+00
 -8.2090892e-02
  3.8711114e+00
  1.6912612e+00
  1.5049930e+00
 -1.3038462e+00
  9.4338733e-01
  1.0719762e+00
 -5.8895916e-01
 -1.3955302e+00
 -1.8178707e-01
 -6.8945485e-01
  4.5866054e-02
  3.5895133e+00
 -2.9814523e-01
 -7.4314153e-01
 -2.6484692e-01
 -1.3926085e+00
 -6.3784379e-01
  7.6889771e-01
 -4.6416324e-01
  1.1177378e+00
 -4.4311330e-01
  7.3927897e-01
 -1.5886273e+00
 -4.1436929e-01
  1.1754777e+00
 -1.5732666e+00
 -1.8317966e+00
 -1.3931652e+00
 -2.6030260e-01
 -2.0976899e+00
  4.3553373e-01
  7.3622239e-01
 -8.9130640e-01
  1.1952362e-01
 -4.0193862e-01
 -2.4865463e+00
  1.1736726e+00
  4.5598406e-01
 -2.2576697e-01
 -8.6228514e-01
 -9.6331105e-02
 -7.0887476e-01
  5.8723330e-01
 -1.1551667e+00
 -2.4289289e-01
 -5.7724398e-01
  1.4576311e+00
  2.0026736e+00
  7.7015859e-01
 -8.0763119e-01
 -1.3417530e-01
  1.6540763e+00
  5.4105127e-01
  3.8864465e+00
  1.3760874e-01
  6.7743254e-01
 -4.2060938e-01
  1.3675971e-01
  5.0968635e-01
  1.0070208e-01
  1.0599639e+00
  8.5269064e-01
  7.9359716e-01
 -3.1333962e-01
 -4.4203717e-01
 -5.8692288e-01
  3.2584889e+00
 -1.7124413e-01
 -7.2681517e-03
 -3.7334138e-03
  5.2637929e-01
  1.3686507e+00
  3.5413179e-01
  1.5719609e-01
  3.0705819e+00
  9.4324601e-01
  5.9620768e-01
 -1.3123608e+00
  2.8400061e-01
  2.2290543e-01
  1.1276248e-01
  1.8296676e+00
 -2.9117537e-01
 -2.0475905e-02
 -6.3954121e-01
  4.1354659e-01
 -8.0728686e-01
  5.6390066e-02
  9.3089151e-01
  9.4307387e-01
  1.6651871e+00
  5.0328881e-01
  2.6610583e-01
 -9.9599719e-01
  4.3875983e-01
  1.1119612e+00
 -1.4215394e+00
 -1.9114690e-02
  1.4823521e-02
  6.5571874e-01
 -1.3227543e+00
 -2.4214790e+00
 -2.4347236e+00
  1.3239027e+00
 -7.0488447e-01
  1.3286134e+00
  6.5432459e-01
  3.1979923e+00
 -2.8603739e-01
  3.4275857e-01
 -6.5537667e-01
  9.2943347e-01
  1.2720883e-01
  5.5363715e-01
 -4.5287943e-01
 -7.1311986e-01
  5.4925084e-01
 -3.6617565e-01
  1.6295180e-01
 -1.7915489e-01
 -8.3614103e-02
 -1.9464338e-01
 -8.9587075e-01
 -1.7050271e+00
 -1.4660268e+00
  1.9015047e-01
 -1.3130964e+00
 -2.5989622e-01
 -6.1613148e-01
 -1.4457000e+00
  4.5160347e-01
 -8.1310874e-01
 -1.5810945e+00
  2.5667846e+00
 -4.9600586e-01
 -1.1610800e+00
  1.0957729e+00
 -1.2685351e+00
 -2.9328108e-01
  7.3543870e-01
 -2.8500509e-01
  8.6837411e-01
 -2.3705354e-01
 -3.8383819e-02
 -8.5946046e-02
  3.3782061e-02
  2.7323291e-01
  1.0996003e-01
  2.5433740e-01
  1.6760768e-01
 -3.1810968e+00
 -2.3527806e-01
 -7.1993494e-01
  9.0211201e-01
  1.5796946e-01
  1.8730024e+00
 -3.0186744e+00
  1.0806481e+00
 -4.2589419e-02
 -5.4928350e-01
  2.7309802e+00
  9.8067951e-01
  9.3901116e-01
 -4.0997124e-01
  7.4189800e-01
 -1.1712215e+00
 -1.0716726e+00
 -1.8921018e+00
 -8.8427219e+00
  2.1988356e+00
 -1.1532440e+00
  6.1199468e-01
  9.5331460e-01
  2.5923958e+00
 -6.1593670e-01
  4.6209669e-01
 -1.9844544e+00
 -2.7593873e+00
  9.4917005e-01
 -1.0289501e-01
  6.3637054e-01
 -7.1959943e-02
 -3.2183874e-01
  9.0670206e-02
 -9.5583075e-01
 -3.1983179e-01
  4.5109862e-01
 -5.3009051e-01
  2.1111567e-02
 -1.0035744e+00
 -7.6137483e-01
 -3.1168386e-01
  5.6136864e-01
 -1.0335876e+00
  6.0641605e-01
 -4.3198362e-01
 -1.1055034e+00
 -1.3053442e+00
 -5.0735593e-01
  6.7692333e-01
  4.7613874e-01
 -1.4156919e+00
  1.8901974e-02
  1.8571328e-02
  1.5663313e+00
  1.2151376e-01
  8.8948494e-01
 -9.4765139e-01
  1.1003053e-01
 -1.0643367e+00
  1.1549453e+00
 -4.8917770e-01
 -9.2589438e-01
  8.7528139e-02
 -9.5661432e-03
 -1.0884839e+00
  1.6970098e-01
  1.0203047e+00
  2.0621555e-01
  4.1838494e-01
 -1.0819962e+00
  1.0744748e+00
 -1.3674268e-01
 -1.4642015e+00
  5.9779185e-01
  2.4687956e-01
  8.9259267e-02
 -1.1779081e+00
 -1.3383075e+00
  1.2070618e+00
  3.2576910e-01
  2.3223498e+00
  2.9885507e+00
 -3.4077687e+00
  1.1007396e+00
  1.3420500e-02
 -2.6356483e+00
  1.6315864e+00
  2.5639296e-01
  1.7868812e+00
 -5.2141505e-01
 -2.9157298e+00
  1.8093554e+00
 -9.4584846e-01
 -5.6149948e-01
 -7.3786736e-01
  7.8320807e-01
 -2.2244527e+00
  1.4213343e+00
 -3.6591211e-01
 -7.5336653e-01
  8.9940101e-02
 -6.4065856e-01
 -6.4139509e-01
 -5.9431285e-01
 -5.7115112e-02
 -3.7851724e-01
  1.8756363e+00
 -2.5983598e+00
 -1.7600485e+00
  1.4971489e+00
  1.2010547e+00
 -4.8784959e-01
 -1.5173126e+00
  1.0277468e-01
  9.7991991e-01
  1.3594683e+00
  2.3899250e+00
 -7.1502435e-01
  6.3604265e-02
  5.6278604e-01
 -2.9372483e-02
  2.4329957e-01
 -9.1267902e-01
  3.9794713e-01
  8.7877381e-01
  2.2323547e-01
  1.3621507e+00
  7.8345323e-01
 -6.8039000e-01
 -2.8951693e-01
 -6.8105918e-01
  3.7076062e-01
 -6.9700801e-01
  1.1747231e-01
 -1.3059695e-01
 -5.0954479e-01
  2.1149977e-01
 -1.0297029e+00
 -4.8900977e-02
  2.1960907e-01
 -2.9285619e-01
  1.4661312e+00
 -2.2573142e+00
  1.0843430e+00
 -2.2464745e+00
 -2.7699311e+00
  7.4272364e-01
  6.9874501e-01
 -2.1005644e-01
  9.9011660e-01
 -3.6043360e+00
  2.9805388e+00
  1.0382898e+00
 -1.3133368e+00
  2.1347528e+00
 -1.9973296e+00
 -1.7564367e+00
 -1.0360053e+00
 -6.3407078e-02
 -2.4962153e+00
 -2.6271143e+00
 -7.2960430e-01
 -5.1591009e-01
  4.2850900e-02
 -1.6059138e+00
 -1.8995905e+00
  5.2957237e-01
 -3.9559495e-01
  8.6672401e-01
  1.4473120e+00
 -7.5900920e-02
 -5.0509596e-01
 -7.8562891e-01
  5.1769578e-01
  4.6022955e-01
 -1.0595973e+00
  4.6473899e-01
  6.4002603e-01
  2.2820756e-01
 -4.9899676e-01
 -3.2352680e-01
 -8.9894451e-02
  1.4281795e+00
 -1.0735624e+00
 -9.2577684e-01
 -2.0595987e-01
  2.0012848e-02
  2.6515236e-02
 -4.5975935e-01
 -3.0845430e-01
  4.5482039e-01
 -1.1311369e+00
  8.0048299e-01
 -3.7064180e-01
 -4.5800820e-01
  1.0366775e-02
 -5.9065789e-01
 -1.3556101e+00
 -7.7500141e-01
 -1.3563323e+00
 -1.5132014e-01
 -1.0310798e-01
 -3.3953929e-01
  1.2849615e-02
  4.0919018e-01
  8.3359456e-01
  5.2231193e-01
  8.0505306e-01
 -1.0331221e-01
  7.8370404e-01
 -1.0480698e+00
  7.3312008e-01
 -4.9320165e-02
 -1.3315752e+00
 -4.0489727e-01
 -4.7599140e-01
  1.8527387e-01
 -3.7281457e-01
 -2.3585133e-01
 -2.2304849e-01
  4.6084470e-01
 -3.1624773e-01
 -1.5785116e+00
  4.1659728e-01
 -8.0617893e-01
 -4.4707784e-01
  5.2951080e-01
  1.0293020e+00
  1.4835379e+00
  1.6925029e+00
 -9.1624445e-01
 -9.6956730e-01
  1.0519031e+00
 -4.9008656e-02
 -2.8023710e+00
 -8.3308983e-01
 -1.9158044e-01
 -2.3310054e-02
  1.5725515e+00
 -2.0575056e+00
 -5.2177984e-01
  1.4960316e-01
  1.1473560e+00
  1.3847755e-01
  3.3653840e-01
 -6.5372787e-02
 -1.2502557e+00
  7.6733989e-01
 -1.6310202e-01
  4.7735396e-01
 -3.7531579e-01
 -8.1123644e-01
  1.4613494e-01
 -1.4068758e-01
 -6.2777990e-01
 -3.9761695e-01
  1.5855972e+00
  1.8917716e+00
  6.7354357e-01
 -1.4538767e+00
  4.5635831e-02
 -5.6332105e-01
  1.7333217e+00
  8.5569829e-01
 -3.6324567e-01
 -4.7062284e-01
  1.7504816e+00
 -6.8616341e-03
  5.6865203e-01
 -1.2787591e+00
  1.3096045e-01
 -8.5063589e-01
 -1.9568631e-01
  1.5376906e-01
 -5.3186279e-02
  2.8038940e-01
  2.8384587e-01
  4.9878785e-01
 -1.0957406e+00
 -3.3992806e-01
  3.3004677e+00
  8.5936946e-01
 -8.8101470e-01
 -1.2770618e+00
  2.6609737e-01
 -2.1547945e+00
  2.0168348e-01
  1.5882947e+00
 -1.5200388e+00
  7.0737548e-02
 -2.9569497e+00
 -1.8054958e-01
 -2.8319141e-01
 -5.9937245e-01
 -1.7290456e+00
 -2.5722241e-01
 -9.3970287e-01
 -2.9041581e+00
 -3.4900525e-01
 -5.3790027e-01
  1.2038244e+00
 -5.3972095e-01
 -3.2536376e-01
 -8.0459893e-01
 -2.6919856e+00
 -2.7551177e-01
  8.8969094e-01
  3.1537282e-01
 -3.3067051e-01
 -4.1013159e-02
 -7.8707838e-01
 -6.4427578e-01
 -5.0944865e-01
  3.0163920e-01
 -5.6866670e-01
  1.0682510e+00
  4.8962930e-01
  1.6173078e+00
 -8.4825349e-01
 -1.4211857e+00
  2.0299201e+00
  6.6983126e-02
 -4.9962899e-01
 -3.8049245e-01
  9.5932031e-01
 -2.8097850e-01
  1.1636939e-01
 -1.6597813e-01
 -1.5675548e+00
  1.8050773e-02
  1.3763567e+00
 -1.0077870e+00
  8.7534404e-01
  3.1839395e-01
 -2.7499151e+00
 -4.5614165e-01
 -7.5789356e-01
 -1.2597359e+00
 -9.2337573e-01
  8.9333797e-01
 -2.7451649e-01
 -5.4874014e-02
 -4.3525249e-01
 -7.9832661e-01
  3.5074815e-01
  6.2565252e-02
  1.0681739e+00
 -8.7049693e-01
  3.6195883e-01
  6.9859791e-01
  1.1210982e+00
  2.2503023e-01
 -3.7050264e+00
 -1.8696471e+00
  3.7881061e-03
 -2.8178165e+00
  9.9303323e-01
  3.4560809e-01
 -1.3832881e-01
 -2.1953311e+00
 -2.1848986e+00
  5.7925540e-01
 -9.9523258e-01
 -3.9123282e-01
 -9.0254885e-01
 -1.3444632e+00
 -1.2575457e-01
  5.7656509e-01
 -1.0270518e+00
  3.6213389e-01
 -1.0807335e+00
 -5.1952004e-01
  1.6303179e+00
  2.8701639e+00
 -1.2995656e-01
 -2.6308155e+00
  1.7823284e+00
  3.1155789e-01
 -3.4261949e-02
 -2.9841173e-01
  6.0671818e-01
  1.1024667e+00
  5.2697623e-01
 -3.2481024e-01
 -1.1584135e+00
  1.0852429e-01
 -9.3329424e-01
  1.9994639e+00
  2.1082809e+00
  1.0461656e+00
  2.4407580e+00
 -8.4984674e+00
 -1.4696616e-02
  2.0306917e-01
 -2.4521756e+00
 -2.8845489e-01
  2.7823009e+00
  1.6763046e+00
 -7.0986503e-01
 -2.1936409e+00
  1.6358675e+00
 -1.4008760e+00
  1.4657538e+00
 -1.0484370e-01
  1.1159452e+00
  2.4574351e-01
  6.9671595e-01
 -5.6638116e-01
 -6.8542564e-01
  7.8904532e-02
  2.0017169e+00
 -3.7271163e-01
 -1.1190715e+00
  7.6000971e-01
  4.2954001e+00
  2.8723019e-01
  1.4385054e+00
  1.4002889e-01
  1.4426954e-01
  4.5030785e-01
  2.6226578e+00
 -1.2933932e-01
  3.0100467e+00
  1.0537099e+00
 -3.1349843e+00
 -1.4861526e+00
  1.4375918e+00
 -2.0474949e+00
  5.0946057e-01
  7.4732745e-01
 -2.3644538e+00
 -1.6841753e+00
 -1.5131532e+00
  1.2274461e+00
 -1.7313004e+00
 -2.1745427e-01
  1.1440780e+00
 -6.0310739e-01
 -5.6022847e-01
 -3.4503502e-01
  9.0786839e-01
  9.4735199e-01
 -1.0020829e+00
  1.5507706e-01
 -2.6158099e+00
 -3.6666417e-01
  1.1841551e+00
 -2.1600649e-01
 -1.4579730e-01
 -2.3902796e-01
 -3.4412137e-01
  4.2808890e-01
 -1.4799027e-01
  4.6160288e-02
 -1.7797467e+00
 -2.5053716e+00
  1.6421657e+00
  3.3760729e-01
 -1.9670280e+00
  1.0715207e+00
 -5.9201133e-01
  1.1357768e+00
  1.8997519e+00
 -2.4169807e+00
  1.3072920e-01
 -1.3597692e+00
  1.7369313e+00
  3.2295629e-02
  1.3924751e+00
 -2.2270027e-01
 -8.7523991e-01
  1.6638829e+00
  1.6807349e+00
 -2.9830593e-01
 -1.0027789e+00
  4.0289563e-01
  6.4019781e-01
  2.8986853e-01
 -1.2500420e-01
  1.9199684e+00
 -7.8854871e-01
 -8.0245626e-01
 -2.0529778e+00
 -6.1186064e-02
  7.2534913e-01
 -1.1355337e+00
 -4.7650835e-01
 -1.0447932e-01
  3.5170093e-02
  1.0870733e+00
 -5.7575452e-01
  1.0030605e+00
 -3.9481630e+00
  1.2915702e+00
  1.1926736e+00
 -4.5885676e-01
 -8.6330879e-01
 -2.7568212e-01
  2.3595671e-01
  1.7085495e+00
 -2.1541815e+00
 -8.4479004e-01
 -6.2373942e-01
  8.1948662e-01
  1.1284541e+00
 -2.8912148e-01
 -2.8713341e+00
  2.4005141e+00
 -1.2534608e-01
  8.7332338e-02
 -6.0407382e-01
 -1.8456284e-02
 -2.1506276e+00
 -3.2202157e-01
  5.8932859e-01
 -9.6053725e-01
  9.8414665e-01
  3.3159750e+00
  1.3179808e+00
 -1.0185765e+00
  1.9011688e+00
 -1.1826417e+00
 -2.0771152e-01
 -6.6089022e-01
 -1.3602543e+00
 -1.3404313e-02
 -7.6795250e-02
  4.0446310e+00
  9.7121400e-01
  3.4165770e-01
 -9.8784417e-01
 -3.4440296e+00
 -1.1329211e+00
  8.2468563e-01
  2.2784398e+00
 -4.1917729e+00
  2.6427042e-01
  1.0873235e+00
 -7.3972601e-01
  4.2220879e+00
 -9.4519645e-01
 -6.0756683e-01
  2.2702205e+00
 -9.3835466e-02
 -9.5307931e-02
  1.6575875e+00
  9.5272338e-01
  1.1454365e-01
 -1.7151068e+00
  1.7420721e+00
 -1.5428371e+00
 -3.7656590e-01
  3.8236647e+00
  1.5942842e-02
  1.0203948e+00
  3.2492650e-03
 -7.4846469e-02
  2.5823492e-01
 -8.9128065e-01
 -1.1985976e-01
 -2.5982866e+00
 -1.6917135e+00
 -2.5475320e-01
 -2.9032013e+00
  2.7700143e+00
 -1.2702905e-01
 -4.2493537e-01
 -1.6904564e+00
 -1.1231303e+00
  3.0121213e-01
  4.6556777e-01
  1.3253065e+00
  6.2185174e-01
 -3.9984959e-01
  4.2290437e-01
 -4.6655980e-01
  1.6621780e+00
  1.1527903e+00
 -2.6885376e+00
 -2.3215294e-01
 -1.2465172e+00
  6.8782218e-02
  1.5936852e+00
  1.4454969e+00
  7.1199048e-01
  1.7445270e+00
  3.0138645e-01
  6.3755161e-01
  4.6347329e-01
 -2.5119874e+00
  9.0745556e-01
 -1.3886595e-01
  9.6116501e-01
  1.9534838e-01
 -4.0630406e-01
 -1.6356908e+00
 -2.2846913e+00
  2.1616803e-01
 -1.2611878e+00
 -4.0237996e-01
  1.4911506e+00
 -9.7816098e-01
  3.8491493e-01
 -1.4407267e-01
  6.7824674e-01
  8.8985288e-01
  4.3932441e-01
  3.1401689e+00
 -1.3039500e+00
 -1.8683975e+00
  7.7772589e-04
 -1.6589371e+00
  2.2357693e+00
 -2.0898452e+00
  1.0529721e-01
  1.5336843e+00
 -6.0300207e-01
  7.9233700e-01
 -7.6093644e-02
 -3.5173061e+00
 -4.5157876e+00
 -4.3416667e-01
 -3.6453149e-01
 -1.3141028e+00
  1.3731466e-01
  4.2151773e-01
  3.9395228e-02
 -2.1848704e-01
  4.3435282e-01
 -8.5417432e-01
 -8.0733669e-01
  2.1976565e-01
  2.5012403e+00
  4.8423716e-01
  3.1542864e-02
  1.5896596e+00
  2.4383075e+00
 -2.5417249e+00
  1.1303757e+00
  1.6725543e-01
  3.1354337e+00
 -5.2131085e+00
  1.0348892e+00
  6.4900154e-01
 -3.6220565e-01
  8.6626709e-01
  2.7415749e-01
  3.5422108e-01
 -3.7138569e-01
 -3.6785569e-02
  1.0821371e+00
  1.4041914e+00
 -1.2445619e+00
 -1.3099921e+00
  1.0878890e+00
 -2.3352056e+00
 -2.0167878e+00
  1.0166647e-01
 -7.7327430e-01
  7.5480253e-01
 -1.3222050e-02
  1.9220760e+00
  5.7386750e-01
 -7.7440441e-01
 -2.7135834e-01
 -2.5551528e-01
  4.9156421e-01
 -1.1514950e+00
 -5.1174957e-01
 -2.1681757e+00
 -1.8853557e+00
  2.3620245e+00
  1.9499817e+00
  1.9735131e-01
  1.1515756e+00
 -3.9857385e-01
 -2.0665200e+00
  1.0874217e+00
 -1.7205256e-01
 -4.5317909e-01
  7.2927558e-01
 -3.1026356e+00
  1.9116292e+00
  1.7828022e+00
 -2.4799817e+00
 -1.9487396e+00
 -3.6552513e-01
  6.3361931e-01
 -8.9895427e-02
 -7.4526423e-01
 -1.3101296e+00
  1.6668679e+00
  4.8847613e-01
 -1.1426668e-01
  5.9638208e-01
 -6.0853159e-01
  3.6602738e-01
 -1.4722310e-01
  4.0404004e-01
  5.3773755e-01
  2.1028061e-01
 -1.2346816e+00
 -5.1151001e-01
 -2.1887951e+00
  4.5802483e-01
 -2.2486014e+00
 -4.5638433e-01
 -1.0861013e+00
  1.1061678e-01
  6.8416935e-01
 -3.9575568e-01
  2.5042748e-01
  5.3204387e-01
 -3.9529222e-01
 -4.3086186e-01
  7.7879137e-01
  1.7945349e+00
  7.3726843e-03
  3.0300669e-02
 -6.8575166e-02
 -2.8094084e+00
 -2.9840722e+00
 -7.1641767e-01
  6.4772946e-01
  1.3139179e+00
  2.2380524e+00
 -7.8315943e-01
  1.1451860e-01
 -4.2676082e-01
 -1.3312724e+00
 -4.6188709e-01
 -2.0116623e-01
  4.6619374e-01
  4.9807087e-01
  1.9254684e-01
  4.4565102e-01
  1.1460874e+00
 -3.7090307e-01
  1.2250156e-01
 -5.4399812e-01
 -2.2857016e-01
 -1.6067783e+00
 -7.1517646e-01
  5.3979295e-01
  2.6237981e+00
  3.5139501e+00
  3.6227265e-01
 -2.5907948e+00
  9.6578732e-02
  1.4840971e+00
 -1.3845661e+00
  4.9664536e-01
  1.4171422e+00
 -1.6950750e+00
  7.2032675e-02
  2.0861935e-03
 -1.0124538e+00
  1.4457040e+00
  1.3288438e+00
  1.5228277e+00
 -7.8937936e-01
  1.8244117e+00
  1.3182756e+00
  1.2330110e-01
  1.2231809e+00
 -4.0105358e-01
 -3.6406976e-01
 -1.1369598e-01
  2.9970402e-02
  1.1907250e+00
  9.5252365e-01
 -2.3505487e+00
 -8.5332501e-01
 -2.4154274e+00
 -1.3866459e+00
  5.0888181e-01
 -1.6451670e+00
  6.5985501e-01
  8.0226672e-01
  1.1178708e+00
 -3.5662222e-01
 -1.3856492e+00
 -2.3039849e+00
  6.9543976e-01
  3.0958412e+00
 -3.4068197e-01
 -8.9050072e-01
  2.0932809e-01
 -5.6975663e-01
 -2.6201690e-02
 -1.3168721e+00
 -7.1197206e-01
 -4.5351732e-01
  4.1326203e+00
  1.0401108e+00
  4.4401592e-01
 -1.6630704e+00
 -1.1596267e+00
  5.4090545e-02
 -1.0806581e+00
  6.0666281e-01
 -5.1934296e-01
 -1.1612917e+00
  3.1857569e-02
  3.8382688e-01
  8.1042871e-02
 -5.4209328e-01
 -2.2670157e+00
  2.9710028e-01
  5.7829136e-01
 -4.6598393e-01
  3.6349463e-01
  5.8025581e-01
  1.4848565e+00
 -1.1311580e+00
  1.3074856e+00
 -4.0856156e-01
  1.9013535e+00
  1.6012676e+00
 -1.5580305e+00
  3.0531642e-01
 -2.0472932e-01
  1.2170637e+00
  1.1313393e+00
 -3.6334807e-01
  6.5416610e-01
 -5.5771244e-01
  4.8702756e-01
 -6.8152666e-01
 -4.1600472e-01
  2.5305572e-01
 -2.1681738e+00
 -5.1074809e-01
 -5.8045757e-01
 -1.4937057e+00
  2.3936267e-01
 -4.1151743e-02
  1.1924609e-01
  1.9704154e-01
 -1.9874372e-01
  1.2236693e+00
  6.1376822e-01
 -1.9071892e+00
  7.5726160e-03
 -1.9884061e+00
 -1.3413135e+00
  8.0722290e-01
  1.2392597e+00
 -9.4315273e-01
 -4.7011223e-02
 -2.4249575e+00
 -2.1035260e-02
  1.3611003e+00
 -1.8012171e+00
  1.4668167e-01
 -3.9500108e-01
 -5.8330592e-02
 -3.7244201e+00
 -1.5855025e-01
  2.4562097e+00
 -2.3099267e+00
  1.7064644e+00
  8.0219269e-01
  1.1851276e+00
 -6.4530826e-01
 -1.0896012e+00
 -6.6027588e-01
 -6.3920951e-01
  3.6069628e-02
  2.3827593e+00
 -4.7953001e-01
 -7.2568202e-01
 -3.9930806e-01
  9.8020160e-01
  6.3729960e-01
  1.0247182e-01
  6.7255542e-02
  1.7834686e-01
  5.9072733e-01
 -1.7082860e+00
 -1.0597831e+00
 -8.2778448e-01
  1.6286668e-01
  6.0003322e-01
  6.9659877e-01
  2.7983422e+00
  3.0664778e+00
  3.1101027e-01
 -5.3373516e-01
  3.1083256e-01
 -1.2077048e-01
 -1.2113149e+00
 -6.5314092e-02
 -4.5698205e-01
  8.6547935e-01
 -3.8252336e-01
  4.3916610e-01
  4.9972692e-01
  7.4911004e-01
  8.7757432e-01
  3.9977702e-01
  6.1443394e-01
  9.9644476e-01
  2.0750000e-01
 -4.0065584e-01
  2.6655199e-03
  4.1637206e-01
  2.6560980e-01
 -9.8748773e-01
  1.8125883e-01
  1.0244867e+00
 -1.9290185e+00
 -1.3129801e+00
 -3.2476223e+00
 -3.1043541e+00
  2.2433431e+00
 -1.9325579e+00
  6.5905742e-02
  1.2923801e-01
  2.0102191e+00
  1.7548654e+00
 -4.8012868e-01
  1.2249391e+00
 -1.7484751e+00
  3.1527126e-01
 -7.4309796e-01
  1.2507328e+00
 -1.5690893e+00
 -1.2150551e+00
  3.4909284e-01
  1.3079199e+00
 -2.8346970e+00
  5.3857274e-02
 -7.3170590e-01
 -7.6310015e-01
 -1.5419966e+00
 -1.9481032e+00
  9.9674207e-01
  1.7263488e-01
  4.8936558e-01
 -5.4361868e-01
  2.6023412e+00
  3.7917602e-01
 -4.3382430e-01
  4.3514395e-01
 -4.8324385e+00
 -2.2817783e+00
 -2.2155199e+00
 -6.4265329e-01
  1.1342307e+00
 -1.2645208e+00
 -4.3475299e+00
  7.1851387e+00
 -1.2525028e+00
  1.3591792e-01
  1.9142870e+00
  1.0789024e+00
 -1.1234347e-01
  2.4486225e+00
  1.2841281e+00
  2.3785043e+00
 -1.1248198e+00
  2.4760208e+00
  1.2488936e+00
  1.1952838e+00
  1.6412128e+00
 -1.5557634e+00
  7.0407706e-01
  3.2752650e+00
 -1.5535298e-01
  6.1211866e-01
 -8.7801182e-01
 -1.1945682e+00
 -1.0037754e+00
 -1.6763626e+00
  6.5659128e-02
  2.0103377e-01
 -8.3390188e-01
 -2.9989088e-01
  9.3657905e-01
 -1.0593429e+00
  1.2503282e+00
 -1.5637715e-01
 -1.2436123e+00
  1.1829892e+00
  1.3160682e+00
  1.0866679e+00
 -1.1956483e-01
 -2.8726466e-02
  1.3418863e+00
 -5.9046519e-01
  7.5362429e-02
 -7.1360457e-01
 -3.0424523e-01
  5.9553164e-01
  3.2070580e-01
 -4.2216146e-01
  5.3503311e-01
 -3.2874548e-01
  3.0397910e-01
  1.0249755e+00
 -4.5810759e-01
 -1.6370124e-01
 -3.3114320e-01
 -6.4332449e-01
  1.2103116e-01
  1.8385677e-01
  3.3357495e-01
  3.3982527e-01
 -1.6258372e-01
 -7.0149535e-01
 -3.9735186e-01
 -3.8110530e-01
 -6.3065428e-01
 -5.9683341e-01
  3.1026123e+00
  7.2198451e-01
 -1.0877570e+00
  1.7973460e+00
 -2.5461859e-01
  3.7851828e-01
 -1.0500896e+00
  2.8070943e+00
 -8.4143114e-01
  6.2418574e-01
 -4.3325678e-01
  2.6859760e+00
  1.9079626e-01
  5.4599786e-01
 -8.4455496e-01
 -4.7084957e-01
  7.6152331e-01
  1.8216480e+00
 -1.1081297e+00
 -3.1482324e-02
  7.8442287e-01
  8.3673835e-01
  4.6877492e-02
 -8.0880833e-01
 -1.2980244e+00
 -2.5810504e-01
 -1.6731799e+00
 -1.9142975e+00
 -4.9670154e-01
 -1.3340293e-01
  1.8497244e+00
  1.6378897e+00
  6.5327352e-01
  1.0676669e+00
  1.9868051e+00
 -2.2053840e+00
  1.7919444e+00
 -2.3480253e+00
 -1.7931575e+00
 -7.4808741e-01
  1.2217630e+00
  9.5909975e-02
  5.7104963e-01
 -9.9793655e-01
  3.6655647e-01
  3.5009220e+00
 -3.5112793e+00
 -1.0559781e+00
  6.6352332e-01
 -4.6836770e-01
 -4.7272581e-01
  5.1859820e-01
 -1.4251198e+00
 -8.6859143e-01
  5.3579133e-02
  7.1026057e-01
 -2.2368775e-01
 -5.1379609e-01
  1.4463463e+00
  6.0851663e-01
 -4.9908051e+00
  2.0729785e+00
  5.2199717e+00
  5.6928247e-01
  2.8491193e-01
 -5.7692293e-02
  9.5586145e-01
  9.0837836e-02
  3.7619880e-01
 -1.8893772e-01
  3.6596603e+00
  5.1476109e-01
 -2.4847515e+00
 -3.5536152e-01
  1.2106932e+00
 -2.1013131e+00
  7.1476614e-01
 -1.6627287e+00
  6.7585826e-01
  1.3284900e+00
  2.7793126e+00
 -5.5356830e-01
 -2.4439399e-01
 -5.4337925e-01
  1.1343105e-01
 -1.4968528e+00
 -1.5731215e+00
 -8.8709843e-01
  2.5246625e+00
  9.8012054e-01
  1.0939559e+00
 -1.5479056e+00
 -1.5001570e+00
 -7.6190448e-01
  3.5328534e-02
 -3.4407213e-02
  9.5598793e-01
 -1.1637845e+00
  2.2318143e-01
  6.4790583e-01
 -3.3370700e-01
 -9.0652329e-01
  9.2898315e-01
  5.5902606e-01
 -5.2960658e-01
 -1.4699832e+00
 -3.0022473e+00
  5.2958953e-01
 -1.9281572e+00
  1.1410109e+00
  1.8303130e+00
  2.6774740e+00
 -1.5655359e+00
 -5.1965658e-02
  2.2283772e-02
  2.3968503e+00
 -2.0798862e+00
 -3.0262573e+00
 -4.7798023e-01
 -8.4677052e-01
  4.4783783e+00
 -1.9867505e+00
 -2.4631353e-02
  1.4447807e+00
 -4.2171192e-01
  1.0098587e+00
 -1.4691126e+00
 -1.2174016e+00
  2.1423843e+00
  4.8008215e-02
 -3.9089971e+00
  3.6911933e+00
 -3.0660909e-01
  2.4942851e+00
  2.0823917e+00
  6.6828817e-01
 -8.2981902e-01
  1.3239403e+00
  3.1400996e-01
 -1.6040492e+00
  1.4421400e+00
  1.2344474e+00
 -3.4614415e+00
 -2.4388971e+00
  1.8902953e+00
 -1.3230488e+00
 -1.7407389e-01
  9.1693300e-01
 -2.5634304e-01
 -4.5855415e-01
 -4.4387805e-01
 -4.8252940e-01
  8.1595683e-01
  8.0574012e-01
 -4.4540584e-01
  8.4758019e-01
  9.1253728e-01
 -9.5983344e-01
 -1.2881795e-01
  1.2851354e+00
 -6.1366069e-01
 -7.6829088e-01
  2.9472637e-01
  6.1333197e-01
  3.5831398e-01
  2.7512350e+00
 -5.7792777e-01
 -1.2197438e+00
 -4.0106544e-01
 -3.7149882e-01
 -3.0271336e-01
 -1.3912323e+00
 -9.5226341e-01
  3.5742387e-02
 -5.2236170e-03
 -1.7702031e+00
 -2.1957982e-01
  6.4005005e-01
  7.0963436e-01
  3.5927060e-01
  5.9456450e-01
 -1.0726408e-01
  1.5444174e+00
 -6.2294060e-01
 -1.5182127e+00
  3.6757860e-01
 -2.1631806e+00
  9.9974692e-01
  2.3409304e-01
 -5.2105319e-02
  3.3168411e-01
 -9.0348202e-01
 -5.5971134e-01
  6.7671633e-01
 -6.6963106e-01
  7.7020186e-01
  1.1978421e+00
  1.2597686e+00
 -7.1408200e-01
 -7.0728111e-01
 -2.5128472e+00
  5.9566283e-01
 -5.2284729e-01
 -6.9564563e-01
 -3.6685780e-01
  7.3201340e-01
  4.0244722e-01
  7.2872347e-01
 -9.3569994e-02
 -1.8197360e+00
 -3.5944269e+00
  7.5164139e-01
 -9.8254585e-01
  4.5875549e-01
  1.8584435e+00
  5.7073677e-01
  2.1397092e+00
 -2.4277000e+00
 -4.6960723e-01
  7.6754808e-01
  2.4919108e-01
  1.1164272e+00
 -6.9523060e-01
  4.8893232e-02
  1.2904836e+00
  1.0185947e-01
  4.3828516e+00
 -1.5843304e+00
  2.3266218e+00
 -2.2748833e+00
  1.1663449e+00
  2.0593503e+00
  4.1456875e-01
  8.5736722e-01
  2.1403447e-01
  1.0783836e+00
  1.7136315e+00
  8.1626827e-01
  2.7522248e-01
 -4.0295881e-01
  4.6538025e-01
  8.1386673e-01
  9.6371375e-02
  6.0446584e-01
 -3.5793251e-01
  1.4233412e+00
  1.0975071e+00
 -2.6726139e+00
 -9.3592837e-02
 -1.6551176e+00
  3.5801980e+00
 -5.6525546e-01
 -8.3680093e-02
  2.1845375e-01
  5.9340656e-01
 -1.4985731e+00
 -2.2720816e+00
 -5.5688274e-01
  1.8287095e-01
  1.9941722e-01
 -3.4521398e-01
  1.2296807e+00
  4.5115596e-01
  2.7275145e+00
  3.6948282e-02
 -1.9880124e+00
  2.3098388e+00
 -1.1531729e+00
  7.4983114e-01
 -9.8354131e-01
 -9.0145636e-01
  1.3566626e+00
  1.5253257e+00
  7.4640465e-01
  6.2757111e-01
 -7.3148638e-01
  1.1458036e-01
 -1.8712848e-01
  1.2238898e+00
 -3.3423495e-01
  6.3976884e+00
  1.2588564e-01
 -1.4946249e+00
 -5.2015692e-01
 -1.9020278e+00
  4.5356684e+00
  1.9822624e-01
 -1.1445259e+00
 -1.7801511e-01
 -3.8615696e+00
  7.2560066e-01
  1.2443632e+00
 -3.1940804e+00
 -8.8882309e-01
 -2.1446853e+00
  1.4702134e+00
 -1.5775677e+00
 -1.2383645e+00
 -1.4856564e+00
 -1.5115740e+00
  1.7346801e-02
 -1.7720798e+00
  2.3575760e-02
 -2.8124208e+00
 -1.7476813e+00
 -2.1187801e+00
 -1.4112551e+00
  1.3525019e+00
 -3.1871420e-01
 -4.0522173e-01
  7.3372006e-01
 -1.9792722e-01
  4.9251118e-01
  6.2862694e-01
  1.2785553e+00
 -1.6217729e+00
 -2.6244700e+00
 -1.5724368e+00
 -2.6524212e+00
  2.0477953e+00
 -1.1408427e-01
 -7.0493811e-01
  9.4414425e-01
 -2.0638895e-01
 -4.9427962e-01
  1.1293801e+00
 -1.3162783e+00
  3.9846938e+00
 -8.8912450e-02
 -1.4169781e+00
  1.2517252e+00
  3.1521156e-01
  1.5449846e+00
 -7.4933499e-01
  3.5882837e-01
  3.2220596e-01
  6.7399219e-02
  3.8046899e-01
  1.4845861e+00
 -2.4377277e-01
  7.7201766e-01
  5.6508368e-01
  1.2139977e+00
  2.7289915e-01
  8.4759265e-01
  5.7612705e-01
 -9.3364942e-01
  1.6088629e-01
 -7.3505975e-02
  1.1719836e-01
 -3.7254798e-01
  8.2657218e-01
  1.1975566e+00
  1.0467161e+00
 -1.5984435e+00
 -3.8312262e-01
  3.4563765e-01
  2.3168774e+00
  2.2996111e-01
  3.0040926e-01
 -7.1692365e-01
  3.0885193e+00
  1.0113690e+00
  2.3678386e-01
  2.6490076e+00
 -1.3707888e+00
 -5.0780725e-01
 -1.5253568e+00
  4.1361952e-01
  5.2674395e-01
 -3.5691109e+00
  2.6299927e+00
  1.9275695e-01
  1.0713013e+00
 -1.0018302e+00
  3.0751419e+00
  1.2918593e-01
 -6.0577869e-01
 -3.1953290e-01
 -9.3171394e-01
  6.7299217e-01
  6.6285533e-01
 -3.8906254e-02
  4.6673843e-01
 -8.6069860e-02
  1.8222730e+00
  1.4815933e+00
 -3.3801332e-02
 -2.0408092e+00
  2.2657008e+00
 -1.3786056e+00
 -3.3718009e+00
  5.7848972e-01
 -4.4197164e+00
 -2.0907574e+00
  3.2804153e+00
  4.0172715e+00
  1.1454551e+00
  9.6465635e-01
 -1.2645774e+00
  2.8377335e+00
  1.9706286e-01
  8.7606293e-01
 -5.6626704e-02
  2.1884716e+00
  2.2111018e+00
 -6.2655187e-01
  1.1616194e+00
 -1.3871148e+00
  9.4375390e-01
  8.2778484e-01
 -3.4585598e+00
 -5.0796443e-01
  7.8280354e-01
 -4.2161867e-02
 -1.5425019e+00
 -8.3994383e-01
 -1.9085211e-01
 -3.2910886e-01
  7.8195292e-01
  4.8078263e-01
  1.2174679e+00
 -3.1841725e-01
 -1.2624402e+00
  2.5088778e+00
 -5.4623818e-01
 -7.6884645e-01
  3.3348113e-01
  1.0646425e+00
  1.5562226e-01
 -3.8567755e-01
  1.1838374e+00
 -1.0459613e+00
 -7.3119737e-02
 -1.6725883e+00
 -1.4515932e+00
  1.2945814e+00
 -6.2259638e-01
  1.2255540e+00
 -1.6779985e-01
  3.0576968e-01
  3.8614762e-01
  3.6089504e-01
  6.9196862e-01
 -5.1648515e-01
  2.0634542e+00
  3.7092662e-01
  2.1792803e+00
 -1.9089787e-01
  7.0356034e-02
 -1.4147933e+00
  9.6708077e-01
  8.5252094e-01
 -1.4951645e-01
  7.5081182e-01
 -4.6554027e+00
 -2.2290598e-01
  8.5664284e-01
 -9.1601026e-01
  7.2772723e-01
 -1.8024439e+00
 -1.2795087e+00
  7.5555664e-01
  1.9710361e+00
  9.5668012e-01
 -8.4462166e-01
  2.7479599e+00
  7.4381578e-01
  3.4252617e-01
 -3.8453576e-01
  2.1666738e-01
  1.0488374e+00
  1.6959126e+00
  7.9063898e-01
  1.9623613e-01
 -2.4579508e+00
  3.1086459e+00
  1.8408723e+00
  3.0812615e-01
 -4.8769715e-01
 -4.7385771e-02
 -2.1376135e+00
  2.0829518e+00
  1.6043304e-01
  1.3892957e+00
 -2.8076959e-01
  8.8141727e-01
 -1.4872988e+00
  2.5156991e+00
 -1.7681079e+00
 -9.3677115e-01
 -7.6110423e-02
 -3.2662753e-02
  1.5166637e-01
 -5.2225202e-01
  2.9397097e+00
 -5.2470767e-01
 -3.1520786e+00
  4.1742766e-01
 -6.8546546e-01
 -5.6134659e-01
  1.9205273e+00
 -1.6098142e-02
 -5.2163130e-01
 -4.1861504e-02
 -1.7501701e-01
 -2.5615912e-02
 -3.9121203e-02
 -2.7804181e-01
  1.8739635e-02
  9.2071009e-01
  2.0596287e-01
 -9.3185145e-01
  1.5361757e+00
  2.5653696e+00
 -2.5355339e+00
  1.5801630e+00
  6.1348438e-01
 -5.8110547e-01
  6.7354381e-01
 -3.7964496e-01
 -9.1673738e-01
  1.6156275e+00
  1.3240831e-01
 -2.8174359e-01
  6.5226192e+00
  6.4888847e-01
  3.8546401e-01
  1.0282438e+00
  1.0090156e+00
  2.2842398e+00
  2.5401163e+00
 -3.9377043e+00
 -7.3053055e-02
 -4.9131674e-01
  2.0956373e+00
  1.8299603e+00
  4.1881061e-01
 -5.5431598e-01
 -1.1620371e+00
  1.7645426e+00
  5.5654693e-01
 -1.5425547e+00
 -8.5671687e-01
  2.3899386e+00
  1.5186614e+00
 -2.6074154e+00
  7.1320009e-01
  4.5417696e-01
  7.7990675e-01
 -5.6650281e+00
  1.8946743e-01
  1.4589856e+00
  1.3436352e-01
 -1.3753608e+00
 -3.7593123e-01
  1.5591887e+00
 -7.5934732e-01
  3.1709038e-02
  1.4980838e+00
 -1.9426303e+00
 -3.2061424e+00
  1.7942591e+00
  6.1099567e-02
 -7.3771912e-01
  5.3054792e-01
  3.1229657e-01
 -5.3882427e+00
 -3.0690131e-01
  2.4486166e-01
 -1.1562465e+00
  4.3443131e+00
  2.2417931e-02
  6.6219103e-01
  5.5379182e-01
  4.2248368e+00
 -2.5032494e+00
  8.3021742e-01
  2.0382786e-01
 -2.9803941e+00
 -1.7975351e+00
  5.2762832e-02
  1.2629033e+00
  3.6991274e-01
  8.9601511e-01
  5.3514099e-01
  1.2584748e+00
  1.4301725e-01
  8.6343676e-01
 -1.8301983e-01
  3.9144427e-01
 -1.8664804e+00
 -3.4111307e-03
  6.1343342e-01
  6.8192363e-01
 -2.0705228e+00
 -6.4585763e-01
  1.8653901e+00
  1.1414284e-01
 -1.7942191e+00
  1.0649819e+00
  8.2086062e-01
 -1.9077252e-01
  2.8514011e+00
  2.2482123e+00
 -2.3109550e+00
 -5.5185300e-01
  6.8365276e-01
  1.6142097e+00
 -8.8417149e-01
 -4.2854896e-01
  4.0121844e-01
 -2.2825847e+00
  9.6615481e-01
 -2.4914373e-01
 -1.1345196e+00
 -1.6120967e+00
 -2.0830640e-01
 -1.0439991e+00
  7.9888356e-01
  4.4817886e-01
 -3.2586822e-01
 -4.0419358e-01
 -1.6972128e-01
 -2.4194676e-01
  5.4021871e-01
  1.3670368e-01
 -1.1315367e-01
 -6.2144265e-02
 -1.7420903e-02
 -3.1368527e-01
 -3.6413634e+00
  1.4296643e+00
  5.7541466e-01
  2.0499701e+00
 -5.0151944e-01
  1.1968210e+00
 -1.2080914e+00
 -1.4864075e+00
  1.9052178e+00
  1.1622714e+00
 -1.4939710e+00
 -2.6320231e+00
  6.2512803e-01
 -7.2083652e-01
 -9.5073515e-01
  4.8114347e-01
 -5.1658493e-01
  3.4617335e-01
  8.7994546e-01
  6.8198907e-01
  2.8034096e+00
 -6.0825944e-02
  1.3784972e+00
  1.1489303e-02
  2.7689373e+00
 -1.4960541e+00
  4.8035911e-01
  3.5015333e-01
 -3.7594143e-01
  2.2074190e-01
  7.0786405e-01
 -2.0091712e-01
  2.0385213e-01
 -8.8477618e-01
 -2.0114297e-01
  5.0932211e-01
  1.0118253e+00
  4.0078750e-01
 -4.3308010e+00
 -2.8983206e-01
  2.9994688e+00
  2.5914040e+00
  6.6010110e-02
  6.1617106e-01
 -3.7673507e+00
  3.0737054e+00
  1.0034230e+00
 -9.1600263e-01
  9.0271145e-01
  6.3456392e-01
 -3.2527542e+00
  3.1077173e-01
 -4.8582184e-01
 -6.1633307e-01
 -1.3720510e+00
 -7.9354030e-01
 -1.1729611e+00
 -4.3601295e-01
  1.0968016e+00
 -1.9909385e+00
  1.2115856e+00
  6.9798744e-01
  5.1527661e-01
 -6.5149319e-01
  4.5997307e-02
  4.5790780e-01
 -9.3972123e-01
  3.7332273e-01
 -8.0325520e-01
 -5.4741068e+00
 -2.7116642e+00
 -2.2358420e+00
 -3.3844650e+00
  7.0176125e-01
 -4.0037222e+00
 -3.8196135e+00
 -1.0354909e+00
 -2.4052911e-01
  1.4320315e-01
 -7.5516957e-01
  2.3637946e+00
  2.9718521e+00
 -5.2008206e-01
  3.2667601e-01
 -8.6182570e-01
  3.5542707e+00
 -2.9940569e-01
  2.0118473e+00
  2.2872244e-01
  1.4107444e-02
  1.6982753e+00
 -6.0810846e-01
  1.2163893e-01
  1.7153091e+00
  1.4465429e+00
 -3.7230651e+00
 -3.7345774e-02
  3.5051417e-01
 -2.2471344e+00
 -2.3735735e+00
 -2.9023233e-01
  4.1358402e-01
  7.1669832e-02
  1.1332724e+00
 -9.9591899e-01
  3.2788873e-02
  1.0051969e+00
  1.6882811e+00
  2.7333562e+00
  7.2907531e-01
  6.5938467e-01
 -1.2797230e+00
 -2.0390841e-01
 -3.3204833e-01
 -6.6918743e-01
  4.2757430e+00
 -8.2550812e-01
 -4.1475768e+00
  2.8010973e-01
  1.0756197e+00
  1.9392586e+00
  2.3001751e-01
  4.4593579e-01
  1.1033155e+00
  4.3761447e-01
  5.9287184e-01
 -1.4872517e-01
 -1.0651054e+00
  1.8603361e+00
 -9.1250598e-01
 -9.8582834e-01
 -1.3378257e+00
  2.1059346e+00
  1.2234234e+00
  5.0268918e-01
 -8.0678910e-01
  5.3330321e-02
 -4.8748723e-01
  3.8248804e-01
 -5.5466986e-01
 -9.0890878e-01
  1.0203809e+00
  5.6482673e-01
 -6.2239498e-01
 -7.5575709e-01
 -2.2975206e+00
 -8.2410538e-01
 -1.4823882e-01
  5.1233627e-02
 -3.3263531e-01
  2.2171254e+00
 -8.6568713e-01
  1.1162176e+00
  1.4376836e-01
 -3.0240412e+00
  1.8869175e+00
 -2.9811129e-01
  1.6300241e+00
 -2.8643264e-03
  2.6813748e+00
 -3.5003555e+00
  2.3337958e+00
  5.5373168e-01
 -8.5426033e-01
 -1.6335568e-01
 -2.6525083e+00
 -5.1944506e-01
  2.9490476e-02
 -7.6742065e-01
 -1.8121326e-01
  3.9580312e-01
 -1.7399557e+00
  4.6588400e-01
 -1.0841957e+00
 -4.3554905e-01
 -1.0378816e+00
 -1.5663030e+00
  2.0557356e+00
  2.0537221e+00
 -1.0340859e+00
 -2.8394277e+00
 -2.5411254e-01
 -6.1231636e-02
 -1.3873025e+00
  9.0262550e-01
  8.5601997e-01
 -1.0794767e+00
  1.2171583e+00
  9.5262963e-01
  1.4306009e+00
 -2.0742469e+00
 -2.8383114e+00
  1.0458598e+00
  9.4725567e-01
  2.9325957e+00
 -3.0798965e+00
 -5.1174504e-01
 -1.1707320e-01
 -1.4916605e+00
  1.4864423e+00
 -1.2961620e+00
  3.8486829e-01
  2.3344707e-01
 -5.0611979e-01
 -4.6117213e-01
 -1.7041539e+00
 -5.0167125e-01
  7.4633235e-01
 -4.5039022e-01
  6.7340927e+00
  3.0573304e+00
 -4.9442133e-01
  2.9797444e-01
  5.9680670e-01
  9.2081726e-01
  1.1791452e+00
 -4.9193559e+00
 -4.8539707e-01
  1.7426764e+00
  4.1591611e+00
  1.7844297e+00
 -5.1919589e+00
 -4.3909189e-01
 -2.1507430e+00
  2.8739538e+00
 -1.2467889e+00
 -4.1159768e+00
  1.9266199e+00
 -1.4966496e+00
 -1.6683775e-01
 -2.0045948e+00
  5.2091765e-01
 -7.7541679e-01
 -3.9869237e-01
  1.8196244e+00
  1.1644368e+00
  3.2546148e-01
 -1.4666888e-01
 -1.8926793e+00
 -7.2326422e-02
 -9.5628090e-02
  3.7909660e-01
  5.8684075e-01
  4.1825739e-01
 -2.4468935e+00
 -1.6704168e+00
 -3.3551202e+00
 -1.7365726e+00
 -1.3915112e+00
 -4.1400167e-01
  2.3198011e+00
  2.4180651e+00
 -3.1598794e-01
 -1.8404264e+00
  3.4159747e-01
  5.3622198e+00
  2.2120422e-01
  2.7567672e-03
  9.5242172e-01
 -2.4873798e+00
 -2.0810187e-02
 -2.4289434e-01
  1.2361485e+00
  3.4675477e+00
  1.1527096e-01
  5.2804247e-02
 -4.7963727e-01
  2.1395133e+00
 -1.8914297e+00
  4.5250859e+00
 -7.4888581e-01
  1.4053750e+00
 -3.4403506e-01
 -2.3925545e+00
 -6.2026273e-02
 -3.1922376e-01
 -9.9190706e-01
 -1.2848204e+00
 -1.2756611e+00
 -1.4910949e+00
  1.2131340e-02
  3.7793255e-01
  8.0252093e-01
 -2.5983849e+00
 -7.7483747e-03
  5.4897185e-02
  2.0457640e+00
  1.5209766e-01
  7.1320158e-01
 -2.8403335e+00
  1.4170305e+00
 -1.2550347e+00
 -1.0625895e-01
 -1.9796447e-01
 -1.0167509e+00
 -8.5726416e-01
  6.2101209e-01
  1.3101751e+00
  3.3677420e-01
  8.3838522e-01
  8.2026297e-01
  6.6537905e-01
  9.9030584e-01
 -1.8712944e+00
  6.1923635e-01
 -4.1899511e-01
 -3.8828943e-02
 -5.6869733e-01
 -6.7182714e-01
 -6.7801619e-01
  3.8217995e-01
 -8.9629674e-01
 -9.3170732e-02
 -1.5818614e-01
  2.3201189e+00
  3.6001071e-01
 -1.3174982e+00
 -1.9811649e+00
 -1.2612431e+00
 -2.5939140e-01
 -3.7796226e+00
 -1.9551352e+00
  4.2343232e-01
 -1.1483037e+00
  2.1841307e+00
  1.0102493e+00
 -1.9610584e+00
 -1.9892991e+00
  1.3024089e+00
 -7.1881843e-01
  1.5336944e+00
  2.4614064e-01
  1.1742759e+00
  2.2539804e+00
  4.1466565e+00
  6.7832893e-01
 -2.2249036e-01
  1.4296087e+00
  3.4310747e-02
  1.9490390e-01
 -1.6184169e+00
  2.2960203e+00
  5.0369227e-01
 -8.1079876e-01
 -5.1261342e-01
  7.8964734e-01
  6.9283724e-01
  3.0011141e-01
 -9.9173230e-01
 -4.6775602e-02
 -5.7152194e-01
  1.5102032e+00
 -5.8658892e-01
  8.0561912e-01
  1.0035220e+00
 -3.5524715e-02
  5.9211755e-01
 -5.9767175e-02
 -2.8133662e-02
  1.7886218e-01
 -2.1103122e+00
 -1.4929241e+00
 -2.9905443e+00
 -2.0678182e-01
  8.3073455e-01
 -4.2173119e+00
 -2.6327470e-01
 -1.3956852e+00
 -8.0986500e-01
 -4.6243218e-01
 -8.5844964e-01
  9.2040640e-01
 -1.3799423e+00
 -2.0141516e+00
 -1.5943063e+00
 -1.3247697e+00
  2.9420727e-01
  3.9315540e-01
 -1.3561073e-01
  5.6390226e-01
 -9.1103250e-01
 -1.4494562e+00
 -5.0044656e+00
  1.9618088e+00
  3.9354029e+00
  1.3232458e+00
 -4.3970433e-01
 -1.2831460e+00
 -9.7139448e-01
  7.9502249e-01
 -2.4790468e+00
 -3.1947651e+00
 -1.3109854e+00
 -7.4364698e-01
  1.4797439e-01
 -1.3295473e+00
 -8.8889438e-01
 -1.7999369e+00
 -9.9695396e-01
 -3.0994239e+00
  2.6433318e+00
 -8.0828458e-01
  7.6124257e-01
  2.1890042e+00
 -2.5689487e+00
 -1.5986729e+00
 -1.5846883e+00
  5.2553214e-02
  2.0103989e+00
 -2.8194497e+00
  2.1270342e+00
 -1.7586772e+00
  6.1134040e-02
  2.7619705e-01
 -6.3902134e-01
  1.6111996e+00
  1.2369175e+00
 -1.0665844e-01
  6.1223954e-01
  4.6585208e-01
  5.0057709e-01
 -1.1616565e+00
 -1.0747689e+00
  5.7972002e-01
 -3.4072335e+00
  4.7370944e+00
  3.4829466e+00
 -3.3853576e-01
  3.8456169e-01
 -2.4750686e+00
  3.1232634e+00
  8.4565133e-02
 -5.9031981e-01
 -6.9948572e-01
  4.7616634e-01
  1.4024302e-01
  1.2170817e+00
  8.2863331e-01
  6.8584043e-01
 -1.0315939e+00
  1.2818673e+00
  1.5611516e+00
  1.4462646e+00
 -8.6484694e-01
 -9.0743011e-01
  1.0026771e+00
 -6.0575473e-01
  3.4861049e-01
 -2.7059758e+00
  6.5315235e-01
 -4.3042016e-01
  1.2620028e+00
  4.8754070e-02
 -1.1248776e-01
  1.4232329e+00
 -2.3978333e+00
  2.5895271e+00
 -1.8938103e+00
  8.9397860e-01
  3.9523798e-01
  3.7978363e+00
  3.8197166e-01
 -1.8446173e-01
 -2.6315951e-01
  2.2089286e+00
  1.4122708e-01
 -3.3762844e+00
 -1.8099245e-01
 -3.9464599e-01
 -8.5213751e-01
 -2.5186200e+00
 -5.7490373e-01
 -9.7971302e-01
  9.0154487e-01
  5.6958478e-02
 -1.4302394e+00
 -2.0830114e+00
  1.9487305e-01
  2.5537472e+00
  5.0357014e-01
  1.3320314e+00
  1.2049171e+00
  8.3534712e-01
  9.1437399e-01
  3.1215903e-01
 -1.7511626e-01
  7.5697374e-01
  8.9329129e-01
 -3.1214547e-01
  3.8494678e+00
  2.6732497e+00
 -2.3114226e+00
  5.7537216e-01
 -2.8398615e-01
 -1.8123455e-01
 -1.7014924e+00
  1.5299873e+00
  3.7136483e-01
 -3.4879452e-01
  1.2944012e+00
 -1.6317214e+00
  1.4864836e+00
 -1.0317675e+00
 -2.0516513e-01
 -1.8451139e+00
  5.7946998e-01
  2.6681037e+00
 -7.2506791e-01
 -3.3456981e-01
 -7.0005113e-01
 -8.4170270e-01
  6.8354952e-01
 -2.5761497e-01
  1.7815498e+00
  1.2797120e+00
 -2.8891295e-01
 -6.4614773e-01
  1.8845508e-01
 -6.0139406e-01
  4.8794813e-02
  4.0499505e-01
 -6.0010624e-01
  1.9212207e+00
 -3.1871063e-01
  5.0789039e-03
 -3.9635105e+00
 -1.9482222e+00
 -5.7413822e-01
  1.9108803e+00
  6.0327120e+00
 -3.6171212e+00
  2.4956629e+00
 -2.8312154e+00
 -5.5135769e-01
  1.2325906e+00
  5.0000149e-01
  1.9202772e+00
 -1.2459247e+00
 -1.8216143e+00
 -2.0171459e+00
  1.2113268e+00
  3.8266683e-01
 -1.0088617e-01
  1.4555000e+00
  1.8233362e+00
  4.7147200e-02
  1.7029606e+00
 -1.3612708e+00
  1.1924754e+00
 -8.9021319e-01
 -2.7358129e+00
 -9.6870434e-01
 -3.7046719e-01
 -1.5181541e+00
 -1.8550973e-01
  8.7949103e-01
 -5.0091833e-01
 -5.9000045e-01
  3.6330864e-01
 -4.9399490e+00
 -3.8034186e-01
 -2.5660250e+00
 -6.8919770e-02
 -2.2122958e+00
 -8.0233014e-01
 -1.2127821e+00
 -2.1581686e+00
  3.9164439e-01
  1.2576808e-01
 -3.6048975e+00
  7.4132437e-01
  3.5293067e+00
 -2.0373859e-01
 -8.3111197e-01
 -1.3027146e+00
 -1.5013827e+00
 -1.3421128e+00
 -3.1609333e-01
  3.7181463e+00
 -1.7620593e+00
 -7.2104138e-01
  5.8996683e-01
 -1.0311526e-01
  1.3688339e+00
  1.6903915e+00
 -2.6847308e+00
  9.3846776e-02
  3.7494889e-01
 -1.8166080e+00
  3.7007883e-01
  7.9540890e-01
  4.2634183e-01
 -1.5671577e-01
  1.1650223e+00
 -3.8343005e-02
  1.6306235e+00
 -1.2961252e+00
 -7.2723776e-01
 -3.5025156e+00
 -5.0859720e-01
 -1.4104042e+00
 -9.9274564e-01
  3.4644502e-01
  1.1488490e+00
 -9.3663037e-01
  1.3036816e+00
  5.9165859e-01
 -1.9542930e+00
  3.6016724e-01
  8.2095927e-01
  1.7823997e-01
  1.1764030e+00
  8.6531430e-01
  2.5492189e+00
 -2.6962199e+00
  1.8602973e+00
 -1.4751885e+00
  9.3353969e-01
 -1.1159861e+00
  3.0488887e-01
 -6.2707829e-01
  4.3205920e-01
  5.0623745e-01
 -2.9886529e+00
 -5.6074429e-02
  1.1479618e-01
 -4.3745723e-01
  2.3878072e-01
 -1.4105738e+00
 -5.2502651e+00
 -3.2388909e+00
  3.8237784e+00
  3.7029550e+00
  4.3188863e+00
  3.2853284e-01
 -1.2996716e+00
 -1.3859953e+00
  1.8076960e+00
 -1.6411000e+00
  1.4166296e+00
  1.1448206e+00
 -2.2501941e+00
  2.8317823e+00
 -4.4483784e-01
  4.4447383e-01
  1.7663535e+00
  2.1878376e+00
  6.8158264e+00
  3.7693789e+00
 -3.9161211e-01
  3.9061160e+00
  9.4091669e-02
  6.8755136e+00
 -2.2540899e-01
  7.9839808e-01
  2.5191882e+00
 -2.3597578e-02
 -9.8433751e-01
 -4.8036230e-01
 -4.2411125e-01
  2.7558439e+00
 -1.7279874e-01
 -1.0673854e+00
 -3.2844287e-01
 -1.2792897e+00
  9.5683622e-01
  1.7320752e+00
  6.6049337e-01
  1.6683753e+00
  3.8390914e-01
 -2.1226480e+00
  7.5195277e-01
  1.1172197e+00
 -8.5549347e-02
 -1.0443088e+00
 -1.5607979e+00
 -1.4061824e+00
  5.4322608e-02
 -3.1329563e-01
  6.1818379e-01
  1.0425887e+00
 -2.1096249e+00
 -1.3450809e+00
  9.1115409e-01
  2.2783117e+00
  2.7441921e+00
 -1.3840564e+00
 -9.9079186e-01
 -4.7722778e-01
 -1.8330996e-01
 -3.9472859e+00
 -7.3453391e-01
 -2.8673005e-01
 -9.6649621e-03
 -1.0028931e-01
  2.3079313e-01
 -1.4529315e+00
  3.6936897e-01
  4.7730557e-03
 -5.4344893e-01
  7.6365262e-01
  2.1044438e+00
  1.4571329e+00
 -1.4254551e+00
  1.1165845e+00
  8.5561252e-01
  1.6048832e+00
  7.3777252e-01
 -3.8074341e+00
  2.0555928e+00
 -1.5422943e+00
  2.1997328e+00
  9.7966629e-01
 -2.6134074e+00
 -5.0692052e-01
 -1.6054790e+00
 -1.6860142e+00
 -1.7629778e-02
 -2.2258112e+00
  3.5515299e+00
 -3.4690301e+00
 -1.0697128e+00
 -8.7930328e-01
  1.9569365e+00
  8.5219699e-01
  2.1210740e+00
 -1.7899097e+00
 -1.7616804e+00
  1.7917048e+00
  2.4845511e-01
  1.6108143e+00
  1.5895315e+00
  7.1612823e-01
  1.8659561e+00
 -8.3202952e-01
 -7.9772222e-01
 -1.4029312e+00
 -9.1677129e-01
  1.7182273e+00
  1.2628661e+00
 -4.4860494e-01
  1.1236475e+00
  7.7571422e-01
 -5.0875414e-02
  1.0664369e+00
 -4.3811664e-01
  1.0686398e+00
 -9.3500383e-02
 -7.7958778e-02
 -1.5714995e+00
  2.0384641e+00
 -1.2252276e+00
  2.2992896e-01
 -1.4879265e+00
  2.5115785e-01
  2.5731337e+00
  4.1801584e-01
  2.2170296e-01
  7.7728683e-01
  1.3472807e+00
  5.4749707e-04
  7.3664600e-01
  2.5434914e+00
 -2.6431927e-01
 -3.7073207e-01
  9.0827811e-01
  7.5729430e-01
 -1.0490658e+00
  1.3333184e+00
 -5.1384437e-01
 -1.8589499e+00
 -1.6537738e+00
  7.9768365e-03
 -3.6024387e+00
 -1.0222527e+00
 -2.1846688e+00
 -2.5533527e-01
  1.9191162e-01
  7.6548469e-01
  2.9088229e-01
  1.2744457e+00
  2.5810018e-01
 -8.2753199e-01
  3.1197783e-01
  4.1114601e-01
  8.3916527e-01
  8.8138855e-01
  1.6372953e-01
  7.4004352e-01
 -8.9610398e-01
  1.1383633e-01
 -1.3920908e+00
  4.5741287e-01
  2.8987789e-01
  4.3809849e-01
  3.5356542e-01
  3.9388338e-01
 -1.4774387e-01
  2.7476003e+00
 -4.7190326e-01
  5.3139639e-01
 -3.5714364e-01
  5.8158845e-01
 -3.6356845e-01
 -7.1148968e-01
  1.3382173e+00
  5.4221278e-01
  1.5723109e+00
  2.9370087e-01
 -2.0845452e-01
 -7.4999356e-01
 -2.4508824e+00
  1.5419249e-01
 -6.9008660e-01
  1.1755645e-01
  3.0384079e-01
 -4.3371296e-01
 -1.4714965e-01
 -3.2845013e+00
 -6.3898981e-01
  2.5905833e-01
 -1.6809884e+00
 -4.4022840e-01
  5.6899559e-01
  5.9770089e-01
  2.6161125e-01
  5.9534860e-01
 -1.5823693e+00
 -7.2035533e-01
 -6.5242052e-01
  5.3656918e-01
  5.5774367e-01
  6.4195675e-01
 -6.1246836e-01
 -1.7795602e+00
 -1.8819402e+00
 -6.1928880e-01
 -4.6508640e-01
  6.7662150e-01
  3.3073020e-01
 -4.5488715e-01
 -7.4693763e-01
 -7.6684070e-01
 -2.4757798e-01
  3.3186075e-01
  8.4371102e-01
 -3.7842122e-01
 -7.0893288e-01
 -3.4657985e-01
  4.4874829e-01
 -4.1482031e-01
  2.8827891e+00
  2.4775708e-01
 -1.2153313e+00
  9.8062426e-01
 -9.4274116e-01
 -2.3292896e-01
 -2.9828496e+00
 -1.9979176e-01
  1.9960424e+01
 -2.1220167e+00
 -3.5058734e+00
  3.0018988e+00
  1.4276818e+00
 -6.6946158e+00
 -2.5465055e+00
  3.0429623e+00
  5.4183216e+00
 -7.7619028e-01
 -3.4969118e+00
 -7.3016191e+00
 -1.7222154e+00
  2.2435218e-01
 -3.9881647e+00
  5.6196856e-01
  4.2658553e+00
  7.4812281e-01
  3.0529532e+00
  7.1321678e-01
  1.8191031e-01
  8.2629174e-01
 -7.4728590e-01
  2.8126163e+00
 -7.1271653e+00
 -3.1795254e-01
  4.5599957e+00
  5.0689363e+00
 -1.7577537e+00
 -1.3091168e+00
 -1.7473332e+00
  1.1585722e+00
 -7.1945560e-01
 -1.5810995e+00
 -1.0224848e+00
  3.5712593e+00
  3.8867342e+00
 -9.0598041e-01
 -2.1763539e+00
  1.1146898e+00
  6.4989619e+00
  5.4564571e+00
 -3.5949869e+00
 -6.0180402e+00
 -2.1255903e+00
  2.0921965e+00
  1.4204311e-01
  3.1496754e+00
 -4.4526401e+00
 -2.9995444e-01
  3.6035011e+00
  5.2702713e-01
  7.4935865e-01
  1.7975729e+00
  1.3592644e+00
 -1.8973451e+00
 -4.0920115e+00
  6.5448780e+00
  4.2657018e+00
 -2.9347482e+00
 -3.3474650e+00
 -1.6215163e+00
 -7.0250326e-01
 -8.5809392e-01
  1.2769005e+00
  8.3281412e+00
 -1.0009906e+00
 -4.9237709e+00
  1.6992534e+00
  4.6613688e+00
  4.7011173e-01
 -3.4016671e+00
 -1.5866208e+00
 -1.3080939e-02
  2.4487374e+00
  4.1649094e-01
 -3.2598469e-01
 -2.1584206e+00
  1.6456582e-01
  3.2323938e-02
  8.5349256e-01
 -1.2260854e+00
 -3.2826703e+00
 -4.5743780e+00
  1.9408752e+00
  1.5254618e+00
 -2.0270345e+00
  1.6816525e+00
  4.4447951e+00
  1.4934634e+00
 -2.3296809e+00
  4.1251560e-03
  4.1251560e-03
  4.1251560e-03
  4.1251560e-03
  4.1251560e-03
  5.2743582e-03
  5.2743582e-03
  5.2743582e-03
  5.2743582e-03
  5.2743582e-03
  4.1027446e-03
  4.1027446e-03
  4.1027446e-03
  4.1027446e-03
  4.1027446e-03
  2.3731452e-03
  2.3731452e-03
  2.3731452e-03
  2.3731452e-03
  2.3731452e-03
  1.4660439e-03
  1.4660439e-03
  1.4660439e-03
  1.4660439e-03
  1.4660439e-03
  7.1759237e-04
  7.1759237e-04
  7.1759237e-04
  7.1759237e-04
  7.1759237e-04
  5.9611837e-05
  5.9611837e-05
  5.9611837e-05
  5.9611837e-05
  5.9611837e-05
