nep4_zbl 1 C 
zbl 1 2
cutoff 6 5 44 34
n_max 4 4
basis_size 8 8
l_max 4 2 1
ANN 80 0
  2.1754982e+00
  3.3767774e+00
 -2.8480750e-02
 -7.6629680e-01
  1.2927494e+00
  2.3734404e-01
 -1.5953603e+00
  7.2161788e-01
 -7.7555305e-01
  3.6583605e-01
 -3.6693213e-03
 -1.4442060e+00
 -1.1694028e+00
  1.6337658e-01
  1.8103923e+00
 -6.4439672e-01
 -1.3055667e+00
 -1.9223568e+00
  9.7596008e-01
  1.7773125e+00
 -7.7874237e-01
  7.9228263e-03
  9.8051339e-01
  2.4455678e+00
 -5.5720860e-01
 -7.1798801e-01
 -1.1729512e+00
  1.0003829e-02
  6.7090070e-01
  1.1949056e+00
 -5.0582498e-01
  2.4535944e-01
  1.7222802e-01
  4.6755823e-01
 -1.8826557e+00
  1.4972636e+00
  1.1556180e+00
  3.0608108e+00
 -1.1928171e+00
  1.0443685e+00
  1.4023050e+00
  1.8924850e+00
 -3.0261500e+00
  1.4895980e+00
 -1.2114345e+00
  2.1732950e+00
  9.4877028e-01
 -1.0150764e+00
  4.4044581e-01
 -8.7429547e-01
  2.0688484e+00
 -2.7895818e+00
 -1.7496041e+00
 -1.8912637e+00
 -3.8433027e-01
  4.1679657e-01
 -1.9661181e+00
  1.6822000e+00
  4.5082176e-01
 -7.4057233e-01
  9.2079562e-01
  2.8801696e-02
  3.2542849e+00
  3.0747119e-01
 -1.2247893e+00
  3.4647217e-01
 -6.8569350e-01
  1.7013103e+00
 -7.5255617e-02
 -8.8369942e-01
 -1.4305393e-01
 -1.1876944e+00
  3.2806441e-01
 -1.1306833e+00
  1.2631540e+00
 -1.4475332e+00
  2.7744045e+00
  3.7225977e-01
  6.6826510e-01
  1.2322640e+00
 -4.4953635e-01
  5.5465174e-01
  3.7544173e-01
  1.6187654e+00
  7.6191014e-01
  1.1467841e+00
 -2.6443222e-01
 -1.4391497e+00
  4.9745191e-02
  2.4173727e+00
 -1.0065759e-02
  2.2671356e+00
  3.7527573e-01
  1.2029058e-01
  8.8285822e-01
 -1.3451354e-01
 -3.5072720e+00
  7.6062453e-01
  9.6838009e-01
 -7.6613146e-01
 -1.3386531e+00
 -5.8047432e-01
  7.4856311e-01
 -1.4032967e+00
  6.9681716e-01
 -2.1310983e+00
 -1.0619743e+00
 -1.6765460e+00
  2.5745851e-01
  3.9026379e-03
 -2.2195959e+00
  2.3044516e-01
  3.0283225e+00
  3.8989159e-01
  4.1560239e-01
 -2.8677422e-01
  2.5998805e+00
  7.7997339e-01
  3.2940018e-01
 -2.2686073e-01
 -2.7404252e-01
  2.3052037e+00
  2.3969562e+00
  7.7714302e-02
 -3.2295296e-01
 -2.9416466e-01
  1.2226816e+00
  1.1175275e+00
 -7.6411623e-01
  3.2594323e-01
  1.3465266e+00
 -8.1482482e-01
 -2.3017948e+00
 -1.4568450e+00
  5.7743090e-01
  1.0577159e+00
  3.8335994e-01
 -2.4785383e-01
  1.2281195e+00
  3.0923787e-01
 -1.1012876e+00
 -1.6386582e-01
  1.9914305e-01
 -1.0948977e+00
  4.3505758e-01
  2.6108015e-01
 -4.6405801e-01
  2.2270712e-01
 -1.7254726e+00
  1.0181342e+00
 -2.2013648e-01
 -1.4922664e+00
 -9.1915941e-01
 -1.2530236e-01
  1.1778996e+00
 -1.8073627e-01
  6.8835312e-01
  2.6521814e-01
  1.1608064e+00
  2.3558813e-01
  1.5498014e-01
  4.3101743e-01
  6.4076459e-01
 -3.9757463e-01
  1.5643692e+00
  1.0065931e+00
  4.2394495e-01
 -3.5169873e-01
  2.8844780e-01
 -5.1633877e-01
  8.3321935e-01
 -2.3875389e-01
 -6.9807953e-01
  6.6071814e-01
 -3.0098373e-01
 -1.7867452e+00
 -2.5165751e+00
  7.2468376e-01
  1.0293981e-01
  1.8262180e+00
 -2.3590621e-01
  1.6853978e-01
  2.1509891e+00
 -3.6810985e-01
  3.5282385e+00
 -2.0634909e+00
 -4.8713788e-01
  2.6681173e+00
 -1.2338459e+00
  1.5784360e+00
 -5.9618312e-01
  1.7832116e+00
  2.9425550e+00
  6.2072849e-01
  3.0395410e+00
  4.4804049e-01
 -8.1501740e-01
 -5.2412027e-01
  2.2700804e-01
  1.6624317e+00
 -3.7578864e+00
  3.5772517e-01
  7.2274345e-01
  1.2001771e-01
  6.5223211e-01
 -6.1440831e-01
 -2.2305144e-01
  9.3368977e-01
  5.7006621e-01
 -1.3848323e+00
 -1.1425524e+00
 -3.8983521e-01
  1.0259129e+00
  1.3768251e+00
  2.3581297e+00
 -3.7712610e+00
 -5.6034946e-01
  1.0014970e+00
  2.5640079e-01
  1.5794508e+00
 -1.1530737e+00
 -1.7067657e+00
  2.4040523e+00
  9.3499660e-01
  1.6261617e+00
 -5.2448243e-01
 -1.5252885e+00
 -1.0337089e+00
  2.5877311e+00
 -1.6426555e+00
 -1.6252698e+00
 -2.6584232e+00
 -1.2998956e+00
  1.9241352e+00
  8.0730236e-01
 -7.6859897e-01
  8.0575305e-01
  3.0915144e-01
 -4.7156107e-01
  3.5525647e-01
 -5.0213540e-01
  3.9093122e-01
  5.5270743e-01
  3.2860094e-01
 -8.8888007e-01
 -4.8704638e+00
 -4.7267506e-01
 -5.9543794e-01
 -3.5003164e-01
  2.5268240e+00
 -3.5961022e+00
 -2.7462604e+00
  1.2732328e+00
  1.5286899e-01
 -2.2017314e-01
 -6.1167892e-02
 -1.8357685e+00
  1.3119551e+00
  2.9950486e-02
  1.0830499e+00
  3.6185011e-01
 -2.0998604e+00
 -1.0671221e+00
  2.3598812e+00
  1.1169735e+00
  1.0517569e+00
  6.2699121e-01
 -1.3630579e+00
 -8.8978875e-01
  1.6694481e+00
 -8.2186431e-01
 -1.8534024e+00
 -1.7210796e+00
 -5.7396430e-01
 -4.1533664e-01
  1.1902409e-02
 -6.6387135e-01
  9.3322325e-01
 -4.9695688e-01
 -8.6857909e-01
 -5.4981905e-01
  1.6643392e-01
 -6.3221174e-01
  2.5712049e+00
  2.5942677e-01
 -1.9128095e+00
  4.5613018e-01
 -3.2614198e-01
 -6.2016010e-01
  2.1626687e+00
  5.9014767e-01
  1.6262884e+00
  1.0462716e+00
  6.2891021e-02
 -4.0667111e-01
 -3.6955732e-01
 -3.2424450e-01
 -3.5264450e-01
 -1.0676020e+00
 -1.2442408e+00
  1.8947295e+00
  3.0430785e-01
  1.0627884e+00
 -7.9781994e-02
  1.9411659e+00
  1.4570565e+00
  1.4990468e+00
 -1.3837523e+00
  9.1901207e-01
  1.2262732e+00
 -4.9612635e-01
 -8.6214525e-01
 -1.4743908e-01
 -8.6828899e-01
  2.6026267e-01
  3.5967517e+00
 -3.2936445e-01
 -8.0897117e-01
 -2.6875874e-01
 -1.8143896e+00
 -9.1900867e-01
  3.5770196e-01
  6.6097671e-01
  4.8427179e-02
 -8.7367606e-01
  3.1710705e-01
 -1.5961959e+00
 -3.9124253e-01
  1.1913325e+00
 -1.7905062e+00
 -1.8542705e+00
 -1.3977745e+00
  1.1614247e-02
 -2.0524454e+00
  4.6377158e-01
  6.6955554e-01
 -9.3129098e-01
 -6.8244636e-02
 -3.7759268e-01
 -2.6283789e+00
  2.7774704e+00
  4.5044762e-01
 -2.0422158e-01
 -8.5128582e-01
 -2.1673733e-02
 -6.7290473e-01
  5.6967670e-01
 -1.0183285e+00
  2.5601900e-01
 -1.4923638e+00
  1.4527744e+00
  1.9973609e+00
  7.4662155e-01
 -8.1303006e-01
 -1.4103246e-01
  1.6293950e+00
  6.3677484e-01
  4.0170751e+00
  1.7718211e-02
 -2.0890018e-01
 -4.2806590e-01
  1.2681568e-01
  8.6815870e-01
  1.1040945e+00
  1.0390804e+00
  8.5244834e-01
  8.1467217e-01
 -2.9319075e-01
 -5.3701216e-01
 -5.8468956e-01
  3.2802362e+00
 -1.5631646e-01
 -8.1258827e-01
  1.3116691e-02
  6.1303383e-01
  1.3642145e+00
  4.0092838e-01
  2.7072716e-01
  3.0756416e+00
 -2.7438053e-01
  6.4253795e-01
 -1.3051083e+00
 -4.7026139e-01
 -3.2322016e-02
  6.4890456e-01
  1.6989018e+00
 -3.3847779e-01
 -5.9044596e-02
  1.3325720e-01
  1.8252233e+00
 -1.2283726e+00
  2.4442198e-02
  1.0414121e+00
  1.0065403e+00
  1.9377123e+00
  4.9617505e-01
  2.6554298e-01
 -8.5607004e-01
  4.3768200e-01
  1.1077131e+00
 -1.4234300e+00
  4.8525479e-02
  5.9321010e-01
  2.7616939e-02
 -1.1528838e+00
 -2.5093684e+00
 -8.6364329e-01
  1.3745732e+00
 -6.1914235e-01
  4.1411164e-01
  4.9108115e-01
  3.1951616e+00
 -7.4928343e-01
 -7.7825052e-01
  4.2412382e-01
  9.7994667e-01
 -1.4564775e+00
  8.0450065e-02
 -3.9272380e-01
  3.4237906e-01
  5.3072822e-01
 -1.5341549e-01
  4.9368042e-01
 -2.0301574e-01
 -2.3494775e+00
 -1.7521699e-01
 -3.5507506e-01
 -2.1761515e+00
 -1.4463207e+00
  1.6341941e-01
 -1.6378911e+00
 -2.5403017e-01
 -8.9920908e-01
 -1.8028960e-01
  5.5542731e-01
 -6.3583106e-01
 -1.5503527e+00
  4.3969636e+00
 -3.9627367e-01
 -1.2472618e+00
  1.4414039e+00
 -1.2949632e+00
 -3.1248468e-01
 -1.7942972e+00
  6.6159081e-01
  8.0864906e-01
  7.3476297e-01
 -2.0376389e-01
 -2.6277050e-02
 -1.6499173e-02
  3.5185376e-01
 -4.8207003e-01
 -8.5245204e-01
 -1.2007349e+00
 -3.0678673e+00
 -2.4893004e-01
 -8.9687246e-01
  7.0181471e-01
 -2.4596505e-01
  1.9653789e+00
 -2.0317218e+00
  6.8969423e-01
 -1.5555235e-02
 -4.2583108e-01
  1.4314235e+00
  9.8394251e-01
  9.4162357e-01
 -1.5549638e+00
  5.8944166e-01
 -1.3558718e+00
 -1.0966432e+00
 -1.8979669e+00
 -7.9279175e+00
  1.7840426e+00
 -1.3598465e+00
  7.4010146e-01
  9.5771092e-01
  4.3887171e-01
 -1.8980934e-01
  4.9928105e-01
 -1.7850804e+00
 -2.9141355e+00
  1.1938654e+00
 -1.9733068e-01
  6.4504063e-01
 -4.5433918e-01
 -1.4337627e+00
  4.9839953e-01
 -1.0073923e+00
 -3.0679438e-01
  1.2310214e+00
 -6.5364909e-01
  5.3347611e-01
  3.9353961e-01
 -9.1792470e-01
 -8.9643502e-01
  9.9524468e-02
 -1.0512424e+00
  5.9845769e-01
 -4.6603408e-01
 -1.1280525e+00
 -1.3050432e+00
 -5.1561838e-01
  7.0681840e-01
  1.3270299e+00
 -1.3711789e+00
 -1.8547155e-02
  7.3975343e-01
  1.3830140e+00
  1.1951729e-01
  8.9273185e-01
 -9.8373204e-01
  5.4354761e-02
 -1.1593529e+00
  8.3964229e-01
 -8.3148307e-01
 -9.2005897e-01
 -9.2725712e-01
 -1.0082181e+00
 -1.1713091e+00
 -6.4060140e-01
  1.0978938e+00
 -1.0120349e-01
  1.0745764e+00
 -1.0618813e+00
  1.1737291e+00
 -8.6893380e-02
 -1.6200539e+00
  5.8488697e-01
  2.4400562e-01
  1.1883324e-01
 -1.5498643e+00
 -1.2888743e+00
  1.8410635e+00
  3.3547375e-01
  2.2290363e+00
  3.0489082e+00
 -3.4066174e+00
  1.3880845e+00
 -5.2818578e-01
 -2.6208930e+00
  1.6285597e+00
  2.2848146e-01
  1.7466992e+00
 -5.6658679e-01
 -2.9243333e+00
  1.8040020e+00
 -9.8356980e-01
 -5.6898189e-01
 -7.1883488e-01
  7.1614212e-01
 -2.2642689e+00
  1.4205011e+00
 -4.1109419e-01
 -7.7966064e-01
 -1.0078332e+00
 -7.8125316e-01
 -6.5356094e-01
 -7.2782052e-01
 -3.9984584e-01
 -3.4116805e-01
  1.8736298e+00
 -2.6359384e+00
 -1.7969546e+00
  2.0352113e+00
 -1.8053947e-01
 -6.8852514e-01
 -1.4305365e+00
  1.6634358e-01
  9.5983583e-01
  7.5878537e-01
  1.9055120e+00
 -7.6301908e-01
  4.1734871e-01
  6.1617339e-01
  4.0444940e-02
  2.2237217e-01
 -8.9638108e-01
 -8.1846595e-01
  6.0763258e-01
  1.8814853e-01
  1.3802660e+00
  7.1461803e-01
  4.7957700e-01
 -4.9297145e-01
 -6.8427348e-01
  6.3442451e-01
 -3.9680856e-01
 -7.4460095e-01
 -3.4737948e-01
 -5.0201756e-01
  8.8792527e-01
 -1.0047274e+00
  7.5368994e-01
 -4.4352746e-01
 -3.2244489e-01
  1.2235110e+00
 -2.2909682e+00
  1.0548998e+00
 -2.2424328e+00
 -1.7153569e+00
  6.8819559e-01
  7.0715058e-01
 -2.3970345e-01
  9.6297640e-01
 -3.6314318e+00
  2.9819856e+00
  1.0315808e+00
 -2.1861269e+00
  2.2295525e+00
 -1.9826550e+00
 -1.6686126e+00
 -7.6106960e-01
 -4.0470573e-01
 -2.4725387e+00
 -2.6175814e+00
 -7.2531819e-01
 -3.7640715e-01
 -4.2328221e-01
 -1.6709074e+00
 -2.5757926e+00
  5.8058643e-01
 -1.8723495e-01
 -4.3803668e-01
  1.4480482e+00
 -3.7850064e-01
  3.2151526e-01
 -7.1918148e-01
  8.0220109e-01
  4.3265466e-02
 -4.0311250e-01
  4.7335288e-01
  7.0965940e-01
 -5.1479650e-01
 -9.7452027e-01
 -3.3161551e-01
 -1.1369095e-01
  1.4316354e+00
 -1.0931140e+00
 -9.4678068e-01
 -1.9997703e-01
  1.5401423e-01
 -8.4860675e-02
 -1.1894286e-02
 -3.4705314e-01
  4.6089911e-01
 -9.8618901e-01
  7.6248538e-01
 -7.1383989e-01
 -4.4200051e-01
  2.5316092e-01
 -7.4008447e-01
 -1.9146893e+00
 -8.6152530e-01
 -1.1380945e+00
  2.4572100e-01
  2.9135314e-01
 -3.7790889e-01
  6.9982189e-01
  6.8553293e-01
  6.3536912e-01
  5.6742185e-01
  8.0606109e-01
 -6.8008363e-01
 -6.0268182e-01
 -1.2189825e+00
  6.3033170e-01
  8.3333507e-02
 -1.2240278e+00
 -5.1508045e-01
 -4.9082071e-01
 -4.7415331e-01
 -3.8955936e-01
 -2.9482764e-01
 -1.9657135e-01
  4.3350074e-01
 -2.0350516e-01
 -1.3119133e+00
  5.0848907e-01
 -9.1635859e-01
 -4.0923947e-01
  4.5070922e-01
  4.4440994e-01
  5.2443230e-01
  1.8804314e+00
 -6.0675567e-01
 -9.5464927e-01
  1.3332237e+00
  9.6492311e-03
 -1.2226723e+00
 -1.0723125e+00
 -2.0525426e-01
  3.3111487e-02
  1.5507561e+00
 -2.4691908e-01
 -6.8744606e-01
 -2.9069041e-03
  1.8083932e+00
 -7.9431903e-01
  3.3556747e-01
 -9.3200749e-01
 -1.5530146e+00
  7.4860173e-01
  5.2008355e-01
  1.0580912e+00
 -4.7757745e-01
 -8.0375499e-01
  1.0067393e-01
 -6.5395272e-01
 -6.2737036e-01
 -3.6252072e-01
  1.5820827e+00
  1.8649057e+00
  6.7694926e-01
 -1.5069265e+00
  2.6085069e-02
 -5.6432241e-01
  1.1147432e+00
  8.5498971e-01
 -6.2209314e-01
 -2.6132259e-01
  1.7436925e+00
 -2.7161750e-01
  5.4762185e-01
 -1.1478783e+00
  1.7558447e-01
 -8.5080683e-01
 -2.9072879e-02
  4.4687599e-01
 -7.6786262e-01
  6.5328747e-01
  2.6352984e-01
  5.3045756e-01
 -1.0752250e+00
 -2.4685304e-01
  3.3429132e+00
  8.7418938e-01
 -8.9718318e-01
 -1.2189726e+00
  1.7672822e-01
 -2.1045671e+00
  3.1076655e-02
  1.5882561e+00
 -1.0019270e+00
  3.6045688e-01
 -3.0045910e+00
 -1.8427369e-01
 -4.6073142e-01
 -6.4911830e-01
 -1.7425600e+00
 -2.4749358e-01
 -9.3316805e-01
 -2.9062750e+00
 -4.2890799e-01
 -5.3939348e-01
  1.1329468e+00
 -5.5033946e-01
 -4.1328090e-01
 -7.8607881e-01
 -2.7606418e+00
 -2.8716740e-01
  8.9733541e-01
  2.0346000e+00
 -5.0666380e-01
  7.3191360e-02
 -9.9487042e-01
 -1.6831123e+00
 -1.3256123e+00
 -2.2085796e-01
 -8.0802298e-01
  1.2290418e+00
  3.8521138e-01
  1.6573892e+00
 -1.0710754e+00
 -1.8942635e+00
  1.3584831e+00
  5.7746910e-02
 -6.9965315e-01
 -3.8655788e-01
  1.0524583e+00
 -2.8268892e-01
  1.6050346e-01
 -1.6999444e-01
 -1.2944978e+00
  2.2289036e-02
  1.3733814e+00
 -1.0320029e+00
  8.7598133e-01
  3.8086008e-02
 -2.6879373e+00
 -3.7821200e-01
 -1.0901949e+00
 -1.2304863e+00
 -9.0172863e-01
  1.1932049e+00
 -2.0537390e-01
  9.4194025e-01
 -4.2864445e-01
 -9.0927851e-01
  3.5252988e-01
 -1.2757795e-01
  1.0126961e+00
  1.8993933e-01
 -1.1750826e+00
  1.6978576e+00
  1.0672625e+00
  2.2493790e-01
 -3.6857419e+00
 -1.8678237e+00
  6.2734783e-02
 -1.6353328e+00
  9.9846131e-01
  3.4873959e-01
 -1.1617846e-01
 -2.2032554e+00
 -2.1665668e+00
  5.6181484e-01
 -1.0226932e+00
 -3.8703728e-01
 -8.3303833e-01
 -1.3196063e+00
 -5.6072332e-02
  6.8859518e-01
 -1.0111403e+00
  3.6279142e-01
 -1.1355969e+00
 -4.9678609e-01
  1.7679495e+00
  2.8857241e+00
 -5.9771750e-02
 -2.6218934e+00
  1.7622776e+00
  3.1653041e-01
  6.6255879e-01
 -3.5706779e-01
 -4.1359445e-01
  1.0303178e+00
  4.6051353e-01
  7.5699046e-02
  5.2002501e-01
  3.3093384e-01
 -8.8611722e-01
  1.9048530e+00
  6.7988622e-01
  7.1189553e-01
  1.0158559e+00
 -6.5893040e+00
  4.8259124e-01
  2.3077054e-01
 -3.4483778e+00
 -2.7456704e-01
  2.7514672e+00
  7.5044841e-01
 -1.1027274e+00
 -3.1918881e+00
  1.6166614e+00
 -1.4030892e+00
  1.4733144e+00
 -1.1775423e-01
  1.1165215e+00
 -1.8500183e-02
  6.6782612e-01
 -5.2291214e-01
 -7.0606327e-01
  1.1307183e-01
  2.0010376e+00
 -4.5973250e-01
  5.1429969e-01
  7.7869523e-01
  2.1991539e+00
  5.7035953e-01
  1.4609526e+00
  4.5806834e-01
  3.8755852e-01
  3.9847285e-01
  2.6349497e+00
 -1.6053151e-01
  3.0048547e+00
  9.9627018e-01
 -3.1339428e+00
 -1.4838731e+00
  2.5127318e+00
 -1.9719484e+00
 -1.8574540e-01
  6.8480736e-01
 -2.3690181e+00
 -1.7180977e+00
 -1.5456589e+00
  1.3020984e+00
 -1.6216186e+00
 -2.1601726e-01
  1.0950673e+00
 -6.2932295e-01
 -5.2976161e-01
 -2.7871326e-01
  9.2400944e-01
  9.4214684e-01
 -1.1719805e+00
  1.9331503e-01
 -2.7190421e+00
  4.2555264e-01
  1.8259027e+00
 -3.3104685e-01
  5.7576496e-02
 -2.9943657e-01
 -3.3824754e-01
  5.1086026e-01
 -4.4007900e-01
  2.0006861e-01
 -1.7707063e+00
 -2.2905583e+00
  1.7269386e+00
  2.6312509e-01
 -2.0307980e+00
  1.0282588e+00
 -4.5248473e-01
  1.1407509e+00
  1.9356508e+00
 -2.4487584e+00
  6.4423549e-01
 -1.4467523e+00
  1.7098157e+00
  3.3384405e-02
  1.4273591e+00
 -2.4403794e-01
 -9.1451186e-01
  1.6770159e+00
  1.6771165e+00
 -2.8206581e-01
 -1.0497869e+00
 -2.2781948e-02
  5.3578383e-01
  4.5224321e-01
 -1.0214558e-01
  1.0502443e+00
 -7.8207350e-01
 -8.6419731e-01
 -2.1634881e+00
 -3.5709473e-01
  7.1774173e-01
 -1.1885898e+00
  8.2745180e-02
 -1.5756477e+00
 -2.3904601e-01
  1.0915667e+00
 -5.9008121e-01
  1.0033755e+00
 -3.9905863e+00
  1.3103474e+00
  1.1785681e+00
 -4.4219902e-01
 -9.7948086e-01
 -2.7507299e-01
  1.4636998e-01
  1.6726482e+00
 -2.1519363e+00
 -8.4602058e-01
 -6.6864032e-01
  8.5152894e-01
  1.1319803e+00
 -2.5245515e-01
 -2.8583682e+00
  2.3824131e+00
 -2.8638783e-01
  1.0964566e-01
 -6.0766459e-01
  5.4949993e-01
 -2.1432204e+00
 -3.5876989e-01
  5.1467472e-01
 -1.0331329e+00
  6.7194760e-01
  3.3132322e+00
  1.3055850e+00
 -8.6160856e-01
 -1.5681632e+00
  1.3155699e-01
 -9.8008096e-01
 -6.1310822e-01
 -2.4172361e-01
  4.5412224e-02
  4.0436146e-01
  4.0314012e+00
  1.0715896e+00
  3.1884921e-01
 -1.0323793e+00
 -3.6766739e+00
 -1.1095386e+00
  7.6963449e-01
  2.2795532e+00
 -4.1919522e+00
  2.6353258e-01
  1.0695173e+00
 -8.7322682e-01
  4.3597832e+00
 -9.4997597e-01
 -6.3570523e-01
  2.2703235e+00
 -7.9288527e-02
 -1.6826604e-01
  1.7794033e+00
  9.6369463e-01
  2.7161768e-01
 -1.5730157e+00
  1.6008211e+00
 -1.7544771e+00
 -5.7966989e-01
  3.7467918e+00
 -9.8095171e-02
  1.7328062e+00
 -1.5499143e-01
  2.3339281e-02
  4.7594696e-01
 -1.0629851e+00
 -6.0438097e-01
 -2.5475411e+00
 -1.7148649e+00
 -3.5882270e-01
 -2.9604456e+00
  2.9912381e+00
  2.5195107e-01
 -5.6957912e-01
 -1.7329987e+00
 -9.8295742e-01
  4.1064325e-01
  5.2930969e-01
  1.3591614e+00
  5.9474206e-01
 -6.1355168e-01
  5.3669298e-01
 -4.6595266e-01
  1.6295254e+00
  1.1336931e+00
 -2.7255318e+00
 -2.4037692e-01
 -1.2429495e+00
  6.5421626e-02
  1.6801066e+00
  1.7568473e+00
  7.3469329e-01
  1.5663518e+00
  1.7381950e-01
  4.8320600e-01
  4.2170918e-01
 -2.5771299e-02
  7.0863020e-01
 -6.1840281e-02
  1.5073715e+00
 -2.0706965e-01
 -1.4691336e-01
 -2.0163941e+00
 -2.3352139e+00
  3.5738716e-01
 -1.2774204e+00
 -2.2958857e-01
  1.4932289e+00
 -7.6425421e-01
  3.9631149e-01
 -2.7468434e-01
  1.2327977e+00
  8.6891890e-01
  7.2850090e-01
  3.0846055e+00
 -1.3374833e+00
 -1.6875927e+00
 -6.4531658e-03
 -1.6262487e+00
  2.2115664e+00
 -2.0778644e+00
  1.2459930e-01
  1.5048479e+00
 -8.8668519e-01
  9.8879778e-01
  5.0326870e-03
 -3.4347494e+00
 -3.5686769e+00
 -4.4615579e-01
  9.3984313e-02
 -1.4706383e+00
  1.4527272e-01
  4.2007077e-01
 -1.1429460e-01
  3.2532933e-01
  3.9227358e-01
 -7.4567443e-01
 -1.1063416e+00
  1.8065397e-01
  2.5088029e+00
  8.6120570e-01
  3.5642736e-02
  1.6076952e+00
  2.4476485e+00
 -2.5280106e+00
  1.0238763e+00
 -1.7443845e-01
  3.1347933e+00
 -5.0810609e+00
  1.0529727e+00
  7.0475864e-01
 -3.7814471e-01
  8.6711609e-01
  2.8316170e-01
  3.5582680e-01
 -3.6134335e-01
 -2.0428845e-03
  1.0760925e+00
  1.4020966e+00
 -1.4566180e+00
 -1.3095621e+00
  1.0821345e+00
 -2.3329360e+00
 -9.0202838e-01
  8.9260370e-02
 -1.4621735e-01
  7.4755913e-01
  5.1075224e-02
  1.8375268e+00
  5.8172029e-01
 -5.6646717e-01
 -2.8392518e-01
 -3.8709512e-01
  5.2501756e-01
 -3.2547209e+00
 -1.8998462e+00
 -2.1037302e+00
 -2.7650676e+00
  2.4256876e+00
  2.7103617e+00
 -2.7897432e-01
  1.2940372e+00
  2.4793416e-01
 -2.0495908e+00
  8.5031527e-01
 -6.4373925e-02
 -5.0581974e-01
  6.3244814e-01
 -3.1288316e+00
  2.0136786e+00
  1.7609586e+00
 -2.4810560e+00
 -1.9826020e+00
  1.1895069e-01
  6.4395100e-01
 -1.0727055e-01
 -7.3548323e-01
 -1.5271444e+00
  2.0038567e+00
  5.0033438e-01
 -6.0166810e-02
  6.6042864e-01
 -5.5214202e-01
  3.5539582e-01
 -5.2822530e-01
 -1.6546988e-01
  4.0457791e-01
  1.9772054e-01
 -2.1574555e-01
 -2.0974785e-01
 -1.7552083e+00
  4.7653696e-01
 -2.4330230e+00
 -5.5092406e-01
 -1.1591828e+00
 -1.8918391e-01
  6.7400205e-01
 -3.5195300e-01
  2.5070605e-01
  5.3071368e-01
 -8.4146792e-01
 -4.3700480e-01
  8.8671416e-01
  1.5502448e+00
  1.9828560e-02
  4.1922456e-01
 -6.2045489e-02
 -1.4305903e+00
 -6.2937105e-01
 -6.3084066e-01
  1.3237622e+00
  1.2628442e+00
  2.0140576e+00
 -1.3083837e+00
  8.2735389e-02
 -5.8948833e-01
 -9.4350082e-01
 -2.0885824e-01
  3.9137179e-01
  5.0729847e-01
  1.4420356e+00
  2.7740583e-01
  4.5879072e-01
  1.1627805e+00
 -3.2208410e-01
  8.5146111e-01
 -5.4501414e-01
 -2.1297818e-01
 -2.0000525e+00
 -7.7628803e-01
  1.7740902e-01
  1.3872594e+00
  3.5178320e+00
  3.6081812e-01
 -2.6801939e+00
 -8.3226107e-02
  1.4796327e+00
 -1.4361578e+00
  4.4934410e-01
  1.3978732e+00
 -7.5238115e-01
  7.6613463e-02
  1.5187367e-02
 -1.0435691e+00
  8.8465267e-01
  9.8837596e-01
  1.6879464e+00
 -6.6617066e-01
  1.8744918e+00
  1.7375648e+00
  2.1429163e-01
  7.1746087e-01
 -4.2091802e-01
 -5.6294799e-01
  2.0112944e-01
 -1.7564341e-02
  1.2110589e+00
  8.9885068e-01
 -2.3460937e+00
 -6.0286885e-01
  7.2500354e-01
 -1.3888125e+00
  3.9716396e-01
 -2.5581567e+00
  6.8117911e-01
  8.0657369e-01
  1.2406538e+00
 -3.5789302e-01
 -1.3531693e+00
 -2.3059530e+00
  6.9136149e-01
  3.3002901e+00
 -1.4002186e-01
 -8.9055067e-01
  2.1148719e-01
 -1.8801419e-01
 -2.7661994e-02
 -1.3143667e+00
 -7.0349789e-01
 -7.2812843e-01
  4.1320963e+00
  2.2944838e-01
  4.4229504e-01
 -1.6377985e+00
 -1.1477492e+00
 -2.1765411e-02
 -1.1605595e+00
  3.9974055e-01
 -1.1202445e+00
 -1.0825289e+00
  2.1553792e-01
  3.8400373e-01
  5.1042360e-01
 -4.9136430e-01
 -2.3493545e+00
  3.1455126e-01
  6.0300159e-01
  5.0477636e-01
  3.6334744e-01
  8.0973631e-01
  1.4711660e+00
 -1.1345206e+00
  1.3001302e+00
 -3.9683324e-01
  1.9458783e+00
  1.6194658e-01
 -1.5767676e+00
  3.2328600e-01
 -3.9495343e-01
  1.2611638e+00
  1.1319538e+00
 -6.1218405e-01
  6.5878677e-01
 -5.2449286e-01
  1.2939726e+00
 -1.5216388e+00
 -4.8090571e-01
  2.7004251e-01
 -2.1219833e+00
 -5.1518285e-01
 -5.2068830e-01
 -1.6643212e+00
 -7.1096003e-01
  2.8102157e-01
 -7.6835698e-01
 -1.7805159e-01
 -2.7524943e-02
  1.2319368e+00
  6.1671692e-01
 -2.0298679e+00
  2.1954924e-02
 -2.1191752e+00
 -1.3640476e+00
  7.9545218e-01
  1.2650138e+00
 -1.0007826e+00
 -9.2982703e-01
 -2.5072093e+00
 -2.6207866e-02
  1.3423703e+00
 -1.1082417e+00
  2.6967760e-02
 -3.9436376e-01
 -3.1340152e-02
 -3.8199620e+00
 -1.5739848e-01
  2.4867392e+00
 -2.3103735e+00
  1.6785486e+00
  8.0615705e-01
 -1.2540182e+00
 -6.8058288e-01
 -1.0667577e+00
 -3.6778072e-01
 -5.7823753e-01
 -1.0349792e-01
  1.6695311e+00
  5.4201418e-01
 -3.9584544e-01
  1.7873731e-01
  1.3699137e+00
  1.3412578e-01
  1.3856436e-01
  8.5159037e-03
  2.9344195e-01
  6.0586244e-01
 -2.5451353e+00
 -1.0011528e+00
 -7.1944213e-01
 -7.6335020e-02
  2.3135036e-01
  5.9437865e-01
  2.8953564e+00
  3.0844061e+00
 -8.7372279e-01
 -4.9850774e-01
  5.5463523e-01
  1.2284831e-01
 -1.3787706e+00
 -3.9069045e-02
 -4.5579082e-01
  1.5747422e+00
 -4.0361622e-01
  4.9910319e-01
  2.8894234e-01
  7.5769049e-01
  9.6710682e-01
  1.3779976e+00
  1.4287382e-01
  1.4982328e+00
  3.3538330e-01
 -6.6152644e-01
  1.4426730e+00
  2.0336415e-01
 -6.1718327e-01
 -1.0623662e+00
  5.3108227e-01
  1.0320938e+00
 -1.9356236e+00
 -1.2060170e+00
 -3.9353418e+00
 -3.2595892e+00
  2.1606295e+00
 -1.8881658e+00
  7.5011477e-02
  9.1506168e-02
  2.0024133e+00
  1.7609311e+00
 -4.8363036e-01
  1.2271150e+00
 -1.2644868e+00
  3.2881883e-01
 -7.4512982e-01
  1.2538381e+00
 -1.5725782e+00
 -9.5016831e-01
  3.8748041e-01
  1.2918893e+00
 -3.0381434e+00
  6.2413938e-02
 -8.9759910e-01
 -7.9149330e-01
 -1.3305544e+00
 -1.8366723e+00
  9.8198766e-01
  2.5028986e-01
  4.3172440e-01
 -1.6810782e-01
  2.0124226e+00
  2.0297827e-01
  1.9794318e-01
  2.6305988e-01
 -4.9118791e+00
 -2.2814455e+00
 -2.2568645e+00
 -6.2259358e-01
  1.1418130e+00
 -1.3064700e+00
 -4.2248144e+00
  7.1403961e+00
 -1.3541849e+00
  1.2265257e-01
  1.9054440e+00
  1.0124096e+00
 -1.1037233e-01
  2.4571669e+00
  1.2873266e+00
  2.3711569e+00
 -1.1407195e+00
  2.5020697e+00
  1.2153934e+00
  1.1307603e+00
  1.6446661e+00
 -1.5637679e+00
  7.0360309e-01
  3.1701553e+00
 -1.5413907e-01
  5.9535253e-01
 -9.3452913e-01
 -1.1890830e+00
 -1.1286571e+00
 -2.5480926e+00
  1.2054991e+00
  9.3059742e-01
 -5.9111458e-01
 -3.5135186e-01
  1.4578872e+00
 -7.0049691e-01
  1.2531773e+00
 -5.2950305e-01
 -1.2159636e+00
  1.1615165e+00
  1.3103992e+00
  7.7414131e-01
 -5.1479530e-02
 -6.9523686e-01
  1.2688569e+00
 -6.8093610e-01
  8.5394092e-02
 -5.9745145e-01
 -2.5966060e-01
  5.7150316e-01
  4.1171163e-01
 -4.1017678e-01
  5.4341424e-01
 -3.1470951e-01
  1.2904803e-01
  3.0929372e-01
 -3.4914705e-01
  1.3116433e-01
 -8.8650681e-02
 -9.6998692e-01
  1.4190468e-01
  1.6738643e-01
 -2.9856068e-01
  3.4802762e-01
 -5.7171717e-02
 -8.1020707e-01
 -4.0921110e-01
 -5.7327133e-01
 -2.2416022e-01
 -9.4093919e-02
  3.1092844e+00
  7.5577617e-01
 -1.0839971e+00
  1.7000154e+00
 -3.0515170e-01
 -3.0999510e-03
 -1.0443996e+00
  2.7951629e+00
 -8.4322518e-01
 -4.5215440e-01
 -4.5382836e-01
  2.6719236e+00
  1.8497817e-01
  5.4176742e-01
 -8.9716530e-01
 -4.6955955e-01
  7.5937003e-01
  1.8314228e+00
 -1.1586750e+00
 -2.9813375e-02
  7.7773339e-01
  8.3375227e-01
  4.6713829e-02
 -8.1876665e-01
 -1.2956092e+00
 -2.3113161e-01
 -1.6464078e+00
 -1.9310066e+00
 -4.5780653e-01
 -1.6826183e-01
  2.1217003e+00
  1.6209661e+00
  4.0757957e-01
  1.1009778e+00
  1.2170519e+00
 -2.8551354e+00
  1.8084495e+00
 -2.3087215e+00
 -1.7832112e+00
 -7.5566417e-01
  1.2464408e+00
  2.0015991e-01
  7.1238017e-01
 -1.1796764e+00
  3.3344758e-01
  3.5006588e+00
 -3.5423734e+00
 -1.0880212e+00
  6.6368681e-01
 -4.7152686e-01
 -4.6494183e-01
  5.1929182e-01
 -1.4537839e+00
  5.8204168e-01
 -5.4491911e-02
  6.7023492e-01
 -2.1042313e-01
 -1.0090714e+00
  1.4023399e+00
  6.2228805e-01
 -4.3484507e+00
  2.1623576e+00
  1.7126931e+00
  7.4465126e-01
  2.8747565e-01
  1.7443842e-01
 -4.9255472e-01
  6.3125867e-01
  7.3540121e-01
 -1.7439903e-01
  3.6677372e+00
  7.0104170e-01
 -2.4793699e+00
 -2.9422602e-01
  1.1737983e+00
 -2.1015038e+00
  3.3418182e-01
 -1.9278404e+00
  7.1631426e-01
  2.1140959e+00
  2.7675023e+00
 -6.6701496e-01
 -2.3533705e-01
 -7.8853661e-01
  1.2745175e-01
 -1.5033029e+00
 -1.6891508e+00
 -8.6393964e-01
 -1.5010564e+00
  5.9752434e-01
  1.0428987e+00
 -1.5396452e+00
 -1.4201880e+00
 -5.6546223e-01
 -1.6490471e-01
 -2.4137563e-01
  6.8395090e-01
 -8.6639059e-01
 -1.5569570e+00
  6.1701721e-01
 -8.6517465e-01
 -6.1247915e-01
 -5.7716340e-01
  4.5113829e-01
 -7.8605115e-02
 -1.4770133e+00
 -2.9931285e+00
  5.3069586e-01
 -1.9122896e+00
  1.1209689e+00
  1.8302717e+00
  2.6485267e+00
 -1.5453780e+00
  1.4039405e-01
  5.4822128e-02
  2.4044116e+00
 -2.0572145e+00
 -3.0285516e+00
 -5.1438397e-01
 -7.9763955e-01
  4.5149164e+00
 -1.9629923e+00
 -2.8048584e-02
  1.6412629e+00
 -4.2041051e-01
  1.0222303e+00
 -1.4687296e+00
 -1.1817843e+00
  2.2138865e+00
  7.0080087e-02
 -3.9835374e+00
  3.6799054e+00
 -3.2877654e-01
  2.4909906e+00
  2.1693881e+00
 -1.0157398e+00
 -7.2850770e-01
  1.3057560e+00
 -7.3576456e-01
 -1.5428560e+00
  1.2497580e+00
  1.2836144e+00
 -3.4276912e+00
 -1.4096956e+00
  2.1324117e+00
 -1.3195059e+00
 -2.7280369e-01
  1.1272171e+00
 -1.1749047e-01
 -2.5614506e-01
 -2.5233865e-01
 -4.7578451e-01
  7.4400604e-01
  8.0664605e-01
 -2.8592390e-01
  8.4972656e-01
  9.7249180e-01
 -8.8426131e-01
 -1.3142557e-01
  1.2885717e+00
 -6.7769384e-01
 -2.4011157e-01
  7.1503192e-01
  4.3268314e-01
  1.9479898e-01
  2.7196670e+00
 -7.5857025e-01
 -1.1906902e+00
 -3.8338783e-01
 -1.1633807e-01
 -4.0588251e-01
 -1.0788958e+00
 -4.2779049e-01
  2.7487004e-01
  7.0764452e-02
 -1.7343707e+00
 -2.2238435e-01
  6.7148972e-01
  5.5673701e-01
  2.2965373e-01
  8.0231643e-01
 -4.0378660e-01
  1.5932031e+00
  6.6477591e-01
 -1.2055897e+00
  8.2970746e-02
 -2.2252152e+00
  1.0315638e+00
  2.3634012e-01
  7.0064380e-03
  3.9140800e-01
 -8.9155769e-01
 -6.8954772e-01
  6.3157642e-01
 -6.2872726e-01
  1.4831047e+00
  1.1940753e+00
  1.2462707e+00
 -8.1374830e-01
 -6.6201377e-01
 -2.4592447e+00
 -2.0909962e-01
 -2.7899390e-01
 -2.1807958e-01
 -2.7212530e-01
  7.0513868e-01
  4.9848261e-01
  6.8570638e-01
 -5.8502294e-02
 -1.7635206e+00
 -3.6088963e+00
  7.5198656e-01
 -9.7011626e-01
  4.5727286e-01
  1.8690089e+00
  5.2953428e-01
  2.2406311e+00
 -2.4210541e+00
 -3.2181478e-01
  6.8928498e-01
  3.4866366e-01
  1.1168280e+00
 -7.0400983e-01
  8.8515937e-02
  1.1890984e+00
  9.8734759e-02
  4.6046081e+00
 -1.5851172e+00
  2.2486198e+00
 -2.1705408e+00
  1.8645691e+00
  1.9842074e+00
  4.1727316e-01
  8.3854073e-01
  2.1327399e-01
  1.5514029e+00
  1.7132579e+00
  8.1527907e-01
  6.3506317e-01
 -4.6158984e-01
  2.7719265e-01
  9.2939436e-01
  9.1322027e-02
 -2.0135300e-01
 -9.0851724e-01
  1.5875958e+00
  1.2310162e+00
 -3.6935818e+00
 -5.0861698e-02
 -2.1404021e+00
  3.6622417e+00
 -4.8562679e-01
 -4.4001245e-01
  5.3449434e-01
  8.0881280e-01
 -1.8585540e+00
 -2.4179380e+00
 -5.8719528e-01
  8.4778972e-02
 -9.4478624e-03
 -1.0517286e+00
  4.4326743e-01
  4.4420448e-01
  4.1264382e-01
 -1.7499446e+00
 -1.9877199e+00
  2.2100224e+00
 -1.1430560e+00
  1.1168073e+00
 -9.8790169e-01
 -3.8844669e-01
  1.3230631e+00
  1.5747694e+00
  7.4717033e-01
  7.0580423e-01
 -1.2929277e+00
  9.3601212e-02
  4.9574620e-01
  1.1528192e+00
 -1.0307637e+00
  6.4228573e+00
  1.2281071e-01
 -1.4940094e+00
 -5.0220597e-01
 -1.8740877e+00
  4.5366650e+00
  9.0342993e-01
 -1.1369846e+00
 -1.1243711e-01
 -4.0396123e+00
  6.5753227e-01
  1.3330200e+00
 -3.1366527e+00
 -8.9844394e-01
 -2.1620011e+00
  1.4654603e+00
 -1.6522696e+00
 -1.2976509e+00
 -1.4981741e+00
 -1.5880766e+00
 -9.0409396e-03
 -1.7899284e+00
  2.8396348e-02
 -2.8120944e+00
 -1.6516572e+00
 -2.0527773e+00
 -9.8802572e-01
  1.3836313e+00
 -3.6247042e-01
 -2.0241749e-01
  7.3561871e-01
 -2.1707211e-01
 -2.7886324e-02
  9.0755951e-01
  1.2491300e+00
 -1.6110500e+00
 -2.6231210e+00
 -1.6688164e+00
 -2.6488135e+00
  2.0540392e+00
 -6.9417492e-02
 -7.9888129e-01
  1.1349542e+00
  1.3936122e-01
 -4.9248546e-01
  1.1204776e+00
 -1.3284627e+00
  3.9851327e+00
 -2.5775263e-01
 -1.6963174e+00
  1.2392843e+00
  3.2610825e-01
  1.5412664e+00
 -7.0827192e-01
  3.1959990e-01
  3.7235615e-01
  7.1854919e-02
  3.7431517e-01
  1.5338380e+00
 -4.1295224e-01
  7.0841736e-01
  1.9722641e-01
 -3.7103131e-01
  2.8749844e-01
  9.2783260e-01
 -9.1853648e-01
 -5.2311897e-01
 -1.9221295e-03
  1.6482352e-01
 -1.2858447e+00
 -5.1766759e-01
  1.0505244e+00
  1.1341217e+00
  1.0845952e+00
 -1.6034288e+00
 -3.6544028e-01
  1.9842742e-01
  2.4631381e+00
 -4.4671094e-01
  2.3763926e-01
 -7.6735133e-01
  3.1397462e+00
  9.6050179e-01
  1.6860731e-01
  2.8500838e+00
 -1.3735483e+00
 -5.0142026e-01
 -1.3935254e+00
  4.2812264e-01
  5.6861550e-01
 -3.5310562e+00
  2.7101417e+00
  1.4861550e+00
  1.4310316e+00
 -1.1444254e+00
  2.3542032e+00
 -1.2105241e-01
  3.2366877e+00
 -2.0063931e-01
 -8.7351882e-01
 -9.7074616e-01
  1.6491176e-01
  3.1074664e-01
  5.0765717e-01
  1.6670427e-03
  1.8080266e+00
  1.4968841e+00
 -9.0072276e-03
 -2.0397301e+00
  2.2522724e+00
 -2.0567403e+00
 -3.4175692e+00
  5.8284366e-01
 -4.6108303e+00
 -2.0956430e+00
  3.3591478e+00
  4.0172710e+00
  1.1477983e+00
  9.6286529e-01
 -1.4395828e+00
  3.0414298e+00
  1.2911566e-01
  9.3788338e-01
 -5.3846546e-02
  2.2171960e+00
  2.1722918e+00
 -6.3183588e-01
  1.1491307e+00
 -1.4176004e+00
  9.8749262e-01
  7.8222042e-01
 -3.4569952e+00
 -3.9831474e-01
  6.9412822e-01
 -2.4844958e-01
 -1.4490771e+00
 -6.3030750e-02
 -2.0461103e-01
 -6.0875297e-01
  8.0989593e-01
  4.3307513e-01
  9.5525396e-01
 -4.1801232e-01
 -2.3495400e+00
  2.5218635e+00
 -7.4292344e-01
  7.9520822e-01
  2.9642823e-01
  8.8107413e-01
  8.1404388e-02
 -3.9264944e-01
  1.1891505e+00
 -1.2953529e+00
  1.1462989e+00
 -1.6920115e+00
 -1.4691154e+00
  1.2437561e+00
 -6.4984900e-01
  1.6334881e+00
 -1.5747784e-01
  3.2666853e-01
  5.2226323e-01
  3.7030369e-01
  6.3288075e-01
 -4.2135870e-01
  2.2605617e+00
  4.1743919e-01
  2.1793075e+00
 -5.8174294e-01
  3.6629015e-01
 -1.3573722e+00
  9.0485972e-01
  7.7071100e-01
 -7.4884914e-02
  5.6973326e-01
 -4.6641226e+00
 -2.4764784e-01
  8.4673053e-01
 -9.2000526e-01
  7.4042636e-01
 -1.8804910e+00
 -1.0979204e+00
  8.9358580e-01
  1.9475560e+00
  9.6237713e-01
 -8.3869582e-01
  2.7391195e+00
  7.9361981e-01
  3.5481948e-01
 -3.8570893e-01
  2.1664661e-01
  1.0645560e+00
  1.6992388e+00
  6.6824955e-01
  2.5710306e-01
 -2.4573874e+00
  3.1006711e+00
  1.8417174e+00
  2.8037205e-01
 -4.9145335e-01
  1.9079030e-02
 -1.9380124e+00
  2.0520349e+00
  1.5306485e-01
  1.3906996e+00
 -2.3986305e-01
  8.8172978e-01
 -2.0542517e+00
  2.5064762e+00
 -1.7845174e+00
 -1.6405103e+00
 -5.6344230e-02
 -3.1779185e-02
  1.6390745e-01
  2.7982268e-01
  2.0083358e+00
 -5.2389079e-01
 -1.9118207e+00
  3.3839145e-01
 -7.5996649e-01
 -4.5853931e-01
  1.8839782e+00
 -3.3429641e-02
 -5.5076635e-01
  7.0463546e-02
 -4.3356609e-01
  6.5235078e-02
  2.1020533e-01
  1.6907105e-01
  4.4432583e-01
  2.8326327e-01
  2.9296409e-02
 -9.3591267e-01
  1.6539625e+00
  1.9199637e+00
 -2.4757771e+00
 -8.2056427e-01
  6.3698572e-01
 -6.0974020e-01
  4.9087840e-01
  7.5811315e-01
  1.5130936e-01
  1.6146141e+00
 -4.4448361e-02
 -2.1112765e-01
  6.5192957e+00
  6.4677078e-01
  3.7779418e-01
  1.0168506e+00
  1.0100989e+00
  2.2949347e+00
  2.8939350e+00
 -3.7670672e+00
 -9.2939967e-01
 -4.8605230e-01
  2.0932105e+00
  1.8306853e+00
  4.2406899e-01
 -2.6904163e-01
 -1.1388147e+00
  1.7661475e+00
  5.5005491e-01
 -1.5453176e+00
 -7.2419524e-01
  2.3924580e+00
  1.5493309e+00
 -2.6785951e+00
  6.1245459e-01
  4.4790521e-01
  8.5362613e-01
 -5.6302562e+00
  2.1488807e-01
  1.4420675e+00
 -4.6448568e-01
 -1.3436208e+00
  2.1452248e-02
  1.4198312e+00
 -9.2553544e-01
 -6.8677312e-01
  1.1445574e+00
 -1.6338563e+00
 -3.2278452e+00
  1.7920207e+00
  1.5612540e-01
 -7.1800578e-01
  6.1357212e-01
 -4.4650067e-02
 -5.3710871e+00
  7.9266436e-02
  2.2077470e-01
 -1.1574973e+00
  4.4181075e+00
  1.9791938e-02
  6.8241405e-01
  1.1103792e-01
  4.0012951e+00
 -2.6494222e+00
  8.1600404e-01
  1.8517998e-01
 -2.9486907e+00
 -1.6646299e+00
  1.2230143e-02
  1.2432818e+00
  2.8647009e-01
  9.0899509e-01
  5.9523445e-01
  1.3649811e+00
  6.5640146e-01
  1.0202541e+00
 -2.0604233e-01
  6.0600698e-01
 -1.7412002e+00
 -6.5295589e-01
  6.0443872e-01
  1.2735581e-01
 -2.0827096e+00
 -6.4822841e-01
  1.8525927e+00
  1.1353717e-01
 -1.7376546e+00
  1.1178129e+00
  8.4558016e-01
 -1.6367611e-01
  2.9407718e+00
  2.1993949e+00
 -2.4957054e+00
 -5.7633817e-01
  6.5748155e-01
  1.6066598e+00
 -8.1751406e-01
 -4.0585944e-01
  3.9877129e-01
 -2.4900808e+00
  1.1020229e+00
 -3.9153939e-01
 -1.1271353e+00
 -1.6240916e+00
 -2.4433307e-01
 -1.5788174e+00
  6.7914927e-01
  4.4144726e-01
 -3.5144249e-01
 -3.1411538e-01
 -4.1208714e-02
 -3.9404646e-01
  6.3422394e-01
  1.0501461e+00
 -1.0678455e+00
  1.8616870e-01
 -1.3282102e-01
 -2.1372198e-01
 -3.5325007e+00
  1.1484008e+00
  5.5365950e-01
  2.0541766e+00
 -5.2224302e-01
  9.3408555e-01
 -1.2363945e+00
 -1.4635820e+00
  2.1486478e+00
  1.1127342e+00
 -1.4943830e+00
 -2.8938363e+00
  5.6394321e-01
 -7.2421473e-01
 -8.6593848e-01
  6.0213572e-01
 -5.1440620e-01
  5.5862683e-01
  7.5243646e-01
 -3.9695092e-02
  2.7706561e+00
 -2.1082109e-02
  1.4002117e+00
  1.1148771e-02
  1.6922309e+00
 -1.4768901e+00
  4.8016423e-01
  4.5728004e-01
 -4.9162140e-01
  1.7274779e-01
  8.0618691e-01
 -3.8785636e-02
  2.2496779e-01
  2.9216361e-01
 -2.3821048e-01
  3.3517218e-01
  1.0659040e+00
  9.7499645e-01
 -4.3303666e+00
 -5.9309536e-01
  3.0012803e+00
  2.6123681e+00
  2.0777330e-01
  5.7643640e-01
 -3.7581422e+00
  3.2375066e+00
  1.0028621e+00
 -3.7012359e-01
  8.3201092e-01
  6.3687700e-01
 -3.3737643e+00
  3.1796056e-01
 -9.1407478e-01
 -6.1465436e-01
 -1.2964592e+00
 -8.5309166e-01
 -3.4647043e+00
 -9.0493482e-01
  6.7054844e-01
 -8.2400572e-01
  1.1539974e+00
  7.2809112e-01
 -4.6282801e-01
 -6.3340938e-01
  2.9854741e-02
 -1.1658907e-01
 -1.4166716e+00
  7.4298638e-01
 -1.5312415e+00
 -5.4492712e+00
 -2.6941786e+00
 -2.2380707e+00
 -3.4094489e+00
  7.0127594e-01
 -4.0095029e+00
 -3.8170788e+00
 -1.0378151e+00
 -3.2324046e-01
  6.3291483e-02
 -1.0425103e+00
  2.3696451e+00
  3.0591519e+00
 -6.1861759e-01
  3.0697858e-01
 -8.6264616e-01
  3.4996307e+00
 -3.0383226e-01
  1.9420446e+00
  2.3013042e-01
 -2.0997643e-02
  1.6669050e+00
 -6.7307609e-01
  2.4474882e-01
  1.7242367e+00
  9.7683454e-01
 -1.1916252e+00
 -4.0728897e-01
  2.0697911e-01
 -2.0060370e+00
 -2.3704791e+00
  4.4071559e-02
  3.2835290e-01
  4.2456351e-02
  3.9124113e-01
 -1.0076188e+00
  2.2472208e-02
  1.0036075e+00
  1.6398916e+00
  2.7465160e+00
  7.4445158e-01
  1.3989552e+00
 -1.2950327e+00
 -2.7048981e-01
 -3.3260944e-01
 -6.6505045e-01
  4.2639122e+00
 -9.2323130e-01
 -4.1344371e+00
  2.7026647e-01
  1.0748267e+00
  1.9394433e+00
  2.2465229e-01
  5.2822453e-01
  1.1116940e+00
  4.1485536e-01
  5.8286154e-01
 -1.5729128e-01
 -8.4728611e-01
  2.1824841e+00
 -8.6033684e-01
 -9.7594756e-01
 -9.3626618e-01
  2.0730603e+00
  1.2249026e+00
  5.0886160e-01
 -1.2043049e+00
  1.3947260e+00
 -6.3716841e-01
  1.9608000e-01
 -4.6461999e-01
 -9.5081455e-01
  1.5219350e+00
  5.3982526e-01
 -5.8087510e-01
 -6.5586412e-01
  2.7587873e-01
 -1.0759573e+00
 -1.7900892e-01
  2.3560242e-01
 -2.8847638e-01
  2.2391331e+00
  2.4567419e-01
  4.9378788e-01
  4.6612501e-02
 -3.0190918e+00
  1.8676976e+00
 -3.0591795e-01
  1.4666901e+00
  2.1891886e-02
  2.9434078e+00
 -3.4555893e+00
  2.3526511e+00
  2.6055044e-01
 -8.5438639e-01
 -1.8583056e-01
 -6.6676624e-02
 -7.5919038e-01
 -6.6960520e-01
  7.2305632e-01
  6.6617285e-03
  2.1261373e-01
 -2.2649698e+00
  4.3591359e-01
 -8.1260467e-01
 -4.8113754e-01
 -9.0590054e-01
 -1.6828912e+00
  2.1074808e+00
  2.0644052e+00
 -6.9789922e-01
 -2.9374590e+00
  3.8868401e-03
  5.5793293e-02
 -5.9881449e-01
  9.3739283e-01
  8.5035866e-01
 -1.4263161e+00
  1.2170883e+00
  1.0280390e+00
  1.4237785e+00
 -2.0910828e+00
 -2.8170674e+00
  8.6094874e-01
  9.3435311e-01
  2.8263552e+00
 -3.0752585e+00
 -4.4854712e-01
 -2.9023947e-02
 -1.5159608e+00
  1.1785685e+00
 -1.3448483e+00
  3.7935191e-01
  3.9394420e-01
  3.1523472e-01
 -4.6264020e-01
 -1.7920699e+00
 -4.8041135e-01
 -6.3721105e-02
 -1.7706852e-01
  7.0706806e+00
  3.0683696e+00
 -5.1344270e-01
  2.9335615e-01
  6.3667965e-01
  9.7664464e-01
  1.1729100e+00
 -5.2638001e+00
 -1.7705575e-01
 -1.5832297e+00
  4.2023211e+00
  1.7854913e+00
 -5.5829082e+00
 -4.3461642e-01
 -2.3078125e+00
  2.8771040e+00
 -1.2507105e+00
 -2.6710236e+00
  1.8590245e+00
 -1.4913975e+00
 -1.9270119e-01
 -2.0057888e+00
  1.2288404e-02
 -3.3395296e-01
 -3.8711885e-01
  1.1872084e+00
  1.1790210e+00
  3.2518360e-01
 -2.6455411e-01
 -1.7349366e+00
  1.5040101e-02
 -4.8603031e-01
  3.6724681e-01
  5.8782196e-01
  1.0002880e+00
 -2.4032464e+00
 -1.6220987e+00
 -3.3496139e+00
 -1.8109843e+00
 -1.4114128e+00
 -2.9409385e-01
  2.9147935e+00
  2.4176137e+00
 -1.2627195e-01
  1.7211597e+00
  3.6616045e-01
  5.1629634e+00
  2.3572628e-01
 -3.9037776e-01
  9.5583987e-01
 -2.5110567e+00
 -1.8333899e-02
 -2.4888231e-01
  6.8409848e-01
  3.4145734e+00
 -1.5168583e-01
  3.0255798e-02
 -5.1861507e-01
  2.1897740e+00
 -1.9051867e+00
  4.4833708e+00
 -7.0873630e-01
  1.3998100e+00
 -2.0944737e-01
 -1.7066780e+00
  4.8202515e-01
 -5.6456447e-01
 -1.3819630e+00
 -1.4258305e+00
 -1.3491737e+00
 -1.4825945e+00
 -1.1728246e-02
  4.3903565e-01
  6.4636368e-01
 -2.5521631e+00
 -6.1517078e-02
  5.0912482e-01
  2.0228131e+00
 -4.8047709e-01
  7.0593274e-01
 -2.8511994e+00
  1.4306548e+00
 -1.2551708e+00
 -7.4832879e-02
 -1.9800211e-01
 -1.0084127e+00
 -8.3429354e-01
  6.3521183e-01
  1.3872982e+00
  3.3460140e-01
  7.9081154e-01
  7.6270503e-01
  6.3679808e-01
 -4.8383303e-02
 -1.7707708e+00
  8.4811443e-01
 -1.1561663e-01
 -1.1902966e-02
 -6.6938245e-01
 -5.6425321e-01
 -4.8166865e-01
  4.1088322e-01
 -1.4795583e+00
  3.8770825e-01
  9.0411156e-03
  2.3297589e+00
  4.6675482e-01
 -1.3152682e+00
 -2.0370312e+00
 -1.3390476e+00
 -2.8272304e-01
 -3.6648514e+00
 -2.8230765e+00
  1.1422706e-01
 -1.1490713e+00
  2.1752546e+00
  6.6800070e-01
 -1.6770449e+00
 -1.9792960e+00
  9.4115496e-01
 -7.5874859e-01
  1.5233228e+00
  2.0407234e-01
  1.3194572e+00
  2.2556539e+00
  4.1454387e+00
  6.3564855e-01
 -5.7572651e-01
  1.5754884e-01
 -1.5869670e-01
  2.8041658e-01
 -1.4682281e+00
  2.2935584e+00
 -2.2192270e-01
 -7.4013215e-01
 -5.5631828e-01
  3.7094647e-01
  3.0635181e-01
  6.6915971e-01
 -9.7416604e-01
 -4.1794766e-02
 -7.1393859e-01
  1.5591518e+00
 -4.9389184e-01
  9.9236649e-01
  1.6081860e+00
 -3.6920480e-02
  5.5175394e-01
  1.1250789e-01
  1.2676870e-02
  4.2990437e-01
 -2.0097558e+00
 -1.4885820e+00
 -2.9814482e+00
 -2.1853401e-01
  8.5473305e-01
 -3.8888338e+00
 -1.1776120e-01
 -1.3939222e+00
 -8.0910617e-01
 -3.8704187e-01
 -8.1223726e-01
  9.1924018e-01
 -1.0949798e+00
 -1.8472466e+00
 -1.2195501e+00
 -1.6289786e+00
  2.4570793e-01
 -2.2527294e+00
 -1.2203747e+00
 -9.3948925e-01
 -1.2156572e+00
 -1.6562628e+00
 -5.0044255e+00
  1.9707890e+00
  3.8825057e+00
  1.2585043e+00
 -3.9724877e-01
 -1.5233381e+00
 -9.0505457e-01
  8.2709652e-01
 -2.1492057e+00
 -2.9883909e+00
 -1.2216994e+00
 -1.2867473e+00
  1.6784231e-01
 -1.3796381e+00
 -9.4582695e-01
 -1.2054875e+00
 -3.0155268e-01
 -3.1004748e+00
  2.6453254e+00
 -8.3003479e-01
 -6.2085930e-02
  2.2043889e+00
 -2.5672915e+00
 -1.5989416e+00
 -1.5807389e+00
  5.6892816e-02
  2.2747858e+00
 -2.9875164e+00
  2.1381011e+00
 -1.3899140e+00
  6.0653853e-01
  5.0082266e-01
  5.1749352e-02
 -1.1685467e+00
  1.2729079e+00
 -5.8926530e-02
  6.2215048e-01
  4.6913785e-01
  4.5996192e-01
 -9.5499128e-01
 -1.0184495e+00
  6.3951218e-01
 -2.0635176e+00
  2.4948590e+00
  3.1476591e+00
 -2.1071523e-01
  8.8093497e-02
 -2.2624609e+00
  3.3626919e+00
  2.4046962e-01
 -6.7316872e-01
 -5.7481217e-01
  4.5995668e-01
  1.0848375e-01
  1.2733779e+00
  6.2340111e-01
  6.2959170e-01
 -1.0237993e+00
  1.4045979e+00
  1.5630218e+00
  1.7104472e+00
 -1.0209576e+00
 -9.4352204e-01
  6.8240321e-01
 -6.1116552e-01
  7.8269430e-02
 -1.0544398e+00
  7.7410185e-01
 -1.1936572e+00
 -2.2135523e-01
 -4.0059611e-01
 -5.6851000e-01
  3.8203657e-01
 -2.5677099e+00
  2.5644481e+00
 -2.8841910e+00
  1.4295998e+00
  2.8066951e-01
 -7.7700770e-01
  5.4566163e-01
 -3.8365212e-01
 -4.8059267e-01
  2.2038665e+00
  1.4616914e-01
 -3.3677149e+00
 -1.2061076e+00
 -2.9567015e-01
 -7.8030562e-01
 -2.3641469e+00
 -4.1637731e-01
 -1.1016420e+00
  1.0909994e+00
  5.4177176e-02
 -1.2466983e+00
 -2.1817927e+00
 -3.9781150e-01
  1.7131504e+00
  3.5381851e-01
  1.3099489e+00
  1.2001042e+00
  6.0521525e-01
  1.1489114e+00
 -1.3194366e-01
  2.0452425e-01
  9.8484659e-01
  1.7272704e+00
 -1.1229681e+00
  3.9284444e+00
  2.6699383e+00
 -2.3070157e+00
 -1.0961226e-01
 -2.9457411e-01
 -2.4287894e-01
 -1.5623426e+00
  2.1792505e+00
  3.9051458e-01
 -3.8137856e-01
  2.2109408e+00
 -1.6213624e+00
  1.5499442e+00
 -1.1259038e+00
  2.6270902e-01
 -1.8425817e+00
  6.0818088e-01
  2.6693852e+00
 -1.1862644e+00
 -3.3409148e-01
 -7.0727652e-01
 -6.9398946e-01
  8.0266702e-01
 -2.6737839e-01
  1.7865725e+00
  1.2469871e+00
 -4.4623852e-01
 -5.4278880e-01
  1.5367234e-01
 -8.3411974e-01
  4.6102852e-02
  1.2946548e-01
  6.1289757e-01
  1.9982612e+00
  6.1851358e-01
  6.0150567e-03
 -4.1672034e+00
 -2.7236142e+00
 -1.5348172e+00
  2.0100348e+00
  6.0316677e+00
 -3.7578003e+00
  2.6320829e+00
 -2.7524629e+00
 -3.1927946e+00
  1.2363477e+00
  4.4943690e-01
  1.9268175e+00
 -1.1678783e+00
 -1.7810162e+00
 -2.0406582e+00
  1.2158104e+00
  3.9047161e-01
 -9.2889935e-02
  1.5061152e+00
  1.9755985e+00
  5.8319103e-02
  2.9712875e+00
 -1.3568381e+00
  1.0923656e+00
 -9.1624045e-01
 -2.7453291e+00
 -9.6878093e-01
 -4.8779491e-01
 -1.5371569e+00
  6.4216477e-01
  9.7054070e-01
  9.4242111e-02
 -3.9760250e-01
  2.4730536e-01
 -5.0396581e+00
 -5.0828028e-01
 -2.5807483e+00
 -1.0405955e-01
 -1.7445639e+00
 -1.4775747e+00
 -1.1230851e+00
 -2.0788713e+00
 -6.0780323e-01
  9.0215527e-02
 -3.6006243e+00
  7.3922700e-01
  3.5257242e+00
 -3.7206534e-01
 -8.0649942e-01
 -1.3209389e+00
 -1.6430731e+00
 -9.6058226e-01
 -2.9026163e-01
  3.5982370e+00
 -1.7437174e+00
 -6.3534307e-01
  5.7251561e-01
 -6.6064693e-02
  2.2403214e+00
  1.6862688e+00
 -2.0190861e+00
 -3.3838773e-01
  1.0280570e+00
 -1.8317097e+00
  4.5350781e-01
  8.5520291e-01
  3.0737042e-01
 -3.4072927e-01
  2.7629828e-01
 -1.3086884e-01
  1.5224396e+00
 -1.3899730e+00
 -8.8862580e-01
 -3.6625412e+00
 -8.2993746e-01
 -1.1599817e+00
 -1.2041301e+00
  5.1134032e-01
 -1.2046871e-01
 -7.6286727e-01
  1.3692827e+00
  7.0510375e-01
 -1.8473771e+00
  5.6277812e-01
  8.3849674e-01
  2.3704870e-01
  1.1893098e+00
  8.4516507e-01
  2.8377109e+00
 -2.6638463e+00
  1.8565673e+00
 -1.7112614e+00
  2.6576912e-01
 -1.1147856e+00
  6.4813340e-01
 -4.3641910e-01
  5.1420766e-01
  5.0113356e-01
 -2.9793184e+00
 -1.1792380e+00
  4.4645572e-01
  6.0370696e-01
 -8.0179429e-01
 -1.3624531e+00
 -5.3338943e+00
 -3.5525558e+00
  3.8507044e+00
  3.7208035e+00
  4.3774223e+00
  2.3284394e-01
 -1.2881217e+00
 -1.3681387e+00
  2.5234561e+00
 -1.5990801e+00
  1.4202014e+00
  1.0815711e+00
 -2.2544580e+00
  2.8905287e+00
 -7.9600340e-01
  5.1981938e-01
  2.3769789e+00
  2.1805158e+00
  7.2770705e+00
  3.7610915e+00
 -1.9977133e-01
  3.9276156e+00
  8.5667926e-01
  6.9924855e+00
 -6.1675060e-01
  1.1092373e+00
  3.5967457e+00
 -1.1639263e-02
 -1.0229878e+00
 -5.5891472e-01
 -8.4576184e-01
  2.8429387e+00
 -2.8446046e-01
 -1.0070812e+00
 -3.0951551e-01
 -1.2344657e+00
  9.6018028e-01
  1.9291477e+00
  2.0697214e-01
  1.6648610e+00
  6.1541218e-01
 -1.8841474e+00
  9.6355230e-03
 -6.6568768e-01
 -8.4640689e-02
 -1.0194120e+00
 -1.6169975e+00
 -1.1186749e+00
  2.2558019e-01
 -3.6538047e-01
  4.8937824e-01
  1.0599861e+00
 -2.1315827e+00
 -1.3358237e+00
  1.0605073e+00
  2.2754245e+00
  1.2580295e+00
 -1.3657758e+00
 -8.0108541e-01
  1.5129949e-01
 -2.0154949e-01
 -3.9726536e+00
 -2.3416965e+00
 -1.6985126e-01
 -9.4437635e-01
 -1.5758446e-01
 -3.1730530e-01
 -1.4002773e+00
  2.4335589e-01
  7.2028697e-01
 -5.4577470e-01
  7.6285100e-01
  2.1202295e+00
  1.4556658e+00
 -1.5528991e+00
  1.1187415e+00
  8.5588777e-01
  1.6040071e+00
  7.3773891e-01
 -3.8067365e+00
  2.0656610e+00
 -1.5502790e+00
  1.7911232e+00
  1.0005037e+00
 -2.9558861e+00
 -5.0918025e-01
 -1.5883484e+00
 -1.7057710e+00
  1.7995910e-01
 -2.2269716e+00
  3.6414168e+00
 -3.4650428e+00
 -1.0015942e+00
 -8.9344913e-01
  1.9801269e+00
  8.3821464e-01
  2.1377871e+00
 -1.7904681e+00
 -1.7609988e+00
  1.7920154e+00
  2.5110316e-01
  1.6102662e+00
  1.5887173e+00
  7.1404046e-01
  1.8763398e+00
 -8.2279307e-01
 -7.9045069e-01
 -1.3229967e+00
 -9.0441996e-01
  1.7131046e+00
  1.2717979e+00
 -4.2760587e-01
  1.1277394e+00
  7.7547830e-01
 -4.6938129e-02
  1.0672816e+00
 -4.3472609e-01
  1.0798303e+00
 -1.0783152e-01
 -9.4635068e-03
 -1.5706432e+00
  2.0796793e+00
 -1.2248513e+00
  2.3218486e-01
 -1.4408435e+00
  2.5100285e-01
  2.6588995e+00
  4.1752318e-01
  2.4193050e-01
  7.7762091e-01
  1.3916659e+00
 -7.4435328e-04
  7.3631030e-01
  2.5380690e+00
 -2.6212978e-01
 -3.6262929e-01
  9.0387213e-01
  7.6141763e-01
 -1.0462972e+00
  1.3859125e+00
 -5.1376933e-01
 -1.8666860e+00
 -1.6639478e+00
 -1.6121115e-01
 -3.5916870e+00
 -1.0235354e+00
 -2.1891251e+00
 -2.5452730e-01
  1.8161072e-01
  7.7153766e-01
  2.8322169e-01
  1.2745845e+00
  2.6072207e-01
 -8.2926673e-01
  3.1034124e-01
  4.1115981e-01
  8.3512676e-01
  8.8017613e-01
  1.6380775e-01
  7.3602414e-01
 -8.9480060e-01
  1.1360975e-01
 -1.3920498e+00
  4.4605264e-01
  2.8859141e-01
  4.7022992e-01
  3.5360634e-01
  3.9393601e-01
 -1.4739487e-01
  2.7514925e+00
 -4.7228834e-01
  5.3185421e-01
 -3.5717544e-01
  5.8147645e-01
 -3.5083297e-01
 -7.1402329e-01
  1.3427781e+00
  5.4656029e-01
  1.5714190e+00
  2.8978029e-01
 -2.0431419e-01
 -7.5408107e-01
 -2.4503174e+00
  1.5385830e-01
 -6.8860662e-01
  1.1906510e-01
  3.0167022e-01
 -4.3652701e-01
 -1.4667088e-01
 -3.2850842e+00
 -6.3881910e-01
  2.8401810e-01
 -1.6759480e+00
 -4.4037572e-01
  5.6650972e-01
  5.9518743e-01
  2.5740153e-01
  5.9073818e-01
 -1.5811917e+00
 -7.2117776e-01
 -6.5240818e-01
  5.3710198e-01
  5.5695820e-01
  6.4346284e-01
 -6.0919076e-01
 -1.7853634e+00
 -1.8820674e+00
 -6.1901176e-01
 -4.6224040e-01
  6.7526692e-01
  3.1935787e-01
 -4.5760641e-01
 -7.4899775e-01
 -7.6460093e-01
 -2.6698631e-01
  3.3191615e-01
  8.4035194e-01
 -3.9289773e-01
 -7.0920873e-01
 -3.4445506e-01
  4.5827255e-01
 -4.1396326e-01
  2.8891413e+00
  2.4752209e-01
 -1.2152128e+00
  9.8065031e-01
 -9.4191700e-01
 -2.3313291e-01
 -2.9826376e+00
 -1.9776089e-01
  2.0094770e+01
 -2.1220167e+00
 -3.5058734e+00
  3.0018988e+00
  1.4276818e+00
 -6.6946158e+00
 -2.5465055e+00
  3.0429623e+00
  5.4183216e+00
 -7.7619028e-01
 -3.4969118e+00
 -7.3016191e+00
 -1.7222154e+00
  2.2435218e-01
 -3.9881647e+00
  5.6196856e-01
  4.2658553e+00
  7.4812281e-01
  3.0529532e+00
  7.1321678e-01
  1.8191031e-01
  8.2629174e-01
 -7.4728590e-01
  2.8126163e+00
 -7.1271653e+00
 -3.1795254e-01
  4.5599957e+00
  5.0689363e+00
 -1.7577537e+00
 -1.3091168e+00
 -1.7473332e+00
  1.1585722e+00
 -7.1945560e-01
 -1.5810995e+00
 -1.0224848e+00
  3.5712593e+00
  3.8867342e+00
 -9.0598041e-01
 -2.1763539e+00
  1.1146898e+00
  6.4989619e+00
  5.4564571e+00
 -3.5949869e+00
 -6.0180402e+00
 -2.1255903e+00
  2.0921965e+00
  1.4204311e-01
  3.1496754e+00
 -4.4526401e+00
 -2.9995444e-01
  3.6035011e+00
  5.2702713e-01
  7.4935865e-01
  1.7975729e+00
  1.3592644e+00
 -1.8973451e+00
 -4.0920115e+00
  6.5448780e+00
  4.2657018e+00
 -2.9347482e+00
 -3.3474650e+00
 -1.6215163e+00
 -7.0250326e-01
 -8.5809392e-01
  1.2769005e+00
  8.3281412e+00
 -1.0009906e+00
 -4.9237709e+00
  1.6992534e+00
  4.6613688e+00
  4.7011173e-01
 -3.4016671e+00
 -1.5866208e+00
 -1.3080939e-02
  2.4487374e+00
  4.1649094e-01
 -3.2598469e-01
 -2.1584206e+00
  1.6456582e-01
  3.2323938e-02
  8.5349256e-01
 -1.2260854e+00
 -3.2826703e+00
 -4.5743780e+00
  1.9408752e+00
  1.5254618e+00
 -2.0270345e+00
  1.6816525e+00
  4.4447951e+00
  1.4934634e+00
 -2.3296809e+00
  4.1251560e-03
  4.1251560e-03
  4.1251560e-03
  4.1251560e-03
  4.1251560e-03
  5.2743582e-03
  5.2743582e-03
  5.2743582e-03
  5.2743582e-03
  5.2743582e-03
  4.1027446e-03
  4.1027446e-03
  4.1027446e-03
  4.1027446e-03
  4.1027446e-03
  2.3731452e-03
  2.3731452e-03
  2.3731452e-03
  2.3731452e-03
  2.3731452e-03
  1.4660439e-03
  1.4660439e-03
  1.4660439e-03
  1.4660439e-03
  1.4660439e-03
  7.1759237e-04
  7.1759237e-04
  7.1759237e-04
  7.1759237e-04
  7.1759237e-04
  5.9611837e-05
  5.9611837e-05
  5.9611837e-05
  5.9611837e-05
  5.9611837e-05
