nep4_zbl 1 C 
zbl 1 2
cutoff 6 5 44 34
n_max 4 4
basis_size 8 8
l_max 4 2 1
ANN 80 0
  2.3338475e+00
  3.3604760e+00
 -1.5056911e-01
 -1.1133288e+00
  3.2349908e-01
 -7.1994513e-02
 -1.4399850e+00
  5.8783877e-01
 -5.7102847e-01
  7.3936778e-01
 -7.2704278e-02
 -1.4307499e+00
 -1.0903746e+00
  1.4935321e-01
  1.8383213e+00
 -6.5678895e-01
 -1.2965809e+00
 -2.3358812e+00
  9.7522485e-01
  1.7423838e+00
 -9.0085161e-01
 -8.9951837e-01
  8.9363319e-01
  2.1122112e+00
 -5.3312397e-01
  1.2004723e-01
 -1.1728796e+00
 -1.2740898e-01
 -4.5339620e-01
  1.2643498e+00
 -4.8541707e-01
 -7.2216660e-01
  1.7479099e-01
 -1.8797705e-01
 -1.9255676e+00
  1.4803463e+00
  1.0715011e+00
  3.0897655e+00
 -1.4117289e+00
  1.0405666e+00
  1.2274101e+00
  2.0757987e+00
 -3.0299923e+00
  1.3617185e+00
 -1.2017188e+00
  2.1746449e+00
  9.4756645e-01
 -9.1550523e-01
  6.0332161e-01
 -8.7470657e-01
  2.0723968e+00
 -2.7896118e+00
 -1.7464583e+00
 -1.9131371e+00
 -3.2307601e-01
  4.1987056e-01
 -2.0492079e+00
  1.6715888e+00
  4.5040452e-01
 -7.2006387e-01
  9.2268747e-01
  3.6873441e-02
  3.2560122e+00
  2.5060126e-01
 -1.2967143e+00
  3.5043013e-01
 -7.0346183e-01
  1.6892819e+00
  2.0524103e-02
 -1.0580279e+00
 -3.4952939e-01
 -1.2503222e+00
  3.5662547e-01
 -1.2905442e+00
  1.4193652e+00
 -1.4433603e+00
  2.6908762e+00
  1.1902609e-01
  6.7405152e-01
  8.2860428e-01
 -4.4140723e-01
  5.7072002e-01
  5.5849129e-01
  2.0503595e+00
  7.5541747e-01
  1.2134477e+00
 -2.5302365e-01
 -1.4507041e+00
  4.9110670e-02
  2.5796466e+00
 -1.9084127e-01
  1.5854900e+00
  7.4679601e-01
 -6.0530740e-01
  8.5844392e-01
 -1.1704449e-01
 -3.5396607e+00
  1.0955797e+00
 -5.8576334e-01
 -6.7862236e-01
 -8.7135619e-01
 -1.0015756e+00
 -1.6035333e-01
 -8.1957650e-01
  5.4086626e-01
 -2.1297894e+00
 -1.0621638e+00
 -1.6763531e+00
  4.2968839e-01
  3.9580814e-03
 -2.2279809e+00
  2.2570644e-01
  3.0344124e+00
  3.4550178e-01
  5.9274757e-01
 -3.2196990e-01
  2.6018085e+00
  7.9246575e-01
  1.7151165e-01
 -2.2091419e-01
 -2.7539283e-01
  2.2993894e+00
  2.4013901e+00
  6.9147386e-02
 -3.2886907e-01
 -3.8980538e-01
  1.3468851e+00
  1.1171869e+00
 -8.2945859e-01
  3.2200280e-01
  1.3265865e+00
 -1.0571630e+00
 -2.1132331e+00
 -1.4867609e+00
  1.6329174e+00
  1.0332763e+00
  9.2116046e-01
 -1.6088104e-01
  1.2397349e+00
  3.0234772e-01
 -4.9771076e-01
  1.2223188e+00
  1.3516821e-01
 -2.4456022e+00
  4.1506413e-01
  2.2495179e-01
  5.0443692e+00
  1.3547544e+00
 -1.0149144e+00
 -2.0463951e-02
 -2.7132875e-01
 -1.5234908e+00
 -1.9819685e+00
 -1.3734385e-01
  1.1696192e+00
 -1.8149140e-01
  6.7115265e-01
  1.1559390e-01
  8.5395211e-01
 -4.0975359e-01
 -1.5354224e+00
  4.3055645e-01
  6.7298144e-01
 -3.5518193e-01
  1.1905160e+00
  9.1525704e-01
  4.2972845e-01
  1.0529485e-01
 -9.1285840e-02
 -4.0460190e-01
  1.1613257e+00
 -2.9574630e-01
 -7.7839315e-01
 -2.0723857e-01
 -2.9473326e-01
 -1.7555453e+00
 -2.5379059e+00
  6.9739717e-01
  1.3573693e-01
  1.6511701e+00
 -2.6459616e-01
  2.7934456e-01
  2.1514993e+00
 -3.6258510e-01
  3.5377848e+00
 -2.0584462e+00
 -1.4296636e-01
  2.9092274e+00
 -9.9510992e-01
  1.5920441e+00
 -5.7574737e-01
  1.7832679e+00
  2.9462557e+00
  6.2792939e-01
  3.0316098e+00
  4.4789690e-01
 -8.0141079e-01
 -5.9355253e-01
 -4.0885374e-01
  1.6738433e+00
 -3.6834316e+00
  5.9435689e-01
  3.0102307e-01
  2.1634413e-01
  6.5655971e-01
 -2.9881012e-01
 -2.2338763e-01
  9.5578963e-01
 -2.1808577e-01
 -1.3232559e+00
 -1.2201142e+00
 -3.9319071e-01
  1.0703481e+00
  1.3937589e+00
  2.2435501e+00
 -3.7472451e+00
  1.8393506e-01
  7.7896488e-01
  2.6784250e-01
  1.5248247e+00
 -5.1127172e-01
 -1.7136954e+00
  1.4628899e+00
  9.5151293e-01
  1.8868332e+00
 -5.0165182e-01
 -1.6668047e+00
 -4.6973112e-01
  2.5943267e+00
 -1.6273504e+00
 -8.8672423e-01
 -2.6558211e+00
 -1.2833334e+00
  2.0010014e+00
  1.0926486e+00
 -1.5113645e+00
  7.1707261e-01
  1.2276801e-01
 -6.4393198e-01
  9.4236374e-01
 -1.8963504e-01
  4.8647001e-01
  4.7207022e-01
  1.4578420e-01
 -1.1096642e+00
 -4.8681221e+00
 -4.8820451e-01
 -4.3873754e-01
 -6.6759527e-01
  2.5262332e+00
 -3.5603321e+00
 -2.7481616e+00
  1.4684317e+00
  6.2249567e-02
 -4.3245800e-02
 -1.4635958e-02
 -1.8415229e+00
  1.2821898e+00
  1.1750455e+00
  1.0735950e+00
  2.3700337e-01
 -2.0889747e+00
 -1.0673498e+00
  2.3562825e+00
  1.0301178e+00
  1.0496249e+00
  6.3228297e-01
 -1.3657290e+00
 -8.9877772e-01
  1.6556554e+00
 -7.7524275e-01
 -1.2880236e+00
 -4.1011763e-01
 -5.1869154e-01
  1.7559812e+00
 -1.0205146e-01
 -2.7028143e-01
  4.6130410e-01
  5.1469054e-02
 -2.8426790e-01
 -2.7481854e-01
  1.2793598e-01
 -9.5579773e-01
  2.5688238e+00
  1.2338341e-01
 -1.8342098e+00
  4.6807441e-01
 -2.0222946e-01
 -5.9572357e-01
 -1.6649599e-01
  5.7709986e-01
  1.6549441e+00
  1.9317276e+00
  9.5337343e-01
 -4.1487283e-01
 -4.5584109e-01
 -7.0113820e-01
 -2.9031742e-01
 -8.8749307e-01
 -1.5177680e+00
  2.0484786e+00
  3.3926821e-01
  9.9682266e-01
 -8.2362227e-02
  3.7687969e+00
  1.6218239e+00
  1.4923915e+00
 -1.1427248e+00
  9.4533598e-01
  1.0968826e+00
 -4.4123375e-01
 -1.2502804e+00
 -7.1982108e-02
 -8.6747110e-01
  1.3457608e-01
  3.5831082e+00
 -3.0284700e-01
 -8.2203370e-01
 -2.3254244e-01
 -1.4445020e+00
 -6.4000595e-01
  5.2074730e-01
 -1.0691115e+00
  9.0580601e-01
 -6.5768278e-01
  7.1371633e-01
 -1.5845428e+00
 -4.0613690e-01
  1.1698658e+00
 -1.6091982e+00
 -1.8325723e+00
 -1.3922681e+00
 -2.1768074e-01
 -2.0860622e+00
  4.4139868e-01
  7.1843839e-01
 -8.8561177e-01
  2.9385802e-01
 -4.0547219e-01
 -2.4710636e+00
  1.1798451e+00
  4.5687625e-01
 -1.5190022e-01
 -8.6296445e-01
 -9.9693224e-02
 -7.0446670e-01
  5.9057301e-01
 -8.3777654e-01
  2.1388514e-01
 -2.2586653e-01
  1.4605565e+00
  2.0165055e+00
  7.7843237e-01
 -8.5195899e-01
 -1.1757898e-01
  1.6527662e+00
  5.2459103e-01
  3.9139385e+00
  1.3483171e-01
  6.4903110e-01
 -4.5268917e-01
  1.4893430e-01
  5.8668631e-01
  3.6877304e-01
  1.0614411e+00
  8.5275245e-01
  7.7342033e-01
 -3.3597669e-01
 -4.5368019e-01
 -5.6821954e-01
  3.2732322e+00
 -1.7529257e-01
 -6.5208316e-02
 -2.6409395e-02
  5.1423281e-01
  1.3664045e+00
  3.6013505e-01
  2.1890557e-01
  3.0702083e+00
  9.2539662e-01
  4.8123533e-01
 -1.3170971e+00
 -3.1465773e-02
  4.5837709e-01
  3.1065086e-01
  1.7903287e+00
 -3.1022385e-01
 -1.0585378e-01
 -4.9669945e-01
  4.5762363e-01
 -8.0518949e-01
  5.8261883e-02
  9.2224085e-01
  9.8151761e-01
  1.7081875e+00
  5.0242895e-01
  2.6963371e-01
 -8.5926676e-01
  4.3844172e-01
  1.1641772e+00
 -1.4246699e+00
 -9.6874632e-04
  1.0579243e-01
 -1.5389843e-01
 -1.2528875e+00
 -2.2536542e+00
 -2.4454701e+00
  1.3424876e+00
 -8.6414593e-01
  1.3077239e+00
  6.1018431e-01
  3.2034020e+00
 -3.2366824e-01
  4.7722754e-01
 -2.2090551e-01
  9.1953105e-01
 -5.5095452e-01
  4.4962227e-01
 -3.4641311e-01
 -1.4335628e-01
  5.5599785e-01
 -2.5545585e-01
  6.9185480e-02
 -2.3286079e-01
  2.1819564e-02
 -1.8784553e-01
 -4.9437329e-01
 -1.8521150e+00
 -1.4530226e+00
  1.8891452e-01
 -1.3669044e+00
 -2.5825709e-01
 -6.6291869e-01
 -1.6122329e+00
  4.5068038e-01
 -7.8239763e-01
 -1.5559752e+00
  2.6898313e+00
 -4.7185871e-01
 -1.2516322e+00
  1.2073535e+00
 -1.2744706e+00
 -2.9688954e-01
  3.1554297e-01
 -6.4198387e-01
  8.3861923e-01
 -3.0594558e-01
 -2.0119683e-01
 -1.4976594e-01
  3.5701323e-02
  3.7653363e-01
  3.3577436e-01
  3.7106189e-01
 -1.9714154e-01
 -3.1851714e+00
 -2.5775176e-01
 -7.4083704e-01
  8.0807489e-01
 -3.4437219e-03
  1.9119437e+00
 -3.0113747e+00
  1.1085234e+00
 -1.4440923e-02
 -5.0550008e-01
  2.3999619e+00
  9.7950619e-01
  9.4029981e-01
 -4.4972247e-01
  6.3443780e-01
 -1.1598372e+00
 -1.0651122e+00
 -1.8898082e+00
 -8.6601591e+00
  1.9541005e+00
 -1.1559654e+00
  6.6486299e-01
  9.6302587e-01
  2.4928956e+00
 -5.2376735e-01
  4.7413397e-01
 -1.9041233e+00
 -2.7887435e+00
  9.7509354e-01
  3.5703018e-01
  6.1544281e-01
 -1.1341070e-01
 -1.2013369e-01
  4.1339755e-02
 -9.5882559e-01
 -3.3783385e-01
  6.7235482e-01
 -5.6793958e-01
  4.3887821e-01
 -6.9298679e-01
 -1.0228577e+00
 -3.0159912e-01
  1.4274633e-01
 -1.0319335e+00
  6.0619748e-01
 -4.3455034e-01
 -1.0977999e+00
 -1.3049027e+00
 -5.0742328e-01
  6.8324184e-01
  8.2996160e-01
 -1.2806519e+00
 -2.9473370e-02
  6.1421104e-02
  1.2784663e+00
  1.2971327e-01
  8.8403910e-01
 -9.4548184e-01
  1.1583047e-01
 -1.0847861e+00
  1.7999809e+00
 -2.7836195e-01
 -9.2845947e-01
 -1.6857022e-01
  6.0790166e-02
 -1.1554233e+00
  2.4730928e-01
  1.0197369e+00
  7.4693747e-02
  5.3232610e-01
 -1.0544068e+00
  1.1701818e+00
 -1.4644586e-01
 -1.4701686e+00
  5.9412605e-01
  2.2626428e-01
  7.5310655e-02
 -1.2450376e+00
 -1.2744060e+00
  1.3316966e+00
  3.2580522e-01
  2.3029375e+00
  2.9905279e+00
 -3.4089458e+00
  1.1573914e+00
 -2.5836758e-02
 -2.6322262e+00
  1.6318628e+00
  2.1129389e-01
  1.7746806e+00
 -5.1824427e-01
 -2.9231358e+00
  1.8054669e+00
 -9.6878064e-01
 -5.7563883e-01
 -7.0455700e-01
  7.6751781e-01
 -2.2248352e+00
  1.4252473e+00
 -3.7608948e-01
 -7.4773628e-01
  2.3106784e-01
 -6.9443214e-01
 -6.4215785e-01
 -5.7023734e-01
 -6.7798668e-03
 -3.7869233e-01
  1.8742574e+00
 -2.5692706e+00
 -1.7881347e+00
  1.7484967e+00
  9.4731194e-01
 -5.5336207e-01
 -1.4774529e+00
  1.1697801e-01
  9.3595034e-01
  1.1815999e+00
  2.2461090e+00
 -6.9910723e-01
 -4.5772057e-02
  6.4301366e-01
 -8.8132925e-02
  2.4885689e-01
 -9.1565931e-01
  4.3300265e-01
  8.5636973e-01
  2.0998032e-01
  1.3773516e+00
  9.2086560e-01
 -7.9398119e-01
 -1.6600475e-01
 -6.7680067e-01
  3.6202195e-01
 -6.2836725e-01
 -4.6618450e-01
 -8.6133051e-01
 -4.4267538e-01
 -2.9340642e-02
 -1.0257928e+00
  1.4875156e-01
  1.9139919e-01
 -2.9941085e-01
  1.4274576e+00
 -2.2710845e+00
  1.0855982e+00
 -2.2478862e+00
 -2.5654509e+00
  7.1429604e-01
  6.9109458e-01
 -1.9011147e-01
  8.8009775e-01
 -3.6106026e+00
  2.9803433e+00
  1.0382169e+00
 -1.3016993e+00
  2.1958327e+00
 -2.0047238e+00
 -1.7575268e+00
 -1.0161097e+00
 -5.0501585e-02
 -2.4939666e+00
 -2.6251636e+00
 -7.3174250e-01
 -5.1764524e-01
 -2.2996469e-01
 -1.7441698e+00
 -2.0845828e+00
  5.1722270e-01
 -4.5394048e-01
 -3.7066269e-01
  1.4498483e+00
 -3.5910890e-02
 -2.6818162e-01
 -8.9206177e-01
  4.2099759e-01
  5.4264861e-01
 -1.2306020e+00
  4.6527964e-01
  6.6523522e-01
  7.6674581e-02
 -6.8518937e-01
 -4.1411555e-01
 -8.0462277e-02
  1.4285100e+00
 -1.0849507e+00
 -9.2291307e-01
 -2.0149824e-01
 -1.4972923e-02
 -6.5947339e-02
 -9.0282166e-01
 -3.1064582e-01
  4.5530999e-01
 -1.1281345e+00
  7.6121992e-01
 -5.7177335e-01
 -4.0195045e-01
  3.5812356e-02
 -5.3085411e-01
 -1.3858727e+00
 -8.2233405e-01
 -1.3413171e+00
 -1.6701333e-01
 -2.2461714e-02
 -3.5114768e-01
 -4.1168320e-01
  4.3376467e-01
  1.0346758e+00
  4.9786672e-01
  7.9898179e-01
  3.5106224e-01
 -2.9545975e-01
 -1.0217129e+00
  7.2473061e-01
 -3.0565726e-02
 -1.3113202e+00
 -4.8554769e-01
 -4.6506351e-01
  9.3450144e-02
 -3.7188286e-01
 -1.6498579e-01
 -2.2524834e-01
  4.4474763e-01
 -2.7620703e-01
 -1.5775076e+00
  4.1781148e-01
 -8.5999560e-01
 -4.0502623e-01
  5.1081955e-01
  9.5242274e-01
  1.0201207e+00
  1.6980689e+00
 -8.8850534e-01
 -9.7195083e-01
  1.0492773e+00
 -5.1045191e-02
 -2.3256357e+00
 -8.6679238e-01
 -1.9091478e-01
  1.1840420e-04
  1.6178464e+00
 -2.2211342e+00
 -5.6141794e-01
 -4.4074119e-03
  1.2234223e+00
  1.5706754e-01
  3.3388567e-01
 -7.1980447e-01
 -1.1996890e+00
  8.0200547e-01
 -2.1685617e-01
  5.9601992e-01
 -4.9315065e-01
 -8.3341670e-01
  1.9540632e-01
 -1.4967768e-01
 -6.4261442e-01
 -3.8229465e-01
  1.5921036e+00
  1.8980466e+00
  6.7167377e-01
 -1.4623977e+00
  2.8480712e-02
 -5.6153792e-01
  1.5579848e+00
  8.5513943e-01
 -1.5184373e-01
 -3.4805158e-01
  1.7500073e+00
 -1.9761369e-02
  7.9713178e-01
 -1.2925262e+00
  1.5298872e-01
 -8.5063422e-01
 -2.6760262e-01
  2.9933158e-01
  2.9118359e-01
  2.6062062e-01
  2.8157455e-01
  5.0722802e-01
 -1.0899397e+00
 -2.9009652e-01
  3.3031511e+00
  8.6335653e-01
 -8.8648587e-01
 -1.2734151e+00
  2.6383242e-01
 -2.1671696e+00
  1.8922250e-01
  1.6027628e+00
 -9.3410110e-01
  8.9600749e-02
 -2.9643395e+00
 -1.7636743e-01
 -2.5736713e-01
 -6.1940169e-01
 -1.7258834e+00
 -2.4845669e-01
 -9.3768853e-01
 -2.9051061e+00
 -3.2919922e-01
 -5.3740579e-01
  1.2105026e+00
 -5.3858727e-01
 -3.1127602e-01
 -7.9249084e-01
 -2.7387326e+00
 -2.6472631e-01
  9.0464008e-01
  4.8678756e-01
 -2.8671044e-01
 -2.8629344e-02
 -8.9969730e-01
 -1.4728572e+00
 -5.9808558e-01
 -5.9141207e-01
 -8.9499325e-01
  1.0747747e+00
  4.8984480e-01
  1.6297051e+00
 -9.1857487e-01
 -1.4129826e+00
  2.0398419e+00
  6.5260716e-02
 -4.9171305e-01
 -3.8507736e-01
  1.0296706e+00
 -2.6533505e-01
  1.2031468e-01
 -1.4932905e-01
 -1.5450155e+00
  2.8668860e-02
  1.3554368e+00
 -1.0274460e+00
  8.6400265e-01
  1.2285253e-01
 -2.7444031e+00
 -4.4989470e-01
 -7.7925402e-01
 -1.2533833e+00
 -8.6508316e-01
  9.0461683e-01
 -2.7454814e-01
 -2.8881817e-03
 -5.2688468e-01
 -6.7712760e-01
  3.5831308e-01
  3.2411862e-02
  1.5928746e+00
 -8.3592623e-01
  3.6573008e-01
  7.9437917e-01
  1.1228118e+00
  2.2515945e-01
 -3.7095518e+00
 -1.8696711e+00
  5.5247325e-02
 -2.8179362e+00
  9.9384093e-01
  3.4582204e-01
 -1.3935600e-01
 -2.1941779e+00
 -2.1814122e+00
  5.8948201e-01
 -1.0164347e+00
 -3.9135885e-01
 -8.8588989e-01
 -1.3454043e+00
 -1.3159287e-01
  5.6682020e-01
 -1.0058066e+00
  3.6336517e-01
 -1.0512068e+00
 -5.1122975e-01
  1.6593804e+00
  2.8687751e+00
 -1.4325161e-01
 -2.6406856e+00
  1.7830603e+00
  3.1237730e-01
  2.0605657e-01
 -3.0360585e-01
  1.8702039e-01
  1.0105815e+00
  6.1644363e-01
  1.6954748e-03
 -1.2490274e+00
  1.2531333e-01
 -9.1631556e-01
  1.9936243e+00
  1.9442565e+00
  9.7849607e-01
  2.4320080e+00
 -8.3011837e+00
  9.7292691e-02
  2.2439028e-01
 -2.4847434e+00
 -2.6742700e-01
  2.7847474e+00
  1.4913440e+00
 -5.7005525e-01
 -2.2698891e+00
  1.6398975e+00
 -1.3962910e+00
  1.4656575e+00
 -2.2343294e-01
  1.1141374e+00
  2.2607784e-01
  6.9319791e-01
 -5.1885378e-01
 -6.8689972e-01
  8.7122262e-02
  2.0019262e+00
 -4.3001169e-01
 -8.2306445e-01
  7.5988805e-01
  4.3173609e+00
  1.6930091e-01
  1.4495211e+00
  1.8098627e-01
  1.3545230e-01
  5.4867059e-01
  2.6345611e+00
 -1.3053791e-01
  3.0080740e+00
  1.0058593e+00
 -3.1313262e+00
 -1.4876794e+00
  2.0516396e+00
 -2.0782895e+00
  8.6159158e-01
  7.4499458e-01
 -2.3488507e+00
 -1.7059880e+00
 -1.4585843e+00
  1.2854149e+00
 -1.8025278e+00
 -2.2053517e-01
  1.1408030e+00
 -5.8935142e-01
 -5.7656151e-01
 -2.9630572e-01
  9.1755229e-01
  9.4222373e-01
 -1.0790836e+00
  1.8305092e-01
 -2.6377847e+00
 -1.7532586e-01
  1.2127955e+00
 -1.8231742e-01
 -2.1232390e-04
 -2.3448104e-01
 -3.4634313e-01
  4.9831170e-01
 -1.3513477e-01
  2.0460014e-01
 -1.7816818e+00
 -2.4817090e+00
  1.6498379e+00
  3.9006677e-01
 -1.9793080e+00
  1.0470470e+00
 -7.6194698e-01
  1.1335136e+00
  1.9362661e+00
 -2.3896484e+00
  3.2751009e-01
 -1.3408992e+00
  1.7339588e+00
  3.2220308e-02
  1.4000508e+00
 -2.5750554e-01
 -8.9601111e-01
  1.6720746e+00
  1.6710750e+00
 -2.9942435e-01
 -1.0056165e+00
  4.3432930e-01
  6.2032497e-01
  3.2760477e-01
 -1.0964071e-01
  1.8161241e+00
 -7.6820600e-01
 -8.3551735e-01
 -2.0957377e+00
 -5.7320718e-02
  7.1674585e-01
 -1.1696886e+00
 -3.3602381e-01
  2.2918491e-02
  2.4602827e-02
  1.0911788e+00
 -5.2341992e-01
  1.0045671e+00
 -3.9455631e+00
  1.2982186e+00
  1.1360983e+00
 -4.5978147e-01
 -8.7028503e-01
 -2.7653149e-01
  3.0185932e-01
  1.7358621e+00
 -2.1540601e+00
 -8.4568471e-01
 -6.4930350e-01
  8.1037617e-01
  1.1293979e+00
 -2.9531431e-01
 -2.8685818e+00
  2.4003973e+00
 -9.4545327e-02
  8.8194564e-02
 -5.9900630e-01
  1.0739180e-01
 -2.1512578e+00
 -3.2416233e-01
  5.8507955e-01
 -9.6197599e-01
  9.5535153e-01
  3.3153579e+00
  1.3168097e+00
 -9.4776297e-01
  1.2952546e+00
 -1.1222268e+00
 -2.1646109e-01
 -6.3282013e-01
 -8.8127565e-01
 -4.1913912e-02
 -2.0701360e-02
  4.0433731e+00
  1.0268610e+00
  3.3920705e-01
 -9.7742790e-01
 -3.5466194e+00
 -1.1300235e+00
  8.3106679e-01
  2.2736075e+00
 -4.1917462e+00
  2.6477373e-01
  1.0854783e+00
 -7.4716431e-01
  4.2484655e+00
 -9.4515997e-01
 -6.0914803e-01
  2.2752783e+00
 -8.7038696e-02
 -9.9762894e-02
  1.6765943e+00
  9.5735174e-01
  8.3010949e-02
 -1.6906365e+00
  1.7418704e+00
 -1.5534518e+00
 -3.6515546e-01
  3.9758372e+00
  1.2396296e-02
  9.8959559e-01
 -4.8706058e-02
 -7.9546936e-02
  2.5339222e-01
 -1.3738381e+00
 -1.7196311e-01
 -2.5878959e+00
 -1.6839930e+00
 -3.0830309e-01
 -2.9037290e+00
  2.7902179e+00
 -1.9858389e-01
 -4.2640531e-01
 -1.6852752e+00
 -9.3936908e-01
  3.0036202e-01
  4.6720117e-01
  1.3310438e+00
  6.5940195e-01
 -4.5932782e-01
  5.0071812e-01
 -4.6667814e-01
  1.6497364e+00
  1.1548475e+00
 -2.7075016e+00
 -2.2243878e-01
 -1.2174606e+00
  6.7493282e-02
  1.6073972e+00
  1.6300372e+00
  7.0933443e-01
  1.7103922e+00
  2.8193817e-01
  5.8022773e-01
  4.4959578e-01
 -2.1416709e+00
  8.6940080e-01
  3.2603722e-02
  1.0668546e+00
  3.2984829e-01
 -5.4548305e-01
 -1.6700976e+00
 -2.3019242e+00
  2.2139494e-01
 -1.2660530e+00
 -4.1894722e-01
  1.4838377e+00
 -9.3882012e-01
  3.8186225e-01
  1.0444056e+00
  8.2054764e-01
  8.9509130e-01
  4.5017484e-01
  3.1306157e+00
 -1.3156891e+00
 -1.8129594e+00
 -2.4627695e-02
 -1.6645546e+00
  2.2288280e+00
 -2.0338840e+00
  9.8711751e-02
  1.5282063e+00
 -5.7224333e-01
  8.2980531e-01
 -4.5025613e-02
 -3.4935379e+00
 -4.5578914e+00
 -4.3397486e-01
 -1.8286997e-01
 -1.2416971e+00
  1.4196996e-01
  4.4671890e-01
 -7.5729694e-03
 -1.3103113e-01
  3.9464286e-01
 -8.1044716e-01
 -8.0246270e-01
  2.5078118e-01
  2.5061090e+00
  5.7426780e-01
  3.6036178e-02
  1.5940169e+00
  2.4470291e+00
 -2.5431786e+00
  1.0911722e+00
 -4.7202256e-02
  3.1387641e+00
 -5.2102365e+00
  1.0516602e+00
  6.8752635e-01
 -3.7005344e-01
  8.6705744e-01
  2.8117326e-01
  3.5707158e-01
 -3.6314183e-01
 -3.4619052e-02
  1.0811821e+00
  1.4045926e+00
 -1.2662864e+00
 -1.3117523e+00
  1.0919721e+00
 -2.3352191e+00
 -1.8901173e+00
  1.0076319e-01
 -9.2971945e-01
  7.6848102e-01
 -3.1699869e-03
  2.0611489e+00
  5.0649977e-01
 -1.2940240e+00
 -3.0421239e-01
 -2.6790369e-01
  5.0560606e-01
 -1.5168521e+00
  2.9349735e-01
 -2.0746918e+00
 -1.7927626e+00
  2.4312000e+00
  2.1787977e+00
 -1.8886471e-02
  1.2096676e+00
 -3.4059536e-01
 -2.0702479e+00
  1.0747044e+00
  8.9052327e-02
 -4.5023650e-01
  6.9936842e-01
 -3.1435113e+00
  2.0115116e+00
  1.7867113e+00
 -2.4800005e+00
 -1.9535153e+00
 -2.7512440e-01
  6.2817246e-01
 -9.6097425e-02
 -7.4111974e-01
 -1.4923478e+00
  1.7704483e+00
  3.9922559e-01
 -9.4004750e-02
  5.8920246e-01
 -6.8679452e-01
  3.6232346e-01
 -1.2137982e-01
 -7.3960356e-02
  4.2531759e-01
  1.8757890e-01
 -1.1798799e+00
 -3.6098164e-01
 -2.1656511e+00
  4.2581457e-01
 -2.2898939e+00
 -4.5198935e-01
 -1.0787249e+00
  2.9774374e-01
  5.0642747e-01
 -3.9375132e-01
  2.5014436e-01
  5.1458192e-01
 -4.7866690e-01
 -3.9536443e-01
  7.8564376e-01
  1.7424310e+00
 -7.6019182e-03
  7.4636944e-02
 -6.8077534e-02
 -2.6845095e+00
 -2.8947699e+00
 -6.8280441e-01
  8.8528883e-01
  1.3162644e+00
  2.2016296e+00
 -8.7193632e-01
  1.5434550e-01
 -4.7418642e-01
 -8.3230370e-01
 -3.5534596e-01
  5.7430053e-01
  5.2202880e-01
  9.3243402e-01
  5.8718693e-01
  4.5825878e-01
  1.1553127e+00
 -3.7501180e-01
  4.3625012e-01
 -5.4362327e-01
 -2.3333777e-01
 -1.6350291e+00
 -7.4279416e-01
  7.0071685e-01
  2.5982275e+00
  3.5118229e+00
  3.6262617e-01
 -2.5925977e+00
  8.3241634e-02
  1.4855202e+00
 -1.3898306e+00
  5.0234944e-01
  1.4184930e+00
 -1.4916952e+00
  7.1926296e-02
  2.1084027e-02
 -1.0147498e+00
  1.4533966e+00
  1.3810301e+00
  1.5383797e+00
 -7.6362598e-01
  1.8281490e+00
  1.2818054e+00
  1.1441538e-01
  1.2475392e+00
 -3.9745510e-01
 -3.6370343e-01
 -2.2669770e-02
 -7.6971301e-03
  1.0334622e+00
  9.4648260e-01
 -2.3463387e+00
 -7.6644182e-01
 -1.7555609e+00
 -1.3864155e+00
  4.7969976e-01
 -1.7251997e+00
  8.4510702e-01
  8.0777282e-01
  9.9881554e-01
 -3.3996266e-01
 -1.3701552e+00
 -2.3119407e+00
  7.0083380e-01
  3.0322144e+00
 -3.5013536e-01
 -8.8958424e-01
  2.0279866e-01
 -4.9721208e-01
 -1.9644123e-02
 -1.3169682e+00
 -7.1483499e-01
 -5.4672104e-01
  4.1327262e+00
  9.5925045e-01
  3.6770627e-01
 -1.6667888e+00
 -1.1112678e+00
  3.6819920e-02
 -8.2490367e-01
  5.9561211e-01
  5.8527231e-01
 -1.1754932e+00
  2.2091549e-02
  3.8997501e-01
  2.3412959e-01
 -5.4398042e-01
 -2.3311393e+00
  2.9451010e-01
  5.8279216e-01
 -3.2130486e-01
  3.6356428e-01
  5.9162802e-01
  1.4693449e+00
 -1.1142629e+00
  1.3167129e+00
 -4.0674666e-01
  1.9060909e+00
  1.2653937e+00
 -1.4897572e+00
  3.0685318e-01
 -2.3926455e-01
  1.1474321e+00
  1.1317499e+00
 -3.8757002e-01
  6.5855372e-01
 -5.5343640e-01
  4.5432687e-01
 -9.8932123e-01
 -4.2583856e-01
  2.6099047e-01
 -2.2373984e+00
 -5.7913560e-01
 -5.9086138e-01
 -1.4485475e+00
 -1.7184053e-01
 -3.4811383e-03
 -4.2991194e-01
  4.3279216e-01
 -1.1062524e-01
  1.2180703e+00
  6.1242104e-01
 -1.8911926e+00
  1.4773080e-02
 -1.9997907e+00
 -1.3455553e+00
  7.9590929e-01
  1.1199280e+00
 -8.9137739e-01
 -7.5938217e-02
 -2.4102764e+00
 -2.0639841e-02
  1.3577564e+00
 -1.7175879e+00
  1.4083877e-01
 -3.9494926e-01
 -5.7215791e-02
 -3.7206855e+00
 -1.5890644e-01
  2.4528589e+00
 -2.3094964e+00
  1.7075667e+00
  8.0000216e-01
  1.1359704e+00
 -6.4473248e-01
 -1.0819293e+00
 -5.8362919e-01
 -6.6444325e-01
  9.9543095e-02
  2.4232662e+00
  3.8123738e-02
 -4.7741067e-01
 -2.4150053e-01
  9.6489853e-01
  4.1534224e-01
  1.6766182e-01
  7.5480923e-02
  2.5018826e-01
  5.9188998e-01
 -1.7614477e+00
 -1.0562592e+00
 -8.2067102e-01
 -1.4020028e-02
  8.2748079e-01
  6.6098583e-01
  2.8319578e+00
  3.0672185e+00
 -7.8486151e-01
 -1.0130335e+00
  3.4026930e-01
 -1.3381504e-01
 -1.2943841e+00
 -7.6945178e-02
 -4.5447308e-01
  9.2813265e-01
 -3.8250726e-01
  4.7446048e-01
  2.8204882e-01
  7.5298238e-01
  8.4201068e-01
  8.1929445e-01
 -1.5465577e-01
  1.0757637e+00
  1.8412983e-01
 -3.1521812e-01
  1.3847995e-01
  6.5853667e-01
  1.4444122e-01
 -9.6817440e-01
  3.2896730e-01
  1.0290537e+00
 -1.9313351e+00
 -1.3145837e+00
 -3.2650700e+00
 -3.1151733e+00
  2.2332115e+00
 -1.8856499e+00
  6.6115759e-02
  1.2631385e-01
  2.0100508e+00
  1.7553052e+00
 -4.7998899e-01
  1.2345988e+00
 -1.7198961e+00
  3.1101260e-01
 -7.4318683e-01
  1.2499648e+00
 -1.5697484e+00
 -1.0991729e+00
  3.5139939e-01
  1.2922971e+00
 -2.8404565e+00
  3.1143961e-02
 -7.9367095e-01
 -7.6522088e-01
 -1.5421530e+00
 -1.9197786e+00
  9.8507750e-01
  1.6237992e-01
  5.0804347e-01
 -3.6114109e-01
  2.3981874e+00
  4.6144718e-01
 -5.0473875e-01
  4.5028031e-01
 -4.8362432e+00
 -2.2783868e+00
 -2.2323339e+00
 -6.2887311e-01
  1.1030684e+00
 -1.2830315e+00
 -4.3193226e+00
  7.1861725e+00
 -1.2565371e+00
  1.6197096e-01
  1.9175024e+00
  1.0522301e+00
 -1.1315443e-01
  2.4518406e+00
  1.2872248e+00
  2.3908901e+00
 -1.1388044e+00
  2.4821985e+00
  1.2492570e+00
  1.2099911e+00
  1.6393571e+00
 -1.5626583e+00
  7.0517141e-01
  3.1919966e+00
 -1.5379842e-01
  4.8846859e-01
 -8.9671189e-01
 -1.1942980e+00
 -1.0758215e+00
 -2.0311341e+00
 -1.0624135e-01
  9.2674118e-01
 -8.1452835e-01
 -2.8121388e-01
  9.4540828e-01
 -1.0043271e+00
  1.2512307e+00
 -3.1001469e-01
 -1.2375308e+00
  1.0862170e+00
  1.3158495e+00
  1.0969226e+00
 -2.1719220e-03
 -6.3263267e-02
  1.3039304e+00
 -5.8743280e-01
  7.9028279e-02
 -8.0231774e-01
 -3.1741670e-01
  5.7914543e-01
  3.3933666e-01
 -4.1102758e-01
  5.3508836e-01
 -3.2826757e-01
  2.8865328e-01
  9.2163247e-01
 -4.5048410e-01
 -1.3121703e-01
 -4.0030137e-01
 -6.5029776e-01
  1.2701060e-01
  1.8330170e-01
  1.7597988e-01
  3.5526934e-01
 -2.1635926e-01
 -7.7166677e-01
 -3.9311439e-01
 -3.1181553e-01
 -8.8225061e-01
 -5.1960295e-01
  3.1062369e+00
  7.2163206e-01
 -1.0865138e+00
  1.7778178e+00
 -2.5747561e-01
  4.1939807e-01
 -1.0484805e+00
  2.8116629e+00
 -8.4568077e-01
  5.1607639e-01
 -4.3455163e-01
  2.6831398e+00
  1.9015631e-01
  5.4851204e-01
 -8.5259455e-01
 -4.7114006e-01
  7.6202881e-01
  1.8225604e+00
 -1.1555792e+00
 -3.1808961e-02
  7.8782868e-01
  8.3670163e-01
  4.7295030e-02
 -8.0924654e-01
 -1.2986398e+00
 -2.3766562e-01
 -1.6676165e+00
 -1.9177617e+00
 -4.8788425e-01
 -1.3466763e-01
  1.6829591e+00
  1.6407801e+00
  6.2138629e-01
  1.0682824e+00
  1.7996908e+00
 -2.3031080e+00
  1.7911693e+00
 -2.3654895e+00
 -1.7921255e+00
 -7.5309253e-01
  1.2232064e+00
  1.0579727e-01
  5.6656051e-01
 -1.0177768e+00
  3.4818283e-01
  3.5008588e+00
 -3.5227075e+00
 -1.0602996e+00
  6.4295244e-01
 -4.6952754e-01
 -4.6842161e-01
  5.1982450e-01
 -1.4541087e+00
 -5.5656058e-01
  8.0688007e-02
  7.0410943e-01
 -2.2724380e-01
 -4.9951413e-01
  1.4773313e+00
  6.6458911e-01
 -5.1037850e+00
  2.0800505e+00
  4.8414745e+00
  5.5503500e-01
  2.8443167e-01
 -1.0461423e-02
  1.0562576e+00
  3.3301559e-01
  4.1900092e-01
 -1.8597348e-01
  3.6637077e+00
  5.4528791e-01
 -2.4886458e+00
 -3.5700631e-01
  1.2188307e+00
 -2.1017385e+00
  7.2235525e-01
 -1.6861227e+00
  6.9416285e-01
  1.3239456e+00
  2.7836237e+00
 -5.5240858e-01
 -2.5650519e-01
 -5.7885402e-01
  1.1092462e-01
 -1.4782512e+00
 -1.5819046e+00
 -9.0253085e-01
  3.1490822e+00
  9.1400003e-01
  1.0775597e+00
 -1.5498205e+00
 -1.4384769e+00
 -6.7841047e-01
  1.8677836e-02
 -2.7060041e-02
  9.6966809e-01
 -1.1238788e+00
  4.1345856e-01
  6.0230160e-01
 -7.4811870e-01
 -9.0830308e-01
  1.5544130e+00
  4.6718550e-01
 -1.0835523e-01
 -1.4694788e+00
 -3.0375152e+00
  5.2989542e-01
 -1.9349806e+00
  1.1431828e+00
  1.8303896e+00
  2.6713533e+00
 -1.5688661e+00
 -8.7333493e-02
  3.4782685e-02
  2.3858633e+00
 -2.0792730e+00
 -3.0198772e+00
 -4.7903413e-01
 -8.5512221e-01
  4.4760170e+00
 -1.9858836e+00
 -1.8716337e-02
  1.4224145e+00
 -4.2061841e-01
  1.0494187e+00
 -1.4666471e+00
 -1.2146056e+00
  2.1550310e+00
  4.6147309e-02
 -3.9131792e+00
  3.6945496e+00
 -3.1287721e-01
  2.4952843e+00
  2.0869782e+00
  6.1887115e-01
 -9.6210158e-01
  1.3168005e+00
 -2.9183760e-01
 -1.5896311e+00
  1.4483246e+00
  1.2762659e+00
 -3.5182402e+00
 -2.3936293e+00
  1.9742063e+00
 -1.3232206e+00
 -2.0839073e-01
  8.8804370e-01
 -2.6030028e-01
 -4.5481998e-01
 -3.9613807e-01
 -4.9368706e-01
  8.0353957e-01
  8.0598128e-01
 -5.1514000e-01
  8.5567927e-01
  9.1461486e-01
 -9.3421638e-01
 -1.6674297e-01
  1.2826846e+00
 -6.0743862e-01
 -7.5068980e-01
  2.5394422e-01
  6.9153768e-01
  3.4940851e-01
  2.7530079e+00
 -6.3680279e-01
 -1.0021429e+00
 -4.2164114e-01
 -4.3111390e-01
 -1.8389766e-01
 -1.4667501e+00
 -1.2909433e+00
  1.5469430e-01
 -1.0669342e-01
 -1.7275770e+00
 -2.2423901e-01
  6.8150765e-01
  7.0736748e-01
  2.8837836e-01
  7.2943324e-01
 -6.6424146e-02
  1.4911455e+00
 -5.7417977e-01
 -1.4287728e+00
  3.7127587e-01
 -2.1637187e+00
  1.0388486e+00
  2.3426744e-01
 -2.3988618e-02
  3.3669567e-01
 -9.0532815e-01
 -6.3252467e-01
  6.8203056e-01
 -6.7064685e-01
  7.6885867e-01
  1.3421938e+00
  1.2596625e+00
 -7.1219957e-01
 -6.9522530e-01
 -2.5035188e+00
  2.5961763e-01
 -3.5387588e-01
  5.2284890e-01
 -5.9679687e-01
  7.2812247e-01
  4.0317988e-01
  7.3502010e-01
 -9.7313210e-02
 -1.8526274e+00
 -3.6087933e+00
  7.5170636e-01
 -9.8553920e-01
  4.5885655e-01
  1.8552133e+00
  5.7253665e-01
  2.1250737e+00
 -2.4222710e+00
 -4.9961728e-01
  7.4715436e-01
  2.4671948e-01
  1.1113082e+00
 -7.0893300e-01
  3.0565169e-02
  1.2793579e+00
  9.9375024e-02
  4.3754687e+00
 -1.5843077e+00
  2.3716962e+00
 -2.2467370e+00
  1.2813714e+00
  2.0160599e+00
  4.1562414e-01
  8.6459577e-01
  2.1394834e-01
  1.1172982e+00
  1.7101673e+00
  8.2111496e-01
  2.9529876e-01
 -3.8390738e-01
  2.8955239e-01
  8.0538112e-01
  9.5480785e-02
  4.0935618e-01
 -3.7644163e-01
  1.4168463e+00
  1.1463039e+00
 -2.7297499e+00
 -1.4652155e-01
 -1.5798339e+00
  3.6008935e+00
 -5.4230410e-01
 -7.5975731e-02
  7.6666608e-02
  7.1402305e-01
 -1.5238878e+00
 -2.3027480e+00
 -5.5648297e-01
  1.7728035e-01
  1.2497655e-01
 -3.6905694e-01
  1.1746100e+00
  4.4221625e-01
  1.5309857e+00
 -2.5223158e-02
 -1.9872584e+00
  2.3080466e+00
 -1.1538950e+00
  1.0157341e+00
 -9.8208988e-01
 -1.0425446e+00
  1.3514868e+00
  1.9648070e+00
  7.4567616e-01
  6.3123864e-01
 -7.7405214e-01
  1.3069752e-01
  9.9370003e-01
  1.2280920e+00
 -7.6695395e-01
  6.4003944e+00
  1.2947057e-01
 -1.4925731e+00
 -5.2140850e-01
 -1.8911859e+00
  4.5348263e+00
  2.6429752e-01
 -1.1430854e+00
 -1.8454935e-01
 -3.9063690e+00
  6.9490325e-01
  1.2888087e+00
 -3.2014925e+00
 -9.6256518e-01
 -2.1522987e+00
  1.4711971e+00
 -1.5720632e+00
 -1.2477121e+00
 -1.4883699e+00
 -1.5196397e+00
  1.0526927e-02
 -1.7750461e+00
  2.3682794e-02
 -2.8121161e+00
 -1.7227348e+00
 -2.1172075e+00
 -1.3768799e+00
  1.3549215e+00
 -3.6746818e-01
 -3.6069706e-01
  7.3315531e-01
 -2.0050029e-01
  4.4738761e-01
  7.1574253e-01
  1.2832334e+00
 -1.6118907e+00
 -2.6246703e+00
 -1.5642785e+00
 -2.6524682e+00
  2.0630558e+00
 -1.0750756e-01
 -7.0745301e-01
  9.6938545e-01
 -1.5491541e-01
 -4.8617709e-01
  1.1277218e+00
 -1.3183410e+00
  3.9844396e+00
 -9.2311412e-02
 -1.4210432e+00
  1.2527601e+00
  3.2789767e-01
  1.5529169e+00
 -7.4418968e-01
  3.5586557e-01
  3.1544036e-01
  6.7416534e-02
  3.7827000e-01
  1.5066949e+00
 -2.4476682e-01
  7.5609756e-01
  5.8981574e-01
  9.0807480e-01
  2.6673022e-01
  8.5453427e-01
  9.2508787e-01
 -9.9761254e-01
  7.6735698e-02
  3.9730605e-01
 -2.1641232e-01
 -3.8612497e-01
  8.4676927e-01
  1.1605047e+00
  8.8038838e-01
 -1.5988542e+00
 -3.0645740e-01
  3.9200947e-01
  2.2653940e+00
  3.4572273e-02
  3.1754616e-01
 -7.0103645e-01
  3.0909109e+00
  9.8452824e-01
  2.3329087e-01
  2.7420945e+00
 -1.3710032e+00
 -5.0931025e-01
 -1.4855944e+00
  3.8519156e-01
  5.5456990e-01
 -3.5768912e+00
  2.6708872e+00
  2.7722797e-01
  1.2668362e+00
 -1.0465535e+00
  3.0592685e+00
 -6.0271312e-02
 -1.3324074e+00
 -2.2519140e-01
 -9.6041203e-01
  4.0628171e-01
  7.3913032e-01
 -2.0536241e-01
  3.8631400e-01
 -8.7043390e-02
  1.7919759e+00
  1.5091610e+00
 -4.4905104e-02
 -2.0418837e+00
  2.2868686e+00
 -1.5502645e+00
 -3.3871694e+00
  5.8085275e-01
 -4.5870643e+00
 -2.0929899e+00
  3.2817330e+00
  4.0173030e+00
  1.1462731e+00
  9.7183555e-01
 -1.3366148e+00
  2.8617342e+00
  2.0618106e-01
  1.0253381e+00
 -5.4551762e-02
  2.1885860e+00
  2.2058165e+00
 -6.3447034e-01
  1.1942276e+00
 -1.4056280e+00
  1.0195731e+00
  8.2451254e-01
 -3.4588706e+00
 -5.1287061e-01
  8.2666731e-01
  2.1721242e-02
 -1.6484051e+00
 -8.5186690e-01
 -1.8143168e-01
 -4.2212573e-01
  7.8955203e-01
  4.9298576e-01
  1.2640915e+00
 -4.1141909e-01
 -1.4062599e+00
  2.5103893e+00
 -5.3079778e-01
 -6.4884663e-01
  3.1935364e-01
  1.0118382e+00
  1.5233761e-01
 -3.8477284e-01
  1.1792839e+00
 -1.0814555e+00
 -1.8593419e-01
 -1.6685315e+00
 -1.4567091e+00
  1.2844653e+00
 -6.2235326e-01
  1.2820743e+00
 -1.6556150e-01
  3.0346712e-01
  3.1561348e-01
  3.4896272e-01
  6.8419051e-01
 -4.9531180e-01
  2.0765090e+00
  4.0482128e-01
  2.1793106e+00
 -3.0377305e-01
  3.0676275e-01
 -1.4227561e+00
  9.1558355e-01
  8.1604904e-01
 -1.2739563e-01
  6.6849029e-01
 -4.6588736e+00
 -2.2737095e-01
  8.4463292e-01
 -9.1593325e-01
  7.2899562e-01
 -1.7997940e+00
 -1.2741196e+00
  7.6490134e-01
  1.9734296e+00
  9.6972179e-01
 -8.4762293e-01
  2.7501941e+00
  7.1621114e-01
  3.5421395e-01
 -3.8532823e-01
  2.1671927e-01
  1.0532738e+00
  1.6996255e+00
  7.9227448e-01
  2.0639823e-01
 -2.4579945e+00
  3.1111448e+00
  1.8406835e+00
  3.0760887e-01
 -4.8802125e-01
 -3.7133206e-02
 -2.0779395e+00
  2.0892231e+00
  1.7697236e-01
  1.3897358e+00
 -2.3656099e-01
  8.8160121e-01
 -1.7412130e+00
  2.5149684e+00
 -1.7000847e+00
 -9.5644683e-01
 -5.9212122e-02
 -2.3073666e-02
  1.3700843e-01
 -4.6444091e-01
  2.7713716e+00
 -5.2487218e-01
 -3.0004387e+00
 -5.8731765e-02
 -6.7805439e-01
 -5.6133860e-01
  1.8794651e+00
 -1.6856302e-02
 -5.2840251e-01
 -1.7575048e-02
 -3.0553707e-01
 -4.0632663e-03
  8.7804206e-02
 -1.9550592e-01
 -3.4654692e-02
  9.8445642e-01
  1.7205679e-01
 -9.4673711e-01
  1.5551856e+00
  2.5460370e+00
 -2.5235813e+00
  1.0840628e+00
  6.1708307e-01
 -6.4758807e-01
  6.4513803e-01
 -6.0686223e-02
 -5.1557279e-01
  1.6167083e+00
 -2.3030593e-01
 -2.6668987e-01
  6.5251536e+00
  6.6541141e-01
  3.8718504e-01
  1.0269130e+00
  1.0099934e+00
  2.2833183e+00
  2.6268048e+00
 -3.8991737e+00
 -3.7567779e-02
 -4.9739408e-01
  2.0955596e+00
  1.8304855e+00
  4.1357020e-01
 -5.4976439e-01
 -1.1727629e+00
  1.7667222e+00
  5.6392843e-01
 -1.5445161e+00
 -8.7334055e-01
  2.3984845e+00
  1.5293659e+00
 -2.6307755e+00
  7.2689766e-01
  4.4832712e-01
  7.9720515e-01
 -5.6622014e+00
  1.8153034e-01
  1.4637011e+00
 -1.0619583e-01
 -1.3518077e+00
 -5.5270433e-02
  1.5454772e+00
 -8.3596683e-01
 -1.3944465e-01
  1.1013907e+00
 -1.8323203e+00
 -3.2374012e+00
  1.7930670e+00
  4.1984245e-02
 -7.2686028e-01
  4.4527459e-01
  2.5083101e-01
 -5.3874793e+00
 -2.9131705e-01
  2.4216075e-01
 -1.1282516e+00
  4.3599010e+00
  3.7022229e-02
  6.6579098e-01
  5.0185722e-01
  4.1978459e+00
 -2.5337861e+00
  8.2918763e-01
  2.0998523e-01
 -2.9764135e+00
 -1.7835891e+00
  3.4462057e-02
  1.2616900e+00
  3.8318989e-01
  8.9936149e-01
  5.4161286e-01
  1.2632197e+00
  1.1306409e-01
  8.8618648e-01
 -1.7264691e-01
  3.7849620e-01
 -1.8578942e+00
 -6.8728173e-01
  6.1287040e-01
  2.2211178e-01
 -2.0751636e+00
 -6.4421219e-01
  1.8685944e+00
  1.3293764e-01
 -1.7977585e+00
  1.0567403e+00
  8.3962631e-01
 -1.9461256e-01
  2.8690777e+00
  2.2795105e+00
 -2.3083088e+00
 -5.4481697e-01
  6.8317449e-01
  1.6154934e+00
 -8.3917385e-01
 -4.2603484e-01
  3.9915678e-01
 -2.3112094e+00
  1.0087676e+00
 -2.5831884e-01
 -1.1502895e+00
 -1.6167308e+00
 -1.9703382e-01
 -1.2072475e+00
  7.9189682e-01
  4.4879967e-01
 -1.2446535e-01
 -2.6946530e-01
 -1.6674390e-01
 -2.2978820e-01
  5.3130424e-01
  2.9748189e-01
 -6.3943046e-01
 -1.5185960e-01
  1.1791119e-02
 -3.0885133e-01
 -3.6346614e+00
  1.4386808e+00
  5.9704256e-01
  2.0506861e+00
 -4.9835134e-01
  1.2030990e+00
 -1.2047311e+00
 -1.4680761e+00
  1.9062930e+00
  1.1576409e+00
 -1.4944379e+00
 -2.6672771e+00
  6.3978058e-01
 -7.2738171e-01
 -9.4827211e-01
  5.1166379e-01
 -5.1872051e-01
  3.8603720e-01
  8.8351017e-01
  6.5766037e-01
  2.6797755e+00
 -7.4528806e-02
  1.9307691e+00
  1.1878410e-02
  2.7049196e+00
 -1.5038325e+00
  4.8388034e-01
  3.6822852e-01
 -2.9281563e-01
  4.4813398e-01
  7.2374648e-01
 -2.8857458e-01
  2.8813073e-01
 -1.0312767e+00
 -1.9248748e-01
  3.9710230e-01
  1.0337232e+00
  4.6739000e-01
 -4.3356404e+00
 -3.0218998e-01
  2.9981990e+00
  2.5720985e+00
  2.0555660e-01
  6.1873066e-01
 -3.7592013e+00
  3.0689187e+00
  1.0033214e+00
 -9.2050606e-01
  9.1335869e-01
  6.3511533e-01
 -3.2177439e+00
  3.1507123e-01
 -5.2299249e-01
 -6.1679089e-01
 -1.3261033e+00
 -8.2288879e-01
 -1.2363849e+00
 -3.7247834e-01
  1.0908560e+00
 -1.7362671e+00
  1.3948586e+00
  7.5082338e-01
  3.8533616e-01
 -6.4481390e-01
  2.8999191e-02
  5.7271987e-01
 -1.1563495e+00
  4.0048563e-01
 -2.2508618e-01
 -5.4856710e+00
 -2.7113814e+00
 -2.2364159e+00
 -3.4144132e+00
  7.0062059e-01
 -4.0075226e+00
 -3.8226907e+00
 -1.0360820e+00
 -1.1851738e-01
  1.4214790e-01
 -8.3983636e-01
  2.3624029e+00
  2.9169681e+00
 -4.8815373e-01
  3.1393728e-01
 -8.6187863e-01
  3.5468955e+00
 -3.0573684e-01
  1.9800414e+00
  2.3262191e-01
  1.4252814e-02
  1.6972164e+00
 -6.0598266e-01
  1.6378190e-01
  1.7352275e+00
  1.3776304e+00
 -3.6127377e+00
 -1.8649700e-01
 -2.8173053e-01
 -2.3579249e+00
 -2.3766007e+00
 -2.7854538e-01
  4.0469781e-01
 -3.5536334e-01
 -2.5513399e-01
 -1.0038961e+00
  2.9455917e-02
  1.0055785e+00
  1.7068028e+00
  2.7488084e+00
  7.1812898e-01
  6.7431861e-01
 -1.2979866e+00
 -1.5878175e-01
 -3.3686939e-01
 -6.6270995e-01
  4.2761736e+00
 -8.3255136e-01
 -4.1551900e+00
  2.7902454e-01
  1.0730089e+00
  1.9393630e+00
  2.2995767e-01
  4.4057599e-01
  1.1071694e+00
  4.3984845e-01
  5.9432703e-01
 -1.3957298e-01
 -9.4932055e-01
  1.8957602e+00
 -9.0581459e-01
 -9.8613042e-01
 -1.3629777e+00
  2.1135662e+00
  1.2280604e+00
  5.0549960e-01
 -7.9090732e-01
  1.4508235e-01
 -4.3578121e-01
  3.8093442e-01
 -5.4510123e-01
 -9.1310763e-01
  1.0739454e+00
  5.5642468e-01
 -6.1419904e-01
 -7.4690926e-01
 -2.0544012e+00
 -8.3936322e-01
 -1.7300673e-01
  6.1686244e-02
 -2.9643965e-01
  2.2260079e+00
 -9.0305835e-01
  1.3610950e+00
  1.1504579e-01
 -3.0213614e+00
  1.8910118e+00
 -2.9965019e-01
  1.4826405e+00
  2.5318315e-02
  2.6401362e+00
 -3.4824233e+00
  2.3380897e+00
  4.8461476e-01
 -8.5452420e-01
  5.3010060e-04
 -2.5764844e+00
 -5.5791342e-01
  2.1861595e-01
 -6.3547111e-01
 -9.7700775e-02
  7.2675206e-02
 -1.7469133e+00
  4.8278180e-01
 -1.1773601e+00
 -4.9486452e-01
 -1.0139022e+00
 -1.5724235e+00
  2.0778742e+00
  2.0551362e+00
 -1.0132538e+00
 -2.8718321e+00
 -2.4517502e-01
 -1.4530529e-01
 -1.3225619e+00
  9.0832543e-01
  8.5684019e-01
 -1.1155102e+00
  1.2170240e+00
  8.6641937e-01
  1.4311771e+00
 -2.0744317e+00
 -2.8289249e+00
  1.0360091e+00
  9.4700426e-01
  2.9542580e+00
 -3.0858424e+00
 -5.0861716e-01
 -1.5774527e-01
 -1.5416901e+00
  1.5562230e+00
 -1.2937826e+00
  3.8290584e-01
  3.4619445e-01
 -4.5458502e-01
 -4.6093121e-01
 -1.5974253e+00
 -4.5446888e-01
  8.3753049e-01
 -2.4632885e-01
  6.7290521e+00
  3.0573428e+00
 -5.1856893e-01
  2.9553217e-01
  5.9817177e-01
  9.1081285e-01
  1.1688999e+00
 -4.9243011e+00
 -2.6435211e-01
  1.5751812e+00
  4.1608434e+00
  1.7860028e+00
 -5.2032480e+00
 -4.4354543e-01
 -2.1646585e+00
  2.8740089e+00
 -1.2469584e+00
 -3.9427812e+00
  1.9415467e+00
 -1.4941142e+00
 -1.6437994e-01
 -2.0045109e+00
  5.4618466e-01
 -1.4686341e+00
 -4.1377372e-01
  1.7089317e+00
  1.1862106e+00
  3.2588759e-01
 -1.7188331e-01
 -1.9888074e+00
 -9.2197061e-02
 -4.8373409e-02
  3.7471080e-01
  5.8770770e-01
  8.7423927e-01
 -2.4096885e+00
 -1.6864291e+00
 -3.3511236e+00
 -1.6884341e+00
 -1.3882258e+00
 -4.1330123e-01
  2.4317760e+00
  2.4178102e+00
 -4.0051901e-01
 -1.8505293e+00
  3.4363532e-01
  5.3762612e+00
  2.2975916e-01
 -1.4190075e-01
  9.5241284e-01
 -2.4874434e+00
 -1.9970044e-02
 -2.1807565e-01
  1.0166997e+00
  3.4900334e+00
  5.2388318e-02
  5.1319040e-02
 -4.7863150e-01
  2.2402093e+00
 -1.8866030e+00
  4.5237050e+00
 -7.6793611e-01
  1.4047978e+00
 -2.7384660e-01
 -2.5032032e+00
 -6.1361402e-01
 -2.4268155e-01
 -1.0095707e+00
 -1.3663640e+00
 -1.2719014e+00
 -1.4908131e+00
  1.6339278e-02
  4.2622775e-01
  8.0052835e-01
 -2.5865180e+00
 -2.6244683e-02
  1.8288102e-02
  2.0358479e+00
  1.8176556e-01
  7.1272975e-01
 -2.8391776e+00
  1.4148694e+00
 -1.2553482e+00
 -1.1728807e-01
 -1.9471604e-01
 -1.0161953e+00
 -8.4487426e-01
  6.1300051e-01
  1.3150281e+00
  3.3570141e-01
  8.3000749e-01
  8.0678821e-01
  6.5987962e-01
  9.4337416e-01
 -1.8757098e+00
  6.2379473e-01
 -3.7177852e-01
  3.8090475e-02
 -5.6929475e-01
 -6.3977212e-01
 -6.9301003e-01
  3.7965456e-01
 -3.2236162e-01
  1.0938171e-01
 -1.8340334e-01
  2.3176413e+00
  3.5158604e-01
 -1.3220178e+00
 -1.9893342e+00
 -1.2635268e+00
 -2.5089636e-01
 -3.7551727e+00
 -1.9986216e+00
  3.3723897e-01
 -1.1421360e+00
  2.1847951e+00
  1.0209006e+00
 -1.9178466e+00
 -1.9963890e+00
  1.2898425e+00
 -7.2500235e-01
  1.5302682e+00
  2.2554769e-01
  1.1509513e+00
  2.2556534e+00
  4.1468458e+00
  6.8618768e-01
 -2.8510964e-01
  1.4184258e+00
  2.2589827e-02
  1.9447562e-01
 -1.5982473e+00
  2.2968125e+00
  9.8681696e-02
 -7.9664606e-01
 -4.1074482e-01
  8.5379064e-01
  8.7665099e-01
 -3.0745089e-01
 -9.9199635e-01
 -4.5388129e-02
 -5.9328264e-01
  1.5141281e+00
 -5.7458961e-01
  8.7051392e-01
  1.0427533e+00
 -1.1398339e-01
  5.8779192e-01
 -1.5952487e-01
 -2.2622092e-02
  1.9971912e-01
 -2.1028762e+00
 -1.4926053e+00
 -2.9851236e+00
 -1.9406088e-01
  8.2916921e-01
 -4.1384153e+00
 -2.6947892e-01
 -1.3983229e+00
 -8.0886376e-01
 -4.7646755e-01
 -8.4778947e-01
  9.2024523e-01
 -1.3733635e+00
 -2.0163653e+00
 -1.5671624e+00
 -1.4557270e+00
  2.9270533e-01
  7.6945049e-01
 -1.9421358e-01
  9.7489450e-03
 -6.6598940e-01
 -1.4349962e+00
 -5.0045452e+00
  1.9628803e+00
  3.9026611e+00
  1.3130453e+00
 -4.4355658e-01
 -1.2940869e+00
 -9.7538775e-01
  7.9651034e-01
 -2.4906442e+00
 -3.2185657e+00
 -1.3140510e+00
 -9.6357363e-01
  1.5162937e-01
 -1.3333204e+00
 -8.5978341e-01
 -1.5722053e+00
 -9.3538100e-01
 -3.0999441e+00
  2.6455169e+00
 -8.0985945e-01
  9.0013766e-01
  2.1964676e+00
 -2.5685103e+00
 -1.5987282e+00
 -1.5840685e+00
  5.4294281e-02
  1.9921665e+00
 -2.8166976e+00
  2.1347980e+00
 -1.8539324e+00
  3.3764142e-01
  2.4079569e-01
 -6.9117719e-01
  9.6952766e-01
  1.2559795e+00
 -1.1880264e-01
  6.1154163e-01
  4.6047938e-01
  4.9854991e-01
 -1.1330571e+00
 -1.0718910e+00
  5.7338041e-01
 -3.3524649e+00
  4.5835586e+00
  3.4689558e+00
 -7.0468587e-01
  2.6515484e-01
 -2.4551370e+00
  3.1246858e+00
  9.3387179e-02
 -5.9623080e-01
 -6.7321557e-01
  4.7585395e-01
  1.5075891e-01
  1.1983788e+00
  8.7800050e-01
  6.7830259e-01
 -1.0302206e+00
  1.2837166e+00
  1.5881304e+00
  1.5228778e+00
 -8.5985821e-01
 -9.2578030e-01
  1.0013226e+00
 -6.1115468e-01
 -2.2397462e-01
 -2.3452852e+00
  4.2185417e-01
 -8.5965538e-01
  6.3320088e-01
 -6.6646002e-03
 -5.1998365e-01
  1.3983995e+00
 -2.3905752e+00
  2.5855889e+00
 -2.5836778e+00
  8.6700791e-01
  3.7482491e-01
  3.7574253e+00
  4.4698584e-01
 -2.0914257e-01
 -3.7228122e-01
  2.2073867e+00
  1.4090787e-01
 -3.3699341e+00
 -3.9148897e-01
 -4.3217069e-01
 -8.4899044e-01
 -2.5496404e+00
 -5.2391738e-01
 -1.0326666e+00
  8.7334257e-01
  5.5323001e-02
 -1.2681077e+00
 -2.0660360e+00
  4.5372561e-01
  2.5758970e+00
  4.5655602e-01
  1.3410283e+00
  1.1935053e+00
  8.3722442e-01
  9.2778879e-01
 -5.3595668e-01
 -9.5458709e-02
  7.9191965e-01
  1.7466655e-01
 -2.0327631e-01
  3.8572364e+00
  2.6758876e+00
 -2.3140652e+00
  6.5204304e-01
 -2.5262856e-01
 -1.9803198e-01
 -1.6660746e+00
  1.5823011e+00
  3.6997676e-01
 -2.7312830e-01
  1.2501431e+00
 -1.6256852e+00
  1.4792235e+00
 -1.1204547e+00
 -1.0474286e-01
 -1.8456432e+00
  5.6752527e-01
  2.6718938e+00
 -8.4426409e-01
 -3.3471522e-01
 -6.7352027e-01
 -7.5614309e-01
  6.7989951e-01
 -2.5754777e-01
  1.7865810e+00
  1.2582691e+00
 -3.1382081e-01
 -6.6321719e-01
  1.6809142e-01
 -4.5183587e-01
  3.9616056e-02
  5.1636916e-01
 -1.9711930e-01
  1.9628164e+00
 -2.1540914e-01
  1.1617295e-02
 -4.0072436e+00
 -1.9278415e+00
 -4.1400400e-01
  1.8941146e+00
  6.0333028e+00
 -3.6533723e+00
  2.7418633e+00
 -2.8142476e+00
 -5.6776381e-01
  1.2524835e+00
  5.1039356e-01
  1.9214305e+00
 -1.2414293e+00
 -1.7633504e+00
 -2.0144699e+00
  1.2106258e+00
  3.8619080e-01
 -9.4429530e-02
  1.4508516e+00
  1.8027316e+00
  4.7674332e-02
  1.8336775e+00
 -1.3640864e+00
  1.1995686e+00
 -9.2014736e-01
 -2.7443340e+00
 -9.6870887e-01
 -3.4561682e-01
 -1.5186002e+00
 -3.0106150e-02
  8.7758291e-01
 -5.5759358e-01
 -6.0519975e-01
 -8.9481640e-01
 -4.9789953e+00
 -3.9225128e-01
 -2.5577083e+00
 -6.8053253e-02
 -2.2430942e+00
 -8.1033111e-01
 -1.2721113e+00
 -2.1786232e+00
  9.9137284e-02
  1.2560001e-01
 -3.6029198e+00
  7.4387586e-01
  3.5252774e+00
 -3.4806019e-01
 -8.4278369e-01
 -1.3125063e+00
 -1.5129319e+00
 -1.2819206e+00
 -2.5295237e-01
  3.6681101e+00
 -1.7617544e+00
 -7.0481110e-01
  5.9404391e-01
 -1.0868766e-01
  1.6478157e+00
  1.6865252e+00
 -2.6558468e+00
 -9.0000704e-02
  6.9737607e-01
 -1.8164507e+00
  3.9547217e-01
  8.2118040e-01
  4.4953674e-01
 -7.0563458e-02
  1.0793573e+00
 -5.3354952e-02
  1.6137145e+00
 -1.4448693e+00
 -7.6550275e-01
 -3.5058994e+00
 -5.4497391e-01
 -1.4698375e+00
 -9.8291618e-01
  3.5179728e-01
  1.2654020e+00
 -9.3431330e-01
  1.3170648e+00
  5.7987785e-01
 -1.9500117e+00
  4.0179738e-01
  8.3382702e-01
  1.6909505e-01
  1.1745731e+00
  8.7434810e-01
  2.5749903e+00
 -2.6930940e+00
  1.8582770e+00
 -1.5088389e+00
  8.3756995e-01
 -1.1163980e+00
  2.6128772e-01
 -6.3215715e-01
  4.8273680e-01
  5.0423521e-01
 -2.9863255e+00
 -2.6140428e-01
  5.9580350e-01
 -3.6795998e-01
 -4.2155901e-01
 -1.3670753e+00
 -5.2823033e+00
 -3.3712096e+00
  3.8226936e+00
  3.7129323e+00
  4.3197021e+00
  3.5459891e-01
 -1.2959514e+00
 -1.3948698e+00
  1.7907715e+00
 -1.6486737e+00
  1.4327903e+00
  1.1479336e+00
 -2.2476442e+00
  2.7419598e+00
 -4.8805532e-01
  4.7130573e-01
  1.8843815e+00
  2.1890926e+00
  6.9597678e+00
  3.7695017e+00
 -3.6610499e-01
  3.9048269e+00
  1.5073209e-01
  6.9368396e+00
 -2.0889886e-01
  8.9081973e-01
  2.5868940e+00
 -2.8403774e-02
 -8.3758676e-01
 -4.3546540e-01
 -3.9231792e-01
  2.7761488e+00
 -1.8090430e-01
 -1.0313536e+00
 -3.1873935e-01
 -1.2541138e+00
  9.5950508e-01
  1.9388901e+00
  7.0499182e-01
  1.6682212e+00
  3.7786195e-01
 -2.1339881e+00
  7.0219779e-01
  5.1553214e-01
 -9.6894875e-02
 -1.0225453e+00
 -1.5609386e+00
 -1.4426627e+00
  5.2095737e-02
 -3.0069527e-01
  5.9720850e-01
  1.0223423e+00
 -2.1067200e+00
 -1.3772479e+00
  9.0363449e-01
  2.2837772e+00
  2.6729720e+00
 -1.4074953e+00
 -1.2103128e+00
 -5.5081815e-01
 -1.9619316e-01
 -3.9579256e+00
 -6.1619157e-01
 -1.2584046e-01
 -2.1230267e-01
 -6.7251164e-01
  1.9238336e-01
 -1.4445089e+00
  3.5507005e-01
  3.4563485e-01
 -5.4087842e-01
  7.6375741e-01
  2.0974655e+00
  1.4570184e+00
 -1.4310080e+00
  1.1166482e+00
  8.5587335e-01
  1.6046712e+00
  7.3834223e-01
 -3.8075037e+00
  2.0571465e+00
 -1.5491800e+00
  2.2023182e+00
  9.9091589e-01
 -2.6301646e+00
 -5.0699055e-01
 -1.6031888e+00
 -1.6841288e+00
  1.7294003e-02
 -2.2263391e+00
  3.5829678e+00
 -3.4684238e+00
 -1.0545384e+00
 -8.7840289e-01
  1.9542507e+00
  8.5202378e-01
  2.1203318e+00
 -1.7892299e+00
 -1.7618002e+00
  1.7920749e+00
  2.4858749e-01
  1.6108761e+00
  1.5893672e+00
  7.1671098e-01
  1.8661062e+00
 -8.3296740e-01
 -7.9693377e-01
 -1.3946772e+00
 -9.2350227e-01
  1.7197154e+00
  1.2644081e+00
 -4.4889399e-01
  1.1234391e+00
  7.7601570e-01
 -4.9713127e-02
  1.0663998e+00
 -4.4022620e-01
  1.0669327e+00
 -9.8805845e-02
 -7.1683474e-02
 -1.5716908e+00
  2.0427864e+00
 -1.2250147e+00
  2.3013648e-01
 -1.4824314e+00
  2.5146151e-01
  2.5739133e+00
  4.1726768e-01
  2.2055736e-01
  7.7699602e-01
  1.3442504e+00
 -1.1530548e-04
  7.3625135e-01
  2.5468516e+00
 -2.6008794e-01
 -3.7394610e-01
  9.0552229e-01
  7.5759161e-01
 -1.0468566e+00
  1.3333529e+00
 -5.1528513e-01
 -1.8595182e+00
 -1.6552321e+00
  1.8616039e-02
 -3.5948248e+00
 -1.0227547e+00
 -2.1870337e+00
 -2.5536013e-01
  1.9736750e-01
  7.7189404e-01
  2.9163566e-01
  1.2744240e+00
  2.5918108e-01
 -8.2772225e-01
  3.1090367e-01
  4.1122019e-01
  8.3797824e-01
  8.8127899e-01
  1.6470470e-01
  7.3521787e-01
 -8.9555436e-01
  1.1401945e-01
 -1.3920860e+00
  4.5173272e-01
  2.8895366e-01
  4.5016754e-01
  3.5357526e-01
  3.9386478e-01
 -1.4747043e-01
  2.7436264e+00
 -4.7218019e-01
  5.3174603e-01
 -3.5716248e-01
  5.8151209e-01
 -3.6518520e-01
 -7.1206713e-01
  1.3355652e+00
  5.4187077e-01
  1.5717663e+00
  2.9252669e-01
 -2.0772515e-01
 -7.5128901e-01
 -2.4507906e+00
  1.5407313e-01
 -6.8964887e-01
  1.1738759e-01
  3.0460349e-01
 -4.3409625e-01
 -1.4987718e-01
 -3.2844865e+00
 -6.3867450e-01
  2.6706466e-01
 -1.6793896e+00
 -4.4020444e-01
  5.6865448e-01
  5.9691268e-01
  2.6197734e-01
  5.9095842e-01
 -1.5824018e+00
 -7.1763062e-01
 -6.5304464e-01
  5.3503782e-01
  5.5671096e-01
  6.4214641e-01
 -6.1315680e-01
 -1.7805147e+00
 -1.8835702e+00
 -6.1916149e-01
 -4.6495223e-01
  6.7502701e-01
  3.2871482e-01
 -4.5242229e-01
 -7.4734473e-01
 -7.6649553e-01
 -2.4905345e-01
  3.3189631e-01
  8.4331393e-01
 -3.7576228e-01
 -7.0892507e-01
 -3.4614837e-01
  4.4838876e-01
 -4.1489571e-01
  2.8829319e+00
  2.4757577e-01
 -1.2152236e+00
  9.8060000e-01
 -9.4259858e-01
 -2.3363744e-01
 -2.9827971e+00
 -1.9970649e-01
  1.9992971e+01
 -2.1220167e+00
 -3.5058734e+00
  3.0018988e+00
  1.4276818e+00
 -6.6946158e+00
 -2.5465055e+00
  3.0429623e+00
  5.4183216e+00
 -7.7619028e-01
 -3.4969118e+00
 -7.3016191e+00
 -1.7222154e+00
  2.2435218e-01
 -3.9881647e+00
  5.6196856e-01
  4.2658553e+00
  7.4812281e-01
  3.0529532e+00
  7.1321678e-01
  1.8191031e-01
  8.2629174e-01
 -7.4728590e-01
  2.8126163e+00
 -7.1271653e+00
 -3.1795254e-01
  4.5599957e+00
  5.0689363e+00
 -1.7577537e+00
 -1.3091168e+00
 -1.7473332e+00
  1.1585722e+00
 -7.1945560e-01
 -1.5810995e+00
 -1.0224848e+00
  3.5712593e+00
  3.8867342e+00
 -9.0598041e-01
 -2.1763539e+00
  1.1146898e+00
  6.4989619e+00
  5.4564571e+00
 -3.5949869e+00
 -6.0180402e+00
 -2.1255903e+00
  2.0921965e+00
  1.4204311e-01
  3.1496754e+00
 -4.4526401e+00
 -2.9995444e-01
  3.6035011e+00
  5.2702713e-01
  7.4935865e-01
  1.7975729e+00
  1.3592644e+00
 -1.8973451e+00
 -4.0920115e+00
  6.5448780e+00
  4.2657018e+00
 -2.9347482e+00
 -3.3474650e+00
 -1.6215163e+00
 -7.0250326e-01
 -8.5809392e-01
  1.2769005e+00
  8.3281412e+00
 -1.0009906e+00
 -4.9237709e+00
  1.6992534e+00
  4.6613688e+00
  4.7011173e-01
 -3.4016671e+00
 -1.5866208e+00
 -1.3080939e-02
  2.4487374e+00
  4.1649094e-01
 -3.2598469e-01
 -2.1584206e+00
  1.6456582e-01
  3.2323938e-02
  8.5349256e-01
 -1.2260854e+00
 -3.2826703e+00
 -4.5743780e+00
  1.9408752e+00
  1.5254618e+00
 -2.0270345e+00
  1.6816525e+00
  4.4447951e+00
  1.4934634e+00
 -2.3296809e+00
  4.1251560e-03
  4.1251560e-03
  4.1251560e-03
  4.1251560e-03
  4.1251560e-03
  5.2743582e-03
  5.2743582e-03
  5.2743582e-03
  5.2743582e-03
  5.2743582e-03
  4.1027446e-03
  4.1027446e-03
  4.1027446e-03
  4.1027446e-03
  4.1027446e-03
  2.3731452e-03
  2.3731452e-03
  2.3731452e-03
  2.3731452e-03
  2.3731452e-03
  1.4660439e-03
  1.4660439e-03
  1.4660439e-03
  1.4660439e-03
  1.4660439e-03
  7.1759237e-04
  7.1759237e-04
  7.1759237e-04
  7.1759237e-04
  7.1759237e-04
  5.9611837e-05
  5.9611837e-05
  5.9611837e-05
  5.9611837e-05
  5.9611837e-05
