nep4_zbl 1 C 
zbl 1 2
cutoff 6 5 163 106
n_max 4 4
basis_size 8 8
l_max 4 2 1
ANN 80 0
  1.9231310e+00
  3.2138693e+00
 -1.2790276e+00
 -1.8788202e+00
  2.9386905e-01
  4.9787015e-01
 -3.1721699e-01
  5.1781857e-01
 -3.1858701e-01
 -7.7328604e-01
 -8.9402482e-02
 -1.7242291e+00
 -1.0772493e+00
  8.7344036e-02
  1.7957737e+00
 -6.5702659e-01
 -1.3540969e+00
 -1.0925372e+00
  8.3369613e-01
  1.8747401e+00
 -6.5881652e-01
 -6.4856434e-01
  9.7169656e-01
  1.4301876e+00
 -6.3213068e-01
  6.3763040e-01
 -1.1696661e+00
  8.2312778e-02
  8.4534276e-01
 -9.9021934e-02
 -4.8356038e-01
  2.5149256e-01
  1.5474252e-01
 -4.7005907e-01
 -1.2705812e+00
  1.5067117e+00
  1.3282877e+00
  2.7524042e+00
 -1.0956430e+00
  1.0458905e+00
  2.1714630e+00
  1.8215630e+00
 -3.0341563e+00
  5.1463234e-01
 -1.2172894e+00
  2.1723044e+00
  9.4269580e-01
 -1.1018178e+00
  2.3316395e-01
 -8.7012380e-01
  2.0688441e+00
 -2.7903721e+00
 -1.7486763e+00
 -1.8328946e+00
 -4.0715939e-01
  3.7124795e-01
 -2.7139146e+00
  1.7054026e+00
  3.5771033e-01
 -6.8635672e-01
  9.1091806e-01
  6.0140468e-02
  3.2529559e+00
  3.7053113e+00
 -1.5218494e+00
  3.5400254e-01
 -6.9178087e-01
  1.5196890e+00
 -7.9905950e-02
 -8.9984620e-01
 -3.0562242e-02
 -1.2864772e+00
  3.1207585e-01
 -1.6677852e+00
  1.5007113e+00
 -1.4364262e+00
  2.2851133e+00
  1.7127368e-01
 -8.8772053e-01
 -4.4343360e-02
 -5.2146333e-01
  5.9320331e-01
  1.2909791e+00
  1.2131541e+00
  9.3383217e-01
  1.4137700e+00
 -1.9365750e-01
 -1.2468340e+00
  5.7993077e-02
  2.6831422e+00
  6.7599672e-01
  1.9506743e+00
  1.4749398e+00
  1.1154228e+00
 -4.7927205e-02
 -8.6691700e-02
 -3.5283761e+00
  2.9804599e-01
  1.5781916e+00
  1.6562407e-01
  1.0561020e-01
 -3.7709782e-01
 -9.1076517e-01
  9.7229026e-02
 -4.1984713e-01
 -2.1290419e+00
 -1.0664113e+00
 -1.6723417e+00
  1.4003501e+00
  4.0327618e-03
 -2.2251928e+00
  2.1788831e-01
  3.0254755e+00
  3.8767520e-01
  5.6343102e-01
 -2.6308456e-01
  2.5821607e+00
  6.8932968e-01
  3.5996330e-01
 -2.3982246e-01
 -2.7508610e-01
  2.2667532e+00
  2.3984673e+00
  2.9595759e-02
 -3.3544850e-01
 -4.0901652e-01
  1.2322843e+00
  1.1010739e+00
 -7.6718986e-01
  3.3381659e-01
  1.2416047e+00
 -6.7002600e-01
 -2.3473110e+00
 -1.4410520e+00
  2.9574755e-01
  1.0199811e+00
  5.0485945e-01
 -8.5308785e-03
  1.2160046e+00
  1.8455525e-01
  8.7096862e-02
 -1.6344011e+00
  3.6080942e-02
 -1.2378393e-01
  5.8432895e-01
  3.0719817e-01
  7.2963423e-01
 -8.2297502e-03
 -3.3793542e-01
  6.8099082e-01
 -2.8264338e-01
 -1.4817772e+00
 -4.9758601e-01
 -1.3630453e-01
  1.1351159e+00
 -1.5988971e-01
  7.2593725e-01
  1.6713962e-01
 -7.3679405e-01
 -4.6656215e-01
 -3.6609954e-01
  3.9218688e-01
  1.2081178e-02
 -2.9178241e-01
  4.6472707e-01
  1.0502477e+00
  4.3256104e-01
  3.1595437e-03
  5.2199918e-01
 -2.7961338e-01
  8.6072139e-02
  2.2821474e-01
 -2.2294471e-01
  1.3648486e-01
  5.3884858e-01
 -1.7402314e+00
 -2.5221314e+00
  1.4513060e-02
  1.1259251e-01
  2.5236852e+00
 -1.9094466e-01
  1.1853801e+00
  2.1437244e+00
 -3.7153754e-01
  3.6404710e+00
 -2.0799994e+00
 -8.4685487e-01
  2.5734165e+00
 -1.0002511e+00
  1.6187433e+00
 -6.3081145e-01
  1.7829936e+00
  2.9444602e+00
 -5.6479496e-01
  2.9507873e+00
  4.0931192e-01
 -9.6480381e-01
 -3.3712319e-01
  1.3404731e-01
  1.8392550e+00
 -3.1007278e+00
  2.0746007e+00
  3.6255437e-01
  3.6066437e-01
  6.4792067e-01
  4.5019146e-02
 -1.9564086e-01
  9.5475137e-01
 -1.8331550e-01
 -1.3280059e+00
 -1.1476635e+00
 -4.0022680e-01
  1.0517725e+00
  1.3715425e+00
  3.1836898e+00
 -3.3245184e+00
 -3.8443971e-01
  4.3048787e-01
 -1.9687265e-01
  1.5124000e+00
  2.3242846e-01
 -1.7127795e+00
 -1.1131319e+00
  9.4248480e-01
  2.1523314e+00
 -1.3080072e-01
 -1.3752167e+00
 -9.5582199e-01
  2.5930388e+00
 -1.3898851e+00
  1.4805276e+00
 -2.6437829e+00
 -1.4639598e+00
  2.0030971e+00
  1.3980579e+00
  7.5372934e-02
  8.2321137e-01
  3.9928654e-01
  6.3935757e-01
 -6.2125552e-01
 -8.3820172e-02
  5.1173902e-01
 -2.7983114e-01
  2.1891318e-02
 -8.2637960e-01
 -4.8783145e+00
 -8.3707553e-01
 -3.0775738e-01
  6.5425301e-01
  5.1820626e+00
 -3.1889708e+00
 -2.7491879e+00
  1.6424261e+00
 -1.0545361e+00
  3.1782782e-01
  1.6049354e-01
 -1.6899902e+00
  1.1532629e+00
 -7.9054438e-02
  1.0747961e+00
  4.4459629e-01
 -1.9999858e+00
 -9.9725640e-01
  2.3557014e+00
  1.4169739e+00
  1.1165062e+00
  6.3986474e-01
 -1.3385190e+00
 -8.9438748e-01
  1.6677455e+00
 -2.5993243e-01
 -1.0277091e+00
 -1.2626092e-01
  1.0799191e-01
 -4.6864173e-01
 -4.7835076e-01
 -1.3032153e-01
 -6.2399721e-01
 -3.1738791e-01
 -8.6552925e-02
 -1.3136259e+00
  1.9257873e-01
 -2.5752490e+00
  2.5644534e+00
  3.2885343e-01
  5.7369642e+00
  5.0792360e-01
  1.9066492e+00
 -6.1887693e-01
  4.8460975e+00
  6.0821927e-01
  1.3909376e+00
 -1.7334194e-01
  1.5028008e+00
 -2.2675090e-01
 -6.7647433e-01
 -6.7368370e-01
  4.0153748e-01
 -1.1821195e+00
 -1.2115802e+00
  1.6393390e+00
 -5.2038366e-01
  8.0477273e-01
 -8.4827527e-02
  9.7547789e+00
 -6.4225930e-01
  1.4745668e+00
 -7.7661210e-01
  9.1745991e-01
  9.9624836e-01
  3.8003389e-02
 -1.2831509e-01
  3.4061104e-01
 -9.3063915e-01
 -1.5131649e-01
  3.5932665e+00
 -3.1440955e-01
 -7.0759201e-01
 -2.0757452e-01
 -2.0140657e+00
 -5.8612794e-01
  1.6524246e-01
 -2.5095540e-01
 -6.5557182e-01
 -7.4434668e-01
  6.1052662e-01
 -1.5969319e+00
 -3.4635064e-01
  1.1697818e+00
 -1.4333204e+00
 -1.7022876e+00
 -1.3745565e+00
  6.3680157e-02
 -2.1591098e+00
  4.8942512e-01
  1.2915764e+00
 -9.6869195e-01
  9.3940818e-01
 -3.8130233e-01
 -2.4742489e+00
  1.5216534e+00
  4.3450937e-01
 -6.1899996e-01
 -8.5452080e-01
 -6.5305986e-02
 -6.9241440e-01
  5.9325069e-01
 -2.9956562e-02
  3.0259153e-01
  9.8027207e-02
  1.4826345e+00
  2.0100172e+00
  8.1964743e-01
  1.6384797e-01
  3.1744701e-01
  1.7222342e+00
  6.7467228e-02
  3.7395046e+00
  7.1310461e-03
 -7.6104295e-01
 -5.3122785e-02
  7.2022088e-02
  7.4262893e-01
  7.8797615e-01
  1.0237011e+00
  8.5122645e-01
  5.0682825e-01
 -3.8757625e-01
 -3.8100576e-01
 -8.1636310e-01
  3.2510133e+00
 -9.6077263e-02
  2.6455843e-01
  4.0465675e-02
  6.6223067e-01
  1.3527293e+00
  3.6890057e-01
  5.1738828e-01
  3.0615256e+00
  1.7522221e+00
  1.7799585e-01
 -1.3753853e+00
 -1.0538740e-01
  7.0055771e-01
  4.9181291e-01
  1.5723578e+00
 -2.9226348e-01
 -1.2951696e+00
  2.5262073e-01
  1.1350652e+00
 -6.6275336e-02
  1.9566125e-01
  7.0157635e-01
  9.5580512e-01
  1.1913013e+00
  5.0294173e-01
  2.8771368e-01
  1.2213041e+00
  4.3608320e-01
  1.1667042e-01
 -1.4181664e+00
 -1.7749731e-01
 -8.1947607e-01
 -6.2025225e-01
 -8.1032062e-01
  1.8176619e+00
 -1.4021896e+00
  1.3561349e+00
 -3.2257324e-01
 -5.3990251e-01
  7.0465028e-01
  3.1965075e+00
  1.7345008e-01
  2.2921512e-01
  8.6854082e-01
 -2.5350553e-01
 -4.2473263e-01
  2.5646621e-02
 -6.9194943e-02
 -1.9487908e-01
  5.5408746e-01
 -1.5210178e-01
  2.7055418e+00
  9.2234904e-01
 -1.8958728e+00
 -2.8362042e-01
  1.4536866e+00
 -1.7778189e+00
 -1.4570585e+00
  2.2056375e-01
  6.0251004e-01
 -2.5262159e-01
  5.9380889e-04
  1.7170305e+00
  4.5152387e-01
 -9.5057964e-02
 -1.6236854e+00
  4.3401572e-01
 -5.2893823e-01
 -5.5664676e-01
  1.6472552e+00
 -1.2659668e+00
 -3.4967586e-01
 -1.6164427e+00
 -2.8066754e-01
  8.1301254e-01
 -1.6344763e+00
  3.0067015e-01
 -2.8759797e+00
  3.4894148e-01
 -2.3496319e-01
  6.6474128e-01
  3.8535064e-01
  9.6822761e-02
 -2.5847886e+00
 -3.3509719e-01
 -9.2243701e-01
  1.2840265e+00
  1.1701267e+00
  1.9848276e+00
 -1.3218982e+00
  2.1343541e-01
  4.2368658e-02
 -3.0158436e-01
  1.2544500e+00
  9.9889988e-01
  9.4824749e-01
 -1.5370926e+00
 -8.8648178e-02
 -1.6694870e+00
 -1.2346934e+00
 -1.8821234e+00
 -4.6868157e+00
  1.5558052e+00
 -1.5210817e+00
  7.6942152e-01
  9.1296887e-01
 -7.0395462e-02
 -2.7480784e-01
  5.6864864e-01
  1.4380975e-01
 -2.9258354e+00
 -4.3548409e-02
  3.3550438e-01
  4.4157630e-01
 -4.1817302e-01
 -4.2350748e-01
  4.5040134e-01
 -9.0759623e-01
 -4.0320146e-01
  2.2232899e-01
 -8.5969663e-01
 -1.7861895e-01
 -3.5564652e-01
 -5.6715429e-02
 -4.9160057e-01
  5.6520891e-01
 -1.0635707e+00
  6.2896836e-01
 -4.3213490e-01
 -1.3525816e+00
 -1.2884465e+00
 -2.9122266e-01
  8.1660903e-01
  6.3195246e-01
 -2.0119481e-01
 -1.6911842e-01
  2.0893811e-01
  1.0425637e+00
  1.2606107e-01
  7.5461841e-01
 -9.6625227e-01
 -2.4269193e-01
 -1.0959421e+00
  2.7719566e-01
  7.5123822e-03
 -9.2944837e-01
 -1.6408680e-01
  4.1271308e-01
 -7.4247128e-01
 -1.1689734e-01
  1.0351577e+00
 -2.1256712e-01
 -9.9646844e-02
 -9.1076899e-01
  4.3866318e-01
 -1.8338726e-01
 -1.7679886e+00
  5.7603723e-01
  1.5446949e-01
  2.2514910e-01
 -1.2107924e+00
 -1.3831010e+00
  1.1601704e+00
  3.1358856e-01
  2.5831978e+00
  3.0071669e+00
 -3.3679812e+00
  1.7387973e+00
  3.4059209e-01
 -2.4805672e+00
  1.6260140e+00
  3.3235142e-01
  1.7940170e+00
 -4.6085766e-01
 -2.7009809e+00
  1.7551763e+00
 -9.7248822e-01
 -6.2469333e-01
 -7.5522482e-01
  8.8683301e-01
 -2.6353624e+00
  1.3567201e+00
  8.3672397e-02
 -8.3012778e-01
 -5.6406921e-01
 -8.6108342e-02
 -6.1922812e-01
 -7.0658082e-01
 -5.0196946e-01
 -3.7760964e-01
  1.9096439e+00
 -2.7560256e+00
 -2.4683404e+00
  1.8167371e+00
 -2.0736568e-01
 -4.2632538e-01
 -1.7904871e+00
  1.7249732e-01
  6.2035114e-01
 -6.4551824e-01
  1.3554647e+00
 -7.5489390e-01
 -2.2145939e-01
 -3.9123446e-01
 -1.1408210e-01
  2.4438950e-01
 -9.1849142e-01
 -1.0608336e+00
  6.0390979e-01
  3.3725348e-01
  1.3636355e+00
 -1.5183173e-02
  1.2025250e+00
 -3.0851066e-01
 -6.4209104e-01
  1.4438716e+00
 -4.9336287e-01
  9.5703989e-01
 -1.8467332e-01
  2.5122517e-01
 -3.3349660e-01
 -9.9224019e-01
  4.9803692e-01
 -2.3959729e-01
 -3.2841933e-01
  1.1362224e+00
 -2.3295145e+00
  1.0289220e+00
 -2.2381053e+00
 -1.1851218e+00
  4.1913074e-01
  6.4450866e-01
 -3.6545655e-01
  8.2236356e-01
 -3.6140547e+00
  2.9763439e+00
  1.0329164e+00
 -1.8062024e-01
  1.1539949e+00
 -1.9998214e+00
 -2.5204272e+00
  4.8581383e-01
 -4.9056554e-01
 -2.5483015e+00
 -2.6439729e+00
 -8.9510238e-01
  4.5232409e-01
 -3.9557955e-01
  5.7903242e-01
 -7.5621121e-02
  4.3398997e-01
 -8.0035591e-01
  3.9025959e-01
  1.4185361e+00
 -2.1695387e-01
  3.4155554e-01
 -4.2105123e-02
  2.2575326e-01
 -2.5225535e-02
 -9.9490350e-01
  4.6467805e-01
  1.5877237e+00
  7.0829576e-01
 -2.6261303e+00
  3.9852977e-01
 -2.7895436e-01
  1.4292959e+00
 -1.0813510e+00
 -9.2584860e-01
 -1.7705265e-01
  7.3072255e-02
 -4.7980677e-02
 -2.9114497e-01
 -4.6617413e-01
  4.3952641e-01
 -6.4659482e-01
  9.7165900e-01
  4.7155183e-02
 -1.0118308e+00
  5.1365775e-01
  2.4034899e-01
  9.5628358e-02
 -8.2055497e-01
 -9.7364116e-01
  8.3033994e-02
 -5.4425037e-01
 -3.3837160e-01
 -1.0615958e+00
  1.0306211e+00
  3.6564238e-02
  5.9394079e-01
  8.0580890e-01
  4.1713905e-01
  1.4656444e-01
 -3.7939167e-01
  7.0617157e-01
 -3.7187845e-01
 -1.2440732e+00
 -3.5774323e-01
 -5.0180680e-01
  3.6234205e+00
 -3.0790949e-01
 -6.7512918e-01
 -1.4382426e-01
 -5.6836169e-02
 -3.2148442e-01
 -1.6307263e+00
 -5.6273198e-01
 -8.1434506e-01
 -5.1500267e-01
  4.4006154e-01
  1.1053457e+00
 -1.3671911e-01
  8.2790101e-01
 -2.0419855e+00
 -1.1540564e+00
  1.3262680e+00
  1.6980240e-01
 -4.5261180e-01
 -1.2324842e+00
 -2.6242477e-01
  3.0161563e-01
  1.8421479e+00
 -4.3394113e+00
 -4.4175306e-01
 -3.4313574e-01
  1.6947260e+00
 -5.6463022e-02
  3.3054468e-01
 -3.2885137e-01
 -4.3908939e-01
 -1.7072010e-01
  1.5787311e-02
  6.7481466e-02
 -2.8807101e-01
 -7.4990517e-01
  2.4579886e-01
 -1.8177885e-01
 -6.3173294e-01
 -2.9677922e-01
  1.5926828e+00
  1.7842236e+00
  7.0152485e-01
 -1.2934163e+00
  6.5341562e-02
 -5.5932039e-01
 -9.5954314e-02
  8.5495204e-01
 -4.1539207e-01
 -3.0213624e-01
  1.7012147e+00
  4.4787982e-01
  7.9871625e-01
 -3.5396248e-01
  3.3065051e-02
 -8.5087055e-01
  1.2267462e-01
 -2.0855257e-01
  1.3724667e-01
  5.4567176e-01
  2.7417669e-01
  5.4504472e-01
 -1.0394136e+00
 -2.4626629e-01
  2.8317096e+00
  7.9198259e-01
 -9.0239632e-01
 -1.0072762e+00
  1.1403272e+00
 -1.6596367e+00
  1.3735803e+00
  1.4025069e+00
 -2.2216257e-01
 -5.8850390e-01
 -2.9723794e+00
 -1.8602340e-01
 -4.3171978e-01
 -6.7490381e-01
 -1.6947052e+00
 -2.3596263e-01
 -9.3302238e-01
 -2.9112301e+00
 -5.7724357e-01
 -5.3420001e-01
  1.2251987e+00
 -5.8093911e-01
 -1.2221309e-02
 -7.9800576e-01
 -2.7480400e+00
  1.1850833e-01
  2.1012498e-01
  1.3320333e+00
  4.6464019e-02
  2.2500326e-01
 -6.6697516e-02
 -8.3197010e-01
 -8.8225663e-02
 -1.4118980e-01
 -6.3063651e-01
  8.1339967e-01
  5.3126550e-01
  2.1286476e+00
 -8.0572885e-01
 -2.9634156e+00
 -5.8592045e-01
  6.2412146e-02
 -2.3474626e-01
 -4.1144317e-01
  8.7587965e-01
 -2.5104409e-01
  1.3057785e-01
 -4.2408133e-01
  8.0605626e-01
 -3.1803560e-02
  1.3552026e+00
 -1.0058596e+00
  9.2655981e-01
  4.6970084e-01
 -2.7972682e+00
 -5.5663472e-01
 -4.4999427e-01
 -5.7726502e-01
 -1.2249296e+00
  1.1809703e+00
 -2.6324156e-01
  9.5813131e-01
 -2.2599037e-01
 -2.0197792e+00
  3.4359682e-01
 -4.9678218e-01
 -1.6203851e-01
  1.2163024e-01
 -5.4610825e-01
  1.8649882e-01
  1.0643507e+00
  2.2441581e-01
 -3.6668630e+00
 -1.8791860e+00
  4.4026351e-01
 -1.5500693e+00
  1.0072821e+00
  3.4418532e-01
 -1.0477558e-01
 -2.2485654e+00
 -2.1320131e+00
  6.1927617e-01
 -9.1589797e-01
 -3.8767579e-01
 -8.4615338e-01
 -1.3059983e+00
 -8.6880438e-02
  9.2922878e-01
 -1.0892472e+00
  3.8071433e-01
 -5.1999116e-01
 -5.0672829e-01
  1.6569633e+00
  2.8897560e+00
  2.2806923e-01
 -2.1334250e+00
  1.7896594e+00
  2.7810529e-01
  1.4841928e+00
 -2.5753388e-01
 -4.6656761e-01
  4.8040158e-01
  4.1669863e-01
  3.4986767e-01
 -4.8906451e-01
 -6.9506747e-01
 -8.8037878e-01
  2.1413062e+00
  8.6726433e-01
  2.1733150e-01
 -2.6546915e+00
 -3.1770935e+00
  2.0146275e+00
  2.8488559e-01
 -5.7056947e+00
 -2.2239447e-01
  2.7413943e+00
  1.1652083e+00
 -9.3234289e-01
 -4.2859592e+00
  1.6181028e+00
 -1.3905467e+00
  1.4569291e+00
  5.6129511e-02
  1.1305073e+00
  4.6133455e-02
  9.2278290e-01
 -3.5325855e-01
 -6.5065759e-01
  1.1117458e-01
  1.9916555e+00
 -3.6462447e-01
 -4.5238367e-01
  3.7895906e-01
  2.6195099e+00
 -2.2518519e-01
  2.3068482e-01
  1.1241740e-01
  3.3898708e-01
  3.2182541e-01
  2.5405309e+00
 -1.5225545e-01
  3.0130796e+00
  2.9662800e+00
 -3.0846684e+00
 -1.4713590e+00
  9.6783298e-01
 -6.0147889e-02
 -5.5152620e-04
  9.8878533e-01
 -1.7137353e+00
 -1.6825477e+00
 -1.4565191e+00
  1.3132029e+00
 -1.5697451e+00
 -2.3664063e-01
  1.0940492e+00
 -3.9208952e-01
 -9.7824818e-01
 -2.7270919e-01
  9.2137170e-01
  9.3942267e-01
 -8.9003068e-01
  1.7170383e-01
 -2.4525020e+00
 -1.9936259e+00
  1.2360564e+00
 -2.4971655e-02
 -3.9727846e-01
 -3.0516234e-01
 -3.0312094e-01
  2.4549215e-01
 -3.6441803e-01
 -1.6534659e-01
 -1.8019419e+00
 -2.3099804e+00
  1.3693790e+00
  7.3801804e-01
 -1.9404165e+00
  1.0535715e+00
 -7.1175534e-01
  1.0660973e+00
  1.9807230e+00
 -6.9706982e-01
  3.5327867e-01
 -1.2509632e+00
  1.8608363e+00
  3.8190570e-02
  1.4621838e+00
 -1.3437897e-01
 -8.8497895e-01
  1.6925946e+00
  1.7256407e+00
 -3.1773826e-01
 -1.1699877e+00
  1.9254938e+00
  5.4460961e-01
  6.3944519e-01
  1.1006155e-01
  1.1083747e+00
 -7.8447032e-01
 -8.9731783e-01
 -2.5952878e+00
 -1.8054686e-01
  7.4549526e-01
 -1.1190464e+00
 -8.7971425e-01
  5.4886925e-01
  1.9886172e-01
  1.0780779e+00
 -1.1337602e+00
  9.8484564e-01
 -3.7353592e+00
  1.2807424e+00
  1.4477668e+00
 -2.6711538e-01
 -6.4726031e-01
 -2.6645005e-01
  2.9887442e-02
  1.6917640e+00
 -2.1537893e+00
 -8.4497720e-01
 -5.6420326e-01
  9.0100217e-01
  1.1454217e+00
 -1.0560901e-01
 -2.8946984e+00
  2.2575698e+00
 -9.6513808e-02
  9.6529379e-02
 -6.0095304e-01
  2.7143821e-01
 -1.9320636e+00
 -3.5701349e-01
  8.3094710e-01
 -9.4725013e-01
  7.1322483e-01
  3.3200717e+00
  1.3094068e+00
 -7.7772719e-01
  1.1972587e-01
 -7.3890853e-01
 -5.0420851e-01
 -6.9292229e-01
 -7.1217531e-01
 -8.0074739e-01
 -7.2534287e-01
  3.8678470e+00
  1.1162273e+00
  4.2072344e-01
 -6.1244369e-01
 -3.6657131e+00
 -1.1135048e+00
 -7.9073280e-01
  2.2303562e+00
 -4.1918931e+00
  2.6469883e-01
  1.0712587e+00
 -7.6195061e-01
  4.9203224e+00
 -9.3051273e-01
 -6.3080305e-01
  2.2406619e+00
 -1.1385621e-01
  1.0550489e-01
  1.5317177e+00
  9.6199673e-01
  2.8366524e-01
 -1.3650552e+00
  1.5683647e+00
 -1.0301908e+00
 -7.3492831e-01
 -3.7368444e-01
 -7.5926304e-02
  9.1941619e-01
 -1.2251517e-01
 -2.0423537e-01
  1.7220683e-01
 -5.6149203e-01
 -4.4463679e-01
 -2.5350976e+00
 -1.9179999e+00
 -1.3133887e+00
 -2.9738796e+00
  3.5717094e+00
  6.4845067e-01
 -5.8885765e-01
 -1.5315330e+00
 -4.0447822e-01
  3.6655301e-01
  5.1377046e-01
  1.3814452e+00
  6.2042207e-01
 -1.2228141e-01
  5.4833627e-01
 -4.6782678e-01
  1.6444881e+00
  1.1514204e+00
 -1.7193213e+00
 -1.7001367e-01
 -1.0876051e+00
  6.8882734e-02
  1.4615744e+00
  2.0861070e+00
  7.3622602e-01
  1.6716983e+00
  1.9444934e-01
  2.1480440e-01
  5.5750501e-01
  6.0836989e-01
  4.2973314e-03
 -6.8370366e-01
  9.0436667e-02
 -8.7973952e-02
 -3.1576085e-01
 -9.0006208e-01
 -2.1710894e+00
  3.7459230e-01
 -1.2039827e+00
 -5.7207924e-01
  1.4180349e+00
 -8.6930734e-01
  3.1108576e-01
  7.0134759e-01
  6.0421979e-01
  2.8335923e-01
  5.0584590e-01
  3.0604551e+00
 -1.2970258e+00
 -1.5145247e+00
  3.3859793e-02
 -1.6950170e+00
  1.7311274e+00
 -2.0200477e+00
 -1.2609124e-02
  1.2684265e+00
 -7.4741825e-02
  9.8570859e-01
 -2.8113715e-02
 -3.3730373e+00
 -3.3294787e+00
 -4.3467855e-01
 -1.6472305e-01
 -1.2367824e+00
  1.5982887e-01
  3.8089281e-01
 -5.9752181e-02
  1.3947932e-02
  3.7361422e-01
 -4.7377029e-01
 -1.3729246e+00
  1.1038616e-01
  2.6027746e+00
  4.1677183e-01
  4.5402061e-02
  1.3402319e+00
  2.4534349e+00
 -2.5050488e+00
  1.2896824e+00
  6.1724597e-01
  3.1693594e+00
 -4.7592359e+00
  1.0529764e+00
  1.0523108e+00
 -3.2074466e-01
  8.8661295e-01
  2.8381380e-01
  3.9700761e-01
 -3.6226612e-01
  2.4280159e-01
  1.0755371e+00
  1.4044515e+00
 -1.1820017e+00
 -1.3113621e+00
  1.0767347e+00
 -2.3358140e+00
 -1.1319405e+00
  7.5251333e-02
 -3.2009962e+00
  6.7994910e-01
  7.2096929e-02
  1.2842150e+00
  4.7482631e-01
  3.8416350e-01
  2.1168344e-02
 -4.1144878e-01
  5.7016349e-01
 -1.7483526e-01
 -8.7746136e-02
 -2.1475618e+00
 -1.6996089e+00
  1.1978886e+00
 -1.5530291e-01
 -2.5957966e-01
  7.5867820e-01
 -5.0077695e-02
 -1.9280244e+00
  8.0370747e-02
  4.5338187e-01
 -7.5957119e-01
  5.7202828e-01
 -1.8954773e+00
  3.7848687e-01
  1.7829705e+00
 -2.4944108e+00
 -1.9006218e+00
 -4.3483093e-02
  6.9416350e-01
 -1.4055988e-01
 -7.5010556e-01
 -1.5274492e-01
  1.2260712e+00
  2.3818497e-01
 -6.1842710e-02
  4.5284665e-01
 -6.7280567e-01
  3.4821635e-01
  2.3667675e-01
  3.5389414e-01
  5.5334741e-01
  1.3204125e-01
 -1.4485170e+00
 -6.7335010e-01
 -2.0949991e+00
  4.8375231e-01
  5.1132357e-01
 -7.4873453e-01
 -3.2319415e-01
 -3.8684523e-01
  9.8193008e-01
 -3.9404893e-01
  2.5419009e-01
  5.2557051e-01
 -1.5910223e-01
 -2.0569700e-01
  8.8368785e-01
  1.2727567e+00
  7.0216116e-03
  2.1557736e-01
 -7.4399218e-02
 -6.0588229e-01
 -3.4597356e+00
 -7.9923403e-01
  9.5273250e-01
  1.2425898e+00
  2.5248051e+00
 -1.1471276e+00
 -4.4673854e-01
 -5.8789062e-01
 -1.2490031e+00
  3.2891211e-01
 -1.2360864e-01
  1.2723610e-01
  5.5182733e-02
 -1.5765969e-02
  4.4281802e-01
  1.1803817e+00
 -1.2897925e+00
 -3.6899974e+00
 -5.4418808e-01
 -1.8986067e-01
  4.0466958e-01
 -6.6499847e-01
  2.8559905e-01
  4.9769554e+00
  3.5128295e+00
  3.6969742e-01
 -2.7673271e+00
  1.4489754e+00
  1.5110276e+00
 -1.4252077e+00
  5.3116870e-01
  1.6595520e+00
 -6.3242190e-02
  6.3615374e-02
 -1.3621065e-01
 -1.0597467e+00
  7.6495600e-01
  1.0067831e+00
  1.4247767e+00
 -1.7139231e+00
  1.8854365e+00
  1.6870424e+00
 -3.7615955e-01
  1.1507671e+00
 -4.0298897e-01
 -3.0813587e-01
  1.5524435e-01
  9.0678215e-02
  1.0634494e+00
  1.1309676e+00
 -2.3297925e+00
 -5.6721199e-01
 -2.8482378e-01
 -1.3887162e+00
  8.9280200e-01
 -2.1996653e+00
 -6.5656090e-01
  7.8741866e-01
  1.7110639e+00
 -3.7839639e-01
 -1.0712454e+00
 -2.3304925e+00
  7.3453152e-01
  3.7712076e+00
 -3.3098623e-02
 -8.6743069e-01
  2.4297017e-01
 -4.7606334e-01
  1.0070909e-01
 -1.3091962e+00
 -7.3775327e-01
 -5.0507027e-01
  4.1335077e+00
  1.8192791e+00
 -5.5312628e-01
 -1.6060691e+00
 -9.7171897e-01
  2.6967189e-01
 -2.4760728e+00
  3.8943374e-01
 -3.4167168e-01
 -1.0000296e+00
  3.0695415e-01
  3.4099156e-01
 -2.2298905e-01
 -4.2945899e-02
 -2.7304163e+00
  3.1305945e-01
  5.9266591e-01
  1.5266339e+00
  3.6379871e-01
  7.8037727e-01
  1.4137493e+00
 -1.1456242e+00
  1.1437891e+00
 -3.9846829e-01
  2.0129640e+00
  2.2534393e-01
 -1.7297179e+00
  3.2811415e-01
 -4.0147600e-01
  2.0282416e+00
  1.1328319e+00
 -8.6309868e-01
  6.6707492e-01
 -5.0284272e-01
  1.4628175e+00
 -1.5173360e+00
 -1.0711511e+00
  3.4515107e-01
 -2.0381041e+00
 -1.6128031e+00
 -1.6615918e-01
  1.9477117e+00
  2.4114263e-01
  1.3953482e-02
 -3.8738951e-01
 -8.0781050e-02
  2.6370728e-01
  1.2344408e+00
  6.1972719e-01
 -1.3082132e+00
  2.5869405e-01
 -2.6458106e+00
 -1.4038002e+00
  8.2092476e-01
  8.1190276e-01
  2.1121922e-01
 -1.2637593e+00
 -2.4501858e+00
 -2.5072793e-02
  1.3788735e+00
 -8.2484651e-01
 -1.3035420e-01
 -3.9499074e-01
 -3.5466794e-02
 -3.6266713e+00
 -1.2242737e-01
  2.4092631e+00
 -2.3112741e+00
  1.7110369e+00
  7.7367735e-01
 -1.6817538e+00
 -6.1585808e-01
 -1.0718559e+00
 -5.1629770e-01
 -5.9476048e-01
 -2.4464886e+00
  1.7615836e+00
 -1.9422741e-01
  3.2794562e-01
 -5.5410106e-02
  1.3821784e+00
  7.4920750e-01
  3.2842036e-02
 -2.9889746e-03
 -1.9934343e-01
  5.4461539e-01
  4.0123723e-02
 -9.8631388e-01
 -6.7575657e-01
  2.5366920e-01
  4.9254742e-02
  8.3560556e-01
  2.4068499e+00
  3.0806441e+00
 -7.2696567e-01
  1.8706404e-01
  3.8730186e-01
  5.6693029e-02
 -1.3566681e+00
 -1.7860574e-03
 -4.5284769e-01
 -1.7996135e+00
 -3.4837896e-01
  3.5036373e-01
  1.2407445e-02
  7.6571870e-01
  1.0595531e+00
 -2.1822045e+00
  2.7472126e-01
  1.0949743e+00
 -4.4055679e-01
 -4.4048399e-02
  1.4882898e-02
  2.9549745e-01
 -1.5014844e-01
 -9.6046108e-01
  2.2767825e-01
  1.0535644e+00
 -1.8695750e+00
 -1.5691619e+00
 -3.2653601e+00
 -3.7519510e+00
  1.8535395e+00
 -1.8777758e+00
  4.3707874e-02
  9.8391823e-02
  1.9983982e+00
  1.7012043e+00
 -7.0183074e-01
  1.1941259e+00
 -2.0322008e+00
  2.8400612e-01
 -7.6101989e-01
  1.2408519e+00
 -1.5788612e+00
  5.2256632e-01
  2.5705341e-01
  1.1707091e+00
 -3.0761497e+00
 -1.2598315e-01
 -2.2769790e+00
 -6.7873591e-01
 -1.7400327e+00
 -1.6937591e+00
  1.0777129e+00
 -6.2707800e-01
  3.7973765e-01
  6.7391726e-03
  6.4501005e-01
  5.0042677e-01
 -6.9993496e-01
  5.0108689e-01
 -4.7815094e+00
 -2.3438134e+00
 -2.0969839e+00
 -3.9814267e-01
  2.9702876e+00
 -1.3268454e+00
 -2.1341650e+00
  7.1804905e+00
 -5.5862635e-01
  1.3559940e-01
  1.9021876e+00
  1.0699102e+00
 -1.0348802e-01
  2.4318142e+00
  1.2871367e+00
  2.6969318e+00
 -1.1346534e+00
  2.5737889e+00
  1.1172901e+00
  1.6804850e+00
  1.6483985e+00
 -1.5665940e+00
  6.9586641e-01
  3.1523054e+00
 -1.8343015e-01
  8.4565502e-01
 -1.2362199e+00
 -1.2061441e+00
 -2.4648882e-01
  6.3444358e-01
 -2.1152990e-01
  1.8530384e-01
 -1.1527975e-02
 -2.7081770e-01
  1.2241418e+00
 -1.5479444e+00
  1.2557561e+00
 -2.1748657e+00
 -1.2728636e+00
  1.8067791e+00
  1.3054047e+00
  7.8934610e-01
  6.4011234e-01
 -7.0421863e-01
  1.0677621e+00
 -6.2576187e-01
  8.7614633e-02
 -1.6888903e-01
 -3.7735808e-01
  5.0271648e-01
  6.0765845e-01
 -4.0730190e-01
  5.0293469e-01
 -3.2127964e-01
  1.1298601e-01
  2.0756507e+00
 -5.8533621e-01
  4.9466570e-03
  1.0248520e+00
 -5.4917043e-01
  7.0712262e-01
  1.3367903e-01
 -7.3965508e-01
  2.9651317e-01
 -1.5384689e-01
 -4.8860094e-01
 -3.7488759e-01
  1.8684991e-01
  1.7366925e-01
 -4.9203932e-01
  3.1040232e+00
  8.6637580e-01
 -1.0837855e+00
  1.6966549e+00
 -6.5118778e-01
 -1.2667754e-01
 -1.0724323e+00
  2.7381935e+00
 -8.5095328e-01
 -4.0834099e-01
 -4.5432007e-01
  2.6079957e+00
  1.7742948e-01
  5.1646727e-01
 -9.5485145e-01
 -4.6841216e-01
  7.5688785e-01
  1.8646301e+00
 -1.0955040e+00
 -3.9619487e-02
  7.5069058e-01
  8.6228192e-01
  4.6996765e-02
 -8.1763816e-01
 -1.2947813e+00
 -2.5429493e-01
 -1.6342517e+00
 -1.8681997e+00
 -5.2875507e-01
  9.2132762e-03
  2.1213315e+00
  1.6047413e+00
 -1.2781593e+00
  1.0468178e+00
  1.0964545e+00
 -1.6971389e+00
  1.7801480e+00
 -2.1732328e+00
 -1.7625037e+00
 -7.8008914e-01
  1.2446858e+00
  1.1998713e-01
  7.1280444e-01
 -1.0706091e+00
  3.6837107e-01
  3.5016007e+00
 -3.5352762e+00
 -1.0564326e+00
  6.2540627e-01
 -4.7971827e-01
 -5.0709581e-01
  5.1283711e-01
 -1.4702998e+00
 -1.9297776e-01
 -4.1149101e-01
  1.3844349e+00
 -2.0646669e-01
 -6.4290154e-01
  4.2099106e-01
  2.0894949e-01
 -6.3696533e-01
  1.2358073e+00
  9.4072855e-01
  1.2859675e-01
  2.7075025e-01
 -1.3778451e-02
  2.3185959e-01
  6.6593993e-01
  2.4013244e-01
 -1.6550100e-01
  3.6241877e+00
  3.9844093e-01
 -2.5187907e+00
 -8.7321259e-02
  1.1710972e+00
 -2.1005769e+00
  3.4418052e-01
 -1.1165551e+00
 -4.0147677e-01
  1.6545151e+00
  2.9051118e+00
 -7.2050500e-01
 -3.2844093e-01
  1.4404406e-01
  8.0303006e-02
 -1.4164655e+00
 -1.5269008e+00
 -6.4302737e-01
 -1.3794080e+00
  1.2270452e+00
  8.0010486e-01
 -1.7459320e+00
 -1.2190166e+00
 -6.2281132e-01
  1.9889078e+00
 -1.4491719e-01
  1.2920164e+00
 -4.6642101e-01
  1.8664325e+00
  5.9658062e-01
 -2.7258333e-02
 -6.9948447e-01
 -3.7598583e-01
  9.0648778e-02
 -4.7259244e-01
 -1.4849622e+00
 -2.8766603e+00
  5.2990872e-01
 -3.1673267e+00
  8.8950598e-01
  1.8309958e+00
  2.6145401e+00
 -1.5708785e+00
 -8.3150280e-01
  9.4493926e-02
  2.3924201e+00
 -2.0632293e+00
 -2.9673660e+00
 -7.3982799e-01
 -6.3314146e-01
  4.1099129e+00
 -1.9365417e+00
  6.5623455e-02
  1.1964155e+00
 -4.2099676e-01
  9.3264747e-01
 -1.4610325e+00
 -1.1155715e+00
  2.2574613e+00
  1.0245713e-01
 -3.9423742e+00
  3.6724370e+00
  3.4113130e-01
  2.4440720e+00
  2.1136701e+00
 -2.3398224e-01
 -1.6898793e-01
  1.0457389e+00
  2.1683259e-01
 -1.5694737e+00
  4.2315292e+00
  2.3479702e-01
 -4.5914764e+00
 -4.3308778e+00
  1.7276297e+00
 -1.3218338e+00
 -3.0826002e-01
  4.2715910e-01
 -3.1426111e-01
  1.4466660e-01
 -5.1052505e-01
 -4.3107831e-01
  7.3220992e-01
  6.8236053e-01
 -3.3276924e-01
  8.7416327e-01
  7.8196996e-01
 -6.4921117e-01
 -9.1568613e-01
  1.2878453e+00
 -7.0094407e-01
 -2.6940722e+00
  1.0920796e+00
  8.4253210e-01
  1.9310355e-01
  3.0144479e+00
 -7.4092805e-01
 -5.4449625e-02
 -3.8856956e-01
 -4.2123219e-01
 -1.4391989e-01
 -6.8573612e-01
 -2.0344010e-01
  2.1289417e-01
 -4.3898660e-01
 -2.3852868e+00
 -2.4198350e-01
  6.1472619e-01
 -4.5056176e-01
  3.8919377e-01
  6.5747350e-01
  1.8048161e-01
  1.3069851e+00
 -9.5570639e-02
 -1.1626817e+00
  2.3265526e-01
 -2.2633693e+00
  7.4395978e-01
  2.3681895e-01
  3.7509598e-02
  4.0030354e-01
 -9.1891843e-01
  1.8496426e-02
  9.7564453e-01
 -6.6075104e-01
  1.6969340e+00
  1.2784326e+00
  1.2751514e+00
 -6.7257702e-01
 -5.8013046e-01
 -3.1651049e+00
  7.5782239e-01
 -6.4706969e-01
  9.2311859e-01
 -3.7464282e-01
  5.7029462e-01
  7.9250157e-02
  6.4472157e-01
 -4.7178411e-01
 -3.3396617e-01
 -3.2748044e+00
  7.5024527e-01
 -6.9196767e-01
  4.5931420e-01
  1.8807145e+00
  5.4892361e-01
  2.0852439e+00
 -2.4413166e+00
 -1.7248560e-01
  6.8267727e-01
  2.0728675e-01
  1.0939858e+00
 -7.3403960e-01
 -2.6133838e-01
  1.4299053e+00
  9.8302953e-02
  4.4745779e+00
 -1.5843954e+00
  2.4285357e+00
 -2.1442010e+00
  1.8442427e+00
  2.0941520e+00
  4.2500344e-01
  8.2223660e-01
  2.1191084e-01
  8.9627337e-01
  1.6633389e+00
  8.2495081e-01
 -4.5299396e-01
 -1.3185749e+00
 -3.7230113e-01
  1.0616255e+00
  9.2893578e-02
 -1.2188108e-01
  1.7168072e-01
  9.4705236e-01
  1.0942736e+00
  7.2036630e-01
 -1.5828924e-01
 -1.7211432e+00
  3.3883688e+00
 -5.8077097e-01
  4.7615986e-02
  3.0716774e-01
  6.7851943e-01
 -1.5240017e+00
 -2.3868494e+00
 -3.7884992e-01
  3.1579942e-01
  1.4145769e+00
 -6.3855612e-01
  5.6813866e-01
  7.0930409e-01
 -1.7450051e-01
 -1.4181699e+00
 -1.9903806e+00
  2.2046289e+00
 -1.1442603e+00
  6.8979734e-01
 -9.9697632e-01
  5.8420068e-01
  1.2369238e+00
  3.8102138e-01
  7.3866105e-01
  4.7589630e-01
 -1.6094443e-01
  1.9397023e-01
  3.4506774e-01
 -5.4735029e-01
 -2.6093283e-01
  6.3520699e+00
  1.6931532e-01
 -1.4592998e+00
 -4.8522353e-01
 -1.8080636e+00
  4.5209780e+00
  7.1665323e-01
 -1.1965151e+00
 -1.1591741e-01
 -3.3385539e+00
  6.3801324e-01
  1.2960315e+00
 -3.2646987e+00
 -9.1609299e-01
 -2.2036419e+00
  1.4769741e+00
 -1.7629031e+00
 -1.3744407e+00
 -1.4800395e+00
 -1.6111172e+00
 -1.2690361e-01
 -1.7919035e+00
  2.2297032e-02
 -2.8125246e+00
 -1.6932659e+00
 -2.3369539e+00
 -1.3762705e+00
  1.3584255e+00
 -8.3297265e-01
 -2.4409214e-01
  7.3325634e-01
 -2.1161115e-01
 -1.1335249e-01
  2.8832790e-01
  1.1089458e+00
 -1.7585918e+00
 -2.6465440e+00
 -1.6397198e+00
 -2.6786397e+00
  2.0465300e+00
  2.1172597e+00
 -6.4212048e-01
  1.3484915e+00
 -5.1891279e-01
 -5.1230091e-01
  1.2575585e+00
 -9.2333925e-01
  3.9848232e+00
 -1.6226502e-01
  9.8537602e-02
  1.2880375e+00
  5.2998459e-01
  1.5313557e+00
 -7.0423746e-01
  7.5428069e-01
  7.0764601e-01
  8.6430281e-02
  3.7629157e-01
  1.5159669e+00
 -3.7302303e-01
  9.6924925e-01
  8.7479249e-02
  3.8247237e-01
  2.6103929e-01
  7.6595098e-01
 -1.9614984e-01
  5.7593215e-02
 -3.7318724e-01
  9.9288009e-02
 -3.7534750e-01
 -1.8616961e-01
  6.9904006e-01
  1.5331882e+00
  9.7006756e-01
 -1.6102812e+00
 -1.3232535e-01
  1.0108949e+00
  2.3017943e+00
 -2.7559790e-01
  3.5385835e-01
 -7.5449002e-01
  3.1420343e+00
  1.5841322e+00
  2.7125588e-01
  3.5119760e+00
 -1.3653272e+00
 -5.0045574e-01
 -1.9584913e+00
  4.4170046e-01
  7.4288440e-01
 -2.3742177e+00
  2.8030715e+00
  1.0231532e+00
  1.2333808e+00
 -1.3723611e+00
  2.2114966e+00
  5.2675194e-01
 -1.1955519e+00
  1.0946455e-01
 -9.0797734e-01
 -2.6650929e-01
 -2.7929917e-01
 -3.2125431e-01
 -8.3009362e-02
  5.8775824e-02
  1.7180640e+00
  1.3451748e+00
  6.0904324e-02
 -2.0481756e+00
  2.2987497e+00
 -1.6919688e+00
 -3.3989687e+00
  5.8690464e-01
 -3.4364326e+00
 -2.0858581e+00
  3.1714621e+00
  4.0177908e+00
  1.1484451e+00
  9.8507541e-01
 -1.2520982e+00
  3.0775306e+00
  1.3675998e-01
  8.7168284e-02
 -5.1400550e-02
  2.2048612e+00
  2.1030679e+00
 -6.0537672e-01
  1.0370743e+00
 -5.8352464e-01
  9.8513687e-01
  1.7686665e-01
 -3.4601569e+00
 -4.2734352e-01
 -5.3105045e-02
 -1.0844507e-01
 -1.4015810e+00
 -3.1677151e-01
 -1.3708062e-01
 -3.2407767e-01
  8.7304604e-01
  4.6343738e-01
  1.5887377e+00
 -3.7469313e-01
  3.7489541e+00
  2.5198252e+00
  1.0310426e+00
  6.1536163e-01
  1.8754552e-01
  1.0828531e+00
  1.6494550e-01
 -4.0688989e-01
  1.0494170e+00
 -1.5295724e+00
 -8.4552109e-01
 -1.7154788e+00
 -1.5847546e+00
  1.2048331e+00
 -6.4247042e-01
  1.4942300e+00
 -2.5391924e-01
 -1.6272543e-01
  6.1540461e-01
  2.7061811e-01
  7.0681262e-01
 -1.7394267e-01
  2.1590130e+00
  8.5102208e-02
  2.1789744e+00
 -1.7349927e+00
 -2.2052972e-02
 -1.3350686e+00
  2.9430846e-02
  7.8570539e-01
 -1.2909554e-01
  6.2635355e-02
 -4.1092510e+00
 -1.1480625e-01
  8.1412393e-01
 -8.8571304e-01
  7.2048801e-01
 -1.6862816e+00
 -9.8453522e-01
  9.0012497e-01
  1.9668471e+00
  9.5163023e-01
 -8.4753096e-01
  2.7414937e+00
  9.8712593e-01
  3.7365499e-01
 -3.8691202e-01
  2.1661815e-01
  1.0516186e+00
  1.5792469e+00
  6.6693568e-01
  1.7511071e-01
 -2.4565938e+00
  3.1005964e+00
  1.8413608e+00
  2.8515998e-01
 -4.8792413e-01
 -1.6863994e-01
 -2.5007248e+00
  2.0745831e+00
 -1.8086225e+00
  1.4009931e+00
  4.8301622e-01
  8.8330477e-01
 -1.2973655e+00
  2.5011270e+00
 -1.7729495e+00
 -5.9189334e+00
  7.4513990e-01
 -4.8296282e-01
  2.4352668e-01
 -5.5886745e+00
  2.4733362e+00
 -5.3320247e-01
 -2.1075468e+00
  9.3407202e-01
 -7.0090175e-01
 -2.6466990e-01
  1.8440320e+00
 -3.6791932e-02
 -5.4728186e-01
  4.2114258e-01
  6.3751692e-01
  8.5815710e-01
  4.2649308e-01
 -1.6461760e-01
  6.3522893e-01
  2.1997432e-01
  8.0954695e-01
 -9.5016623e-01
  1.0019741e+00
  2.5778182e+00
 -3.4058805e+00
 -1.0375233e+00
  4.4866192e-01
 -7.3681962e-01
 -3.5165116e-01
  1.1042212e-01
  8.3805102e-01
  1.6197342e+00
 -3.8195020e-01
 -2.0883523e-01
  6.5319438e+00
  8.0325955e-01
  4.3569148e-01
  1.0706881e+00
  1.0056602e+00
  2.3161843e+00
  1.9194285e+00
 -3.4880688e+00
 -4.7164696e-01
 -5.7866174e-01
  2.0922801e+00
  1.8274986e+00
  6.6118592e-01
 -3.8034734e-01
 -1.4800106e+00
  1.7658501e+00
  5.5917662e-01
 -1.5120779e+00
 -7.1940577e-01
  2.5389841e+00
  1.6468873e+00
 -2.2902513e+00
  7.4831897e-01
  1.1725467e-01
  5.5620366e-01
 -5.2124887e+00
 -1.3736005e-01
  1.9701606e+00
 -1.3882219e+00
 -1.1889063e+00
 -1.2661667e-01
  4.2862380e-01
 -8.2179934e-01
 -2.5632000e-01
  5.5216628e-01
 -1.8333914e+00
 -3.2292132e+00
  1.8274269e+00
  2.7873614e-01
 -1.0174899e+00
 -1.3787891e+00
 -2.5258347e-02
 -5.3753619e+00
  6.4279962e-01
  8.6605780e-02
 -1.0221887e+00
  4.1613946e+00
 -3.7701792e-01
  4.6088520e-01
 -6.6955261e-02
  4.2791510e+00
 -2.6658475e+00
  8.3414221e-01
  1.1266127e-01
 -2.9622593e+00
 -1.4463359e+00
  1.0539479e-01
  1.3551990e+00
  3.8998926e-01
  9.1034722e-01
  6.6897672e-01
  1.2026720e+00
  9.0707266e-01
  1.0017334e+00
 -1.9883746e-01
  1.9891791e-01
 -5.8558989e-01
  4.1416487e-01
  6.1599308e-01
  6.6367798e-02
 -2.0770929e+00
 -6.5410137e-01
  1.8512253e+00
 -2.1063235e-01
 -1.5387312e+00
  1.1529059e+00
  8.8359112e-01
 -4.7772001e-03
  9.6568400e-01
  2.1669588e+00
 -2.1897655e+00
 -6.2413168e-01
  6.8284243e-01
  1.6013023e+00
 -8.8682050e-01
 -3.4958813e-01
  3.8792530e-01
 -2.5739737e+00
  1.0984275e+00
 -3.2215917e-01
 -1.1339493e+00
 -1.6084045e+00
  3.6905207e-02
 -1.2536480e+00
  7.1623093e-01
  4.4711208e-01
  1.4217066e+00
 -5.3500670e-01
  4.2248614e-02
 -1.0865290e-01
  5.1330459e-01
  7.4204594e-01
 -4.2275393e-01
  5.9974575e-01
 -1.1493316e-01
 -2.5209776e-01
 -3.7225435e+00
  6.9473511e-01
  4.3828753e-01
  2.0496573e+00
 -4.8743087e-01
  1.3053007e+00
 -1.1942313e+00
 -1.3572211e+00
  2.1409030e+00
  5.9163141e-01
 -1.4948871e+00
 -2.3781462e+00
  5.3789085e-01
 -7.2772092e-01
 -1.1089569e+00
  4.9042025e-01
 -5.1868331e-01
  1.7794134e-01
  8.1564867e-01
  9.3179882e-01
  2.2675896e+00
 -3.6567571e-06
  1.4002146e+00
 -1.9721547e-02
  1.0041903e+00
 -1.5008267e+00
  3.7859210e-01
  1.3880780e+00
 -2.1013457e-01
  4.2808521e-01
  4.8690984e-01
 -1.0525899e-01
 -1.9322911e-01
 -3.2178840e-01
 -2.9839411e-01
 -4.8595548e-01
  1.1306459e+00
  2.3929775e+00
 -4.2596269e+00
 -1.4140239e-01
  3.0098383e+00
  2.2216752e+00
  4.0238139e-01
  4.3238291e-01
 -3.7201750e+00
  3.2234015e+00
  1.0038655e+00
 -1.0320456e-01
  1.1511083e+00
  6.3663471e-01
 -3.3441224e+00
  3.1218088e-01
 -7.3306930e-01
 -6.1333030e-01
 -1.2893252e+00
 -8.3585328e-01
 -2.2266579e+00
 -3.5039133e-01
  5.3747542e-02
 -1.4765946e+00
 -7.4712658e-01
  1.5966102e+00
  8.6309828e-02
 -4.3115592e-01
  8.5950848e-03
  2.4984561e-01
 -4.0994175e-02
 -5.9383339e-01
  1.5376501e-01
 -4.6515794e+00
 -2.8078785e+00
 -2.2297134e+00
 -3.3622706e+00
  7.0458329e-01
 -4.0028620e+00
 -3.8426816e+00
 -1.0375692e+00
 -5.0818872e-02
  6.2375274e-02
 -9.6260780e-01
  2.5137393e+00
  3.3056810e+00
 -4.9238014e-01
  3.7309211e-01
 -8.6298418e-01
  3.6015952e+00
 -3.9626640e-01
  1.7689614e+00
  2.6718983e-01
  1.1893071e-01
  1.7080367e+00
 -5.0366074e-01
  2.9321218e-01
  1.6417982e-02
  1.4660604e+00
 -3.5263157e+00
 -1.9991535e-01
 -1.5134647e-01
 -1.6861663e+00
 -2.3396199e+00
  2.2384109e-01
  4.1194129e-01
 -2.0586726e-01
  1.9991940e-01
 -1.0195445e+00
 -6.3665197e-03
  1.0637566e+00
  1.5653335e+00
  2.7499020e+00
  7.2728419e-01
  1.5768303e-01
 -1.5188801e+00
  4.0975085e-01
 -5.4284811e-01
 -4.5399138e-01
  4.3251195e+00
 -9.6876848e-01
 -4.0043387e+00
  2.8302258e-01
  1.1198488e+00
  1.9412370e+00
  4.7989380e-01
  8.8761491e-01
  1.1522402e+00
  6.2258315e-01
  6.0414237e-01
 -2.1113208e-01
 -7.2134513e-01
  2.1871033e+00
 -7.0863616e-01
 -1.0538316e+00
 -5.0234157e-01
  2.0771084e+00
  1.1839991e+00
  4.8668376e-01
 -4.4557590e-02
  3.6967373e-01
 -5.2642953e-01
  2.0643619e-01
 -2.5126609e-01
 -8.3334321e-01
  1.6939414e+00
  5.1132149e-01
 -5.6062031e-01
 -9.1492140e-01
  1.0043138e-01
 -1.3384883e+00
  4.7036105e-01
  3.9475314e-02
 -7.4319309e-01
  2.2394927e+00
 -1.9054793e-02
 -6.3245296e-01
  1.3640027e-02
 -3.0117843e+00
  1.8580616e+00
 -3.0088025e-01
  1.3591766e+00
  2.1693484e-01
  3.0879576e+00
 -3.4457028e+00
  2.3494916e+00
  1.9636688e-01
 -8.5225362e-01
 -5.0775838e-01
 -4.7397246e+00
 -5.7393141e-02
 -7.6154214e-01
  1.2323296e+00
 -1.1483981e-01
  1.7758952e-01
 -1.5962913e+00
  4.8686045e-01
  1.3957901e-01
 -4.6703747e-01
 -6.8790013e-01
 -2.0718296e+00
  2.0941019e+00
  2.0640357e+00
  3.8415724e-01
 -2.3281398e+00
 -6.0311264e-01
  7.8988902e-02
 -2.7154331e+00
  8.7258184e-01
  8.4845722e-01
 -2.5473382e+00
  1.1739473e+00
  9.4011062e-01
  1.4556398e+00
 -2.1001959e+00
 -3.2949564e+00
  9.2035353e-01
  9.3702102e-01
  2.8346844e+00
 -3.0711799e+00
 -5.1620966e-01
  9.6680146e-01
 -1.4294815e+00
  6.2827684e-02
 -1.3854454e+00
  3.7095556e-01
  1.4834957e+00
 -1.7297007e-01
 -4.6282211e-01
 -7.4584126e-01
 -3.3988107e-02
  1.5837263e-02
 -4.4379467e-01
  6.1276269e+00
  2.9039161e+00
 -7.2695917e-01
  2.9242796e-01
  6.5842873e-01
  3.9207432e-01
  7.8178942e-01
 -3.4352481e+00
 -8.2997894e-01
  1.1752865e+00
  4.4124227e+00
  1.7872958e+00
 -4.2435794e+00
 -4.1741365e-01
 -2.2761800e+00
  2.8819234e+00
 -1.2717649e+00
 -2.0132115e+00
  1.8859985e+00
 -1.4926169e+00
 -1.3221036e+00
 -2.0406477e+00
  5.5279751e+00
 -1.0859907e+00
  1.7427471e-01
  2.3543012e+00
  1.2977185e+00
  3.2600901e-01
  4.2953345e-01
 -5.0029452e-03
 -7.2107263e-02
  2.6055801e-01
  3.6404377e-01
  5.8577067e-01
 -3.2086942e-01
 -2.2859941e+00
 -1.8171912e+00
 -3.3609679e+00
 -1.3862985e+00
 -1.5172691e+00
 -3.2900652e-01
  2.1153257e+00
  2.4183600e+00
 -3.6081696e-01
 -3.5384822e-01
  3.0593681e-01
  5.2005167e+00
  4.9894580e-01
 -2.8209588e-01
  9.5542389e-01
 -2.4860535e+00
 -1.8175032e-02
 -2.2075717e-01
  3.6638933e-01
  3.6255431e+00
 -5.5596209e-01
  1.8136151e-01
 -3.1924540e-01
  1.4173678e+00
 -1.9484326e+00
  3.9894390e+00
 -1.3218302e+00
  1.3914489e+00
  3.5674583e-02
 -8.8758737e-01
 -4.1945335e-01
  5.1133782e-01
 -4.2242146e-01
 -1.3263415e+00
  2.3187153e-01
 -1.4914829e+00
  2.2785859e-01
  6.4266753e-01
  7.4941778e-01
 -2.7413352e+00
 -8.1210233e-02
  1.1043958e-01
  1.9025284e+00
  5.5343908e-01
  7.6505989e-01
 -2.8743298e+00
  1.3839165e+00
 -1.2566521e+00
 -8.0165349e-02
 -1.9251226e-01
 -1.0204690e+00
 -9.3155819e-01
  5.7214856e-01
  1.3532315e+00
  2.6796669e-01
  5.3464431e-01
  8.3164883e-01
  7.0460778e-01
 -1.4005774e+00
 -1.7952033e+00
  7.4082768e-01
 -3.3523557e-01
  3.6625007e-01
 -1.0257919e+00
 -2.2302015e-01
 -1.6321847e-02
  3.5322568e-01
 -3.2657710e-01
  2.6513168e-01
  6.5021479e-01
  2.2966399e+00
  1.6320854e-01
 -1.3162147e+00
 -1.7265621e+00
 -1.1069009e+00
 -2.0047615e-01
 -1.5679395e+00
 -2.2371795e+00
  6.1884767e-01
 -1.0278039e+00
  2.1747217e+00
  5.4073054e-01
 -1.7904562e+00
 -1.9857185e+00
  1.5130254e+00
 -8.6313969e-01
  1.6074303e+00
  2.8880945e-01
  1.2239325e+00
  2.2058079e+00
  4.0843239e+00
  6.1595315e-01
  5.2350295e-01
 -8.9660466e-01
  5.8575648e-01
 -1.8337171e-01
 -2.2277501e+00
  2.2888048e+00
 -1.6486734e+00
 -9.7129911e-01
  2.3423046e-02
  8.5582155e-01
  6.7810649e-01
  5.3262785e-02
 -9.7650880e-01
  1.1104945e-01
 -5.9500438e-01
  7.0118153e-01
 -4.7527519e-01
  9.5663059e-01
  1.6636018e+00
 -2.8755683e-01
  6.1437100e-01
 -3.0276451e-01
 -3.3825967e-01
  3.0192745e-01
 -2.0120885e+00
 -1.5019118e+00
 -2.9818928e+00
 -2.4807465e-01
  8.2689017e-01
 -4.2457705e+00
 -1.3599969e-01
 -1.3898295e+00
 -8.0856603e-01
 -3.9592025e-01
 -8.1147707e-01
  9.1909891e-01
 -8.5557282e-01
 -1.4402889e+00
 -1.1308826e+00
 -1.6079026e+00
 -4.6122812e-02
  1.0313439e+00
 -4.7808832e-01
  5.5788660e-01
  1.0077007e-01
 -1.8077868e+00
 -5.0043764e+00
  1.9227982e+00
  3.8360159e+00
  1.4032487e+00
 -4.0349123e-01
 -1.3635141e+00
 -9.5463741e-01
  7.7453071e-01
 -1.8014394e+00
 -1.6150016e+00
 -9.0350062e-01
 -1.2536176e+00
  2.2415718e-01
 -1.4075581e+00
 -9.0345609e-01
 -1.7250916e-01
 -1.0611703e+00
 -3.0936263e+00
  2.6359787e+00
 -8.9329672e-01
  8.7203914e-01
  2.2101369e+00
 -2.5714014e+00
 -1.5987691e+00
 -1.6217941e+00
  5.3624991e-02
  2.1264119e+00
 -3.0452163e+00
  2.1376684e+00
 -2.1870296e+00
 -1.7543286e+00
  1.8920962e+00
  3.4139025e-01
  3.3457372e-01
  1.3384601e+00
 -6.1788321e-01
  3.9656356e-01
  4.5748907e-01
  3.0330327e-01
 -1.3141237e+00
 -7.4869102e-01
  1.0177135e+00
  4.8044175e-01
 -1.7937116e-01
  1.7799989e+00
 -5.8370280e-01
  1.7442903e-01
 -2.5111840e+00
  3.2742088e+00
  3.0635506e-01
 -7.3134708e-01
 -1.3257319e-01
  5.3547013e-01
 -1.6434230e-01
  9.8259515e-01
  4.1692266e-01
  3.8547131e-01
 -1.0434390e+00
  1.1773945e+00
  1.1840875e+00
  6.9803280e-01
 -5.5728787e-01
 -8.9664596e-01
  1.4164864e+00
 -6.2269682e-01
  3.1923003e+00
 -9.6949619e-01
 -1.8826693e-01
 -9.7102380e-01
 -8.3284205e-01
 -2.0364292e-01
 -8.4932369e-01
  1.4661847e+00
 -3.1685359e+00
  2.6161356e+00
 -2.9204817e+00
  1.6065081e+00
  2.7253088e-01
  2.6710846e+00
  9.0806454e-01
  1.6493510e-01
 -2.4318732e-01
  2.1836011e+00
  1.4741345e-01
 -3.3618484e+00
 -8.3446652e-01
 -1.4433529e-02
 -7.5094104e-01
 -2.5746005e+00
 -6.9319546e-01
 -1.2153145e+00
  1.3036447e+00
  6.3895658e-02
 -1.5050316e+00
 -2.1920371e+00
  4.0643013e-01
 -5.7884276e-01
  1.2955987e+00
  1.3184119e+00
  1.1041516e+00
  1.6845694e-01
 -1.9279679e+00
 -2.2939613e-01
 -7.7839702e-01
  4.2172143e-01
  3.3922713e-02
 -2.0979390e-01
  4.2092628e+00
  2.7093742e+00
 -2.3663986e+00
 -3.9917331e-02
 -3.7953749e-01
 -4.6930256e-01
 -1.4766387e+00
  6.9299901e-01
  4.0892035e-01
 -4.3005395e-01
  4.9112964e-01
 -1.6160580e+00
  7.2367120e-01
 -3.4004894e-01
 -8.9698382e-02
 -1.9547994e+00
  5.8555496e-01
  2.5513854e+00
 -1.8642526e+00
 -3.3237693e-01
 -1.3712811e+00
 -5.5398345e-01
 -1.0389831e+00
 -2.7965480e-01
  1.7655497e+00
  8.0895579e-01
  2.0348868e-01
 -2.4623859e-01
  7.3270030e-02
  8.9977838e-02
  4.0158350e-02
 -1.8755703e-01
  2.6502290e-01
  1.8516308e+00
  1.9448547e-02
  1.5659627e-02
 -3.6406436e+00
 -2.6676984e+00
 -1.2303687e+00
  1.9542122e+00
  6.0326347e+00
 -3.6791370e+00
  1.9333960e+00
 -2.7135000e+00
 -1.8371110e-01
  1.2452316e+00
  4.1360795e-01
  1.9528029e+00
 -1.0869241e+00
 -1.6961803e+00
 -2.0406733e+00
  1.1839038e+00
  4.0782353e-01
 -1.8981883e-01
  1.4893190e+00
  1.7414659e+00
  6.9486022e-02
  2.0420797e+00
 -1.3922997e+00
  1.1004497e+00
 -8.9906782e-01
 -2.6239822e+00
 -9.6876478e-01
 -3.1536877e-01
 -1.5319957e+00
 -2.3724359e-01
  7.9369575e-01
 -1.6544448e-01
  3.7657830e-01
  1.5656142e-01
 -4.9864807e+00
 -6.3025302e-01
 -2.5550950e+00
 -1.6146837e-01
 -2.5171940e+00
 -1.0846543e-01
 -4.2332241e-01
 -2.1670229e+00
  6.3833594e-02
  5.6602442e-01
 -3.6079676e+00
  6.2671036e-01
  2.3613653e+00
 -2.5671417e-01
 -7.4111712e-01
 -6.7562473e-01
 -1.5634407e+00
 -1.6076216e+00
 -2.2095208e-01
  3.8020608e+00
 -1.8777151e+00
 -1.2080566e+00
  6.3398290e-01
 -2.0232041e-01
  1.3402299e+00
  1.6863142e+00
 -2.3978276e+00
  3.6113712e-01
 -6.7245364e-01
 -1.7751851e+00
  1.0531807e-01
  6.1253041e-01
  4.7727284e-01
 -2.6806059e-01
  9.5085627e-01
  3.7647132e-02
  1.5631624e+00
 -4.6702856e-01
 -7.9823530e-01
 -3.8918369e+00
 -1.2421150e+00
 -6.3819242e-01
 -8.2331491e-01
  6.8629020e-01
 -6.8008727e-01
 -1.5123612e+00
  1.2636267e+00
  1.1482085e+00
 -7.5334775e-01
  3.7521729e-01
  8.3179885e-01
  4.4267976e-01
  1.2014956e+00
  9.1120696e-01
  2.7151346e+00
 -2.4829876e+00
  1.8652800e+00
 -4.8896128e-01
  2.2595829e-01
 -1.1080558e+00
  1.0236259e+00
 -4.8609495e-01
  7.2900021e-01
  4.9706122e-01
 -2.9577243e+00
 -1.2024003e-01
  2.6026231e-01
 -1.7402786e-01
 -7.8690983e-02
 -6.3304567e-01
 -4.8119974e+00
 -2.8673646e+00
  3.8616545e+00
  3.6311176e+00
  4.3417749e+00
  2.2372258e-01
 -1.2820832e+00
 -1.3765399e+00
  1.4075460e+00
 -1.7536554e+00
  1.5142288e+00
  1.1406305e+00
 -2.2583175e+00
  2.6553288e+00
  6.0251313e-01
  5.0367177e-01
  1.9937983e+00
  2.1863787e+00
  4.5441809e+00
  3.7648666e+00
 -3.2690689e-01
  3.9094071e+00
  7.4897939e-01
  5.6226068e+00
 -1.0679314e+00
  2.2682936e-01
  1.2780920e+00
 -1.1104719e-02
  3.5018691e-01
 -2.1222743e-01
 -4.0448135e-01
  2.8694334e+00
 -8.0622792e-02
 -1.8082149e-01
 -3.0592418e-01
 -1.3189416e+00
  9.6079087e-01
  3.9732528e+00
  2.8613582e+00
  1.6529737e+00
  4.5139429e-01
 -1.5531662e+00
  5.6307149e-01
 -4.1777202e-01
 -1.4974274e-01
 -8.6200869e-01
 -1.9555277e+00
 -1.8211607e+00
  3.7451756e-01
 -1.5440742e+00
  4.7480798e-01
  1.0941081e+00
 -2.3283446e+00
 -1.2418484e-01
  1.0237354e+00
  2.1169686e+00
  2.8446074e+00
  2.6014593e-01
 -8.2849997e-01
 -5.6938106e-01
 -1.6201358e-01
 -3.9561751e+00
 -4.8858839e-01
 -1.5075384e+00
 -9.8374814e-01
 -2.3986922e-01
 -2.7519909e-01
 -1.4080954e+00
  2.2247979e-01
  5.6625873e-01
 -5.3048939e-01
  7.8808564e-01
  2.1110919e+00
  1.4545439e+00
 -1.4242071e+00
  1.1184860e+00
  8.5544503e-01
  1.6039853e+00
  7.3274535e-01
 -3.8047132e+00
  2.0648904e+00
 -1.4374230e+00
  1.1768113e+00
  1.0225060e+00
 -2.9379997e+00
 -5.0930548e-01
 -1.4543062e+00
 -1.5569254e+00
 -2.6431020e-02
 -2.1393826e+00
  3.4757023e+00
 -3.4621193e+00
 -1.2187231e+00
 -8.9396077e-01
  1.8994544e+00
  7.9876781e-01
  2.1038122e+00
 -1.7973559e+00
 -1.7846596e+00
  1.7927366e+00
  2.4963596e-01
  1.6066856e+00
  1.5871429e+00
  7.2087508e-01
  1.8749299e+00
 -8.1441128e-01
 -7.8360927e-01
 -1.3396784e+00
 -8.7533069e-01
  1.7195039e+00
  1.1246853e+00
 -4.2418239e-01
  1.1287116e+00
  7.7776235e-01
 -6.2323365e-02
  1.0678023e+00
 -3.5294244e-01
  1.0892223e+00
 -1.2172853e-01
 -1.3826974e-01
 -1.5746449e+00
  1.9449127e+00
 -1.2247196e+00
  2.3328015e-01
 -1.4136982e+00
  2.6118222e-01
  2.5128102e+00
  4.1540599e-01
  1.8118706e-01
  7.8073084e-01
  1.3729666e+00
 -2.2302554e-03
  7.3418480e-01
  2.4713719e+00
 -2.6485193e-01
 -3.6161649e-01
  8.9700341e-01
  7.4748147e-01
 -1.0473700e+00
  1.4296590e+00
 -4.9120322e-01
 -1.8519239e+00
 -1.6777108e+00
 -4.7098645e-03
 -3.5131011e+00
 -1.0230604e+00
 -2.1950760e+00
 -2.5708100e-01
  1.8019661e-01
  6.8777621e-01
  2.7701193e-01
  1.2748111e+00
  3.3366066e-01
 -8.2645065e-01
  3.1084991e-01
  4.1111332e-01
  8.3557028e-01
  8.7972915e-01
  2.0656881e-01
  7.2198170e-01
 -8.9544284e-01
  1.1437228e-01
 -1.3922027e+00
  4.4379184e-01
  2.8924173e-01
  4.5649204e-01
  3.5400665e-01
  2.9288626e-01
 -1.5390483e-01
  2.7489355e+00
 -4.7209835e-01
  5.3380543e-01
 -3.5718367e-01
  5.8167642e-01
 -3.6888996e-01
 -7.1374422e-01
  1.3456361e+00
  5.4765594e-01
  1.5703660e+00
  3.0373949e-01
 -2.0301083e-01
 -7.8758430e-01
 -2.4506717e+00
  1.5428209e-01
 -6.9235420e-01
  1.2928438e-01
  3.1136146e-01
 -4.3848836e-01
 -1.4014710e-01
 -3.2859261e+00
 -6.3706255e-01
  4.4414458e-01
 -1.6691813e+00
 -4.4026342e-01
  5.7787442e-01
  5.9918040e-01
  2.8326100e-01
  5.8750564e-01
 -1.5899105e+00
 -7.2927684e-01
 -6.5251786e-01
  5.4929930e-01
  5.5796325e-01
  6.4156288e-01
 -6.1098117e-01
 -1.7814605e+00
 -1.8875482e+00
 -6.1906302e-01
 -4.6471837e-01
  6.7067021e-01
  3.1647235e-01
 -4.5991662e-01
 -7.4210936e-01
 -7.5960231e-01
 -2.9019934e-01
  3.3188286e-01
  8.4011722e-01
 -3.9455169e-01
 -7.1382809e-01
 -3.3852968e-01
  4.4829270e-01
 -4.1460821e-01
  2.8940871e+00
  2.4701585e-01
 -1.2167883e+00
  9.8091549e-01
 -9.4097209e-01
 -2.3455539e-01
 -2.9897792e+00
 -1.9912109e-01
  2.0117418e+01
 -2.1220167e+00
 -3.5058734e+00
  3.0018988e+00
  1.4276818e+00
 -6.6946158e+00
 -2.5465055e+00
  3.0429623e+00
  5.4183216e+00
 -7.7619028e-01
 -3.4969118e+00
 -7.3016191e+00
 -1.7222154e+00
  2.2435218e-01
 -3.9881647e+00
  5.6196856e-01
  4.2658553e+00
  7.4812281e-01
  3.0529532e+00
  7.1321678e-01
  1.8191031e-01
  8.2629174e-01
 -7.4728590e-01
  2.8126163e+00
 -7.1271653e+00
 -3.1795254e-01
  4.5599957e+00
  5.0689363e+00
 -1.7577537e+00
 -1.3091168e+00
 -1.7473332e+00
  1.1585722e+00
 -7.1945560e-01
 -1.5810995e+00
 -1.0224848e+00
  3.5712593e+00
  3.8867342e+00
 -9.0598041e-01
 -2.1763539e+00
  1.1146898e+00
  6.4989619e+00
  5.4564571e+00
 -3.5949869e+00
 -6.0180402e+00
 -2.1255903e+00
  2.0921965e+00
  1.4204311e-01
  3.1496754e+00
 -4.4526401e+00
 -2.9995444e-01
  3.6035011e+00
  5.2702713e-01
  7.4935865e-01
  1.7975729e+00
  1.3592644e+00
 -1.8973451e+00
 -4.0920115e+00
  6.5448780e+00
  4.2657018e+00
 -2.9347482e+00
 -3.3474650e+00
 -1.6215163e+00
 -7.0250326e-01
 -8.5809392e-01
  1.2769005e+00
  8.3281412e+00
 -1.0009906e+00
 -4.9237709e+00
  1.6992534e+00
  4.6613688e+00
  4.7011173e-01
 -3.4016671e+00
 -1.5866208e+00
 -1.3080939e-02
  2.4487374e+00
  4.1649094e-01
 -3.2598469e-01
 -2.1584206e+00
  1.6456582e-01
  3.2323938e-02
  8.5349256e-01
 -1.2260854e+00
 -3.2826703e+00
 -4.5743780e+00
  1.9408752e+00
  1.5254618e+00
 -2.0270345e+00
  1.6816525e+00
  4.4447951e+00
  1.4934634e+00
 -2.3296809e+00
  4.1251560e-03
  4.1251560e-03
  4.1251560e-03
  4.1251560e-03
  4.1251560e-03
  5.2743582e-03
  5.2743582e-03
  5.2743582e-03
  5.2743582e-03
  5.2743582e-03
  4.1027446e-03
  4.1027446e-03
  4.1027446e-03
  4.1027446e-03
  4.1027446e-03
  2.3731452e-03
  2.3731452e-03
  2.3731452e-03
  2.3731452e-03
  2.3731452e-03
  1.4660439e-03
  1.4660439e-03
  1.4660439e-03
  1.4660439e-03
  1.4660439e-03
  7.1759237e-04
  7.1759237e-04
  7.1759237e-04
  7.1759237e-04
  7.1759237e-04
  5.9611837e-05
  5.9611837e-05
  5.9611837e-05
  5.9611837e-05
  5.9611837e-05
