nep4_zbl 1 C 
zbl 1 2
cutoff 6 5 163 106
n_max 4 4
basis_size 8 8
l_max 4 2 1
ANN 80 0
  2.2703242e+00
  3.3730338e+00
 -1.1634380e+00
 -1.6363695e+00
  7.8242344e-01
  1.8190254e-01
 -2.0002449e+00
  9.6020812e-01
 -8.3503276e-01
  1.0795480e-01
 -1.8591767e-02
 -1.4815056e+00
 -1.1522874e+00
  1.4029561e-01
  1.7949227e+00
 -6.8200439e-01
 -1.2775071e+00
 -1.3725684e+00
  9.4970620e-01
  1.7987360e+00
 -7.1642691e-01
  2.6285082e-01
  9.9662048e-01
  2.3299520e+00
 -5.7828653e-01
 -7.2187853e-01
 -1.1727931e+00
  1.1191957e-01
  3.2729301e-01
  1.4485849e+00
 -5.4090625e-01
  2.0319100e-01
  1.6821089e-01
 -3.2953274e-01
 -1.3684881e+00
  1.5106586e+00
  1.2283468e+00
  2.9691734e+00
 -1.1746277e+00
  1.0418063e+00
  2.0313621e+00
  1.7584165e+00
 -3.0397723e+00
  1.3111700e+00
 -1.2208134e+00
  2.1727619e+00
  9.4764835e-01
 -1.1704909e+00
  4.1204607e-01
 -8.7552017e-01
  2.0630760e+00
 -2.7907686e+00
 -1.7515389e+00
 -1.8823389e+00
 -4.0184537e-01
  4.0450853e-01
 -2.1266592e+00
  1.6758083e+00
  4.4756505e-01
 -7.0613420e-01
  9.1471457e-01
  3.6157496e-02
  3.2520349e+00
  1.7111028e+00
 -1.2774894e+00
  3.5637161e-01
 -6.8814397e-01
  1.5678936e+00
 -7.7314866e-01
 -1.0155365e+00
  2.3575634e-01
 -1.2561357e+00
  3.1708354e-01
 -1.2054127e+00
  1.3397917e+00
 -1.4447328e+00
  2.4519086e+00
  3.8227612e-01
  6.9502041e-02
  7.3245215e-01
 -4.8731035e-01
  5.3964639e-01
  7.3988485e-01
  1.9994193e+00
  9.1512406e-01
  1.3939582e+00
 -2.3249826e-01
 -1.2593266e+00
  5.0032727e-02
  2.5450711e+00
  2.4355777e-01
  2.1396439e+00
  4.4873229e-01
  4.4877994e-01
  7.8218728e-01
 -1.1799819e-01
 -3.5292366e+00
  5.5876356e-01
  1.4449884e+00
 -6.2063646e-01
 -6.3106883e-01
 -4.3369967e-01
  3.0901653e-01
 -6.7397058e-01
  5.9846973e-01
 -2.1285276e+00
 -1.0590153e+00
 -1.6747786e+00
  9.7579932e-01
  1.8854819e-03
 -2.2191401e+00
  2.2998023e-01
  3.0273499e+00
  4.0301076e-01
  5.2497178e-01
 -3.0410764e-01
  2.5891111e+00
  7.3125571e-01
  3.0265209e-01
 -2.3453689e-01
 -2.7493772e-01
  2.2815831e+00
  2.3976581e+00
  6.7251697e-02
 -3.3760488e-01
 -3.0999747e-01
  1.2129472e+00
  1.1171527e+00
 -1.2527654e+00
  3.2763153e-01
  1.3361096e+00
 -6.5408349e-01
 -2.3635497e+00
 -1.4501444e+00
  1.8689953e-01
  1.0087602e+00
  6.9998525e-02
 -5.7033822e-03
  1.2187830e+00
  2.4744010e-01
 -7.3138875e-01
 -1.1350151e+00
  1.0517958e-01
 -1.4993196e+00
  4.5015919e-01
  2.4679086e-01
 -4.6987304e-01
  5.3969902e-01
 -1.5029013e+00
  8.1983232e-01
 -1.9545530e-01
 -1.4774148e+00
 -7.9494846e-01
 -1.3233697e-01
  1.1819248e+00
 -1.9175786e-01
  7.2490591e-01
  2.9431260e-01
  9.3818718e-01
  7.3655427e-01
  5.7068583e-02
  4.2025405e-01
  3.4786686e-01
 -3.5755807e-01
  1.3581650e+00
  1.0195723e+00
  4.2774782e-01
  1.6528714e-01
  4.8520145e-01
 -5.3163129e-01
  4.1858122e-01
  1.5306006e-01
 -2.4742275e-01
 -3.5572842e-02
  2.4730241e-01
 -1.7888625e+00
 -2.4448361e+00
  8.8978007e-02
  9.8937139e-02
  1.7196288e+00
 -2.0739186e-01
  1.1552077e-01
  2.1490026e+00
 -3.5308632e-01
  3.5253747e+00
 -2.0671678e+00
 -8.2980788e-01
  2.5792134e+00
 -1.1940175e+00
  1.5778884e+00
 -5.9745312e-01
  1.7830219e+00
  2.9426363e+00
  5.5137306e-01
  2.9896717e+00
  4.4880500e-01
 -9.2300510e-01
 -4.5822474e-01
  2.0690028e-01
  1.7139485e+00
 -2.9694264e+00
  1.5034775e+00
  1.8407927e-01
  2.0428024e-01
  6.3268340e-01
 -3.1743655e-01
 -2.3575917e-01
  9.3330646e-01
 -5.8440810e-01
 -1.4186035e+00
 -1.1064388e+00
 -3.9201346e-01
  1.0317659e+00
  1.3825500e+00
  2.4401314e+00
 -3.8080955e+00
 -2.6596090e-01
  4.4890788e-01
  6.1797075e-02
  1.5791087e+00
 -2.2041039e+00
 -1.7471142e+00
  1.6709334e+00
  9.7429812e-01
  1.6595283e+00
 -5.0247979e-01
 -1.6153630e+00
 -1.0800152e+00
  2.5968275e+00
 -1.6462899e+00
 -1.3380010e+00
 -2.6551428e+00
 -1.3322887e+00
  1.9268781e+00
  7.5437927e-01
 -1.2851977e+00
  8.1270379e-01
  3.2174951e-01
  1.1042564e-01
 -1.0092597e-01
  3.7543207e-01
  3.7686276e-01
  6.8648529e-01
 -1.8994123e-01
 -8.5519403e-01
 -4.8769693e+00
 -5.4741687e-01
 -5.9985143e-01
 -2.6078534e-01
  3.6714661e+00
 -3.5352666e+00
 -2.7482946e+00
  1.3505089e+00
 -4.1341254e-01
 -1.4366713e-01
 -3.7817437e-02
 -1.8359072e+00
  1.2782079e+00
  7.2371818e-02
  1.0775037e+00
  3.9823598e-01
 -2.0945878e+00
 -1.1037507e+00
  2.3500354e+00
  1.2253453e+00
  1.0546520e+00
  6.1926049e-01
 -1.3579787e+00
 -8.8920307e-01
  1.6668608e+00
 -8.1348556e-01
 -1.7324592e+00
 -9.7668964e-01
 -3.9871275e-01
  2.9726076e-01
  1.6813590e-01
 -1.7804505e-01
  1.3474531e-01
 -2.9258934e-01
 -6.1406833e-01
 -6.7353630e-01
  2.0338753e-01
 -1.6414051e+00
  2.5764503e+00
  2.3827450e-01
  1.0686777e+00
  4.5761016e-01
  8.4791547e-01
 -4.3136677e-01
  3.5168498e+00
  5.9467018e-01
  1.2171427e+00
  2.9243052e-01
  1.4378912e+00
 -6.5339035e-01
 -4.5285332e-01
 -1.3170615e-01
  1.0050895e-01
 -1.0837573e+00
 -1.1973590e+00
  1.9926137e+00
 -1.3084641e-01
  9.1225332e-01
 -9.0578564e-02
  8.3734713e+00
  3.3897889e-01
  1.5009316e+00
 -1.2090526e+00
  9.1852719e-01
  1.3369445e+00
  3.0157104e-01
 -7.1830678e-01
  8.6259615e-01
 -7.3009408e-01
  2.3083821e-01
  3.5924630e+00
 -3.1648272e-01
 -7.9068327e-01
 -2.1004644e-01
 -2.0421228e+00
 -8.9863050e-01
  2.5538376e-01
  1.0159918e+00
 -5.7486445e-01
 -9.2135221e-01
  1.4788432e-01
 -1.5904315e+00
 -3.9509395e-01
  1.1831501e+00
 -1.8473397e+00
 -1.8619589e+00
 -1.3900133e+00
 -8.7750189e-02
 -2.1471260e+00
  4.8400971e-01
  7.8771240e-01
 -9.2904568e-01
  1.8262079e-01
 -3.7703091e-01
 -2.5745456e+00
  2.9273562e+00
  4.3449113e-01
 -4.9164370e-01
 -8.4926683e-01
 -3.4554109e-02
 -6.9553179e-01
  5.6759715e-01
 -9.7005230e-01
  4.1456442e-02
 -1.0301687e+00
  1.4544911e+00
  2.0063365e+00
  7.2919083e-01
 -4.1926500e-01
 -2.6847848e-01
  1.7107290e+00
  3.5360923e-01
  4.0308394e+00
  1.6896902e-02
 -2.5655028e-01
 -4.5465806e-01
  9.4652571e-02
  7.3963392e-01
  9.3756366e-01
  1.0451943e+00
  8.5255104e-01
  6.1093819e-01
 -3.2484400e-01
 -6.0254538e-01
 -1.0760214e+00
  3.2807791e+00
 -1.4680488e-01
 -1.5327671e+00
  8.7732770e-02
  6.7909372e-01
  1.3573350e+00
  3.7458551e-01
  1.9067296e-01
  3.0663328e+00
  5.8105934e-01
  6.5270203e-01
 -1.3402041e+00
 -1.1831519e-01
  6.4195015e-02
  2.6882306e-01
  1.8667548e+00
 -3.4476674e-01
 -5.0730473e-01
  2.7103616e-02
  1.4257313e+00
 -8.6250150e-01
 -8.9186341e-02
  1.0818276e+00
  1.0028033e+00
  9.6924871e-01
  4.9641618e-01
  2.7685773e-01
 -3.3499414e-01
  4.3711609e-01
  1.0450335e+00
 -1.4184860e+00
 -4.3005027e-02
  1.6705485e-01
 -3.7163961e-01
 -1.0527641e+00
  9.3505257e-01
 -1.7858963e+00
  1.3494679e+00
  7.9774046e-01
 -1.4399871e-01
  7.7937877e-01
  3.1976962e+00
 -5.6176662e-01
 -3.9646044e-01
  6.4755625e-01
  9.9196929e-01
 -1.1464189e+00
  2.6404241e-01
  2.1675685e-01
  1.9102281e-02
  5.1511014e-01
 -1.3651489e-01
  1.5682147e+00
  8.8684952e-01
 -9.0822482e-01
 -2.7560845e-01
  5.7618010e-01
 -5.9335870e-01
 -1.4147973e+00
  1.4741179e-01
  3.6196840e-01
 -2.5260958e-01
 -7.2537732e-01
  3.1620774e-01
  5.0849098e-01
 -5.0092632e-01
 -1.6709652e+00
  5.2647203e-01
 -3.2686695e-01
 -1.1287119e+00
  1.5861626e+00
 -1.2968234e+00
 -3.8594705e-01
 -1.2461171e+00
 -1.3440502e+00
  7.8821301e-01
 -9.9567616e-01
 -2.3632151e-01
 -1.0008758e-01
  7.7829026e-02
  1.4161919e-01
  5.1255161e-01
 -2.6564467e-01
 -5.4585284e-01
 -3.0713840e+00
 -2.6614624e-01
 -8.5837668e-01
  1.1333286e+00
  4.3905601e-01
  1.9838036e+00
 -1.9409149e+00
  3.9804292e-01
  2.8610681e-03
 -4.1352075e-01
  1.0483297e+00
  9.9047822e-01
  9.4387418e-01
 -2.2069035e+00
  6.0591233e-01
 -1.6576247e+00
 -1.2084756e+00
 -1.8881555e+00
 -7.9141264e+00
  1.9496052e+00
 -1.5449690e+00
  8.6217839e-01
  9.5567149e-01
 -5.4373872e-01
 -1.6517742e-01
  5.3198230e-01
  1.1857219e-01
 -2.9346342e+00
  1.2574918e+00
 -1.8678746e-01
  5.9693331e-01
 -4.8463604e-01
 -5.5716586e-01
  2.1766411e-01
 -8.7740719e-01
 -3.5477975e-01
  1.0760154e+00
 -7.7220434e-01
 -3.3224598e-01
  3.9214501e-01
  3.5110188e-01
 -5.9668523e-01
 -2.5578654e-01
 -1.0553735e+00
  5.7111305e-01
 -4.5433399e-01
 -1.2677671e+00
 -1.3002410e+00
 -5.1862770e-01
  7.7324140e-01
  1.1220361e+00
 -3.5268223e-01
  1.3957827e-01
  6.4853346e-01
  1.4825428e+00
  1.2987584e-01
  6.9559318e-01
 -9.7028059e-01
  9.2427634e-02
 -8.9470214e-01
  6.0606158e-01
  2.6969281e-01
 -9.2306530e-01
 -5.9865248e-01
 -8.0175793e-01
 -8.8014030e-01
  1.6551663e-01
  1.1829222e+00
 -6.7791864e-02
  2.9621837e-01
 -1.1510352e+00
  1.0945280e+00
 -1.7315565e-01
 -1.7209275e+00
  5.9404600e-01
  1.7124395e-01
  1.8563591e-01
 -1.5023584e+00
 -1.2438025e+00
  1.8351555e+00
  3.1636447e-01
  2.4000516e+00
  3.0461304e+00
 -3.3790960e+00
  2.5619900e+00
 -5.3183520e-01
 -2.5288014e+00
  1.6295130e+00
  2.4504828e-01
  1.7254053e+00
 -4.6622941e-01
 -2.7847695e+00
  1.7980847e+00
 -9.8259336e-01
 -6.4437020e-01
 -7.1977866e-01
  7.6177877e-01
 -2.5001078e+00
  1.4091554e+00
 -3.7055367e-01
 -8.2074928e-01
 -5.6499726e-01
 -5.0693297e-01
 -6.3419479e-01
 -6.5594703e-01
 -6.4546067e-01
 -3.9508390e-01
  1.8854584e+00
 -2.7158117e+00
 -2.5466602e+00
  1.8856256e+00
 -4.4131550e-01
 -1.4629859e-01
 -1.8350157e+00
  1.5142840e-01
  1.0106422e+00
 -5.1394141e-01
  1.2816911e+00
 -7.7275699e-01
  9.1505742e-01
  2.5042471e-01
 -1.5013623e-02
  2.4693219e-01
 -9.0376449e-01
 -7.5783825e-01
  6.1050642e-01
  1.0015962e-01
  1.3576742e+00
 -2.1105450e-01
  1.2805663e+00
 -2.4857014e-01
 -6.9418311e-01
  9.8868352e-01
 -2.4469890e-01
  4.5319685e-01
 -7.7513617e-01
 -3.2776603e-01
  3.3312568e-01
 -9.9819249e-01
  6.9910935e-03
 -7.4428278e-01
 -3.2233083e-01
  1.2249535e+00
 -2.3284824e+00
  1.0152265e+00
 -2.2439978e+00
 -1.9898531e+00
  5.5493546e-01
  6.6477078e-01
 -1.8694429e-01
  1.0086933e+00
 -3.6977780e+00
  2.9815617e+00
  1.0368744e+00
 -1.4495969e+00
  1.7513014e+00
 -1.9956913e+00
 -1.9479578e+00
  4.8848367e-01
 -5.1929522e-01
 -2.4795315e+00
 -2.6236079e+00
 -8.7850839e-01
  2.6463598e-01
 -5.1898164e-01
 -8.0006176e-01
 -2.1989655e+00
  6.7658371e-01
 -1.4100938e+00
 -4.8686770e-01
  1.4609863e+00
 -7.5256896e-01
  4.1682458e-01
 -8.1489468e-01
 -5.3052299e-02
 -6.1414719e-01
 -1.2306652e+00
  4.7317246e-01
  1.0293443e+00
  5.8837995e-02
 -1.1052872e+00
 -1.2978122e-01
 -1.2306443e-01
  1.4333812e+00
 -1.1166664e+00
 -9.3725717e-01
 -2.1319540e-01
  1.1415343e-01
 -5.5866711e-02
 -8.6557227e-01
 -3.5435674e-01
  4.4281924e-01
 -9.5348990e-01
  7.8967547e-01
 -7.5038362e-01
 -7.4042165e-01
  6.3788164e-01
 -7.2022177e-02
 -6.5022492e-01
 -9.4993705e-01
 -1.0982105e+00
  5.2692437e-01
  2.9083624e-02
 -3.7347299e-01
 -3.2202029e-01
  8.5794616e-01
  7.2056627e-01
  5.3394908e-01
  8.2431233e-01
 -1.9919550e-01
  3.9211434e-01
 -5.8717990e-01
  5.8009768e-01
  1.0607187e-01
 -1.2211545e+00
 -4.4547594e-01
 -4.9622321e-01
  3.8757527e-01
 -4.4092190e-01
 -6.7746818e-01
 -1.9934288e-01
  2.4417505e-01
 -2.1745019e-01
 -1.3538638e+00
  2.8562912e-01
 -7.4495083e-01
 -7.3368773e-02
  4.4862634e-01
  6.8691838e-01
 -8.0578245e-02
  1.7410365e+00
 -8.2852578e-01
 -9.8939061e-01
  1.3545177e+00
 -6.8621598e-02
 -3.1727117e-01
 -1.3105605e+00
 -2.0921735e-01
  4.5515317e-02
  1.5926080e+00
 -5.0990164e-01
 -4.4453990e-01
 -3.1957200e-01
  1.7271707e+00
 -4.9416456e-01
  3.3203390e-01
 -1.1534052e+00
 -1.4931380e+00
  4.1895875e-01
 -4.6098194e-01
 -4.4483572e-01
 -5.4427773e-01
 -8.0074614e-01
 -7.4809492e-02
 -7.0197183e-01
 -6.2524730e-01
 -3.9833963e-01
  1.5881295e+00
  1.8346704e+00
  6.8494821e-01
 -1.4272743e+00
  2.7331432e-02
 -5.6219381e-01
  8.1310147e-01
  8.5490799e-01
 -6.6625082e-01
 -3.3081439e-01
  1.7461284e+00
 -2.9836312e-01
  5.8104092e-01
 -1.0062894e+00
  3.2833165e-01
 -8.5084170e-01
 -2.0343046e-01
 -4.3719709e-01
 -1.8953440e-01
  7.2611421e-01
  2.6478034e-01
  5.4173732e-01
 -1.0571544e+00
 -2.4193993e-01
  2.9625447e+00
  7.6485461e-01
 -8.7893146e-01
 -1.0932920e+00
  7.8071463e-01
 -1.6637790e+00
  1.8249442e-01
  2.1085060e+00
 -5.3872776e-01
  5.4839060e-02
 -2.9754207e+00
 -1.7888166e-01
 -6.7183083e-01
 -5.6985003e-01
 -1.7221498e+00
 -2.4028175e-01
 -9.2884517e-01
 -2.9023592e+00
 -2.7661380e-01
 -5.3607041e-01
  1.2415454e+00
 -5.4881787e-01
 -3.8595803e-02
 -7.9047602e-01
 -2.7506475e+00
  7.8856619e-04
  2.2444975e-01
  1.4877831e+00
 -5.7903898e-01
  1.4555864e-01
 -8.6877352e-01
 -1.1377221e+00
 -5.3100246e-01
 -3.3968577e-01
 -6.8179166e-01
  9.7338384e-01
  4.0476286e-01
  2.0490930e+00
 -9.9362230e-01
 -2.0068238e+00
  7.8328794e-01
  6.1483908e-02
 -5.4909694e-01
 -4.0359551e-01
  9.3163520e-01
 -2.5855184e-01
  1.5040070e-01
 -2.1300189e-01
 -1.2602098e+00
  1.7840065e-02
  1.3593252e+00
 -9.7860748e-01
  8.3634537e-01
  2.7109367e-01
 -2.6603196e+00
 -4.1735259e-01
 -9.7959411e-01
 -5.3894991e-01
 -8.9081669e-01
  9.9645048e-01
 -1.6026562e-01
  9.6603662e-01
 -3.8017821e-01
 -2.3065207e+00
  3.4682927e-01
 -1.9881783e-01
  8.0246133e-01
 -1.5153402e-01
  9.8101892e-02
  6.3546455e-01
  1.0533479e+00
  2.2490522e-01
 -3.6954241e+00
 -1.8693733e+00
  4.0866811e-02
 -1.6616963e+00
  9.9351841e-01
  3.4827390e-01
 -1.1438793e-01
 -2.2200387e+00
 -2.1400948e+00
  5.9673566e-01
 -9.9377483e-01
 -3.7803051e-01
 -8.2708848e-01
 -1.3080121e+00
 -2.0344660e-02
  1.0103238e+00
 -9.7649997e-01
  3.4858432e-01
 -6.9887918e-01
 -4.6541911e-01
  1.7667378e+00
  2.8977203e+00
  1.3230534e-01
 -2.5695434e+00
  1.7692907e+00
  2.7563542e-01
  7.2159785e-01
 -3.0981812e-01
 -4.3593444e-02
  1.0210179e+00
  4.1473722e-01
 -1.7671585e-02
  5.2543974e-01
 -2.4921107e-01
 -8.7700647e-01
  2.0927956e+00
  1.1967336e+00
  5.2886748e-01
 -2.0785379e+00
 -2.3784792e+00
  2.5911543e+00
  2.1387298e-01
 -5.7781339e+00
 -2.0681483e-01
  2.7385528e+00
  1.0690428e+00
 -1.2510496e+00
 -4.4404297e+00
  1.6138716e+00
 -1.3907591e+00
  1.4486611e+00
 -2.1162120e-01
  1.1249478e+00
 -4.1423168e-02
  7.2410476e-01
 -1.8561727e-01
 -6.6775274e-01
  1.0740975e-01
  1.9969751e+00
 -4.0916559e-01
 -1.5525630e-01
  7.0665276e-01
  2.3346941e+00
  2.5729442e-01
  1.1556479e+00
  5.2497017e-01
  3.6614567e-01
  4.0970188e-01
  2.6853602e+00
 -1.5014079e-01
  3.0079558e+00
  1.4957657e+00
 -3.1274090e+00
 -1.4777789e+00
  2.5709448e+00
 -1.2725453e+00
  2.8458685e-01
  7.5590676e-01
 -2.2731059e+00
 -1.7322794e+00
 -1.5233368e+00
  1.3232901e+00
 -1.5718392e+00
 -2.3422098e-01
  1.0770870e+00
 -6.5272135e-01
 -5.0811124e-01
 -2.6461384e-01
  9.2494065e-01
  9.2709160e-01
 -1.1018906e+00
  7.6180428e-02
 -2.6872413e+00
  3.4433860e-01
  1.7100015e+00
 -1.5594476e-01
  2.1239345e-01
 -2.7723241e-01
 -3.2126755e-01
  3.4101433e-01
 -4.4255605e-01
  1.4534873e-01
 -1.7779413e+00
 -2.2208896e+00
  1.6377754e+00
  3.8956925e-01
 -2.0336258e+00
  1.0294782e+00
  3.1545121e-02
  1.1531118e+00
  1.9544624e+00
 -2.4364271e+00
  7.8182518e-01
 -1.3741101e+00
  1.7736835e+00
  3.5541914e-02
  1.4269465e+00
 -2.7146551e-01
 -8.8487726e-01
  1.6883808e+00
  1.7138529e+00
 -2.8573033e-01
 -1.0502365e+00
  1.4617620e+00
  5.4103911e-01
  5.9028155e-01
 -1.0932072e-01
  1.0865512e+00
 -7.5855792e-01
 -8.9798522e-01
 -2.1855645e+00
 -3.0407766e-01
  7.2271782e-01
 -1.2087852e+00
 -3.9198045e-03
 -9.9147278e-01
 -3.9077953e-02
  1.1100410e+00
 -9.5424116e-01
  9.9541336e-01
 -3.6793242e+00
  1.3273319e+00
  1.1863983e+00
 -3.8386834e-01
 -9.4972897e-01
 -2.7630636e-01
 -1.5431349e-03
  1.6602098e+00
 -2.1528590e+00
 -8.4611869e-01
 -6.3739276e-01
  8.8188714e-01
  1.1384676e+00
 -1.3790981e-01
 -2.8303740e+00
  2.4672866e+00
 -2.6131797e-01
  1.0827687e-01
 -6.0466748e-01
  7.1296924e-01
 -1.9251097e+00
 -3.5818017e-01
  5.8550584e-01
 -9.5822066e-01
  5.6708646e-01
  3.3231709e+00
  1.3311417e+00
 -7.9244876e-01
 -4.8303336e-01
  1.1737202e-01
 -7.9270440e-01
 -7.8609926e-01
 -6.7693907e-01
 -6.0074556e-01
 -2.7478588e-01
  4.0078568e+00
  1.0940033e+00
  3.6278534e-01
 -9.0483427e-01
 -3.7045918e+00
 -1.1085333e+00
  5.7701266e-01
  2.2835197e+00
 -4.1918449e+00
  2.6397753e-01
  1.0682969e+00
 -9.1272771e-01
  4.8811455e+00
 -9.4585234e-01
 -6.2537515e-01
  2.2608654e+00
 -1.1510275e-01
  9.6181773e-02
  1.7071723e+00
  9.4099194e-01
  2.5912824e-01
 -1.5053232e+00
  1.5848272e+00
 -1.4738035e+00
 -7.8278214e-01
  2.0449904e-01
 -8.6439647e-02
  1.3745919e+00
  6.9219969e-02
 -3.3518660e-01
 -4.0955889e-01
 -1.2847878e+00
 -4.8368952e-01
 -2.5611923e+00
 -1.8184198e+00
 -1.1214551e+00
 -2.9753134e+00
  3.0416574e+00
  8.5931402e-01
 -5.3668290e-01
 -1.7643409e+00
 -1.1382331e+00
  3.7551135e-01
  4.2891198e-01
  1.3701470e+00
  5.6383353e-01
 -3.0928099e-01
  6.6449332e-01
 -4.6559775e-01
  1.6476121e+00
  1.1361623e+00
 -1.9284396e+00
 -1.8607658e-01
 -1.2125260e+00
  6.7063615e-02
  1.2217569e+00
  2.0819614e+00
  7.4245846e-01
  1.5646311e+00
  2.0009463e-01
  2.7703929e-01
  4.0479565e-01
  5.1835227e-01
  7.0351267e-01
 -3.0095240e-01
  9.3028593e-01
  3.1386685e-01
 -3.1929243e-01
 -2.0072834e+00
 -2.3153024e+00
  5.1135004e-01
 -1.2688253e+00
 -2.7335039e-01
  1.4619352e+00
 -8.1251925e-01
 -1.9968653e-01
  5.7659435e-01
  1.1636219e+00
  3.3190662e-01
  5.5760390e-01
  3.0038862e+00
 -1.4056205e+00
 -1.5302317e+00
  1.1248734e-03
 -1.6434453e+00
  1.6304357e+00
 -2.0783823e+00
  1.4147359e-01
  1.5084567e+00
 -4.5020208e-01
  8.4125441e-01
  2.5029263e-02
 -3.3795340e+00
 -3.1400597e+00
 -4.6922091e-01
  1.0317239e+00
 -1.4815146e+00
  1.4154674e-01
  4.0061036e-01
 -2.2037162e-01
 -1.5192294e-02
  3.8168234e-01
  1.4243820e-01
 -1.4649321e+00
  1.6582926e-01
  2.5264275e+00
  6.3031811e-01
  3.4250211e-02
  1.5908116e+00
  2.4543314e+00
 -2.4926682e+00
  8.4602427e-01
 -7.1964025e-02
  3.1424315e+00
 -4.8473382e+00
  1.0655760e+00
  7.9617268e-01
 -3.6492261e-01
  9.0686280e-01
  2.8110006e-01
  3.6832574e-01
 -3.6312309e-01
  1.9694529e-01
  1.0725778e+00
  1.4034867e+00
 -1.3669091e+00
 -1.3117619e+00
  1.0753869e+00
 -2.3326440e+00
 -9.9716061e-01
  8.7564655e-02
 -3.2324295e+00
  7.1989709e-01
  4.7501139e-02
  7.2133547e-01
  5.5984354e-01
 -4.0935332e-01
 -2.0802818e-01
 -5.3078437e-01
  5.3323632e-01
 -2.0126548e+00
 -1.0494589e+00
 -2.1486859e+00
 -2.3631527e+00
  2.2127192e+00
  1.6042773e+00
 -3.0327266e-01
  1.1099347e+00
  3.1850418e-01
 -1.9997170e+00
  5.5178136e-01
 -1.3096514e-01
 -3.5602862e-01
  6.2593347e-01
 -3.0692067e+00
  1.7229646e+00
  1.7658638e+00
 -2.4803283e+00
 -1.8457593e+00
  1.9121115e-01
  6.7989737e-01
 -1.0926392e-01
 -6.9955850e-01
 -1.4582673e+00
  1.8323390e+00
  5.1797467e-01
 -2.8471317e-02
  4.1628036e-01
 -3.5372809e-01
  3.7415916e-01
 -1.5402852e-01
  1.0642231e-02
  6.4196968e-01
  2.8712925e-01
 -1.0914741e+00
 -4.8482418e-01
 -1.9398147e+00
  4.4422299e-01
 -6.2898517e-02
 -7.7100545e-01
 -7.0642042e-01
  6.4913559e-01
  7.4686301e-01
 -3.5419202e-01
  2.5612175e-01
  5.2598262e-01
 -4.6631521e-01
 -4.4065261e-01
  9.1257203e-01
  1.5739740e+00
  9.8065093e-02
  2.5462586e-01
 -7.0337795e-02
 -9.8756522e-01
 -1.0468401e+00
 -7.2078711e-01
  1.7021281e+00
  1.2279377e+00
  2.4317093e+00
 -1.1739281e+00
 -3.1195036e-01
 -7.0217830e-01
 -1.1547573e+00
 -3.5335216e-01
  3.1652880e-01
  4.4985557e-01
 -4.2728242e-01
  6.4040817e-02
  8.0280226e-01
  1.2293764e+00
 -1.4701879e+00
 -6.3524199e-01
 -5.4330450e-01
 -2.0775551e-01
 -7.1280122e-01
 -6.9566441e-01
  4.2590296e-01
  3.6050210e+00
  3.5104499e+00
  3.6099392e-01
 -2.6449630e+00
  7.7005252e-03
  1.4833872e+00
 -1.4284509e+00
  4.2937684e-01
  1.3715931e+00
 -1.6250366e-01
  6.9866963e-02
 -1.7506656e-01
 -1.0761932e+00
  4.7969776e-01
  1.0045469e+00
  1.3488646e+00
 -1.2893404e+00
  1.8877202e+00
  1.9278400e+00
 -2.3697321e-01
  6.3426352e-01
 -3.3461690e-01
 -6.3920230e-01
  5.3841881e-02
  2.8134048e-01
  8.5319370e-01
  9.8679304e-01
 -2.3482909e+00
 -5.3932554e-01
  2.4316229e-01
 -1.3863864e+00
  8.6146313e-01
 -2.7411668e+00
  4.1035348e-01
  8.1268519e-01
  1.3208671e+00
 -3.8905782e-01
 -1.4331080e+00
 -2.3191938e+00
  7.2096962e-01
  3.2752757e+00
 -5.5297282e-02
 -8.8074630e-01
  1.9961207e-01
  1.9283719e-02
  7.6508676e-03
 -1.3077173e+00
 -7.1550697e-01
 -4.0514767e-01
  4.1335640e+00
  1.0013633e+00
 -8.4706312e-01
 -1.6311033e+00
 -9.7971016e-01
 -3.0628882e-02
 -1.4902353e+00
  3.5873240e-01
 -3.3301517e-01
 -1.0851876e+00
  2.8621346e-01
  3.6332685e-01
  5.3722042e-01
 -4.0263572e-01
 -2.4103520e+00
  3.1844363e-01
  5.7474655e-01
  1.3973057e+00
  3.6338717e-01
  7.8335708e-01
  1.4300725e+00
 -1.1315768e+00
  1.2163750e+00
 -3.9911002e-01
  1.9553965e+00
  2.0833701e-01
 -1.5667266e+00
  3.2232511e-01
 -4.3105516e-01
  1.9493008e+00
  1.1240171e+00
 -8.0625767e-01
  6.4556694e-01
 -4.7872841e-01
  6.1885530e-01
 -1.7821974e+00
 -4.1825539e-01
  2.5978002e-01
 -2.0119450e+00
 -1.2596571e+00
 -4.5057446e-01
 -3.2535296e-02
 -6.1995167e-01
 -3.9165562e-01
 -7.2062498e-01
 -6.1505567e-02
  1.9203480e-01
  1.2259365e+00
  6.2030041e-01
 -1.4945383e+00
  1.0202572e-01
 -2.0682228e+00
 -1.3964185e+00
  8.1597286e-01
  9.3686980e-01
 -5.9883170e-02
 -1.1621411e+00
 -2.4515164e+00
 -2.5431572e-02
  1.3371818e+00
 -1.1013644e+00
 -6.3144076e-03
 -3.9441100e-01
 -2.8332677e-02
 -3.7344220e+00
 -1.6819470e-01
  2.4857643e+00
 -2.3106909e+00
  1.7135326e+00
  7.7697176e-01
 -2.3706329e+00
 -6.8065083e-01
 -1.0028081e+00
 -5.3856659e-01
 -6.1077356e-01
 -1.0265931e+00
  1.8893236e+00
  4.9997234e-01
 -6.7031898e-02
  3.8278934e-01
  1.3962814e+00
  1.9934751e-01
  7.9503581e-02
 -9.4109541e-03
  2.9045856e-01
  5.9695572e-01
 -1.9102205e+00
 -1.0197016e+00
 -6.4639986e-01
 -5.4840928e-01
 -9.3216795e-01
  7.9301465e-01
  2.8833399e+00
  3.0841351e+00
  2.0847870e-01
 -8.3408922e-01
  5.3700536e-01
  2.9800731e-01
 -1.3891221e+00
 -8.6695300e-03
 -4.4628251e-01
  1.3828789e+00
 -3.9680657e-01
  3.8289195e-01
 -3.8453925e-01
  7.6250452e-01
  1.2426950e+00
  1.3258300e+00
 -6.6130713e-02
  1.3226451e+00
  1.2488351e-01
  1.7755495e-02
  9.2521936e-01
 -1.2625372e-01
 -4.8355174e-01
 -1.1353036e+00
  1.0930136e-01
  1.0482785e+00
 -1.8815497e+00
 -1.5082726e+00
 -3.8188727e+00
 -3.2740419e+00
  1.7595892e+00
 -1.8648850e+00
  7.5462312e-02
  1.0923979e-01
  1.9973251e+00
  1.7511246e+00
 -6.7214531e-01
  1.2210134e+00
 -1.7703469e+00
  3.1310374e-01
 -7.4826688e-01
  1.2469693e+00
 -1.5710027e+00
 -9.0652710e-01
  3.3763912e-01
  1.2225221e+00
 -3.0467820e+00
  2.8543279e-01
 -5.9241281e+00
 -7.7874112e-01
 -1.3752533e+00
 -1.7580745e+00
  9.8389387e-01
  2.7912540e-02
  4.4867858e-01
  1.9661486e-01
  1.7693237e+00
  7.5194490e-01
  2.9868153e-01
  2.9676247e-01
 -5.0131440e+00
 -2.3417668e+00
 -2.2036428e+00
 -5.6854343e-01
  1.7581096e+00
 -1.3338120e+00
 -3.6232886e+00
  7.2011127e+00
 -1.1518718e+00
  1.2910502e-01
  1.9050605e+00
  1.0291073e+00
 -1.0741284e-01
  2.4491067e+00
  1.2877364e+00
  2.6019139e+00
 -1.1475140e+00
  2.5114465e+00
  1.2114840e+00
  1.4112610e+00
  1.6453183e+00
 -1.5609163e+00
  7.0137566e-01
  3.1968093e+00
 -1.5256286e-01
  6.3255179e-01
 -9.4681293e-01
 -1.1908214e+00
 -1.1751252e+00
 -2.0641322e+00
  3.9542726e-01
  5.9724194e-01
 -7.3042017e-01
 -3.6086887e-01
  1.4481473e+00
 -5.0136566e-01
  1.2542986e+00
 -2.0003724e+00
 -1.2371902e+00
  1.2170516e+00
  1.3105478e+00
  6.4948958e-01
  4.6080598e-01
 -2.1683028e+00
  1.7280281e+00
 -6.3428372e-01
  8.4740520e-02
 -5.6620342e-01
 -2.9648843e-01
  5.3095430e-01
  5.7431906e-01
 -4.0879247e-01
  5.3323227e-01
 -3.0374923e-01
  8.7262250e-02
  7.9756027e-01
 -4.0074450e-01
  1.2383503e-01
  1.3225830e+00
 -7.0025009e-01
  4.2856780e-01
  1.5366727e-01
 -5.6297284e-01
  3.4632614e-01
  9.9240012e-02
 -9.6611023e-01
 -4.0673143e-01
 -2.2220962e-01
  3.6737812e-01
 -5.9759206e-01
  3.1097291e+00
  8.0061877e-01
 -1.0836585e+00
  1.6705290e+00
 -4.3721679e-01
 -2.2552143e-01
 -1.0529829e+00
  2.8000717e+00
 -8.6199576e-01
 -4.9762195e-01
 -4.5153046e-01
  2.6290636e+00
  1.8164128e-01
  5.3099054e-01
 -9.0783900e-01
 -4.6782669e-01
  7.5365633e-01
  1.8177967e+00
 -1.1344224e+00
 -3.7015107e-02
  7.6227295e-01
  8.2528210e-01
  4.6583362e-02
 -8.2001883e-01
 -1.2961042e+00
 -2.6209626e-01
 -1.6377565e+00
 -1.9126453e+00
 -4.9645200e-01
 -1.3182624e-01
  2.1924012e+00
  1.6180365e+00
 -2.6817596e-01
  1.1474431e+00
  7.8943592e-01
 -2.3755887e+00
  1.8022319e+00
 -2.6885843e+00
 -1.7622739e+00
 -7.6808971e-01
  1.2590384e+00
  2.0111634e-01
  7.1820039e-01
 -1.1580199e+00
  3.9009476e-01
  3.5008698e+00
 -3.5453959e+00
 -1.0597401e+00
  6.4355046e-01
 -4.7890970e-01
 -5.0299037e-01
  5.1955479e-01
 -1.4411371e+00
  3.7094516e-01
 -1.4064677e-02
  6.9596308e-01
 -2.0529822e-01
 -1.1361458e+00
  1.3437264e+00
  5.1175845e-01
 -3.3691051e+00
  2.1090009e+00
  1.3319837e+00
  8.1898153e-01
  2.7406555e-01
  3.6184108e-01
 -2.8966275e-01
  6.8900645e-01
  5.1369309e-01
 -1.7252117e-01
  3.6592419e+00
  6.9066942e-01
 -2.5005937e+00
 -4.2651558e-01
  1.1479962e+00
 -2.1017630e+00
  2.7772209e-01
 -1.8896179e+00
  7.8448778e-01
  2.2410684e+00
  2.8339787e+00
 -7.6128066e-01
 -3.3415887e-01
 -2.1985207e-01
  1.1307271e-01
 -1.6114488e+00
 -1.5322132e+00
 -7.5186855e-01
  1.1031800e-01
  1.1798017e+00
  8.6771721e-01
 -1.5804732e+00
 -1.4160593e+00
 -7.3869777e-01
  9.4690955e-01
 -3.5975283e-01
  1.2041851e+00
 -7.1343839e-01
 -6.5596533e-01
  5.8536786e-01
 -1.9999871e-01
 -3.7575737e-01
 -4.4768950e-01
  5.6461388e-01
  3.2355392e-01
 -1.4791958e+00
 -3.0116165e+00
  5.3052092e-01
 -1.9061071e+00
  7.5803131e-01
  1.8307760e+00
  2.6243329e+00
 -1.5454074e+00
 -2.0054127e-01
  5.8439419e-02
  2.3962595e+00
 -2.0706358e+00
 -3.0242620e+00
 -5.7570958e-01
 -8.4133637e-01
  4.1825585e+00
 -1.9683735e+00
 -1.3158236e-02
  1.4419330e+00
 -4.1954151e-01
  9.0791696e-01
 -1.4651400e+00
 -1.1444063e+00
  2.2214174e+00
  9.6630871e-02
 -3.9985447e+00
  3.6867280e+00
 -3.7522051e-01
  2.4435866e+00
  2.1780839e+00
 -1.5165843e-01
 -5.0661910e-01
  9.8640120e-01
 -3.8407356e-01
 -1.5540804e+00
  3.9309900e+00
  1.1422125e+00
 -4.6813588e+00
 -1.9872621e+00
  1.9502963e+00
 -1.3185594e+00
 -5.8013833e-01
  7.4506319e-01
 -1.3868260e-01
 -8.0039594e-03
 -2.9812872e-01
 -4.5006675e-01
  7.1023828e-01
  8.1925017e-01
 -4.4980747e-01
  8.3910429e-01
  8.4679103e-01
 -6.1429024e-01
 -5.6881118e-01
  1.2891730e+00
 -7.5924569e-01
 -1.5170554e+00
  9.7659320e-01
  6.4742893e-01
  2.1687776e-01
  2.6942906e+00
 -7.5987947e-01
  3.7445536e-01
 -3.5667399e-01
 -1.0252258e-01
 -1.9233713e-01
 -1.0282769e+00
  1.3324471e-01
  2.2920039e-01
  1.6693857e-01
 -1.6112266e+00
 -2.3312424e-01
  6.5774208e-01
 -4.3295753e-01
  1.4485498e-01
  8.6737031e-01
 -4.6615988e-01
  1.4620619e+00
  3.0715376e-01
 -1.2366235e+00
 -1.1233135e-01
 -2.2546630e+00
  7.1880347e-01
  2.3725134e-01
 -2.5353448e-02
  4.0652713e-01
 -8.9453888e-01
 -2.9131997e-01
  8.6114472e-01
 -6.3833284e-01
  1.5513428e+00
  1.2980040e+00
  1.2668266e+00
 -7.8285676e-01
 -5.8670288e-01
 -2.7413890e+00
 -2.9400608e-01
 -6.0060937e-02
  2.3853669e-02
 -3.2991114e-01
  6.1486274e-01
  3.8196084e-01
  6.7840534e-01
 -2.5214586e-01
 -1.8029763e+00
 -3.5745316e+00
  7.5202692e-01
 -9.1499221e-01
  4.5823425e-01
  1.8705937e+00
  5.4653323e-01
  2.3185890e+00
 -2.4271216e+00
 -1.4178967e-01
  6.9934738e-01
  3.1571889e-01
  1.1140705e+00
 -7.0100468e-01
 -4.8846267e-02
  1.1761782e+00
  9.8051116e-02
  4.2611670e+00
 -1.5852200e+00
  2.2467721e+00
 -2.1648791e+00
  1.9256561e+00
  2.0254865e+00
  4.1717276e-01
  8.4334338e-01
  2.1223769e-01
  1.4167360e+00
  1.7043037e+00
  8.2016039e-01
  8.4556299e-01
 -8.6349195e-01
  1.0492311e-01
  1.1874890e+00
  8.8235512e-02
 -8.4860004e-02
  3.8956481e-01
  1.4798957e+00
  1.1714329e+00
 -3.2253587e+00
 -1.5878893e-01
 -1.9820638e+00
  3.7085788e+00
 -5.6030732e-01
 -3.7748474e-01
  6.5786791e-01
  5.4476863e-01
 -1.8928696e+00
 -2.4590418e+00
 -3.9286432e-01
  1.3088569e-01
  4.8243642e-02
 -8.0057424e-01
  3.7101927e-01
  4.3215463e-01
  1.2116940e-01
 -1.8108058e+00
 -1.9873365e+00
  2.1640434e+00
 -1.1235691e+00
  1.2288085e+00
 -9.9388969e-01
 -3.4086978e-01
  1.3365468e+00
  1.1759619e+00
  7.3648888e-01
  5.0996631e-01
 -8.9863127e-01
  1.5565139e-01
 -5.2194791e-03
  9.6316451e-01
 -6.0772729e-01
  6.3816600e+00
  1.3191196e-01
 -1.4845104e+00
 -4.9705467e-01
 -1.7935600e+00
  4.5373359e+00
  9.5313090e-01
 -1.1529462e+00
 -1.2989458e-01
 -3.8892202e+00
  6.9793344e-01
  1.3247106e+00
 -3.1269538e+00
 -1.3054016e+00
 -2.0877585e+00
  1.4715471e+00
 -1.6781690e+00
 -1.2018743e+00
 -1.4962311e+00
 -1.5972658e+00
 -2.7648173e-02
 -1.7929410e+00
  2.2080993e-02
 -2.8121240e+00
 -1.7200072e+00
 -2.0343089e+00
 -1.2880152e+00
  1.3643985e+00
 -3.7226480e-01
 -2.1474411e-01
  7.3444039e-01
 -2.0388706e-01
  9.7319491e-02
  3.4447041e-01
  1.1834838e+00
 -1.6842436e+00
 -2.6252518e+00
 -1.5718251e+00
 -2.6407599e+00
  2.0345511e+00
  2.2169352e+00
 -7.1546382e-01
  1.2548640e+00
  1.9975564e-02
 -5.0307298e-01
  1.1579186e+00
 -1.1617013e+00
  3.9845200e+00
 -1.5618628e-01
 -2.2026132e-01
  1.2610924e+00
  5.0984669e-01
  1.5080169e+00
 -7.3334545e-01
  6.3893700e-01
  4.9835303e-01
  7.9095021e-02
  3.7925154e-01
  1.5415488e+00
 -4.0797421e-01
  7.2454762e-01
  1.0880148e-01
  1.2009052e-01
  2.8593057e-01
  8.9679807e-01
 -6.0542232e-01
 -4.5238298e-01
  5.9246957e-01
  1.0123535e-01
 -1.1678294e+00
 -2.9509082e-01
  8.0975229e-01
  1.4403231e+00
  1.4177008e+00
 -1.5999876e+00
 -3.9080948e-01
  2.2393833e-01
  2.6942391e+00
 -4.3163842e-01
  2.5214460e-01
 -7.6590747e-01
  3.1467593e+00
  1.2881969e+00
  2.2915913e-01
  3.4305701e+00
 -1.3690474e+00
 -4.8301303e-01
 -1.7650415e+00
  4.4048718e-01
  6.3572514e-01
 -3.1129198e+00
  2.8504314e+00
  1.4114466e+00
  1.5066845e+00
 -1.4368778e+00
  1.7191209e+00
  2.0317976e-01
 -2.6678565e+00
 -1.1280978e-01
 -7.9302943e-01
 -5.1431847e-01
 -9.9178451e-01
  8.2432702e-02
 -7.7884048e-02
 -3.0868119e-01
  1.7125165e+00
  1.3988668e+00
 -1.2835071e-02
 -2.0407503e+00
  2.2861052e+00
 -2.0253084e+00
 -3.4404542e+00
  6.3170052e-01
 -4.5384130e+00
 -2.0928078e+00
  3.3192623e+00
  4.0171165e+00
  1.1480253e+00
  9.7618610e-01
 -1.5443701e+00
  3.0484862e+00
  1.0782491e-01
  4.9602717e-01
 -5.2077308e-02
  2.2186594e+00
  2.1778173e+00
 -6.0579544e-01
  1.1348023e+00
 -1.3868817e+00
  9.7237468e-01
  7.1222693e-01
 -3.4577503e+00
 -4.0625900e-01
  4.9145326e-01
 -1.2379999e-01
 -1.4115776e+00
 -1.1033091e-01
 -1.6513988e-01
 -8.5020792e-01
  8.6249661e-01
  4.1931367e-01
  1.0725889e+00
 -4.5660943e-01
 -8.4920830e-01
  2.5272751e+00
 -8.9997590e-01
  8.6865109e-01
  3.0980250e-01
  1.1512679e+00
  1.4052171e-01
 -4.0012592e-01
  1.2393316e+00
 -1.3629569e+00
  7.3273605e-01
 -1.7026912e+00
 -1.5068853e+00
  1.2757894e+00
 -6.5218085e-01
  1.5738131e+00
 -2.6919332e-01
  2.3888765e-01
  5.5096197e-01
  3.6079007e-01
  6.5647846e-01
 -4.5447022e-01
  2.2230930e+00
  3.9685771e-01
  2.1795940e+00
 -8.3113259e-01
 -8.6870305e-02
 -1.3607832e+00
  4.9925055e-02
  7.6038861e-01
 -1.1830716e-01
  6.5367103e-01
 -4.5946965e+00
 -1.9326590e-01
  8.4180641e-01
 -9.1501760e-01
  7.3980737e-01
 -1.8929936e+00
 -1.0296874e+00
  9.4545889e-01
  1.9532198e+00
  9.4385886e-01
 -8.6463737e-01
  2.7439885e+00
  8.3394313e-01
  3.5719275e-01
 -3.8681725e-01
  2.1611089e-01
  1.0589162e+00
  1.6528646e+00
  7.5602978e-01
  2.4822572e-01
 -2.4571426e+00
  3.0971601e+00
  1.8412077e+00
  2.7307570e-01
 -4.8518115e-01
  1.4491044e-02
 -2.0589077e+00
  2.0548639e+00
 -1.0053760e+00
  1.3884014e+00
 -1.5276653e-01
  8.8175505e-01
 -1.9289116e+00
  2.5060639e+00
 -1.7575766e+00
 -6.2611647e+00
  8.3136404e-01
 -4.7747564e-01
  1.0764251e-01
 -4.0238633e+00
  2.6298127e+00
 -5.2325833e-01
 -4.5297356e+00
  1.9186536e+00
 -7.6977277e-01
 -2.6772103e-01
  1.8786789e+00
 -3.0524909e-02
 -5.4982585e-01
  4.8400918e-01
  5.6229538e-01
  6.0326058e-01
  2.7007034e-01
 -7.0020568e-01
  5.3893131e-01
 -1.0135316e-02
  6.6410148e-01
 -9.0608871e-01
  1.6338139e+00
  2.6825998e+00
 -3.3773794e+00
 -8.5922730e-01
  8.5699171e-01
 -6.0481644e-01
  3.3858288e-02
  1.1823030e+00
  3.8353536e-01
  1.6147870e+00
  4.8787110e-02
  1.5508106e-01
  6.5228281e+00
  5.7534254e-01
  4.0154728e-01
  1.0501782e+00
  1.0063756e+00
  2.3004198e+00
  2.8709745e+00
 -3.7897000e+00
 -9.3793023e-01
 -5.0848842e-01
  2.0926547e+00
  1.8274385e+00
  5.8897859e-01
 -3.6236927e-01
 -1.1133746e+00
  1.7629145e+00
  5.5146462e-01
 -1.5158688e+00
 -7.4513447e-01
  2.4103262e+00
  1.6168756e+00
 -2.6535604e+00
  6.7010790e-01
  4.4357443e-01
  7.1059722e-01
 -5.2889128e+00
  5.6736261e-02
  1.3659014e+00
 -6.3454884e-01
 -1.3006181e+00
  2.9066169e-01
  1.3151901e+00
 -1.0599638e+00
 -5.7708025e-01
 -5.4485458e-03
 -1.7707876e+00
 -3.2385867e+00
  1.8197926e+00
  1.7370187e-01
 -6.5078050e-01
 -3.9621645e-01
 -3.8248605e-01
 -5.3816895e+00
  4.5879704e-01
  2.1560460e-01
 -1.1023852e+00
  4.2924867e+00
 -5.0200409e-01
  5.0259900e-01
 -7.5682849e-03
  4.2307897e+00
 -2.6745725e+00
  8.1869590e-01
  8.0023378e-02
 -2.9472275e+00
 -1.3958833e+00
  3.3840986e-03
  1.2241150e+00
  5.0496602e-01
  9.0954125e-01
  6.7810482e-01
  1.3892963e+00
  9.8323071e-01
  1.0777512e+00
 -2.1187028e-01
  7.3670691e-01
 -1.6940473e+00
  5.4705441e-01
  6.0379708e-01
 -5.5703562e-01
 -2.1007047e+00
 -6.6280371e-01
  1.8531375e+00
  9.3282841e-02
 -1.7334212e+00
  1.1381677e+00
  8.8723105e-01
 -8.7580733e-02
  2.8652134e+00
  2.1719253e+00
 -2.3639624e+00
 -5.8690441e-01
  6.7208636e-01
  1.6007338e+00
 -1.0325985e+00
 -3.8031152e-01
  3.9234325e-01
 -2.5042543e+00
  1.1513444e+00
 -3.9504024e-01
 -1.1527069e+00
 -1.6276404e+00
 -1.7577651e-01
 -1.3600833e+00
  6.7402482e-01
  4.4323912e-01
 -2.7118269e-01
 -4.6630406e-01
  2.0032917e-01
 -1.6529842e-01
  5.5753237e-01
  9.1975260e-01
 -6.1808920e-01
  2.5494856e-01
 -2.2327961e-01
 -1.5865856e-01
 -3.5997989e+00
  9.5249635e-01
  5.2459633e-01
  2.0509741e+00
 -3.4450677e-01
  9.8725790e-01
 -1.2467387e+00
 -1.5711879e+00
  2.1122987e+00
  5.6443983e-01
 -1.4946510e+00
 -2.8446310e+00
  5.5852175e-01
 -7.2846842e-01
 -1.0822309e+00
  3.7118924e-01
 -5.2392769e-01
  6.9352466e-01
  6.3842094e-01
 -4.1376050e-03
  2.3422091e+00
 -3.4979671e-02
  1.1148732e+00
  9.0267928e-03
  1.0274919e+00
 -1.5030680e+00
  4.5149255e-01
  4.3329629e-01
 -6.6821605e-01
  3.7928429e-01
  6.5079588e-01
 -1.4094526e-01
  6.3515574e-02
 -1.1541646e-01
 -3.4697247e-01
 -4.3358302e-01
  1.0789205e+00
  2.4120810e+00
 -4.3316579e+00
 -2.1856800e-01
  3.0177727e+00
  2.5124688e+00
  6.1936343e-01
  5.2244103e-01
 -3.7594204e+00
  3.2413008e+00
  1.0034565e+00
 -3.4982046e-01
  1.0749820e+00
  6.3710964e-01
 -3.3908226e+00
  3.1456658e-01
 -8.0467695e-01
 -6.1297274e-01
 -1.3099762e+00
 -9.4158638e-01
 -3.3080258e+00
 -7.8133601e-01
  5.9399420e-01
 -1.2058724e+00
  9.7161925e-01
  1.4605434e+00
 -3.3088672e-01
 -6.0148311e-01
 -2.1695390e-02
 -1.5778850e-01
 -5.6951845e-01
  2.4667373e-01
 -1.2033324e+00
 -5.4057693e+00
 -2.7966511e+00
 -2.2223663e+00
 -3.4104121e+00
  7.0498544e-01
 -4.0072026e+00
 -3.8146603e+00
 -1.0382105e+00
 -2.2346798e-01
  7.0409611e-02
 -1.1035877e+00
  2.4113045e+00
  3.2392597e+00
 -6.4804012e-01
  3.1337890e-01
 -8.6329335e-01
  3.5467257e+00
 -3.1716588e-01
  1.9593711e+00
  2.4860877e-01
  2.2076431e-03
  1.6753503e+00
 -6.3418031e-01
  2.5668889e-01
  1.4720808e+00
  1.3175449e+00
 -1.4010645e+00
 -2.9242352e-01
  2.2053067e-01
 -1.9612346e+00
 -2.3442369e+00
  2.3448047e-01
  3.9258730e-01
 -1.7468601e-03
  4.3143734e-01
 -1.0189770e+00
  1.2532681e-02
  1.0489964e+00
  1.5934800e+00
  2.7626383e+00
  6.8011892e-01
  1.1968142e+00
 -1.2320211e+00
  7.0990987e-02
 -3.9762771e-01
 -5.4190212e-01
  4.2932968e+00
 -8.3194578e-01
 -4.0856647e+00
  2.7084979e-01
  1.0889885e+00
  1.9421185e+00
  3.0748460e-01
  6.2635297e-01
  1.1166459e+00
  5.3190088e-01
  5.9071821e-01
 -1.6264166e-01
 -8.6532712e-01
  2.2019708e+00
 -7.8933233e-01
 -9.7811824e-01
 -5.9904331e-01
  2.0752869e+00
  1.1963029e+00
  5.2696168e-01
 -9.5831299e-01
  4.0371668e-01
 -8.1964707e-01
  1.7739071e-01
 -3.8432455e-01
 -8.6499238e-01
  1.8827428e+00
  5.3487563e-01
 -5.5705935e-01
 -7.8928548e-01
  3.5047624e-01
 -2.0924346e+00
  9.5957339e-02
  3.4159613e-01
 -6.6340619e-01
  2.2410321e+00
 -4.2629060e-01
 -3.3140579e-01
  7.1720898e-02
 -3.0234704e+00
  1.8559408e+00
 -3.0734473e-01
  1.5004277e+00
  1.7868046e-01
  2.5098977e+00
 -3.4630334e+00
  2.3534069e+00
 -8.2563472e-01
 -8.5287493e-01
 -3.2742441e-01
 -3.7008777e+00
  2.7411958e-02
 -1.2123203e+00
  6.6229314e-01
 -1.4239591e-01
  2.5693008e-01
 -2.2439251e+00
  4.9398002e-01
 -6.5043652e-01
 -1.9016160e-01
 -5.7100666e-01
 -1.9671984e+00
  2.0972047e+00
  2.0697041e+00
  3.9742407e-01
 -2.9364321e+00
  6.7976899e-02
  5.6284845e-02
 -1.0786322e+00
  8.9587951e-01
  8.4974098e-01
 -1.8798777e+00
  1.2068037e+00
  6.0677439e-01
  1.3948312e+00
 -2.1057320e+00
 -3.1137006e+00
  8.5473418e-01
  9.2510521e-01
  2.7782891e+00
 -3.0725791e+00
 -4.5015931e-01
  1.0621183e-01
 -1.5713443e+00
  1.0441716e-01
 -1.3246436e+00
  3.7455675e-01
  7.2147572e-01
  6.3153863e-01
 -4.6336144e-01
 -1.7366712e+00
 -1.3748811e-01
  6.5705216e-01
 -8.1838566e-01
  6.4350348e+00
  2.9096358e+00
 -5.1524091e-01
  2.9078889e-01
  6.5996939e-01
  1.0814836e+00
  1.0355425e+00
 -3.5171902e+00
 -7.1231383e-01
 -9.8859417e-01
  4.4137311e+00
  1.7858762e+00
 -5.4432311e+00
 -4.2802605e-01
 -2.3124950e+00
  2.8794284e+00
 -1.2627419e+00
 -2.0972643e+00
  1.8802407e+00
 -1.4923562e+00
 -9.8559254e-01
 -2.0105717e+00
  5.1978936e+00
 -4.5556936e-01
 -2.2292566e-01
  1.6149364e+00
  1.2075658e+00
  3.2445833e-01
  2.1362042e-02
 -1.0775896e+00
 -8.0626503e-02
 -3.5041678e-01
  3.5699800e-01
  5.8647311e-01
 -3.1389257e-01
 -2.3892529e+00
 -1.8921887e+00
 -3.3504789e+00
 -1.4769232e+00
 -1.3629115e+00
 -3.6207432e-01
  2.6182582e+00
  2.4196601e+00
 -4.1881311e-01
  1.8451262e+00
  3.5915825e-01
  5.1671238e+00
  1.8021077e-01
 -3.7447780e-01
  9.5503306e-01
 -2.5012622e+00
 -1.7362889e-02
 -4.2311555e-01
  5.7330078e-01
  3.6340413e+00
 -3.8747784e-01
 -1.1448430e-02
 -5.1674002e-01
  1.5823054e+00
 -1.9607815e+00
  4.6173339e+00
 -7.0586234e-01
  1.3979609e+00
 -1.6793407e-01
 -1.5944088e+00
 -7.3994553e-01
 -7.7671051e-01
 -1.3018737e+00
 -1.3699425e+00
 -8.7397277e-01
 -1.4897964e+00
  8.6196736e-02
  4.8446029e-01
  7.1572942e-01
 -2.5519586e+00
 -8.6457640e-02
  5.7782108e-01
  1.9393765e+00
 -2.3479769e-02
  7.1275055e-01
 -2.8696203e+00
  1.4183993e+00
 -1.2577573e+00
 -8.9675598e-02
 -1.9082841e-01
 -1.0044808e+00
 -8.7110084e-01
  5.8568990e-01
  1.3542615e+00
  3.3279267e-01
  7.1664262e-01
  7.7966905e-01
  6.8203163e-01
 -1.6276993e+00
 -1.7686958e+00
  9.1065001e-01
 -3.8518825e-01
  2.6471826e-01
 -6.2817675e-01
 -4.8798776e-01
 -3.9405718e-01
  3.8769192e-01
 -1.7515079e+00
  2.6225209e-01
  2.7202586e-02
  2.3308282e+00
  4.8924378e-01
 -1.3128898e+00
 -2.0158856e+00
 -1.4269307e+00
 -4.8006415e-01
 -2.0853281e+00
 -3.0355828e+00
  2.2618959e+00
 -1.1202775e+00
  2.1779253e+00
  5.4862225e-01
 -1.6723478e+00
 -1.9752185e+00
  8.6555117e-01
 -9.7688687e-01
  1.5115870e+00
  2.3859604e-01
  1.2649909e+00
  2.2030838e+00
  4.1122847e+00
  6.1088562e-01
 -3.5606557e-01
 -1.0269784e+00
 -5.3927451e-01
  2.4479346e-01
 -1.4296380e+00
  2.2900302e+00
 -1.9244024e+00
 -8.9542055e-01
 -4.6671417e-01
  1.6886529e-01
  4.8030278e-01
 -9.7760670e-02
 -9.7371459e-01
  1.3835907e-01
 -6.6178578e-01
  9.6733564e-01
 -4.6963421e-01
  9.1137576e-01
  1.6624451e+00
 -7.5183317e-02
  5.8107805e-01
 -3.3588126e-01
  1.4429274e-01
  4.6226132e-01
 -2.0184216e+00
 -1.4880861e+00
 -2.9813254e+00
 -2.6702452e-01
  8.3098310e-01
 -3.9957385e+00
  3.6739230e-02
 -1.3895377e+00
 -7.9810548e-01
 -3.7752420e-01
 -8.2411760e-01
  9.1929287e-01
 -9.6470624e-01
 -1.4844846e+00
 -1.3216250e+00
 -1.6766812e+00
  1.7313166e-01
 -1.6300682e+00
  5.0901625e-02
 -5.2168095e-01
 -1.8274480e-01
 -1.8013361e+00
 -5.0043464e+00
  1.9783608e+00
  3.8512387e+00
  1.2014434e+00
 -3.2301468e-01
 -1.5030807e+00
 -8.6045527e-01
  7.7271903e-01
 -1.9989060e+00
 -1.9000409e+00
 -1.0620252e+00
 -1.2379041e+00
  2.3193625e-01
 -1.3925755e+00
 -8.3601779e-01
 -7.9524183e-01
 -3.5782754e-01
 -3.0998287e+00
  2.6440535e+00
 -8.9741343e-01
 -4.3153253e-01
  2.2049069e+00
 -2.5674348e+00
 -1.5989677e+00
 -1.5895841e+00
  4.7502864e-02
  2.2607024e+00
 -2.9932919e+00
  2.1425285e+00
 -2.6117985e+00
  2.9406670e-01
  1.6000949e+00
 -2.6067024e-01
 -7.1888942e-01
  1.3237659e+00
 -7.7165431e-01
  6.1785513e-01
  4.6299976e-01
  3.4103337e-01
 -1.0272095e+00
 -9.5829201e-01
  7.0752364e-01
 -4.2462304e-01
  8.6234564e-01
  1.8406845e+00
 -3.8957611e-01
  5.4849839e-01
 -2.2256634e+00
  3.4386804e+00
  3.7560683e-01
 -6.6958404e-01
  2.3495200e-01
  4.6508262e-01
  2.0411517e-02
  1.0827330e+00
  5.9405363e-01
  4.7930697e-01
 -1.0252141e+00
  1.4179002e+00
  1.4331497e+00
  2.0870943e+00
 -5.6401366e-01
 -1.0283107e+00
  8.6569369e-01
 -5.8878142e-01
  2.4200830e+00
 -4.8003224e-01
  4.7768447e-01
 -4.5329246e-01
 -1.1723402e+00
 -2.7798247e-01
 -2.6535648e-01
  1.1154658e+00
 -2.8575065e+00
  2.5639958e+00
 -2.2737570e+00
  1.3223295e+00
  3.0902457e-01
  6.8269324e-01
  1.1572104e+00
 -7.8980112e-01
 -5.1702094e-01
  2.2374785e+00
  1.4522433e-01
 -3.3631527e+00
 -1.0685924e+00
 -4.6334600e-01
 -7.7284980e-01
 -2.3941224e+00
 -3.6598799e-01
 -1.1271716e+00
  1.1486887e+00
  6.1763313e-02
 -1.3624284e+00
 -2.1142881e+00
 -1.1794508e+00
  3.8615045e-01
  8.4398508e-01
  1.3269441e+00
  1.0664496e+00
  5.4714191e-01
 -1.2498963e+00
  3.7594524e-01
 -1.9750391e-01
  9.2477107e-01
  1.1423391e+00
 -6.3700818e-02
  4.0709434e+00
  2.7192731e+00
 -2.4026659e+00
 -3.4294859e-01
 -2.3744428e-01
 -7.1275759e-01
 -1.5354722e+00
  1.5511609e+00
  3.9615542e-01
 -4.0785155e-01
  1.5747055e+00
 -1.6184845e+00
  9.7155464e-01
 -1.1594598e+00
  2.0327124e-01
 -1.8660613e+00
  6.0265201e-01
  2.6106918e+00
 -1.0892653e+00
 -3.3767909e-01
 -8.9921731e-01
 -7.2823930e-01
  6.9714314e-01
 -2.6044014e-01
  1.7729905e+00
  1.1822795e+00
 -3.8131848e-01
 -4.1202840e-01
  1.8156502e-01
 -5.0167108e-01
  5.2248020e-02
  1.5851536e-01
  5.3464547e-02
  2.0077348e+00
 -1.9101523e-01
  9.7168554e-03
 -4.0111208e+00
 -2.9181051e+00
 -1.4406585e+00
  1.9867709e+00
  6.0323019e+00
 -3.7785718e+00
  2.4985554e+00
 -2.7329965e+00
 -2.8953257e+00
  1.2364864e+00
  3.8399884e-01
  1.9318146e+00
 -1.1460772e+00
 -1.8015989e+00
 -2.0413394e+00
  1.2119241e+00
  3.9352500e-01
 -6.6346951e-02
  1.4446765e+00
  1.9061953e+00
  6.6744052e-02
  2.9887197e+00
 -1.3803110e+00
  1.1866765e+00
 -1.0910792e+00
 -2.7315063e+00
 -9.6883190e-01
 -4.5731145e-01
 -1.5291567e+00
  7.1386921e-01
  1.2179519e+00
 -3.5377707e-02
 -6.0755354e-01
  1.7101529e-01
 -5.0285678e+00
 -7.8730208e-01
 -2.5714078e+00
 -1.4719751e-01
 -1.6672467e+00
 -1.5296112e+00
 -7.4430168e-01
 -2.0337248e+00
  4.0521547e-01
  1.2698652e-01
 -3.6028864e+00
  7.3871756e-01
  3.5261183e+00
 -4.2977601e-01
 -8.3104634e-01
 -1.2370197e+00
 -1.6118375e+00
 -1.0572445e+00
 -2.0807296e-01
  3.7344563e+00
 -1.7953259e+00
 -4.7407395e-01
  5.9625697e-01
 -3.1157807e-01
  2.1869545e+00
  1.6864202e+00
 -2.1904130e+00
 -2.0906855e-01
  8.0050105e-01
 -1.8336630e+00
  3.2025602e-01
  8.4946692e-01
  4.1766700e-01
  7.6989758e-01
  5.8682412e-01
 -1.3626605e-01
  1.2712016e+00
 -7.8723085e-01
 -8.1017494e-01
 -3.6874933e+00
 -1.8309666e+00
 -9.5905054e-01
 -1.0879409e+00
  6.0255045e-01
 -5.8857298e-01
 -7.2534609e-01
  1.3740582e+00
  9.9146402e-01
 -1.7154837e+00
  5.3790367e-01
  8.3663547e-01
  2.7164865e-01
  1.1999778e+00
  8.9367372e-01
  2.7707443e+00
 -2.5763068e+00
  1.8588578e+00
 -1.6356688e+00
  6.8710822e-01
 -1.1035087e+00
  1.5867236e+00
 -4.1109702e-01
  4.3078545e-01
  5.0178009e-01
 -2.9758511e+00
 -2.0001186e-01
  7.7979922e-01
 -5.7377601e-01
 -6.9788462e-01
 -1.5127313e+00
 -5.1993246e+00
 -3.5836320e+00
  3.8486784e+00
  3.7268760e+00
  4.4014649e+00
  2.8954047e-01
 -1.2821933e+00
 -1.3966360e+00
  2.4664729e+00
 -1.6867883e+00
  1.4362217e+00
  9.3822569e-01
 -2.2298052e+00
  2.8933580e+00
 -4.7907981e-01
  5.4150385e-01
  2.2897837e+00
  2.1798444e+00
  7.4398184e+00
  3.7645750e+00
 -1.0979027e-01
  3.9301260e+00
  9.1834825e-01
  6.6258049e+00
 -8.0784369e-01
  9.7838581e-01
  3.0563779e+00
 -4.3182302e-02
 -5.3252900e-01
 -9.5409982e-02
 -5.0180531e-01
  2.8390918e+00
 -6.1827328e-02
 -3.9474276e-01
 -3.2004377e-01
 -1.3227954e+00
  9.6231973e-01
  2.8230774e+00
  9.3310595e-01
  1.6621971e+00
  4.0275931e-01
 -1.9876285e+00
  3.7148631e-01
  1.0441689e+00
 -1.1505350e-01
 -9.6296620e-01
 -1.6940668e+00
 -1.8061491e+00
  2.1576077e-01
 -6.5677005e-01
  4.2973092e-01
  1.0593083e+00
 -2.3979456e+00
 -1.1658912e+00
  1.0799078e+00
  2.2495012e+00
  1.5245724e+00
 -1.3882108e-01
 -9.5353144e-01
  2.2188835e-01
 -2.2101484e-01
 -3.9715521e+00
 -1.3302724e+00
 -5.4103893e-01
 -9.7421926e-01
  9.4556697e-03
 -1.3566481e-01
 -1.4090781e+00
  1.6449200e-01
  6.4230132e-01
 -5.2805704e-01
  7.7341175e-01
  2.1216953e+00
  1.4588524e+00
 -1.5237751e+00
  1.1186656e+00
  8.5538214e-01
  1.6064472e+00
  7.4366575e-01
 -3.8068984e+00
  2.0668273e+00
 -1.5627357e+00
  1.4184580e+00
  1.0172416e+00
 -2.9804475e+00
 -5.0816542e-01
 -1.5222052e+00
 -1.5666519e+00
  1.5848929e-01
 -2.1933129e+00
  3.6403315e+00
 -3.4573240e+00
 -1.1746719e+00
 -8.9593744e-01
  1.9453639e+00
  8.4022003e-01
  2.1194053e+00
 -1.7992250e+00
 -1.7695664e+00
  1.7919737e+00
  2.5140250e-01
  1.6099238e+00
  1.5881146e+00
  7.1503818e-01
  1.8737473e+00
 -8.1673419e-01
 -7.8607440e-01
 -1.3184365e+00
 -8.9844608e-01
  1.7139944e+00
  1.2312809e+00
 -4.1218245e-01
  1.1302043e+00
  7.7641487e-01
 -5.3134516e-02
  1.0674651e+00
 -3.7892643e-01
  1.0753798e+00
 -1.1719099e-01
 -9.1817891e-03
 -1.5702833e+00
  1.9688585e+00
 -1.2248211e+00
  2.3208757e-01
 -1.4078144e+00
  2.5356051e-01
  2.5925851e+00
  4.1747648e-01
  2.1030682e-01
  7.7979225e-01
  1.3879122e+00
 -2.3057871e-03
  7.3613644e-01
  2.5333378e+00
 -2.6427129e-01
 -3.5931209e-01
  8.8835341e-01
  7.3923677e-01
 -1.0460981e+00
  1.4832264e+00
 -5.0088227e-01
 -1.8697513e+00
 -1.6992536e+00
 -8.4011771e-02
 -3.5326416e+00
 -1.0230781e+00
 -2.1979735e+00
 -2.5304914e-01
  1.8338861e-01
  7.6541102e-01
  2.8243902e-01
  1.2746575e+00
  2.9689661e-01
 -8.2914436e-01
  3.0926612e-01
  4.1086936e-01
  8.3473897e-01
  8.7928039e-01
  1.9122994e-01
  7.3380351e-01
 -8.9524305e-01
  1.1374438e-01
 -1.3919941e+00
  4.4925442e-01
  2.8548890e-01
  4.7321936e-01
  3.5372183e-01
  3.7899154e-01
 -1.4661808e-01
  2.7508991e+00
 -4.7202379e-01
  5.3349763e-01
 -3.5718271e-01
  5.8163655e-01
 -3.6619335e-01
 -7.1424448e-01
  1.3465697e+00
  5.4709929e-01
  1.5704360e+00
  2.8898454e-01
 -2.0319900e-01
 -7.7169776e-01
 -2.4503493e+00
  1.5391542e-01
 -6.8987989e-01
  1.2074536e-01
  3.0362636e-01
 -4.3559226e-01
 -1.4202921e-01
 -3.2857502e+00
 -6.3881105e-01
  3.1712744e-01
 -1.6690749e+00
 -4.4033325e-01
  5.6679767e-01
  5.9843928e-01
  2.6399207e-01
  5.9091157e-01
 -1.5824932e+00
 -7.2397649e-01
 -6.5237451e-01
  5.4111362e-01
  5.5705607e-01
  6.4361554e-01
 -6.0926878e-01
 -1.7845320e+00
 -1.8790168e+00
 -6.1913103e-01
 -4.6323749e-01
  6.7566758e-01
  3.1274521e-01
 -4.5611501e-01
 -7.4742830e-01
 -7.6352918e-01
 -2.9381454e-01
  3.3183289e-01
  8.4173423e-01
 -3.9358827e-01
 -7.0994896e-01
 -3.4263682e-01
  4.5468414e-01
 -4.1464400e-01
  2.8938382e+00
  2.4647063e-01
 -1.2144961e+00
  9.8079658e-01
 -9.4144446e-01
 -2.3389296e-01
 -2.9840760e+00
 -1.9849174e-01
  1.9918888e+01
 -2.1220167e+00
 -3.5058734e+00
  3.0018988e+00
  1.4276818e+00
 -6.6946158e+00
 -2.5465055e+00
  3.0429623e+00
  5.4183216e+00
 -7.7619028e-01
 -3.4969118e+00
 -7.3016191e+00
 -1.7222154e+00
  2.2435218e-01
 -3.9881647e+00
  5.6196856e-01
  4.2658553e+00
  7.4812281e-01
  3.0529532e+00
  7.1321678e-01
  1.8191031e-01
  8.2629174e-01
 -7.4728590e-01
  2.8126163e+00
 -7.1271653e+00
 -3.1795254e-01
  4.5599957e+00
  5.0689363e+00
 -1.7577537e+00
 -1.3091168e+00
 -1.7473332e+00
  1.1585722e+00
 -7.1945560e-01
 -1.5810995e+00
 -1.0224848e+00
  3.5712593e+00
  3.8867342e+00
 -9.0598041e-01
 -2.1763539e+00
  1.1146898e+00
  6.4989619e+00
  5.4564571e+00
 -3.5949869e+00
 -6.0180402e+00
 -2.1255903e+00
  2.0921965e+00
  1.4204311e-01
  3.1496754e+00
 -4.4526401e+00
 -2.9995444e-01
  3.6035011e+00
  5.2702713e-01
  7.4935865e-01
  1.7975729e+00
  1.3592644e+00
 -1.8973451e+00
 -4.0920115e+00
  6.5448780e+00
  4.2657018e+00
 -2.9347482e+00
 -3.3474650e+00
 -1.6215163e+00
 -7.0250326e-01
 -8.5809392e-01
  1.2769005e+00
  8.3281412e+00
 -1.0009906e+00
 -4.9237709e+00
  1.6992534e+00
  4.6613688e+00
  4.7011173e-01
 -3.4016671e+00
 -1.5866208e+00
 -1.3080939e-02
  2.4487374e+00
  4.1649094e-01
 -3.2598469e-01
 -2.1584206e+00
  1.6456582e-01
  3.2323938e-02
  8.5349256e-01
 -1.2260854e+00
 -3.2826703e+00
 -4.5743780e+00
  1.9408752e+00
  1.5254618e+00
 -2.0270345e+00
  1.6816525e+00
  4.4447951e+00
  1.4934634e+00
 -2.3296809e+00
  4.1251560e-03
  4.1251560e-03
  4.1251560e-03
  4.1251560e-03
  4.1251560e-03
  5.2743582e-03
  5.2743582e-03
  5.2743582e-03
  5.2743582e-03
  5.2743582e-03
  4.1027446e-03
  4.1027446e-03
  4.1027446e-03
  4.1027446e-03
  4.1027446e-03
  2.3731452e-03
  2.3731452e-03
  2.3731452e-03
  2.3731452e-03
  2.3731452e-03
  1.4660439e-03
  1.4660439e-03
  1.4660439e-03
  1.4660439e-03
  1.4660439e-03
  7.1759237e-04
  7.1759237e-04
  7.1759237e-04
  7.1759237e-04
  7.1759237e-04
  5.9611837e-05
  5.9611837e-05
  5.9611837e-05
  5.9611837e-05
  5.9611837e-05
