nep4_zbl 1 C 
zbl 1 2
cutoff 6 5 163 106
n_max 4 4
basis_size 8 8
l_max 4 2 1
ANN 80 0
  2.3107483e+00
  3.3782487e+00
 -6.5023267e-01
 -1.3636160e+00
  8.7747240e-01
  2.0642544e-01
 -2.0953186e+00
  7.9054236e-01
 -8.0358559e-01
  2.1900113e-01
  8.6323330e-03
 -1.5091931e+00
 -1.1405846e+00
  1.7381553e-01
  1.7900453e+00
 -6.7628545e-01
 -1.2629589e+00
 -1.5617051e+00
  9.6979392e-01
  1.8225859e+00
 -7.0477051e-01
  5.5761570e-01
  1.0057772e+00
  2.5041168e+00
 -5.6265312e-01
 -7.5038952e-01
 -1.1733645e+00
  5.0312392e-02
  3.8509148e-01
  1.2989091e+00
 -5.0087577e-01
  1.4918973e-01
  1.6800871e-01
  1.0056557e-01
 -1.4458200e+00
  1.5094298e+00
  1.1760702e+00
  3.0433583e+00
 -1.0809845e+00
  1.0424712e+00
  1.9295011e+00
  1.8106744e+00
 -3.0431197e+00
  1.4296480e+00
 -1.2085841e+00
  2.1733630e+00
  9.5024055e-01
 -1.2486882e+00
  4.0086058e-01
 -8.7374228e-01
  2.0663695e+00
 -2.7904804e+00
 -1.7520893e+00
 -1.8494769e+00
 -3.9572045e-01
  4.1485316e-01
 -1.9276187e+00
  1.6764754e+00
  4.6264243e-01
 -7.0964605e-01
  9.1697443e-01
  3.1585015e-02
  3.2523961e+00
  7.7615851e-01
 -1.1941832e+00
  3.5172468e-01
 -6.8618101e-01
  1.6347455e+00
 -2.9943189e-01
 -9.6205741e-01
  3.1506780e-01
 -1.2136465e+00
  3.1723270e-01
 -1.0772216e+00
  1.2988783e+00
 -1.4450421e+00
  2.5323615e+00
  3.6103162e-01
  1.2224134e-01
  9.1826290e-01
 -5.0235051e-01
  5.4278427e-01
  1.3293475e-01
  1.4043473e+00
  7.9965299e-01
  1.2749753e+00
 -2.5800791e-01
 -1.2717395e+00
  4.5328125e-02
  2.3972919e+00
  1.1108312e-01
  2.3398762e+00
  1.1568564e-01
  6.2453562e-01
  8.4982622e-01
 -1.0814527e-01
 -3.5256679e+00
  5.9760743e-01
  9.5640635e-01
 -8.4068233e-01
 -1.0827787e+00
  4.5036923e-02
  5.5772364e-01
 -1.2302657e+00
  3.3073649e-02
 -2.1294026e+00
 -1.0588549e+00
 -1.6769799e+00
  5.7329911e-01
  4.2176801e-03
 -2.2201090e+00
  2.2747424e-01
  3.0299354e+00
  4.0192923e-01
  4.7399065e-01
 -2.9196808e-01
  2.6002376e+00
  7.7888346e-01
  3.4436551e-01
 -2.2992365e-01
 -2.7453434e-01
  2.2899690e+00
  2.3975050e+00
  6.8175592e-02
 -3.3772293e-01
 -2.9580587e-01
  1.2050209e+00
  1.1228160e+00
 -6.6661060e-01
  3.2793170e-01
  1.3811365e+00
 -7.7371544e-01
 -2.3543582e+00
 -1.4503673e+00
  1.5433849e-02
  1.0052023e+00
 -4.9294585e-01
 -3.9916086e-01
  1.1783257e+00
  3.6613795e-01
 -1.1009845e+00
  4.4123247e-02
  1.3149874e-01
 -1.9216063e+00
  4.4611171e-01
  2.5629759e-01
 -3.3924675e-01
  4.8529264e-01
 -1.6369990e+00
  8.9760625e-01
 -2.2946733e-01
 -1.4757093e+00
 -8.3119136e-01
 -1.0696282e-01
  1.1470087e+00
 -1.8498741e-01
  7.2322279e-01
  2.6461825e-01
  5.5396664e-01
  1.9857910e-01
  3.1841433e-01
  4.0732890e-01
  3.9961252e-01
 -3.3807755e-01
  1.0442847e+00
  1.0271536e+00
  4.2121550e-01
  1.4389900e-02
  3.8427144e-01
 -7.3779267e-01
  7.6494765e-01
 -6.3623264e-02
 -4.0192160e-01
 -6.1074543e-01
  7.7690086e-03
 -1.7832707e+00
 -2.5591924e+00
  5.3668338e-01
  1.0822129e-01
  1.7533877e+00
 -2.1681146e-01
  9.1111824e-02
  2.1484082e+00
 -3.5966802e-01
  3.5516851e+00
 -2.0597830e+00
 -4.8260242e-01
  2.6304629e+00
 -1.2939563e+00
  1.5611347e+00
 -5.8209670e-01
  1.7829609e+00
  2.9498267e+00
  6.7232084e-01
  3.0415838e+00
  4.5640570e-01
 -8.6613375e-01
 -5.1666540e-01
  1.2817922e-01
  1.6542201e+00
 -1.8343358e+00
  3.3222586e-01
  3.3180577e-01
  3.0964432e-02
  6.5400940e-01
 -7.1288055e-01
 -2.2550994e-01
  9.3682969e-01
  2.0564331e-02
 -1.3996152e+00
 -1.1403116e+00
 -3.9400324e-01
  1.0288978e+00
  1.3777916e+00
  2.3950343e+00
 -3.7535875e+00
 -5.5245900e-01
  4.5789981e-01
  2.7504241e-01
  1.5782441e+00
 -2.7746072e+00
 -1.7769421e+00
  1.8907741e+00
  9.6487457e-01
  1.5201522e+00
 -5.3874266e-01
 -1.6799638e+00
 -1.1165310e+00
  2.5975771e+00
 -1.7218554e+00
 -1.7460051e+00
 -2.6486008e+00
 -1.3808607e+00
  1.9218488e+00
  6.6925013e-01
 -1.3100049e+00
  8.9579797e-01
  2.5521365e-01
 -8.7740108e-02
  5.1771618e-02
  3.2054949e-01
  4.0510094e-01
  6.3280034e-01
 -1.5466985e-01
 -8.1619960e-01
 -4.8752990e+00
 -4.9441865e-01
 -6.8795878e-01
 -3.5839564e-01
  2.5315862e+00
 -3.6071432e+00
 -2.7477863e+00
  1.3183082e+00
 -2.8199777e-01
 -1.8379228e-01
 -6.3145936e-02
 -1.8279593e+00
  1.1481637e+00
  4.9864464e-03
  1.0791154e+00
  3.5781077e-01
 -2.1010206e+00
 -1.0763094e+00
  2.3538156e+00
  1.1350117e+00
  1.0481688e+00
  6.2347972e-01
 -1.3633409e+00
 -9.0530539e-01
  1.6632280e+00
 -8.1400663e-01
 -1.9127324e+00
 -1.2343625e+00
 -4.5924127e-01
  1.7270738e-01
  1.8955263e-01
 -3.0944508e-01
  8.1466407e-01
 -7.4583852e-01
 -1.3249974e+00
 -6.3231903e-01
  1.8686169e-01
 -1.4297109e+00
  2.5745981e+00
  1.9622748e-01
 -1.8997924e+00
  4.4942826e-01
  2.9764581e-01
 -2.6136705e-01
  6.2474722e-01
  5.9253311e-01
  1.2119018e+00
  6.2506193e-01
  2.9707965e-01
 -6.6677576e-01
 -4.5298636e-01
 -2.8496984e-02
  4.2205181e-02
 -9.9495810e-01
 -1.5441467e+00
  1.9714911e+00
  2.7862746e-01
  9.4747150e-01
 -8.8193893e-02
  3.7982664e+00
  8.5558778e-01
  1.5093082e+00
 -1.0181625e+00
  9.1331202e-01
  1.3341521e+00
  4.5077386e-01
 -6.7749459e-01
  6.9460489e-02
 -8.5636938e-01
 -6.2314308e-01
  3.5964408e+00
 -3.0867043e-01
 -7.9211926e-01
 -2.3600166e-01
 -2.0164824e+00
 -8.9110667e-01
  1.6994980e-01
  9.4020993e-01
  1.2447067e-01
 -1.0865743e+00
 -4.5770839e-02
 -1.5898197e+00
 -3.9032847e-01
  1.1931424e+00
 -1.8214737e+00
 -1.8501734e+00
 -1.4164227e+00
 -3.3765163e-02
 -2.1342113e+00
  5.0492251e-01
  7.3208517e-01
 -9.3810648e-01
 -5.0912887e-01
 -3.7484711e-01
 -2.5805533e+00
  3.2793598e+00
  4.3516910e-01
 -2.2787865e-01
 -8.5013086e-01
 -2.0200911e-01
 -6.7875576e-01
  5.6991160e-01
 -9.4007903e-01
  2.7376172e-01
 -1.2547840e+00
  1.4499122e+00
  2.0229278e+00
  7.3014313e-01
 -7.1179819e-01
 -2.2246337e-01
  1.6694281e+00
  7.0831943e-01
  4.1166830e+00
  2.0868806e-02
 -1.4135522e-01
 -4.4888967e-01
  9.8812200e-02
  6.9882494e-01
  1.0047811e+00
  1.0465672e+00
  8.5263222e-01
  8.3083636e-01
 -3.1638679e-01
 -5.8340138e-01
 -9.8656207e-01
  3.2348938e+00
 -1.5268004e-01
 -1.2094716e+00
  5.5639252e-02
  6.6629577e-01
  1.3648254e+00
  4.0688571e-01
  5.3172654e-01
  3.0664315e+00
 -5.7040085e-03
  1.5126248e-01
 -1.3440834e+00
  7.5932276e-01
  6.4831954e-01
  5.2722946e-02
  1.8441010e+00
 -3.3844906e-01
  1.2219090e-01
  2.1088813e-01
  1.2654517e+00
 -1.1106312e+00
 -2.9648449e-02
  1.1635925e+00
  1.0243312e+00
  1.4160295e+00
  5.1476175e-01
  2.7377641e-01
 -6.9753999e-01
  4.3682119e-01
  1.1579177e+00
 -1.4206800e+00
  9.8026525e-03
  7.8701335e-01
 -8.8541079e-01
 -9.6220368e-01
 -2.2187434e-01
  6.1473422e-02
  1.3585930e+00
 -8.6929433e-02
 -2.8136978e-01
  4.7974938e-01
  3.1979983e+00
 -5.1325577e-01
 -1.9988963e-01
 -4.0719382e-02
  9.7142589e-01
 -1.3212867e+00
  5.3987261e-02
  4.7221211e-01
 -1.3934280e+00
  5.5109835e-01
 -5.2735005e-02
  4.6023592e-01
  2.5479072e-01
 -4.9697276e-02
 -2.2732468e-01
  1.1175647e+00
 -1.2375276e+00
 -1.4164928e+00
  1.3525048e-01
 -2.7780193e-01
 -2.5394887e-01
 -1.3630842e+00
  6.3776714e-01
  5.7642907e-01
 -5.4819942e-01
 -1.6108483e+00
  1.3229314e+00
 -3.7860990e-01
 -1.4010490e+00
  1.6551844e+00
 -1.2997844e+00
 -3.4264800e-01
 -1.9735109e+00
 -1.0225487e+00
  7.8970039e-01
 -7.4102300e-01
 -1.8475358e-01
  4.4971204e-01
  1.6305588e-02
  1.4760269e-01
  4.9625617e-02
 -9.4499215e-02
 -2.7586135e-01
 -3.1432905e+00
 -2.3857771e-01
 -8.3871973e-01
  7.5090581e-01
  1.1510759e-01
  1.9678696e+00
 -2.1437039e+00
  4.1234484e-01
 -1.8389808e-02
 -4.0233630e-01
  8.9683956e-01
  9.8502046e-01
  9.4485790e-01
 -2.0783212e+00
  7.3735613e-01
 -1.3618613e+00
 -1.2670554e+00
 -1.8880566e+00
 -6.3074265e+00
  1.9402806e+00
 -1.5143993e+00
  8.6562949e-01
  9.5379460e-01
 -4.3050453e-01
 -6.2773009e-03
  5.5702889e-01
 -1.4259954e-01
 -2.9291973e+00
  1.1880660e+00
  2.7830625e-01
  6.1666924e-01
 -4.3246555e-01
 -9.3506736e-01
  6.7757577e-01
 -8.7188822e-01
 -3.3529666e-01
  9.8595184e-01
 -4.7670281e-01
  2.2929861e-01
  1.0742602e-01
 -4.0311125e-01
 -8.9754373e-01
 -7.2430139e-03
 -1.0484556e+00
  5.9088159e-01
 -4.7288430e-01
 -1.1265391e+00
 -1.3000370e+00
 -5.3200096e-01
  7.6872426e-01
  1.1642857e+00
  3.3142492e-01
  4.4131491e-01
  6.8094516e-01
  1.4039330e+00
  1.3220769e-01
  6.3967925e-01
 -9.5637006e-01
  4.0462803e-02
 -8.8029104e-01
  2.7282268e-01
 -4.3058166e-01
 -9.3026090e-01
 -4.0838966e-01
 -7.7838814e-01
 -5.2761632e-01
  1.1282093e-02
  1.2090886e+00
 -7.5086258e-02
  8.6222345e-01
 -1.1531798e+00
  1.8532947e+00
 -1.4325367e-01
 -1.7658913e+00
  6.0305709e-01
  1.6039635e-01
  1.9030578e-01
 -1.5899187e+00
 -1.2738892e+00
  1.8477820e+00
  3.2051715e-01
  2.3231063e+00
  3.0485225e+00
 -3.3592243e+00
  1.0963254e+00
 -7.3655963e-01
 -2.5219989e+00
  1.6314881e+00
  2.5424653e-01
  1.7349141e+00
 -5.1541054e-01
 -2.8934071e+00
  1.7853779e+00
 -9.7678524e-01
 -5.7924759e-01
 -7.3459232e-01
  7.4527568e-01
 -2.3206904e+00
  1.4540912e+00
 -2.6278284e-01
 -7.8363317e-01
 -1.0944101e+00
 -3.8947129e-01
 -6.4495164e-01
 -6.4489299e-01
 -4.6242639e-01
 -4.3865368e-01
  1.8800617e+00
 -2.6940417e+00
 -2.1300073e+00
  1.7905723e+00
  1.5746707e+00
 -3.3803618e-01
 -1.7583039e+00
  1.6101389e-01
  9.8034042e-01
  1.0922755e-01
  1.6123965e+00
 -7.6169699e-01
  7.2374642e-01
  4.6563804e-01
  9.0344153e-02
  2.0525858e-01
 -8.8470119e-01
 -6.3670367e-01
  6.3910085e-01
  1.3410036e-01
  1.3774194e+00
 -2.3625789e+00
  1.9628546e+00
 -3.7443230e-01
 -6.9102597e-01
  7.8545606e-01
 -2.4005772e-01
  6.9732881e-01
 -3.9718151e-03
 -4.1668171e-01
  8.3938104e-01
 -9.7511917e-01
  1.1402144e+00
 -6.9029975e-01
 -3.0825296e-01
  1.2061927e+00
 -2.3314803e+00
  1.0698742e+00
 -2.2376144e+00
 -1.6883222e+00
  4.4666311e-01
  7.1058899e-01
 -2.0521706e-01
  9.9138111e-01
 -3.6579146e+00
  2.9829943e+00
  1.0251015e+00
 -2.1811008e+00
  2.0936706e+00
 -1.9896019e+00
 -1.6581250e+00
  2.0369807e-01
 -5.8738792e-01
 -2.4602485e+00
 -2.6248710e+00
 -7.3921138e-01
  1.2336526e-01
 -4.8098621e-01
 -1.6009982e+00
 -2.2564147e+00
  7.7787954e-01
 -1.0936743e+00
  4.1683060e-01
  1.4581954e+00
 -6.5101093e-01
  4.0917212e-01
 -1.3608689e+00
  3.1027305e-01
 -6.5810895e-01
 -1.2858021e+00
  4.7143713e-01
  7.5025648e-01
 -3.1484076e-01
 -9.0640658e-01
 -4.2539096e-01
 -1.0079847e-01
  1.4327799e+00
 -1.1046100e+00
 -9.4763118e-01
 -1.9422211e-01
  5.4756077e-03
 -1.0355750e-01
 -3.3152235e-01
 -3.7030777e-01
  4.4709405e-01
 -1.0404315e+00
  8.0663961e-01
 -7.4556220e-01
 -7.0526075e-01
  1.3993887e+00
 -6.2751675e-01
 -9.5650190e-01
 -8.6638337e-01
 -1.1295234e+00
  5.8771533e-01
  1.5366054e-02
 -3.7557697e-01
  7.3778880e-01
  2.4823114e-01
  7.8038651e-01
  5.9001124e-01
  8.1073856e-01
  1.7445552e-01
 -4.7434258e-01
 -5.3986698e-01
  6.7905360e-01
  7.7184394e-02
 -1.2045525e+00
 -4.9621919e-01
 -4.9758637e-01
 -4.3776467e-01
 -4.2634553e-01
  1.4960484e-01
 -1.9968443e-01
  3.9116886e-01
 -2.1909812e-01
 -1.3474307e+00
  4.3775111e-01
 -8.6693114e-01
 -2.7579430e-01
  4.9038458e-01
  3.7798810e-01
  6.7434371e-02
  1.7673119e+00
 -5.1081884e-01
 -9.7293305e-01
  1.3472048e+00
 -1.8099409e-02
 -4.3640369e-01
 -1.0947722e+00
 -2.2528823e-01
  3.5492435e-02
  1.4713477e+00
 -5.1161237e-03
 -8.6076784e-01
 -2.8927481e-02
  1.7038406e+00
 -1.2133961e+00
  3.3381408e-01
 -1.0873377e+00
 -1.5721024e+00
  7.6402104e-01
  5.0137031e-01
  1.2864239e+00
 -6.1289501e-01
 -7.7103776e-01
  3.1855125e-02
 -8.0351841e-01
 -6.2381881e-01
 -3.7276205e-01
  1.5891782e+00
  1.8295220e+00
  6.6442335e-01
 -1.4871387e+00
  1.7707754e-02
 -5.6734478e-01
  5.0732434e-01
  8.5477507e-01
 -8.5185248e-01
 -2.6133323e-01
  1.7513740e+00
 -1.5001807e-01
  5.9074628e-01
 -1.3341631e+00
  1.2738231e-01
 -8.5086948e-01
 -4.6939641e-01
  1.9750042e-01
 -1.6198874e-01
  7.5427872e-01
  2.4361314e-01
  5.3788012e-01
 -1.0607276e+00
 -2.2356768e-01
  2.9882746e+00
  7.5406140e-01
 -8.6600703e-01
 -1.1952686e+00
  3.4749854e-01
 -1.7270402e+00
  3.7353750e-02
  2.2825794e+00
 -4.9326798e-01
  3.9600626e-01
 -2.9860554e+00
 -1.7698283e-01
 -7.4738002e-01
 -5.9148782e-01
 -1.7084358e+00
 -2.3895843e-01
 -9.1639781e-01
 -2.9047053e+00
 -3.4080940e-01
 -5.3452086e-01
  1.2525369e+00
 -4.4846854e-01
 -2.1924090e-01
 -7.8356409e-01
 -2.7530844e+00
 -3.3431798e-02
  2.9684448e-01
  1.6246772e+00
 -5.0611693e-01
  1.0307828e-01
 -9.1818410e-01
 -8.1011409e-01
 -1.3034163e+00
 -2.0068133e-01
 -5.7546294e-01
  1.0494303e+00
  3.6177850e-01
  1.7821796e+00
 -1.0565045e+00
 -1.8983687e+00
  7.9110491e-01
  5.6971919e-02
 -5.1841450e-01
 -3.9522219e-01
  9.3205851e-01
 -2.8019416e-01
  1.6474482e-01
 -1.6239382e-01
 -1.4318377e+00
  1.3397043e-02
  1.3782736e+00
 -1.0015093e+00
  8.0678308e-01
 -1.9529670e-01
 -2.6995022e+00
 -4.2554319e-01
 -1.1362815e+00
 -5.6922632e-01
 -8.0908442e-01
  1.0925164e+00
 -1.2497862e-01
  9.1576600e-01
 -3.1323159e-01
 -9.7975373e-01
  3.4159088e-01
 -3.7199455e-01
  2.9763034e-01
 -1.1191753e-02
 -2.0899251e-01
  5.4092860e-01
  1.0390661e+00
  2.2471166e-01
 -3.6897016e+00
 -1.8728420e+00
 -7.5810850e-03
 -1.5482172e+00
  9.9950874e-01
  3.4598067e-01
 -5.0804891e-02
 -2.2115936e+00
 -2.1457880e+00
  5.7508808e-01
 -1.0128052e+00
 -3.8484445e-01
 -8.2698810e-01
 -1.3080046e+00
 -3.5816398e-02
  9.6648663e-01
 -9.8430294e-01
  3.6287853e-01
 -1.1036530e+00
 -4.1188341e-01
  1.7602979e+00
  2.8955109e+00
  1.3547216e-02
 -2.6073751e+00
  1.7589854e+00
  2.7614558e-01
  6.6426539e-01
 -2.5558567e-01
 -1.0926062e+00
  1.1537986e+00
  3.4852815e-01
 -3.8932908e-01
  6.1550570e-01
  3.5520250e-01
 -8.8251138e-01
  1.9302430e+00
  1.9238664e+00
  3.9220244e-01
 -1.8023188e+00
 -1.3732874e+00
  2.6247852e+00
  4.4091411e-02
 -7.3947344e+00
 -2.5420806e-01
  2.7321684e+00
  8.6273575e-01
 -1.2130435e+00
 -4.2346892e+00
  1.6068233e+00
 -1.3917505e+00
  1.4577082e+00
 -1.9220182e-01
  1.1317689e+00
 -5.7997968e-02
  5.7768410e-01
 -1.4776123e-01
 -6.7776757e-01
  8.6820230e-02
  2.0014348e+00
 -4.4627795e-01
  4.3313898e-02
  7.3528111e-01
  1.8704863e+00
  1.7067711e-01
  1.2292718e+00
  8.0376095e-01
  3.8606507e-01
  4.1112402e-01
  2.6857917e+00
 -1.4229302e-01
  3.0044513e+00
  1.1345996e+00
 -3.1272612e+00
 -1.4773340e+00
  2.6135638e+00
 -1.6223596e+00
  5.2210766e-01
  7.4152195e-01
 -2.3759890e+00
 -1.7117318e+00
 -1.5314087e+00
  1.3439300e+00
 -1.5520720e+00
 -2.1140596e-01
  1.0872383e+00
 -6.3176316e-01
 -4.8816264e-01
 -2.7792281e-01
  9.2568213e-01
  9.1287738e-01
 -1.1548394e+00
  2.5124196e-02
 -2.8307781e+00
  4.9372864e-01
  1.7098761e+00
 -1.1192583e-01
  1.8062976e-01
 -3.1677532e-01
 -3.2895753e-01
  3.8046309e-01
 -3.8101256e-01
  1.6076574e-01
 -1.7649432e+00
 -2.2847936e+00
  1.7281595e+00
  2.8611061e-01
 -2.0302653e+00
  1.0273218e+00
  2.5397587e-01
  1.1550186e+00
  1.9521559e+00
 -2.4454184e+00
  7.3672962e-01
 -1.4443401e+00
  1.7391274e+00
  3.2721307e-02
  1.4286507e+00
 -2.2656016e-01
 -9.0637201e-01
  1.6765617e+00
  1.6811254e+00
 -2.8246948e-01
 -1.1057855e+00
  1.2072064e-02
  5.5022120e-01
  5.4450798e-01
 -1.1589577e-01
  8.5512221e-01
 -7.8995633e-01
 -8.9870709e-01
 -2.1152103e+00
 -4.2156631e-01
  7.2056782e-01
 -1.1732137e+00
 -1.8608779e-01
 -1.2899940e+00
  2.6783321e-02
  1.1162777e+00
 -5.5927318e-01
  1.0112836e+00
 -3.8686373e+00
  1.2977229e+00
  1.1553829e+00
 -3.9354283e-01
 -1.0321457e+00
 -2.7439159e-01
  7.5760275e-02
  1.6569061e+00
 -2.1514173e+00
 -8.4618390e-01
 -6.7709661e-01
  7.8102994e-01
  1.1331577e+00
 -1.8824400e-01
 -2.8498626e+00
  2.4354727e+00
 -1.8826479e-01
  1.0747740e-01
 -6.0368365e-01
  8.5011417e-01
 -1.9859284e+00
 -3.5801506e-01
  5.8773142e-01
 -9.9739605e-01
  5.9990913e-01
  3.3147013e+00
  1.3212192e+00
 -8.3081073e-01
 -2.0759313e+00
  5.7858342e-01
 -7.4518079e-01
 -8.1662160e-01
 -6.6383946e-01
 -1.3614856e-01
  1.2727430e-01
  4.0089850e+00
  1.0635492e+00
  3.5331315e-01
 -9.9283153e-01
 -3.8544991e+00
 -1.1017113e+00
  7.3474163e-01
  2.2770443e+00
 -4.1918669e+00
  2.6404312e-01
  1.0656449e+00
 -9.7477537e-01
  4.6083698e+00
 -9.4418329e-01
 -6.3230813e-01
  2.2637820e+00
 -1.1268212e-01
  3.7938040e-02
  1.7328832e+00
  9.4190508e-01
  2.3026079e-01
 -1.4946510e+00
  1.5982660e+00
 -1.6647977e+00
 -7.3958194e-01
  1.3354570e-01
 -1.0942100e-01
  1.5668525e+00
  3.1094474e-01
  2.3597808e-01
 -5.5165052e-01
 -1.0721914e+00
 -5.2128696e-01
 -2.5614893e+00
 -1.7527720e+00
 -5.3891736e-01
 -2.9329455e+00
  3.0084777e+00
  1.0901085e+00
 -5.6723523e-01
 -1.7602006e+00
 -1.1366227e+00
  3.8094753e-01
  5.6565195e-01
  1.3694233e+00
  4.1085771e-01
 -3.5406041e-01
  6.7888469e-01
 -4.6583205e-01
  1.6500304e+00
  1.1350121e+00
 -2.6563914e+00
 -2.1676782e-01
 -1.2200392e+00
  6.5326691e-02
  1.3255625e+00
  1.5535843e+00
  7.7195001e-01
  1.5508859e+00
  1.8987246e-01
  4.1740122e-01
  4.0833792e-01
  7.7537525e-01
  6.5143836e-01
 -2.1176821e-01
  4.1574484e-01
  2.1069121e-01
 -2.8388104e-01
 -2.1560183e+00
 -2.3627310e+00
  4.5120710e-01
 -1.2706102e+00
 -2.2542748e-01
  1.4433349e+00
 -7.0960301e-01
 -2.3071623e-01
  3.9285028e-01
  1.1508592e+00
  5.4304034e-01
  6.0415202e-01
  3.0285401e+00
 -1.4252279e+00
 -1.6146002e+00
 -7.3389313e-03
 -1.6171318e+00
  1.7991606e+00
 -2.0752666e+00
  1.5318750e-01
  1.5132259e+00
 -7.5099736e-01
  9.4373864e-01
  2.2376645e-02
 -3.4404595e+00
 -1.5268970e+00
 -4.5185345e-01
  7.4924684e-01
 -1.4583724e+00
  1.4832085e-01
  4.2478344e-01
 -1.9619475e-01
  5.9441540e-02
  3.6933210e-01
 -7.6672965e-01
 -1.4218857e+00
  1.9147672e-01
  2.5169210e+00
  6.8199342e-01
  3.2958779e-02
  1.5966400e+00
  2.4481492e+00
 -2.4968824e+00
  9.5285499e-01
  2.0852720e-02
  3.1380796e+00
 -4.9328585e+00
  1.0674585e+00
  7.6511317e-01
 -3.4836489e-01
  8.9269215e-01
  2.8205171e-01
  3.3822557e-01
 -3.7139025e-01
 -2.4216557e-03
  1.0744675e+00
  1.4005107e+00
 -1.3856536e+00
 -1.3108296e+00
  1.0757443e+00
 -2.3309107e+00
 -9.0779650e-01
  9.8769285e-02
 -1.8348107e+00
  6.8895376e-01
  4.6824131e-02
  1.3553001e+00
  5.4561478e-01
 -1.6550033e-01
 -1.0135564e-02
 -4.6533707e-01
  5.4804492e-01
 -3.4636986e+00
 -2.2775128e+00
 -2.1049306e+00
 -2.3733027e+00
  2.3700700e+00
  2.6452992e+00
 -3.6509326e-01
  1.2534753e+00
  3.0124375e-01
 -2.0684977e+00
  7.0990080e-01
 -7.3423654e-02
 -3.8809165e-01
  6.2990576e-01
 -3.1051409e+00
  1.9811815e+00
  1.7650006e+00
 -2.4797671e+00
 -1.8839401e+00
  3.5470578e-01
  6.2429112e-01
 -1.9963388e-01
 -7.1261722e-01
 -1.4282590e+00
  1.8581413e+00
  4.4057980e-01
 -7.2778307e-02
  4.6732938e-01
  4.3445799e-02
  3.4783626e-01
 -1.8736392e-01
  1.1972897e+00
 -3.3414926e-02
  1.8803284e-01
 -5.3174877e-01
 -4.3284285e-01
 -1.8135109e+00
  4.6165568e-01
  1.7786825e-02
 -7.9840606e-01
 -6.6268337e-01
  2.2844137e-01
  6.4115924e-01
 -3.4713742e-01
  2.5346056e-01
  5.2747726e-01
 -6.1696893e-01
 -4.3616059e-01
  9.2110205e-01
  1.5872302e+00
  9.5823534e-02
  2.3727432e-01
 -6.7179583e-02
 -1.6029500e+00
 -1.0934877e-02
 -6.1925012e-01
  1.1274364e+00
  1.2427469e+00
  2.4318461e+00
 -1.3338139e+00
 -2.2019941e-01
 -6.5932691e-01
 -8.9262766e-01
  6.6130385e-03
  3.6187375e-01
 -6.7208600e-01
 -4.1536089e-02
  9.5311344e-02
  6.7753071e-01
  1.2029866e+00
 -1.6770906e+00
  1.7489102e-01
 -5.4251415e-01
 -2.0738114e-01
 -7.6838785e-01
 -7.0380104e-01
  2.1376108e-01
  8.3003116e-01
  3.5176756e+00
  3.6036137e-01
 -2.6201413e+00
 -8.6051002e-02
  1.4808491e+00
 -1.3897923e+00
  4.5038253e-01
  1.3641930e+00
 -2.3559357e-01
  7.0444860e-02
 -1.4865991e-01
 -1.0873892e+00
  5.3196782e-01
  1.0117908e+00
  1.1613820e+00
 -9.4498539e-01
  1.8932556e+00
  2.0656254e+00
  6.4060381e-03
  5.6163538e-01
 -4.1181335e-01
 -5.8793473e-01
  1.1891381e-02
 -6.1285228e-01
  3.2340690e-01
  9.3775040e-01
 -2.3439000e+00
 -5.7702345e-01
  2.5512037e-01
 -1.3898367e+00
  9.1822702e-01
 -3.0535977e+00
  5.0030404e-01
  8.0755657e-01
  9.9887782e-01
 -4.2538390e-01
 -1.4548670e+00
 -2.2902830e+00
  6.9627780e-01
  3.3461990e+00
 -2.3134114e-01
 -8.7423050e-01
  2.1508025e-01
  6.6822572e-03
 -1.2277664e-02
 -1.3082261e+00
 -7.1640402e-01
 -4.3098366e-01
  4.1337852e+00
  5.2144402e-01
 -4.1454828e-01
 -1.6455624e+00
 -1.1485893e+00
  1.8708046e-03
 -1.0401680e+00
  4.3091655e-01
 -6.7559004e-01
 -1.0486429e+00
  2.1858661e-01
  3.7063280e-01
  6.0393447e-01
 -4.5311186e-01
 -2.3631201e+00
  3.2094997e-01
  6.3032568e-01
  1.3145056e+00
  3.6331537e-01
  7.6139981e-01
  1.4327977e+00
 -1.1340837e+00
  1.2832701e+00
 -4.0743506e-01
  1.9193923e+00
  1.4191413e-01
 -1.5646666e+00
  3.2979679e-01
 -4.1631821e-01
  1.9658722e+00
  1.1265779e+00
 -6.5889186e-01
  6.5365326e-01
 -5.1804584e-01
  1.1076241e+00
 -1.6095610e+00
 -3.8131675e-01
  2.5253224e-01
 -2.0648477e+00
 -1.0427018e+00
 -5.9761328e-01
 -9.5942718e-01
 -1.2787055e+00
 -4.1917381e-01
 -4.9267557e-01
 -1.7847483e-01
  1.1430716e-01
  1.2385062e+00
  6.1727375e-01
 -1.7477399e+00
  7.1648777e-02
 -1.9667553e+00
 -1.4626001e+00
  8.0441165e-01
  8.4998459e-01
 -6.3538194e-01
 -9.9633813e-01
 -2.4687934e+00
 -2.4844060e-02
  1.3545103e+00
 -1.0072972e+00
 -1.8914485e-02
 -3.9381590e-01
 -1.8755613e-02
 -3.7873614e+00
 -1.6544864e-01
  2.5064659e+00
 -2.3108451e+00
  1.6867763e+00
  7.8496993e-01
 -1.7325894e+00
 -6.7992759e-01
 -9.8934007e-01
 -5.6863034e-01
 -5.8087641e-01
 -1.9708669e-01
  1.7500036e+00
  1.8501086e-02
  2.3849236e-02
  4.5001760e-01
  1.4334220e+00
 -2.5389329e-01
  4.8190415e-02
 -2.6385766e-03
  2.3261249e-01
  6.0726404e-01
 -2.4910698e+00
 -1.0099292e+00
 -7.0047337e-01
 -6.6060555e-01
  7.2392607e-01
  7.4645185e-01
  2.9260077e+00
  3.0938201e+00
 -1.3178320e+00
 -5.0420660e-01
  5.8406842e-01
 -3.0415310e-02
 -1.4384898e+00
 -3.0221816e-02
 -4.4143668e-01
  1.5379120e+00
 -4.0667993e-01
  4.7669345e-01
  4.0504524e-01
  7.6032341e-01
  1.1087700e+00
  1.4354073e+00
 -6.6964996e-01
  1.2061021e+00
 -4.9044350e-01
 -1.0773262e+00
  1.6733247e+00
 -2.1289231e-02
 -2.8939584e-01
 -1.1341389e+00
  2.9620916e-01
  1.0371417e+00
 -1.9011533e+00
 -1.4043655e+00
 -4.0942001e+00
 -3.0534027e+00
  1.7633300e+00
 -1.8754877e+00
  7.8062966e-02
  8.2997143e-02
  1.9998724e+00
  1.7676654e+00
 -5.6839019e-01
  1.2275718e+00
 -1.1629103e+00
  3.2408565e-01
 -7.4762380e-01
  1.2577541e+00
 -1.5727302e+00
 -8.5705441e-01
  3.5362545e-01
  1.2956417e+00
 -3.0807493e+00
  3.0478734e-01
 -3.2745101e+00
 -7.9912025e-01
 -1.3127720e+00
 -1.8457292e+00
  9.9727291e-01
  2.0965360e-01
  4.0256572e-01
  5.0391357e-02
  1.7889323e+00
  9.4437408e-01
  3.3896676e-01
  2.5725380e-01
 -4.9670329e+00
 -2.3163822e+00
 -2.2164712e+00
 -5.9770894e-01
  1.4104652e+00
 -1.3178263e+00
 -3.8205030e+00
  7.2008386e+00
 -1.4464962e+00
  1.1762497e-01
  1.9036000e+00
  1.0219343e+00
 -1.0886686e-01
  2.4358933e+00
  1.2814041e+00
  2.4592633e+00
 -1.1469517e+00
  2.5162249e+00
  1.2384003e+00
  1.2235727e+00
  1.6427611e+00
 -1.5605657e+00
  7.0364219e-01
  3.1812336e+00
 -1.5670164e-01
  5.8101034e-01
 -9.5790607e-01
 -1.1883569e+00
 -8.5684383e-01
 -2.6159315e+00
  9.3106073e-01
  5.0903922e-01
 -8.0759847e-01
 -3.8625374e-01
  1.4599067e+00
  4.1334527e-03
  1.2544397e+00
 -1.5493389e+00
 -1.2287786e+00
  1.1791326e+00
  1.3076047e+00
  5.9523255e-01
  3.6519656e-01
 -1.0896411e+00
  1.7045180e+00
 -6.4023393e-01
  8.5508548e-02
 -5.2199650e-01
 -2.7431256e-01
  5.3485191e-01
  4.9137899e-01
 -4.0051538e-01
  5.2227008e-01
 -3.1293851e-01
  6.5831095e-02
  2.2320896e-01
 -3.5016912e-01
  1.0998774e-01
  1.0353706e+00
 -9.3852228e-01
  2.2906704e-01
  1.6195300e-01
 -6.0074967e-01
  3.6377797e-01
  3.0653435e-01
 -6.9620782e-01
 -4.0481463e-01
 -2.8071138e-01
 -8.9477628e-02
 -5.3808558e-01
  3.1073084e+00
  7.5545764e-01
 -1.0853835e+00
  1.6708683e+00
 -3.1794676e-01
 -2.5022450e-01
 -1.0503851e+00
  2.8191915e+00
 -8.5114098e-01
 -6.7849821e-01
 -4.5648593e-01
  2.6493263e+00
  1.8648899e-01
  5.3525811e-01
 -9.0924507e-01
 -4.6797112e-01
  7.5712502e-01
  1.8383174e+00
 -1.1281612e+00
 -3.5454899e-02
  7.8169346e-01
  8.2795358e-01
  4.6715904e-02
 -8.1978822e-01
 -1.2965019e+00
 -2.4910559e-01
 -1.6436934e+00
 -1.9028130e+00
 -4.2147374e-01
 -1.6627535e-01
  2.0904539e+00
  1.6321803e+00
  1.4487502e-01
  1.0662303e+00
  8.7113076e-01
 -2.7574635e+00
  1.7972715e+00
 -2.1548846e+00
 -1.7622149e+00
 -7.3867941e-01
  1.2728000e+00
  2.2351409e-01
  7.2303027e-01
 -1.1716057e+00
  3.8663694e-01
  3.5007370e+00
 -3.5486467e+00
 -1.0622227e+00
  6.5330136e-01
 -4.7268015e-01
 -5.1907235e-01
  5.1898527e-01
 -1.4489800e+00
  7.6607573e-01
 -5.3464785e-02
  6.7471606e-01
 -2.0690875e-01
 -1.0338175e+00
  1.3339984e+00
  5.1590204e-01
 -3.3392565e+00
  2.1905639e+00
  2.2826098e-01
  8.7685633e-01
  2.7769849e-01
  1.5354821e-01
 -6.3990593e-01
  5.7360762e-01
  6.4911437e-01
 -1.6909072e-01
  3.6597209e+00
  7.0636988e-01
 -2.4778104e+00
 -3.8460383e-01
  1.1467285e+00
 -2.1018114e+00
  2.8732017e-01
 -2.1163707e+00
  8.5168105e-01
  1.5453507e+00
  2.7733502e+00
 -7.9697198e-01
 -3.1280994e-01
 -9.1870004e-01
  1.1826711e-01
 -1.5867900e+00
 -1.7017226e+00
 -7.0110267e-01
 -1.0144602e+00
  1.0991632e+00
  1.0928404e+00
 -1.5586283e+00
 -1.3990867e+00
 -7.1284384e-01
  3.8741839e-01
 -3.3423305e-01
  1.0270970e+00
 -8.5750169e-01
 -1.7239983e+00
  5.9081936e-01
 -3.1431103e-01
  7.6449841e-01
 -2.5912601e-01
  3.9119938e-01
 -1.2253690e-01
 -1.4762785e+00
 -2.9921563e+00
  5.3138447e-01
 -1.9084201e+00
  8.5191357e-01
  1.8306966e+00
  2.6366172e+00
 -1.5396197e+00
  3.0275649e-01
  3.7616864e-02
  2.3947592e+00
 -2.0693941e+00
 -3.0206285e+00
 -5.5232549e-01
 -8.2032669e-01
  4.3829274e+00
 -1.9588035e+00
 -3.9325148e-02
  1.4665701e+00
 -4.2088285e-01
  8.9728504e-01
 -1.4656371e+00
 -1.1602263e+00
  2.2090364e+00
  7.7574112e-02
 -4.0074029e+00
  3.6636994e+00
 -3.1934476e-01
  2.4591217e+00
  2.1864870e+00
 -6.5233082e-01
 -3.6062995e-01
  1.0232241e+00
 -8.1893444e-01
 -1.5196806e+00
  3.2995479e+00
  1.3797369e+00
 -4.4496231e+00
 -1.5850371e+00
  1.9419705e+00
 -1.3186718e+00
 -5.1928681e-01
  9.3428332e-01
 -3.4186501e-02
 -6.7972124e-02
 -2.4875535e-01
 -4.5094329e-01
  7.1380055e-01
  8.3891755e-01
 -3.9697585e-01
  8.3582157e-01
  7.7404732e-01
 -6.8509841e-01
 -4.3475652e-01
  1.2893133e+00
 -8.0131364e-01
 -2.3021141e-01
  8.5722446e-01
  6.6139489e-01
  1.5973845e-01
  2.5500720e+00
 -7.6982373e-01
  5.9964597e-01
 -3.6140576e-01
  6.7041315e-02
 -2.5233912e-01
 -1.0557959e+00
 -1.4694527e-01
 -8.2069373e-01
  6.3555723e-01
 -1.3636287e+00
 -2.3094584e-01
  6.6967303e-01
 -2.8965583e-01
  1.8055910e-01
  9.7893989e-01
 -5.0152642e-01
  1.4802957e+00
  7.6395851e-01
 -1.3200024e+00
 -1.9026883e-01
 -2.2359529e+00
  7.6902556e-01
  2.3639393e-01
 -1.1219148e-02
  4.6862811e-01
 -8.9110959e-01
 -1.9080155e-01
  8.1295705e-01
 -6.3010550e-01
  1.4432393e+00
  1.3015257e+00
  1.2586645e+00
 -7.2345108e-01
 -6.2813443e-01
 -2.5248592e+00
 -2.4555260e-01
 -2.9377273e-01
  4.5839453e-01
 -1.9350795e-01
  5.5394375e-01
  3.0319637e-01
  6.9974422e-01
 -1.0172227e-01
 -1.6991117e+00
 -3.5826349e+00
  7.5278455e-01
 -9.4662148e-01
  4.6034294e-01
  1.8737000e+00
  5.3906178e-01
  2.2895911e+00
 -2.4191687e+00
 -2.8173122e-01
  6.9405979e-01
  3.5127503e-01
  1.1176585e+00
 -6.9637191e-01
  1.3862568e-01
  1.0979865e+00
  9.1363862e-02
  4.3546920e+00
 -1.5861751e+00
  2.1945055e+00
 -2.1528652e+00
  1.9950686e+00
  2.0059237e+00
  4.1747445e-01
  8.3814275e-01
  2.1240065e-01
  1.5921247e+00
  1.7164497e+00
  8.1694251e-01
  7.3494506e-01
 -1.1162434e+00
  1.1265280e+00
  8.5860837e-01
  8.6343125e-02
 -2.5828347e-01
 -9.2549510e-02
  1.4544575e+00
  1.1629689e+00
 -4.1433206e+00
 -1.4264733e-01
 -2.0672598e+00
  3.7032335e+00
 -5.4981238e-01
 -4.0273803e-01
  3.1793287e-01
  5.9859353e-01
 -1.9671124e+00
 -2.4907341e+00
 -5.5465066e-01
  1.6327615e-01
  3.8887769e-02
 -1.1006225e+00
  4.1601107e-01
  3.9865300e-01
  1.2380089e-01
 -1.8922051e+00
 -1.9871527e+00
  2.2063446e+00
 -1.1451100e+00
  1.1052152e+00
 -9.9039209e-01
 -3.2928696e-01
  1.3200392e+00
  1.3633227e+00
  7.4025279e-01
  6.5563011e-01
 -9.0020680e-01
  1.1473580e-01
  4.0975145e-01
  7.6827335e-01
 -8.3183432e-01
  6.3951955e+00
  1.2446756e-01
 -1.4787928e+00
 -5.0648046e-01
 -1.7802668e+00
  4.5325565e+00
  9.8734272e-01
 -1.1509777e+00
 -1.1147714e-01
 -3.9204929e+00
  6.8743533e-01
  1.3477774e+00
 -3.1025662e+00
 -1.0211879e+00
 -2.1029179e+00
  1.4694972e+00
 -1.6280531e+00
 -1.1985327e+00
 -1.4966782e+00
 -1.5758877e+00
  1.1052627e-02
 -1.7896713e+00
  2.8648706e-02
 -2.8119566e+00
 -1.6935675e+00
 -2.0385077e+00
 -1.2122616e+00
  1.3756056e+00
 -3.3290210e-01
 -2.2107138e-01
  7.3178917e-01
 -1.8076783e-01
 -3.4276670e-01
  4.1045398e-01
  1.2258012e+00
 -1.6139400e+00
 -2.6250613e+00
 -1.6127084e+00
 -2.6391578e+00
  2.0360279e+00
  1.9268230e+00
 -7.5809914e-01
  1.2023228e+00
  2.0105256e-01
 -4.9026701e-01
  1.0687364e+00
 -1.2885673e+00
  3.9844143e+00
 -2.2376084e-01
 -1.0505754e+00
  1.2520956e+00
  4.5219260e-01
  1.5204375e+00
 -7.2869492e-01
  5.1020879e-01
  3.8778174e-01
  7.6193653e-02
  3.7170646e-01
  1.5462164e+00
 -4.4375226e-01
  6.7091829e-01
  1.6076773e-01
 -1.1306369e-01
  2.8013107e-01
  8.9289427e-01
 -2.7974311e-01
 -4.7544318e-01
 -3.2844651e-02
  1.1680701e+00
 -1.5366999e+00
 -3.0925521e-01
  1.0049642e+00
  1.2931014e+00
  1.3248600e+00
 -1.5962892e+00
 -3.5560885e-01
  1.8657053e-01
  2.8577132e+00
 -1.4723409e+00
  1.5185678e-01
 -9.5359826e-01
  3.1453466e+00
  9.0744150e-01
  2.0562445e-01
  3.4038672e+00
 -1.3717753e+00
 -4.7866395e-01
 -1.5325490e+00
  4.5397389e-01
  5.8255005e-01
 -3.4568772e+00
  2.9055765e+00
  1.5046098e+00
  1.5181712e+00
 -1.4772959e+00
  1.2193612e+00
  4.8190919e-03
 -2.0083363e+00
 -1.7245860e-01
 -1.0003506e+00
 -7.1145672e-01
 -3.5715431e-01
 -4.1749159e-01
 -2.2816430e-01
  1.6797131e-01
  1.7344656e+00
  1.4589635e+00
 -1.7925324e-02
 -2.0402942e+00
  2.2579203e+00
 -2.1174500e+00
 -3.4523823e+00
  6.3200217e-01
 -4.5319710e+00
 -2.0900395e+00
  3.2952511e+00
  4.0168033e+00
  1.1467394e+00
  9.8768872e-01
 -1.5067788e+00
  3.0397744e+00
  7.2242692e-02
  8.4371102e-01
 -5.3245630e-02
  2.2447686e+00
  2.1758091e+00
 -6.1625826e-01
  1.1613460e+00
 -1.3211396e+00
  9.7870129e-01
  7.7245653e-01
 -3.4575455e+00
 -4.2539769e-01
  6.5453786e-01
 -1.5898654e-01
 -1.4053584e+00
 -5.2324921e-02
 -1.7813787e-01
 -7.2838640e-01
  8.2826835e-01
  4.3407276e-01
  1.0323288e+00
 -4.5277417e-01
 -2.0050983e+00
  2.5258150e+00
 -1.1910648e+00
  9.8569375e-01
  2.6964939e-01
  1.3567979e+00
  1.3276884e-01
 -3.8818911e-01
  1.2376747e+00
 -1.2998461e+00
  9.4420397e-01
 -1.6611551e+00
 -1.4819131e+00
  1.2294765e+00
 -6.5558845e-01
  1.5653903e+00
 -2.9456666e-01
  2.8741172e-01
  4.3280560e-01
  3.3273575e-01
  6.9141263e-01
 -4.4363794e-01
  2.2336633e+00
  3.8904220e-01
  2.1797891e+00
 -9.3501383e-01
  3.6515036e-01
 -1.3754245e+00
  3.6970630e-01
  7.7229291e-01
 -7.7570274e-02
  8.5700327e-01
 -4.6693578e+00
 -2.5449628e-01
  8.4656620e-01
 -9.3030232e-01
  7.4070954e-01
 -1.8882446e+00
 -1.0003883e+00
  9.5140499e-01
  1.9474415e+00
  9.6577615e-01
 -8.5236615e-01
  2.7420480e+00
  9.1647774e-01
  3.6024436e-01
 -3.8819659e-01
  2.1615469e-01
  1.0637944e+00
  1.6639383e+00
  7.5222182e-01
  2.5596178e-01
 -2.4576540e+00
  3.1002870e+00
  1.8411610e+00
  2.8062227e-01
 -4.8670006e-01
  9.9844396e-02
 -2.0275700e+00
  2.0598309e+00
  4.2812973e-02
  1.3903779e+00
 -2.7958399e-01
  8.8221717e-01
 -2.0486407e+00
  2.5061126e+00
 -1.7966708e+00
 -6.3883233e+00
  7.0216697e-01
 -1.9019674e-01
  1.3836353e-01
 -1.3175025e+00
  1.6492857e+00
 -5.2268916e-01
 -4.4019551e+00
  9.3375200e-01
 -7.6437473e-01
 -3.1869608e-01
  1.8922392e+00
 -2.7987817e-02
 -5.5235225e-01
  3.6935246e-01
  2.6154795e-01
  2.8929794e-01
  2.1995679e-01
  6.4050585e-01
  4.4828114e-01
  3.2179754e-02
  3.6077803e-01
 -9.2204046e-01
  1.4181868e+00
  2.2983320e+00
 -2.8243101e+00
 -7.4231297e-01
  7.4478030e-01
 -6.3986790e-01
  1.1924702e+00
  1.3542413e+00
 -4.1482016e-02
  1.6159635e+00
  4.9501154e-01
  1.1472620e-01
  6.5259652e+00
  5.5670226e-01
  3.8395911e-01
  1.0487238e+00
  1.0095004e+00
  2.3000119e+00
  3.2311616e+00
 -3.8325853e+00
 -1.1358404e+00
 -5.2128017e-01
  2.0916018e+00
  1.8310803e+00
  4.9484763e-01
 -2.7426541e-01
 -1.0533149e+00
  1.7655542e+00
  5.4858369e-01
 -1.5302404e+00
 -6.9327027e-01
  2.3951719e+00
  1.5686827e+00
 -2.6974037e+00
  5.8969617e-01
  4.9472064e-01
  9.5271927e-01
 -5.3618851e+00
  1.6143811e-01
  1.4045660e+00
 -7.6628977e-01
 -1.3899583e+00
  6.8127930e-01
  1.4260262e+00
 -8.6651492e-01
 -4.7098887e-01
  3.0805516e-01
 -1.7254260e+00
 -3.2439508e+00
  1.8031843e+00
  1.5950179e-01
 -6.9605029e-01
 -4.9752662e-01
 -2.1400301e-01
 -5.3826303e+00
  1.5630318e-01
  1.5320849e-01
 -1.1592215e+00
  4.3460751e+00
 -2.7503633e-01
  6.1409628e-01
 -4.1109610e-02
  4.0645347e+00
 -2.6710956e+00
  8.3251017e-01
  8.7570466e-02
 -2.9509165e+00
 -1.3002120e+00
  4.2598997e-03
  1.2343215e+00
  6.5153486e-01
  9.1605562e-01
  6.5165043e-01
  1.3811311e+00
  9.3805474e-01
  1.0984383e+00
 -2.1938671e-01
  6.9761145e-01
 -1.6821824e+00
  9.4752002e-01
  5.9641713e-01
 -3.7834710e-01
 -2.1065130e+00
 -6.6183424e-01
  1.8541626e+00
  8.6010389e-02
 -1.7819171e+00
  1.1503602e+00
  8.4995353e-01
 -1.3169587e-01
  2.9318790e+00
  2.1878688e+00
 -2.4364476e+00
 -5.8513105e-01
  6.4873469e-01
  1.6025554e+00
 -9.2400324e-01
 -3.9605466e-01
  3.9581186e-01
 -2.4498470e+00
  1.1231078e+00
 -3.8487685e-01
 -1.1480953e+00
 -1.6353648e+00
 -2.1910989e-01
 -1.4344441e+00
  6.6899753e-01
  4.4034401e-01
 -6.6855812e-01
 -4.2026171e-01
 -2.1773303e-02
 -1.0644274e-01
  4.7511894e-01
  8.9482558e-01
 -4.2247459e-01
  2.6056820e-01
 -2.6721901e-01
 -1.1513031e-01
 -3.5732067e+00
  9.9360609e-01
  5.5629170e-01
  2.0500548e+00
 -3.3865345e-01
  9.5223022e-01
 -1.2817117e+00
 -1.4200412e+00
  2.1742098e+00
  5.5040282e-01
 -1.4946486e+00
 -2.9721506e+00
  5.5335170e-01
 -7.6242334e-01
 -1.2097720e+00
  3.2479551e-01
 -5.2514482e-01
  5.9665883e-01
  5.2293658e-01
 -4.6956500e-01
  2.6938853e+00
 -2.7207656e-02
  1.3169004e-01
  9.6263085e-03
  8.8818580e-01
 -1.5059502e+00
  4.6719405e-01
  3.4765083e-01
 -3.8619563e-01
  4.6684965e-01
  8.8971841e-01
 -7.0923465e-01
 -1.5004146e-01
  6.7962748e-01
 -3.3070460e-01
 -2.9848573e-01
  1.0853239e+00
  1.9244257e+00
 -4.3399539e+00
 -4.2243809e-01
  3.0345659e+00
  2.5805824e+00
  6.5380079e-01
  5.6730831e-01
 -3.7608526e+00
  3.3011198e+00
  1.0027096e+00
 -1.5960960e-01
  1.1342090e+00
  6.3653421e-01
 -3.3886328e+00
  3.1523696e-01
 -8.4523106e-01
 -6.1249483e-01
 -1.2952409e+00
 -8.4672409e-01
 -3.5343816e+00
 -8.0654317e-01
  7.5382268e-01
 -1.8746225e+00
  1.0428112e+00
  1.0256584e+00
 -5.2573532e-01
 -6.1942577e-01
  7.5010315e-02
 -2.2488168e-01
 -4.8758557e-01
  3.6749145e-01
 -8.5997999e-01
 -5.6028523e+00
 -2.7334599e+00
 -2.2096338e+00
 -3.4060626e+00
  7.0605272e-01
 -4.0262599e+00
 -3.8182168e+00
 -1.0386301e+00
 -2.5180888e-01
  3.4378666e-02
 -1.0922939e+00
  2.3824904e+00
  3.2457449e+00
 -6.6304046e-01
  3.0515078e-01
 -8.6180151e-01
  3.4423606e+00
 -3.3071771e-01
  1.9696456e+00
  2.2545096e-01
 -2.8063362e-02
  1.6446257e+00
 -6.4338923e-01
  2.6092339e-01
  1.6387526e+00
  1.2127088e+00
 -1.1502520e+00
 -3.2263368e-01
  1.9243671e-01
 -1.9917396e+00
 -2.3567743e+00
 -3.3433634e-01
  4.4350088e-01
  3.2851446e-01
  1.6846830e-01
 -1.0114371e+00
  4.5178052e-02
  1.0284259e+00
  1.6051677e+00
  2.7172816e+00
  6.8160051e-01
  1.6183397e+00
 -1.2808867e+00
 -1.5016516e-01
 -3.9988610e-01
 -6.4261818e-01
  4.2622280e+00
 -8.1232071e-01
 -4.1077552e+00
  2.6959863e-01
  1.0805858e+00
  1.9397565e+00
  2.3227161e-01
  5.7802707e-01
  1.1142517e+00
  4.8303318e-01
  5.8100301e-01
 -1.4305869e-01
 -7.8786600e-01
  2.1568284e+00
 -8.1406480e-01
 -9.7601378e-01
 -7.9400617e-01
  2.0837336e+00
  1.2049332e+00
  5.2389592e-01
 -1.2059513e+00
  2.2255816e+00
 -6.3390833e-01
  1.3902918e-01
 -3.5608548e-01
 -9.6909118e-01
  1.7675611e+00
  5.3327465e-01
 -5.4823488e-01
 -6.9049430e-01
  5.6004119e-01
 -1.9998523e+00
 -1.2479705e-01
  2.4469684e-01
 -3.8654867e-01
  2.2412107e+00
 -2.4294746e-01
  5.7462966e-01
  6.3396305e-02
 -3.0232823e+00
  1.8563511e+00
 -3.0612257e-01
  1.5774748e+00
  2.1689765e-02
  2.7914641e+00
 -3.4508410e+00
  2.3549836e+00
  1.3777076e-01
 -8.5605448e-01
 -2.3177436e-01
 -1.8084077e+00
 -1.3724546e-01
 -8.0146497e-01
  8.2535344e-01
  2.5397292e-01
  6.0577851e-02
 -2.4947555e+00
  4.6697232e-01
 -7.1763110e-01
 -4.4450217e-01
 -7.8599924e-01
 -1.6735783e+00
  2.1153355e+00
  2.0806780e+00
  2.9122949e-01
 -2.9844360e+00
  1.5471895e-01
  2.7988235e-02
 -5.0347167e-01
  9.2895621e-01
  8.5039258e-01
 -1.5544113e+00
  1.2109675e+00
  9.2013991e-01
  1.4166884e+00
 -2.0971055e+00
 -2.8868413e+00
  8.6511236e-01
  9.2854601e-01
  2.8132508e+00
 -3.0647974e+00
 -4.3925399e-01
 -6.2323060e-02
 -1.5087471e+00
  6.1156434e-01
 -1.3487552e+00
  3.7610304e-01
  8.5359529e-02
  7.8561312e-01
 -4.6257734e-01
 -1.7197169e+00
 -3.1551686e-01
 -1.9353664e-01
  1.7021383e-01
  6.6869183e+00
  2.9379916e+00
 -4.5158872e-01
  2.8532365e-01
  6.3731140e-01
  1.0986164e+00
  1.1884046e+00
 -4.1805782e+00
 -5.8841562e-01
 -1.6182431e+00
  4.3735399e+00
  1.7847309e+00
 -5.8053031e+00
 -4.4141480e-01
 -2.3115330e+00
  2.8781693e+00
 -1.2559150e+00
 -2.0297523e+00
  1.8950946e+00
 -1.4927119e+00
 -6.0121202e-01
 -2.0015948e+00
  4.3636408e+00
 -6.4403504e-01
 -2.6471853e-01
  1.3018373e+00
  1.1795470e+00
  3.2475296e-01
 -1.8167056e-01
 -1.5559862e+00
  1.7326626e-01
 -4.6323931e-01
  3.6680731e-01
  5.9020114e-01
 -1.6250169e-01
 -2.4376523e+00
 -1.8695210e+00
 -3.3514955e+00
 -1.4422069e+00
 -1.3863153e+00
 -2.2848505e-01
  3.1289651e+00
  2.4175410e+00
  1.2652808e-01
  2.2931116e+00
  3.6927006e-01
  5.0036478e+00
  1.7913489e-01
 -3.5401827e-01
  9.5611411e-01
 -2.5351748e+00
 -1.8505409e-02
 -5.0898647e-01
  5.0129718e-01
  3.4972992e+00
 -2.4994630e-01
 -2.8722454e-02
 -5.1647586e-01
  2.0510659e+00
 -1.8977584e+00
  4.5038619e+00
 -6.7319173e-01
  1.3988107e+00
 -2.4350592e-01
 -1.7422414e+00
 -1.1239231e+00
 -1.2419395e+00
 -1.3065499e+00
 -1.3089200e+00
 -1.2320427e+00
 -1.4969770e+00
  2.4990369e-02
  4.7897568e-01
  7.3569113e-01
 -2.5562789e+00
 -7.9076551e-02
  6.5600216e-01
  2.0134609e+00
 -3.1990123e-01
  7.0405251e-01
 -2.8641903e+00
  1.4369609e+00
 -1.2566342e+00
 -7.5043410e-02
 -1.9034410e-01
 -1.0073457e+00
 -8.1801391e-01
  5.8070064e-01
  1.3535600e+00
  3.4725630e-01
  7.7818531e-01
  7.0278907e-01
  6.4599282e-01
 -4.8350742e-01
 -1.7581825e+00
  1.0050710e+00
 -4.2411399e-01
  1.0449807e-01
 -6.7603874e-01
 -1.2922724e+00
 -4.6095297e-01
  4.0737498e-01
 -1.6847942e+00
  1.4801218e-01
 -8.7439492e-02
  2.3227539e+00
  4.7682288e-01
 -1.3132539e+00
 -2.0098174e+00
 -1.3072237e+00
 -5.8664972e-01
 -2.1219683e+00
 -3.0692208e+00
  1.2137069e+00
 -1.1740354e+00
  2.1830759e+00
  5.4391128e-01
 -1.6425987e+00
 -1.9761199e+00
  7.4573827e-01
 -9.6831149e-01
  1.4976531e+00
  1.7616498e-01
  1.2491260e+00
  2.2037241e+00
  4.1129794e+00
  5.7520622e-01
 -4.3530682e-01
 -4.6961825e-02
 -1.2304704e+00
  2.4498354e-01
 -1.1896422e+00
  2.2910759e+00
 -1.4257464e+00
 -8.5950357e-01
 -2.6079309e-01
  4.3249106e-01
  8.7243879e-01
  3.2824397e-01
 -9.6789676e-01
  1.8748121e-01
 -7.2997075e-01
  1.3543496e+00
 -4.5170063e-01
  9.2026049e-01
  1.7036436e+00
 -7.1262360e-02
  5.2534139e-01
 -1.2425977e-01
  5.3180065e-03
  5.3460157e-01
 -2.0080066e+00
 -1.4891976e+00
 -2.9806104e+00
 -2.1449162e-01
  8.7337965e-01
 -3.7657709e+00
  2.8044187e-02
 -1.3911493e+00
 -7.8643900e-01
 -3.7703222e-01
 -7.7450025e-01
  9.1661549e-01
 -1.1278446e+00
 -1.7204577e+00
 -1.2166495e+00
 -1.6814307e+00
  2.8493860e-01
 -2.0480642e+00
 -1.4587645e-01
 -1.0076160e+00
 -3.0896845e-01
 -1.9845161e+00
 -5.0043678e+00
  1.9685833e+00
  3.8702841e+00
  1.1959136e+00
 -3.5241732e-01
 -1.4773889e+00
 -7.7768224e-01
  7.5627720e-01
 -2.0800979e+00
 -2.6684933e+00
 -1.1751727e+00
 -1.2217770e+00
  2.2669457e-01
 -1.3974578e+00
 -8.0680233e-01
 -6.6586083e-01
 -7.0763677e-02
 -3.0995729e+00
  2.6555157e+00
 -8.8210911e-01
 -5.3301625e-02
  2.2068412e+00
 -2.5665541e+00
 -1.5989659e+00
 -1.5878085e+00
  4.9981706e-02
  2.2961171e+00
 -3.0252893e+00
  2.1428940e+00
 -2.2479787e+00
  3.8830510e-01
  6.9436681e-01
 -4.2067596e-01
 -1.1785359e+00
  1.3262528e+00
  4.7299117e-02
  6.1896366e-01
  4.6654117e-01
  3.8170916e-01
 -9.6737272e-01
 -1.0329922e+00
  6.8735921e-01
 -8.6013812e-01
  1.0660188e+00
  2.1834366e+00
 -2.2150823e-01
  1.0281029e-01
 -2.1856036e+00
  3.6636379e+00
  1.1914057e-01
 -7.1292019e-01
  1.7169704e-01
  4.7082016e-01
  3.2914791e-02
  1.1575723e+00
  5.8081472e-01
  5.4380894e-01
 -1.0285302e+00
  1.4256109e+00
  1.6205182e+00
  2.1310771e+00
 -7.4019104e-01
 -1.2174257e+00
  8.1058401e-01
 -6.1276734e-01
  1.3311247e+00
  5.2874856e-02
  1.0871326e+00
  2.3696736e-01
 -7.3762959e-01
 -3.4628165e-01
 -3.0942747e-02
  3.7361134e-02
 -2.7713511e+00
  2.5551066e+00
 -3.4983282e+00
  1.4020572e+00
  2.8269991e-01
  2.0785414e-04
  9.4204807e-01
 -4.1556689e-01
 -3.3944553e-01
  2.2350760e+00
  1.3853806e-01
 -3.3651352e+00
 -1.1986026e+00
 -4.0747777e-01
 -7.6657200e-01
 -2.3378816e+00
 -3.8500056e-01
 -1.1215100e+00
  1.2335278e+00
  6.0615614e-02
 -1.2414296e+00
 -2.1580820e+00
 -1.2568784e+00
  8.6225712e-01
  5.4580551e-01
  1.3194815e+00
  1.2127705e+00
  8.8396031e-01
  1.6995004e+00
 -3.0152660e-02
 -9.5484763e-02
  1.1120473e+00
  1.3594677e-01
 -9.8267868e-02
  3.9896741e+00
  2.7090986e+00
 -2.3469160e+00
 -3.6842996e-01
 -2.6102912e-01
 -5.2675903e-01
 -1.5542001e+00
  2.2802718e+00
  3.7065691e-01
 -3.6084780e-01
  1.7440479e+00
 -1.6189464e+00
  1.3100272e+00
 -1.2176895e+00
  2.8844509e-01
 -1.8536885e+00
  5.9211218e-01
  2.6261580e+00
 -1.1499649e+00
 -3.3557951e-01
 -7.4451476e-01
 -7.4254215e-01
  8.5403442e-01
 -2.6014036e-01
  1.7727706e+00
  1.2669287e+00
 -4.2233038e-01
 -8.8439643e-01
  2.3420379e-01
 -2.3460288e-01
  3.9172359e-02
  4.4144608e-02
  1.7479259e+00
  2.0019639e+00
 -2.1424045e-01
  1.2597782e-02
 -3.9536295e+00
 -2.4973536e+00
 -1.3833238e+00
  2.0238702e+00
  6.0330696e+00
 -3.7292936e+00
  2.5818791e+00
 -2.7426815e+00
 -3.2098789e+00
  1.2987361e+00
  3.8726828e-01
  1.9308182e+00
 -1.1908916e+00
 -1.8105416e+00
 -2.0475347e+00
  1.2109953e+00
  4.2737627e-01
 -9.4806775e-02
  1.4738895e+00
  1.9645888e+00
  7.1268842e-02
  3.3571928e+00
 -1.3955861e+00
  1.1078387e+00
 -9.9081087e-01
 -2.7318795e+00
 -9.6883720e-01
 -4.7787967e-01
 -1.5197980e+00
  4.7643954e-01
  9.6706372e-01
  3.1425881e-01
 -1.8055122e+00
  6.5158844e-02
 -5.0301003e+00
 -7.9921204e-01
 -2.5560341e+00
 -1.2391442e-01
 -1.6951813e+00
 -1.6017631e+00
 -6.3989878e-01
 -1.9986688e+00
  4.5855087e-01
  9.5205285e-02
 -3.5927184e+00
  7.4231315e-01
  3.5373785e+00
 -4.1835472e-01
 -7.7732033e-01
 -1.2738956e+00
 -1.6327149e+00
 -8.4839588e-01
 -2.4146484e-01
  3.5417123e+00
 -1.7684488e+00
 -5.7400548e-01
  5.7692480e-01
 -1.6145949e-01
  2.2460687e+00
  1.6891155e+00
 -2.0768011e+00
 -2.9853261e-01
  1.1023031e+00
 -1.8308843e+00
  3.9708257e-01
  8.7646383e-01
  5.0991023e-01
  1.1587343e-01
  2.6658350e-01
 -1.6082624e-01
  1.2543355e+00
 -6.8573993e-01
 -9.0692610e-01
 -3.6807644e+00
 -2.0173194e+00
 -1.0384893e+00
 -1.1170117e+00
  6.1055380e-01
 -4.3295652e-01
 -3.5184893e-01
  1.3526989e+00
  7.9418415e-01
 -1.6092752e+00
  5.6440204e-01
  8.4342360e-01
  2.5647187e-01
  1.1950223e+00
  8.9592826e-01
  2.7982013e+00
 -2.5763769e+00
  1.8526552e+00
 -1.6864231e+00
  4.9916744e-01
 -1.1068716e+00
  1.4273483e+00
 -3.6007404e-01
  5.1474118e-01
  5.0804883e-01
 -2.9772630e+00
 -8.3672184e-01
  2.2424826e-01
  6.2434757e-01
 -4.3205318e-01
 -1.4610043e+00
 -5.3181400e+00
 -3.5573714e+00
  3.8461666e+00
  3.7454004e+00
  4.3694663e+00
  3.2917422e-01
 -1.2798818e+00
 -1.4031044e+00
  2.8992689e+00
 -1.6468340e+00
  1.4216878e+00
  1.0407401e+00
 -2.2279201e+00
  2.8607016e+00
 -5.9190243e-01
  5.3042376e-01
  2.3555210e+00
  2.1763346e+00
  7.6001067e+00
  3.7627740e+00
 -1.2270201e-01
  3.9304731e+00
  9.7511947e-01
  6.8176265e+00
 -7.7196205e-01
  9.8584706e-01
  3.2680843e+00
 -3.0915868e-02
 -1.4723564e+00
 -2.7228951e-01
 -6.1133134e-01
  2.8475621e+00
 -3.0973402e-01
 -3.8786149e-01
 -3.1596017e-01
 -1.2705145e+00
  9.6272862e-01
  2.3614206e+00
  4.3477529e-01
  1.6628523e+00
  5.4687965e-01
 -1.8777058e+00
 -2.5030103e-01
  4.6584433e-01
 -9.4346918e-02
 -1.2236592e+00
 -1.7159510e+00
 -1.3876822e+00
  2.1244223e-01
 -4.7344026e-01
  4.7953779e-01
  1.0729314e+00
 -2.3766973e+00
 -1.2612765e+00
  1.2528725e+00
  2.2342505e+00
 -1.2038843e-01
 -9.3013775e-01
 -8.1628954e-01
  3.6681283e-01
 -2.3559228e-01
 -3.9745355e+00
 -7.5663871e-01
 -4.4816986e-01
 -1.3603522e+00
 -2.3361862e-01
 -1.4810148e-01
 -1.4055901e+00
  1.1568139e-01
  7.4938357e-01
 -5.4806870e-01
  7.6593637e-01
  2.1247828e+00
  1.4573184e+00
 -1.5376747e+00
  1.1188304e+00
  8.5558635e-01
  1.6048464e+00
  7.4144876e-01
 -3.8067584e+00
  2.0606463e+00
 -1.5530196e+00
  1.5188531e+00
  1.0112584e+00
 -3.0338778e+00
 -5.0928712e-01
 -1.5656689e+00
 -1.6729969e+00
  1.6862060e-01
 -2.2141678e+00
  3.6355438e+00
 -3.4592330e+00
 -1.0754250e+00
 -8.9178967e-01
  1.9737148e+00
  8.3760262e-01
  2.1332941e+00
 -1.7947692e+00
 -1.7656674e+00
  1.7918546e+00
  2.5064948e-01
  1.6095830e+00
  1.5884383e+00
  7.1429294e-01
  1.8741636e+00
 -8.1843513e-01
 -7.9443735e-01
 -1.3232539e+00
 -8.9985532e-01
  1.7130979e+00
  1.2617731e+00
 -4.0436184e-01
  1.1262054e+00
  7.7589887e-01
 -3.2307222e-02
  1.0671428e+00
 -3.7765506e-01
  1.0666709e+00
 -1.1323358e-01
 -1.2288153e-02
 -1.5704733e+00
  2.0309112e+00
 -1.2246422e+00
  2.3196214e-01
 -1.4231652e+00
  2.4939777e-01
  2.6781960e+00
  4.1734198e-01
  2.3365217e-01
  7.7793121e-01
  1.4098207e+00
 -9.2533609e-04
  7.3635399e-01
  2.5402784e+00
 -2.5846976e-01
 -3.6537200e-01
  8.9266223e-01
  7.4897248e-01
 -1.0461843e+00
  1.4829395e+00
 -5.1207024e-01
 -1.8688816e+00
 -1.6758015e+00
 -2.5018343e-01
 -3.5577693e+00
 -1.0229985e+00
 -2.1892424e+00
 -2.5532135e-01
  1.7832561e-01
  7.5668424e-01
  2.8389683e-01
  1.2746568e+00
  2.6516137e-01
 -8.2982618e-01
  3.0914024e-01
  4.1115493e-01
  8.3506924e-01
  8.7893611e-01
  1.5852503e-01
  7.3611647e-01
 -8.9557809e-01
  1.1385931e-01
 -1.3920403e+00
  4.4908336e-01
  2.8558365e-01
  4.8041251e-01
  3.5368672e-01
  3.8743037e-01
 -1.4657755e-01
  2.7491248e+00
 -4.7207329e-01
  5.3363216e-01
 -3.5717118e-01
  5.8159667e-01
 -3.5683751e-01
 -7.1389842e-01
  1.3481121e+00
  5.5148613e-01
  1.5712860e+00
  2.8821000e-01
 -2.0522754e-01
 -7.5448775e-01
 -2.4503770e+00
  1.5384848e-01
 -6.9062155e-01
  1.1904845e-01
  3.0277136e-01
 -4.3597564e-01
 -1.4602664e-01
 -3.2844262e+00
 -6.3928223e-01
  3.1229246e-01
 -1.6732205e+00
 -4.4035736e-01
  5.6699473e-01
  5.9761661e-01
  2.5837916e-01
  5.9200406e-01
 -1.5827280e+00
 -7.2067964e-01
 -6.5228623e-01
  5.4037070e-01
  5.5661529e-01
  6.4400393e-01
 -6.1004639e-01
 -1.7894056e+00
 -1.8797389e+00
 -6.1913365e-01
 -4.6356025e-01
  6.7729938e-01
  3.2242298e-01
 -4.5776692e-01
 -7.4556732e-01
 -7.6406002e-01
 -2.8780338e-01
  3.3182445e-01
  8.4049159e-01
 -3.9631575e-01
 -7.0950526e-01
 -3.4272590e-01
  4.5841929e-01
 -4.1421053e-01
  2.8914676e+00
  2.4642420e-01
 -1.2154636e+00
  9.8076087e-01
 -9.4154418e-01
 -2.3303086e-01
 -2.9834611e+00
 -1.9853102e-01
  1.9892273e+01
 -2.1220167e+00
 -3.5058734e+00
  3.0018988e+00
  1.4276818e+00
 -6.6946158e+00
 -2.5465055e+00
  3.0429623e+00
  5.4183216e+00
 -7.7619028e-01
 -3.4969118e+00
 -7.3016191e+00
 -1.7222154e+00
  2.2435218e-01
 -3.9881647e+00
  5.6196856e-01
  4.2658553e+00
  7.4812281e-01
  3.0529532e+00
  7.1321678e-01
  1.8191031e-01
  8.2629174e-01
 -7.4728590e-01
  2.8126163e+00
 -7.1271653e+00
 -3.1795254e-01
  4.5599957e+00
  5.0689363e+00
 -1.7577537e+00
 -1.3091168e+00
 -1.7473332e+00
  1.1585722e+00
 -7.1945560e-01
 -1.5810995e+00
 -1.0224848e+00
  3.5712593e+00
  3.8867342e+00
 -9.0598041e-01
 -2.1763539e+00
  1.1146898e+00
  6.4989619e+00
  5.4564571e+00
 -3.5949869e+00
 -6.0180402e+00
 -2.1255903e+00
  2.0921965e+00
  1.4204311e-01
  3.1496754e+00
 -4.4526401e+00
 -2.9995444e-01
  3.6035011e+00
  5.2702713e-01
  7.4935865e-01
  1.7975729e+00
  1.3592644e+00
 -1.8973451e+00
 -4.0920115e+00
  6.5448780e+00
  4.2657018e+00
 -2.9347482e+00
 -3.3474650e+00
 -1.6215163e+00
 -7.0250326e-01
 -8.5809392e-01
  1.2769005e+00
  8.3281412e+00
 -1.0009906e+00
 -4.9237709e+00
  1.6992534e+00
  4.6613688e+00
  4.7011173e-01
 -3.4016671e+00
 -1.5866208e+00
 -1.3080939e-02
  2.4487374e+00
  4.1649094e-01
 -3.2598469e-01
 -2.1584206e+00
  1.6456582e-01
  3.2323938e-02
  8.5349256e-01
 -1.2260854e+00
 -3.2826703e+00
 -4.5743780e+00
  1.9408752e+00
  1.5254618e+00
 -2.0270345e+00
  1.6816525e+00
  4.4447951e+00
  1.4934634e+00
 -2.3296809e+00
  4.1251560e-03
  4.1251560e-03
  4.1251560e-03
  4.1251560e-03
  4.1251560e-03
  5.2743582e-03
  5.2743582e-03
  5.2743582e-03
  5.2743582e-03
  5.2743582e-03
  4.1027446e-03
  4.1027446e-03
  4.1027446e-03
  4.1027446e-03
  4.1027446e-03
  2.3731452e-03
  2.3731452e-03
  2.3731452e-03
  2.3731452e-03
  2.3731452e-03
  1.4660439e-03
  1.4660439e-03
  1.4660439e-03
  1.4660439e-03
  1.4660439e-03
  7.1759237e-04
  7.1759237e-04
  7.1759237e-04
  7.1759237e-04
  7.1759237e-04
  5.9611837e-05
  5.9611837e-05
  5.9611837e-05
  5.9611837e-05
  5.9611837e-05
