nep4_zbl 1 C 
zbl 1 2
cutoff 6 5 163 106
n_max 4 4
basis_size 8 8
l_max 4 2 1
ANN 80 0
  2.1128962e+00
  3.4000118e+00
 -1.2868552e+00
 -2.0632622e+00
  3.1542277e-01
  1.1213322e-01
 -1.4532772e+00
  9.5558143e-01
 -6.0141969e-01
  8.8700615e-02
 -3.8194142e-02
 -1.7095368e+00
 -1.1278582e+00
  1.5632610e-01
  1.8004534e+00
 -7.0207220e-01
 -1.3061285e+00
 -1.3259817e+00
  9.1365039e-01
  1.8077154e+00
 -6.5288556e-01
 -2.1377711e-01
  9.7480798e-01
  2.2452743e+00
 -5.8342415e-01
  4.3309700e-02
 -1.1727418e+00
  1.3474533e-01
  6.6441935e-01
  1.0280035e+00
 -5.5993986e-01
  1.0284735e-01
  1.7090909e-01
 -1.5349881e-01
 -1.3273370e+00
  1.5099968e+00
  1.2701592e+00
  2.9068251e+00
 -1.1949849e+00
  1.0431243e+00
  2.0849495e+00
  1.7562307e+00
 -3.0209067e+00
  1.2016236e+00
 -1.2160541e+00
  2.1725221e+00
  9.4716781e-01
 -1.1262274e+00
  2.1203442e-01
 -8.7300795e-01
  2.0637496e+00
 -2.7904124e+00
 -1.7534529e+00
 -1.9255354e+00
 -4.0946043e-01
  3.8504854e-01
 -2.2749493e+00
  1.6806246e+00
  4.2588076e-01
 -7.0081145e-01
  9.1096622e-01
  4.3695912e-02
  3.2525356e+00
  1.8680061e+00
 -1.5431935e+00
  3.5208717e-01
 -6.8493342e-01
  1.5069607e+00
 -4.8776844e-01
 -9.4704109e-01
  1.3638534e-01
 -1.2711265e+00
  3.2622492e-01
 -1.4850528e+00
  1.4892178e+00
 -1.4415988e+00
  2.4410598e+00
  3.5056731e-01
 -9.1366374e-01
  2.0413189e-01
 -4.8113790e-01
  5.6015658e-01
  1.0588585e+00
  1.4170754e+00
  9.7265011e-01
  1.3980364e+00
 -2.1436918e-01
 -1.2180588e+00
  5.4629784e-02
  2.6120827e+00
  4.4671112e-01
  2.0336552e+00
  8.7238252e-01
  1.1887898e+00
  5.8999699e-01
 -8.5497215e-02
 -3.5464604e+00
  4.1464624e-01
  2.1069231e+00
 -5.7623285e-01
 -5.0955737e-01
 -7.2074288e-01
 -6.1977901e-02
  3.1019348e-01
 -9.1715790e-03
 -2.1286438e+00
 -1.0615722e+00
 -1.6749681e+00
  1.1397657e+00
 -5.5491645e-04
 -2.2228606e+00
  2.3692253e-01
  3.0257344e+00
  3.9051652e-01
  5.8288610e-01
 -3.0603388e-01
  2.5898428e+00
  7.0645976e-01
  3.4924805e-01
 -2.4391343e-01
 -2.7559450e-01
  2.2747302e+00
  2.3979113e+00
  5.3429954e-02
 -3.3660799e-01
 -3.6616233e-01
  1.2202021e+00
  1.1173686e+00
 -1.0764182e+00
  3.2804644e-01
  1.2687515e+00
 -6.4674264e-01
 -2.3869154e+00
 -1.4511869e+00
  4.4648129e-01
  1.0052308e+00
  2.0868888e-01
  7.5941697e-02
  1.2095879e+00
  2.3775536e-01
 -4.4754159e-01
 -1.7923558e+00
  5.0084528e-02
 -2.1672095e-01
  5.0147176e-01
  2.1854182e-01
 -8.9757718e-02
  3.3823606e-01
 -1.2002606e+00
  7.1508443e-01
 -2.0971259e-01
 -1.4786923e+00
 -8.4441298e-01
 -2.1902084e-01
  1.1910498e+00
 -1.7498760e-01
  7.1790653e-01
  3.1703821e-01
  6.6604108e-02
 -3.4865139e-03
 -2.4141870e-02
  4.2520389e-01
  2.1827742e-01
 -2.8705350e-01
  6.2012756e-01
  1.0216208e+00
  4.3673670e-01
  2.0427200e-01
  4.4444424e-01
 -6.0352731e-01
  2.4836847e-01
  2.2789179e-01
 -2.1617937e-01
 -1.7257017e-01
  1.0374049e+00
 -1.7940866e+00
 -2.4339426e+00
 -1.0796384e-02
  1.0010052e-01
  1.7705117e+00
 -2.0401603e-01
  4.1981059e-01
  2.1461134e+00
 -3.6819315e-01
  3.5554910e+00
 -2.0746655e+00
 -8.4279716e-01
  2.5489080e+00
 -1.1210996e+00
  1.5969044e+00
 -6.0553050e-01
  1.7830031e+00
  2.9426343e+00
  5.8598500e-01
  2.9658647e+00
  4.3016672e-01
 -9.2473495e-01
 -4.0112373e-01
  1.1683158e-01
  1.7450672e+00
 -3.1358998e+00
  1.9052541e+00
  3.5939521e-01
  2.1519241e-01
  6.2750858e-01
 -3.5704526e-01
 -2.2133151e-01
  9.2501128e-01
 -1.7765428e-01
 -1.3289080e+00
 -1.1002454e+00
 -3.9323342e-01
  1.0298046e+00
  1.3816779e+00
  2.4437537e+00
 -3.5717041e+00
 -2.3104122e-01
  2.8015423e-01
  1.2909068e-01
  1.5788782e+00
 -1.0685234e-01
 -1.7633078e+00
 -7.1743864e-01
  1.0088102e+00
  1.9461561e+00
 -4.0256256e-01
 -1.5640581e+00
 -1.1907855e+00
  2.5949728e+00
 -1.6060613e+00
  3.4739313e-01
 -2.6469052e+00
 -1.3170136e+00
  1.9760163e+00
  8.0285692e-01
 -1.1007715e+00
  7.4748003e-01
  3.6243162e-01
  9.6686900e-02
 -1.0682953e-01
  8.5465562e-01
  4.9353799e-01
  4.5327581e-03
 -5.0389510e-01
 -8.2593030e-01
 -4.8790183e+00
 -6.0905856e-01
 -3.9012650e-01
  2.3230115e-01
  4.5371804e+00
 -3.4704986e+00
 -2.7488918e+00
  1.4565090e+00
 -1.3649795e+00
 -9.1435090e-02
  3.0836347e-02
 -1.7956538e+00
  1.2765360e+00
  1.4640719e-02
  1.0750813e+00
  4.2583907e-01
 -2.0718849e+00
 -1.1059232e+00
  2.3641660e+00
  1.3648978e+00
  1.0513555e+00
  6.2143040e-01
 -1.3558824e+00
 -8.8139695e-01
  1.6687716e+00
 -6.8540275e-01
 -1.4340609e+00
 -2.0347889e-01
 -1.6505066e-01
 -2.4011065e-01
  2.8035557e-01
 -4.1118759e-01
 -1.2878321e+00
 -1.4774378e-01
 -2.5241137e-01
 -7.9141903e-01
  2.0223877e-01
 -1.9547513e+00
  2.5715761e+00
  2.7421862e-01
  3.0988991e+00
  4.6955192e-01
  1.4446120e+00
 -2.2769764e-01
  4.6984324e+00
  5.9908348e-01
  1.2917119e+00
 -6.9648623e-02
  1.3951815e+00
 -7.8162044e-01
 -4.9220166e-01
 -2.9676244e-01
  1.3259417e-01
 -1.2438377e+00
 -1.1085459e+00
  1.8650503e+00
 -3.5058504e-01
  8.7115377e-01
 -8.8897653e-02
  9.1329603e+00
 -1.0299301e-01
  1.4879217e+00
 -1.0432481e+00
  9.0793169e-01
  1.2865347e+00
 -6.3325815e-02
 -5.5110860e-01
 -5.2715924e-02
 -9.0817422e-01
  2.0490922e-01
  3.5943687e+00
 -3.1782803e-01
 -7.5611353e-01
 -1.4416321e-01
 -2.0201044e+00
 -8.6339033e-01
  1.9190265e-01
  6.4413178e-01
  2.2807468e-02
 -9.0974349e-01
  2.8989521e-01
 -1.5884116e+00
 -3.5640267e-01
  1.1776437e+00
 -1.6210819e+00
 -1.8548337e+00
 -1.3770037e+00
 -2.2155011e-01
 -2.1451089e+00
  4.8705924e-01
  9.9701911e-01
 -9.5031887e-01
  3.4861547e-01
 -3.7425300e-01
 -2.5181131e+00
  2.5639513e+00
  4.3528071e-01
 -6.1629570e-01
 -8.5223734e-01
 -6.7949109e-02
 -6.9312316e-01
  5.6551760e-01
 -8.4615338e-01
 -4.8664922e-01
  3.8468564e-01
  1.4625279e+00
  2.0225511e+00
  8.2044929e-01
 -1.4683448e-01
  4.6612278e-01
  1.6975342e+00
 -9.7201526e-02
  3.8861561e+00
  7.9986542e-02
 -1.0481755e-01
 -3.7357724e-01
  1.0837349e-01
  6.6671854e-01
  9.1954523e-01
  1.0425367e+00
  8.5153687e-01
  5.5757535e-01
 -3.7056708e-01
 -5.4477650e-01
 -9.8742431e-01
  3.1887114e+00
 -1.0594264e-01
 -9.3364984e-01
  1.1722494e-01
  6.5199631e-01
  1.3651052e+00
  3.8857684e-01
  3.1621167e-01
  3.0659513e+00
  1.6823570e+00
  4.2381999e-01
 -1.3276780e+00
  1.8868229e-01
  1.8646574e-01
  1.8713847e-01
  1.8333328e+00
 -3.1694669e-01
 -9.1144603e-01
  2.1503484e-01
  1.3506114e+00
 -3.3744121e-01
  1.2140065e-01
  9.6745187e-01
  9.9956203e-01
  1.1231661e+00
  4.9453282e-01
  3.0617762e-01
  2.3035465e-01
  4.3727818e-01
  8.1918365e-01
 -1.4194905e+00
 -1.0293023e-02
 -3.0634889e-01
 -4.1144547e-01
 -8.8147897e-01
  1.5408870e+00
 -2.5225084e+00
  1.3747572e+00
  4.2746800e-01
 -3.3531636e-01
  7.2951317e-01
  3.1994340e+00
 -5.5104798e-01
  4.4211039e-01
  8.3980256e-01
  1.1723750e+00
 -2.3001340e-01
  2.1533456e-01
 -3.9015755e-01
  9.3555190e-02
  5.2427351e-01
 -7.7460237e-02
  2.3618565e+00
  6.6148341e-01
 -1.7327836e+00
 -2.7783367e-01
  8.8919091e-01
 -1.5702323e+00
 -1.4130940e+00
  1.5658757e-01
  5.3486627e-01
 -2.5255871e-01
 -9.1401301e-02
  9.1484660e-01
  4.1961884e-01
 -2.8898785e-01
 -1.6176361e+00
  4.4954693e-01
 -4.5495495e-01
 -6.2644213e-01
  1.6446593e+00
 -1.2928983e+00
 -3.6628282e-01
 -1.0898052e+00
 -8.0934429e-01
  7.8477138e-01
 -1.3808982e+00
 -4.4636663e-02
 -8.8299394e-01
  3.1220365e-01
  4.6744815e-01
  1.5454795e+00
 -1.3387631e-01
 -2.0543650e-01
 -2.9805830e+00
 -3.1611887e-01
 -8.7471581e-01
  1.4106718e+00
  7.2208649e-01
  1.9499925e+00
 -1.8126125e+00
  3.6084062e-01
 -3.7226707e-04
 -3.8566956e-01
  8.8325983e-01
  9.9599880e-01
  9.4899815e-01
 -2.1355491e+00
 -3.9737651e-01
 -1.6603106e+00
 -1.1767696e+00
 -1.8861418e+00
 -6.2934585e+00
  1.1266721e+00
 -1.5076269e+00
  8.5075468e-01
  9.5011955e-01
 -1.7138317e-01
 -1.7563181e-01
  5.3696936e-01
  1.7294855e-01
 -2.9738090e+00
  6.9965053e-01
 -6.2830329e-02
  5.8164752e-01
 -3.7926582e-01
  5.2755255e-01
  1.0010092e-01
 -8.8268971e-01
 -4.0318799e-01
  9.5199263e-01
 -1.4048711e+00
 -4.7900462e-01
  2.7599886e-01
 -3.5749108e-02
  3.7344944e-01
 -4.0247452e-01
 -1.0641568e+00
  5.8049124e-01
 -3.9288577e-01
 -1.3075529e+00
 -1.2902324e+00
 -5.5875772e-01
  7.9035276e-01
  9.1890103e-01
 -3.7659159e-01
 -7.9570204e-01
  4.2134556e-01
  1.5137095e+00
  1.3157097e-01
  6.1426961e-01
 -9.5381147e-01
  2.2983175e-02
 -7.7619559e-01
  6.9568014e-01
 -5.3726560e-01
 -9.2683947e-01
 -3.2166621e-01
 -2.3707613e-01
 -8.4160483e-01
 -5.5711979e-01
  1.1032723e+00
 -6.1099384e-02
 -7.9826492e-01
 -1.1323633e+00
  6.5886718e-01
 -1.7111535e-01
 -1.7487625e+00
  5.8317763e-01
  1.6920938e-01
  2.2037877e-01
 -1.3608909e+00
 -1.4004791e+00
  1.8217335e+00
  3.1761426e-01
  2.4478552e+00
  2.9883204e+00
 -3.3742213e+00
  2.8805821e+00
 -5.4972958e-02
 -2.5196006e+00
  1.6247267e+00
  2.7164838e-01
  1.7504666e+00
 -4.6913502e-01
 -2.7330694e+00
  1.7936050e+00
 -9.7079468e-01
 -6.0848904e-01
 -7.2605163e-01
  7.6559997e-01
 -2.5109563e+00
  1.3640631e+00
  8.6159103e-02
 -7.8961694e-01
 -5.1716161e-01
 -5.4966885e-01
 -6.2519008e-01
 -6.0854167e-01
 -5.4328030e-01
 -3.9710939e-01
  1.8777759e+00
 -2.7387371e+00
 -2.5386631e+00
  1.8794384e+00
 -4.2155862e-01
 -3.1346449e-01
 -1.8939779e+00
  1.5380445e-01
  9.9182189e-01
 -5.8177614e-01
  1.3808873e+00
 -7.3204631e-01
  6.1042494e-01
  1.4840416e-03
 -2.9171444e-02
  2.2664402e-01
 -9.2881155e-01
 -1.0931687e+00
  6.2158781e-01
  2.3230775e-01
  1.3624984e+00
 -4.7766682e-02
  1.4712335e+00
 -2.2951376e-01
 -6.6413009e-01
  1.3501545e+00
 -2.1314870e-01
  1.2674800e+00
 -5.7118082e-01
 -4.8706767e-01
  3.9453676e-01
 -9.9339396e-01
 -2.6108572e-01
 -7.8072704e-02
 -3.1665394e-01
  1.2606356e+00
 -2.3440092e+00
  1.0049312e+00
 -2.2368171e+00
 -2.2060502e+00
  4.3398413e-01
  6.6825229e-01
 -1.8104988e-01
  9.2372382e-01
 -3.6864035e+00
  2.9750342e+00
  1.0354815e+00
 -7.9269600e-01
  1.5192946e+00
 -1.9958347e+00
 -2.3592961e+00
  5.5806750e-01
 -8.0505913e-01
 -2.4999845e+00
 -2.6327868e+00
 -8.8734037e-01
  2.3211308e-01
 -5.7315779e-01
 -8.5263908e-02
 -1.8740590e+00
  5.9399563e-01
 -1.4786578e+00
  2.8845423e-01
  1.4429781e+00
 -8.3622777e-01
  4.4857132e-01
 -1.9977094e-01
 -1.7232132e-01
 -2.6771763e-01
 -1.2195376e+00
  4.7436842e-01
  1.1530883e+00
  4.2115560e-01
 -1.6686993e+00
  2.1672718e-02
 -9.5433779e-02
  1.4252169e+00
 -1.1335965e+00
 -9.3914390e-01
 -1.7716554e-01
  2.4525316e-02
 -5.4344404e-02
 -2.9981595e-01
 -3.7660560e-01
  4.3979526e-01
 -7.6120418e-01
  7.8356349e-01
 -2.5080389e-01
 -8.1512439e-01
  4.0531185e-01
  9.8805286e-02
 -7.9140520e-01
 -9.1605389e-01
 -1.0361516e+00
  3.2857108e-01
 -2.9791260e-01
 -3.5195002e-01
 -1.4193410e+00
  1.1536356e+00
  6.1335742e-01
  5.5106443e-01
  8.1939459e-01
 -2.0199354e-01
  6.5567845e-01
 -6.1071998e-01
  6.4281261e-01
  3.3390846e-02
 -1.2498896e+00
 -5.0734347e-01
 -4.1517588e-01
  1.6185459e+00
 -4.0786272e-01
 -1.4918008e-01
 -2.0771433e-01
  3.4453060e-02
 -2.4793041e-01
 -1.3927790e+00
 -1.4320728e-01
 -7.6228046e-01
 -2.1284443e-01
  5.1144999e-01
  9.6492410e-01
  2.2763322e-01
  1.1337572e+00
 -1.5595338e+00
 -1.0177779e+00
  1.3570830e+00
 -1.1263928e-01
 -3.0920655e-01
 -1.2754642e+00
 -1.8683074e-01
  7.4801058e-02
  1.5481993e+00
 -2.2627361e+00
 -4.2993569e-01
 -2.9487938e-01
  1.9269397e+00
  6.8070583e-02
  3.3026358e-01
 -7.3772997e-01
 -8.0069059e-01
  3.2301664e-01
 -6.2189430e-01
  2.2143157e-01
 -6.4506358e-01
 -7.7303940e-01
 -3.5749626e-01
 -6.2932026e-01
 -6.3794649e-01
 -4.1644961e-01
  1.5928520e+00
  1.8011544e+00
  6.9163173e-01
 -1.4298065e+00
  4.4148479e-02
 -5.4521209e-01
  3.3250982e-01
  8.5487694e-01
 -5.9056664e-01
 -2.5703746e-01
  1.7377847e+00
 -2.5930002e-01
  5.4806817e-01
 -6.4305085e-01
  2.5508118e-01
 -8.5079753e-01
  2.8444523e-01
 -5.0573504e-01
  1.2884764e-01
  6.2605160e-01
  2.7658916e-01
  5.5357236e-01
 -1.0460011e+00
 -2.4504043e-01
  2.9331331e+00
  7.7653623e-01
 -8.5515267e-01
 -1.0431359e+00
  1.0252311e+00
 -1.6701634e+00
  9.0145642e-01
  2.0139613e+00
 -7.3983198e-01
 -4.7865868e-01
 -2.9634950e+00
 -1.8379782e-01
 -5.7488072e-01
 -5.5744272e-01
 -1.6919202e+00
 -2.3617135e-01
 -9.3050379e-01
 -2.9058843e+00
 -3.4065071e-01
 -5.3164560e-01
  1.2219031e+00
 -5.6020522e-01
  2.5554279e-02
 -7.9668230e-01
 -2.7518737e+00
  4.4815666e-03
  2.6882273e-01
  1.2904429e+00
 -4.5375288e-01
  2.3631407e-01
 -6.9518614e-01
 -9.0781105e-01
  2.1521693e-01
 -6.1958939e-01
 -4.6102542e-01
  9.3356484e-01
  4.3941307e-01
  2.1565292e+00
 -9.0618116e-01
 -2.4448335e+00
  5.1671427e-01
  6.2034182e-02
 -2.1635537e-01
 -4.1094935e-01
  9.4289577e-01
 -2.6568043e-01
  1.4545435e-01
 -2.2268809e-01
  3.1713074e-01
 -2.4276031e-02
  1.3400400e+00
 -9.6470529e-01
  8.8092077e-01
  4.3660700e-01
 -2.6852684e+00
 -4.6104968e-01
 -7.8573650e-01
 -5.4982352e-01
 -9.9833995e-01
  1.1710418e+00
 -2.5737315e-01
  9.5840365e-01
 -2.6792836e-01
 -1.9887284e+00
  3.5115513e-01
  5.1568191e-02
  5.9888572e-01
  2.8857502e-01
 -8.7913215e-02
  9.2097181e-01
  1.0412291e+00
  2.2473150e-01
 -3.6573927e+00
 -1.8608016e+00
  3.2215893e-02
 -1.6188525e+00
  1.0088158e+00
  3.4193683e-01
 -6.0901232e-02
 -2.2491963e+00
 -2.1354208e+00
  6.2865716e-01
 -9.6161377e-01
 -3.8093057e-01
 -8.3177143e-01
 -1.3112086e+00
 -4.9731500e-02
  9.1055948e-01
 -1.0053309e+00
  3.5381135e-01
 -5.2189082e-01
 -4.8464888e-01
  1.7443539e+00
  2.8937573e+00
  2.8715357e-01
 -2.5144324e+00
  1.7759224e+00
  2.8739369e-01
  1.3787516e+00
 -3.4532118e-01
 -5.6095040e-01
  6.6252124e-01
  4.2249262e-01
  1.6701978e-01
  3.4430608e-02
 -4.8678669e-01
 -8.7584090e-01
  2.1182294e+00
  6.7296976e-01
  3.6465293e-01
 -2.4176977e+00
 -3.1093037e+00
  2.4915349e+00
  2.8499186e-01
 -5.5382028e+00
 -2.2117588e-01
  2.7426901e+00
  1.2042013e+00
 -1.0383456e+00
 -4.3656893e+00
  1.6157366e+00
 -1.3887835e+00
  1.4568204e+00
 -2.5253883e-01
  1.1266568e+00
 -2.0453118e-02
  8.0508518e-01
 -2.9320711e-01
 -6.7703950e-01
  1.2019329e-01
  1.9921228e+00
 -3.9464882e-01
 -5.9250182e-01
  6.8816549e-01
  2.6607487e+00
 -9.6745968e-02
  9.2868382e-01
  8.5594600e-01
  4.9252659e-01
  4.2542571e-01
  2.5935335e+00
 -1.6000962e-01
  3.0043955e+00
  2.4357507e+00
 -3.1151874e+00
 -1.4731420e+00
  2.5719173e+00
 -5.9659189e-01
  2.9649177e-01
  7.6782525e-01
 -2.2250719e+00
 -1.7178122e+00
 -1.4922515e+00
  1.3348991e+00
 -1.5508724e+00
 -2.0891115e-01
  1.0900810e+00
 -6.3755816e-01
 -1.4980035e+00
 -2.8603131e-01
  9.3070251e-01
  9.2451346e-01
 -1.0443985e+00
  1.9277710e-01
 -2.5735297e+00
  9.4495639e-02
  1.7038016e+00
 -1.0176768e-01
  2.2821297e-01
 -2.8776333e-01
 -3.2298541e-01
  2.2989179e-01
 -5.1256907e-01
  2.1070364e-01
 -1.7959583e+00
 -2.2938745e+00
  1.4446921e+00
  5.6908089e-01
 -2.0118365e+00
  1.0423926e+00
 -7.6063997e-01
  1.1768808e+00
  1.9515371e+00
 -2.4565694e+00
  4.9450922e-01
 -1.3060813e+00
  1.8066455e+00
  3.3398710e-02
  1.4257227e+00
 -2.3288684e-01
 -8.9741623e-01
  1.7018375e+00
  1.7128122e+00
 -2.8186902e-01
 -1.1028845e+00
  1.8112756e+00
  5.3814423e-01
  6.2152898e-01
 -8.5348591e-02
  1.2262491e+00
 -7.9491311e-01
 -9.1127187e-01
 -2.3021340e+00
 -2.5634906e-01
  7.3700041e-01
 -1.1275659e+00
 -2.6795012e-01
  4.9703747e-01
  3.3019718e-02
  1.1160169e+00
 -1.0179840e+00
  9.9633789e-01
 -3.6545446e+00
  1.3073244e+00
  1.2458414e+00
 -3.7723801e-01
 -9.2578608e-01
 -2.7302137e-01
 -2.1933289e-02
  1.6354342e+00
 -2.1527991e+00
 -8.4587365e-01
 -5.8394164e-01
  8.9476949e-01
  1.1440333e+00
 -1.1609918e-01
 -2.8216000e+00
  2.4083967e+00
 -2.3281284e-01
  1.0718170e-01
 -6.0376203e-01
  5.1074511e-01
 -1.9100068e+00
 -3.5768428e-01
  6.1529899e-01
 -9.5194262e-01
  6.6350675e-01
  3.3192217e+00
  1.3467691e+00
 -7.2012854e-01
 -8.0867589e-02
 -1.0280215e-01
 -3.8584578e-01
 -7.2292548e-01
 -6.9681108e-01
 -7.4694932e-01
 -5.3699303e-01
  3.9687216e+00
  1.0516781e+00
  3.7829354e-01
 -7.8629237e-01
 -3.7173662e+00
 -1.1206279e+00
  5.7856554e-01
  2.2493088e+00
 -4.1917853e+00
  2.6456240e-01
  1.0719022e+00
 -8.3746588e-01
  4.9073763e+00
 -9.4390947e-01
 -6.2214011e-01
  2.2604651e+00
 -1.1265040e-01
  1.0490550e-01
  1.6430770e+00
  9.4457519e-01
  2.9003820e-01
 -1.4181765e+00
  1.5884335e+00
 -1.2755609e+00
 -7.4512768e-01
 -9.8048878e-01
 -7.2980680e-02
  1.1107284e+00
  2.2132082e-01
 -1.7480800e-01
  2.7099636e-01
 -3.5529730e-01
 -2.6913670e-01
 -2.5795093e+00
 -1.8357594e+00
 -1.2005886e+00
 -2.9333863e+00
  3.0440261e+00
  7.2647321e-01
 -5.4310721e-01
 -1.7986308e+00
 -8.5998708e-01
  3.7238124e-01
  4.7465169e-01
  1.3715659e+00
  6.1806077e-01
 -3.7912738e-01
  6.2019682e-01
 -4.6629682e-01
  1.6305901e+00
  1.1453831e+00
 -1.7020054e+00
 -1.7124434e-01
 -1.1512975e+00
  6.7513227e-02
  1.4306775e+00
  2.3682570e+00
  7.1052581e-01
  1.5709773e+00
  2.6660755e-01
  1.6402304e-01
  4.4974121e-01
  2.1916205e-01
  7.5964284e-01
 -6.0353637e-01
  1.8509279e-01
  4.2944032e-01
 -4.3651181e-01
 -1.7826960e+00
 -2.2763281e+00
  4.1485405e-01
 -1.2647338e+00
 -4.2954317e-01
  1.4501013e+00
 -7.8642780e-01
  1.3561890e-01
  5.3784668e-01
  1.2453167e+00
  2.9902744e-01
  5.2183080e-01
  3.0791123e+00
 -1.4411943e+00
 -1.6022046e+00
  1.7494423e-02
 -1.6741877e+00
  1.7111115e+00
 -2.0140803e+00
  6.8765938e-02
  1.4356103e+00
 -1.3322368e-01
  9.2141259e-01
  1.6744787e-02
 -3.3794062e+00
 -3.2792897e+00
 -4.9394235e-01
  1.0694389e+00
 -1.3691784e+00
  1.5286495e-01
  5.0542945e-01
 -9.8577917e-02
 -2.9544556e-01
  3.8265252e-01
  6.7831099e-01
 -1.4198776e+00
  1.4597873e-01
  2.5377305e+00
  4.3141630e-01
  4.2228818e-02
  1.6000844e+00
  2.4518120e+00
 -2.5210295e+00
  1.4243635e+00
  1.5593763e-01
  3.1547084e+00
 -4.7825718e+00
  1.0610234e+00
  8.3329159e-01
 -3.6561543e-01
  9.1161954e-01
  2.8191555e-01
  3.6371467e-01
 -3.7596774e-01
  2.6611829e-01
  1.0704820e+00
  1.4059117e+00
 -1.3253822e+00
 -1.3094605e+00
  1.0769218e+00
 -2.3323929e+00
 -1.0304782e+00
  8.4537737e-02
 -3.9821217e+00
  6.9516212e-01
  9.3562007e-02
  1.1832846e+00
  5.2975112e-01
 -1.1383042e+00
 -9.4923511e-02
 -4.1756913e-01
  5.5786079e-01
 -1.2299134e-01
 -6.8037099e-01
 -2.1300344e+00
 -1.7626431e+00
  1.7474461e+00
  2.4153279e-01
 -3.3256119e-01
  9.7141021e-01
  1.1308822e-01
 -1.9561949e+00
  4.0011087e-01
  2.9671705e-01
 -4.9127874e-01
  5.7865965e-01
 -2.8870392e+00
  1.3212036e+00
  1.7668552e+00
 -2.4841638e+00
 -1.9395112e+00
 -7.4337192e-02
  7.2117609e-01
 -8.8250838e-02
 -7.4082917e-01
 -1.1936660e+00
  1.8049219e+00
  3.0343759e-01
 -4.3863826e-02
  3.8951111e-01
 -2.2888789e-01
  3.6747003e-01
 -3.7070379e-01
 -2.9690373e-01
  7.8768378e-01
  1.9904681e-01
 -1.2173947e+00
 -5.9174877e-01
 -2.1523850e+00
  4.5256463e-01
  1.6689239e-02
 -7.9458588e-01
 -5.8058250e-01
 -2.8062627e-01
  8.3721495e-01
 -3.6203977e-01
  2.5345287e-01
  5.2246094e-01
 -2.8679284e-01
 -3.1264135e-01
  7.4434251e-01
  1.3347881e+00
  1.2677532e-01
  1.2680866e-01
 -7.3269837e-02
 -6.3525671e-01
 -2.5367551e+00
 -7.7610242e-01
  1.5393403e+00
  1.2661071e+00
  2.4973514e+00
 -1.2391413e+00
 -5.7768661e-01
 -5.4602432e-01
 -1.1879728e+00
 -2.5811067e-01
 -6.5841067e-01
  1.9453621e-01
 -1.6954097e-01
  1.9144913e-02
  5.4191464e-01
  1.2175461e+00
 -1.4522141e+00
 -2.9257522e+00
 -5.4253477e-01
 -2.0775746e-01
 -3.5855129e-01
 -6.9928861e-01
  8.1209457e-01
  4.2500615e+00
  3.4936192e+00
  3.6054111e-01
 -2.7288561e+00
  1.2462368e+00
  1.4954661e+00
 -1.3900405e+00
  5.0867081e-01
  1.5341638e+00
 -6.9507204e-02
  6.4468108e-02
 -1.3132820e-01
 -1.0657601e+00
  6.1711335e-01
  1.0065501e+00
  1.3801895e+00
 -1.3728229e+00
  1.8897350e+00
  1.7577914e+00
 -4.3985212e-01
  6.2160695e-01
 -3.5313007e-01
 -5.8680320e-01
  2.1912433e-02
 -1.2514333e-01
  1.3629460e+00
  9.8710281e-01
 -2.3425767e+00
 -5.0543797e-01
 -1.6385776e-01
 -1.3871533e+00
  1.0022360e+00
 -2.4025791e+00
 -5.3817594e-01
  8.2312673e-01
  1.0459028e+00
 -4.0631130e-01
 -1.2287304e+00
 -2.2801671e+00
  7.1957088e-01
  3.5783284e+00
  2.7517460e-03
 -8.6703235e-01
  2.1840373e-01
 -4.0476388e-01
  8.0804959e-02
 -1.3156195e+00
 -7.0381814e-01
 -4.8771337e-01
  4.1332850e+00
  1.3092127e+00
 -6.0000366e-01
 -1.6402831e+00
 -1.0242461e+00
 -6.7744583e-02
 -1.9676565e+00
  3.6308998e-01
 -5.9955686e-01
 -1.0841823e+00
  3.1698838e-01
  3.6073542e-01
  6.5206200e-02
 -2.6107225e-01
 -2.5278666e+00
  3.1904590e-01
  6.1669862e-01
  1.4112122e+00
  3.6400717e-01
  7.3106629e-01
  1.4178523e+00
 -1.0834781e+00
  1.1062640e+00
 -4.0646875e-01
  1.9815960e+00
  1.5118828e-01
 -1.5849003e+00
  3.2228556e-01
 -4.0238282e-01
  1.9984533e+00
  1.1154817e+00
 -8.2782847e-01
  6.5806907e-01
 -5.0378871e-01
  1.1240847e+00
 -1.7799820e+00
 -4.2842215e-01
  2.5604525e-01
 -2.0575626e+00
 -1.9984843e+00
 -4.6749672e-01
  2.3672840e-01
  1.0284332e-01
 -8.8990456e-01
 -8.1640512e-01
  2.5101271e-01
  2.1788041e-01
  1.2283547e+00
  6.1700958e-01
 -1.3757138e+00
  6.4216286e-02
 -2.6005256e+00
 -1.3758122e+00
  8.2465911e-01
  8.7275088e-01
  1.2597655e-01
 -7.0809096e-01
 -2.4100003e+00
 -2.7174154e-02
  1.3834168e+00
 -9.0895236e-01
 -4.5823932e-02
 -3.9481395e-01
 -2.8508738e-02
 -3.6847751e+00
 -1.4520989e-01
  2.4475534e+00
 -2.3105536e+00
  1.7166770e+00
  7.7785754e-01
 -2.5838852e+00
 -6.8111867e-01
 -1.0386134e+00
 -4.4402182e-01
 -6.3520437e-01
 -2.3940961e+00
  2.0180364e+00
 -4.7204077e-01
 -2.6140872e-01
 -4.0350685e-01
  1.4314153e+00
  6.2700027e-01
  6.2789060e-02
 -6.6855964e-03
  4.8523581e-01
  5.7223576e-01
 -6.5083730e-01
 -1.0475260e+00
 -7.4175370e-01
 -2.3519488e-01
  3.3870327e-01
  8.0802923e-01
  2.7967339e+00
  3.0774291e+00
 -9.7456008e-02
 -8.4563404e-01
  6.3100368e-01
  3.7677252e-01
 -1.3639004e+00
  1.9942990e-02
 -4.4261217e-01
  8.6144096e-01
 -3.8765332e-01
  3.6426684e-01
 -2.8966165e-01
  7.6518399e-01
  9.3958169e-01
  1.6049956e-01
 -2.8435838e-01
  1.2793131e+00
 -2.6493734e-01
  1.5312211e-01
  5.0007556e-02
  2.7278194e-01
 -5.7804030e-01
 -1.1155033e+00
  2.1171212e-01
  1.0482852e+00
 -1.8763214e+00
 -1.5268101e+00
 -3.5834539e+00
 -3.6515493e+00
  1.8012764e+00
 -1.8693026e+00
  7.0539206e-02
  1.3410980e-01
  1.9961424e+00
  1.7277101e+00
 -6.9199944e-01
  1.2171116e+00
 -1.9639125e+00
  3.0418184e-01
 -7.5291181e-01
  1.2427906e+00
 -1.5772645e+00
 -9.3544227e-01
  2.9773322e-01
  1.1874875e+00
 -3.0544934e+00
  2.6655391e-01
 -4.9951625e+00
 -7.2128046e-01
 -1.4722694e+00
 -1.7326176e+00
  9.6592414e-01
 -3.6247897e-01
  4.2597467e-01
  2.1714887e-01
  1.5830370e+00
  5.9478295e-01
 -2.6005741e-02
  3.5492870e-01
 -4.9360299e+00
 -2.3456016e+00
 -2.1769094e+00
 -5.1823705e-01
  2.3925004e+00
 -1.3453289e+00
 -3.5075967e+00
  7.2162075e+00
 -9.5038164e-01
  1.4059591e-01
  1.8995568e+00
  1.0343666e+00
 -1.0223509e-01
  2.4452870e+00
  1.2889886e+00
  2.6742315e+00
 -1.1369244e+00
  2.5273154e+00
  1.2009434e+00
  1.5442270e+00
  1.6455343e+00
 -1.5748674e+00
  7.0236027e-01
  3.2188883e+00
 -1.5409471e-01
  6.7258036e-01
 -1.0005697e+00
 -1.1967050e+00
 -1.3690299e+00
 -1.4693398e+00
 -8.4983277e-01
  4.0994000e-01
 -4.6518874e-01
 -2.9244998e-01
  1.3684949e+00
 -1.1961370e+00
  1.2511935e+00
 -2.0435078e+00
 -1.2375442e+00
  1.4623421e+00
  1.3097067e+00
  6.9990790e-01
  5.0257701e-01
 -9.2711490e-01
  1.3772883e+00
 -6.3934571e-01
  8.6450808e-02
 -3.8809809e-01
 -3.3541009e-01
  5.3317589e-01
  5.7408804e-01
 -4.0948597e-01
  5.3691858e-01
 -3.1121877e-01
  1.0257832e-01
  1.5180281e+00
 -5.0672042e-01
  1.2616263e-01
  1.6192913e+00
 -6.3991469e-01
  4.8893023e-01
  1.4175572e-01
 -6.2543988e-01
  2.8557271e-01
  1.5062559e-01
 -1.0353101e+00
 -4.0538049e-01
  9.8391183e-02
  7.6787531e-02
  1.7648193e-01
  3.1060681e+00
  8.5485917e-01
 -1.0835518e+00
  1.7029091e+00
 -5.7890356e-01
 -1.9508956e-01
 -1.0608292e+00
  2.7903142e+00
 -8.3645713e-01
 -4.0118590e-01
 -4.5052466e-01
  2.6160390e+00
  1.7771088e-01
  5.2689266e-01
 -9.6212047e-01
 -4.6822780e-01
  7.5620216e-01
  1.8329490e+00
 -1.1502216e+00
 -3.5443630e-02
  7.5081933e-01
  8.4282017e-01
  4.6682715e-02
 -8.1863481e-01
 -1.2951617e+00
 -2.4340875e-01
 -1.6392812e+00
 -1.9085129e+00
 -4.5554370e-01
 -8.4409438e-02
  2.2520814e+00
  1.6100781e+00
 -9.6293592e-01
  1.0915022e+00
  9.3040174e-01
 -2.0433159e+00
  1.7818656e+00
 -2.7530341e+00
 -1.7599565e+00
 -7.6747739e-01
  1.1860132e+00
  1.9598493e-01
  6.9966453e-01
 -1.1024345e+00
  3.6983541e-01
  3.5013649e+00
 -3.5455358e+00
 -1.0565053e+00
  6.2486666e-01
 -4.7731435e-01
 -5.0946295e-01
  5.1907581e-01
 -1.5001664e+00
  4.7707212e-01
 -1.6270138e-01
  8.1456071e-01
 -1.8979941e-01
 -9.1717362e-01
  6.9915402e-01
  4.7238350e-01
 -2.6552303e+00
  2.0569365e+00
  1.4678328e+00
  5.6360936e-01
  2.7297005e-01
  8.0755150e-01
 -1.7760634e-02
  6.5643930e-01
  3.5124177e-01
 -1.6951817e-01
  3.6483819e+00
  5.1470238e-01
 -2.5292754e+00
 -3.8601741e-01
  1.1462600e+00
 -2.1013412e+00
  3.1992507e-01
 -1.5259333e+00
  3.9009485e-01
  2.5442898e+00
  2.8917973e+00
 -7.4646127e-01
 -3.0505267e-01
  3.5664615e-01
  1.0173020e-01
 -1.4851869e+00
 -1.4865673e+00
 -6.3788861e-01
 -1.7223467e-01
  1.2123072e+00
  8.6694926e-01
 -1.7089833e+00
 -1.2274607e+00
 -6.9043815e-01
  1.5060622e+00
 -2.5711370e-01
  1.2469486e+00
 -4.7005323e-01
  8.9777368e-01
  6.0441005e-01
 -1.9056466e-01
 -3.8684836e-01
 -1.7900968e-01
  5.4756284e-01
  6.2816516e-03
 -1.4826093e+00
 -2.9895313e+00
  5.3049928e-01
 -2.0943933e+00
  8.2263786e-01
  1.8305936e+00
  2.6525316e+00
 -1.5271223e+00
 -9.2558074e-01
  4.7091834e-02
  2.3941922e+00
 -2.0695701e+00
 -2.9771886e+00
 -6.6032118e-01
 -7.6070839e-01
  4.1318746e+00
 -1.9371324e+00
  2.1683089e-02
  1.5448626e+00
 -4.2145738e-01
  9.0924668e-01
 -1.4614350e+00
 -1.1292988e+00
  2.2371917e+00
  9.8435655e-02
 -3.9758348e+00
  3.6824479e+00
 -2.4724081e-01
  2.4473360e+00
  2.1579454e+00
 -8.7172247e-02
 -1.1016918e+00
  1.0192946e+00
 -2.1958672e-01
 -1.5532917e+00
  4.0549250e+00
  7.5638771e-01
 -4.7050657e+00
 -3.8974338e+00
  1.7954651e+00
 -1.3195029e+00
 -3.7458521e-01
  6.1222708e-01
 -1.2105481e-01
  1.9575855e-01
 -3.6908758e-01
 -4.4544706e-01
  7.0353514e-01
  7.9297835e-01
 -5.0136131e-01
  8.2717943e-01
  7.9371125e-01
 -6.0830295e-01
 -6.5526831e-01
  1.2879033e+00
 -6.8364835e-01
 -2.1393774e+00
  1.1162773e+00
  7.3621613e-01
  1.9424589e-01
  2.9056368e+00
 -7.4866790e-01
  8.4341504e-02
 -3.7300783e-01
 -2.9788345e-01
 -9.3477800e-02
 -1.1624819e+00
 -4.5503223e-01
 -1.7321137e-01
  3.5966036e-01
 -2.0266173e+00
 -2.3099342e-01
  6.6517520e-01
 -7.8186238e-01
  1.3334821e-01
  7.3210484e-01
 -5.3326339e-01
  1.3928049e+00
 -1.1643498e-01
 -1.2449045e+00
  6.5488137e-02
 -2.2803752e+00
  7.4425584e-01
  2.3651700e-01
 -5.7957556e-02
  4.0937746e-01
 -8.9518523e-01
 -1.3907520e-01
  8.6369115e-01
 -6.5343863e-01
  1.5640601e+00
  1.3124869e+00
  1.2783806e+00
 -7.2218889e-01
 -5.8898884e-01
 -2.5864632e+00
 -1.7270188e-01
 -1.1485589e-01
  8.2436329e-01
 -2.6754129e-01
  6.0945821e-01
  3.9653638e-01
  6.8285453e-01
 -1.2367357e-01
 -9.6598530e-01
 -3.5749803e+00
  7.5120068e-01
 -8.4710306e-01
  4.5962715e-01
  1.8725189e+00
  5.5352026e-01
  2.1799591e+00
 -2.4200928e+00
 -1.1236441e-01
  6.6844583e-01
  3.0065870e-01
  1.1131830e+00
 -7.0442510e-01
 -2.0125242e-01
  1.2901994e+00
  1.0127112e-01
  4.3861704e+00
 -1.5847648e+00
  2.4831679e+00
 -2.1523986e+00
  1.8993320e+00
  2.0863492e+00
  4.1880715e-01
  8.3189565e-01
  2.1198769e-01
  1.2817514e+00
  1.6655777e+00
  8.2422495e-01
  7.0167714e-01
 -1.3796587e+00
 -3.5452515e-01
  1.1773317e+00
  9.5215976e-02
 -3.9245836e-02
  3.8084772e-01
  1.3792602e+00
  1.1444790e+00
 -8.5291535e-01
 -1.7593592e-01
 -2.0625038e+00
  3.5946980e+00
 -5.4012740e-01
 -2.5851381e-01
 -1.7060971e-01
  7.2996032e-01
 -1.8532884e+00
 -2.4071374e+00
 -3.9828029e-01
  1.0521533e-01
  5.1914740e-01
 -6.7833811e-01
  4.4335133e-01
  4.7915116e-01
  5.5492368e-02
 -1.5775812e+00
 -1.9877416e+00
  2.1861615e+00
 -1.1353117e+00
  9.4803798e-01
 -9.8503339e-01
 -4.3623644e-01
  1.3707783e+00
  4.4761908e-01
  7.3858488e-01
  5.5409616e-01
  1.2185423e-02
  9.8545894e-02
  4.9116436e-01
  2.3816420e-01
 -6.9103801e-01
  6.3657866e+00
  1.4096442e-01
 -1.4757209e+00
 -4.9326095e-01
 -1.7679818e+00
  4.5234928e+00
  9.1029435e-01
 -1.1886219e+00
 -1.1811730e-01
 -3.8431590e+00
  6.8335462e-01
  1.3158894e+00
 -3.1810281e+00
 -1.2108248e+00
 -2.2045791e+00
  1.4746375e+00
 -1.7496457e+00
 -1.2680749e+00
 -1.4936037e+00
 -1.6125405e+00
 -6.7103595e-02
 -1.7936953e+00
  2.7610201e-02
 -2.8119824e+00
 -1.7085639e+00
 -2.0969427e+00
 -1.3356850e+00
  1.3677473e+00
 -5.5616409e-01
 -2.4304554e-01
  7.3624963e-01
 -1.9897984e-01
 -5.4424126e-02
 -3.9057755e-01
  1.1369379e+00
 -1.7194821e+00
 -2.6200190e+00
 -1.5823401e+00
 -2.6437857e+00
  2.0463166e+00
  2.0199552e+00
 -7.4418211e-01
  1.2654400e+00
 -2.4123697e-01
 -4.9538854e-01
  1.2503010e+00
 -9.8578632e-01
  3.9849372e+00
 -1.6892806e-01
  3.3900138e-02
  1.2613169e+00
  5.1710826e-01
  1.5136657e+00
 -7.3362708e-01
  6.9319457e-01
  6.5363765e-01
  7.9506688e-02
  3.8186201e-01
  1.5580060e+00
 -3.7465143e-01
  8.3829951e-01
  1.0183486e-01
  1.6231550e-01
  2.7915367e-01
  8.4251785e-01
  2.2625645e-01
 -5.0294632e-01
 -8.9195624e-02
  2.7691433e-01
 -5.8974195e-01
 -3.0873564e-01
  7.5983113e-01
  1.4802388e+00
  1.3794796e+00
 -1.6021920e+00
 -3.4336239e-01
  3.6253500e-01
  2.4110641e+00
 -2.9161569e-01
  3.6986217e-01
 -8.7692398e-01
  3.1517670e+00
  1.4998814e+00
  2.6826760e-01
  3.4241288e+00
 -1.3670701e+00
 -4.9668387e-01
 -1.9025613e+00
  4.4054237e-01
  7.0238709e-01
 -2.7781065e+00
  2.8196743e+00
  1.2317469e+00
  1.5086651e+00
 -1.3745345e+00
  2.2544320e+00
  4.5177102e-01
 -2.6552155e+00
 -9.6722037e-02
 -8.5324407e-01
 -5.1697332e-01
  3.0756408e-02
 -2.9729506e-01
 -9.3159467e-01
 -6.2030423e-01
  1.7121178e+00
  1.3747963e+00
 -2.0628151e-02
 -2.0404885e+00
  2.2988143e+00
 -1.8958403e+00
 -3.4137118e+00
  5.9792650e-01
 -4.4519987e+00
 -2.0871990e+00
  3.3276482e+00
  4.0171776e+00
  1.1470706e+00
  9.7935218e-01
 -1.5307639e+00
  3.0809155e+00
  1.2215433e-01
  4.2543095e-01
 -4.9013995e-02
  2.2452269e+00
  2.1732485e+00
 -6.1595333e-01
  1.1350698e+00
 -8.7756848e-01
  9.9848551e-01
  5.3662235e-01
 -3.4615972e+00
 -3.7517104e-01
  3.0800760e-01
 -1.0988211e-01
 -1.4057254e+00
 -1.2887813e-01
 -1.1633552e-01
 -4.8925117e-01
  9.2906505e-01
  4.1063651e-01
  1.0775057e+00
 -4.2688724e-01
  6.8133825e-01
  2.5297863e+00
  3.9798483e-01
  7.7990031e-01
  3.1172353e-01
  1.3388600e+00
  1.4071560e-01
 -3.9764452e-01
  1.2777593e+00
 -1.4473135e+00
 -3.6300758e-01
 -1.6812744e+00
 -1.5338514e+00
  1.2643710e+00
 -6.5656233e-01
  1.5307964e+00
 -2.4353997e-01
  1.5234298e-01
  5.5709463e-01
  3.2820451e-01
  6.8769866e-01
 -3.9989036e-01
  2.1781924e+00
  3.4999344e-01
  2.1791325e+00
 -1.1280751e+00
 -1.5100770e-01
 -1.3694305e+00
  1.6541360e-01
  7.8245801e-01
 -1.3362838e-01
  7.2076517e-01
 -4.4211230e+00
 -1.5820272e-01
  8.4391975e-01
 -8.8246691e-01
  7.3570472e-01
 -1.8205415e+00
 -1.0807920e+00
  9.4338280e-01
  1.9667375e+00
  9.5074248e-01
 -8.6385554e-01
  2.7446270e+00
  8.7340993e-01
  3.6279842e-01
 -3.8994756e-01
  2.1613438e-01
  1.0552704e+00
  1.5756212e+00
  7.0828694e-01
  2.2631389e-01
 -2.4563069e+00
  3.0992486e+00
  1.8413612e+00
  3.0313674e-01
 -4.8406819e-01
 -4.6801377e-02
 -2.2037642e+00
  2.0597849e+00
 -2.1186383e+00
  1.3946353e+00
 -4.7379736e-02
  8.8111520e-01
 -1.6581330e+00
  2.5071070e+00
 -1.7708100e+00
 -6.0431056e+00
  8.4337777e-01
 -4.9243119e-01
  1.0033131e-01
 -5.1697040e+00
  2.6538131e+00
 -5.2599293e-01
 -3.5375860e+00
  1.0840191e+00
 -7.9483020e-01
 -2.7237999e-01
  1.8678207e+00
 -3.1013289e-02
 -5.5106306e-01
  4.8532301e-01
  6.1780500e-01
  7.1588588e-01
  3.4041438e-01
 -1.7315750e+00
  6.2409228e-01
  4.5043591e-02
  6.9305444e-01
 -9.1565275e-01
  1.2415906e+00
  2.7072310e+00
 -3.3969939e+00
 -1.0439047e+00
  8.2149667e-01
 -6.4692384e-01
 -5.8391112e-01
  5.9513104e-01
  8.1635040e-01
  1.6140552e+00
 -4.9466394e-02
 -8.7100595e-02
  6.5228276e+00
  6.3432837e-01
  4.0909916e-01
  1.0551540e+00
  1.0042909e+00
  2.2998838e+00
  2.2746341e+00
 -3.6809559e+00
 -7.9131055e-01
 -5.4344678e-01
  2.0926003e+00
  1.8262856e+00
  6.4604348e-01
 -4.4265050e-01
 -1.2093452e+00
  1.7653229e+00
  5.5840594e-01
 -1.5113363e+00
 -7.2354400e-01
  2.4296114e+00
  1.6799829e+00
 -2.5113301e+00
  6.3539648e-01
  4.5764336e-01
  6.6120541e-01
 -5.3144932e+00
 -7.1265571e-02
  1.4207546e+00
 -1.2705890e+00
 -1.2562853e+00
  3.3705762e-01
  1.4220730e+00
 -9.4740790e-01
 -5.6418663e-01
  3.2880867e-01
 -1.7971312e+00
 -3.2267208e+00
  1.8243350e+00
  1.4631763e-01
 -7.8463179e-01
 -1.0031867e+00
 -1.2602888e-01
 -5.3759365e+00
  6.9723731e-01
  1.8026538e-01
 -1.0284258e+00
  4.2914624e+00
 -5.3129685e-01
  4.5218539e-01
  6.2507577e-02
  4.2796078e+00
 -2.6756117e+00
  8.2036471e-01
  1.3474676e-01
 -2.9499106e+00
 -1.1840613e+00
  2.0082047e-02
  1.2345110e+00
  4.7888818e-01
  9.1211802e-01
  6.5983403e-01
  1.3590562e+00
  1.0517277e+00
  1.0811385e+00
 -1.9797537e-01
  4.7370970e-01
 -1.7424268e+00
  4.4901103e-01
  6.0917240e-01
 -6.6162664e-01
 -2.0732141e+00
 -6.6695923e-01
  1.8523165e+00
 -1.1643158e-01
 -1.6513984e+00
  1.1530937e+00
  8.7754935e-01
 -1.5542096e-01
  2.0863259e+00
  2.1979709e+00
 -2.2896039e+00
 -5.9436345e-01
  6.7466688e-01
  1.6038254e+00
 -1.0173352e+00
 -4.0928796e-01
  3.8886473e-01
 -2.5890620e+00
  1.1570227e+00
 -3.5968757e-01
 -1.1438824e+00
 -1.6086549e+00
 -1.7717895e-01
 -1.5127147e+00
  6.8649876e-01
  4.4442609e-01
  6.2601918e-01
 -6.2797076e-01
 -7.9374082e-02
 -1.9334686e-01
  4.9021232e-01
  7.7213722e-01
 -4.8531416e-01
  4.7177684e-01
 -3.6113796e-01
 -2.2152950e-01
 -3.6930804e+00
  7.8525245e-01
  5.2214563e-01
  2.0510559e+00
 -4.1594616e-01
  1.0330391e+00
 -1.2131730e+00
 -1.4597758e+00
  2.0925877e+00
  5.8103108e-01
 -1.4947712e+00
 -2.7206523e+00
  5.4661322e-01
 -7.1762186e-01
 -1.1208612e+00
  4.4103700e-01
 -5.2032435e-01
  7.1198660e-01
  7.1190161e-01
  6.4385784e-01
  2.2997205e+00
  1.8405233e-02
  1.6209757e+00
 -1.5652766e-03
  1.0382539e+00
 -1.5107133e+00
  5.0063568e-01
  5.6305641e-01
 -3.1530932e-01
  6.9189060e-01
  6.3699055e-01
 -3.9291421e-01
  1.7785233e-01
 -1.1903044e+00
 -3.5557207e-01
 -4.1551575e-01
  1.1443337e+00
  2.7670674e+00
 -4.3425145e+00
 -1.0775896e-01
  3.0258532e+00
  2.5117185e+00
  3.9490346e-02
  4.5355758e-01
 -3.7438743e+00
  3.2486427e+00
  1.0041933e+00
 -2.5259519e-01
  1.0690724e+00
  6.3793755e-01
 -3.3861082e+00
  3.1362706e-01
 -7.9931337e-01
 -6.1337930e-01
 -1.2911170e+00
 -9.4512570e-01
 -2.7051022e+00
 -7.6433289e-01
  3.9573863e-01
 -1.1831656e+00
  4.2912880e-01
  1.7815950e+00
 -2.0715099e-02
 -5.2779210e-01
 -4.1728048e-03
  2.9071110e-01
 -1.3732426e-01
  3.6502771e-02
 -8.2055569e-02
 -5.0059037e+00
 -2.8381748e+00
 -2.2296166e+00
 -3.3551812e+00
  7.0573634e-01
 -3.9997683e+00
 -3.8225551e+00
 -1.0377483e+00
 -1.1805689e-01
  4.4939253e-02
 -1.0776099e+00
  2.4178169e+00
  3.2461939e+00
 -6.7223912e-01
  3.1210321e-01
 -8.6163390e-01
  3.5753281e+00
 -2.8754383e-01
  1.9591397e+00
  2.5885031e-01
  3.6000747e-02
  1.6811267e+00
 -5.5039620e-01
  2.1574515e-01
  4.5538250e-01
  1.3977062e+00
 -1.7323753e+00
 -2.2649965e-01
 -2.0193785e-01
 -1.8786465e+00
 -2.3421657e+00
  4.1846773e-01
  3.8450935e-01
 -8.2965977e-02
  1.0662482e+00
 -1.0164284e+00
  2.4429008e-03
  1.0534556e+00
  1.5906310e+00
  2.7933984e+00
  7.1708685e-01
  7.1650434e-01
 -1.3205748e+00
  3.1501970e-01
 -2.8721768e-01
 -4.8889375e-01
  4.3111691e+00
 -8.8128281e-01
 -4.0514755e+00
  2.7414837e-01
  1.1035050e+00
  1.9417391e+00
  3.9148158e-01
  6.8880129e-01
  1.1276752e+00
  5.9891003e-01
  5.9193879e-01
 -1.6078152e-01
 -7.4335611e-01
  2.1938827e+00
 -7.4165434e-01
 -1.0064918e+00
 -6.1481458e-01
  2.0833089e+00
  1.1885228e+00
  5.1009673e-01
 -8.2956737e-01
 -5.0176078e-01
 -7.2633475e-01
  3.4755743e-01
 -2.8407931e-01
 -8.1823349e-01
  1.7347920e+00
  5.2668816e-01
 -5.4527807e-01
 -8.3470446e-01
  1.4432250e-01
 -1.8181736e+00
 -5.2879367e-02
  2.2141202e-01
 -7.1976513e-01
  2.2427447e+00
 -4.6363768e-01
 -1.5194908e+00
  6.2132321e-02
 -3.0335610e+00
  1.8466666e+00
 -3.0629173e-01
  1.5498776e+00
  2.5286850e-01
  2.7245553e+00
 -3.4462507e+00
  2.3506484e+00
  2.6503339e-01
 -8.5532093e-01
 -5.1551408e-01
 -4.7895622e+00
  1.3524263e-01
 -9.0368658e-01
  1.3730021e+00
  4.1580670e-02
  1.7670195e-01
 -2.1431530e+00
  4.9367830e-01
 -6.6360378e-01
 -2.4301738e-01
 -6.1445147e-01
 -1.9924771e+00
  2.1008985e+00
  2.0633187e+00
  3.6146489e-01
 -2.8066139e+00
 -2.0971973e-01
  5.9878185e-02
 -2.5250533e+00
  8.7403131e-01
  8.4947622e-01
 -2.1024437e+00
  1.1789467e+00
  7.2518224e-01
  1.4181131e+00
 -2.1048126e+00
 -3.1873138e+00
  9.3245357e-01
  9.3081379e-01
  2.8541214e+00
 -3.0782962e+00
 -4.8773783e-01
  3.4441844e-01
 -1.5330380e+00
  4.8035245e-02
 -1.2962133e+00
  3.7427124e-01
  1.6311185e+00
  1.5954699e-01
 -4.6285760e-01
 -1.1752287e+00
 -1.5753168e-01
  1.8957993e-01
 -2.3553947e-01
  6.2970705e+00
  2.9048662e+00
 -5.8618557e-01
  2.9149911e-01
  6.8098116e-01
  1.0937448e+00
  8.6413199e-01
 -3.3010180e+00
 -1.1333368e+00
  1.9414623e-01
  4.4103045e+00
  1.7855284e+00
 -5.1182632e+00
 -4.1784212e-01
 -2.3102295e+00
  2.8831899e+00
 -1.2697794e+00
 -2.1150146e+00
  1.8437449e+00
 -1.4911344e+00
 -1.1160041e+00
 -2.0421858e+00
  5.3824196e+00
 -1.0926845e+00
 -2.4988277e-01
  1.9949442e+00
  1.2186996e+00
  3.2478502e-01
  2.3121904e-01
 -3.6525813e-01
 -1.0653602e-01
 -4.7279677e-01
  3.2255697e-01
  5.8767653e-01
  3.2811233e-01
 -2.2663667e+00
 -1.8079616e+00
 -3.3516872e+00
 -1.3817935e+00
 -1.3269019e+00
 -3.7879249e-01
  2.6399941e+00
  2.4206042e+00
 -2.1707208e-01
  9.6536016e-01
  3.2826665e-01
  5.3120165e+00
  1.8833993e-01
 -3.3972132e-01
  9.5441449e-01
 -2.4945006e+00
 -1.7710449e-02
 -3.3124048e-01
  4.1923216e-01
  3.6826117e+00
 -4.2687321e-01
 -1.0797320e-02
 -4.3316436e-01
  5.1455861e-01
 -1.9531655e+00
  4.6679296e+00
 -7.2070205e-01
  1.4010555e+00
 -1.2538108e-01
 -1.5495710e+00
 -6.3098282e-01
 -4.4255421e-01
 -1.0428925e+00
 -1.5418645e+00
 -5.0976497e-01
 -1.4855820e+00
  1.6892555e-01
  5.3411460e-01
  7.3459476e-01
 -2.6179581e+00
 -1.1582468e-01
  3.4022093e-01
  1.9540880e+00
  1.3473587e-01
  7.1779925e-01
 -2.8761055e+00
  1.3981631e+00
 -1.2578710e+00
 -1.2382024e-01
 -1.9634661e-01
 -1.0016472e+00
 -8.9544898e-01
  5.7635486e-01
  1.3430626e+00
  3.1063858e-01
  6.8175274e-01
  8.1927240e-01
  7.0232141e-01
 -1.5107566e+00
 -1.7810566e+00
  7.8246230e-01
 -3.5886735e-01
  4.7258413e-01
 -7.4826580e-01
 -5.0389880e-01
 -2.4338815e-01
  3.4692770e-01
 -1.7524848e+00
  1.0624506e-01
  9.1358221e-01
  2.3163009e+00
  3.8407043e-01
 -1.3131576e+00
 -1.9884717e+00
 -1.3736042e+00
 -4.6441394e-01
 -1.5741571e+00
 -2.6374853e+00
  2.0387187e+00
 -1.1040559e+00
  2.1903784e+00
  5.3491873e-01
 -1.6903750e+00
 -2.0109317e+00
  1.1683159e+00
 -9.1008961e-01
  1.5369651e+00
  2.3273541e-01
  1.3179282e+00
  2.2042584e+00
  4.1086979e+00
  6.1099911e-01
 -5.8753379e-03
 -9.7162360e-01
  2.9276887e-01
  1.9325322e-01
 -1.7230991e+00
  2.2879493e+00
 -1.9394543e+00
 -1.0800991e+00
 -2.9144607e-02
  4.4007656e-01
  7.0792317e-01
 -7.4975944e-01
 -9.7984374e-01
  1.4105000e-01
 -5.9596103e-01
  7.9959905e-01
 -5.6229782e-01
  9.1295838e-01
  1.6374911e+00
 -2.1241438e-01
  5.8971077e-01
  1.1980898e-01
  9.7602576e-02
  3.3955714e-01
 -2.0133615e+00
 -1.4934827e+00
 -2.9795606e+00
 -2.9185542e-01
  8.2532918e-01
 -4.0278225e+00
 -4.6207990e-02
 -1.3906490e+00
 -7.9724002e-01
 -3.9634916e-01
 -8.2053185e-01
  9.2027855e-01
 -9.7786862e-01
 -1.4484620e+00
 -1.1695594e+00
 -1.6746310e+00
 -1.0759612e-02
 -8.5770005e-01
  5.5086073e-02
  7.5145072e-01
 -8.8599229e-01
 -1.7651733e+00
 -5.0042872e+00
  1.9770182e+00
  3.8663740e+00
  1.2346686e+00
 -3.5721809e-01
 -1.7170007e+00
 -9.1234070e-01
  7.7066177e-01
 -1.9159784e+00
 -1.9529397e+00
 -9.6973503e-01
 -1.2173394e+00
  2.4632524e-01
 -1.4053234e+00
 -8.0641031e-01
 -8.0318278e-01
 -4.8028618e-01
 -3.0974946e+00
  2.6428592e+00
 -8.9781076e-01
 -5.5906385e-01
  2.2105899e+00
 -2.5674181e+00
 -1.5987256e+00
 -1.5832562e+00
  7.8339003e-02
  2.2327828e+00
 -2.9938960e+00
  2.1324313e+00
 -2.3088925e+00
  3.9482605e-02
  1.9204170e+00
  3.5612777e-02
 -7.1112788e-01
  1.3268765e+00
 -3.2063583e-01
  6.2113351e-01
  4.6117893e-01
  2.8446382e-01
 -1.1505735e+00
 -8.3299828e-01
  7.7917141e-01
  1.1123864e-01
  4.1111660e-01
  1.8290973e+00
 -6.5291685e-01
  8.7078536e-01
 -2.3589959e+00
  3.2982650e+00
  4.1802508e-01
 -6.7102039e-01
  9.9098384e-02
  4.8802131e-01
 -9.8433323e-02
  1.0536510e+00
  8.4943289e-01
  4.0537664e-01
 -1.0279886e+00
  1.3633456e+00
  1.3183159e+00
  1.5390029e+00
 -6.2579304e-01
 -9.2911267e-01
  1.1170778e+00
 -6.1565661e-01
  3.2389615e+00
 -9.4255722e-01
  3.9582869e-01
 -2.9138932e-01
 -9.8098457e-01
 -3.8605812e-01
 -5.5345410e-01
  1.4523447e+00
 -2.9682593e+00
  2.5651758e+00
 -3.6367378e+00
  1.5135763e+00
  3.3461693e-01
  2.5541098e+00
  1.0522162e+00
 -3.9171630e-01
 -5.5982745e-01
  2.2043989e+00
  1.4717661e-01
 -3.3604841e+00
 -9.3916672e-01
 -4.7545278e-01
 -7.3519129e-01
 -2.5842526e+00
 -4.9750116e-01
 -1.1891071e+00
  1.2482326e+00
  6.5344006e-02
 -1.4659966e+00
 -2.1488152e+00
 -3.7595525e-01
 -6.2856019e-01
  1.3425083e+00
  1.3332255e+00
  1.0460542e+00
  7.3880178e-01
 -1.8484720e+00
 -1.0184685e-01
 -4.8555037e-01
  3.1658855e-01
  2.6971990e-01
 -3.1821176e-01
  4.1469007e+00
  2.7085559e+00
 -2.4164577e+00
 -2.0792453e-01
 -1.9034286e-01
 -5.4509789e-01
 -1.5146819e+00
  1.1125622e+00
  4.1364074e-01
 -4.6431544e-01
  1.0549297e+00
 -1.6125543e+00
  8.9868838e-01
 -8.5374612e-01
  1.7970458e-01
 -1.8560895e+00
  6.0521275e-01
  2.6181953e+00
 -1.1249913e+00
 -3.3933482e-01
 -9.9011427e-01
 -7.2253436e-01
  4.2607301e-01
 -2.3953316e-01
  1.7686452e+00
  1.1759254e+00
 -2.8034762e-01
 -1.6120979e-01
  1.4098811e-01
  6.9129920e-01
  3.8798641e-02
  1.9767959e-01
  3.0076158e-01
  1.9849098e+00
 -4.6016020e-01
  1.5428639e-02
 -3.8794425e+00
 -2.8114419e+00
 -1.2583027e+00
  1.9524661e+00
  6.0322776e+00
 -3.7256794e+00
  2.2362885e+00
 -2.7223666e+00
 -2.4483190e+00
  1.2609435e+00
  4.1171563e-01
  1.9370441e+00
 -1.1282965e+00
 -1.8131545e+00
 -2.0460072e+00
  1.2049847e+00
  3.6736223e-01
 -7.3386945e-02
  1.4670457e+00
  1.8616527e+00
  7.0068441e-02
  2.8298452e+00
 -1.4114749e+00
  1.1696467e+00
 -9.6471870e-01
 -2.7358508e+00
 -9.6881014e-01
 -4.4474921e-01
 -1.5302365e+00
 -1.0619960e-01
  1.0757461e+00
  8.4905475e-02
  6.0582703e-01
  6.7079991e-02
 -5.0339899e+00
 -6.7127889e-01
 -2.5530519e+00
 -1.8053101e-01
 -1.8109884e+00
 -1.2026166e+00
 -8.4890997e-01
 -2.0977142e+00
 -8.7640548e-01
  1.2643042e-01
 -3.6108658e+00
  7.3134506e-01
  3.2489924e+00
 -3.1801596e-01
 -8.2181770e-01
 -7.9635078e-01
 -1.5761994e+00
 -1.3633657e+00
 -1.8029320e-01
  3.7268708e+00
 -1.8656904e+00
 -5.7012945e-01
  6.1958581e-01
 -4.0836170e-01
  2.0789196e+00
  1.6865875e+00
 -2.3904393e+00
 -1.0699369e-01
  5.7272190e-01
 -1.8307735e+00
  2.1298449e-01
  9.4938582e-01
  5.7685250e-01
  3.7738076e-01
  9.4170421e-01
 -1.0474774e-01
  1.5363837e+00
 -7.9506534e-01
 -8.3008349e-01
 -3.6710327e+00
 -1.6916180e+00
 -8.3956593e-01
 -1.1726097e+00
  6.0694313e-01
 -7.6250190e-01
 -1.1922203e+00
  1.3719940e+00
  1.0100653e+00
 -1.3186179e+00
  5.3457487e-01
  8.3482713e-01
  3.6707348e-01
  1.1997806e+00
  9.6344358e-01
  2.8022642e+00
 -2.5400450e+00
  1.8765326e+00
 -1.5832646e+00
  3.1685853e-01
 -1.1086932e+00
  1.2839372e+00
 -3.5182682e-01
  4.4582459e-01
  5.1193100e-01
 -2.9708245e+00
  2.5961285e-02
 -2.2100817e-01
 -4.4308403e-01
  2.5197262e-01
 -1.5439509e+00
 -4.9764094e+00
 -3.2402716e+00
  3.8515222e+00
  3.7217484e+00
  4.3817029e+00
  2.7981907e-01
 -1.2855893e+00
 -1.4666203e+00
  1.9158756e+00
 -1.7473702e+00
  1.5066400e+00
  1.0229883e+00
 -2.2562518e+00
  2.6948652e+00
 -1.5451747e-01
  5.6194741e-01
  2.2750900e+00
  2.1793199e+00
  7.1480236e+00
  3.7622921e+00
 -3.1111252e-01
  3.9368117e+00
  8.3417273e-01
  5.8547907e+00
 -9.7182065e-01
  7.7218014e-01
  2.4486790e+00
  2.1150729e-02
 -5.1803522e-02
 -2.5786057e-01
 -2.0178513e-01
  2.8644140e+00
 -1.3478042e-02
 -1.6555803e-01
 -3.1328204e-01
 -1.3119038e+00
  9.6221232e-01
  3.0127459e+00
  1.7787473e+00
  1.6520258e+00
  4.5781204e-01
 -1.8251108e+00
  5.0992310e-01
  1.3903731e-01
 -1.2539856e-01
 -8.5456461e-01
 -1.8333086e+00
 -1.7821270e+00
  2.1375981e-01
 -7.9080045e-01
  3.9369977e-01
  1.0978960e+00
 -2.3888350e+00
 -7.8471249e-01
  1.0144416e+00
  2.2632728e+00
  2.8164165e+00
  3.4711495e-01
 -9.2077589e-01
  1.3353871e-01
 -1.9377168e-01
 -3.9576104e+00
 -1.0702456e+00
 -7.1743816e-01
 -7.9453748e-01
  4.1062799e-01
  2.7540699e-01
 -1.4080392e+00
  1.7980823e-01
  6.1904812e-01
 -5.2233595e-01
  7.7942044e-01
  2.1068168e+00
  1.4543393e+00
 -1.4982920e+00
  1.1179721e+00
  8.5523951e-01
  1.6059448e+00
  7.3184812e-01
 -3.8072615e+00
  2.0677621e+00
 -1.5593135e+00
  1.2387882e+00
  1.0175766e+00
 -2.9253078e+00
 -5.0923425e-01
 -1.4957967e+00
 -1.5523359e+00
  1.1131615e-01
 -2.1696057e+00
  3.6407692e+00
 -3.4623489e+00
 -1.2029798e+00
 -8.9446783e-01
  1.9390084e+00
  8.4198302e-01
  2.1057601e+00
 -1.8051982e+00
 -1.7780780e+00
  1.7922487e+00
  2.4973902e-01
  1.6064627e+00
  1.5881921e+00
  7.1370977e-01
  1.8733512e+00
 -8.1741858e-01
 -7.7971715e-01
 -1.3279691e+00
 -9.3377340e-01
  1.7163795e+00
  1.2062018e+00
 -4.0605167e-01
  1.1279896e+00
  7.7752739e-01
 -6.8209901e-02
  1.0673597e+00
 -3.7547162e-01
  1.0773313e+00
 -1.1954932e-01
 -5.1101781e-02
 -1.5718657e+00
  1.9517914e+00
 -1.2243693e+00
  2.3254418e-01
 -1.4306237e+00
  2.5791523e-01
  2.5362608e+00
  4.1707677e-01
  1.6992040e-01
  7.7849686e-01
  1.3849045e+00
 -3.4677156e-03
  7.3672193e-01
  2.5205433e+00
 -2.6523530e-01
 -3.5992453e-01
  8.9167851e-01
  7.4023873e-01
 -1.0468922e+00
  1.4692448e+00
 -5.0657105e-01
 -1.8687508e+00
 -1.6914433e+00
 -1.5513727e-02
 -3.5225747e+00
 -1.0230911e+00
 -2.2010963e+00
 -2.5733328e-01
  1.8258287e-01
  7.5609797e-01
  2.8018239e-01
  1.2746474e+00
  3.2446444e-01
 -8.2804382e-01
  3.1211814e-01
  4.1097966e-01
  8.3533567e-01
  8.7970114e-01
  1.9803074e-01
  7.3532504e-01
 -8.9533949e-01
  1.1392236e-01
 -1.3921167e+00
  4.3809256e-01
  2.8530324e-01
  4.6502250e-01
  3.5377774e-01
  3.6288726e-01
 -1.4868790e-01
  2.7503865e+00
 -4.7207078e-01
  5.3250170e-01
 -3.5718533e-01
  5.8160830e-01
 -3.6805534e-01
 -7.1440339e-01
  1.3447468e+00
  5.4628766e-01
  1.5698862e+00
  2.9248691e-01
 -2.0364542e-01
 -7.7555573e-01
 -2.4504721e+00
  1.5418492e-01
 -6.8948758e-01
  1.2491242e-01
  3.0451128e-01
 -4.3697992e-01
 -1.3307285e-01
 -3.2856646e+00
 -6.3776737e-01
  3.8381687e-01
 -1.6721902e+00
 -4.4032452e-01
  5.6926191e-01
  5.9965479e-01
  2.7455181e-01
  5.7493633e-01
 -1.5828879e+00
 -7.2006553e-01
 -6.5240753e-01
  5.4395771e-01
  5.5734730e-01
  6.4366430e-01
 -6.1049378e-01
 -1.7828614e+00
 -1.8854281e+00
 -6.1883283e-01
 -4.6538082e-01
  6.7338675e-01
  3.1477821e-01
 -4.5817292e-01
 -7.4616134e-01
 -7.6272261e-01
 -2.9422897e-01
  3.3180889e-01
  8.3946574e-01
 -3.9576042e-01
 -7.0912373e-01
 -3.4217721e-01
  4.5290738e-01
 -4.1464627e-01
  2.8856497e+00
  2.4686025e-01
 -1.2156378e+00
  9.8088437e-01
 -9.4158345e-01
 -2.3414029e-01
 -2.9838905e+00
 -1.9880714e-01
  2.0005812e+01
 -2.1220167e+00
 -3.5058734e+00
  3.0018988e+00
  1.4276818e+00
 -6.6946158e+00
 -2.5465055e+00
  3.0429623e+00
  5.4183216e+00
 -7.7619028e-01
 -3.4969118e+00
 -7.3016191e+00
 -1.7222154e+00
  2.2435218e-01
 -3.9881647e+00
  5.6196856e-01
  4.2658553e+00
  7.4812281e-01
  3.0529532e+00
  7.1321678e-01
  1.8191031e-01
  8.2629174e-01
 -7.4728590e-01
  2.8126163e+00
 -7.1271653e+00
 -3.1795254e-01
  4.5599957e+00
  5.0689363e+00
 -1.7577537e+00
 -1.3091168e+00
 -1.7473332e+00
  1.1585722e+00
 -7.1945560e-01
 -1.5810995e+00
 -1.0224848e+00
  3.5712593e+00
  3.8867342e+00
 -9.0598041e-01
 -2.1763539e+00
  1.1146898e+00
  6.4989619e+00
  5.4564571e+00
 -3.5949869e+00
 -6.0180402e+00
 -2.1255903e+00
  2.0921965e+00
  1.4204311e-01
  3.1496754e+00
 -4.4526401e+00
 -2.9995444e-01
  3.6035011e+00
  5.2702713e-01
  7.4935865e-01
  1.7975729e+00
  1.3592644e+00
 -1.8973451e+00
 -4.0920115e+00
  6.5448780e+00
  4.2657018e+00
 -2.9347482e+00
 -3.3474650e+00
 -1.6215163e+00
 -7.0250326e-01
 -8.5809392e-01
  1.2769005e+00
  8.3281412e+00
 -1.0009906e+00
 -4.9237709e+00
  1.6992534e+00
  4.6613688e+00
  4.7011173e-01
 -3.4016671e+00
 -1.5866208e+00
 -1.3080939e-02
  2.4487374e+00
  4.1649094e-01
 -3.2598469e-01
 -2.1584206e+00
  1.6456582e-01
  3.2323938e-02
  8.5349256e-01
 -1.2260854e+00
 -3.2826703e+00
 -4.5743780e+00
  1.9408752e+00
  1.5254618e+00
 -2.0270345e+00
  1.6816525e+00
  4.4447951e+00
  1.4934634e+00
 -2.3296809e+00
  4.1251560e-03
  4.1251560e-03
  4.1251560e-03
  4.1251560e-03
  4.1251560e-03
  5.2743582e-03
  5.2743582e-03
  5.2743582e-03
  5.2743582e-03
  5.2743582e-03
  4.1027446e-03
  4.1027446e-03
  4.1027446e-03
  4.1027446e-03
  4.1027446e-03
  2.3731452e-03
  2.3731452e-03
  2.3731452e-03
  2.3731452e-03
  2.3731452e-03
  1.4660439e-03
  1.4660439e-03
  1.4660439e-03
  1.4660439e-03
  1.4660439e-03
  7.1759237e-04
  7.1759237e-04
  7.1759237e-04
  7.1759237e-04
  7.1759237e-04
  5.9611837e-05
  5.9611837e-05
  5.9611837e-05
  5.9611837e-05
  5.9611837e-05
