nep4_zbl 1 C 
zbl 1 2
cutoff 6 5 163 106
n_max 4 4
basis_size 8 8
l_max 4 2 1
ANN 80 0
  2.2559540e+00
  3.3655496e+00
 -1.0531279e+00
 -1.2425570e+00
  8.7858558e-01
  2.2409701e-01
 -2.3273690e+00
  1.0244750e+00
 -8.3207750e-01
  2.0299277e-01
 -1.0152956e-02
 -1.4252117e+00
 -1.1434444e+00
  1.6887149e-01
  1.7930835e+00
 -6.7126721e-01
 -1.2679371e+00
 -1.6306820e+00
  9.7456676e-01
  1.7929984e+00
 -7.3370725e-01
  4.5371667e-01
  9.9946779e-01
  2.4268146e+00
 -5.6388235e-01
 -7.6983798e-01
 -1.1729270e+00
  9.2490934e-02
  3.3391920e-01
  1.4072837e+00
 -5.3895634e-01
  1.9737884e-01
  1.6949962e-01
  3.0151838e-01
 -1.4426017e+00
  1.5077573e+00
  1.1933708e+00
  2.9962463e+00
 -1.1965954e+00
  1.0423186e+00
  1.9943639e+00
  1.7312232e+00
 -3.0289202e+00
  1.3702985e+00
 -1.2150148e+00
  2.1732717e+00
  9.4825095e-01
 -1.2089626e+00
  4.0980646e-01
 -8.7499881e-01
  2.0624607e+00
 -2.7901669e+00
 -1.7511343e+00
 -1.8734665e+00
 -4.0048751e-01
  4.1105872e-01
 -2.0205336e+00
  1.6591535e+00
  4.6877697e-01
 -7.1256292e-01
  9.1589570e-01
  3.3138189e-02
  3.2515604e+00
  1.1706837e+00
 -1.2596262e+00
  3.5368329e-01
 -6.8675900e-01
  1.6159953e+00
 -7.5985187e-01
 -1.2183354e+00
  4.8749077e-01
 -1.2201998e+00
  3.1617671e-01
 -1.0705104e+00
  1.3446001e+00
 -1.4454226e+00
  2.4862628e+00
  3.4182167e-01
  2.6293001e-01
  7.9591894e-01
 -4.8105064e-01
  5.3977877e-01
  4.8073936e-01
  2.0310221e+00
  8.4152108e-01
  1.3477153e+00
 -2.3221657e-01
 -1.2815936e+00
  4.5873843e-02
  2.4898374e+00
  2.0588630e-01
  2.1725528e+00
  1.9720240e-01
  3.2967904e-01
  8.7137216e-01
 -1.1932280e-01
 -3.5279355e+00
  6.0940856e-01
  1.7715987e+00
 -8.1075388e-01
 -7.9953152e-01
 -3.7433609e-01
  2.1355173e-01
 -1.4153831e+00
  1.9302556e-01
 -2.1288433e+00
 -1.0597531e+00
 -1.6763922e+00
  8.3955097e-01
  4.7500967e-03
 -2.2175622e+00
  2.3096293e-01
  3.0285764e+00
  4.0108857e-01
  4.8274368e-01
 -2.9738870e-01
  2.5985315e+00
  7.5909305e-01
  3.0622500e-01
 -2.3413989e-01
 -2.7488551e-01
  2.2826877e+00
  2.3973687e+00
  7.0085600e-02
 -3.3541229e-01
 -2.9831088e-01
  1.2186023e+00
  1.1190902e+00
 -1.0347846e+00
  3.2675567e-01
  1.3481975e+00
 -7.4605411e-01
 -2.3144302e+00
 -1.4496384e+00
  1.2177677e-01
  1.0434077e+00
 -8.2763821e-02
  6.0196508e-02
  1.1940852e+00
  3.0252308e-01
 -9.3546617e-01
 -5.6605512e-01
  9.9880315e-02
 -1.6355115e+00
  4.4341725e-01
  2.5980771e-01
 -4.1755363e-01
  5.1306009e-01
 -1.6919078e+00
  1.6161622e+00
 -2.2342965e-01
 -1.4804159e+00
 -8.4194082e-01
 -1.2910289e-01
  1.1915634e+00
 -1.9231540e-01
  7.2006673e-01
  2.9509217e-01
  4.4765922e-01
  5.2385181e-01
  1.5121108e-01
  4.3600273e-01
  3.1792775e-01
 -3.3093959e-01
  1.0934073e+00
  1.0318954e+00
  4.2274246e-01
  1.9829908e-01
  3.2489941e-01
 -5.5945206e-01
  4.8900717e-01
  8.5464525e-01
 -3.2391405e-01
  4.3930286e-01
  6.8912692e-02
 -1.7877614e+00
 -2.4683096e+00
  2.2826850e-01
  9.9020571e-02
  1.7361804e+00
 -2.2069393e-01
  9.8403513e-02
  2.1507683e+00
 -3.5691759e-01
  3.5540435e+00
 -2.0608165e+00
 -7.4627584e-01
  2.6173186e+00
 -1.2437820e+00
  1.5734602e+00
 -5.9266222e-01
  1.7830292e+00
  2.9435329e+00
  5.7138395e-01
  3.0094886e+00
  4.5059565e-01
 -9.1545278e-01
 -4.8322710e-01
  1.5690060e-01
  1.6688095e+00
 -2.5225189e+00
  7.6696652e-01
  1.9239900e-01
  1.3892640e-01
  6.3155204e-01
 -6.2589794e-01
 -2.2979791e-01
  9.3159187e-01
 -1.6117772e-01
 -1.3886561e+00
 -1.1496333e+00
 -3.9571252e-01
  1.0290827e+00
  1.3813702e+00
  2.4195671e+00
 -3.6704466e+00
 -3.9608333e-01
  3.6725515e-01
  1.3033879e-01
  1.5784459e+00
 -2.9029152e+00
 -1.7658228e+00
  2.0403779e+00
  9.5732087e-01
  1.5707308e+00
 -5.3296602e-01
 -1.6178373e+00
 -1.1075363e+00
  2.5968368e+00
 -1.6705911e+00
 -1.7043728e+00
 -2.6532843e+00
 -1.3601418e+00
  1.9245669e+00
  7.4134046e-01
 -1.3718383e+00
  8.7162912e-01
  3.5222909e-01
 -4.2875241e-02
 -1.4476842e-01
  6.3020281e-02
  3.8235685e-01
  4.0922308e-01
  3.7878948e-01
 -8.3567363e-01
 -4.8770475e+00
 -5.1262671e-01
 -6.4947718e-01
 -3.0765378e-01
  2.9341865e+00
 -3.5869205e+00
 -2.7468741e+00
  1.2949150e+00
 -4.3966532e-01
 -1.3932469e-01
 -5.5857860e-02
 -1.8316133e+00
  1.2743284e+00
  6.2248368e-02
  1.0764797e+00
  3.8397443e-01
 -2.0978444e+00
 -1.0887494e+00
  2.3537652e+00
  1.1866304e+00
  1.0505084e+00
  6.1650860e-01
 -1.3588992e+00
 -9.0365517e-01
  1.6633044e+00
 -8.4681284e-01
 -1.8255143e+00
 -1.1778975e+00
 -4.2908567e-01
  3.4556517e-01
  2.3780957e-01
 -1.9101255e-01
  5.7655030e-01
 -4.3059587e-01
 -1.0548445e+00
 -6.2088603e-01
  1.8921098e-01
 -1.4878502e+00
  2.5737882e+00
  2.2613476e-01
  1.0292944e-01
  4.5183018e-01
  7.1947491e-01
 -3.6864209e-01
  1.6142967e+00
  5.9152055e-01
  1.2595040e+00
  5.0952530e-01
  8.3569926e-01
 -6.3986605e-01
 -4.5801738e-01
  2.1775415e-02
  4.4788547e-02
 -9.8145986e-01
 -1.3309389e+00
  2.0307922e+00
  5.9941366e-02
  9.1852355e-01
 -8.5477658e-02
  6.9780216e+00
  4.4399220e-01
  1.5122144e+00
 -1.1810155e+00
  9.1085625e-01
  1.3261495e+00
  6.2779093e-01
 -6.6972643e-01
  8.9919025e-01
 -6.7914981e-01
 -3.8846579e-01
  3.5957282e+00
 -3.0745879e-01
 -7.7027887e-01
 -1.6247968e-01
 -2.0795534e+00
 -8.6064279e-01
  1.6190818e-01
  9.8219228e-01
 -1.0591052e+00
 -1.0293887e+00
  9.0754412e-02
 -1.5874745e+00
 -4.1937843e-01
  1.1814457e+00
 -1.8550820e+00
 -1.8691161e+00
 -1.3974458e+00
 -3.4948021e-02
 -2.1323123e+00
  4.9240872e-01
  7.6307243e-01
 -9.3717849e-01
 -2.2922392e-01
 -3.7233374e-01
 -2.5755541e+00
  3.0944378e+00
  4.3259034e-01
 -4.1494226e-01
 -8.4823513e-01
 -8.8334203e-02
 -6.8790567e-01
  5.6326014e-01
 -9.8682892e-01
  1.6615401e-01
 -1.0669367e+00
  1.4541218e+00
  2.0118008e+00
  7.3246270e-01
 -5.2426881e-01
 -3.1180868e-01
  1.7554960e+00
  6.9007874e-01
  4.0425119e+00
  3.7092675e-02
 -4.1920591e-02
 -4.1898572e-01
  1.0356928e-01
  7.2208011e-01
  9.7431779e-01
  1.0451788e+00
  8.5221905e-01
  7.2500414e-01
 -3.2179779e-01
 -6.0272318e-01
 -1.1085628e+00
  3.2630789e+00
 -1.6178085e-01
 -1.4880058e+00
  1.9998439e-02
  6.8130249e-01
  1.3563794e+00
  4.0775615e-01
  2.7828404e-01
  3.0674090e+00
 -1.2606592e-01
  9.3744612e-01
 -1.3412172e+00
  3.0364308e-01
 -5.0071704e-01
 -8.0776073e-02
  1.7531387e+00
 -3.4160081e-01
  2.7732918e-01
 -8.5370522e-03
  1.4383742e+00
 -1.0174304e+00
 -6.5213792e-02
  1.1120850e+00
  1.0111457e+00
  1.2772349e+00
  5.0312048e-01
  2.8168371e-01
 -4.3232477e-01
  4.3738836e-01
  1.0693345e+00
 -1.4198451e+00
  3.4946613e-02
  4.5045072e-01
 -6.6888535e-01
 -9.0969598e-01
  1.0050297e+00
 -9.8852658e-01
  1.3561690e+00
 -5.1723894e-02
 -1.6434620e-01
  7.7610636e-01
  3.1993222e+00
 -5.4309005e-01
  1.2217629e-01
  1.0314119e+00
  8.6065817e-01
 -1.1650629e+00
  1.0559084e-03
  1.2275407e-01
 -4.9880248e-01
  5.1509041e-01
 -1.4946029e-01
  1.0535498e+00
  1.8326658e-01
 -7.3792714e-01
 -2.4398744e-01
  9.6123469e-01
 -5.8572578e-01
 -1.4083973e+00
  1.3207944e-01
  1.3410921e-01
 -2.5273502e-01
 -1.1961296e+00
  4.4824761e-01
  5.8473802e-01
 -6.0760087e-01
 -1.6453482e+00
  6.8582290e-01
 -3.9457688e-01
 -1.2898402e+00
  1.5556923e+00
 -1.2984748e+00
 -3.7424979e-01
 -2.0986514e+00
 -9.7195369e-01
  7.9753155e-01
 -1.0939745e+00
 -1.9937769e-01
  2.1456596e-01
 -1.1421922e-02
  1.8193497e-01
  7.4109948e-01
 -1.9599716e-01
 -4.9297246e-01
 -3.1118801e+00
 -2.4696156e-01
 -8.3524746e-01
  9.2071676e-01
  4.2185551e-01
  1.9640238e+00
 -2.0803177e+00
  3.3965874e-01
 -1.7974624e-02
 -4.0168470e-01
  7.7066934e-01
  9.9042130e-01
  9.4529158e-01
 -2.1947343e+00
  7.6183093e-01
 -1.5369263e+00
 -1.2235817e+00
 -1.8887748e+00
 -7.6070862e+00
  1.6046722e+00
 -1.5477279e+00
  8.7074184e-01
  9.5217711e-01
 -5.8847553e-01
 -1.6940659e-01
  5.3299499e-01
  1.3360429e-02
 -2.9337442e+00
  1.1749448e+00
 -1.8995495e-01
  6.2262475e-01
 -4.1104913e-01
 -4.3970430e-01
  6.7137831e-01
 -8.6710101e-01
 -3.5660118e-01
  8.6499530e-01
 -5.8124036e-01
 -7.2022088e-02
  3.8702086e-01
  4.9493474e-01
 -8.4185833e-01
  3.3612873e-02
 -1.0557965e+00
  5.7903022e-01
 -4.7058988e-01
 -1.1336297e+00
 -1.3081012e+00
 -5.2564800e-01
  7.8518987e-01
  1.2063212e+00
 -1.3526798e-02
 -7.4158810e-02
  4.9714279e-01
  1.3369226e+00
  1.1993420e-01
  5.7854855e-01
 -9.7867012e-01
  1.6320962e-01
 -9.2017555e-01
  4.1007683e-01
  6.6539311e-01
 -9.2168498e-01
 -4.7677603e-01
 -6.7291045e-01
 -5.6426847e-01
 -2.4940629e-01
  1.2020845e+00
 -9.9194817e-02
  9.3214089e-01
 -1.1400888e+00
  1.4539326e+00
 -1.7255758e-01
 -1.7313207e+00
  5.9623808e-01
  1.5074421e-01
  1.9314981e-01
 -1.6434094e+00
 -1.2865404e+00
  1.8319144e+00
  3.2147861e-01
  2.4051275e+00
  3.0325813e+00
 -3.3785832e+00
  1.5778960e+00
 -6.6419524e-01
 -2.5447161e+00
  1.6290468e+00
  2.5283197e-01
  1.7365466e+00
 -5.0724417e-01
 -2.8086636e+00
  1.7921700e+00
 -9.7757888e-01
 -6.0778409e-01
 -7.3037654e-01
  7.7186829e-01
 -2.3826370e+00
  1.4121313e+00
 -3.4360579e-01
 -7.8367615e-01
 -1.0029384e+00
 -3.4614199e-01
 -6.3908613e-01
 -6.9993633e-01
 -5.9347618e-01
 -3.8528022e-01
  1.8827568e+00
 -2.7143972e+00
 -2.3188610e+00
  1.8690803e+00
  6.8948960e-01
 -1.8443157e-01
 -1.7107894e+00
  1.5290044e-01
  1.0025823e+00
 -4.4400910e-01
  1.2933916e+00
 -7.5335228e-01
  8.3417112e-01
  4.8669851e-01
 -9.1527179e-03
  2.2457516e-01
 -9.0351379e-01
 -8.7012821e-01
  6.2666798e-01
  1.4226589e-01
  1.3662952e+00
 -1.0476162e+00
  2.2839737e+00
 -2.7204299e-01
 -6.9761419e-01
  7.9009753e-01
 -2.1143083e-01
  6.7676085e-01
 -8.5186416e-01
 -3.0680597e-01
  5.0305730e-01
 -9.8673534e-01
  2.4442503e-01
  1.2819469e-01
 -3.1521198e-01
  1.2260147e+00
 -2.3349020e+00
  1.0854956e+00
 -2.2385743e+00
 -1.7106514e+00
  4.7172856e-01
  6.9620526e-01
 -1.4986911e-01
  9.5797622e-01
 -3.7066417e+00
  2.9818175e+00
  1.0312409e+00
 -1.7647495e+00
  1.8264576e+00
 -1.9956785e+00
 -1.7897916e+00
  5.1092958e-01
 -6.5756404e-01
 -2.4697189e+00
 -2.6244080e+00
 -8.6186749e-01
  2.1094611e-01
 -5.1274973e-01
 -1.1863425e+00
 -2.2617078e+00
  7.4433094e-01
 -1.1123940e+00
  3.7148613e-02
  1.4712007e+00
 -6.8429941e-01
  4.1266617e-01
 -1.3481731e+00
  3.1196171e-01
 -6.2614721e-01
 -1.2201639e+00
  4.7234759e-01
  9.9061805e-01
 -1.5009283e-01
 -9.0422028e-01
 -1.0809882e-01
 -1.3486534e-01
  1.4275504e+00
 -1.1094997e+00
 -9.4425124e-01
 -2.0932201e-01
  2.4115568e-02
 -1.0150732e-01
 -6.8305707e-01
 -3.4603044e-01
  4.4632033e-01
 -1.0061307e+00
  7.9408318e-01
 -7.0888972e-01
 -7.1847904e-01
  7.6190549e-01
 -3.6936742e-01
 -9.1017574e-01
 -8.9538330e-01
 -1.1050158e+00
  5.4752034e-01
  2.5764257e-01
 -3.6976615e-01
  2.1928997e-01
  3.7631455e-01
  7.7773398e-01
  5.8106416e-01
  8.4262711e-01
 -8.1535436e-02
 -8.7483101e-02
 -6.6174048e-01
  6.4404500e-01
  9.2656963e-02
 -1.2069724e+00
 -4.7128347e-01
 -4.9899942e-01
  2.2108179e-01
 -4.3125439e-01
 -2.6155546e-01
 -1.9882646e-01
  3.2737410e-01
 -2.1422632e-01
 -1.3195459e+00
  5.4214519e-01
 -8.4739619e-01
 -1.7809789e-01
  4.5527554e-01
  5.2461684e-01
 -1.1819605e-01
  1.7675333e+00
 -5.4806626e-01
 -9.7747517e-01
  1.3584558e+00
 -6.4252950e-02
 -3.3394638e-01
 -1.1747172e+00
 -2.0525233e-01
  3.7844241e-02
  1.5638686e+00
 -3.2294995e-01
 -6.6278696e-01
 -3.4522745e-01
  1.7227523e+00
 -7.8354484e-01
  3.2971969e-01
 -9.7596341e-01
 -1.5650262e+00
  6.5608019e-01
  2.1393184e-02
  1.0178870e+00
 -5.8274370e-01
 -7.9471475e-01
  2.1135071e-02
 -4.6913773e-01
 -6.2211657e-01
 -3.9444545e-01
  1.5860394e+00
  1.8213575e+00
  6.7131233e-01
 -1.4769950e+00
  1.6015664e-02
 -5.6988621e-01
  6.7815328e-01
  8.5490412e-01
 -7.6342607e-01
 -3.3334059e-01
  1.7491130e+00
 -2.9458895e-01
  6.0844725e-01
 -1.0983732e+00
  1.5594974e-01
 -8.5087162e-01
  4.9336585e-01
 -2.3709330e-01
 -4.9529020e-02
  7.8081876e-01
  2.4524398e-01
  5.3873879e-01
 -1.0577298e+00
 -2.2950311e-01
  2.9598637e+00
  7.6311320e-01
 -8.8121653e-01
 -1.1403413e+00
  6.4382136e-01
 -1.6301450e+00
  9.8463461e-02
  2.2642965e+00
 -5.2640212e-01
  3.0185312e-01
 -2.9822273e+00
 -1.7775209e-01
 -7.0563167e-01
 -5.6790912e-01
 -1.7275126e+00
 -2.3747353e-01
 -9.3218100e-01
 -2.9010966e+00
 -3.4236392e-01
 -5.3271031e-01
  1.2358810e+00
 -5.6260085e-01
 -1.3112645e-01
 -7.9410726e-01
 -2.7528625e+00
 -5.7346968e-04
  2.3724535e-01
  1.5968189e+00
 -4.7476375e-01
  1.1830284e-01
 -7.5913650e-01
 -1.0970839e+00
 -1.0129280e+00
 -5.7528126e-01
 -1.0329322e+00
  9.9036747e-01
  3.7224612e-01
  1.9947991e+00
 -9.8956048e-01
 -2.0018277e+00
  7.5161725e-01
  5.7511795e-02
 -5.6957650e-01
 -3.9723337e-01
  8.4554380e-01
 -2.5288638e-01
  1.6578589e-01
 -1.7301601e-01
 -1.9257222e+00
  4.1004799e-02
  1.3823761e+00
 -9.6220744e-01
  8.2124650e-01
  1.4069384e-01
 -2.6746204e+00
 -4.3270028e-01
 -1.0376440e+00
 -6.2027991e-01
 -8.3123529e-01
  9.4200087e-01
 -1.3361581e-01
  9.4286388e-01
 -3.9367890e-01
 -2.0304608e+00
  3.4254891e-01
 -3.0151790e-01
  8.2159460e-01
 -2.3602770e-01
  4.1612014e-02
  1.2017778e+00
  1.0506319e+00
  2.2479726e-01
 -3.6909580e+00
 -1.8714662e+00
  3.8288370e-02
 -1.6059456e+00
  9.8645341e-01
  3.5080257e-01
 -9.3502209e-02
 -2.2134447e+00
 -2.1452150e+00
  5.7797128e-01
 -1.0024362e+00
 -3.8057131e-01
 -8.2785547e-01
 -1.3112506e+00
 -1.4376927e-02
  1.0251446e+00
 -9.7829622e-01
  3.5500172e-01
 -7.7925283e-01
 -4.4550532e-01
  1.7709434e+00
  2.8970957e+00
  3.1688277e-02
 -2.6133525e+00
  1.7692354e+00
  2.7926004e-01
  7.4149001e-01
 -2.9126281e-01
 -7.4146545e-01
  1.1439203e+00
  3.9102089e-01
 -2.1037364e-01
  1.1338135e-01
 -1.9204697e-01
 -8.7766236e-01
  2.0683901e+00
  1.7030497e+00
  4.4695061e-01
 -2.0557411e+00
 -1.6555135e+00
  2.6619592e+00
  1.2517442e-01
 -7.0168667e+00
 -2.0378643e-01
  2.7262981e+00
  9.7296274e-01
 -1.2951636e+00
 -4.3807793e+00
  1.6088153e+00
 -1.3915957e+00
  1.4438211e+00
 -1.7047331e-01
  1.1276973e+00
 -5.4686777e-02
  6.5372008e-01
 -1.7822181e-01
 -6.8105900e-01
  1.0701539e-01
  1.9973042e+00
 -4.1471121e-01
 -2.5194570e-01
  7.1386093e-01
  2.0481913e+00
  3.6915720e-01
  1.0778463e+00
  7.8662866e-01
  3.8602749e-01
  3.8369933e-01
  2.6316154e+00
 -1.3211782e-01
  3.0036790e+00
  1.4436413e+00
 -3.1294777e+00
 -1.4780127e+00
  2.6407454e+00
 -1.5050538e+00
  4.4091618e-01
  7.4166691e-01
 -2.3179092e+00
 -1.7102507e+00
 -1.5281177e+00
  1.3274400e+00
 -1.5742303e+00
 -2.2069684e-01
  1.0724949e+00
 -6.3780415e-01
 -4.5583007e-01
 -2.6589340e-01
  9.2557752e-01
  9.2220801e-01
 -1.0551102e+00
  1.2599975e-01
 -2.8117533e+00
  3.7440881e-01
  1.7501165e+00
 -1.4381739e-01
  1.6702394e-01
 -2.5671023e-01
 -3.2583812e-01
  4.2770758e-01
 -5.0112838e-01
  1.5041706e-01
 -1.7725692e+00
 -2.2642961e+00
  1.6986762e+00
  3.3231381e-01
 -2.0608804e+00
  1.0217307e+00
 -8.5561305e-02
  1.1510733e+00
  1.9540906e+00
 -2.4555295e+00
  7.7890563e-01
 -1.4148700e+00
  1.7546486e+00
  3.3445254e-02
  1.4237610e+00
 -2.5221854e-01
 -8.9132428e-01
  1.6917727e+00
  1.7108520e+00
 -2.8443807e-01
 -1.0562139e+00
  8.5867858e-01
  5.3864306e-01
  5.6267303e-01
 -1.1103561e-01
  9.3281764e-01
 -7.4681741e-01
 -9.2067689e-01
 -2.1548097e+00
 -3.6378786e-01
  7.2030467e-01
 -1.1904054e+00
 -8.3716087e-02
 -1.3610319e+00
  3.5913851e-02
  1.1061790e+00
 -7.9533875e-01
  1.0017189e+00
 -3.7405691e+00
  1.3219355e+00
  1.1555500e+00
 -3.9470288e-01
 -1.0179616e+00
 -2.7445287e-01
  3.6461484e-02
  1.6746023e+00
 -2.1525180e+00
 -8.4612799e-01
 -6.3173503e-01
  8.7604469e-01
  1.1345624e+00
 -1.5768860e-01
 -2.8346994e+00
  2.4434998e+00
 -2.6401508e-01
  1.0690256e-01
 -6.0611457e-01
  8.0053467e-01
 -1.9185064e+00
 -3.5291034e-01
  5.9260863e-01
 -9.8914438e-01
  5.7294846e-01
  3.3182557e+00
  1.3028214e+00
 -8.2720280e-01
 -1.1795921e+00
  3.8987687e-01
 -7.8441113e-01
 -7.6586682e-01
 -2.8392088e-01
 -4.4403002e-01
 -1.6650064e-01
  4.0061436e+00
  1.1041888e+00
  3.7071028e-01
 -9.3826652e-01
 -3.7413697e+00
 -1.0925910e+00
  6.7815185e-01
  2.2764812e+00
 -4.1917953e+00
  2.6432130e-01
  1.0682075e+00
 -9.3280953e-01
  4.7772183e+00
 -9.4323820e-01
 -6.3031799e-01
  2.2629156e+00
 -1.1454806e-01
  7.2169721e-02
  1.7026567e+00
  9.1391248e-01
  2.5340894e-01
 -1.5199723e+00
  1.5920055e+00
 -1.5348232e+00
 -7.7463764e-01
  2.9711065e-01
 -1.0404255e-01
  1.5198001e+00
  2.7775830e-01
  3.7247848e-02
  2.7898338e-01
 -1.0704300e+00
 -5.0916940e-01
 -2.5498366e+00
 -1.7704879e+00
 -1.0005815e+00
 -2.9428031e+00
  3.0984824e+00
  9.5715725e-01
 -5.4867637e-01
 -1.7683129e+00
 -1.1051016e+00
  3.9292234e-01
  4.7223806e-01
  1.3616499e+00
  5.6802487e-01
 -2.8666121e-01
  6.5773255e-01
 -4.6571323e-01
  1.6436068e+00
  1.1232452e+00
 -2.5533772e+00
 -2.1711531e-01
 -1.2272360e+00
  6.5972447e-02
  1.4136022e+00
  1.9120576e+00
  7.5611210e-01
  1.5506208e+00
  1.9093546e-01
  4.0140283e-01
  4.0695041e-01
  7.1966761e-01
  6.7164159e-01
 -1.9371270e-01
  1.1124964e+00
 -7.0575297e-02
 -2.4502850e-01
 -2.1995294e+00
 -2.3366706e+00
  5.1903081e-01
 -1.2828212e+00
 -1.9800785e-01
  1.4339211e+00
 -7.7450621e-01
 -3.8076547e-01
  6.4650154e-01
  1.0734392e+00
  4.1750211e-01
  5.6596744e-01
  2.9776840e+00
 -1.5008131e+00
 -1.6236552e+00
  1.9788542e-03
 -1.6349603e+00
  1.5829444e+00
 -2.0657938e+00
  1.4869943e-01
  1.4898459e+00
 -6.0064036e-01
  8.8056606e-01
  2.8542066e-03
 -3.4087453e+00
 -2.6867604e+00
 -4.5280352e-01
  9.8804277e-01
 -1.4783229e+00
  1.4030947e-01
  3.8415769e-01
 -2.2242832e-01
  6.0073012e-01
  3.8373178e-01
 -3.5400569e-01
 -1.4569279e+00
  1.7941956e-01
  2.5238581e+00
  6.3854283e-01
  3.3609260e-02
  1.5957669e+00
  2.4518955e+00
 -2.5002198e+00
  9.5494395e-01
 -5.0281942e-02
  3.1443682e+00
 -4.8658695e+00
  1.0548873e+00
  7.3413122e-01
 -3.6143932e-01
  8.9702410e-01
  2.8349662e-01
  3.6316079e-01
 -3.6597803e-01
  1.0211781e-01
  1.0739135e+00
  1.3998630e+00
 -1.3902322e+00
 -1.3122045e+00
  1.0775952e+00
 -2.3316166e+00
 -9.5877618e-01
  9.3733311e-02
 -2.7967050e+00
  7.1441150e-01
  4.6926271e-02
  1.0231764e+00
  5.4638129e-01
  3.1128469e-01
 -2.6012996e-01
 -5.4400790e-01
  5.3737855e-01
 -3.2485077e+00
 -1.7276381e+00
 -2.1306841e+00
 -2.5547097e+00
  2.3191209e+00
  2.0064538e+00
 -3.1939894e-01
  1.2279640e+00
  3.0697769e-01
 -2.0230110e+00
  6.8733257e-01
 -1.2857951e-01
 -3.5009214e-01
  6.2108237e-01
 -3.0858574e+00
  1.6641055e+00
  1.7663099e+00
 -2.4803371e+00
 -1.8834714e+00
  3.5511550e-01
  7.0564157e-01
 -1.8149890e-01
 -6.9001234e-01
 -1.4522668e+00
  1.8500839e+00
  4.7054720e-01
 -4.5450512e-02
  5.5738556e-01
 -6.5337881e-02
  3.5761657e-01
 -2.5021788e-01
  2.4500692e-01
 -4.6602440e-01
  2.2208366e-01
 -8.6572850e-01
 -4.6148023e-01
 -1.8024120e+00
  4.5395923e-01
 -9.6025981e-02
 -7.9603040e-01
 -7.2454089e-01
  5.6664944e-01
  6.5340394e-01
 -3.4557867e-01
  2.5340068e-01
  5.2560323e-01
 -4.2956457e-01
 -4.4681746e-01
  9.5056057e-01
  1.5818570e+00
  1.4281856e-01
  2.8600028e-01
 -6.7718714e-02
 -1.0280516e+00
 -3.8779745e-01
 -6.1527312e-01
  1.4787799e+00
  1.2326236e+00
  2.3995342e+00
 -1.2962346e+00
 -4.7844697e-02
 -7.2844607e-01
 -1.0544389e+00
 -1.6090615e-01
  2.6159114e-01
  2.1107663e-01
 -3.7981978e-01
 -1.4425714e-01
  6.8669301e-01
  1.2356062e+00
 -1.5058343e+00
 -4.3257829e-02
 -5.4312199e-01
 -2.0728549e-01
 -9.6159911e-01
 -6.9630122e-01
  1.6005982e-01
  2.5354042e+00
  3.5107968e+00
  3.6032018e-01
 -2.6225488e+00
  3.0939303e-02
  1.4888000e+00
 -1.4189601e+00
  4.3683988e-01
  1.3442340e+00
 -2.0846215e-01
  7.2995812e-02
 -1.9623397e-01
 -1.0770624e+00
  4.6950614e-01
  1.0139920e+00
  1.3173345e+00
 -1.2007990e+00
  1.8977728e+00
  1.9652746e+00
 -2.2772959e-02
  6.2618840e-01
 -3.9752048e-01
 -6.2445885e-01
  1.4232059e-01
 -3.0087215e-01
  8.6540627e-01
  9.4485015e-01
 -2.3444350e+00
 -5.3645098e-01
  1.7591082e-01
 -1.3880394e+00
  8.9482641e-01
 -2.8248479e+00
  2.8681558e-01
  8.1077313e-01
  1.2238014e+00
 -4.3085355e-01
 -1.5109767e+00
 -2.2933886e+00
  7.4259830e-01
  3.3212438e+00
 -1.5877797e-01
 -8.7887090e-01
  2.0740724e-01
 -5.0441228e-02
 -3.9111576e-03
 -1.3081549e+00
 -7.1506733e-01
 -4.4166601e-01
  4.1326022e+00
  9.0591896e-01
 -7.4434036e-01
 -1.6329831e+00
 -1.1352999e+00
 -1.4202182e-02
 -1.3223828e+00
  3.4331959e-01
  1.3651387e-01
 -1.1143872e+00
  2.2878103e-01
  3.6497355e-01
  5.8645189e-01
 -4.7280899e-01
 -2.3800063e+00
  3.1797910e-01
  6.3318121e-01
  1.4216292e+00
  3.6337754e-01
  7.7401054e-01
  1.4355975e+00
 -1.1438010e+00
  1.2574903e+00
 -4.0377226e-01
  1.9549904e+00
  2.9946995e-01
 -1.5499022e+00
  3.3032763e-01
 -4.2492566e-01
  1.9511050e+00
  1.1204846e+00
 -6.9618893e-01
  6.5552205e-01
 -5.0328588e-01
  7.3462957e-01
 -1.7357455e+00
 -3.9378473e-01
  2.6007828e-01
 -2.0586286e+00
 -1.2779810e+00
 -5.3062534e-01
 -2.7792704e-01
 -1.0435289e+00
 -4.4421652e-01
 -7.1213681e-01
  7.7161920e-01
  1.5343788e-01
  1.2224357e+00
  6.1914724e-01
 -1.5316906e+00
  7.3526487e-02
 -1.9589660e+00
 -1.4272507e+00
  8.1311768e-01
  8.9340574e-01
 -2.2019964e-01
 -1.0610873e+00
 -2.4434514e+00
 -2.4269516e-02
  1.3441870e+00
 -1.1325570e+00
 -3.3172093e-02
 -3.9453930e-01
 -2.1796785e-02
 -3.7506139e+00
 -1.7188056e-01
  2.4917326e+00
 -2.3112864e+00
  1.7016920e+00
  7.8583735e-01
 -2.0265253e+00
 -6.7701232e-01
 -1.0127207e+00
 -5.0618649e-01
 -5.9517020e-01
 -1.2437669e+00
  1.8616579e+00
  2.8879926e-01
 -7.4137801e-01
  4.5640844e-01
  1.4130572e+00
  8.1514813e-02
  9.7748443e-02
 -4.7584716e-03
  1.8863529e-01
  6.0092586e-01
 -2.2875063e+00
 -1.0107929e+00
 -6.2783486e-01
 -7.2749174e-01
  7.1944460e-02
  7.5946015e-01
  2.9034426e+00
  3.0866697e+00
 -1.4729096e+00
 -7.9659051e-01
  5.7172644e-01
  6.5201066e-02
 -1.4068179e+00
 -2.5708677e-02
 -4.4719747e-01
  1.3248447e+00
 -4.0198866e-01
  5.0859255e-01
  4.7419388e-03
  7.6344049e-01
  1.2678955e+00
  1.6356658e+00
 -6.6720277e-01
  1.2263156e+00
  8.0731767e-01
 -4.3605137e-01
  1.4664820e+00
 -1.1462521e-01
  1.4064623e-01
 -1.0719111e+00
 -2.2827936e-02
  1.0399148e+00
 -1.8913853e+00
 -1.4838119e+00
 -3.9756534e+00
 -3.1575100e+00
  1.7922415e+00
 -1.8680463e+00
  7.7134043e-02
  9.0877429e-02
  2.0015352e+00
  1.7497553e+00
 -6.5257704e-01
  1.2195705e+00
 -1.7272494e+00
  3.2108253e-01
 -7.4774373e-01
  1.2535089e+00
 -1.5714684e+00
 -8.8870698e-01
  3.4781602e-01
  1.2484132e+00
 -3.0479872e+00
  3.2471654e-01
 -5.2117047e+00
 -7.8258622e-01
 -1.3505647e+00
 -1.7897259e+00
  9.8815179e-01
  1.6900648e-01
  4.3414074e-01
 -8.2371645e-03
  1.6993608e+00
  8.1131053e-01
  3.9329171e-01
  2.7397257e-01
 -4.9881358e+00
 -2.3187726e+00
 -2.2207744e+00
 -5.8390903e-01
  1.6156889e+00
 -1.3338115e+00
 -3.7937915e+00
  7.1996555e+00
 -1.2238427e+00
  1.2148941e-01
  1.9044281e+00
  1.0198206e+00
 -1.0871170e-01
  2.4541340e+00
  1.2848222e+00
  2.5876482e+00
 -1.1456925e+00
  2.5163090e+00
  1.2281740e+00
  1.3061360e+00
  1.6446955e+00
 -1.5637223e+00
  7.0211285e-01
  3.1944852e+00
 -1.5428208e-01
  6.1295038e-01
 -9.4534302e-01
 -1.1880125e+00
 -1.0590447e+00
 -2.3473911e+00
  7.6095533e-01
  7.4400878e-01
 -8.9328820e-01
 -3.4983110e-01
  1.4610680e+00
 -3.7300712e-01
  1.2538241e+00
 -2.0681951e+00
 -1.2397796e+00
  1.2607347e+00
  1.3078816e+00
  5.8379984e-01
  4.6633777e-01
 -1.6660824e+00
  1.9047405e+00
 -6.3186812e-01
  8.6512342e-02
 -5.4997098e-01
 -2.8515568e-01
  5.4480326e-01
  5.5124128e-01
 -4.0294394e-01
  5.3506869e-01
 -2.9947296e-01
  6.7952797e-02
  5.4488802e-01
 -3.7719622e-01
  1.3228852e-01
  1.6055343e+00
 -8.1558555e-01
  3.4450772e-01
  1.6826613e-01
 -5.4317349e-01
  3.4230760e-01
  1.9046813e-01
 -7.5993234e-01
 -3.9623854e-01
  4.6053600e-02
  1.0478003e-01
 -1.3248737e-01
  3.1087430e+00
  7.7825534e-01
 -1.0842929e+00
  1.6776617e+00
 -3.7621185e-01
 -2.1761684e-01
 -1.0525408e+00
  2.8083193e+00
 -8.5124445e-01
 -6.9245023e-01
 -4.4709128e-01
  2.6420262e+00
  1.8396890e-01
  5.3219068e-01
 -9.0594399e-01
 -4.6796310e-01
  7.5499153e-01
  1.8101166e+00
 -1.1312454e+00
 -3.7305590e-02
  7.7396029e-01
  8.2995772e-01
  4.6679001e-02
 -8.1988752e-01
 -1.2961435e+00
 -2.6432008e-01
 -1.6405466e+00
 -1.9013094e+00
 -4.6094969e-01
 -1.4145736e-01
  2.1169755e+00
  1.6192044e+00
 -9.1761932e-02
  1.0869462e+00
  7.7586222e-01
 -2.4950199e+00
  1.7899052e+00
 -2.5476086e+00
 -1.7631135e+00
 -7.3800588e-01
  1.2756500e+00
  2.0678578e-01
  7.3450208e-01
 -1.1691844e+00
  3.8078615e-01
  3.5007885e+00
 -3.5425675e+00
 -1.0606821e+00
  6.8289584e-01
 -4.7865221e-01
 -5.3009218e-01
  5.1980883e-01
 -1.4417435e+00
  7.3277891e-01
 -7.3513612e-02
  6.9937080e-01
 -2.0510891e-01
 -1.0957860e+00
  1.4226614e+00
  5.0583088e-01
 -3.3875833e+00
  2.1210392e+00
  9.2007124e-01
  8.4657049e-01
  2.7769154e-01
  1.2160408e-01
 -5.2222258e-01
  7.1546847e-01
  4.7595105e-01
 -1.6852356e-01
  3.6599460e+00
  7.2030091e-01
 -2.4907963e+00
 -3.9676991e-01
  1.1248531e+00
 -2.1019773e+00
  2.9312846e-01
 -2.0341599e+00
  8.6583740e-01
  1.9730999e+00
  2.8029888e+00
 -7.8104222e-01
 -3.2552868e-01
 -5.7038426e-01
  1.0442427e-01
 -1.6166201e+00
 -1.6363196e+00
 -7.5906599e-01
 -1.1261084e+00
  1.1117400e+00
  9.1564226e-01
 -1.5765616e+00
 -1.4450169e+00
 -6.8443990e-01
  7.9042834e-01
 -3.8456222e-01
  1.1239409e+00
 -8.6718434e-01
 -1.1762471e+00
  5.8864826e-01
  2.0679215e-01
 -5.5509812e-01
 -7.0023155e-01
  3.8758436e-01
  2.2513033e-01
 -1.4771084e+00
 -2.9972615e+00
  5.3121281e-01
 -1.9200459e+00
  7.6330996e-01
  1.8307097e+00
  2.6354413e+00
 -1.5408229e+00
 -3.2865237e-02
  5.6530550e-02
  2.3894746e+00
 -2.0679414e+00
 -3.0296917e+00
 -5.5644959e-01
 -8.4378356e-01
  4.2608356e+00
 -1.9741905e+00
 -2.3093343e-02
  1.4896483e+00
 -4.1908520e-01
  9.0248716e-01
 -1.4656264e+00
 -1.1743723e+00
  2.2354681e+00
  8.5483052e-02
 -4.0075326e+00
  3.6755462e+00
 -3.6460492e-01
  2.4530940e+00
  2.1899319e+00
 -8.2837343e-01
 -5.7186794e-01
  1.0714914e+00
 -2.7097693e-01
 -1.5438550e+00
  3.9970589e+00
  1.2258475e+00
 -4.6776681e+00
 -1.7502555e+00
  1.9001068e+00
 -1.3174063e+00
 -5.1962137e-01
  8.4651023e-01
 -2.1522772e-02
  3.1883519e-02
 -2.8493571e-01
 -4.4529283e-01
  7.0714951e-01
  8.4380740e-01
 -5.4285210e-01
  8.4324551e-01
  8.0962068e-01
 -6.5727067e-01
 -4.8110181e-01
  1.2892140e+00
 -8.2888979e-01
 -8.5215169e-01
  9.1503465e-01
  5.5714351e-01
  1.8473820e-01
  2.5515659e+00
 -7.6928073e-01
  5.4313874e-01
 -3.6089748e-01
  8.1041969e-02
 -2.4839009e-01
 -1.0356405e+00
  8.3684372e-03
  1.5943161e-01
  4.5883980e-02
 -1.3652309e+00
 -2.2936271e-01
  6.6304475e-01
 -6.7150527e-01
  1.5517043e-01
  8.9883828e-01
 -5.1063097e-01
  1.4858091e+00
  4.1509953e-01
 -1.2236280e+00
 -8.9036882e-02
 -2.2553489e+00
  7.1551663e-01
  2.3675746e-01
 -1.2786106e-02
  4.1816288e-01
 -8.9107037e-01
 -2.5602040e-01
  7.5277072e-01
 -6.2307745e-01
  1.5249974e+00
  1.3008077e+00
  1.2611241e+00
 -7.2767127e-01
 -5.9753299e-01
 -3.1975107e+00
 -2.5555128e-01
 -2.7064428e-01
  4.7643226e-02
 -2.2469515e-01
  6.3143712e-01
  3.5612488e-01
  6.9416749e-01
 -2.2439772e-01
 -1.8144207e+00
 -3.5674727e+00
  7.5229275e-01
 -9.3297136e-01
  4.5701912e-01
  1.8727438e+00
  5.4242128e-01
  2.3568764e+00
 -2.4248173e+00
 -2.0996721e-01
  6.8862557e-01
  3.2840848e-01
  1.1155658e+00
 -6.9899523e-01
  1.1680822e-01
  1.1592577e+00
  9.1099806e-02
  4.2020898e+00
 -1.5857193e+00
  2.2212536e+00
 -2.1509874e+00
  1.9511610e+00
  1.9982044e+00
  4.1693404e-01
  8.3476353e-01
  2.1163902e-01
  1.4735759e+00
  1.7079268e+00
  8.1547064e-01
  7.5743920e-01
 -8.9289850e-01
  7.3427695e-01
  1.0732155e+00
  8.3999790e-02
 -2.6191041e-01
  1.0149427e-01
  1.4940292e+00
  1.1858495e+00
 -3.3952770e+00
 -1.6957088e-01
 -2.0196905e+00
  3.7326710e+00
 -5.6478453e-01
 -4.1928962e-01
  6.0275042e-01
  5.6911594e-01
 -1.9362254e+00
 -2.5020354e+00
 -5.0775903e-01
  1.4379644e-01
  2.2694424e-01
 -9.3457448e-01
  3.8710406e-01
  4.2790318e-01
  8.1274822e-02
 -1.7871000e+00
 -1.9874622e+00
  2.1784918e+00
 -1.1360513e+00
  1.1122315e+00
 -9.9113601e-01
 -6.9241397e-02
  1.3297024e+00
  9.7274518e-01
  7.3990655e-01
  6.0243648e-01
 -1.0778148e+00
  1.4820907e-01
  6.9719958e-01
  9.1657114e-01
 -9.3331254e-01
  6.3935862e+00
  1.2855469e-01
 -1.4778306e+00
 -4.9711114e-01
 -1.7920673e+00
  4.5316749e+00
  9.4294292e-01
 -1.1409322e+00
 -1.1860736e-01
 -3.8744493e+00
  7.1295577e-01
  1.3447515e+00
 -3.1129708e+00
 -1.3025699e+00
 -2.0980158e+00
  1.4692925e+00
 -1.6418625e+00
 -1.1951133e+00
 -1.4921440e+00
 -1.5883601e+00
 -1.9111663e-02
 -1.7947073e+00
  2.5337394e-02
 -2.8120570e+00
 -1.7014445e+00
 -2.0265861e+00
 -1.2664883e+00
  1.3842468e+00
 -3.4182706e-01
 -2.1657182e-01
  7.3345387e-01
 -2.0069367e-01
 -1.4802550e-01
  5.5616587e-01
  1.2174113e+00
 -1.6756835e+00
 -2.6266501e+00
 -1.5862001e+00
 -2.6283047e+00
  2.0308588e+00
  2.1946397e+00
 -7.3842615e-01
  1.2014952e+00
  1.4475730e-01
 -4.8852816e-01
  1.1181782e+00
 -1.2523446e+00
  3.9842646e+00
 -1.7616901e-01
 -3.7493044e-01
  1.2592746e+00
  5.1063347e-01
  1.5240839e+00
 -7.4806160e-01
  6.2314087e-01
  4.1796580e-01
  7.9050034e-02
  3.6905661e-01
  1.5405796e+00
 -4.4188273e-01
  6.9659048e-01
  1.5257476e-01
  5.2201495e-02
  2.8319064e-01
  9.1347140e-01
 -1.4434625e+00
 -5.1572216e-01
  4.7661397e-01
  9.6541697e-01
 -1.0515101e+00
 -3.0591846e-01
  8.4234947e-01
  1.3439294e+00
  1.4427323e+00
 -1.5987818e+00
 -3.9048499e-01
  1.6810147e-01
  2.9143260e+00
 -1.1806402e+00
  1.8045247e-01
 -8.0881912e-01
  3.1462684e+00
  1.1864822e+00
  2.1563135e-01
  3.5078938e+00
 -1.3704785e+00
 -4.8069131e-01
 -1.6694243e+00
  4.4473362e-01
  6.3456374e-01
 -3.3204734e+00
  2.8814480e+00
  1.4215281e+00
  1.5053071e+00
 -1.3941040e+00
  1.5421540e+00
  7.9461396e-02
 -2.8947034e+00
 -1.4267913e-01
 -8.2729799e-01
 -5.2940148e-01
 -3.9734465e-01
 -7.3835599e-01
 -4.2439765e-01
 -1.7144923e-01
  1.7520840e+00
  1.3907361e+00
 -1.0994063e-02
 -2.0418520e+00
  2.2607577e+00
 -2.0711207e+00
 -3.4347920e+00
  6.1952221e-01
 -4.5571289e+00
 -2.0906229e+00
  3.3124332e+00
  4.0170112e+00
  1.1468724e+00
  9.6899271e-01
 -1.5132071e+00
  3.0507925e+00
  1.0879003e-01
  5.4069895e-01
 -4.9338736e-02
  2.2218149e+00
  2.1748910e+00
 -6.0987151e-01
  1.1484356e+00
 -1.3705008e+00
  9.6944755e-01
  7.0469046e-01
 -3.4555616e+00
 -4.5650524e-01
  5.8737379e-01
 -1.2238427e-01
 -1.4294488e+00
 -1.3048339e-01
 -1.5497853e-01
 -8.4911734e-01
  8.3455437e-01
  4.3654639e-01
  1.0471371e+00
 -4.5486593e-01
 -1.7417258e+00
  2.5358503e+00
 -1.1279129e+00
  9.1874480e-01
  2.9009074e-01
  1.2160550e+00
  9.7939894e-02
 -3.9935118e-01
  1.2137319e+00
 -1.3341730e+00
  1.0211327e+00
 -1.6716217e+00
 -1.4883826e+00
  1.2572421e+00
 -6.5575624e-01
  1.5657880e+00
 -3.0284911e-01
  2.6722613e-01
  4.7925043e-01
  3.4398645e-01
  6.9240433e-01
 -4.5701176e-01
  2.2284491e+00
  3.8538179e-01
  2.1797268e+00
 -1.0876540e+00
 -6.7255147e-02
 -1.3676149e+00
  4.0096471e-01
  7.6743174e-01
 -8.0342732e-02
  5.8929044e-01
 -4.6193333e+00
 -2.1043931e-01
  8.4214419e-01
 -9.2613304e-01
  7.4147445e-01
 -1.8922439e+00
 -1.0240660e+00
  9.4859898e-01
  1.9497408e+00
  9.5782167e-01
 -8.6012077e-01
  2.7419517e+00
  8.6465776e-01
  3.5565701e-01
 -3.8934273e-01
  2.1601848e-01
  1.0625284e+00
  1.6564744e+00
  7.3837501e-01
  2.4771324e-01
 -2.4578061e+00
  3.0943460e+00
  1.8411624e+00
  2.9277784e-01
 -4.8421627e-01
  5.8974303e-02
 -2.0869379e+00
  2.0567195e+00
 -3.8109586e-01
  1.3883014e+00
 -2.3554550e-01
  8.8178557e-01
 -1.9093266e+00
  2.5064209e+00
 -1.7819799e+00
 -6.3456578e+00
  7.6614487e-01
 -3.9559057e-01
  1.2674977e-01
 -3.1273978e+00
  2.3769808e+00
 -5.2235550e-01
 -5.0666327e+00
  1.9480361e+00
 -7.5812387e-01
 -2.9292440e-01
  1.9042897e+00
 -2.9618967e-02
 -5.4808092e-01
  4.0086138e-01
  4.4306919e-01
  5.3859866e-01
  2.3591056e-01
  5.7971495e-01
  5.0297105e-01
 -1.5794696e-02
  5.0895697e-01
 -9.0998244e-01
  1.5006773e+00
  2.5468814e+00
 -3.1966074e+00
 -7.8858238e-01
  7.1215236e-01
 -6.2550247e-01
  2.2325517e-01
  1.2237301e+00
  1.9521913e-01
  1.6153997e+00
  3.1750154e-01
  2.8724909e-01
  6.5225334e+00
  5.2767438e-01
  3.9783797e-01
  1.0438708e+00
  1.0072206e+00
  2.3020608e+00
  3.1038632e+00
 -3.7644706e+00
 -9.8799914e-01
 -5.2025872e-01
  2.0919871e+00
  1.8286152e+00
  5.4080367e-01
 -3.5973573e-01
 -9.9690217e-01
  1.7652586e+00
  5.4742527e-01
 -1.5222350e+00
 -7.1041852e-01
  2.4000750e+00
  1.5973732e+00
 -2.6969285e+00
  6.0781312e-01
  4.8108464e-01
  7.7030337e-01
 -5.3436422e+00
  1.1955857e-01
  1.3671530e+00
 -6.8383223e-01
 -1.3853753e+00
  1.2119008e+00
  1.4010959e+00
 -1.0801486e+00
 -6.4200228e-01
  7.9696052e-02
 -1.7394792e+00
 -3.2399402e+00
  1.8089961e+00
  1.5506038e-01
 -6.3714367e-01
 -5.4845840e-01
 -3.0172873e-01
 -5.3802094e+00
  2.3298417e-01
  1.3845335e-01
 -1.1353989e+00
  4.3539791e+00
 -4.2079535e-01
  5.8883697e-01
 -8.6010411e-02
  4.1166396e+00
 -2.6704268e+00
  8.2728851e-01
  9.3665622e-02
 -2.9494321e+00
 -1.2881709e+00
  2.2002002e-03
  1.2250580e+00
  6.4081168e-01
  9.0885603e-01
  6.8630737e-01
  1.3967900e+00
  9.5057857e-01
  1.0478613e+00
 -2.1082464e-01
  9.2906547e-01
 -1.7703574e+00
 -1.2196813e-01
  6.0433745e-01
 -4.6653312e-01
 -2.1004806e+00
 -6.6568965e-01
  1.8538018e+00
  8.1707068e-02
 -1.7879684e+00
  1.1505426e+00
  8.6714208e-01
 -8.6189762e-02
  2.9397469e+00
  2.1944983e+00
 -2.4242635e+00
 -5.8367085e-01
  6.7603892e-01
  1.6006217e+00
 -1.0233852e+00
 -3.8316926e-01
  3.8844496e-01
 -2.4686768e+00
  1.1311954e+00
 -3.9422593e-01
 -1.1358479e+00
 -1.6327602e+00
 -2.3150739e-01
 -1.4731765e+00
  6.7376375e-01
  4.4175151e-01
 -3.5967800e-01
 -4.2254519e-01
 -7.1422048e-03
 -1.0621000e-01
  4.6275756e-01
  9.2196864e-01
 -4.2011654e-01
  2.8610772e-01
 -2.6727730e-01
 -1.2970708e-01
 -3.5675647e+00
  9.6935064e-01
  5.2465278e-01
  2.0524273e+00
 -3.2394564e-01
  9.7302973e-01
 -1.2830600e+00
 -1.5319707e+00
  2.1604259e+00
  4.9313018e-01
 -1.4948293e+00
 -2.9353025e+00
  5.5327213e-01
 -7.5437707e-01
 -1.1612347e+00
  3.1252080e-01
 -5.2950597e-01
  6.6546237e-01
  6.3719332e-01
 -1.6734563e-01
  2.5288892e+00
 -3.1127345e-02
  5.7688034e-01
  9.8137259e-03
  9.5385444e-01
 -1.5003345e+00
  4.5234889e-01
  5.3071988e-01
 -5.8691412e-01
  3.8688496e-01
  5.8157182e-01
 -5.1368684e-01
  4.3591302e-02
  6.0252380e-03
 -3.5010344e-01
 -3.9657283e-01
  1.0762637e+00
  1.8698001e+00
 -4.3261814e+00
 -1.6962357e-01
  3.0157893e+00
  2.5400927e+00
  5.9416807e-01
  5.7542831e-01
 -3.7593775e+00
  3.2660425e+00
  1.0030166e+00
 -2.2647496e-01
  1.2327747e+00
  6.3702857e-01
 -3.3940833e+00
  3.1569389e-01
 -8.6226165e-01
 -6.1429316e-01
 -1.3024005e+00
 -8.4945166e-01
 -3.4062095e+00
 -7.9010761e-01
  7.1647185e-01
 -1.4524442e+00
  9.8795605e-01
  1.2561693e+00
 -4.8226801e-01
 -6.4143854e-01
  8.6553395e-02
 -5.2884128e-02
 -6.3081855e-01
  3.0145046e-01
 -1.2828754e+00
 -5.5529571e+00
 -2.7994487e+00
 -2.2213700e+00
 -3.4046507e+00
  7.0587176e-01
 -4.0213299e+00
 -3.8192341e+00
 -1.0385594e+00
 -1.9007215e-01
  3.9059669e-02
 -1.0671777e+00
  2.4053366e+00
  3.2666922e+00
 -6.7167401e-01
  3.1420243e-01
 -8.6279035e-01
  3.4925284e+00
 -3.0863726e-01
  1.9466717e+00
  2.3836704e-01
 -3.2848805e-02
  1.6489258e+00
 -6.5067583e-01
  2.4399123e-01
  1.6178608e+00
  1.3253806e+00
 -1.2468148e+00
 -3.2199287e-01
  2.3905855e-01
 -1.9574046e+00
 -2.3442569e+00
  2.0592742e-02
  3.9138836e-01
  3.1011379e-01
 -4.3780088e-02
 -1.0166082e+00
  2.6313936e-02
  1.0402651e+00
  1.6226540e+00
  2.7211702e+00
  6.8328291e-01
  1.3848314e+00
 -1.2472354e+00
 -6.5646768e-02
 -3.3360133e-01
 -5.8513606e-01
  4.2744246e+00
 -8.1165737e-01
 -4.0919266e+00
  2.6868117e-01
  1.0843507e+00
  1.9424459e+00
  2.5910467e-01
  6.0289544e-01
  1.1157120e+00
  5.2381116e-01
  5.8337855e-01
 -1.5400656e-01
 -8.3775663e-01
  2.1558244e+00
 -8.0477071e-01
 -9.7847283e-01
 -6.6870487e-01
  2.0749679e+00
  1.1957850e+00
  5.2984959e-01
 -9.3555409e-01
  9.8821872e-01
 -7.6379430e-01
  9.0827905e-02
 -3.5190809e-01
 -9.5487463e-01
  1.8819940e+00
  5.3354150e-01
 -5.6012487e-01
 -7.2557211e-01
  4.1996995e-01
 -2.2501211e+00
 -1.0620014e-01
  3.4002870e-01
 -5.4160225e-01
  2.2410235e+00
 -3.6582848e-01
 -1.3148987e-01
  6.8581730e-02
 -3.0224719e+00
  1.8547516e+00
 -3.0529821e-01
  1.5825814e+00
  8.0077678e-02
  2.5041876e+00
 -3.4544864e+00
  2.3564174e+00
 -4.9069473e-01
 -8.5465050e-01
 -2.5223738e-01
 -2.7436106e+00
  8.9187836e-03
 -1.0891410e+00
  5.6829655e-01
 -3.5085002e-01
  3.0589277e-01
 -2.4326589e+00
  4.6772757e-01
 -5.9147799e-01
 -2.8715125e-01
 -6.2355024e-01
 -1.8987154e+00
  2.1080530e+00
  2.0831952e+00
  3.0242124e-01
 -2.9728339e+00
  1.4830863e-01
  6.7467041e-02
 -5.1810521e-01
  9.1049266e-01
  8.5005856e-01
 -1.6992395e+00
  1.2105893e+00
  6.7170781e-01
  1.3897868e+00
 -2.1026390e+00
 -2.9773090e+00
  8.8784140e-01
  9.2894608e-01
  2.7890303e+00
 -3.0752697e+00
 -4.6180421e-01
 -3.8248613e-02
 -1.5661652e+00
  1.6978614e-01
 -1.3332453e+00
  3.7456518e-01
  6.8232733e-01
  8.8078195e-01
 -4.6293658e-01
 -1.6817957e+00
 -1.6610834e-01
  5.8388019e-01
 -2.3182799e-01
  6.4853587e+00
  2.9307475e+00
 -4.9153498e-01
  2.8658739e-01
  6.3566256e-01
  1.0623753e+00
  1.1567562e+00
 -3.7957342e+00
 -5.9865385e-01
 -1.4388618e+00
  4.4061413e+00
  1.7854806e+00
 -5.6010451e+00
 -4.3750948e-01
 -2.3094809e+00
  2.8789861e+00
 -1.2592601e+00
 -2.0703957e+00
  1.8743801e+00
 -1.4926645e+00
 -9.0595996e-01
 -2.0181861e+00
  5.0453348e+00
 -8.1097853e-01
 -2.6603428e-01
  1.5175706e+00
  1.1966748e+00
  3.2493904e-01
 -1.0355429e-01
 -1.2561755e+00
 -6.3852161e-02
 -1.0731680e+00
  3.5648382e-01
  5.9105772e-01
 -5.6252003e-01
 -2.4315052e+00
 -1.9044635e+00
 -3.3502707e+00
 -1.4339243e+00
 -1.3714591e+00
 -3.0966774e-01
  2.8650899e+00
  2.4180393e+00
 -5.0384733e-03
  1.8943102e+00
  3.6860436e-01
  5.1038561e+00
  1.7086834e-01
 -3.7796170e-01
  9.5420486e-01
 -2.5010242e+00
 -1.8757097e-02
 -4.4414553e-01
  6.3332856e-01
  3.6095426e+00
 -3.1504652e-01
 -9.3281910e-02
 -5.3763938e-01
  1.5836848e+00
 -1.9334606e+00
  4.5394263e+00
 -6.9596350e-01
  1.3982240e+00
 -2.0822844e-01
 -1.7007313e+00
 -7.9968905e-01
 -8.1592464e-01
 -1.2859768e+00
 -1.3311102e+00
 -9.4360965e-01
 -1.4930879e+00
  4.8995968e-02
  4.7774214e-01
  7.3295212e-01
 -2.5582855e+00
 -6.8618968e-02
  6.5187621e-01
  1.9516418e+00
 -1.4920834e-01
  7.0987016e-01
 -2.8670266e+00
  1.4195946e+00
 -1.2564873e+00
 -9.4722711e-02
 -1.8956946e-01
 -1.0104551e+00
 -8.7948775e-01
  5.8943599e-01
  1.3501424e+00
  3.3539149e-01
  7.0727849e-01
  7.4449128e-01
  6.7802560e-01
 -1.3732826e+00
 -1.7773070e+00
  9.4544661e-01
 -3.9948139e-01
  1.9535738e-01
 -6.0436994e-01
 -7.3311192e-01
 -3.4790003e-01
  3.9824778e-01
 -1.7558998e+00
  9.5693558e-02
  1.4054476e-01
  2.3305843e+00
  5.0187451e-01
 -1.3124328e+00
 -2.0109391e+00
 -1.3759408e+00
 -5.5589986e-01
 -1.8997283e+00
 -3.0096123e+00
  1.9471931e+00
 -1.1492636e+00
  2.1831820e+00
  5.4954767e-01
 -1.6590966e+00
 -1.9683290e+00
  7.9687726e-01
 -9.9142307e-01
  1.5142138e+00
  2.0370813e-01
  1.2515149e+00
  2.2065670e+00
  4.1264544e+00
  5.8855230e-01
 -4.1517150e-01
 -4.7690293e-01
 -8.9906508e-01
  2.6147968e-01
 -1.3585548e+00
  2.2876987e+00
 -1.3790672e+00
 -8.6525887e-01
 -4.7571734e-01
  2.2750317e-01
  5.2065235e-01
  1.0072957e+00
 -9.7360396e-01
  1.6593206e-01
 -7.1640545e-01
  1.1447427e+00
 -4.8262715e-01
  9.0365189e-01
  1.7044781e+00
 -6.5156452e-02
  5.4847795e-01
 -1.9383246e-01
  8.8683769e-02
  5.0227970e-01
 -2.0112309e+00
 -1.4876479e+00
 -2.9815829e+00
 -2.1503358e-01
  8.4370613e-01
 -3.8836498e+00
  2.2449931e-02
 -1.3902104e+00
 -7.8948534e-01
 -3.8538533e-01
 -8.0300182e-01
  9.1824973e-01
 -1.0371286e+00
 -1.5502318e+00
 -1.3342682e+00
 -1.6773827e+00
  2.5170925e-01
 -1.8419837e+00
  4.8358042e-02
 -8.6659205e-01
 -7.1538520e-01
 -1.9408476e+00
 -5.0043635e+00
  1.9788791e+00
  3.9012301e+00
  1.1893508e+00
 -3.3931956e-01
 -1.6273811e+00
 -8.1406307e-01
  7.5342762e-01
 -2.0838580e+00
 -2.1177201e+00
 -1.0640252e+00
 -1.2183169e+00
  2.3660356e-01
 -1.3925536e+00
 -8.0131173e-01
 -8.0230004e-01
 -2.2124746e-01
 -3.0996995e+00
  2.6467695e+00
 -9.1980600e-01
 -1.8606064e-01
  2.2064741e+00
 -2.5670311e+00
 -1.5987722e+00
 -1.5810183e+00
  4.7495030e-02
  2.2954783e+00
 -3.0064642e+00
  2.1443050e+00
 -2.6902847e+00
  3.1949311e-01
  1.1699864e+00
 -3.3017063e-01
 -8.7027347e-01
  1.3195078e+00
 -1.7051519e-01
  6.2361115e-01
  4.6774125e-01
  3.4508497e-01
 -9.9563813e-01
 -9.9559826e-01
  6.8955624e-01
 -5.5648619e-01
  1.0436182e+00
  1.8203113e+00
 -2.9172274e-01
  4.5187113e-01
 -2.1771111e+00
  3.5193975e+00
  2.0739116e-01
 -6.6197437e-01
  1.9506523e-01
  4.6770549e-01
  2.8818376e-02
  1.0740559e+00
  6.7150301e-01
  5.1694894e-01
 -1.0299608e+00
  1.4193314e+00
  1.5004934e+00
  2.4038386e+00
 -6.1512411e-01
 -1.0540563e+00
  8.6067343e-01
 -6.0903114e-01
  1.7889558e+00
 -2.8347722e-01
  6.8592739e-01
 -9.7516388e-02
 -8.6243141e-01
 -4.0545017e-01
  1.1966009e-01
  8.6802071e-01
 -2.7812939e+00
  2.5689571e+00
 -2.2156537e+00
  1.4255314e+00
  3.0352238e-01
  5.4944303e-02
  1.1681623e+00
 -6.2403595e-01
 -4.8776653e-01
  2.2363532e+00
  1.4634353e-01
 -3.3647490e+00
 -1.2041333e+00
 -4.4352430e-01
 -7.7148896e-01
 -2.3503661e+00
 -3.5338753e-01
 -1.0817529e+00
  1.2028408e+00
  6.3946530e-02
 -1.3023549e+00
 -2.1403027e+00
 -1.1962988e+00
  7.4624342e-01
  7.1783221e-01
  1.3178310e+00
  1.1289823e+00
  6.9951034e-01
  6.5427154e-01
  1.0855980e-01
 -1.3515401e-01
  7.2789681e-01
  7.4092340e-01
 -7.9681747e-02
  4.0838313e+00
  2.7194963e+00
 -2.3704724e+00
 -2.4474496e-01
 -2.5087336e-01
 -5.5184138e-01
 -1.5682838e+00
  2.0543721e+00
  3.9442199e-01
 -3.8985223e-01
  1.5711062e+00
 -1.6220261e+00
  1.2083344e+00
 -1.2622256e+00
  2.9214200e-01
 -1.8693750e+00
  6.0366470e-01
  2.6083577e+00
 -1.2227776e+00
 -3.3795080e-01
 -8.3743107e-01
 -7.2594577e-01
  6.8151939e-01
 -2.5623003e-01
  1.7716725e+00
  1.2120109e+00
 -4.0185246e-01
 -5.2372152e-01
  2.4620019e-01
 -1.5078281e-01
  4.6172891e-02
  5.5782344e-02
  7.6287258e-01
  2.0054650e+00
  7.4685383e-01
  8.9113982e-03
 -3.9821784e+00
 -2.7790678e+00
 -1.3967419e+00
  2.0155780e+00
  6.0325656e+00
 -3.7542267e+00
  2.5550587e+00
 -2.7451923e+00
 -3.1897974e+00
  1.2771353e+00
  3.8560557e-01
  1.9244139e+00
 -1.1772062e+00
 -1.8176072e+00
 -2.0433395e+00
  1.2136999e+00
  4.1399896e-01
 -6.7796543e-02
  1.4932868e+00
  1.9370364e+00
  6.8678088e-02
  2.9745033e+00
 -1.3838859e+00
  1.1612203e+00
 -1.0046849e+00
 -2.7164638e+00
 -9.6884084e-01
 -4.4959167e-01
 -1.5264487e+00
  4.8691586e-01
  1.1799451e+00
 -2.0191884e-02
 -1.0873542e+00
  3.6407065e-01
 -5.0272899e+00
 -7.8743786e-01
 -2.5726686e+00
 -1.3179272e-01
 -1.6652697e+00
 -1.5871336e+00
 -7.2491866e-01
 -2.0371473e+00
  7.3676264e-01
  1.1572674e-01
 -3.5829523e+00
  7.4187809e-01
  3.5097749e+00
 -4.4063622e-01
 -7.9916298e-01
 -1.2361388e+00
 -1.6150367e+00
 -9.4669181e-01
 -2.2736511e-01
  3.6501408e+00
 -1.7932050e+00
 -5.1453871e-01
  5.9577399e-01
 -2.4244460e-01
  2.2136469e+00
  1.6883100e+00
 -2.1310670e+00
 -2.5978369e-01
  1.0667781e+00
 -1.8302618e+00
  3.8946503e-01
  8.3660388e-01
  4.1889673e-01
 -5.8241598e-02
  6.5022582e-01
 -1.6301663e-01
  1.2825485e+00
 -7.6829380e-01
 -8.4887117e-01
 -3.6916757e+00
 -1.9378884e+00
 -1.0972668e+00
 -1.0564533e+00
  6.1506468e-01
 -6.8622971e-01
 -5.5513084e-01
  1.3559469e+00
  8.9544880e-01
 -1.6053203e+00
  5.2746981e-01
  8.4067059e-01
  2.8758314e-01
  1.1867127e+00
  9.1499323e-01
  2.8507760e+00
 -2.6036048e+00
  1.8578527e+00
 -1.6723969e+00
  6.4487898e-01
 -1.1045573e+00
  1.4673212e+00
 -3.9692122e-01
  4.2120865e-01
  5.0862920e-01
 -2.9758265e+00
 -2.9036713e-01
 -3.6331686e-01
 -6.3852310e-01
 -4.5526284e-01
 -1.5741060e+00
 -5.2547798e+00
 -3.5629785e+00
  3.8478143e+00
  3.7411523e+00
  4.3901014e+00
  3.1643572e-01
 -1.2792497e+00
 -1.3795999e+00
  2.7038636e+00
 -1.6584017e+00
  1.3897723e+00
  1.0196398e+00
 -2.2385457e+00
  2.8903706e+00
 -3.0819100e-01
  5.3212035e-01
  2.2886627e+00
  2.1815898e+00
  7.4584017e+00
  3.7633126e+00
 -1.3120510e-01
  3.9318440e+00
  9.1224468e-01
  6.7613668e+00
 -6.9353068e-01
  8.4170580e-01
  3.1402771e+00
 -1.2978853e-02
 -9.2287970e-01
 -2.8590927e-01
 -6.1815125e-01
  2.8211877e+00
 -2.2762191e-01
  1.1146134e-01
 -3.2693592e-01
 -1.2859962e+00
  9.6244448e-01
  2.6456637e+00
  6.6644359e-01
  1.6569067e+00
  5.2514517e-01
 -1.8625798e+00
 -1.1654808e-01
  5.3281760e-01
 -1.0124516e-01
 -1.0760500e+00
 -1.6991237e+00
 -1.8840955e+00
  1.8041614e-01
 -6.5603197e-01
  4.6243694e-01
  1.0850139e+00
 -2.3581319e+00
 -1.2112023e+00
  1.1584636e+00
  2.2514071e+00
  6.3505268e-01
 -4.4150007e-01
 -7.5878644e-01
  3.1106755e-01
 -2.3949708e-01
 -3.9702196e+00
 -1.0273468e+00
 -4.4380200e-01
 -1.1749600e+00
  4.2615351e-01
 -3.8270795e-01
 -1.4068987e+00
  1.4530228e-01
  6.6560209e-01
 -5.2682245e-01
  7.7032626e-01
  2.1262760e+00
  1.4574287e+00
 -1.5260928e+00
  1.1191349e+00
  8.5561770e-01
  1.6058928e+00
  7.4138361e-01
 -3.8069034e+00
  2.0670156e+00
 -1.5606555e+00
  1.4698763e+00
  1.0159290e+00
 -3.0867791e+00
 -5.0870597e-01
 -1.5442626e+00
 -1.6198578e+00
  1.6868989e-01
 -2.2064960e+00
  3.6561191e+00
 -3.4579525e+00
 -1.1073314e+00
 -8.9494300e-01
  1.9525491e+00
  8.3697140e-01
  2.1189857e+00
 -1.7997237e+00
 -1.7694978e+00
  1.7920665e+00
  2.5104487e-01
  1.6094668e+00
  1.5882969e+00
  7.1481991e-01
  1.8740124e+00
 -8.1558216e-01
 -7.9258758e-01
 -1.3148844e+00
 -9.0031010e-01
  1.7138203e+00
  1.2492853e+00
 -4.1322997e-01
  1.1292125e+00
  7.7620274e-01
 -5.0657619e-02
  1.0673858e+00
 -3.8141915e-01
  1.0700858e+00
 -1.1797981e-01
 -1.4260568e-02
 -1.5704851e+00
  1.9899077e+00
 -1.2247576e+00
  2.3182279e-01
 -1.4097401e+00
  2.5318894e-01
  2.6120303e+00
  4.1718146e-01
  2.1637249e-01
  7.7947098e-01
  1.4090682e+00
 -1.1512057e-03
  7.3622280e-01
  2.5360384e+00
 -2.6318425e-01
 -3.6061516e-01
  8.8847744e-01
  7.4092662e-01
 -1.0457526e+00
  1.4814211e+00
 -5.0656205e-01
 -1.8707017e+00
 -1.6984586e+00
 -1.5922679e-01
 -3.5381153e+00
 -1.0227275e+00
 -2.1936691e+00
 -2.5527033e-01
  1.8150017e-01
  7.6824921e-01
  2.8484011e-01
  1.2746344e+00
  2.7977979e-01
 -8.2859606e-01
  3.0964389e-01
  4.1096452e-01
  8.3488071e-01
  8.7871838e-01
  1.7279139e-01
  7.3490381e-01
 -8.9552230e-01
  1.1361412e-01
 -1.3920171e+00
  4.5089656e-01
  2.8656325e-01
  4.7254530e-01
  3.5371754e-01
  3.7828439e-01
 -1.4663804e-01
  2.7508059e+00
 -4.7199494e-01
  5.3261745e-01
 -3.5718268e-01
  5.8161461e-01
 -3.6670461e-01
 -7.1389019e-01
  1.3476382e+00
  5.4834378e-01
  1.5707043e+00
  2.8998119e-01
 -2.0413078e-01
 -7.5432998e-01
 -2.4503403e+00
  1.5390973e-01
 -6.9079143e-01
  1.2019214e-01
  3.0277362e-01
 -4.3580076e-01
 -1.4373168e-01
 -3.2856145e+00
 -6.3872284e-01
  3.1306377e-01
 -1.6689013e+00
 -4.4034389e-01
  5.6650877e-01
  5.9872055e-01
  2.6036370e-01
  5.8787686e-01
 -1.5831660e+00
 -7.2053248e-01
 -6.5228140e-01
  5.4077327e-01
  5.5678195e-01
  6.4367414e-01
 -6.0883665e-01
 -1.7853323e+00
 -1.8798252e+00
 -6.1910218e-01
 -4.6265420e-01
  6.7603910e-01
  3.1816763e-01
 -4.5472378e-01
 -7.4509352e-01
 -7.6380563e-01
 -2.8831023e-01
  3.3182353e-01
  8.4184563e-01
 -3.9572594e-01
 -7.0948106e-01
 -3.4315318e-01
  4.5653430e-01
 -4.1452703e-01
  2.8931658e+00
  2.4704012e-01
 -1.2149802e+00
  9.8073643e-01
 -9.4144368e-01
 -2.3279032e-01
 -2.9838057e+00
 -1.9893397e-01
  1.9900352e+01
 -2.1220167e+00
 -3.5058734e+00
  3.0018988e+00
  1.4276818e+00
 -6.6946158e+00
 -2.5465055e+00
  3.0429623e+00
  5.4183216e+00
 -7.7619028e-01
 -3.4969118e+00
 -7.3016191e+00
 -1.7222154e+00
  2.2435218e-01
 -3.9881647e+00
  5.6196856e-01
  4.2658553e+00
  7.4812281e-01
  3.0529532e+00
  7.1321678e-01
  1.8191031e-01
  8.2629174e-01
 -7.4728590e-01
  2.8126163e+00
 -7.1271653e+00
 -3.1795254e-01
  4.5599957e+00
  5.0689363e+00
 -1.7577537e+00
 -1.3091168e+00
 -1.7473332e+00
  1.1585722e+00
 -7.1945560e-01
 -1.5810995e+00
 -1.0224848e+00
  3.5712593e+00
  3.8867342e+00
 -9.0598041e-01
 -2.1763539e+00
  1.1146898e+00
  6.4989619e+00
  5.4564571e+00
 -3.5949869e+00
 -6.0180402e+00
 -2.1255903e+00
  2.0921965e+00
  1.4204311e-01
  3.1496754e+00
 -4.4526401e+00
 -2.9995444e-01
  3.6035011e+00
  5.2702713e-01
  7.4935865e-01
  1.7975729e+00
  1.3592644e+00
 -1.8973451e+00
 -4.0920115e+00
  6.5448780e+00
  4.2657018e+00
 -2.9347482e+00
 -3.3474650e+00
 -1.6215163e+00
 -7.0250326e-01
 -8.5809392e-01
  1.2769005e+00
  8.3281412e+00
 -1.0009906e+00
 -4.9237709e+00
  1.6992534e+00
  4.6613688e+00
  4.7011173e-01
 -3.4016671e+00
 -1.5866208e+00
 -1.3080939e-02
  2.4487374e+00
  4.1649094e-01
 -3.2598469e-01
 -2.1584206e+00
  1.6456582e-01
  3.2323938e-02
  8.5349256e-01
 -1.2260854e+00
 -3.2826703e+00
 -4.5743780e+00
  1.9408752e+00
  1.5254618e+00
 -2.0270345e+00
  1.6816525e+00
  4.4447951e+00
  1.4934634e+00
 -2.3296809e+00
  4.1251560e-03
  4.1251560e-03
  4.1251560e-03
  4.1251560e-03
  4.1251560e-03
  5.2743582e-03
  5.2743582e-03
  5.2743582e-03
  5.2743582e-03
  5.2743582e-03
  4.1027446e-03
  4.1027446e-03
  4.1027446e-03
  4.1027446e-03
  4.1027446e-03
  2.3731452e-03
  2.3731452e-03
  2.3731452e-03
  2.3731452e-03
  2.3731452e-03
  1.4660439e-03
  1.4660439e-03
  1.4660439e-03
  1.4660439e-03
  1.4660439e-03
  7.1759237e-04
  7.1759237e-04
  7.1759237e-04
  7.1759237e-04
  7.1759237e-04
  5.9611837e-05
  5.9611837e-05
  5.9611837e-05
  5.9611837e-05
  5.9611837e-05
