nep4_zbl 1 C 
zbl 1 2
cutoff 6 5 163 106
n_max 4 4
basis_size 8 8
l_max 4 2 1
ANN 80 0
  2.0442808e+00
  3.3902891e+00
 -1.4695810e+00
 -1.8272008e+00
  3.0971584e-01
  3.4870422e-01
 -7.5360101e-01
  9.5474803e-01
 -5.5604565e-01
 -6.4807571e-02
 -8.0577046e-02
 -1.7419730e+00
 -1.1519982e+00
  1.4919364e-01
  1.7945486e+00
 -6.8638831e-01
 -1.3104607e+00
 -1.2164239e+00
  9.5017588e-01
  1.8348587e+00
 -6.7736840e-01
 -2.9977763e-01
  9.5286542e-01
  1.8966479e+00
 -5.6462264e-01
  2.8600216e-01
 -1.1721710e+00
  1.1927769e-01
  6.3336670e-01
  6.5588951e-01
 -5.6400639e-01
  3.3848622e-01
  1.7007515e-01
 -5.4533911e-01
 -1.2611101e+00
  1.5107887e+00
  1.3098545e+00
  2.8828392e+00
 -1.1397237e+00
  1.0439750e+00
  2.1263175e+00
  1.7550910e+00
 -3.0261292e+00
  8.0315596e-01
 -1.2162379e+00
  2.1723709e+00
  9.4489670e-01
 -1.0846134e+00
  1.8418169e-01
 -8.7106246e-01
  2.0668154e+00
 -2.7904048e+00
 -1.7508867e+00
 -1.9050419e+00
 -4.1221967e-01
  3.7846774e-01
 -2.4546666e+00
  1.6991352e+00
  3.9366722e-01
 -7.0732802e-01
  9.1100782e-01
  3.9471678e-02
  3.2524133e+00
  2.5379574e+00
 -1.5074842e+00
  3.5268277e-01
 -6.8110347e-01
  1.5210003e+00
 -5.3311193e-01
 -8.7259752e-01
  5.8620777e-02
 -1.2751349e+00
  3.1428349e-01
 -1.4954062e+00
  1.5029125e+00
 -1.4408058e+00
  2.4281824e+00
  3.4694883e-01
 -6.5202284e-01
  3.1762294e-02
 -5.3646594e-01
  5.7111931e-01
  1.1944343e+00
  1.4327000e+00
  9.9925339e-01
  1.4079053e+00
 -2.1155943e-01
 -1.2173388e+00
  5.9923537e-02
  2.6433101e+00
  5.3730083e-01
  2.0148823e+00
  1.2013489e+00
  1.3399270e+00
  3.9639539e-01
 -8.2373977e-02
 -3.5299647e+00
  2.7748662e-01
  1.8539836e+00
 -9.2382077e-04
 -2.2621560e-01
 -7.5784308e-01
 -4.4615942e-01
  4.8645055e-01
 -2.2581467e-02
 -2.1292610e+00
 -1.0601747e+00
 -1.6743988e+00
  1.2065790e+00
 -2.0744244e-03
 -2.2217577e+00
  2.4310611e-01
  3.0258708e+00
  3.7581062e-01
  6.4519960e-01
 -2.9778796e-01
  2.5924518e+00
  7.0885015e-01
  3.5063815e-01
 -2.4027133e-01
 -2.7544749e-01
  2.2759900e+00
  2.3981962e+00
  4.3298397e-02
 -3.3578184e-01
 -3.7679878e-01
  1.2298715e+00
  1.1175931e+00
 -1.0453411e+00
  3.2926273e-01
  1.2576752e+00
 -6.5509933e-01
 -2.3568747e+00
 -1.4466085e+00
  4.3126494e-01
  9.6443200e-01
  4.5575440e-01
  7.5654648e-02
  1.2124453e+00
  2.8677613e-01
 -3.2215956e-01
 -1.7510141e+00
  2.8768666e-02
  1.2574889e-01
  5.0459528e-01
  2.4290039e-01
  1.3735920e+00
  4.6174851e-01
 -8.5427022e-01
  1.4984035e-01
 -2.1517445e-01
 -1.4771293e+00
 -7.6639134e-01
 -1.1187912e-01
  1.1949478e+00
 -1.7352580e-01
  7.1833736e-01
  1.7679243e-01
 -2.3851310e-01
 -1.0234367e-01
 -2.0518257e-01
  4.1305587e-01
  8.4536843e-02
 -3.0251008e-01
  5.9026039e-01
  1.0639123e+00
  4.3774962e-01
  3.3954585e-01
  5.4180449e-01
 -6.7727482e-01
  3.1276456e-01
  2.2621070e-01
 -8.9956298e-02
 -1.2680039e-01
  1.5277798e-01
 -1.8057293e+00
 -2.4652555e+00
 -5.5372636e-03
  9.8886073e-02
  1.8572966e+00
 -1.9291003e-01
  4.5431575e-01
  2.1468494e+00
 -3.6419615e-01
  3.5871620e+00
 -2.0769680e+00
 -8.3129108e-01
  2.5438025e+00
 -1.0488540e+00
  1.5963678e+00
 -6.2247950e-01
  1.7829870e+00
  2.9505587e+00
  4.2953372e-01
  2.9442103e+00
  4.1305670e-01
 -9.4084984e-01
 -3.9311367e-01
  9.6523635e-02
  1.8134278e+00
 -3.1324420e+00
  2.0542891e+00
  3.6366922e-01
  2.9682392e-01
  6.4902323e-01
 -5.4000843e-01
 -2.3600554e-01
  9.2419410e-01
  4.2251891e-01
 -1.3093894e+00
 -1.1178033e+00
 -3.9398402e-01
  1.0357914e+00
  1.3730356e+00
  2.5966442e+00
 -3.4522946e+00
 -2.9060385e-01
  3.4407419e-01
  4.6994847e-01
  1.5690975e+00
  1.4088860e-01
 -1.7104132e+00
 -1.0107352e+00
  9.6401584e-01
  2.0520356e+00
 -2.6388535e-01
 -1.4114842e+00
 -1.0290140e+00
  2.5943973e+00
 -1.5003048e+00
  1.1664253e+00
 -2.6451325e+00
 -1.3559718e+00
  1.9440838e+00
  8.9514959e-01
 -8.4562278e-01
  7.5137609e-01
  3.9860672e-01
  2.3982549e-01
 -2.9386553e-01
  2.2690373e-02
  5.1636899e-01
 -3.4880295e-02
 -9.5489897e-02
 -8.3163959e-01
 -4.8780069e+00
 -7.4973392e-01
 -3.4330225e-01
  4.2435566e-01
  4.8609009e+00
 -3.4516947e+00
 -2.7499051e+00
  1.4928544e+00
 -7.7037954e-01
  9.1679059e-02
  9.4330624e-02
 -1.7642332e+00
  1.1837655e+00
 -9.4567135e-02
  1.0745028e+00
  4.2206585e-01
 -2.0581663e+00
 -1.0906944e+00
  2.3596840e+00
  1.4053509e+00
  1.0640566e+00
  6.1586338e-01
 -1.3555940e+00
 -8.8471168e-01
  1.6642803e+00
 -5.2884233e-01
 -1.1235378e+00
  8.8050351e-02
  1.7368156e-02
 -4.2866242e-01
  2.1718690e-01
 -1.0614388e+00
 -9.1283178e-01
 -2.7518043e-01
 -2.3547138e-01
 -8.9675623e-01
  2.0734625e-01
 -2.0570517e+00
  2.5711749e+00
  2.9892942e-01
  4.4164248e+00
  4.8022115e-01
  1.7019718e+00
 -1.4601962e-01
  4.9374638e+00
  6.1280614e-01
  1.3133476e+00
 -1.2301715e-01
  1.4115342e+00
 -5.0885916e-01
 -6.0010368e-01
 -4.5052269e-01
  1.9178224e-01
 -1.2311109e+00
 -1.1698958e+00
  1.8527256e+00
 -4.2421550e-01
  8.3015323e-01
 -9.1056064e-02
  9.3481274e+00
 -1.1323157e-01
  1.4765784e+00
 -1.0897826e+00
  9.1023803e-01
  1.3116244e+00
  3.0377054e-01
 -5.3610551e-01
  7.9141498e-01
 -9.3422979e-01
  1.4806051e-02
  3.5926645e+00
 -3.3134741e-01
 -7.6389176e-01
 -2.0587035e-01
 -2.0205674e+00
 -7.7700889e-01
  2.4858397e-01
  6.3635522e-01
  1.9180946e-01
 -8.2019365e-01
  3.8142973e-01
 -1.6044058e+00
 -3.7452450e-01
  1.1773282e+00
 -1.5954318e+00
 -1.8386040e+00
 -1.3757162e+00
 -1.5590905e-01
 -2.1497703e+00
  4.8951596e-01
  1.2307147e+00
 -9.5018280e-01
  5.5949402e-01
 -3.7994280e-01
 -2.5127485e+00
  2.2254298e+00
  4.3607917e-01
 -6.4653075e-01
 -8.5336065e-01
 -1.5615337e-01
 -6.9509417e-01
  5.6144011e-01
 -5.2194661e-01
  6.2538669e-02
 -1.0544798e-01
  1.4681085e+00
  1.9861653e+00
  8.1725001e-01
 -1.8852362e-01
  2.0282078e-01
  1.7376549e+00
 -6.6038013e-01
  3.8717906e+00
  3.5818856e-02
 -2.8955135e-01
 -1.4802270e-01
  9.5432885e-02
  5.8559018e-01
  1.1206768e+00
  1.0371984e+00
  8.5098839e-01
  5.4687536e-01
 -3.4678507e-01
 -5.3808951e-01
 -9.3519354e-01
  3.2249229e+00
 -9.9839821e-02
 -4.6953276e-01
  6.8437353e-02
  6.4210093e-01
  1.3583058e+00
  3.7388977e-01
  4.2327759e-01
  3.0644796e+00
  2.2709918e+00
  1.4949860e-01
 -1.3433317e+00
  2.1631974e-01
  7.7286816e-01
 -5.9469014e-01
  1.9031823e+00
 -3.0716303e-01
 -1.3560133e+00
  3.3746850e-01
  1.2951396e+00
 -1.9529253e-01
  1.1563049e-01
  8.3777463e-01
  9.8920608e-01
  1.1727914e+00
  4.9587411e-01
  3.0689389e-01
  4.0882304e-01
  4.3942648e-01
  4.1968653e-01
 -1.4181510e+00
 -7.7488446e-03
 -2.0915364e-01
 -6.8365365e-01
 -8.3981383e-01
  1.8009543e+00
 -1.7892941e+00
  1.3697588e+00
 -1.2024366e-01
 -5.9201789e-01
  7.4043947e-01
  3.1990359e+00
 -5.1704580e-01
  2.1366327e-01
  8.3165973e-01
  1.1716752e+00
 -3.1565920e-01
  2.0262748e-01
 -6.5215427e-01
  3.5679850e-01
  5.5193412e-01
 -7.9940170e-02
  2.5552435e+00
  6.5893191e-01
 -1.8181578e+00
 -2.8095073e-01
  1.3822186e+00
 -1.6960700e+00
 -1.4034395e+00
  1.8710110e-01
  5.7683963e-01
 -2.5254524e-01
 -5.9540313e-02
  1.3235425e+00
  4.3119413e-01
 -2.6541197e-01
 -1.6311383e+00
  3.9810002e-01
 -5.0408667e-01
 -5.8240002e-01
  1.6654265e+00
 -1.2803477e+00
 -3.7422255e-01
 -1.1528265e+00
 -6.0849047e-01
  7.8483528e-01
 -1.4163219e+00
  1.4370418e-01
 -2.8050199e+00
  3.4458572e-01
  1.8592681e-01
  1.1832557e+00
  3.3948737e-01
 -1.4904363e-01
 -2.9279401e+00
 -3.3532694e-01
 -8.9583570e-01
  1.3775922e+00
  8.4238750e-01
  1.9915950e+00
 -1.2545779e+00
  2.9193857e-01
  8.9099733e-03
 -3.3179694e-01
  2.8569701e-01
  9.9727166e-01
  9.4905597e-01
 -2.0418954e+00
 -1.0907795e-01
 -1.6731199e+00
 -1.1824681e+00
 -1.8806231e+00
 -5.7976828e+00
  1.1663640e+00
 -1.5291197e+00
  8.1353742e-01
  9.3499082e-01
 -1.6515814e-02
 -2.3482044e-01
  5.2038682e-01
  1.7136237e-01
 -2.9774232e+00
  3.5228360e-01
  2.6929030e-01
  5.5599427e-01
 -2.9279771e-01
 -1.3391209e-01
 -2.5035067e-02
 -8.7871605e-01
 -3.2925162e-01
  2.7833924e-01
 -1.2550981e+00
 -3.8165537e-01
  3.6241266e-01
 -4.9678001e-01
 -1.1828274e-01
 -4.2864326e-01
 -1.0632463e+00
  5.8148259e-01
 -3.9578491e-01
 -1.3798562e+00
 -1.2779588e+00
 -4.9768209e-01
  7.6623905e-01
  8.0566794e-01
 -6.6126674e-01
 -4.5989412e-01
  5.4334146e-01
  1.3579751e+00
  1.2728350e-01
  2.7914673e-01
 -9.6037978e-01
  2.2693155e-02
 -9.3582696e-01
  2.7172348e-01
  3.9606389e-01
 -9.3124175e-01
 -2.6123720e-01
  7.0533179e-02
 -1.2058890e+00
 -6.2907428e-01
  1.1404096e+00
 -1.4036080e-01
 -2.3651071e-01
 -1.1647053e+00
  5.4467022e-01
 -1.7944284e-01
 -1.7653332e+00
  5.7814717e-01
  1.5730831e-01
  1.8601939e-01
 -1.3268601e+00
 -1.4437466e+00
  1.6582873e+00
  3.1750846e-01
  2.5440283e+00
  2.9831505e+00
 -3.3757794e+00
  1.9235733e+00
 -3.6689095e-02
 -2.4955969e+00
  1.6283157e+00
  2.9809940e-01
  1.7533470e+00
 -4.7231388e-01
 -2.7304535e+00
  1.7880349e+00
 -9.7396278e-01
 -6.1533070e-01
 -7.2025824e-01
  7.9393935e-01
 -2.5547009e+00
  1.3585185e+00
  2.6173154e-01
 -7.9953790e-01
 -7.5169438e-01
 -3.3073363e-01
 -6.2804466e-01
 -6.0775936e-01
 -5.7039922e-01
 -4.1956988e-01
  1.8862638e+00
 -2.7488446e+00
 -2.5388596e+00
  1.8767780e+00
 -1.8715556e-01
 -3.6475959e-01
 -1.9452177e+00
  1.5447083e-01
  9.9091065e-01
 -5.8696175e-01
  1.4029938e+00
 -7.4113888e-01
  6.7104572e-01
 -9.1295548e-02
 -6.4024061e-02
  2.3356624e-01
 -9.1195649e-01
 -1.1094944e+00
  5.9498233e-01
  3.2678109e-01
  1.3608826e+00
 -7.7847620e-03
  1.0216699e+00
 -1.8989082e-01
 -6.4093256e-01
  1.2503521e+00
 -3.0851641e-01
  1.1817292e+00
 -3.6247173e-01
  2.7114382e-02
  5.2869055e-02
 -9.8891348e-01
  1.8011637e-01
 -2.0821503e-01
 -3.1860930e-01
  1.2691950e+00
 -2.3533680e+00
  1.0312864e+00
 -2.2339139e+00
 -1.4672738e+00
  4.5215070e-01
  6.2688482e-01
 -2.1646537e-01
  9.6029717e-01
 -3.6477306e+00
  2.9747512e+00
  1.0388337e+00
 -1.3343201e-02
  1.4179139e+00
 -1.9960743e+00
 -2.4873953e+00
  5.2827251e-01
 -9.1794646e-01
 -2.5204294e+00
 -2.6366448e+00
 -9.0808082e-01
  2.7901188e-01
 -3.8673919e-01
  2.2530802e-01
 -1.4054459e+00
  5.3062320e-01
 -1.3686582e+00
 -3.8946029e-02
  1.4459604e+00
 -4.8101503e-01
  4.1565263e-01
  2.2262420e-01
 -4.3287337e-01
 -3.8903260e-01
 -1.1507494e+00
  4.7434819e-01
  1.4789052e+00
  7.7643722e-01
 -2.3589058e+00
  2.0312190e-01
 -1.9481714e-01
  1.4259657e+00
 -1.1140996e+00
 -9.3826473e-01
 -1.6290285e-01
  5.1319342e-02
 -7.5008310e-02
 -2.0195958e-01
 -3.7304607e-01
  4.3496338e-01
 -7.1545476e-01
  8.7283772e-01
 -1.1658902e-01
 -8.7588477e-01
  4.4984993e-01
  9.0429321e-02
 -2.7218759e-01
 -7.6866484e-01
 -1.0170195e+00
  2.5461248e-01
 -4.8824498e-01
 -3.4455827e-01
 -1.2957318e+00
  1.1495481e+00
  3.1715858e-01
  5.8480489e-01
  8.0975902e-01
  8.1347995e-02
  3.3754957e-01
 -4.9929455e-01
  6.3431764e-01
 -1.3808294e-01
 -1.2329327e+00
 -4.1935804e-01
 -3.9708185e-01
  2.4018896e+00
 -4.1791391e-01
 -2.5585550e-01
 -2.0272139e-01
  6.8833202e-04
 -2.6992828e-01
 -1.4360315e+00
 -3.9084348e-01
 -8.4192121e-01
 -3.2284126e-01
  4.8963031e-01
  1.1043698e+00
  3.2643583e-01
  8.8894844e-01
 -1.8754623e+00
 -1.0516524e+00
  1.3566703e+00
 -1.1921982e-01
 -3.8575944e-01
 -1.2343776e+00
 -1.8160403e-01
  1.7915006e-01
  1.3708537e+00
 -2.8965218e+00
 -2.8709599e-01
 -3.3303946e-01
  1.7273581e+00
  1.3433982e-01
  3.3032438e-01
 -2.6243544e-01
 -6.9699556e-01
  2.2839782e-01
 -8.2805210e-01
  3.6579913e-01
 -7.0217746e-01
 -7.6753169e-01
 -2.8889856e-01
 -4.3893597e-01
 -6.2271267e-01
 -4.4172356e-01
  1.5939653e+00
  1.7859224e+00
  6.9430947e-01
 -1.3413594e+00
  5.4849654e-02
 -5.4208606e-01
  5.7862300e-02
  8.5491025e-01
 -6.3624507e-01
 -3.9903894e-01
  1.7192454e+00
  1.3512091e-01
  6.1723763e-01
 -5.9698999e-01
  2.0265165e-01
 -8.5083485e-01
 -4.3220842e-01
 -3.2014805e-01
  8.3816327e-02
  5.8302915e-01
  2.6995790e-01
  5.4474473e-01
 -1.0582106e+00
 -2.3896612e-01
  2.9115300e+00
  7.6666033e-01
 -8.7444842e-01
 -1.0314741e+00
  1.0414652e+00
 -1.6650964e+00
  1.2206872e+00
  1.9413161e+00
 -1.8366623e-01
 -3.8681242e-01
 -2.9628053e+00
 -1.8634605e-01
 -5.0725001e-01
 -5.8219224e-01
 -1.6823531e+00
 -2.2934005e-01
 -9.3350297e-01
 -2.9064415e+00
 -3.8644457e-01
 -5.3324485e-01
  1.2126255e+00
 -5.9222674e-01
  5.7238430e-02
 -7.9008931e-01
 -2.7474988e+00
  1.8435158e-02
  2.3411103e-01
  1.2574598e+00
 -2.3871914e-01
  2.3156972e-01
 -3.0522391e-01
 -7.6293421e-01
  1.5017043e-01
 -7.3915064e-01
 -9.2548954e-01
  9.2599648e-01
  4.8161367e-01
  2.1671958e+00
 -8.5101485e-01
 -2.5341346e+00
  1.3078481e-01
  5.9004426e-02
 -1.2481167e-01
 -4.1345209e-01
  8.6675584e-01
 -2.4886836e-01
  1.4767897e-01
 -3.4213948e-01
  8.9541280e-01
 -1.6497564e-02
  1.3439746e+00
 -9.8821062e-01
  8.7112665e-01
  4.4458923e-01
 -2.7275622e+00
 -5.1382589e-01
 -5.3268564e-01
 -6.2872082e-01
 -1.2655666e+00
  1.1595495e+00
 -2.5776681e-01
  9.5799816e-01
 -2.6991585e-01
 -1.8890631e+00
  3.4826806e-01
 -2.3235270e-01
  7.4542606e-01
  1.2402485e-01
 -4.1696560e-01
  5.2901053e-01
  1.0567967e+00
  2.2473565e-01
 -3.6655726e+00
 -1.8681915e+00
  6.2545702e-02
 -1.6334249e+00
  1.0063103e+00
  3.3653569e-01
 -2.8910138e-02
 -2.2576487e+00
 -2.1335928e+00
  6.3781691e-01
 -9.2591345e-01
 -3.8491267e-01
 -8.3401543e-01
 -1.3034673e+00
 -8.5548654e-02
  9.0857846e-01
 -1.0268720e+00
  3.6543816e-01
 -4.8531780e-01
 -5.2277708e-01
  1.7159611e+00
  2.8921056e+00
  2.3106846e-01
 -2.4274466e+00
  1.7769953e+00
  2.8447419e-01
  1.7279199e+00
 -3.0529049e-01
 -5.7746744e-01
  5.4871476e-01
  4.2337340e-01
 -2.3555160e-01
 -4.8608714e-01
 -5.5794227e-01
 -8.7839949e-01
  2.1075995e+00
  8.2029486e-01
  3.0706057e-01
 -2.4669359e+00
 -3.3075688e+00
  2.5569086e+00
  2.9409164e-01
 -5.5797105e+00
 -2.1795851e-01
  2.7464802e+00
  1.1860694e+00
 -9.0013087e-01
 -4.3716402e+00
  1.6188771e+00
 -1.3867410e+00
  1.4480935e+00
 -2.6651192e-01
  1.1306255e+00
 -1.1358384e-02
  8.5664016e-01
 -2.8739941e-01
 -6.7672729e-01
  1.1502105e-01
  1.9913189e+00
 -3.5581270e-01
 -5.7251763e-01
  6.0862142e-01
  2.6007018e+00
  9.1643497e-02
  6.5590072e-01
  3.5445768e-01
  4.0323102e-01
  4.2597878e-01
  2.5644212e+00
 -1.6058120e-01
  3.0076342e+00
  2.5915756e+00
 -3.1126676e+00
 -1.4747422e+00
  2.3975573e+00
 -4.2994323e-01
  1.7055681e-01
  8.1306285e-01
 -2.1608157e+00
 -1.7291481e+00
 -1.4825075e+00
  1.3270442e+00
 -1.5641428e+00
 -2.3013827e-01
  1.0866950e+00
 -5.8358866e-01
 -1.0299751e+00
 -2.8773445e-01
  9.2095393e-01
  9.0726024e-01
 -9.1433752e-01
  1.2685701e-01
 -2.5076325e+00
 -1.3862665e-01
  1.6194245e+00
 -6.8380162e-02
  2.2429045e-01
 -3.1081811e-01
 -3.1782949e-01
  1.5046990e-01
 -2.6979446e-01
  2.4417664e-01
 -1.8000338e+00
 -2.3194523e+00
  1.4109131e+00
  6.9893938e-01
 -1.9769393e+00
  1.0363028e+00
 -5.5197418e-01
  1.1503834e+00
  1.9580181e+00
 -2.0118299e+00
  4.1706431e-01
 -1.2855142e+00
  1.8310362e+00
  3.8524330e-02
  1.4171830e+00
 -2.1431248e-01
 -8.8864177e-01
  1.6821465e+00
  1.7099652e+00
 -2.9772270e-01
 -1.1188221e+00
  1.8761853e+00
  5.4574788e-01
  6.4923424e-01
 -7.2182573e-02
  1.2420526e+00
 -8.1135619e-01
 -9.1836596e-01
 -2.3350451e+00
 -1.9714795e-01
  7.3525888e-01
 -1.0878520e+00
 -1.0726995e+00
  7.5532532e-01
  5.0472211e-02
  1.1115911e+00
 -1.0658773e+00
  9.9014848e-01
 -3.7140124e+00
  1.2632273e+00
  1.3153987e+00
 -3.7754476e-01
 -8.4520620e-01
 -2.7234530e-01
 -5.8348931e-02
  1.6828960e+00
 -2.1529505e+00
 -8.4541827e-01
 -5.9896719e-01
  1.0193307e+00
  1.1439517e+00
 -1.1739294e-01
 -2.8376434e+00
  2.3363721e+00
 -2.1057251e-01
  1.0374679e-01
 -6.0484970e-01
  4.2373672e-01
 -1.9211222e+00
 -3.5818845e-01
  6.8711644e-01
 -9.4182611e-01
  7.0011061e-01
  3.3161712e+00
  1.3760931e+00
 -6.9290078e-01
  2.5802067e-01
 -2.2421169e-01
  3.5475515e-02
 -7.1657896e-01
 -6.5276521e-01
 -7.9246646e-01
 -6.0399449e-01
  3.9687850e+00
  1.1072307e+00
  3.8633910e-01
 -7.5222325e-01
 -3.7015920e+00
 -1.1307932e+00
 -3.4449533e-02
  2.2237012e+00
 -4.1919260e+00
  2.6478338e-01
  1.0723599e+00
 -8.0655628e-01
  4.9019670e+00
 -9.4411767e-01
 -6.2216741e-01
  2.2529104e+00
 -1.1734701e-01
  1.0364635e-01
  1.6306568e+00
  9.7186792e-01
  3.1286994e-01
 -1.4136292e+00
  1.5753905e+00
 -1.1486264e+00
 -7.4259043e-01
 -8.5698897e-01
 -7.6646581e-02
  9.0714157e-01
  1.7466012e-01
 -1.8785419e-01
 -6.1170959e-01
  1.9630636e-01
 -3.8893646e-01
 -2.5541911e+00
 -1.8946133e+00
 -1.2574905e+00
 -2.9752500e+00
  3.3274009e+00
  7.1581829e-01
 -5.3460675e-01
 -1.7359015e+00
 -4.6352533e-01
  3.5186499e-01
  5.0702673e-01
  1.3870759e+00
  6.2159067e-01
 -3.1631494e-01
  5.8827126e-01
 -4.6600679e-01
  1.6465402e+00
  1.1428126e+00
 -1.7616167e+00
 -1.5960330e-01
 -1.1355450e+00
  6.6851638e-02
  1.4571130e+00
  2.3687983e+00
  7.2775918e-01
  1.5690552e+00
  2.1932760e-01
  2.6663843e-01
  5.1018649e-01
  3.9100808e-01
  6.1780137e-01
 -5.0969332e-01
 -1.2663133e-02
  2.5679642e-01
 -3.5106838e-01
 -1.4096549e+00
 -2.2395723e+00
  4.1859654e-01
 -1.2323912e+00
 -5.1808804e-01
  1.4560626e+00
 -8.4853584e-01
  2.7833101e-01
  1.0217036e+00
  8.2368481e-01
  2.9812434e-01
  5.3426570e-01
  3.0977437e+00
 -1.3856130e+00
 -1.5450691e+00
  2.5369139e-02
 -1.7015991e+00
  1.7157584e+00
 -2.0253360e+00
  3.3348877e-02
  1.4244760e+00
 -1.3686846e-01
  9.9512345e-01
 -1.2466412e-02
 -3.3970418e+00
 -3.3144546e+00
 -4.8467457e-01
  4.6730980e-01
 -1.1401415e+00
  1.4751124e-01
  4.9945796e-01
 -1.4265589e-01
  1.1003171e+00
  3.7466776e-01
  5.9153211e-01
 -1.3921553e+00
  1.4147027e-01
  2.5517023e+00
  3.6745796e-01
  4.5531482e-02
  1.5735226e+00
  2.4517133e+00
 -2.5221677e+00
  1.4241483e+00
  1.9097295e-01
  3.1611013e+00
 -4.7471070e+00
  1.0686320e+00
  9.1280448e-01
 -3.5576239e-01
  9.0774339e-01
  2.8587157e-01
  3.9080125e-01
 -3.8625821e-01
  2.5891978e-01
  1.0721879e+00
  1.4080722e+00
 -1.2845005e+00
 -1.3096462e+00
  1.0754386e+00
 -2.3333111e+00
 -1.0598820e+00
  9.0583980e-02
 -3.2164819e+00
  7.1906382e-01
  8.2597084e-02
  1.1668025e+00
  4.9774459e-01
 -8.1311905e-01
 -9.6217364e-02
 -4.5523980e-01
  5.5936283e-01
 -2.0954417e-01
  9.0483981e-01
 -2.0946939e+00
 -1.8595030e+00
  1.5256178e+00
  2.5871184e-01
 -2.4853180e-01
  7.6373279e-01
  4.4024326e-02
 -1.9334158e+00
  2.2611006e-01
  5.6049615e-01
 -6.6872144e-01
  5.7497418e-01
 -2.7855554e+00
  1.0580246e+00
  1.7741373e+00
 -2.4881406e+00
 -1.9247547e+00
 -5.1470414e-02
  6.3293362e-01
 -1.3437361e-01
 -7.4228489e-01
 -1.0207695e+00
  1.6957572e+00
  2.3570669e-01
 -7.4543521e-02
  4.2581648e-01
 -3.4565097e-01
  3.4867397e-01
 -5.9694219e-01
  1.4735971e-01
  3.2535583e-01
  1.8615559e-01
 -1.3262962e+00
 -5.7487690e-01
 -2.1035864e+00
  4.6066877e-01
  2.6752031e-01
 -7.5865364e-01
 -4.7673345e-01
 -5.2917504e-01
  8.1844169e-01
 -3.7432954e-01
  2.5103530e-01
  5.2344811e-01
 -2.7527556e-01
 -1.4160654e-01
  7.5721568e-01
  1.3500869e+00
  6.2658906e-02
  1.7321311e-01
 -7.3658951e-02
 -8.0627996e-01
 -3.2213609e+00
 -8.0228508e-01
  1.4431781e+00
  1.2742473e+00
  2.6890459e+00
 -1.2508620e+00
 -7.8570586e-01
 -5.4463369e-01
 -1.1235584e+00
 -2.8867534e-01
  2.4839453e-02
 -4.4296104e-01
 -1.1968243e-01
  6.0932677e-02
  4.8073122e-01
  1.1875739e+00
 -1.4215662e+00
 -3.3263779e+00
 -5.4261857e-01
 -1.9897996e-01
 -2.0819014e-02
 -6.7228848e-01
  9.6435958e-01
  4.4337859e+00
  3.5053852e+00
  3.6667582e-01
 -2.7443740e+00
  1.4644008e+00
  1.5029601e+00
 -1.3834163e+00
  5.3145260e-01
  1.5603561e+00
  4.3778051e-02
  6.3413374e-02
 -1.3822415e-01
 -1.0662854e+00
  6.8175632e-01
  9.9929601e-01
  1.3997656e+00
 -1.5325723e+00
  1.8956115e+00
  1.7126917e+00
 -4.1588303e-01
  6.3145876e-01
 -3.3076772e-01
 -3.6534399e-01
 -2.6786314e-02
 -4.5609820e-01
  1.3166896e+00
  1.0132456e+00
 -2.3396761e+00
 -5.4335356e-01
 -2.3756458e-01
 -1.3873857e+00
  9.5798135e-01
 -2.2837479e+00
 -5.5666983e-01
  8.0177486e-01
  1.0587723e+00
 -4.4743675e-01
 -1.1368216e+00
 -2.3133218e+00
  7.1781194e-01
  3.4407082e+00
  4.2904012e-02
 -8.6663175e-01
  2.0715639e-01
 -7.9661004e-02
  9.9398233e-02
 -1.3128030e+00
 -7.1344095e-01
 -4.7535107e-01
  4.1333070e+00
  1.3477764e+00
 -5.6070787e-01
 -1.6242946e+00
 -9.9991947e-01
  1.8616514e-01
 -1.8923271e+00
  3.6252266e-01
 -1.1771328e-01
 -1.0410539e+00
  3.1830499e-01
  3.4745538e-01
 -1.6018389e-01
 -1.0257936e-01
 -2.5455427e+00
  3.2355818e-01
  6.4912319e-01
  1.4371650e+00
  3.6365184e-01
  7.7039874e-01
  1.4105940e+00
 -1.1293553e+00
  1.1370035e+00
 -4.0534452e-01
  1.9824649e+00
  2.6646075e-01
 -1.5990136e+00
  3.2703707e-01
 -4.0590245e-01
  1.9929041e+00
  1.1232257e+00
 -8.4900850e-01
  6.4653265e-01
 -5.0184357e-01
  1.1180643e+00
 -1.6805072e+00
 -4.4810131e-01
  2.6929203e-01
 -2.0521717e+00
 -1.7485653e+00
 -3.7460428e-01
  6.1212265e-01
 -7.8837816e-03
 -3.0628657e-01
 -4.4611621e-01
  1.7272276e-01
  2.2859065e-01
  1.2263689e+00
  6.1318964e-01
 -1.2966380e+00
  1.2756512e-01
 -2.5988939e+00
 -1.4032472e+00
  8.5194236e-01
  8.0128914e-01
  2.3496585e-01
 -8.4819359e-01
 -2.4171147e+00
 -2.5177976e-02
  1.3596630e+00
 -8.6551732e-01
 -6.5199926e-02
 -3.9451364e-01
 -3.1156348e-02
 -3.6474466e+00
 -1.2185080e-01
  2.4150779e+00
 -2.3105175e+00
  1.7157167e+00
  7.7422392e-01
 -2.3437920e+00
 -6.7631572e-01
 -1.0284969e+00
 -4.1793138e-01
 -6.0296398e-01
 -2.5415852e+00
  1.9642198e+00
  1.1411623e-01
  2.4209565e-03
 -1.2625574e-01
  1.4158105e+00
  4.9897674e-01
  7.5752407e-02
 -1.0839629e-02
  3.6646232e-01
  5.9597528e-01
 -4.3423897e-01
 -1.0415676e+00
 -7.0461601e-01
 -2.9820716e-01
 -3.9504695e-01
  8.1289220e-01
  2.5349183e+00
  3.0784245e+00
 -3.9268649e-01
 -4.6600121e-01
  6.3512671e-01
  5.2735460e-01
 -1.3428522e+00
  7.2670192e-03
 -4.7678602e-01
 -9.5541235e-03
 -3.4734419e-01
  3.9780346e-01
 -3.2942981e-01
  7.6355153e-01
  1.2102199e+00
  7.9319373e-02
 -4.9933845e-01
  1.1502603e+00
 -8.0539763e-01
  3.4668139e-01
 -2.7589363e-01
  2.2110109e-01
 -1.2777032e-01
 -1.0546293e+00
  5.8772594e-02
  1.0537537e+00
 -1.8739547e+00
 -1.5500264e+00
 -3.4630001e+00
 -3.6895144e+00
  1.8194314e+00
 -1.8714602e+00
  5.7453729e-02
  1.2625955e-01
  1.9940354e+00
  1.7154016e+00
 -6.9215024e-01
  1.2124904e+00
 -1.9876186e+00
  3.1201705e-01
 -7.5178385e-01
  1.2431184e+00
 -1.5799295e+00
 -6.0329527e-01
  2.7716070e-01
  1.1770184e+00
 -3.0564177e+00
  1.6336270e-01
 -3.0720582e+00
 -7.0777458e-01
 -1.5941132e+00
 -1.6947114e+00
  1.0275778e+00
 -5.6388980e-01
  4.3596977e-01
  1.1186380e-01
  1.4014153e+00
  4.9299073e-01
 -2.3820767e-01
  3.0772501e-01
 -4.8958111e+00
 -2.3351717e+00
 -2.1859758e+00
 -4.3457994e-01
  2.8320837e+00
 -1.3223841e+00
 -3.4422214e+00
  7.2236376e+00
 -9.5130521e-01
  1.4852795e-01
  1.8990657e+00
  1.0447811e+00
 -1.0340126e-01
  2.4376171e+00
  1.2865648e+00
  2.7070999e+00
 -1.1344316e+00
  2.5785909e+00
  1.2085373e+00
  1.6110992e+00
  1.6470485e+00
 -1.5813248e+00
  7.0170927e-01
  3.1713674e+00
 -1.6248626e-01
  7.9148644e-01
 -9.8025262e-01
 -1.1986082e+00
 -6.8649971e-01
 -9.3507051e-01
 -5.2009040e-01
  2.3529010e-01
 -2.0390068e-01
 -3.2595897e-01
  1.3781548e+00
 -1.3758491e+00
  1.2529439e+00
 -2.1315982e+00
 -1.2520475e+00
  1.5605136e+00
  1.3059787e+00
  7.0137727e-01
  5.9084052e-01
 -6.7628491e-01
  1.0127736e+00
 -6.2426323e-01
  8.6394191e-02
 -2.7140689e-01
 -3.5635698e-01
  5.2937520e-01
  5.9363228e-01
 -4.0752578e-01
  5.0853246e-01
 -3.1673926e-01
  9.8197639e-02
  1.7792524e+00
 -4.7100168e-01
 -6.5660541e-04
  1.4201195e+00
 -5.8639169e-01
  5.9681702e-01
  1.4218105e-01
 -7.9837233e-01
  2.8561923e-01
  4.9953379e-02
 -1.0075549e+00
 -3.6799940e-01
  5.9662598e-01
  2.8562260e-01
 -1.0380266e+00
  3.1002958e+00
  8.5929221e-01
 -1.0829115e+00
  1.6873301e+00
 -6.0172784e-01
 -1.4537066e-01
 -1.0519558e+00
  2.7877431e+00
 -8.5690093e-01
 -4.4045040e-01
 -4.4728079e-01
  2.6113722e+00
  1.7937665e-01
  5.2495068e-01
 -9.4485897e-01
 -4.6857291e-01
  7.5607133e-01
  1.8545336e+00
 -1.1381285e+00
 -3.6813892e-02
  7.5739169e-01
  8.5872108e-01
  4.6719071e-02
 -8.1688917e-01
 -1.2947123e+00
 -2.4563862e-01
 -1.6378337e+00
 -1.9075013e+00
 -5.0405985e-01
 -6.1516769e-02
  2.1737826e+00
  1.6220934e+00
 -1.0362095e+00
  1.1201345e+00
  7.5673187e-01
 -1.9460928e+00
  1.7872866e+00
 -2.5589268e+00
 -1.7550305e+00
 -7.4046105e-01
  1.2547877e+00
  1.2544712e-01
  6.9283557e-01
 -1.1424890e+00
  4.0243450e-01
  3.5012813e+00
 -3.5454614e+00
 -1.0546705e+00
  6.0745728e-01
 -4.7604987e-01
 -4.9840313e-01
  5.1951426e-01
 -1.4560043e+00
 -2.6500773e-02
 -2.3739710e-01
  8.7639964e-01
 -1.7415711e-01
 -7.2409934e-01
  4.9223548e-01
  4.0062940e-01
 -2.2282317e+00
  2.0392590e+00
  1.4409394e+00
  2.3183946e-01
  2.7216804e-01
  2.7109886e-02
  4.5900691e-01
  7.3382723e-01
  3.0971149e-01
 -1.6900486e-01
  3.6441791e+00
  4.8024076e-01
 -2.5199380e+00
 -3.0854490e-01
  1.1790855e+00
 -2.1015170e+00
  3.1000432e-01
 -1.4027392e+00
  2.2505067e-02
  2.0693216e+00
  2.8939669e+00
 -7.5416428e-01
 -3.2570916e-01
  2.6986247e-01
  9.8317429e-02
 -1.4742800e+00
 -1.5108650e+00
 -6.3342637e-01
 -9.0874189e-01
  1.2342408e+00
  8.5289460e-01
 -1.7468697e+00
 -1.1306413e+00
 -6.6477937e-01
  1.7501549e+00
 -2.5441992e-01
  1.2709036e+00
 -5.2862298e-01
  1.5878023e+00
  5.9540409e-01
 -7.6397568e-01
 -1.0008935e+00
  1.0687305e-01
  1.4851660e-01
 -3.7363356e-01
 -1.4715227e+00
 -2.9557970e+00
  5.3030175e-01
 -2.2936680e+00
  9.0535384e-01
  1.8310170e+00
  2.6510139e+00
 -1.5622370e+00
 -6.1695975e-01
  5.8708236e-02
  2.3931870e+00
 -2.0673320e+00
 -2.9681275e+00
 -6.7278194e-01
 -7.0861757e-01
  4.1235204e+00
 -1.9340798e+00
  4.6353210e-02
  1.4514573e+00
 -4.2183936e-01
  9.3420035e-01
 -1.4613457e+00
 -1.1347741e+00
  2.2498918e+00
  1.1049172e-01
 -3.9917574e+00
  3.6779275e+00
 -1.0398961e-01
  2.4482138e+00
  2.1571043e+00
 -1.7184325e-01
 -1.0680310e+00
  1.0906062e+00
 -4.3557379e-01
 -1.5496497e+00
  4.0976691e+00
  6.1219561e-01
 -4.6260152e+00
 -4.5327792e+00
  1.8834268e+00
 -1.3192168e+00
 -2.1844493e-01
  5.8961838e-01
 -1.3365750e-01
  1.5053034e-01
 -4.4062671e-01
 -4.4705176e-01
  7.1084458e-01
  7.4263763e-01
 -3.6620292e-01
  8.2506567e-01
  7.9899597e-01
 -6.2361407e-01
 -7.4885356e-01
  1.2876998e+00
 -7.1193665e-01
 -2.1947122e+00
  1.0355392e+00
  7.9792666e-01
  1.9194658e-01
  2.9856589e+00
 -7.3871487e-01
 -2.3855796e-01
 -3.6466986e-01
 -5.5211306e-01
 -4.6398859e-03
 -1.2845807e+00
 -4.3721890e-01
  9.4831213e-02
 -1.3548508e-02
 -2.0338411e+00
 -2.3682174e-01
  6.4740545e-01
 -6.6780472e-01
  1.5061697e-01
  7.5513613e-01
 -2.5904933e-01
  1.4165813e+00
 -5.8875591e-01
 -1.2639539e+00
  1.3721669e-01
 -2.2815323e+00
  7.2993332e-01
  2.3595166e-01
 -3.8254071e-02
  4.0505680e-01
 -8.9934480e-01
 -1.1045381e-01
  8.7556481e-01
 -6.6068882e-01
  1.5659947e+00
  1.2946507e+00
  1.2758490e+00
 -6.8581772e-01
 -5.8979821e-01
 -2.7891188e+00
  1.0337659e-02
 -2.2048992e-01
  1.0062274e+00
 -2.9984078e-01
  5.4880714e-01
  5.6867220e-02
  6.8627250e-01
 -2.4032143e-01
 -1.1337942e+00
 -3.4170849e+00
  7.5056547e-01
 -8.1519061e-01
  4.5922396e-01
  1.8743606e+00
  5.5482191e-01
  2.0936863e+00
 -2.4267654e+00
 -1.0697529e-01
  6.6702127e-01
  2.5303984e-01
  1.0994867e+00
 -7.2096938e-01
 -2.5011721e-01
  1.3225830e+00
  9.6095100e-02
  4.4191160e+00
 -1.5845120e+00
  2.6742146e+00
 -2.1578262e+00
  1.8698571e+00
  2.0906909e+00
  4.2419693e-01
  8.3581501e-01
  2.1237957e-01
  1.1028191e+00
  1.6659396e+00
  8.1734484e-01
  4.4465023e-01
 -1.2672009e+00
 -5.1416802e-01
  1.0671757e+00
  9.1523878e-02
 -1.4029528e-01
  6.8862194e-01
  1.2097883e+00
  1.1739744e+00
  1.2223010e-01
 -1.6662809e-01
 -1.8643421e+00
  3.4345059e+00
 -5.4205489e-01
 -3.3312979e-01
  1.2527601e-01
  7.9520148e-01
 -1.6939014e+00
 -2.4128683e+00
 -3.7269297e-01
  4.4602167e-02
  1.3802894e+00
 -7.0955306e-01
  4.7637567e-01
  5.1014376e-01
  1.5041929e-01
 -1.5514064e+00
 -1.9889213e+00
  2.1707447e+00
 -1.1393206e+00
  8.9646298e-01
 -9.9068213e-01
 -4.3318331e-02
  1.3426735e+00
  5.6998020e-01
  7.3830140e-01
  5.3477818e-01
 -2.1978788e-01
  1.0442479e-01
  3.1829077e-01
  3.3342314e-01
 -5.6002963e-01
  6.3653030e+00
  1.4233144e-01
 -1.4864645e+00
 -5.0494003e-01
 -1.7893268e+00
  4.5257206e+00
  9.6503276e-01
 -1.1846087e+00
 -1.1575352e-01
 -3.7333071e+00
  6.7268080e-01
  1.3068720e+00
 -3.2256448e+00
 -1.0180582e+00
 -2.2083790e+00
  1.4761685e+00
 -1.7452636e+00
 -1.3190815e+00
 -1.4908700e+00
 -1.6175835e+00
 -8.8999376e-02
 -1.7926477e+00
  2.4939874e-02
 -2.8121519e+00
 -1.6849121e+00
 -2.1441894e+00
 -1.3523591e+00
  1.3457898e+00
 -5.4257208e-01
 -2.4926235e-01
  7.3758423e-01
 -2.0247336e-01
  3.6968380e-01
 -1.3903247e-01
  1.1629883e+00
 -1.7386481e+00
 -2.6311028e+00
 -1.5895537e+00
 -2.6485102e+00
  2.0471632e+00
  2.0116613e+00
 -7.0616233e-01
  1.2524457e+00
 -4.2625466e-01
 -4.9895456e-01
  1.2460979e+00
 -9.6577829e-01
  3.9845932e+00
 -1.6699006e-01
  4.3985557e-02
  1.2811269e+00
  5.2144426e-01
  1.5219496e+00
 -7.1432370e-01
  7.3577756e-01
  6.7122257e-01
  7.9370923e-02
  3.8337788e-01
  1.5224169e+00
 -3.6761421e-01
  8.9715701e-01
  7.7815101e-02
  2.8049910e-01
  2.7106574e-01
  8.7048244e-01
 -1.2855363e-01
 -2.9585364e-01
  1.8231663e-01
  4.3114862e-01
 -1.3513453e+00
 -3.1853282e-01
  7.2707218e-01
  1.4551297e+00
  1.3440081e+00
 -1.6064767e+00
 -3.3231091e-01
  3.4232965e-01
  2.4056184e+00
 -4.0224192e-01
  4.2496333e-01
 -8.1392151e-01
  3.1466362e+00
  1.6704857e+00
  2.7330348e-01
  3.4704404e+00
 -1.3665438e+00
 -5.0117773e-01
 -1.9934683e+00
  4.4250676e-01
  7.1512473e-01
 -2.7438602e+00
  2.8012266e+00
  1.2182662e+00
  1.4983329e+00
 -1.3770596e+00
  2.3833911e+00
  4.6276850e-01
 -1.8999552e+00
 -8.7853387e-02
 -8.8329029e-01
 -2.4726716e-01
  2.3846839e-01
 -8.7526226e-01
 -8.7987143e-01
 -5.1645267e-01
  1.7097142e+00
  1.3685955e+00
 -1.4884948e-02
 -2.0418518e+00
  2.2899725e+00
 -1.8694656e+00
 -3.4024887e+00
  5.9621811e-01
 -4.4820137e+00
 -2.0900910e+00
  3.3421991e+00
  4.0174890e+00
  1.1466341e+00
  9.6650553e-01
 -1.4660008e+00
  3.0982625e+00
  1.0959315e-01
 -4.3687109e-02
 -4.8578527e-02
  2.2803438e+00
  2.1678782e+00
 -6.0725164e-01
  1.1173683e+00
 -8.8657367e-01
  9.9130124e-01
  4.1273993e-01
 -3.4631937e+00
 -3.9109090e-01
 -7.8333475e-02
 -1.1519202e-01
 -1.3982831e+00
 -1.6172741e-01
 -1.3861182e-01
 -7.5074923e-01
  1.0106462e+00
  3.8590077e-01
  1.2238057e+00
 -4.2140064e-01
  2.4682388e+00
  2.5273497e+00
  8.7300664e-01
  7.9457045e-01
  2.8753686e-01
  1.1698513e+00
  1.6405255e-01
 -3.9900738e-01
  1.2353753e+00
 -1.4587877e+00
 -3.0335382e-01
 -1.6937505e+00
 -1.5670767e+00
  1.2487788e+00
 -6.4965832e-01
  1.5122509e+00
 -2.4656808e-01
  8.6221807e-02
  5.6910437e-01
  2.7493700e-01
  6.8787789e-01
 -2.8196540e-01
  2.1699512e+00
  3.0606806e-01
  2.1786935e+00
 -1.2718259e+00
 -1.2476255e-01
 -1.3458425e+00
 -1.7953107e-01
  7.9046512e-01
 -1.2220881e-01
  6.8734491e-01
 -4.2625132e+00
 -1.4277850e-01
  8.3241546e-01
 -8.8851589e-01
  7.2964913e-01
 -1.7864641e+00
 -1.1008810e+00
  9.2212534e-01
  1.9654804e+00
  9.5605856e-01
 -8.6309326e-01
  2.7432466e+00
  9.3937004e-01
  3.7430468e-01
 -3.9021549e-01
  2.1654570e-01
  1.0528783e+00
  1.5757543e+00
  7.2037816e-01
  1.9635046e-01
 -2.4566009e+00
  3.1030920e+00
  1.8412611e+00
  2.8705332e-01
 -4.8601279e-01
 -7.3763214e-02
 -2.2777491e+00
  2.0729697e+00
 -2.3734798e+00
  1.3957810e+00
  1.3874126e-02
  8.8122618e-01
 -1.4378849e+00
  2.5080118e+00
 -1.7774515e+00
 -6.0223141e+00
  8.4681666e-01
 -5.1756966e-01
  1.1400177e-01
 -5.4174471e+00
  2.6780000e+00
 -5.2475572e-01
 -2.7459161e+00
  1.2740729e+00
 -7.7569383e-01
 -2.6062083e-01
  1.8752174e+00
 -3.6251709e-02
 -5.5235142e-01
  4.8363838e-01
  6.6127717e-01
  7.7836394e-01
  3.8289019e-01
 -1.0706941e+00
  6.3214260e-01
  6.7892082e-02
  6.9873649e-01
 -9.1475511e-01
  1.0676663e+00
  2.5789766e+00
 -3.3965287e+00
 -1.1616039e+00
  7.0589405e-01
 -7.0627612e-01
 -5.0652957e-01
  1.9172357e-01
  7.1900833e-01
  1.6233379e+00
 -3.2764691e-01
 -1.1100025e-01
  6.5255437e+00
  6.5088624e-01
  4.1831011e-01
  1.0732412e+00
  1.0051094e+00
  2.3015978e+00
  2.3019979e+00
 -3.6696696e+00
 -6.0026067e-01
 -5.3512740e-01
  2.0927374e+00
  1.8255950e+00
  6.4808005e-01
 -4.1341707e-01
 -1.3047721e+00
  1.7655660e+00
  5.6073606e-01
 -1.5069758e+00
 -7.2337842e-01
  2.4828751e+00
  1.6634858e+00
 -2.4245298e+00
  7.1556956e-01
  3.9668593e-01
  6.4039958e-01
 -5.3147497e+00
 -9.9898830e-02
  1.4566392e+00
 -1.3015556e+00
 -1.2745554e+00
  3.4422380e-01
  1.5258559e+00
 -8.1069076e-01
 -5.8908027e-01
  6.3651127e-01
 -1.8176489e+00
 -3.2413199e+00
  1.8254929e+00
  2.2217910e-01
 -7.9685187e-01
 -1.2111431e+00
 -9.1699429e-02
 -5.3716521e+00
  6.6480798e-01
  2.7238661e-01
 -1.0381464e+00
  4.2456360e+00
 -5.3494608e-01
  4.5987436e-01
  1.2316577e-01
  4.3004417e+00
 -2.6700745e+00
  8.1062520e-01
  1.3581841e-01
 -2.9564373e+00
 -1.2334437e+00
  1.3333348e-02
  1.2436384e+00
  5.4838407e-01
  9.1000623e-01
  6.3528341e-01
  1.2904991e+00
  9.9991298e-01
  1.0449816e+00
 -1.9925341e-01
  5.8584923e-01
 -1.4600563e+00
 -1.5363836e-02
  6.0863632e-01
 -4.5962822e-01
 -2.0760872e+00
 -6.6271716e-01
  1.8544139e+00
 -1.4605123e-01
 -1.7311805e+00
  1.1523104e+00
  8.7587476e-01
 -8.2252145e-02
  1.9678376e+00
  2.1789067e+00
 -2.2606542e+00
 -5.8528030e-01
  6.8661565e-01
  1.6004117e+00
 -9.0576845e-01
 -3.8081884e-01
  3.9627519e-01
 -2.5572360e+00
  1.1211832e+00
 -3.9870596e-01
 -1.1349210e+00
 -1.5599405e+00
  1.7973877e-03
 -1.5352788e+00
  7.1519816e-01
  4.4806859e-01
  6.9669336e-01
 -5.0309229e-01
 -1.5275128e-01
 -3.9872713e-02
  4.9465394e-01
  8.4741372e-01
 -6.5539712e-01
  5.4787087e-01
 -2.1602528e-01
 -2.2426279e-01
 -3.7007139e+00
  7.4767298e-01
  4.3925938e-01
  2.0507483e+00
 -4.9253616e-01
  1.1019533e+00
 -1.1883419e+00
 -1.4113885e+00
  2.1067665e+00
  5.5842406e-01
 -1.4947273e+00
 -2.5990317e+00
  5.4435188e-01
 -7.2662443e-01
 -1.1153570e+00
  4.7529584e-01
 -5.1632625e-01
  5.4912287e-01
  7.5727218e-01
  7.8153175e-01
  2.3819494e+00
  2.7910687e-02
  1.7909738e+00
  9.1093598e-04
  1.0365119e+00
 -1.5118403e+00
  4.7919291e-01
  7.8577745e-01
 -2.6812747e-01
  7.9899675e-01
  6.8424761e-01
 -5.6391221e-01
  1.8299614e-01
 -2.5570014e-01
 -3.3053955e-01
 -5.0248682e-01
  1.1542040e+00
  3.0257745e+00
 -4.3238411e+00
 -1.5843169e-01
  3.0314896e+00
  2.4456656e+00
  3.4996346e-02
  4.5172510e-01
 -3.7460690e+00
  3.2435534e+00
  1.0040866e+00
 -2.4872021e-01
  1.0611249e+00
  6.3815415e-01
 -3.3810856e+00
  3.1306341e-01
 -7.9202980e-01
 -6.1366963e-01
 -1.2910588e+00
 -8.9245296e-01
 -2.6642821e+00
 -6.2934989e-01
  3.1969094e-01
 -1.1499895e+00
 -2.3230945e-01
  1.6966102e+00
 -8.7993607e-02
 -4.8351195e-01
 -2.6543953e-03
  2.5861716e-01
 -7.1930967e-02
 -2.8710204e-01
 -1.7818482e-01
 -4.8591137e+00
 -2.8337908e+00
 -2.2335956e+00
 -3.3376362e+00
  7.0673448e-01
 -4.0012026e+00
 -3.8335154e+00
 -1.0372918e+00
 -1.6443828e-01
  3.9761446e-02
 -1.0071709e+00
  2.4791431e+00
  3.2723377e+00
 -6.4124525e-01
  3.1395814e-01
 -8.6306602e-01
  3.5959363e+00
 -3.3981252e-01
  1.9322531e+00
  2.7115977e-01
  5.1093910e-02
  1.6734358e+00
 -5.2201402e-01
  2.6536480e-01
  2.0586377e-01
  1.4453729e+00
 -1.9101565e+00
 -1.8275665e-01
 -4.6599358e-01
 -1.8678373e+00
 -2.3425937e+00
  5.4826736e-01
  4.0416962e-01
 -1.5133066e-01
  1.3336136e+00
 -1.0178150e+00
  8.1284583e-05
  1.0572220e+00
  1.6117115e+00
  2.7988992e+00
  7.3120636e-01
  4.3109936e-01
 -1.3908064e+00
  4.4269684e-01
 -3.3013937e-01
 -4.7247383e-01
  4.3108292e+00
 -9.1746563e-01
 -4.0477138e+00
  2.7774537e-01
  1.1084330e+00
  1.9415309e+00
  4.2940733e-01
  6.7477703e-01
  1.1315873e+00
  6.0918194e-01
  6.0064483e-01
 -1.9137169e-01
 -7.4927092e-01
  2.1816421e+00
 -7.2358352e-01
 -1.0276741e+00
 -5.6245250e-01
  2.1061385e+00
  1.1890742e+00
  5.1213908e-01
 -6.5024513e-01
  7.7796847e-02
 -5.7762587e-01
  3.4355855e-01
 -3.0369946e-01
 -8.6165166e-01
  1.6776993e+00
  5.3187686e-01
 -5.5488640e-01
 -8.6862212e-01
  1.1903057e-01
 -1.2571045e+00
 -4.0398676e-02
  1.9877799e-01
 -7.4078476e-01
  2.2388129e+00
 -3.5050547e-01
 -1.3226808e+00
  6.2113751e-02
 -3.0270152e+00
  1.8536466e+00
 -3.0751580e-01
  1.4035486e+00
  2.2195205e-01
  2.8323221e+00
 -3.4362862e+00
  2.3498235e+00
  1.1483309e-01
 -8.5382318e-01
 -5.3910857e-01
 -4.7581134e+00
  1.2126932e-01
 -7.8835171e-01
  1.3805379e+00
  3.5502574e-01
 -3.5044482e-01
 -2.0854290e+00
  5.0927222e-01
 -2.6160383e-01
 -3.1789356e-01
 -6.4686406e-01
 -2.0008729e+00
  2.1041472e+00
  2.0605474e+00
  3.5033995e-01
 -2.6548793e+00
 -3.5300586e-01
  1.1192677e-01
 -2.9645128e+00
  8.7673491e-01
  8.4883618e-01
 -2.2659943e+00
  1.1793044e+00
  9.1134727e-01
  1.4417186e+00
 -2.1110356e+00
 -3.2447276e+00
  8.7106109e-01
  9.3513012e-01
  2.8677227e+00
 -3.0650375e+00
 -5.2248389e-01
  5.8794534e-01
 -1.5021236e+00
  1.0064583e-01
 -1.2837057e+00
  3.7495160e-01
  1.4276505e+00
  1.6018532e-01
 -4.6257794e-01
 -9.2618209e-01
 -8.7981924e-02
  5.9529459e-01
 -2.5992450e-01
  6.2106948e+00
  2.9296830e+00
 -6.8241960e-01
  2.9151630e-01
  6.4534831e-01
  1.0486935e+00
  8.3279872e-01
 -3.2920537e+00
 -9.7534561e-01
  8.2250547e-01
  4.4090629e+00
  1.7854309e+00
 -4.7830567e+00
 -4.1909787e-01
 -2.2911975e+00
  2.8846252e+00
 -1.2771115e+00
 -2.1004550e+00
  1.8447034e+00
 -1.4911505e+00
 -1.1670924e+00
 -2.0436032e+00
  5.5398135e+00
 -1.4603560e+00
 -2.1635538e-01
  2.1898575e+00
  1.2296816e+00
  3.2556540e-01
  2.9454863e-01
 -1.0202357e-01
 -7.4560411e-02
 -6.8507791e-01
  3.3087432e-01
  5.8686996e-01
  5.7119116e-02
 -2.2829380e+00
 -1.8062230e+00
 -3.3555005e+00
 -1.3847094e+00
 -1.3100204e+00
 -3.7042752e-01
  2.4613423e+00
  2.4195654e+00
  8.2563810e-02
 -1.2858348e-02
  3.3872414e-01
  5.3173585e+00
  1.9511423e-01
 -3.2416016e-01
  9.5770001e-01
 -2.4943266e+00
 -1.7698957e-02
 -2.5225508e-01
  4.1118795e-01
  3.6568980e+00
 -4.8132181e-01
  9.8650798e-02
 -3.8432610e-01
  3.4707367e-01
 -1.9452964e+00
  4.4902601e+00
 -8.3784986e-01
  1.4010507e+00
 -1.2303779e-01
 -1.3067541e+00
 -2.4495112e-02
 -7.2157747e-01
 -8.2271028e-01
 -1.4690771e+00
  2.6268202e-01
 -1.4883308e+00
  2.0986988e-01
  5.8767629e-01
  7.1645778e-01
 -2.6894343e+00
 -9.0734914e-02
  2.3371196e-01
  1.9227346e+00
  3.8836336e-01
  7.4694812e-01
 -2.8728471e+00
  1.3870387e+00
 -1.2569931e+00
 -1.4737503e-01
 -1.9781612e-01
 -1.0031911e+00
 -9.0959805e-01
  5.8791119e-01
  1.3445944e+00
  2.9111552e-01
  6.1208355e-01
  8.3834171e-01
  7.1332240e-01
 -1.5346832e+00
 -1.7619928e+00
  7.7299088e-01
 -3.8664272e-01
  4.5644677e-01
 -8.2294887e-01
 -2.5812835e-01
 -1.7946422e-01
  3.5219342e-01
 -1.7151753e+00
  1.7153521e-01
  1.5992574e-01
  2.3071074e+00
  2.3859885e-01
 -1.3148139e+00
 -1.9445183e+00
 -1.2611903e+00
 -4.5589149e-01
 -1.4815602e+00
 -2.4614639e+00
  1.7944121e+00
 -1.0662227e+00
  2.1882656e+00
  5.5980939e-01
 -1.6997787e+00
 -1.9921525e+00
  1.2029418e+00
 -8.8951123e-01
  1.5374691e+00
  2.8994533e-01
  1.3117808e+00
  2.2098081e+00
  4.1032085e+00
  6.2492901e-01
  1.0653102e-01
 -8.3083487e-01
  6.0710347e-01
  6.6414319e-02
 -2.0103774e+00
  2.2888279e+00
 -2.3082390e+00
 -1.0191374e+00
  2.1933748e-03
  5.0432849e-01
  7.6727456e-01
 -2.5276535e-03
 -9.7610325e-01
  1.1967689e-01
 -6.0176504e-01
  7.5300920e-01
 -5.9305602e-01
  9.3634683e-01
  1.6865373e+00
 -2.6377767e-01
  6.2218022e-01
 -3.8879094e-01
  7.9149909e-02
  3.2777244e-01
 -2.0122113e+00
 -1.4917511e+00
 -2.9794374e+00
 -2.6516542e-01
  8.2730478e-01
 -4.1112738e+00
 -7.2336152e-02
 -1.3910552e+00
 -7.9870361e-01
 -3.9046395e-01
 -8.1799674e-01
  9.2013013e-01
 -9.3085355e-01
 -1.4956393e+00
 -1.2068828e+00
 -1.6249546e+00
  3.0075623e-02
 -5.1944524e-01
 -2.7365312e-01
  4.3004474e-01
 -4.4809532e-01
 -1.7734801e+00
 -5.0044017e+00
  1.9773158e+00
  3.8483171e+00
  1.3110943e+00
 -3.8588846e-01
 -1.5952107e+00
 -9.2090988e-01
  7.8205818e-01
 -1.8005811e+00
 -1.8979846e+00
 -9.1609800e-01
 -1.2492958e+00
  2.3057282e-01
 -1.4169393e+00
 -8.3537370e-01
 -6.5944630e-01
 -6.9181943e-01
 -3.0966423e+00
  2.6427429e+00
 -8.9442831e-01
  1.2279855e-01
  2.2172773e+00
 -2.5677695e+00
 -1.5987318e+00
 -1.5884506e+00
  6.8556488e-02
  2.2006974e+00
 -2.9791801e+00
  2.1356566e+00
 -2.3094246e+00
 -9.1740817e-02
  1.9450769e+00
 -1.2837742e-01
  2.2126723e-02
  1.3333695e+00
 -4.8010832e-01
  5.8259284e-01
  4.5609146e-01
  2.8766555e-01
 -1.2011024e+00
 -7.5368166e-01
  8.2236809e-01
  2.2660938e-01
  1.6651322e-01
  1.8412542e+00
 -5.8140260e-01
  7.5604928e-01
 -2.4277349e+00
  3.2786238e+00
  3.5146561e-01
 -6.9419086e-01
 -9.2690578e-04
  5.0113600e-01
 -1.5373847e-01
  1.0015544e+00
  7.6172656e-01
  3.8935915e-01
 -1.0325564e+00
  1.2992567e+00
  1.3027034e+00
  1.3794689e+00
 -5.8769953e-01
 -8.8989812e-01
  1.2672765e+00
 -6.2046146e-01
  2.9178634e+00
 -9.6993649e-01
 -3.9792702e-02
 -1.9681895e-01
 -8.5486668e-01
 -2.3624060e-01
 -5.5577165e-01
  1.4290551e+00
 -3.1415272e+00
  2.5628474e+00
 -3.0665293e+00
  1.4157014e+00
  4.6132240e-01
  2.6272583e+00
  9.9735850e-01
  1.0307522e-01
 -4.5687884e-01
  2.2206569e+00
  1.4536038e-01
 -3.3597956e+00
 -7.8993917e-01
 -2.6130360e-01
 -7.3877764e-01
 -2.6443071e+00
 -6.6322041e-01
 -1.1956061e+00
  1.2453506e+00
  6.4618990e-02
 -1.4355022e+00
 -2.1790156e+00
  7.0799559e-01
 -3.3832368e-01
  1.2889588e+00
  1.3233936e+00
  1.0664699e+00
  4.2615601e-01
 -2.0568733e+00
 -3.3896500e-01
 -5.3315395e-01
  2.5445902e-01
  7.3679365e-02
 -4.8157923e-02
  4.2565293e+00
  2.7139771e+00
 -2.4040446e+00
 -1.6922055e-01
 -2.1646273e-01
 -5.6858659e-01
 -1.5132998e+00
  8.6236316e-01
  4.0909937e-01
 -4.9396047e-01
  7.0847046e-01
 -1.6147294e+00
  8.1976593e-01
 -7.5980246e-01
  1.1284242e-02
 -1.8465644e+00
  5.9307098e-01
  2.6131167e+00
 -1.0469186e+00
 -3.3968353e-01
 -1.0539871e+00
 -7.4336249e-01
 -5.3636909e-02
 -2.3611352e-01
  1.7702854e+00
  1.0966259e+00
 -1.7208262e-01
 -2.3235069e-01
  1.9063997e-01
  2.1630375e-01
  3.8151782e-02
  2.5541008e-01
  3.9081964e-01
  1.9829452e+00
 -2.5182825e-01
  1.6904274e-02
 -3.8328786e+00
 -2.7141166e+00
 -1.2343249e+00
  1.9526042e+00
  6.0323377e+00
 -3.7411113e+00
  2.1436071e+00
 -2.7263505e+00
 -2.0640929e+00
  1.2736861e+00
  4.1840604e-01
  1.9307977e+00
 -1.1153902e+00
 -1.8313879e+00
 -2.0408294e+00
  1.2106601e+00
  3.9587149e-01
 -1.7434455e-01
  1.4162861e+00
  1.7684505e+00
  7.0317417e-02
  2.7085288e+00
 -1.3842156e+00
  1.1429231e+00
 -9.5462817e-01
 -2.6975980e+00
 -9.6879524e-01
 -3.1888586e-01
 -1.5317023e+00
 -2.4541499e-01
  9.8736382e-01
 -7.0928618e-02
  6.6175121e-01
  3.7217960e-01
 -5.0273061e+00
 -5.7124507e-01
 -2.5527184e+00
 -1.9714123e-01
 -2.1387038e+00
 -9.8522866e-01
 -6.7610139e-01
 -2.1477966e+00
 -9.1954404e-01
  1.7732789e-01
 -3.6090345e+00
  6.9810957e-01
  3.0355537e+00
 -3.0966002e-01
 -8.3171290e-01
 -6.6447151e-01
 -1.5892220e+00
 -1.5497152e+00
 -1.6697611e-01
  3.7758088e+00
 -1.8887049e+00
 -7.3510158e-01
  6.2543821e-01
 -1.7307147e-01
  1.7415007e+00
  1.6855562e+00
 -2.3682683e+00
 -6.8701610e-02
  2.4616550e-01
 -1.7948490e+00
  2.3481379e-01
  1.0280920e+00
  5.8508021e-01
 -4.6200324e-02
  1.0890499e+00
 -3.7139934e-02
  1.5961666e+00
 -7.1569586e-01
 -8.5760713e-01
 -3.6889706e+00
 -1.6123075e+00
 -9.0232521e-01
 -1.2443460e+00
  6.0383272e-01
 -6.8181455e-01
 -1.3212315e+00
  1.2895317e+00
  1.0343704e+00
 -1.4896196e+00
  5.3594893e-01
  8.2756567e-01
  4.1530910e-01
  1.2033424e+00
  9.1370159e-01
  2.7834206e+00
 -2.5272410e+00
  1.8814167e+00
 -1.2258052e+00
 -4.9610164e-02
 -1.1090069e+00
  1.0260915e+00
 -4.1582340e-01
  3.4551963e-01
  5.1024401e-01
 -2.9507947e+00
  3.0967134e-01
  5.9467530e-01
 -4.3085849e-01
  3.6638537e-01
 -1.4724158e+00
 -5.0019631e+00
 -3.0864632e+00
  3.8552160e+00
  3.7230182e+00
  4.3844752e+00
  2.9770234e-01
 -1.2861397e+00
 -1.3832080e+00
  1.6065208e+00
 -1.7516987e+00
  1.4882107e+00
  9.8494673e-01
 -2.2561526e+00
  2.6615605e+00
  2.2281079e-01
  5.5437064e-01
  2.2820837e+00
  2.1820300e+00
  6.8973312e+00
  3.7639763e+00
 -3.4151536e-01
  3.9167266e+00
  9.5337915e-01
  5.6882901e+00
 -1.0337323e+00
  1.9994842e-01
  2.4488816e+00
 -3.1053772e-02
 -4.8498720e-01
 -2.4222492e-01
  1.2784662e-03
  2.8258922e+00
 -3.3834875e-02
 -4.2077264e-01
 -3.1979612e-01
 -1.3078123e+00
  9.6048254e-01
  3.5635722e+00
  1.8246542e+00
  1.6464612e+00
  4.5831513e-01
 -1.7536136e+00
  5.4966635e-01
  7.7838838e-01
 -1.2986457e-01
 -8.9696282e-01
 -1.9242631e+00
 -1.8657801e+00
  8.0696583e-01
 -8.9336228e-01
  4.5446816e-01
  1.1072475e+00
 -2.3775504e+00
 -8.8896936e-01
  9.9522591e-01
  2.2758379e+00
  3.0227516e+00
  2.5645724e-01
 -1.3501246e+00
  2.4241051e-02
 -1.8345654e-01
 -3.9636285e+00
 -1.0513415e+00
 -8.1478751e-01
 -9.9467230e-01
 -5.2223307e-01
  4.2123768e-02
 -1.4072912e+00
  1.6802283e-01
  6.7146158e-01
 -5.3884268e-01
  7.8399843e-01
  2.1120355e+00
  1.4547864e+00
 -1.4725960e+00
  1.1177841e+00
  8.5563052e-01
  1.6062142e+00
  7.3175746e-01
 -3.8075707e+00
  2.0670471e+00
 -1.5350645e+00
  1.2024366e+00
  1.0151224e+00
 -2.8788488e+00
 -5.0972462e-01
 -1.4776573e+00
 -1.5527906e+00
  9.6136071e-02
 -2.1481347e+00
  3.6335044e+00
 -3.4645891e+00
 -1.2076150e+00
 -8.9242262e-01
  1.9266124e+00
  8.4018391e-01
  2.1039362e+00
 -1.8016083e+00
 -1.7815448e+00
  1.7924075e+00
  2.5001910e-01
  1.6066046e+00
  1.5886167e+00
  7.1135920e-01
  1.8732398e+00
 -8.0993789e-01
 -7.7938133e-01
 -1.3334432e+00
 -9.1397631e-01
  1.7172105e+00
  1.1861248e+00
 -4.0936068e-01
  1.1282845e+00
  7.7812344e-01
 -6.4178705e-02
  1.0676733e+00
 -3.7433708e-01
  1.0902129e+00
 -1.2166172e-01
 -8.1389174e-02
 -1.5703835e+00
  1.9353849e+00
 -1.2246025e+00
  2.3276787e-01
 -1.4272830e+00
  2.5815552e-01
  2.5223291e+00
  4.1597036e-01
  1.7067036e-01
  7.7912050e-01
  1.3849784e+00
 -4.2559900e-03
  7.3614645e-01
  2.5079837e+00
 -2.6635903e-01
 -3.5845268e-01
  8.9552504e-01
  7.3748332e-01
 -1.0476242e+00
  1.4537413e+00
 -5.0154561e-01
 -1.8660909e+00
 -1.6824576e+00
 -1.4336484e-02
 -3.5219522e+00
 -1.0230088e+00
 -2.2015083e+00
 -2.5663728e-01
  1.8153751e-01
  7.2896689e-01
  2.8071272e-01
  1.2746123e+00
  3.3184770e-01
 -8.2704669e-01
  3.1154579e-01
  4.1113260e-01
  8.3534789e-01
  8.7959725e-01
  1.9786102e-01
  7.3092502e-01
 -8.9589667e-01
  1.1365566e-01
 -1.3921210e+00
  4.3947613e-01
  2.8595206e-01
  4.6387711e-01
  3.5391289e-01
  3.2973278e-01
 -1.4887491e-01
  2.7515414e+00
 -4.7212130e-01
  5.3238243e-01
 -3.5718489e-01
  5.8163232e-01
 -3.6909965e-01
 -7.1415150e-01
  1.3438202e+00
  5.4549915e-01
  1.5699011e+00
  2.9417968e-01
 -2.0381320e-01
 -7.7937752e-01
 -2.4506018e+00
  1.5444012e-01
 -6.8986112e-01
  1.2618408e-01
  3.0712858e-01
 -4.3784693e-01
 -1.3019855e-01
 -3.2856562e+00
 -6.3771373e-01
  4.1742912e-01
 -1.6732107e+00
 -4.4027463e-01
  5.7140726e-01
  6.0029638e-01
  2.7759287e-01
  5.8913720e-01
 -1.5848448e+00
 -7.1492589e-01
 -6.5245199e-01
  5.4560244e-01
  5.5733782e-01
  6.4299077e-01
 -6.1052102e-01
 -1.7841200e+00
 -1.8872651e+00
 -6.1850792e-01
 -4.6626371e-01
  6.7034501e-01
  3.1575251e-01
 -4.5905027e-01
 -7.4536920e-01
 -7.6242876e-01
 -2.9221851e-01
  3.3185282e-01
  8.3975708e-01
 -3.9483356e-01
 -7.1082991e-01
 -3.4035817e-01
  4.5119303e-01
 -4.1472512e-01
  2.8891206e+00
  2.4657488e-01
 -1.2151561e+00
  9.8084784e-01
 -9.4131112e-01
 -2.3378548e-01
 -2.9841065e+00
 -1.9983238e-01
  2.0029642e+01
 -2.1220167e+00
 -3.5058734e+00
  3.0018988e+00
  1.4276818e+00
 -6.6946158e+00
 -2.5465055e+00
  3.0429623e+00
  5.4183216e+00
 -7.7619028e-01
 -3.4969118e+00
 -7.3016191e+00
 -1.7222154e+00
  2.2435218e-01
 -3.9881647e+00
  5.6196856e-01
  4.2658553e+00
  7.4812281e-01
  3.0529532e+00
  7.1321678e-01
  1.8191031e-01
  8.2629174e-01
 -7.4728590e-01
  2.8126163e+00
 -7.1271653e+00
 -3.1795254e-01
  4.5599957e+00
  5.0689363e+00
 -1.7577537e+00
 -1.3091168e+00
 -1.7473332e+00
  1.1585722e+00
 -7.1945560e-01
 -1.5810995e+00
 -1.0224848e+00
  3.5712593e+00
  3.8867342e+00
 -9.0598041e-01
 -2.1763539e+00
  1.1146898e+00
  6.4989619e+00
  5.4564571e+00
 -3.5949869e+00
 -6.0180402e+00
 -2.1255903e+00
  2.0921965e+00
  1.4204311e-01
  3.1496754e+00
 -4.4526401e+00
 -2.9995444e-01
  3.6035011e+00
  5.2702713e-01
  7.4935865e-01
  1.7975729e+00
  1.3592644e+00
 -1.8973451e+00
 -4.0920115e+00
  6.5448780e+00
  4.2657018e+00
 -2.9347482e+00
 -3.3474650e+00
 -1.6215163e+00
 -7.0250326e-01
 -8.5809392e-01
  1.2769005e+00
  8.3281412e+00
 -1.0009906e+00
 -4.9237709e+00
  1.6992534e+00
  4.6613688e+00
  4.7011173e-01
 -3.4016671e+00
 -1.5866208e+00
 -1.3080939e-02
  2.4487374e+00
  4.1649094e-01
 -3.2598469e-01
 -2.1584206e+00
  1.6456582e-01
  3.2323938e-02
  8.5349256e-01
 -1.2260854e+00
 -3.2826703e+00
 -4.5743780e+00
  1.9408752e+00
  1.5254618e+00
 -2.0270345e+00
  1.6816525e+00
  4.4447951e+00
  1.4934634e+00
 -2.3296809e+00
  4.1251560e-03
  4.1251560e-03
  4.1251560e-03
  4.1251560e-03
  4.1251560e-03
  5.2743582e-03
  5.2743582e-03
  5.2743582e-03
  5.2743582e-03
  5.2743582e-03
  4.1027446e-03
  4.1027446e-03
  4.1027446e-03
  4.1027446e-03
  4.1027446e-03
  2.3731452e-03
  2.3731452e-03
  2.3731452e-03
  2.3731452e-03
  2.3731452e-03
  1.4660439e-03
  1.4660439e-03
  1.4660439e-03
  1.4660439e-03
  1.4660439e-03
  7.1759237e-04
  7.1759237e-04
  7.1759237e-04
  7.1759237e-04
  7.1759237e-04
  5.9611837e-05
  5.9611837e-05
  5.9611837e-05
  5.9611837e-05
  5.9611837e-05
