nep4_zbl 1 C 
zbl 1 2
cutoff 6 5 163 106
n_max 4 4
basis_size 8 8
l_max 4 2 1
ANN 80 0
  2.1126440e+00
  3.4087861e+00
 -1.2415661e+00
 -1.8670031e+00
  2.3125865e-01
  1.2564367e-01
 -1.3590921e+00
  9.1924441e-01
 -6.5447628e-01
  6.0822763e-02
 -4.2190351e-02
 -1.7489003e+00
 -1.1536667e+00
  1.1770386e-01
  1.7927775e+00
 -7.0492369e-01
 -1.2988070e+00
 -1.3058711e+00
  9.3628699e-01
  1.8165523e+00
 -6.6822630e-01
  5.8949139e-02
  9.8870540e-01
  2.2812989e+00
 -5.6155062e-01
 -2.2728217e-01
 -1.1731145e+00
  1.2950887e-01
  7.4208426e-01
  9.1882151e-01
 -5.4828840e-01
  4.4754134e-03
  1.6705623e-01
 -1.5613614e-01
 -1.3483317e+00
  1.5139858e+00
  1.2610523e+00
  2.9338093e+00
 -1.1952174e+00
  1.0423896e+00
  2.0743821e+00
  1.8090901e+00
 -3.0333724e+00
  1.2661874e+00
 -1.2191370e+00
  2.1724689e+00
  9.4697922e-01
 -1.1324935e+00
  2.8377160e-01
 -8.7311262e-01
  2.0627935e+00
 -2.7907665e+00
 -1.7519634e+00
 -1.9069883e+00
 -4.0799513e-01
  3.9866900e-01
 -2.2027931e+00
  1.6723653e+00
  4.3310237e-01
 -7.0740509e-01
  9.0943784e-01
  3.1644322e-02
  3.2523603e+00
  1.8610523e+00
 -1.4657106e+00
  3.5398349e-01
 -6.8974417e-01
  1.5254526e+00
 -6.2263513e-01
 -1.0517479e+00
  1.6209653e-01
 -1.2733638e+00
  3.1974271e-01
 -1.4758310e+00
  1.4631385e+00
 -1.4445229e+00
  2.4292214e+00
  3.6729157e-01
 -5.4061759e-01
  4.2545763e-01
 -4.4699976e-01
  5.5662316e-01
  1.0265617e+00
  1.4781553e+00
  9.3740892e-01
  1.4065435e+00
 -2.2533676e-01
 -1.2115495e+00
  5.3266238e-02
  2.6011543e+00
  3.9527801e-01
  2.0643051e+00
  6.0857701e-01
  8.5938537e-01
  7.0203322e-01
 -1.0099701e-01
 -3.5473247e+00
  4.0533981e-01
  2.1595075e+00
 -7.0913559e-01
 -1.0005313e+00
 -9.2376328e-01
 -4.4293758e-02
 -2.7910218e-01
 -3.1969303e-01
 -2.1284106e+00
 -1.0614603e+00
 -1.6746213e+00
  1.0847687e+00
 -3.3238605e-03
 -2.2235544e+00
  2.3862666e-01
  3.0267549e+00
  3.9953965e-01
  5.5488533e-01
 -2.9973277e-01
  2.5834563e+00
  7.1572465e-01
  3.5206151e-01
 -2.3839243e-01
 -2.7494979e-01
  2.2763534e+00
  2.3975856e+00
  6.1524216e-02
 -3.3606154e-01
 -3.6104813e-01
  1.2210125e+00
  1.1149124e+00
 -1.2896478e+00
  3.2842523e-01
  1.2830318e+00
 -6.4879304e-01
 -2.4020140e+00
 -1.4485991e+00
  4.3184024e-01
  1.0184021e+00
  1.6862097e-01
  2.8331578e-01
  1.2100805e+00
  2.5695682e-01
 -4.9839199e-01
 -1.2871242e+00
  6.0115386e-02
 -7.9285949e-01
  4.8058891e-01
  2.1185748e-01
 -4.2766714e-01
  9.8573285e-01
 -9.7237521e-01
 -6.2863111e-01
 -1.9314952e-01
 -1.4761062e+00
 -8.3375847e-01
 -2.3656353e-01
  1.1852105e+00
 -1.8254562e-01
  7.1745920e-01
  2.5977239e-01
 -3.6289638e-01
  7.2443873e-02
  7.2731055e-02
  4.3309429e-01
  2.5703782e-01
 -3.1838953e-01
  8.6621171e-01
  9.9228060e-01
  4.2985392e-01
 -8.3804823e-02
  4.0241319e-01
 -4.7360495e-01
  1.5032898e-01
  1.5781008e-01
 -1.6888531e-01
 -2.3223941e-01
  5.6007797e-01
 -1.7870077e+00
 -2.4339733e+00
 -1.1440725e-03
  9.4438255e-02
  1.7463990e+00
 -2.0346890e-01
  3.1811181e-01
  2.1495721e+00
 -3.5859621e-01
  3.5545013e+00
 -2.0671716e+00
 -8.5084385e-01
  2.5584855e+00
 -1.1640010e+00
  1.5927408e+00
 -6.0880232e-01
  1.7829933e+00
  2.9484031e+00
  6.4814723e-01
  2.9881661e+00
  4.3396607e-01
 -9.2367697e-01
 -3.7541413e-01
  1.4863576e-01
  1.7123408e+00
 -3.0768044e+00
  1.9533380e+00
  3.8897809e-01
  1.6394584e-01
  6.2613720e-01
 -4.9214831e-01
 -2.3894082e-01
  9.1526687e-01
  2.4420464e-01
 -1.3513588e+00
 -1.0837871e+00
 -3.9298326e-01
  1.0363345e+00
  1.3842022e+00
  2.4311209e+00
 -3.6286905e+00
 -2.1186614e-01
  3.2865065e-01
  2.9252258e-01
  1.5851557e+00
 -6.7518443e-01
 -1.7491581e+00
  1.4723943e-01
  1.0082469e+00
  1.8782227e+00
 -4.3250537e-01
 -1.5327053e+00
 -1.2337536e+00
  2.5994329e+00
 -1.6453640e+00
 -3.4474617e-01
 -2.6538911e+00
 -1.3483671e+00
  1.9463886e+00
  8.2903188e-01
 -1.1250824e+00
  7.5352091e-01
  3.4618133e-01
  1.7503526e-02
 -1.1255334e-01
  7.4127279e-02
  4.6843490e-01
 -8.9926578e-02
 -2.0211659e-01
 -8.2287395e-01
 -4.8781791e+00
 -5.6763029e-01
 -4.5353022e-01
  1.9106406e-01
  4.2937241e+00
 -3.4606411e+00
 -2.7504733e+00
  1.3882697e+00
 -8.5291827e-01
 -2.1339262e-01
  1.7831402e-02
 -1.8108567e+00
  1.2856128e+00
  7.1752496e-02
  1.0730332e+00
  4.2034590e-01
 -2.0707214e+00
 -1.1080879e+00
  2.3564641e+00
  1.3311843e+00
  1.0537395e+00
  6.2872910e-01
 -1.3551762e+00
 -8.8256061e-01
  1.6667640e+00
 -6.9974923e-01
 -1.5005387e+00
 -2.2913033e-01
 -2.8541481e-01
 -1.5038350e-01
  2.6010105e-01
 -1.9925365e-01
 -2.7662399e-01
 -2.2447166e-01
 -3.3055753e-01
 -7.2230828e-01
  2.0852764e-01
 -1.9064897e+00
  2.5708606e+00
  2.2744513e-01
  2.3502676e+00
  4.6914703e-01
  1.3263679e+00
 -7.2539949e-01
  4.6804123e+00
  5.9523612e-01
  1.2690227e+00
 -5.3169350e-03
  1.6289434e+00
 -8.3208865e-01
 -4.4265890e-01
 -2.3987378e-01
  1.0994892e-01
 -1.1346861e+00
 -1.1550941e+00
  1.8950772e+00
 -3.3475220e-01
  8.8819855e-01
 -9.1722637e-02
  8.9412880e+00
  8.9644589e-02
  1.4938097e+00
 -8.4247088e-01
  9.0509355e-01
  1.3196532e+00
 -5.8983110e-02
 -5.9967434e-01
  1.0961425e-01
 -7.0310420e-01
  6.9381380e-01
  3.5936327e+00
 -3.1263602e-01
 -7.7166647e-01
 -1.3044016e-01
 -1.9710833e+00
 -8.5716343e-01
  1.5124181e-01
  7.1425694e-01
  1.2644938e-01
 -9.9690789e-01
  3.0726349e-01
 -1.5869586e+00
 -3.6495349e-01
  1.1770464e+00
 -1.7606441e+00
 -1.8656576e+00
 -1.3932956e+00
 -1.8061070e-01
 -2.1423757e+00
  4.8836195e-01
  8.4503347e-01
 -9.4275403e-01
  3.2038349e-01
 -3.7233958e-01
 -2.5544002e+00
  2.5713634e+00
  4.3054783e-01
 -5.5929595e-01
 -8.5231900e-01
 -8.5762694e-02
 -6.9251031e-01
  5.7013810e-01
 -5.7378453e-01
 -1.3498519e-01
  2.0187424e-01
  1.4590151e+00
  2.0166488e+00
  7.4067199e-01
 -1.8860844e-01
  7.1078859e-02
  1.6863085e+00
  4.3095264e-01
  3.8915274e+00
  7.3173799e-02
 -2.8728130e-01
 -4.3542269e-01
  1.1077916e-01
  6.8122542e-01
  9.0951288e-01
  1.0472043e+00
  8.5150594e-01
  6.0054982e-01
 -3.4467757e-01
 -5.7584208e-01
 -9.4590080e-01
  3.1993170e+00
 -1.0749133e-01
 -9.3105227e-01
 -4.0493116e-02
  6.5407318e-01
  1.3566819e+00
  3.9964095e-01
  1.3636991e-01
  3.0658848e+00
  1.0854487e+00
  5.6572717e-01
 -1.3346025e+00
  2.7143210e-01
 -1.7044815e-01
  1.8675973e-01
  1.8840857e+00
 -3.3284995e-01
 -7.7151382e-01
  4.2365827e-02
  1.2251066e+00
 -4.3028218e-01
 -4.8456118e-03
  1.0177823e+00
  9.9690747e-01
  1.0679324e+00
  4.9751589e-01
  2.9445902e-01
  9.3095332e-02
  4.3646774e-01
  8.1459934e-01
 -1.4187182e+00
  6.2778634e-03
 -3.2874757e-01
 -5.6161880e-01
 -1.0006418e+00
  1.1743826e+00
 -2.2909887e+00
  1.3623712e+00
  6.8267956e-02
 -4.2030063e-01
  7.9216003e-01
  3.1980398e+00
 -5.6878042e-01
  7.2078973e-02
  6.7647874e-01
  1.1389266e+00
 -4.3520033e-01
  2.8905994e-01
 -3.4728703e-01
 -2.4246515e-03
  5.2423900e-01
 -8.1716128e-02
  2.2490621e+00
  4.4967508e-01
 -1.5522586e+00
 -2.9051268e-01
  5.6325054e-01
 -1.2737013e+00
 -1.4076709e+00
  1.7560142e-01
  5.1588947e-01
 -2.5278988e-01
 -1.7145775e-01
  6.8182433e-01
  3.9223394e-01
 -3.0261168e-01
 -1.6311990e+00
  4.5181400e-01
 -4.4589576e-01
 -6.2000024e-01
  1.6373852e+00
 -1.2979048e+00
 -3.5238162e-01
 -1.3874232e+00
 -1.0149883e+00
  7.7232987e-01
 -1.3294590e+00
 -1.8544778e-01
 -5.3135067e-01
  3.4995401e-01
  2.2442171e-01
  4.8667185e-02
 -1.0866830e-01
  3.6890513e-01
 -2.9954700e+00
 -2.8863108e-01
 -9.1952169e-01
  1.3302501e+00
  5.8646190e-01
  1.9791039e+00
 -1.7970542e+00
  3.4236521e-01
  5.6381095e-03
 -4.1434130e-01
  8.0484706e-01
  9.9232000e-01
  9.4257730e-01
 -2.2367089e+00
  7.7119567e-02
 -1.6556797e+00
 -1.1815072e+00
 -1.8915713e+00
 -7.3038006e+00
  1.1935982e+00
 -1.4504372e+00
  8.5424352e-01
  9.5023453e-01
 -6.3233727e-01
 -2.1090513e-01
  5.4562479e-01
  1.6688648e-01
 -2.9567406e+00
  1.0567085e+00
  1.1647346e-01
  6.2179691e-01
 -6.9203120e-01
 -2.0171103e-01
  3.6340412e-01
 -8.8210493e-01
 -4.3554467e-01
  1.1507401e+00
 -7.9781592e-01
 -4.9316925e-01
  2.8891793e-01
 -1.0485746e-01
 -2.4735823e-01
 -4.0293255e-01
 -1.0600523e+00
  5.8865750e-01
 -3.7959829e-01
 -1.2901169e+00
 -1.2969029e+00
 -5.7056373e-01
  7.6544654e-01
  9.9173683e-01
 -1.2018542e-01
 -4.2776337e-01
  3.1684372e-01
  1.4788642e+00
  1.3092808e-01
  6.0081452e-01
 -9.7722769e-01
 -1.9757871e-02
 -7.3327583e-01
  5.3684261e-02
 -1.1902601e+00
 -9.2210084e-01
 -2.9627708e-01
 -3.7361357e-01
 -7.8394932e-01
 -1.1953689e-01
  1.1210344e+00
 -4.0737826e-02
 -8.2128972e-01
 -1.1115664e+00
  7.4096304e-01
 -1.7731263e-01
 -1.7396599e+00
  5.8984268e-01
  1.8811880e-01
  2.0996739e-01
 -1.5409189e+00
 -1.3287483e+00
  1.8568699e+00
  3.1496024e-01
  2.4635570e+00
  3.0248871e+00
 -3.3768027e+00
  2.7589450e+00
 -1.1296854e-01
 -2.5157609e+00
  1.6272388e+00
  2.8060007e-01
  1.7378708e+00
 -4.6872661e-01
 -2.7709908e+00
  1.7926109e+00
 -9.7127658e-01
 -6.0677141e-01
 -7.2291356e-01
  7.6198131e-01
 -2.5468457e+00
  1.3814385e+00
 -2.7411303e-01
 -8.1767911e-01
 -4.7272158e-01
 -5.7228917e-01
 -6.2844825e-01
 -6.1715668e-01
 -5.0477666e-01
 -4.0384617e-01
  1.8764191e+00
 -2.7320473e+00
 -2.5548551e+00
  1.9034910e+00
 -4.4954336e-01
 -3.1945363e-01
 -1.8675429e+00
  1.5328251e-01
  1.0122135e+00
 -5.9357047e-01
  1.3516670e+00
 -7.3647308e-01
  6.5592343e-01
  1.6781312e-01
 -3.0286053e-02
  2.3636521e-01
 -9.4278353e-01
 -8.6027420e-01
  5.9766328e-01
  1.9887652e-01
  1.3626353e+00
 -2.4775542e-01
  1.2888182e+00
 -3.3153674e-01
 -6.7343974e-01
  1.2799821e+00
 -2.3195837e-01
  3.2820857e-01
 -8.5907239e-01
 -5.6783307e-01
  4.5510361e-01
 -9.9403983e-01
  4.4836995e-01
 -6.7232049e-01
 -3.1861958e-01
  1.2387323e+00
 -2.3357794e+00
  9.9515682e-01
 -2.2374978e+00
 -2.4563315e+00
  4.4966763e-01
  6.7484999e-01
 -1.8476750e-01
  9.6171814e-01
 -3.6889348e+00
  2.9781110e+00
  1.0351909e+00
 -6.2319702e-01
  1.6274825e+00
 -2.0026097e+00
 -2.2281389e+00
  5.5192292e-01
 -6.5708816e-01
 -2.4932480e+00
 -2.6307700e+00
 -9.0293723e-01
  8.3661892e-02
 -5.7854152e-01
 -5.5594993e-01
 -2.0864279e+00
  6.3408560e-01
 -1.3674649e+00
 -4.5220292e-01
  1.4504029e+00
 -8.2998526e-01
  4.3781856e-01
 -3.8593104e-01
 -1.1427752e-02
 -2.7676895e-01
 -1.3235496e+00
  4.7414801e-01
  1.1468805e+00
  6.4199322e-01
 -1.2416533e+00
  1.0853635e-01
 -1.4263740e-01
  1.4277176e+00
 -1.1259325e+00
 -9.3182677e-01
 -1.8463163e-01
  5.7295598e-02
 -7.3168270e-02
 -6.1123848e-01
 -3.6823279e-01
  4.3807906e-01
 -8.2168567e-01
  7.8090048e-01
 -4.0285876e-01
 -7.9971665e-01
  4.1559950e-01
  1.6779104e-01
 -7.0484030e-01
 -9.0344459e-01
 -1.0845696e+00
  4.0124577e-01
 -5.1393139e-01
 -3.5188434e-01
 -1.3060846e+00
  1.2067144e+00
  5.0752670e-01
  5.8325785e-01
  8.1808597e-01
 -1.7215827e-01
  1.8944703e-01
 -5.7605952e-01
  6.0277843e-01
  6.5908037e-02
 -1.2688702e+00
 -4.6020710e-01
 -4.3764323e-01
  1.4077288e+00
 -4.4734749e-01
  1.2125013e-01
 -2.0390631e-01
  1.1359211e-01
 -2.4018769e-01
 -1.2905537e+00
 -1.4848331e-01
 -8.1253159e-01
 -1.6864847e-01
  4.3976521e-01
  8.8210797e-01
  3.4144372e-01
  1.5213655e+00
 -1.2501982e+00
 -9.8005944e-01
  1.3385323e+00
 -9.9770024e-02
 -3.6650795e-01
 -1.3044316e+00
 -1.8370946e-01
  5.6119591e-02
  1.5890099e+00
 -1.7223972e+00
 -3.6308643e-01
 -2.4515745e-01
  1.9103985e+00
  6.7652613e-02
  3.3032149e-01
 -9.0084672e-01
 -9.1210741e-01
  3.5943678e-01
 -6.0250151e-01
 -6.9972038e-01
 -6.1995542e-01
 -7.5982279e-01
 -7.1111256e-01
 -5.1505309e-01
 -6.3161212e-01
 -3.8197577e-01
  1.5894241e+00
  1.8213137e+00
  6.9303602e-01
 -1.4505539e+00
  5.0001334e-02
 -5.5103809e-01
  4.6207303e-01
  8.5487866e-01
 -5.1493722e-01
 -1.4560293e-01
  1.7303754e+00
 -2.7938432e-01
  6.3241076e-01
 -7.6078278e-01
  2.6179671e-01
 -8.5078901e-01
  2.9532415e-01
 -4.3949762e-01
 -4.1474593e-01
  6.6286868e-01
  2.7072546e-01
  5.5382580e-01
 -1.0660739e+00
 -2.4567255e-01
  2.9516761e+00
  7.7314532e-01
 -8.8140732e-01
 -1.0372534e+00
  9.6964735e-01
 -1.6868924e+00
  4.3817085e-01
  2.0086415e+00
 -4.9990353e-01
 -3.2861868e-01
 -2.9721501e+00
 -1.7995530e-01
 -5.8488429e-01
 -5.5466461e-01
 -1.7048833e+00
 -2.3718095e-01
 -9.2812526e-01
 -2.9046252e+00
 -2.4658936e-01
 -5.3897715e-01
  1.2270634e+00
 -5.1629293e-01
  4.2371079e-02
 -8.1429100e-01
 -2.7551057e+00
  2.2083694e-02
  2.7044353e-01
  1.3280095e+00
 -5.4507160e-01
  2.1424900e-01
 -6.5150017e-01
 -9.6080607e-01
  5.0362885e-01
 -3.6253494e-01
 -6.8497688e-01
  9.5040113e-01
  4.2229503e-01
  2.1268382e+00
 -9.2726660e-01
 -2.3527372e+00
  5.7440668e-01
  6.2170394e-02
 -3.9238998e-01
 -4.0719098e-01
  9.6493065e-01
 -2.6398107e-01
  1.4685161e-01
 -1.8827136e-01
  3.5100186e-01
 -1.8815169e-02
  1.3420193e+00
 -9.7043610e-01
  8.8419080e-01
  1.9805479e-01
 -2.6938593e+00
 -4.6562403e-01
 -8.5364437e-01
 -5.3923762e-01
 -1.0060878e+00
  1.1136122e+00
 -2.4105342e-01
  9.7289497e-01
 -3.0565700e-01
 -1.9351691e+00
  3.5002643e-01
 -3.8635436e-02
  8.1993943e-01
  3.6209428e-01
  6.1436361e-01
  1.0276153e+00
  1.0439354e+00
  2.2465570e-01
 -3.6611612e+00
 -1.8631334e+00
  3.5923000e-02
 -1.6456361e+00
  9.9806696e-01
  3.4806803e-01
 -1.2932160e-01
 -2.2250772e+00
 -2.1332114e+00
  6.1751944e-01
 -9.9173719e-01
 -3.8173786e-01
 -8.3671534e-01
 -1.3108981e+00
 -5.8264647e-02
  9.6608675e-01
 -1.0194622e+00
  3.5264632e-01
 -5.9528524e-01
 -4.8682329e-01
  1.7483578e+00
  2.8965795e+00
  2.4489354e-01
 -2.5447748e+00
  1.7696972e+00
  2.8756997e-01
  1.1645542e+00
 -3.2180363e-01
 -3.8343164e-01
  7.7713907e-01
  4.2125037e-01
  5.2630222e-01
 -7.4535531e-01
 -4.2191043e-01
 -8.7372315e-01
  2.1204300e+00
  7.9835367e-01
  3.4016579e-01
 -2.3053906e+00
 -2.9757006e+00
  2.4504256e+00
  2.5017026e-01
 -5.2627721e+00
 -2.2511350e-01
  2.7411320e+00
  1.2043977e+00
 -1.0420451e+00
 -4.3140531e+00
  1.6282942e+00
 -1.3870847e+00
  1.4641598e+00
 -2.7711391e-01
  1.1261820e+00
 -1.5569836e-02
  7.8521705e-01
 -2.5251767e-01
 -6.6929668e-01
  1.2250123e-01
  1.9907622e+00
 -3.7489676e-01
 -3.9908451e-01
  6.8171561e-01
  2.5015671e+00
  2.7384667e-02
  1.0198129e+00
  7.0261151e-01
  3.7004429e-01
  4.2086312e-01
  2.6558640e+00
 -1.4237848e-01
  3.0064039e+00
  2.2148535e+00
 -3.1149504e+00
 -1.4751037e+00
  2.5863175e+00
 -6.4933550e-01
  4.7742605e-01
  7.0356846e-01
 -2.2451994e+00
 -1.7334818e+00
 -1.5189269e+00
  1.3361095e+00
 -1.5649848e+00
 -2.2869153e-01
  1.0771633e+00
 -6.3598901e-01
 -9.1565639e-01
 -2.7805206e-01
  9.2779833e-01
  9.2209339e-01
 -1.2310188e+00
  5.8613546e-02
 -2.6495559e+00
  9.7246662e-02
  1.7477785e+00
 -1.2525503e-01
  1.9791585e-01
 -2.7147603e-01
 -3.2587081e-01
  2.8423485e-01
 -3.8450614e-01
  1.4055230e-01
 -1.7878577e+00
 -2.3152502e+00
  1.5263183e+00
  4.8393151e-01
 -2.0159764e+00
  1.0452850e+00
 -4.3588489e-01
  1.2073067e+00
  1.9527851e+00
 -2.4995737e+00
  5.9896028e-01
 -1.3207670e+00
  1.7841806e+00
  3.7356835e-02
  1.4230001e+00
 -2.5159812e-01
 -8.9360493e-01
  1.7058107e+00
  1.7162429e+00
 -2.7862078e-01
 -1.0466850e+00
  1.7744734e+00
  5.3028327e-01
  6.1838919e-01
 -1.0531548e-01
  1.1003484e+00
 -7.8368169e-01
 -9.1362566e-01
 -2.2877569e+00
 -2.7915680e-01
  7.3097438e-01
 -1.2031022e+00
 -2.4861768e-02
  2.6684082e-01
 -2.2609506e-02
  1.1137252e+00
 -9.9680680e-01
  9.9490976e-01
 -3.6556983e+00
  1.3023649e+00
  1.2537529e+00
 -3.9074752e-01
 -9.4100362e-01
 -2.7586782e-01
 -1.4365962e-02
  1.6543808e+00
 -2.1533728e+00
 -8.4597456e-01
 -6.0059816e-01
  8.7277424e-01
  1.1427797e+00
 -1.1144939e-01
 -2.8284810e+00
  2.4492490e+00
 -2.2416051e-01
  1.0634776e-01
 -6.0337669e-01
  5.3298908e-01
 -1.9008168e+00
 -3.5854506e-01
  5.9055418e-01
 -9.6226197e-01
  6.5593040e-01
  3.3214698e+00
  1.3178827e+00
 -7.1945000e-01
 -9.6531436e-02
 -1.0703429e-01
 -4.9253339e-01
 -7.2327036e-01
 -5.0707805e-01
 -7.2915071e-01
 -4.7072798e-01
  3.9674675e+00
  1.0771641e+00
  4.0623158e-01
 -8.6694986e-01
 -3.7288413e+00
 -1.1136060e+00
  6.3920248e-01
  2.2631338e+00
 -4.1918073e+00
  2.6403317e-01
  1.0707875e+00
 -8.1740499e-01
  4.9056525e+00
 -9.4616300e-01
 -6.2646425e-01
  2.2600446e+00
 -1.1493008e-01
  1.0232689e-01
  1.6394564e+00
  9.3926334e-01
  2.8699246e-01
 -1.4666524e+00
  1.5898474e+00
 -1.3771443e+00
 -7.7078944e-01
 -8.2206351e-01
 -7.0405647e-02
  1.2794997e+00
  5.9245232e-02
 -1.9914247e-01
  3.4814683e-01
 -4.3683571e-01
 -2.8735813e-01
 -2.5726626e+00
 -1.8396060e+00
 -1.2226068e+00
 -2.9939425e+00
  3.0098462e+00
  7.4774021e-01
 -5.3024399e-01
 -1.7522355e+00
 -1.3282049e+00
  3.7516072e-01
  4.4437978e-01
  1.3674725e+00
  5.8716500e-01
 -3.9190298e-01
  6.4099789e-01
 -4.6599224e-01
  1.6397731e+00
  1.1410686e+00
 -1.5780197e+00
 -1.7205474e-01
 -1.1805371e+00
  6.7507222e-02
  1.5927837e+00
  2.2795727e+00
  7.1866935e-01
  1.5882167e+00
  2.5898898e-01
  1.9051185e-01
  4.6504802e-01
  2.8731498e-01
  6.0681534e-01
 -5.9160483e-01
  6.7505461e-01
 -1.6932808e-02
 -4.2906111e-01
 -1.8733894e+00
 -2.2997420e+00
  4.4331014e-01
 -1.2607188e+00
 -3.5379446e-01
  1.4384326e+00
 -8.0823374e-01
 -4.4343334e-02
  3.9182463e-01
  1.2612768e+00
  2.8213048e-01
  5.2513152e-01
  2.9976673e+00
 -1.4989318e+00
 -1.5856590e+00
 -3.8740842e-03
 -1.6491362e+00
  1.7006533e+00
 -2.0165892e+00
  7.1310535e-02
  1.4480950e+00
 -1.3204785e-01
  8.1993526e-01
  2.5018035e-02
 -3.3775673e+00
 -3.2419405e+00
 -4.4933504e-01
  9.4064152e-01
 -1.3406923e+00
  1.5047048e-01
  4.6295020e-01
 -1.6512395e-01
  4.8061460e-01
  3.8106972e-01
  2.3900251e-01
 -1.4556249e+00
  1.4412344e-01
  2.5309272e+00
  4.3091175e-01
  3.9291874e-02
  1.5758971e+00
  2.4528687e+00
 -2.4979379e+00
  1.5637701e+00
  9.1977343e-02
  3.1573493e+00
 -4.8068833e+00
  1.0670196e+00
  8.3342326e-01
 -3.6693856e-01
  9.1174620e-01
  2.8245184e-01
  3.6257383e-01
 -3.6776975e-01
  2.4738646e-01
  1.0700433e+00
  1.4039615e+00
 -1.3520522e+00
 -1.3093039e+00
  1.0747616e+00
 -2.3314583e+00
 -1.0345086e+00
  8.3986357e-02
 -3.4220774e+00
  7.1841055e-01
  5.7377387e-02
  8.7730235e-01
  5.2976584e-01
 -2.2848617e-01
 -8.8655822e-02
 -4.5637402e-01
  5.5864632e-01
 -4.2600447e-01
 -1.1709788e+00
 -2.1535535e+00
 -1.9059674e+00
  1.9438721e+00
  3.2049218e-01
 -3.3886862e-01
  9.9094588e-01
  1.2140110e-01
 -1.9718746e+00
  5.4259974e-01
  1.6249818e-01
 -4.2347106e-01
  6.2066966e-01
 -2.9210844e+00
  1.4238786e+00
  1.7684079e+00
 -2.4826167e+00
 -1.9338284e+00
 -1.2478803e-01
  7.4986023e-01
 -9.6651129e-02
 -7.2664899e-01
 -1.2707590e+00
  1.7768475e+00
  4.4695103e-01
 -4.3835144e-02
  4.4637436e-01
 -3.3629087e-01
  3.5637832e-01
 -2.4788281e-01
 -1.9902009e-01
  4.7685236e-01
  2.2837313e-01
 -1.1765884e+00
 -5.7935095e-01
 -2.1621549e+00
  4.4582894e-01
 -4.1664623e-02
 -7.9247117e-01
 -6.1448401e-01
 -2.9750389e-01
  8.9463824e-01
 -3.5856897e-01
  2.5121784e-01
  5.2316618e-01
 -2.7219337e-01
 -4.2267874e-01
  7.7347726e-01
  1.4199451e+00
  1.0806940e-01
  1.3272034e-01
 -6.9443859e-02
 -7.6070231e-01
 -2.2635195e+00
 -7.3698801e-01
  1.7048939e+00
  1.2703860e+00
  2.5070455e+00
 -1.2763164e+00
 -4.7754580e-01
 -5.4201478e-01
 -1.6439081e+00
 -2.6246473e-01
 -3.1083184e-01
  8.9426035e-01
 -4.9999185e-02
  8.5491352e-02
  6.4442152e-01
  1.2463669e+00
 -1.4354722e+00
 -2.5108898e+00
 -5.4340470e-01
 -2.0843542e-01
 -4.0736505e-01
 -6.9067377e-01
  5.2621633e-01
  4.1468439e+00
  3.5070105e+00
  3.6034995e-01
 -2.6928377e+00
  9.6204269e-01
  1.4986132e+00
 -1.4119877e+00
  4.8153493e-01
  1.4671215e+00
 -5.0629206e-02
  6.4466774e-02
 -1.3987577e-01
 -1.0662966e+00
  5.0247943e-01
  1.0197409e+00
  1.3871573e+00
 -1.3332716e+00
  1.8853571e+00
  1.9110477e+00
 -5.9836864e-01
  5.2489686e-01
 -3.2376599e-01
 -6.0626698e-01
  2.0335339e-01
 -9.9643052e-02
  1.2330248e+00
  1.0336701e+00
 -2.3430274e+00
 -5.4214972e-01
 -7.5607933e-02
 -1.3858205e+00
  9.7448403e-01
 -2.5700867e+00
 -2.3869811e-01
  8.2682896e-01
  1.1325326e+00
 -3.9846539e-01
 -1.2970804e+00
 -2.2895181e+00
  7.2425359e-01
  3.3543916e+00
 -4.9343565e-03
 -8.6820745e-01
  2.0895258e-01
 -1.0373451e-01
  7.3383078e-02
 -1.3141257e+00
 -7.0617604e-01
 -4.9242508e-01
  4.1333108e+00
  1.2702852e+00
 -6.6457832e-01
 -1.6426067e+00
 -1.0735586e+00
 -1.0809001e-03
 -1.6851504e+00
  3.4451538e-01
  5.4057613e-02
 -1.0971447e+00
  3.1266692e-01
  3.6558017e-01
  2.6689464e-01
 -3.0742684e-01
 -2.5009758e+00
  3.1881636e-01
  6.5226227e-01
  1.3910693e+00
  3.6347312e-01
  7.6378304e-01
  1.4294567e+00
 -1.1065403e+00
  1.1206092e+00
 -4.0151414e-01
  1.9663577e+00
  7.0149519e-02
 -1.5830981e+00
  3.2012534e-01
 -4.2652011e-01
  1.9771506e+00
  1.1200122e+00
 -8.2622492e-01
  6.5155751e-01
 -4.8917130e-01
  1.1152966e+00
 -1.7845056e+00
 -4.1436154e-01
  2.6064390e-01
 -2.0379300e+00
 -1.9148351e+00
 -5.2995920e-01
  1.3651727e-01
  3.1168890e-01
 -5.2619934e-01
 -8.9010030e-02
 -5.1364198e-02
  2.1886706e-01
  1.2277805e+00
  6.1800921e-01
 -1.4148312e+00
  6.8569466e-02
 -2.5129368e+00
 -1.3897120e+00
  8.2234943e-01
  8.0558395e-01
  2.1856473e-01
 -7.6233929e-01
 -2.4565098e+00
 -2.8418109e-02
  1.4186355e+00
 -1.0384010e+00
 -1.0289964e-03
 -3.9486921e-01
 -2.8095495e-02
 -3.7050581e+00
 -1.3225365e-01
  2.4784815e+00
 -2.3106363e+00
  1.7109131e+00
  7.7783096e-01
 -2.7257624e+00
 -6.8531126e-01
 -1.0063993e+00
 -5.1215535e-01
 -6.2668544e-01
 -2.0527551e+00
  2.0005374e+00
 -9.9405441e-03
 -4.1364163e-01
 -3.9255020e-01
  1.4275129e+00
  5.7564890e-01
  7.8944258e-02
 -1.3775633e-02
  1.8516266e-01
  6.0401911e-01
 -1.0635976e+00
 -1.0212703e+00
 -7.5642169e-01
 -1.7132537e-01
  8.3472751e-02
  7.9892749e-01
  2.8992960e+00
  3.0786424e+00
 -1.4699765e-01
 -7.4044836e-01
  5.8446199e-01
  6.1409301e-01
 -1.3823508e+00
  2.3246028e-02
 -4.4417897e-01
  9.8856568e-01
 -3.7408167e-01
  3.4488803e-01
 -1.5521465e-01
  7.6305181e-01
  9.4420892e-01
  6.9419211e-01
 -8.2576883e-01
  1.3098161e+00
  3.1241110e-01
  2.6975626e-01
 -1.9567075e-01
  4.2225560e-03
 -2.2112900e-01
 -1.1348057e+00
  2.1351136e-02
  1.0472834e+00
 -1.8769481e+00
 -1.5170199e+00
 -3.6290450e+00
 -3.5846486e+00
  1.7853687e+00
 -1.8691394e+00
  7.4027672e-02
  1.4702550e-01
  1.9977852e+00
  1.7330440e+00
 -6.9075221e-01
  1.2152903e+00
 -1.9241117e+00
  3.0796474e-01
 -7.5302690e-01
  1.2441427e+00
 -1.5745177e+00
 -9.4445395e-01
  3.1896099e-01
  1.2162991e+00
 -3.0528469e+00
  2.7856573e-01
 -5.6962795e+00
 -7.4462563e-01
 -1.4336989e+00
 -1.7277921e+00
  9.6878618e-01
 -1.8898690e-01
  4.5551187e-01
  5.8705993e-02
  1.6512258e+00
  6.2056410e-01
  9.0744615e-02
  4.8942688e-01
 -4.9652424e+00
 -2.3597331e+00
 -2.1742244e+00
 -5.5878401e-01
  2.1381736e+00
 -1.3897835e+00
 -3.4729145e+00
  7.2118845e+00
 -9.3397981e-01
  1.3729399e-01
  1.9005967e+00
  1.0336949e+00
 -1.0453700e-01
  2.4500186e+00
  1.2882055e+00
  2.6508915e+00
 -1.1456548e+00
  2.4974680e+00
  1.2014583e+00
  1.5352023e+00
  1.6450934e+00
 -1.5609903e+00
  7.0200354e-01
  3.2245347e+00
 -1.5131748e-01
  7.4175894e-01
 -9.6331716e-01
 -1.1899036e+00
 -1.6757268e+00
 -1.6006106e+00
 -6.4567703e-01
  6.4087564e-01
 -4.7677502e-01
 -2.7143803e-01
  1.3482533e+00
 -1.0509101e+00
  1.2519130e+00
 -1.9972321e+00
 -1.2320392e+00
  1.3711456e+00
  1.3125086e+00
  6.8990433e-01
  5.5326217e-01
 -1.4492341e+00
  1.5246090e+00
 -6.4212298e-01
  8.5254394e-02
 -4.9253979e-01
 -3.0795544e-01
  5.3169054e-01
  5.8294988e-01
 -4.0908891e-01
  5.3301287e-01
 -3.1550008e-01
  1.1680354e-01
  1.3654431e+00
 -4.4908166e-01
  1.0456532e-01
  1.8077323e+00
 -5.9176737e-01
  4.4527754e-01
  1.4308138e-01
 -5.8763570e-01
  2.8343368e-01
  1.7280103e-01
 -9.5978725e-01
 -4.1427454e-01
  1.3356668e-01
  4.7393373e-01
 -6.0677975e-01
  3.1086290e+00
  8.4224623e-01
 -1.0828601e+00
  1.6897523e+00
 -5.7173365e-01
 -2.0075808e-01
 -1.0576922e+00
  2.7913885e+00
 -8.5462987e-01
 -3.8068384e-01
 -4.4960132e-01
  2.6217768e+00
  1.7966200e-01
  5.2793348e-01
 -9.6013719e-01
 -4.6805066e-01
  7.5273895e-01
  1.8322794e+00
 -1.1513866e+00
 -3.4851078e-02
  7.4919069e-01
  8.3758575e-01
  4.6503931e-02
 -8.1946075e-01
 -1.2952567e+00
 -2.4269009e-01
 -1.6368772e+00
 -1.9044743e+00
 -4.3657508e-01
 -1.0169660e-01
  2.2403586e+00
  1.6125488e+00
 -8.3262718e-01
  1.1735113e+00
  7.6448870e-01
 -2.1272421e+00
  1.7828016e+00
 -2.7347343e+00
 -1.7582206e+00
 -7.6938117e-01
  1.2276387e+00
  2.1151173e-01
  7.2681028e-01
 -1.1593496e+00
  3.6753520e-01
  3.5010555e+00
 -3.5436554e+00
 -1.0611000e+00
  6.0022420e-01
 -4.7756848e-01
 -5.3591174e-01
  5.1875854e-01
 -1.5018510e+00
  5.7168913e-01
 -1.3723634e-01
  6.9263840e-01
 -1.9493745e-01
 -9.1474742e-01
  1.1514592e+00
  5.1505935e-01
 -2.9345353e+00
  2.0871205e+00
  1.5827225e+00
  6.0361540e-01
  2.7403805e-01
  5.1750135e-01
  5.3551599e-02
  6.9010001e-01
  4.7331330e-01
 -1.6694695e-01
  3.6537650e+00
  5.5887151e-01
 -2.5306799e+00
 -4.4983956e-01
  1.1517301e+00
 -2.1015503e+00
  3.0541536e-01
 -1.5399140e+00
  6.9970477e-01
  2.6054099e+00
  2.8524547e+00
 -7.5393254e-01
 -3.0780530e-01
  1.8849063e-01
  1.0566923e-01
 -1.5290015e+00
 -1.5067302e+00
 -6.7074102e-01
 -7.8975193e-02
  1.2184669e+00
  8.4555995e-01
 -1.6826307e+00
 -1.2808726e+00
 -6.8299532e-01
  1.2610335e+00
 -2.8270906e-01
  1.2245891e+00
 -5.9395891e-01
  5.3456563e-01
  5.9834540e-01
 -6.5499890e-01
 -1.2767193e+00
 -3.7575689e-01
  5.2239174e-01
 -2.2190446e-01
 -1.4841723e+00
 -2.9973917e+00
  5.3082430e-01
 -2.0432498e+00
  7.8077978e-01
  1.8307801e+00
  2.6321652e+00
 -1.5283519e+00
 -8.8915825e-01
  5.9470024e-02
  2.3948972e+00
 -2.0664399e+00
 -2.9926629e+00
 -6.2116677e-01
 -8.1664234e-01
  4.1472969e+00
 -1.9401094e+00
  1.5856659e-02
  1.5363320e+00
 -4.2003369e-01
  9.1096985e-01
 -1.4618806e+00
 -1.1351650e+00
  2.2308083e+00
  1.0551228e-01
 -3.9934318e+00
  3.6788981e+00
 -3.0276433e-01
  2.4410787e+00
  2.1590085e+00
 -1.4528388e-01
 -6.1330098e-01
  1.0319333e+00
  4.1764888e-01
 -1.5532725e+00
  3.9838548e+00
  9.0430421e-01
 -4.6961675e+00
 -3.7105896e+00
  1.8791124e+00
 -1.3196280e+00
 -5.4700410e-01
  6.7748368e-01
 -5.4219961e-02
  1.1529686e-01
 -3.4946454e-01
 -4.4020429e-01
  6.9006062e-01
  8.0711353e-01
 -4.3211237e-01
  8.3062696e-01
  8.5284072e-01
 -5.9317154e-01
 -5.9011984e-01
  1.2889633e+00
 -7.1510261e-01
 -1.9585239e+00
  1.0814660e+00
  7.1586120e-01
  2.0808172e-01
  2.9070661e+00
 -7.5167739e-01
  8.8062041e-02
 -3.6828491e-01
 -1.7768916e-01
 -3.8951200e-02
 -1.1197590e+00
 -2.4399744e-01
  1.1531842e-01
  5.0181508e-01
 -1.8787427e+00
 -2.2878385e-01
  6.7278063e-01
 -5.6342357e-01
  9.1063172e-02
  7.6866037e-01
 -4.0173274e-01
  1.4256923e+00
 -2.1652439e-01
 -1.2600896e+00
  9.6557215e-02
 -2.2908177e+00
  7.1659178e-01
  2.3740020e-01
 -4.9910225e-02
  4.0650928e-01
 -9.0277505e-01
 -1.8020742e-01
  8.4086454e-01
 -6.5378344e-01
  1.5380872e+00
  1.3140020e+00
  1.2774993e+00
 -7.4018633e-01
 -5.9809774e-01
 -2.7289922e+00
 -1.9234039e-01
 -4.7154449e-02
  9.4051439e-01
 -2.3333916e-01
  6.2400979e-01
  4.7155520e-01
  6.6207987e-01
 -2.5782275e-01
 -1.1426693e+00
 -3.5796981e+00
  7.5157583e-01
 -8.6388648e-01
  4.6032491e-01
  1.8714927e+00
  5.4442602e-01
  2.2229495e+00
 -2.4229898e+00
 -8.7576762e-02
  7.0611733e-01
  2.9316875e-01
  1.1142722e+00
 -7.0005858e-01
 -1.4272138e-01
  1.2649755e+00
  1.0182930e-01
  4.3410511e+00
 -1.5843503e+00
  2.3254161e+00
 -2.1558218e+00
  1.9189014e+00
  2.0764482e+00
  4.1789752e-01
  8.3851117e-01
  2.1165444e-01
  1.3273147e+00
  1.6727786e+00
  8.2363009e-01
  7.8912181e-01
 -1.2630117e+00
 -6.4214908e-02
  1.1527102e+00
  9.0999626e-02
 -8.1690885e-02
  5.3275055e-01
  1.3724753e+00
  1.1689321e+00
 -1.4286233e+00
 -1.7478900e-01
 -2.0551460e+00
  3.6964092e+00
 -5.5487376e-01
 -2.7187917e-01
 -6.9896799e-01
  7.0693046e-01
 -1.8481823e+00
 -2.4448571e+00
 -3.6670536e-01
  1.0468575e-01
  1.7270768e-01
 -7.3633057e-01
  3.8987735e-01
  4.3832636e-01
  3.6137495e-02
 -1.6306448e+00
 -1.9878720e+00
  2.1762683e+00
 -1.1345704e+00
  9.8760468e-01
 -9.8837179e-01
 -6.3570690e-01
  1.3702272e+00
  4.4451150e-01
  7.3839509e-01
  4.8998228e-01
 -6.1599129e-01
  1.2059581e-01
 -1.8436915e-01
  4.3059927e-01
 -5.2708328e-01
  6.3755989e+00
  1.3437389e-01
 -1.4812316e+00
 -4.8919407e-01
 -1.7884382e+00
  4.5217686e+00
  9.2361778e-01
 -1.1849822e+00
 -1.2068420e-01
 -3.8612988e+00
  6.9508541e-01
  1.3220971e+00
 -3.1515191e+00
 -1.3028039e+00
 -2.1481509e+00
  1.4744442e+00
 -1.7136673e+00
 -1.2549870e+00
 -1.4937754e+00
 -1.6079293e+00
 -4.6521530e-02
 -1.7966826e+00
  2.4019353e-02
 -2.8119640e+00
 -1.7063994e+00
 -2.0584941e+00
 -1.3336235e+00
  1.3708677e+00
 -4.9288017e-01
 -2.3078544e-01
  7.3606664e-01
 -2.0362997e-01
 -1.9885932e-01
  3.7084943e-01
  1.1595604e+00
 -1.7166243e+00
 -2.6227174e+00
 -1.5773355e+00
 -2.6385999e+00
  2.0433159e+00
  2.0705483e+00
 -7.3812741e-01
  1.2724801e+00
 -1.1020935e-01
 -4.9050382e-01
  1.2377881e+00
 -1.0189135e+00
  3.9846697e+00
 -1.6303723e-01
  1.3892071e-02
  1.2579627e+00
  5.1927453e-01
  1.5062686e+00
 -7.3574156e-01
  6.7395061e-01
  6.1459404e-01
  7.9229660e-02
  3.7816674e-01
  1.5584625e+00
 -3.9100400e-01
  7.8915000e-01
  1.1180095e-01
  1.0351687e-01
  2.7436334e-01
  9.4403654e-01
  4.4716004e-01
 -4.6952668e-01
 -2.1062860e-01
  1.9834925e-01
 -5.9200627e-01
 -2.6133341e-01
  7.7148873e-01
  1.5329363e+00
  1.4124421e+00
 -1.6004153e+00
 -3.5925695e-01
  2.6168662e-01
  2.4358115e+00
 -1.8058671e-01
  3.2638404e-01
 -8.5369903e-01
  3.1544058e+00
  1.4754826e+00
  2.7602816e-01
  3.4021645e+00
 -1.3680731e+00
 -4.9205673e-01
 -1.8851030e+00
  4.3902853e-01
  6.7715597e-01
 -2.9209886e+00
  2.8499358e+00
  1.2506102e+00
  1.4908665e+00
 -1.3672873e+00
  2.0920391e+00
  3.8232863e-01
 -2.8233526e+00
 -1.2749258e-01
 -8.8147247e-01
 -4.6920505e-01
 -2.5613400e-01
 -4.2828974e-01
 -4.8576927e-01
 -5.9472799e-01
  1.7232589e+00
  1.3803309e+00
 -1.2876953e-02
 -2.0405040e+00
  2.2845876e+00
 -1.9840685e+00
 -3.4187629e+00
  6.0874736e-01
 -4.4864383e+00
 -2.0897441e+00
  3.3139694e+00
  4.0171022e+00
  1.1455916e+00
  9.7888327e-01
 -1.5959647e+00
  3.0798764e+00
  1.2004399e-01
  6.5154845e-01
 -5.0936796e-02
  2.2353103e+00
  2.1774580e+00
 -6.1260575e-01
  1.0851873e+00
 -8.5188419e-01
  9.9364781e-01
  5.9752923e-01
 -3.4611008e+00
 -3.6846051e-01
  2.9239225e-01
 -9.5234446e-02
 -1.3942105e+00
 -1.4414176e-01
 -8.6209454e-02
 -7.9780614e-01
  8.5007137e-01
  4.1856337e-01
  1.0655026e+00
 -4.1553295e-01
 -4.0931538e-02
  2.5280147e+00
 -1.4518375e-02
  8.6089784e-01
  2.9112530e-01
  1.2526953e+00
  1.3997446e-01
 -3.9808500e-01
  1.2477098e+00
 -1.4536831e+00
  4.7726044e-03
 -1.6937225e+00
 -1.4858421e+00
  1.2782779e+00
 -6.5523094e-01
  1.5504955e+00
 -2.5132963e-01
  1.6582920e-01
  5.6340945e-01
  3.4730899e-01
  6.8785840e-01
 -4.7968253e-01
  2.1813180e+00
  3.8161573e-01
  2.1792858e+00
 -1.2318351e+00
 -1.1676303e-01
 -1.3536788e+00
  2.2908079e-02
  7.7952379e-01
 -1.4228782e-01
  8.4731162e-01
 -4.4967303e+00
 -1.6698650e-01
  8.4975475e-01
 -8.9272982e-01
  7.4096447e-01
 -1.8361912e+00
 -9.9015641e-01
  9.5161831e-01
  1.9663980e+00
  9.5658189e-01
 -8.6405462e-01
  2.7433434e+00
  8.5949689e-01
  3.5201144e-01
 -3.8850614e-01
  2.1611299e-01
  1.0548596e+00
  1.5819169e+00
  7.2995263e-01
  2.4210626e-01
 -2.4566133e+00
  3.0963895e+00
  1.8413454e+00
  3.0488381e-01
 -4.8428088e-01
 -2.2842359e-02
 -2.1739831e+00
  2.0508139e+00
 -1.6915785e+00
  1.3892055e+00
  2.8037520e-02
  8.8118565e-01
 -1.8303844e+00
  2.5056684e+00
 -1.7677939e+00
 -6.1045208e+00
  8.4685129e-01
 -4.8037183e-01
  1.0223577e-01
 -4.9277158e+00
  2.7718899e+00
 -5.2541387e-01
 -3.8519018e+00
  1.1498996e+00
 -8.1769192e-01
 -2.8123695e-01
  1.8723228e+00
 -3.1265154e-02
 -5.5250162e-01
  4.8208809e-01
  5.8578676e-01
  6.7578453e-01
  3.2111463e-01
 -1.4263476e+00
  6.1060518e-01
  1.6064879e-02
  6.7739558e-01
 -9.1163766e-01
  1.3226831e+00
  2.7421873e+00
 -3.3696294e+00
 -9.2624414e-01
  8.2664943e-01
 -6.2241983e-01
 -5.3578722e-01
  5.8787107e-01
  9.0841913e-01
  1.6155419e+00
  1.8754765e-01
  1.0223238e-01
  6.5242853e+00
  6.0950041e-01
  4.0094391e-01
  1.0568470e+00
  1.0063317e+00
  2.2970679e+00
  2.3160818e+00
 -3.6442974e+00
 -8.0407846e-01
 -5.4904819e-01
  2.0937107e+00
  1.8285586e+00
  6.2349129e-01
 -3.7799326e-01
 -1.1761380e+00
  1.7653935e+00
  5.5925363e-01
 -1.5129323e+00
 -7.0766270e-01
  2.4182074e+00
  1.6679428e+00
 -2.5712900e+00
  6.5744150e-01
  4.6756196e-01
  6.8488413e-01
 -5.3004308e+00
 -2.9930037e-02
  1.3984267e+00
 -1.1509033e+00
 -1.2588494e+00
 -4.0985036e-01
  1.3471260e+00
 -1.0411115e+00
 -5.9037519e-01
  2.6041083e-02
 -1.7922454e+00
 -3.2301373e+00
  1.8227003e+00
  2.0054252e-01
 -7.0386839e-01
 -8.0657369e-01
 -3.9950725e-01
 -5.3814607e+00
  6.6033447e-01
  3.0297998e-01
 -1.0579401e+00
  4.2669549e+00
 -4.8647642e-01
  5.1909459e-01
 -1.2717416e-02
  4.2621579e+00
 -2.6726778e+00
  8.1648713e-01
  1.0317434e-01
 -2.9493208e+00
 -1.1710031e+00
  2.0365283e-02
  1.2372247e+00
  4.5366374e-01
  9.1213638e-01
  6.4988339e-01
  1.3913705e+00
  1.0365095e+00
  1.0372207e+00
 -2.0801400e-01
  4.5327494e-01
 -1.7929012e+00
  4.6228802e-01
  6.0834908e-01
 -6.2470144e-01
 -2.0904691e+00
 -6.6732299e-01
  1.8515050e+00
 -7.2651237e-02
 -1.7283517e+00
  1.1444054e+00
  8.7739456e-01
 -9.0255089e-02
  2.4881315e+00
  2.2244022e+00
 -2.3029816e+00
 -5.9369487e-01
  6.7415154e-01
  1.6042137e+00
 -9.8141307e-01
 -4.0948704e-01
  3.8885722e-01
 -2.5808039e+00
  1.1802796e+00
 -3.7118950e-01
 -1.1461123e+00
 -1.6166931e+00
 -1.3629146e-01
 -1.4953250e+00
  6.8761545e-01
  4.4411272e-01
  4.3833658e-01
 -6.1549944e-01
 -7.1480110e-02
 -1.7154914e-01
  4.7283921e-01
  7.9298604e-01
 -5.9554404e-01
  4.2421234e-01
 -3.2277334e-01
 -2.2628216e-01
 -3.6810927e+00
  8.0559123e-01
  5.2674943e-01
  2.0516567e+00
 -4.4731238e-01
  9.7764468e-01
 -1.2260537e+00
 -1.4733903e+00
  2.1039684e+00
  5.8606595e-01
 -1.4947548e+00
 -2.7470844e+00
  5.5371511e-01
 -7.2361088e-01
 -1.1100752e+00
  3.9934632e-01
 -5.2334499e-01
  7.2878629e-01
  6.6898376e-01
  5.3238505e-01
  2.2949066e+00
 -1.5977308e-02
  1.4624233e+00
  5.3956034e-03
  1.0347022e+00
 -1.5129175e+00
  4.7525251e-01
  4.6626836e-01
 -4.0080214e-01
  5.1451272e-01
  6.4946556e-01
 -4.7609338e-01
  6.7687012e-02
 -7.1021158e-01
 -3.3961824e-01
 -4.1358882e-01
  1.1368219e+00
  2.7017124e+00
 -4.3428869e+00
 -1.1259439e-01
  3.0203338e+00
  2.5046110e+00
  4.0729019e-01
  4.3346602e-01
 -3.7635489e+00
  3.2526994e+00
  1.0037267e+00
 -3.2323220e-01
  1.0541120e+00
  6.3783753e-01
 -3.3932273e+00
  3.1329212e-01
 -8.0225021e-01
 -6.1386687e-01
 -1.2960093e+00
 -9.4705057e-01
 -2.6992462e+00
 -8.3980048e-01
  4.1257149e-01
 -1.0448184e+00
  7.4056685e-01
  1.7683443e+00
 -3.5576195e-01
 -6.2261081e-01
 -6.4795590e-03
  2.9873282e-01
 -1.9921191e-01
  4.9692154e-02
 -2.1206631e-01
 -5.1035542e+00
 -2.8121469e+00
 -2.2272489e+00
 -3.3829606e+00
  7.0481700e-01
 -3.9953880e+00
 -3.8213987e+00
 -1.0378146e+00
 -2.0572184e-01
  4.1957173e-02
 -1.0903769e+00
  2.4062631e+00
  3.2237275e+00
 -6.2960654e-01
  3.1006330e-01
 -8.6177546e-01
  3.5578017e+00
 -3.1901342e-01
  1.9603508e+00
  2.5249219e-01
  2.7347760e-02
  1.6755387e+00
 -5.5946374e-01
  2.1969490e-01
  6.0378510e-01
  1.3220166e+00
 -1.5818071e+00
 -2.5131029e-01
  9.4880357e-02
 -1.9324559e+00
 -2.3462703e+00
  4.2995057e-01
  3.9135465e-01
  2.9029393e-01
  6.2874508e-01
 -1.0155294e+00
  6.9564930e-03
  1.0496672e+00
  1.5844117e+00
  2.7635212e+00
  7.0256758e-01
  9.3003595e-01
 -1.2802900e+00
  4.0024847e-01
 -2.5837395e-01
 -4.9898723e-01
  4.3044062e+00
 -8.4812760e-01
 -4.0632796e+00
  2.6874405e-01
  1.1014223e+00
  1.9422321e+00
  3.8906458e-01
  6.6787517e-01
  1.1250585e+00
  5.8488810e-01
  5.9477037e-01
 -1.5854040e-01
 -7.6679683e-01
  2.1883471e+00
 -7.4238282e-01
 -9.8732746e-01
 -6.7476058e-01
  2.0713217e+00
  1.1975214e+00
  5.1139557e-01
 -7.7739304e-01
 -3.3597577e-01
 -7.9950845e-01
  3.5001212e-01
 -2.7417767e-01
 -8.2561624e-01
  1.8347486e+00
  5.3654373e-01
 -5.4332834e-01
 -8.2006669e-01
  2.6453710e-01
 -1.8882926e+00
 -7.0172779e-02
  2.1141040e-01
 -6.9913942e-01
  2.2423718e+00
 -4.1900697e-01
 -1.4040933e+00
  4.7938041e-02
 -3.0324750e+00
  1.8568760e+00
 -3.0748239e-01
  1.5883195e+00
  2.3240016e-01
  2.6464860e+00
 -3.4517272e+00
  2.3525944e+00
 -3.6189383e-01
 -8.5421586e-01
 -4.1426331e-01
 -4.6811595e+00
  2.0298959e-01
 -9.7046453e-01
  1.2061301e+00
 -3.4766090e-01
 -4.0985262e-03
 -2.3868048e+00
  4.9400190e-01
 -7.3894608e-01
 -2.1482429e-01
 -5.8880198e-01
 -2.0089650e+00
  2.1007428e+00
  2.0594361e+00
  2.9885358e-01
 -2.8310952e+00
 -1.0749235e-01
  6.5302730e-02
 -2.0330939e+00
  8.7455720e-01
  8.4922087e-01
 -2.0428815e+00
  1.2022884e+00
  7.0231503e-01
  1.4216592e+00
 -2.1053081e+00
 -3.1717849e+00
  8.5960692e-01
  9.2852473e-01
  2.8301475e+00
 -3.0794532e+00
 -4.7994998e-01
  2.2346601e-01
 -1.5497286e+00
  7.6290332e-02
 -1.2989442e+00
  3.7341407e-01
  1.3347167e+00
  3.7369314e-01
 -4.6288189e-01
 -1.2858058e+00
  4.6462353e-02
  4.2316154e-01
 -5.1842481e-01
  6.2768302e+00
  2.9148328e+00
 -5.8619606e-01
  2.9019451e-01
  7.0913589e-01
  1.1511835e+00
  9.5962280e-01
 -3.4172008e+00
 -1.0248137e+00
 -3.2713380e-02
  4.4219718e+00
  1.7846903e+00
 -5.2048993e+00
 -4.2042825e-01
 -2.3324664e+00
  2.8812699e+00
 -1.2688812e+00
 -2.0999975e+00
  1.8358920e+00
 -1.4915310e+00
 -1.0566803e+00
 -2.0290740e+00
  5.3575940e+00
 -8.5309362e-01
 -2.2898930e-01
  1.8565090e+00
  1.2203906e+00
  3.2489392e-01
  1.6953412e-01
 -7.1433175e-01
 -1.1054391e-01
 -5.6226605e-01
  3.5734475e-01
  5.8692104e-01
  3.3454537e-01
 -2.3117638e+00
 -1.8209262e+00
 -3.3513060e+00
 -1.4039627e+00
 -1.3391756e+00
 -3.5051304e-01
  2.5952535e+00
  2.4195867e+00
 -7.8380182e-02
  1.3535072e+00
  3.4252307e-01
  5.2854171e+00
  1.8840654e-01
 -3.5329279e-01
  9.5533311e-01
 -2.5015261e+00
 -1.7063074e-02
 -3.4990451e-01
  3.7584195e-01
  3.6829400e+00
 -3.8499349e-01
 -2.1955814e-02
 -4.5056361e-01
  8.0155647e-01
 -1.9642806e+00
  4.6528788e+00
 -6.7580700e-01
  1.3965464e+00
 -1.6781439e-01
 -1.6656390e+00
 -3.9769673e-01
 -2.4793735e-01
 -1.1119517e+00
 -1.4932785e+00
 -6.5318954e-01
 -1.4861789e+00
  1.4189619e-01
  5.1508254e-01
  7.3814243e-01
 -2.5614495e+00
 -1.3271679e-01
  3.9772108e-01
  1.9481702e+00
  1.6189465e-01
  7.2186655e-01
 -2.8743386e+00
  1.3987504e+00
 -1.2575976e+00
 -1.0115356e-01
 -1.9586560e-01
 -1.0068142e+00
 -8.6258578e-01
  5.8062100e-01
  1.3476050e+00
  3.1473950e-01
  6.8941349e-01
  8.1280720e-01
  6.9856894e-01
 -1.5954857e+00
 -1.7776195e+00
  8.3394486e-01
 -3.3482033e-01
  5.1604760e-01
 -6.7434639e-01
 -4.9440709e-01
 -2.0637041e-01
  3.6372417e-01
 -1.7855349e+00
  1.7005996e-01
  4.4791883e-01
  2.3260896e+00
  4.4093671e-01
 -1.3133490e+00
 -1.9991246e+00
 -1.4215146e+00
 -4.4326639e-01
 -1.7471317e+00
 -2.7761900e+00
  1.9687530e+00
 -1.0803726e+00
  2.1845934e+00
  5.2223408e-01
 -1.6934228e+00
 -1.9936885e+00
  1.0916272e+00
 -9.3906999e-01
  1.5245086e+00
  2.2907354e-01
  1.3477618e+00
  2.2016511e+00
  4.1173720e+00
  6.1702532e-01
 -1.4177312e-01
 -1.0880922e+00
  6.5362498e-02
  2.1726349e-01
 -1.6771917e+00
  2.2902479e+00
 -3.0614905e+00
 -1.0197823e+00
 -2.1195714e-01
  3.5396966e-01
  6.4258671e-01
  2.6271829e-01
 -9.7948158e-01
  1.4214125e-01
 -5.9366572e-01
  7.6718909e-01
 -5.0806761e-01
  9.3528348e-01
  1.6458385e+00
 -1.6261359e-01
  5.8572894e-01
  1.2096214e-01
  1.3756844e-01
  3.6755079e-01
 -2.0130112e+00
 -1.4922922e+00
 -2.9793017e+00
 -2.8982794e-01
  8.1552505e-01
 -4.0311947e+00
  2.5783001e-02
 -1.3896440e+00
 -7.9525810e-01
 -3.9886463e-01
 -8.2110924e-01
  9.2051661e-01
 -9.5786989e-01
 -1.4629794e+00
 -1.1844844e+00
 -1.6692185e+00
  3.6471903e-02
 -1.1148524e+00
  2.4901871e-01
  1.0413417e+00
  2.5422208e-02
 -1.7651491e+00
 -5.0042553e+00
  1.9804906e+00
  3.8517034e+00
  1.2311145e+00
 -3.4113187e-01
 -1.7250315e+00
 -8.8242990e-01
  7.5776434e-01
 -1.8930359e+00
 -1.9924206e+00
 -1.0255504e+00
 -1.2473580e+00
  2.5838712e-01
 -1.4043897e+00
 -8.2143682e-01
 -8.7562978e-01
 -4.4518641e-01
 -3.0994475e+00
  2.6414647e+00
 -8.8531309e-01
 -6.7525798e-01
  2.2106566e+00
 -2.5668073e+00
 -1.5986899e+00
 -1.5907798e+00
  7.6870874e-02
  2.2393534e+00
 -3.0231812e+00
  2.1375861e+00
 -2.4134407e+00
 -4.4176977e-02
  1.8893307e+00
 -2.1232612e-01
 -8.9229739e-01
  1.3292086e+00
 -5.9587044e-01
  6.1824298e-01
  4.6085784e-01
  2.9382119e-01
 -1.0466045e+00
 -8.9586300e-01
  7.7885693e-01
  1.2319135e-01
  4.4676811e-01
  1.9290515e+00
 -6.3476473e-01
  8.3942968e-01
 -2.2844653e+00
  3.3253725e+00
  3.9818919e-01
 -6.8737841e-01
  1.8264598e-01
  4.8394880e-01
 -4.0129606e-02
  1.0713042e+00
  8.6559093e-01
  4.3331823e-01
 -1.0274224e+00
  1.3715647e+00
  1.3248186e+00
  1.6217930e+00
 -6.1677557e-01
 -9.4871145e-01
  1.0173761e+00
 -6.1196196e-01
  2.3891494e+00
 -8.9390451e-01
  8.5983604e-01
 -4.9204490e-01
 -9.3400949e-01
 -3.5122243e-01
 -9.2977166e-01
  1.3611434e+00
 -2.8908246e+00
  2.5660982e+00
 -3.1333537e+00
  1.4204879e+00
  2.0249087e-01
  2.3124323e+00
  1.0118903e+00
 -6.1884034e-01
 -5.3989369e-01
  2.2201450e+00
  1.4668843e-01
 -3.3621819e+00
 -1.0712202e+00
 -4.4237655e-01
 -7.4261147e-01
 -2.5163410e+00
 -4.2761222e-01
 -1.1979319e+00
  1.2314225e+00
  6.4076461e-02
 -1.4430317e+00
 -2.1319118e+00
 -7.7737528e-01
 -3.8541859e-01
  1.2207805e+00
  1.3274056e+00
  1.0209557e+00
  7.5404823e-01
 -1.8261899e+00
 -1.9974709e-02
 -3.3057499e-01
  9.3662554e-01
  4.3097767e-01
 -2.5540924e-01
  4.1255026e+00
  2.6982741e+00
 -2.3913102e+00
 -1.5461010e-01
 -2.0697384e-01
 -5.9875882e-01
 -1.5768895e+00
  1.0380826e+00
  4.1356635e-01
 -3.9260027e-01
  1.3706927e+00
 -1.6146197e+00
  8.9783430e-01
 -9.6089870e-01
  2.2252819e-01
 -1.8375183e+00
  6.0579211e-01
  2.6277444e+00
 -1.1431789e+00
 -3.3829537e-01
 -9.8632461e-01
 -7.1349311e-01
  4.7089165e-01
 -2.7715227e-01
  1.7699882e+00
  1.1637292e+00
 -3.5456780e-01
 -2.5740418e-01
  2.7338815e-01
  8.0724657e-02
  4.7499821e-02
  8.4796876e-02
  1.9732764e-01
  1.9978762e+00
 -1.1463597e-01
  1.3823378e-02
 -3.9449027e+00
 -2.8137171e+00
 -1.1991844e+00
  1.9601045e+00
  6.0324559e+00
 -3.7353008e+00
  2.3117151e+00
 -2.7260180e+00
 -2.4265177e+00
  1.2322721e+00
  4.0519413e-01
  1.9338149e+00
 -1.1360890e+00
 -1.8143365e+00
 -2.0459869e+00
  1.2000172e+00
  3.7582460e-01
 -7.1053624e-02
  1.4640157e+00
  1.8344876e+00
  7.0480525e-02
  2.8499432e+00
 -1.4078302e+00
  1.1747144e+00
 -1.0059807e+00
 -2.7202828e+00
 -9.6878171e-01
 -4.3498793e-01
 -1.5305966e+00
  2.6125672e-01
  1.1342229e+00
 -2.7358097e-01
  4.8699235e-03
 -3.9260653e-01
 -5.0334792e+00
 -7.0963871e-01
 -2.5612066e+00
 -2.0012541e-01
 -1.7058464e+00
 -1.2727534e+00
 -9.6238256e-01
 -1.9812648e+00
 -6.1474991e-01
  1.4225209e-01
 -3.6038873e+00
  7.3567784e-01
  3.3481789e+00
 -4.0887615e-01
 -8.2761836e-01
 -8.9966589e-01
 -1.5906807e+00
 -1.2648437e+00
 -1.7494264e-01
  3.7274971e+00
 -1.8625551e+00
 -5.0128007e-01
  6.1004984e-01
 -3.2711738e-01
  2.2196815e+00
  1.6862321e+00
 -2.2980773e+00
  1.4205354e-03
  6.9199389e-01
 -1.8376477e+00
  2.6603532e-01
  7.8281808e-01
  5.2061516e-01
  7.3040023e-02
  7.4142939e-01
 -1.0117453e-01
  1.3972013e+00
 -8.2626498e-01
 -8.1722718e-01
 -3.6668434e+00
 -1.7303647e+00
 -9.1572917e-01
 -1.2001029e+00
  6.1128891e-01
 -6.5537101e-01
 -1.1514587e+00
  1.3661481e+00
  1.0267745e+00
 -1.4322718e+00
  5.3868258e-01
  8.3083642e-01
  3.4190616e-01
  1.2027828e+00
  9.5608032e-01
  2.7877586e+00
 -2.5396795e+00
  1.8710388e+00
 -1.5929130e+00
  6.4574087e-01
 -1.1069443e+00
  1.5391566e+00
 -3.3768198e-01
  4.6649951e-01
  5.0765234e-01
 -2.9751947e+00
  2.8018773e-01
  4.6454418e-01
 -3.2689795e-01
 -1.8542951e-01
 -1.4579813e+00
 -5.0934110e+00
 -3.3785722e+00
  3.8485386e+00
  3.7282596e+00
  4.3971176e+00
  3.2431459e-01
 -1.2834582e+00
 -1.3960171e+00
  2.0647864e+00
 -1.7377870e+00
  1.4890355e+00
  1.0017189e+00
 -2.2451246e+00
  2.8111260e+00
 -2.0573750e-01
  5.7173979e-01
  2.2874784e+00
  2.1817226e+00
  7.2890606e+00
  3.7626441e+00
 -2.2782801e-01
  3.9357462e+00
  8.4349465e-01
  6.0423126e+00
 -1.0311652e+00
  6.9747269e-01
  2.7761679e+00
  7.9561405e-02
  4.8704481e-01
 -1.9295110e-01
 -1.8817073e-01
  2.8583238e+00
 -1.0655345e-02
  1.3104887e-01
 -3.0560887e-01
 -1.3128128e+00
  9.6218622e-01
  2.9140644e+00
  1.3964416e+00
  1.6600513e+00
  5.0203961e-01
 -1.7671983e+00
  6.7895365e-01
  3.1151605e-01
 -1.2766927e-01
 -8.5860831e-01
 -1.7690786e+00
 -1.7624552e+00
 -1.1410289e-01
 -7.7450293e-01
  4.0143919e-01
  1.0533698e+00
 -2.4171283e+00
 -1.0246061e+00
  1.0191000e+00
  2.2842867e+00
  2.7131031e+00
  2.9912826e-01
 -1.3182755e+00
  1.5304635e-01
 -1.9567738e-01
 -3.9645655e+00
 -1.1652164e+00
 -8.9880586e-01
 -7.6467323e-01
  6.3998359e-01
  2.3024833e-01
 -1.4075530e+00
  1.5584064e-01
  6.5985984e-01
 -5.1871097e-01
  7.7630281e-01
  2.1110063e+00
  1.4552701e+00
 -1.4986255e+00
  1.1177185e+00
  8.5528111e-01
  1.6055799e+00
  7.3429602e-01
 -3.8074968e+00
  2.0671587e+00
 -1.5791600e+00
  1.3118982e+00
  1.0151751e+00
 -2.9404953e+00
 -5.0902945e-01
 -1.5089895e+00
 -1.5576506e+00
  1.3836014e-01
 -2.1923542e+00
  3.6375608e+00
 -3.4603601e+00
 -1.1887083e+00
 -8.9656037e-01
  1.9456772e+00
  8.3910000e-01
  2.1094327e+00
 -1.8038498e+00
 -1.7770339e+00
  1.7921859e+00
  2.5022075e-01
  1.6079907e+00
  1.5890316e+00
  7.1492010e-01
  1.8742182e+00
 -8.1527162e-01
 -7.8351790e-01
 -1.3238804e+00
 -9.2303371e-01
  1.7152638e+00
  1.2158273e+00
 -4.0737900e-01
  1.1288850e+00
  7.7725703e-01
 -6.0743604e-02
  1.0674781e+00
 -3.7045354e-01
  1.0754192e+00
 -1.1793070e-01
 -1.7757008e-02
 -1.5708196e+00
  1.9578946e+00
 -1.2244431e+00
  2.3250306e-01
 -1.4247341e+00
  2.5495631e-01
  2.5544381e+00
  4.1748071e-01
  1.7352928e-01
  7.7782995e-01
  1.3771540e+00
 -4.8011476e-03
  7.3645723e-01
  2.5266068e+00
 -2.6710337e-01
 -3.5963944e-01
  8.9140153e-01
  7.4232185e-01
 -1.0464326e+00
  1.4734992e+00
 -5.0710827e-01
 -1.8655264e+00
 -1.6933150e+00
 -2.4276210e-02
 -3.5250053e+00
 -1.0230553e+00
 -2.1989622e+00
 -2.5635087e-01
  1.8363376e-01
  7.5602812e-01
  2.8126529e-01
  1.2746191e+00
  3.1755808e-01
 -8.2840830e-01
  3.0864105e-01
  4.1108102e-01
  8.3465689e-01
  8.7950087e-01
  1.9642334e-01
  7.3740643e-01
 -8.9565134e-01
  1.1394614e-01
 -1.3920890e+00
  4.3749732e-01
  2.8510961e-01
  4.6814650e-01
  3.5370263e-01
  3.6946961e-01
 -1.4810540e-01
  2.7519763e+00
 -4.7204855e-01
  5.3329873e-01
 -3.5718492e-01
  5.8155435e-01
 -3.6790946e-01
 -7.1469367e-01
  1.3435658e+00
  5.4783255e-01
  1.5700711e+00
  2.9190341e-01
 -2.0363781e-01
 -7.7329046e-01
 -2.4503806e+00
  1.5417354e-01
 -6.8979096e-01
  1.2394286e-01
  3.0413011e-01
 -4.3579426e-01
 -1.3903444e-01
 -3.2858369e+00
 -6.3784575e-01
  3.4921005e-01
 -1.6721011e+00
 -4.4035256e-01
  5.6810707e-01
  5.9841889e-01
  2.6904833e-01
  5.8181947e-01
 -1.5835234e+00
 -7.2281080e-01
 -6.5238798e-01
  5.4270834e-01
  5.5718535e-01
  6.4388323e-01
 -6.0992223e-01
 -1.7825000e+00
 -1.8867842e+00
 -6.1889708e-01
 -4.6473631e-01
  6.7300642e-01
  3.1458932e-01
 -4.5721561e-01
 -7.4511355e-01
 -7.6308829e-01
 -2.9392323e-01
  3.3182102e-01
  8.3841288e-01
 -3.9580956e-01
 -7.0921165e-01
 -3.4215456e-01
  4.5465687e-01
 -4.1469407e-01
  2.8895180e+00
  2.4636514e-01
 -1.2153252e+00
  9.8083675e-01
 -9.4156152e-01
 -2.3419611e-01
 -2.9841588e+00
 -1.9835590e-01
  1.9996384e+01
 -2.1220167e+00
 -3.5058734e+00
  3.0018988e+00
  1.4276818e+00
 -6.6946158e+00
 -2.5465055e+00
  3.0429623e+00
  5.4183216e+00
 -7.7619028e-01
 -3.4969118e+00
 -7.3016191e+00
 -1.7222154e+00
  2.2435218e-01
 -3.9881647e+00
  5.6196856e-01
  4.2658553e+00
  7.4812281e-01
  3.0529532e+00
  7.1321678e-01
  1.8191031e-01
  8.2629174e-01
 -7.4728590e-01
  2.8126163e+00
 -7.1271653e+00
 -3.1795254e-01
  4.5599957e+00
  5.0689363e+00
 -1.7577537e+00
 -1.3091168e+00
 -1.7473332e+00
  1.1585722e+00
 -7.1945560e-01
 -1.5810995e+00
 -1.0224848e+00
  3.5712593e+00
  3.8867342e+00
 -9.0598041e-01
 -2.1763539e+00
  1.1146898e+00
  6.4989619e+00
  5.4564571e+00
 -3.5949869e+00
 -6.0180402e+00
 -2.1255903e+00
  2.0921965e+00
  1.4204311e-01
  3.1496754e+00
 -4.4526401e+00
 -2.9995444e-01
  3.6035011e+00
  5.2702713e-01
  7.4935865e-01
  1.7975729e+00
  1.3592644e+00
 -1.8973451e+00
 -4.0920115e+00
  6.5448780e+00
  4.2657018e+00
 -2.9347482e+00
 -3.3474650e+00
 -1.6215163e+00
 -7.0250326e-01
 -8.5809392e-01
  1.2769005e+00
  8.3281412e+00
 -1.0009906e+00
 -4.9237709e+00
  1.6992534e+00
  4.6613688e+00
  4.7011173e-01
 -3.4016671e+00
 -1.5866208e+00
 -1.3080939e-02
  2.4487374e+00
  4.1649094e-01
 -3.2598469e-01
 -2.1584206e+00
  1.6456582e-01
  3.2323938e-02
  8.5349256e-01
 -1.2260854e+00
 -3.2826703e+00
 -4.5743780e+00
  1.9408752e+00
  1.5254618e+00
 -2.0270345e+00
  1.6816525e+00
  4.4447951e+00
  1.4934634e+00
 -2.3296809e+00
  4.1251560e-03
  4.1251560e-03
  4.1251560e-03
  4.1251560e-03
  4.1251560e-03
  5.2743582e-03
  5.2743582e-03
  5.2743582e-03
  5.2743582e-03
  5.2743582e-03
  4.1027446e-03
  4.1027446e-03
  4.1027446e-03
  4.1027446e-03
  4.1027446e-03
  2.3731452e-03
  2.3731452e-03
  2.3731452e-03
  2.3731452e-03
  2.3731452e-03
  1.4660439e-03
  1.4660439e-03
  1.4660439e-03
  1.4660439e-03
  1.4660439e-03
  7.1759237e-04
  7.1759237e-04
  7.1759237e-04
  7.1759237e-04
  7.1759237e-04
  5.9611837e-05
  5.9611837e-05
  5.9611837e-05
  5.9611837e-05
  5.9611837e-05
