nep4_zbl 1 C 
zbl 1 2
cutoff 6 5 163 106
n_max 4 4
basis_size 8 8
l_max 4 2 1
ANN 80 0
  2.0387540e+00
  3.4064918e+00
 -1.4563762e+00
 -1.9124467e+00
  3.8792831e-01
  4.0050533e-01
 -6.8818319e-01
  9.5149761e-01
 -4.8858166e-01
  7.2838850e-02
 -8.9100651e-02
 -1.7360777e+00
 -1.0949119e+00
  1.9715194e-01
  1.8008590e+00
 -6.7472064e-01
 -1.3019704e+00
 -1.1701530e+00
  9.1233331e-01
  1.8247277e+00
 -6.9781142e-01
 -3.2150710e-01
  9.7463655e-01
  1.9424850e+00
 -5.3871435e-01
  3.5247001e-01
 -1.1702867e+00
  7.8700118e-02
  6.5479171e-01
  4.3829644e-01
 -4.7942030e-01
  2.8987023e-01
  1.6531494e-01
 -2.9819223e-01
 -1.2366532e+00
  1.5189177e+00
  1.3238462e+00
  2.8658414e+00
 -1.1343162e+00
  1.0442603e+00
  2.1403000e+00
  1.7825104e+00
 -3.0284989e+00
  6.8301773e-01
 -1.2166358e+00
  2.1723263e+00
  9.4334769e-01
 -1.0874137e+00
  2.2899789e-01
 -8.7077922e-01
  2.0657778e+00
 -2.7904665e+00
 -1.7502571e+00
 -1.9073364e+00
 -4.0893388e-01
  3.7247467e-01
 -2.5346825e+00
  1.7123666e+00
  3.8568813e-01
 -7.0814657e-01
  9.1218829e-01
  4.7699150e-02
  3.2526379e+00
  3.4141557e+00
 -1.4833101e+00
  3.5587940e-01
 -6.8426591e-01
  1.5199350e+00
 -4.3297014e-01
 -1.2279723e+00
  3.2980949e-02
 -1.2743675e+00
  3.0589077e-01
 -1.5056819e+00
  1.4969137e+00
 -1.4373806e+00
  2.3868077e+00
  3.3226714e-01
 -7.8978670e-01
 -1.4879819e-02
 -5.2821869e-01
  5.7783490e-01
  1.2428132e+00
  1.3800545e+00
  1.0244842e+00
  1.4084159e+00
 -2.1090186e-01
 -1.2272987e+00
  6.0943145e-02
  2.6516666e+00
  5.8302039e-01
  2.0367403e+00
  1.2974275e+00
  1.3477092e+00
  2.1392485e-01
 -9.1605924e-02
 -3.5320072e+00
  3.4882706e-01
  1.2335738e+00
  9.0829261e-02
 -3.8205513e-01
 -2.0882311e-01
 -8.4314066e-01
  3.1355745e-01
 -1.0261616e-01
 -2.1288633e+00
 -1.0618118e+00
 -1.6741066e+00
  1.2701705e+00
 -7.2561071e-04
 -2.2227454e+00
  2.3734759e-01
  3.0248001e+00
  3.7545711e-01
  6.1739266e-01
 -2.8988600e-01
  2.5904167e+00
  7.1315116e-01
  3.6386070e-01
 -2.4129942e-01
 -2.7495423e-01
  2.2720339e+00
  2.3982787e+00
  4.6020273e-02
 -3.3549333e-01
 -3.8556111e-01
  1.2307602e+00
  1.1129766e+00
 -8.5005534e-01
  3.3239594e-01
  1.2510830e+00
 -6.5692574e-01
 -2.3495679e+00
 -1.4527910e+00
  3.9797840e-01
  9.3186629e-01
  5.2512372e-01
  6.8977680e-03
  1.2130696e+00
  2.0332003e-01
 -4.5819125e-01
 -1.7246300e+00
  3.6956146e-02
  7.6245971e-02
  5.6357491e-01
  2.4900003e-01
  1.3164481e+00
  2.4250165e-01
  1.9109721e-01
  2.2063115e-01
 -2.2906297e-01
 -1.4764682e+00
 -7.6150781e-01
 -1.5055008e-01
  1.1779112e+00
 -1.6304681e-01
  7.2239745e-01
  1.2387040e-01
 -3.7058192e-01
 -1.2285646e-01
 -1.5090024e-01
  4.1596618e-01
  1.1456751e-01
 -2.8980005e-01
  5.3180653e-01
  1.0265067e+00
  4.3942046e-01
  4.6930522e-01
  5.6088692e-01
 -5.4237962e-01
  4.0941697e-01
  2.8866732e-01
 -1.4511761e-01
 -1.1893718e-01
 -1.5232901e-01
 -1.8005495e+00
 -2.4829414e+00
 -1.8584520e-02
  1.0029563e-01
  1.9305615e+00
 -1.9029211e-01
  4.6303925e-01
  2.1474283e+00
 -3.5035291e-01
  3.6238787e+00
 -2.0833607e+00
 -8.4891921e-01
  2.5668700e+00
 -1.0955170e+00
  1.5988359e+00
 -6.1228013e-01
  1.7829887e+00
  2.9479442e+00
  1.4275306e-01
  2.9503736e+00
  4.1076601e-01
 -9.6119171e-01
 -3.6466172e-01
  1.5141125e-01
  1.8228732e+00
 -3.1180799e+00
  2.0434051e+00
  4.5541763e-01
  2.9686308e-01
  6.4513183e-01
 -4.7199425e-01
 -2.0951235e-01
  9.3567979e-01
  4.5213152e-02
 -1.3135132e+00
 -1.1233791e+00
 -3.9516592e-01
  1.0342436e+00
  1.3733433e+00
  2.7141333e+00
 -3.4191327e+00
 -1.9922069e-01
  3.5845914e-01
  3.6817402e-01
  1.5562381e+00
  1.7285657e-01
 -1.7076130e+00
 -1.0208200e+00
  9.7267091e-01
  2.1256022e+00
 -2.1066131e-01
 -1.4141480e+00
 -9.1485083e-01
  2.5933015e+00
 -1.4672668e+00
  1.2459785e+00
 -2.6453044e+00
 -1.2706678e+00
  1.9610023e+00
  1.0182346e+00
 -6.6776931e-01
  7.8333175e-01
  3.8878539e-01
  1.5893815e-01
 -3.3717152e-01
 -4.1933921e-01
  5.2303517e-01
 -1.6360462e-03
 -2.4948575e-01
 -8.2786191e-01
 -4.8780389e+00
 -7.7324790e-01
 -3.3307365e-01
  4.6111578e-01
  4.9744964e+00
 -3.4379103e+00
 -2.7498620e+00
  1.5190161e+00
 -1.1695729e+00
  1.6483305e-01
  1.2632611e-01
 -1.7468123e+00
  1.1409428e+00
 -2.0914742e-01
  1.0741796e+00
  4.2635047e-01
 -2.0428674e+00
 -1.0827686e+00
  2.3554502e+00
  1.4174472e+00
  1.0814519e+00
  6.2214464e-01
 -1.3509092e+00
 -8.7971926e-01
  1.6652348e+00
 -4.0499061e-01
 -1.1071104e+00
 -4.4361662e-02
  4.6156477e-02
 -5.4193366e-01
  2.6031250e-01
 -7.5353688e-01
 -4.1737324e-01
 -2.4262780e-01
 -3.0044851e-01
 -1.0927285e+00
  1.9936225e-01
 -2.1416655e+00
  2.5699451e+00
  3.0766514e-01
  5.3118076e+00
  4.8476070e-01
  1.7166598e+00
 -4.5859376e-01
  4.7939458e+00
  6.1185980e-01
  1.3232750e+00
 -1.6727586e-01
  1.5965536e+00
 -4.9368972e-01
 -5.9638774e-01
 -5.3939337e-01
  2.5938717e-01
 -1.2281383e+00
 -1.1737303e+00
  1.7695270e+00
 -5.1638603e-01
  8.0865467e-01
 -9.2385337e-02
  9.3715553e+00
 -2.6485667e-01
  1.4730849e+00
 -1.0325552e+00
  9.1620839e-01
  1.3077160e+00
  1.6799663e-01
 -5.6518537e-01
  6.7488492e-01
 -9.4147015e-01
  1.9949836e-01
  3.5933182e+00
 -3.2927123e-01
 -7.5168222e-01
 -2.3226097e-01
 -2.0202885e+00
 -7.0888501e-01
  2.2381385e-01
  1.9223218e-01
  1.8817998e-01
 -5.5666161e-01
  4.3852252e-01
 -1.5984724e+00
 -3.8199073e-01
  1.1783261e+00
 -1.5339922e+00
 -1.7929386e+00
 -1.3227310e+00
 -7.7419758e-02
 -2.1501644e+00
  4.8934790e-01
  1.2489679e+00
 -9.5698285e-01
  5.8796543e-01
 -3.8226035e-01
 -2.4987926e+00
  2.2096243e+00
  4.3344662e-01
 -6.1844218e-01
 -8.5413796e-01
 -1.9001764e-01
 -6.9478631e-01
  5.6268549e-01
 -3.5112861e-01
  4.3309233e-01
 -1.0888331e-01
  1.4787086e+00
  2.0016925e+00
  8.2443011e-01
 -1.2073041e-01
  3.3197698e-01
  1.7398931e+00
 -4.5718476e-01
  3.8791144e+00
  3.0408278e-02
 -1.4605841e-01
 -1.6150036e-01
  1.0755415e-01
  6.5240693e-01
  1.1594086e+00
  1.0387876e+00
  8.5186142e-01
  4.8672321e-01
 -3.5689282e-01
 -4.9645725e-01
 -8.9817989e-01
  3.2349207e+00
 -1.1292036e-01
 -2.0518854e-01
  1.5597346e-01
  6.5051329e-01
  1.3417758e+00
  3.7711790e-01
  1.2440630e-01
  3.0629277e+00
  2.2202201e+00
  3.5923257e-01
 -1.3809605e+00
  1.0456817e-02
  5.9612656e-01
 -1.5132311e-01
  1.8448702e+00
 -3.1630260e-01
 -1.2208302e+00
  4.4827926e-01
  1.2014657e+00
 -2.2251120e-01
  1.8026878e-01
  8.8875067e-01
  9.8036277e-01
  1.2560829e+00
  5.0231981e-01
  3.0271593e-01
  5.3239703e-01
  4.3857363e-01
  1.6619042e-01
 -1.4189048e+00
  2.3461878e-03
 -4.1708151e-01
 -5.1601440e-01
 -8.1655902e-01
  1.5849121e+00
 -1.6097330e+00
  1.3662981e+00
 -2.9523590e-01
 -7.3071468e-01
  7.1688277e-01
  3.1996012e+00
 -2.4891244e-01
  2.5138381e-01
  8.7746376e-01
  1.1452624e+00
 -3.1117621e-01
  2.5969586e-01
 -2.3423459e-03
 -2.1009248e-01
  5.5907226e-01
 -9.5168777e-02
  2.6096063e+00
  8.0149567e-01
 -1.8751463e+00
 -2.8527528e-01
  1.4789909e+00
 -1.7135417e+00
 -1.4181428e+00
  2.0346597e-01
  5.8500993e-01
 -2.5284076e-01
 -3.5467722e-02
  1.5047519e+00
  4.4976014e-01
 -2.0298171e-01
 -1.6208802e+00
  4.2089963e-01
 -5.0465053e-01
 -5.7649249e-01
  1.6524400e+00
 -1.2764653e+00
 -3.6576772e-01
 -9.7573936e-01
 -4.6256390e-01
  7.9286849e-01
 -1.4862372e+00
  2.4243146e-01
 -2.0154366e+00
  3.1585184e-01
  2.1029219e-01
  1.2943264e+00
  1.4684083e-01
 -2.1628653e-01
 -2.8406465e+00
 -3.2930070e-01
 -9.0813267e-01
  1.3631177e+00
  8.5376734e-01
  1.9923345e+00
 -1.2282398e+00
  2.2651206e-01
  5.1991533e-02
 -3.2350045e-01
  9.9876606e-01
  9.9714130e-01
  9.5060807e-01
 -1.8745277e+00
  6.2350015e-04
 -1.6797822e+00
 -1.2371155e+00
 -1.8791562e+00
 -5.5590429e+00
  9.8510098e-01
 -1.5164032e+00
  7.8963602e-01
  9.2609698e-01
 -6.5253295e-02
 -2.2697572e-01
  5.3120565e-01
  1.7666008e-01
 -2.9786239e+00
  3.0978110e-01
  4.8209620e-01
  4.9417034e-01
 -5.2659534e-02
 -7.9811275e-02
 -3.3930503e-02
 -9.0159851e-01
 -4.0008909e-01
  2.0626850e-01
 -1.2290479e+00
 -3.2280040e-01
  1.4350812e-01
 -2.1393985e-01
 -2.4101074e-01
 -1.5712847e-01
 -1.0577530e+00
  5.9294003e-01
 -4.0441313e-01
 -1.3399053e+00
 -1.2731477e+00
 -4.6699890e-01
  8.0180782e-01
  7.9510891e-01
 -4.1027635e-01
 -4.1286153e-01
  2.9477152e-01
  1.3337605e+00
  1.3012227e-01
  7.5504667e-01
 -9.6593714e-01
  8.9870691e-03
 -8.3725023e-01
  1.3007684e-01
 -2.6662418e-01
 -9.2616165e-01
 -1.7587087e-01
  2.0433934e-01
 -9.0915465e-01
 -8.3557591e-02
  1.0810591e+00
 -1.4215773e-01
  3.9642501e-01
 -1.1165667e+00
  4.7789747e-01
 -1.8019775e-01
 -1.7582357e+00
  5.7694328e-01
  1.4268658e-01
  1.9937417e-01
 -1.2494459e+00
 -1.4228526e+00
  1.3484213e+00
  3.1483105e-01
  2.5277257e+00
  2.9903905e+00
 -3.3729014e+00
  1.8637377e+00
  1.3852838e-01
 -2.4867256e+00
  1.6267987e+00
  3.1150395e-01
  1.7415717e+00
 -4.6665618e-01
 -2.7307606e+00
  1.7976819e+00
 -9.6967000e-01
 -6.1760038e-01
 -7.1723419e-01
  8.1252480e-01
 -2.5349646e+00
  1.3496505e+00
  1.3615404e-01
 -8.0283076e-01
 -6.5896064e-01
 -3.8435939e-01
 -6.3207716e-01
 -6.1394876e-01
 -5.2042288e-01
 -3.9647827e-01
  1.9013042e+00
 -2.7601414e+00
 -2.5294046e+00
  1.7896241e+00
 -2.2277655e-01
 -3.8205943e-01
 -1.9184182e+00
  1.5741877e-01
  9.4641417e-01
 -5.9775120e-01
  1.4014988e+00
 -7.3210424e-01
  5.8737791e-01
 -6.2705427e-02
 -8.6750977e-02
  2.3504013e-01
 -9.0031558e-01
 -1.2275729e+00
  6.1405182e-01
  3.2910034e-01
  1.3617340e+00
  2.5175398e-03
  7.3664546e-01
 -2.9332036e-01
 -6.3540816e-01
  1.2927486e+00
 -3.8837495e-01
  9.5571065e-01
 -2.4598870e-01
  2.1689625e-01
 -2.2721541e-01
 -9.8785424e-01
  1.8472497e-01
 -4.5549384e-01
 -3.1691018e-01
  1.2762839e+00
 -2.3489304e+00
  1.0197276e+00
 -2.2344434e+00
 -1.3797876e+00
  4.2386436e-01
  6.3721830e-01
 -1.9663179e-01
  9.6210855e-01
 -3.6444364e+00
  2.9742150e+00
  1.0364939e+00
  2.6819316e-01
  1.4108076e+00
 -1.9924304e+00
 -2.4695961e+00
  5.4939198e-01
 -8.2714814e-01
 -2.5304894e+00
 -2.6395576e+00
 -9.1607249e-01
  3.3687052e-01
 -2.9730964e-01
  4.6618685e-01
 -1.1382887e+00
  5.2942592e-01
 -9.7348243e-01
 -2.3598021e-01
  1.4295368e+00
 -5.2305335e-01
  3.8368553e-01
  3.5978520e-01
 -1.0635055e-01
 -2.8455663e-01
 -1.1721340e+00
  4.7298005e-01
  1.6062186e+00
  6.7031318e-01
 -2.5774164e+00
  2.1408474e-01
 -2.6091507e-01
  1.4264182e+00
 -1.0939891e+00
 -9.3005240e-01
 -1.6197067e-01
  3.4500595e-02
 -9.0556823e-02
 -2.0020685e-01
 -3.7909907e-01
  4.3543977e-01
 -7.1072018e-01
  8.8087940e-01
 -3.8462438e-02
 -8.8331306e-01
  4.3236628e-01
  1.6040328e-01
 -9.0652086e-02
 -8.2093900e-01
 -1.0171156e+00
  1.3986576e-01
 -5.2954781e-01
 -3.4491244e-01
 -1.3155882e+00
  1.1394718e+00
  2.8003222e-01
  5.8473307e-01
  8.0687195e-01
  8.6032487e-02
  4.9564606e-01
 -3.6755410e-01
  6.6352612e-01
 -1.9568048e-01
 -1.2217458e+00
 -4.2972374e-01
 -4.0450436e-01
  3.0516987e+00
 -3.8695469e-01
 -4.1379341e-01
 -2.0579703e-01
 -1.0345373e-03
 -2.9222748e-01
 -1.4971598e+00
 -3.8267002e-01
 -8.2152367e-01
 -3.4255037e-01
  4.7800335e-01
  1.1022005e+00
 -3.8629210e-01
  8.5090411e-01
 -1.9363225e+00
 -1.0733318e+00
  1.3426642e+00
 -1.6421940e-02
 -4.0610722e-01
 -1.2553519e+00
 -2.0366506e-01
  1.8801108e-01
  1.4073663e+00
 -3.2581811e+00
 -3.7080526e-01
 -3.4825420e-01
  1.7404219e+00
 -2.0248169e-01
  3.2948998e-01
 -1.0640577e-01
 -6.7741430e-01
  5.0644271e-02
 -5.6130201e-01
  1.0677750e-01
 -7.2609615e-01
 -7.5506198e-01
 -4.4248417e-01
 -1.5021922e-01
 -6.2855113e-01
 -4.4422063e-01
  1.5941641e+00
  1.7831316e+00
  6.9912750e-01
 -1.3140593e+00
  4.8668373e-02
 -5.4815453e-01
 -6.0664948e-02
  8.5490113e-01
 -7.0104367e-01
 -4.3914774e-01
  1.7165327e+00
 -2.6134515e-01
  6.2986910e-01
 -3.2609528e-01
  1.5725975e-01
 -8.5084379e-01
  2.0108691e-01
 -3.5328037e-01
 -3.1480503e-01
  6.2112629e-01
  2.7641198e-01
  5.3805315e-01
 -1.0572509e+00
 -2.4436855e-01
  2.8814607e+00
  7.6780915e-01
 -8.7419862e-01
 -1.0324894e+00
  1.0912145e+00
 -1.6533643e+00
  1.3034730e+00
  1.9537386e+00
 -5.6367666e-02
 -3.8853952e-01
 -2.9699154e+00
 -1.8463369e-01
 -4.6014675e-01
 -5.9442097e-01
 -1.6922539e+00
 -2.2547556e-01
 -9.3352896e-01
 -2.9072943e+00
 -3.9844969e-01
 -5.3354990e-01
  1.2231059e+00
 -5.8608669e-01
  4.8740059e-02
 -7.8815025e-01
 -2.7478395e+00
  6.5978922e-02
  2.3430920e-01
  1.2608289e+00
 -9.5951892e-02
  2.0615780e-01
 -3.8522404e-01
 -8.2146835e-01
 -9.7060658e-02
 -8.4480293e-02
 -8.1922847e-01
  8.7698025e-01
  4.8937207e-01
  2.1648767e+00
 -8.4343082e-01
 -2.6910660e+00
  1.4864109e-02
  5.9576519e-02
 -1.4672790e-01
 -4.1364694e-01
  8.3379340e-01
 -2.4940042e-01
  1.4652038e-01
 -3.9032528e-01
  5.7121539e-01
 -2.1297721e-02
  1.3304797e+00
 -9.9557495e-01
  8.9146191e-01
  4.6265441e-01
 -2.7478242e+00
 -5.2180046e-01
 -5.0324583e-01
 -5.9689045e-01
 -1.2414587e+00
  1.1315006e+00
 -2.6806059e-01
  9.6353769e-01
 -2.6063120e-01
 -1.9119874e+00
  3.4670335e-01
 -4.2322913e-01
  2.3741260e-01
 -8.7278351e-02
 -6.9127613e-01
  7.0315862e-01
  1.0623082e+00
  2.2458506e-01
 -3.6676464e+00
 -1.8669542e+00
  1.0064746e-01
 -1.6309659e+00
  1.0078710e+00
  3.3952567e-01
 -6.1958157e-02
 -2.2548459e+00
 -2.1331668e+00
  6.4336115e-01
 -9.2226207e-01
 -3.7726757e-01
 -8.4078288e-01
 -1.3083885e+00
 -7.4844815e-02
  9.0397877e-01
 -1.0099660e+00
  3.7205073e-01
 -4.9204090e-01
 -5.1365441e-01
  1.6953079e+00
  2.8902738e+00
  2.4350543e-01
 -2.3090668e+00
  1.7814187e+00
  2.7813017e-01
  1.6579056e+00
 -2.4497038e-01
 -6.3530809e-01
  6.9127470e-01
  4.2561659e-01
 -1.1745504e-01
 -8.3442533e-01
 -5.6211036e-01
 -8.7582392e-01
  2.1169581e+00
  6.9416350e-01
  3.1229013e-01
 -2.5076165e+00
 -3.2478034e+00
  2.5396955e+00
  3.3862451e-01
 -5.7933917e+00
 -2.2320916e-01
  2.7464709e+00
  1.1624236e+00
 -8.7370163e-01
 -4.3484588e+00
  1.6235552e+00
 -1.3896079e+00
  1.4477305e+00
 -1.9994427e-01
  1.1318358e+00
 -2.0774163e-02
  8.7092286e-01
 -3.3828098e-01
 -6.7456949e-01
  1.0889522e-01
  1.9913287e+00
 -3.4924793e-01
 -5.6537271e-01
  5.9494328e-01
  2.6234150e+00
  2.7083799e-01
  4.3546835e-01
  2.1041967e-01
  3.6492780e-01
  3.9157376e-01
  2.5286622e+00
 -1.4680828e-01
  3.0072191e+00
  3.0311408e+00
 -3.1113529e+00
 -1.4744745e+00
  2.3481004e+00
 -3.9102298e-01
  1.7289512e-01
  8.8567185e-01
 -2.1486042e+00
 -1.7167797e+00
 -1.4952825e+00
  1.3304905e+00
 -1.5628349e+00
 -2.4052301e-01
  1.0864075e+00
 -5.8892095e-01
 -6.3061202e-01
 -2.8142044e-01
  9.2424631e-01
  9.0588075e-01
 -9.5143294e-01
  4.8065301e-02
 -2.5068955e+00
 -6.0566741e-01
  1.5788507e+00
 -1.7307710e-02
  2.4055482e-01
 -3.0684668e-01
 -3.1932989e-01
  1.2572120e-01
 -3.2280529e-01
  9.1990650e-02
 -1.8022238e+00
 -2.3267429e+00
  1.3988940e+00
  7.1003938e-01
 -1.9720178e+00
  1.0318040e+00
 -6.9214088e-01
  1.1362116e+00
  1.9756321e+00
 -1.5429224e+00
  4.1740218e-01
 -1.2707182e+00
  1.8333027e+00
  3.7201099e-02
  1.4155905e+00
 -2.3268762e-01
 -8.8470399e-01
  1.6981236e+00
  1.7083918e+00
 -2.9513991e-01
 -1.1347024e+00
  1.8950064e+00
  5.4525799e-01
  6.4606261e-01
 -1.6756397e-02
  1.1979686e+00
 -7.9799372e-01
 -9.3175006e-01
 -2.3623216e+00
 -1.8921094e-01
  7.3359996e-01
 -1.1171476e+00
 -1.1736108e+00
  1.0809004e+00
  1.8450944e-01
  1.1214262e+00
 -1.0686276e+00
  9.9335629e-01
 -3.7401016e+00
  1.2355627e+00
  1.3123288e+00
 -3.4361589e-01
 -7.7460366e-01
 -2.7209377e-01
 -1.1052772e-01
  1.6867477e+00
 -2.1535645e+00
 -8.4555042e-01
 -6.1145848e-01
  9.8044354e-01
  1.1457982e+00
 -1.1753873e-01
 -2.8507106e+00
  2.3130903e+00
 -1.2026278e-01
  1.0280895e-01
 -6.0333735e-01
  3.8811380e-01
 -1.9179279e+00
 -3.5787484e-01
  6.8562961e-01
 -9.4342595e-01
  6.9121999e-01
  3.3176997e+00
  1.3847574e+00
 -6.9737381e-01
  3.9202890e-01
 -1.9301535e-01
 -1.3821472e-01
 -7.5242931e-01
 -4.4331241e-01
 -7.7528578e-01
 -6.6411477e-01
  3.9441993e+00
  1.1158222e+00
  3.9575389e-01
 -7.0686036e-01
 -3.7093041e+00
 -1.1322974e+00
 -1.8296695e-01
  2.2322712e+00
 -4.1918612e+00
  2.6475736e-01
  1.0723559e+00
 -7.9580057e-01
  4.9056902e+00
 -9.4202572e-01
 -6.2628496e-01
  2.2496648e+00
 -1.1607357e-01
  1.0499182e-01
  1.6100768e+00
  9.7748864e-01
  3.0617511e-01
 -1.3905761e+00
  1.5681648e+00
 -1.1189280e+00
 -7.4251139e-01
 -6.9135875e-01
 -7.6867469e-02
  9.6554172e-01
  4.8908524e-02
 -2.5517949e-01
 -2.8670594e-01
 -2.8529280e-01
 -4.2336473e-01
 -2.5320323e+00
 -1.9005520e+00
 -1.2524464e+00
 -2.9785430e+00
  3.4634452e+00
  6.7442244e-01
 -5.7178670e-01
 -1.7133354e+00
 -5.9138143e-01
  3.4523472e-01
  5.0935733e-01
  1.3844268e+00
  6.1041158e-01
 -3.4427962e-01
  5.8458477e-01
 -4.6706688e-01
  1.6394453e+00
  1.1408921e+00
 -1.6469454e+00
 -1.7294493e-01
 -1.1238669e+00
  6.7552634e-02
  1.4901732e+00
  2.3159351e+00
  7.6165360e-01
  1.5938182e+00
  1.9845843e-01
  2.9178333e-01
  5.7292640e-01
  3.7824038e-01
  8.7228423e-01
 -5.3333557e-01
  2.4018209e-01
  2.7213866e-02
 -3.5133085e-01
 -1.3147368e+00
 -2.2256477e+00
  4.0569937e-01
 -1.2196670e+00
 -5.2208704e-01
  1.4336345e+00
 -8.7503326e-01
  2.8973773e-01
  9.9970579e-01
  7.6016402e-01
  2.8504390e-01
  5.3547657e-01
  3.0616288e+00
 -1.3819741e+00
 -1.4716980e+00
  2.9696584e-02
 -1.7194484e+00
  1.7250004e+00
 -2.0344312e+00
  3.8836230e-02
  1.4071383e+00
 -1.2058440e-01
  1.0139362e+00
 -3.1509813e-02
 -3.3717122e+00
 -3.3318093e+00
 -4.6071234e-01
  5.3600413e-01
 -1.2367662e+00
  1.5461954e-01
  4.8958635e-01
 -1.5485604e-01
  8.9286113e-01
  3.7531731e-01
  1.1737407e-01
 -1.3703949e+00
  1.4348406e-01
  2.5704844e+00
  3.5777697e-01
  4.5314848e-02
  1.5549690e+00
  2.4518118e+00
 -2.5207927e+00
  1.7297487e+00
  4.5236269e-01
  3.1643989e+00
 -4.7517533e+00
  1.0662674e+00
  8.7420386e-01
 -3.5611692e-01
  9.0388852e-01
  2.8700098e-01
  3.9140412e-01
 -3.7985939e-01
  2.5835207e-01
  1.0724702e+00
  1.4075326e+00
 -1.2572974e+00
 -1.3114630e+00
  1.0750391e+00
 -2.3339140e+00
 -1.0590938e+00
  8.7853387e-02
 -3.1942165e+00
  7.2844124e-01
  6.8156160e-02
  1.1243411e+00
  4.8750049e-01
 -6.1936487e-02
 -4.0968709e-02
 -4.8989207e-01
  5.6336302e-01
 -2.7282730e-01
  1.3931921e-01
 -2.0683758e+00
 -1.8109064e+00
  1.5190146e+00
  1.1665628e-01
 -2.7774915e-01
  7.9967159e-01
 -7.6314867e-02
 -1.9394535e+00
  1.8304254e-01
  4.9128550e-01
 -7.8253150e-01
  5.7550138e-01
 -2.5473983e+00
  1.0038942e+00
  1.7737691e+00
 -2.4917498e+00
 -1.9148835e+00
 -4.7853807e-01
  6.9254667e-01
 -9.0115093e-02
 -7.4476051e-01
 -8.6083210e-01
  1.5681037e+00
  2.7550584e-01
 -7.2650343e-02
  4.5804051e-01
 -6.2409055e-01
  3.5376748e-01
 -1.7708644e-01
  1.6867304e-01
 -3.1052479e-01
  1.6418287e-01
 -1.3018515e+00
 -5.8969927e-01
 -2.0247300e+00
  4.6932331e-01
  1.7024261e-01
 -7.6404864e-01
 -4.5759529e-01
 -5.1546514e-01
  9.5256883e-01
 -4.0771276e-01
  2.5142688e-01
  5.2668738e-01
 -2.0266990e-01
 -3.0717555e-01
  7.5700533e-01
  1.3296882e+00
  2.1211168e-02
  2.0309860e-01
 -7.1296670e-02
 -7.2953790e-01
 -3.3254397e+00
 -7.8503263e-01
  1.5543598e+00
  1.2754755e+00
  2.6033623e+00
 -1.2630464e+00
 -6.9285250e-01
 -5.6242996e-01
 -1.1852549e+00
 -1.6249992e-01
 -5.3421330e-01
 -2.8711963e-01
 -8.5594252e-02
  2.2813460e-02
  4.3868646e-01
  1.1819130e+00
 -1.3597319e+00
 -3.3759291e+00
 -5.4323691e-01
 -1.9545940e-01
  2.3087035e-01
 -6.8375927e-01
  4.8930696e-01
  4.5631728e+00
  3.5065818e+00
  3.6923251e-01
 -2.7625132e+00
  1.3306901e+00
  1.5037112e+00
 -1.4022068e+00
  5.3731400e-01
  1.5854794e+00
 -4.1578338e-02
  6.3441679e-02
 -1.2841226e-01
 -1.0615010e+00
  7.4567580e-01
  1.0077764e+00
  1.4205639e+00
 -1.5879577e+00
  1.8919456e+00
  1.7158927e+00
 -2.8478923e-01
  9.2168242e-01
 -3.7777707e-01
 -3.3905855e-01
  3.0924553e-02
 -2.5798187e-01
  1.0883290e+00
  9.9917829e-01
 -2.3418903e+00
 -4.8599809e-01
 -2.5116634e-01
 -1.3868747e+00
  8.8528425e-01
 -2.2610781e+00
 -5.0955409e-01
  7.9580057e-01
  1.1234514e+00
 -4.8870870e-01
 -1.0906980e+00
 -2.3308017e+00
  7.1312803e-01
  3.4072137e+00
 -4.2568143e-02
 -8.6817300e-01
  2.2227155e-01
 -2.6923773e-01
  1.0814991e-01
 -1.3116844e+00
 -7.0132822e-01
 -3.2968166e-01
  4.1333904e+00
  1.5790781e+00
 -6.1045223e-01
 -1.6430347e+00
 -9.7116601e-01
  2.4772601e-01
 -2.0195093e+00
  3.8027894e-01
  3.6943827e-02
 -1.0248369e+00
  3.0580565e-01
  3.5965347e-01
 -1.6387460e-01
 -5.0338332e-02
 -2.5925963e+00
  3.2039940e-01
  6.3548100e-01
  1.4618210e+00
  3.6310688e-01
  7.6297683e-01
  1.4097608e+00
 -1.1613100e+00
  1.1276770e+00
 -4.0192419e-01
  2.0034482e+00
  1.6434290e-01
 -1.6288048e+00
  3.2675448e-01
 -4.0109867e-01
  2.0085711e+00
  1.1284606e+00
 -8.5750782e-01
  6.4946276e-01
 -5.0140792e-01
  1.1956968e+00
 -1.5778434e+00
 -5.6062829e-01
  2.8538150e-01
 -2.0620148e+00
 -1.6013883e+00
 -2.9334009e-01
  8.7500525e-01
 -4.2277423e-01
 -4.7149417e-01
 -9.4643188e-01
 -2.7677259e-01
  2.1619219e-01
  1.2315272e+00
  6.1772096e-01
 -1.3163234e+00
  1.7483568e-01
 -2.6114817e+00
 -1.3626220e+00
  8.3644360e-01
  8.0734009e-01
  1.3824481e-01
 -1.0062332e+00
 -2.4195914e+00
 -2.4551261e-02
  1.3664405e+00
 -8.7178892e-01
 -9.7543389e-02
 -3.9467314e-01
 -3.3993885e-02
 -3.6356125e+00
 -1.2238039e-01
  2.4227817e+00
 -2.3118503e+00
  1.7145803e+00
  7.7491730e-01
 -2.0275464e+00
 -6.6671801e-01
 -1.0356702e+00
 -4.2430764e-01
 -6.1356997e-01
 -2.5987132e+00
  1.9215251e+00
  1.5841525e-02
  4.4286942e-01
  1.8431289e-01
  1.4202045e+00
  5.4875702e-01
  5.7944950e-02
 -1.3015734e-02
  4.1539663e-01
  5.7273358e-01
 -2.9055652e-01
 -1.0263473e+00
 -7.1177918e-01
  5.0860256e-01
 -3.2587147e-01
  8.1594020e-01
  2.5743661e+00
  3.0785730e+00
 -3.4112516e-01
 -4.8461831e-01
  5.7976896e-01
  3.9689106e-01
 -1.3422049e+00
 -1.3561219e-03
 -4.9765196e-01
 -4.0753925e-01
 -3.4979671e-01
  3.6067277e-01
 -1.2060424e-01
  7.6607162e-01
  9.0991491e-01
 -1.9551571e-01
 -1.1156432e-01
  1.1806253e+00
 -3.7098527e-01
  3.0620620e-02
 -2.3734280e-01
  9.2171714e-02
 -2.2089753e-01
 -1.0267928e+00
 -6.1219037e-02
  1.0553837e+00
 -1.8724957e+00
 -1.5387468e+00
 -3.4308908e+00
 -3.7164905e+00
  1.8298339e+00
 -1.8891801e+00
  4.5528553e-02
  1.0735634e-01
  1.9960730e+00
  1.7044022e+00
 -6.9688505e-01
  1.2086110e+00
 -1.9992895e+00
  3.1076333e-01
 -7.5420797e-01
  1.2415724e+00
 -1.5802299e+00
 -4.5551226e-01
  2.7189758e-01
  1.1815838e+00
 -3.0599833e+00
  8.9059062e-02
 -2.8470325e+00
 -6.8564075e-01
 -1.6212245e+00
 -1.7007904e+00
  1.0279584e+00
 -6.3809657e-01
  4.2526370e-01
  1.1096747e-01
  1.1793910e+00
  4.0747708e-01
 -3.7222531e-01
  4.4303152e-01
 -4.8977580e+00
 -2.3390894e+00
 -2.1857409e+00
 -4.2278782e-01
  2.7878129e+00
 -1.3419667e+00
 -3.4921205e+00
  7.2264409e+00
 -7.5445634e-01
  1.4164107e-01
  1.9009476e+00
  1.0492862e+00
 -1.0389625e-01
  2.4384942e+00
  1.2840143e+00
  2.7015717e+00
 -1.1331389e+00
  2.5655620e+00
  1.2062232e+00
  1.6359593e+00
  1.6463107e+00
 -1.5748582e+00
  7.0090032e-01
  3.1658874e+00
 -1.6721021e-01
  7.7791274e-01
 -9.8927885e-01
 -1.1998836e+00
 -5.1323301e-01
 -7.2286212e-01
 -5.7648152e-01
 -1.6448963e-01
 -8.2993090e-02
 -3.4356710e-01
  1.3627656e+00
 -1.4651619e+00
  1.2530419e+00
 -2.1551368e+00
 -1.2657861e+00
  1.6046973e+00
  1.3047289e+00
  7.1421272e-01
  6.0760450e-01
 -5.4118323e-01
  9.6991408e-01
 -6.2387484e-01
  8.6741753e-02
 -2.3234352e-01
 -4.1829595e-01
  5.3393531e-01
  5.9200853e-01
 -4.0769589e-01
  4.9829876e-01
 -3.2053676e-01
  9.9223241e-02
  1.8764036e+00
 -5.1637131e-01
 -7.8602150e-02
  1.2599612e+00
 -5.4689711e-01
  6.2656111e-01
  1.4188226e-01
 -8.6081576e-01
  2.7417937e-01
 -1.2542775e-01
 -8.0007595e-01
 -3.6742827e-01
  2.5979385e-01
  3.9725837e-01
 -1.8091415e-01
  3.1014292e+00
  8.6120075e-01
 -1.0828182e+00
  1.6955235e+00
 -6.3004339e-01
 -1.3349406e-01
 -1.0604374e+00
  2.7886178e+00
 -8.5828054e-01
 -3.6090127e-01
 -4.5046070e-01
  2.6108222e+00
  1.8089491e-01
  5.2564496e-01
 -9.5061409e-01
 -4.6816257e-01
  7.5674695e-01
  1.8598180e+00
 -1.1479661e+00
 -3.9277628e-02
  7.5991803e-01
  8.6246693e-01
  4.6754811e-02
 -8.1750947e-01
 -1.2948055e+00
 -2.4444363e-01
 -1.6308165e+00
 -1.8853304e+00
 -5.2570170e-01
 -5.3869586e-02
  2.2279718e+00
  1.6142198e+00
 -1.1757067e+00
  1.0707691e+00
  9.3831688e-01
 -1.8744627e+00
  1.7838092e+00
 -2.5405459e+00
 -1.7560664e+00
 -7.7336144e-01
  1.2578864e+00
  9.9710137e-02
  6.8500018e-01
 -1.1189960e+00
  4.1369921e-01
  3.5013795e+00
 -3.5312488e+00
 -1.0556290e+00
  5.8956230e-01
 -4.7500354e-01
 -4.8496124e-01
  5.1728892e-01
 -1.4361947e+00
 -1.0358370e-01
 -2.6584959e-01
  1.0554537e+00
 -1.7127270e-01
 -7.4474978e-01
  7.9509383e-01
  3.8074189e-01
 -1.8393654e+00
  1.9715462e+00
  1.8107039e+00
  2.4151176e-01
  2.7174601e-01
  1.9988456e-01
 -1.5519591e-01
  7.3676705e-01
  3.6611426e-01
 -1.6645408e-01
  3.6407268e+00
  4.3989757e-01
 -2.5170326e+00
 -2.5266337e-01
  1.1716911e+00
 -2.1015239e+00
  3.3065844e-01
 -1.2720474e+00
 -1.3811491e-02
  2.0270140e+00
  2.8947382e+00
 -7.4730146e-01
 -3.2677379e-01
  1.8859929e-01
  9.5222749e-02
 -1.4608290e+00
 -1.5093086e+00
 -6.2735778e-01
 -1.4914407e+00
  1.2374383e+00
  8.4449875e-01
 -1.7687802e+00
 -1.1473460e+00
 -6.5699291e-01
  1.8648493e+00
 -2.2137877e-01
  1.2719756e+00
 -5.0318956e-01
  1.5751938e+00
  6.0290009e-01
 -6.9455069e-01
 -7.2371107e-01
 -3.5448659e-02
 -1.0852020e-01
 -4.9298373e-01
 -1.4760333e+00
 -2.9497361e+00
  5.2999794e-01
 -2.3979921e+00
  8.8698930e-01
  1.8310218e+00
  2.6380877e+00
 -1.5712652e+00
 -8.4951168e-01
  6.0921192e-02
  2.3949325e+00
 -2.0677955e+00
 -2.9654419e+00
 -7.0080137e-01
 -7.1354359e-01
  4.1188126e+00
 -1.9333191e+00
  5.8274273e-02
  1.3834372e+00
 -4.2145383e-01
  9.3572313e-01
 -1.4611202e+00
 -1.1286154e+00
  2.2421522e+00
  1.1009365e-01
 -4.0011535e+00
  3.6810846e+00
  2.5398914e-02
  2.4430883e+00
  2.1275194e+00
 -1.3543190e-01
 -1.1582947e+00
  1.1073908e+00
  1.1952130e-01
 -1.5479726e+00
  4.0726929e+00
  4.6044421e-01
 -4.6416984e+00
 -4.5975089e+00
  1.7804865e+00
 -1.3184808e+00
 -3.4811527e-01
  5.1777565e-01
 -2.4794881e-01
  1.8673608e-01
 -4.7043616e-01
 -4.5208150e-01
  7.1879601e-01
  7.2520304e-01
 -3.4099042e-01
  8.1009978e-01
  7.9711443e-01
 -6.2017089e-01
 -8.8700300e-01
  1.2884744e+00
 -6.9890314e-01
 -2.2118642e+00
  9.7562242e-01
  8.5814542e-01
  1.9269975e-01
  2.9827683e+00
 -7.5691617e-01
 -1.1234329e-01
 -3.6716005e-01
 -6.9839656e-01
 -1.1868721e-01
 -1.0527269e+00
 -1.7717655e-01
 -5.8864838e-01
  3.8980648e-01
 -2.2012513e+00
 -2.3615006e-01
  6.3557178e-01
 -5.4613984e-01
  1.5653454e-01
  7.5250173e-01
 -1.2324258e-01
  1.3425289e+00
 -5.0150967e-01
 -1.2494377e+00
  1.8367018e-01
 -2.2744288e+00
  7.4275702e-01
  2.3761895e-01
 -2.4198066e-02
  3.9987615e-01
 -9.1630358e-01
 -3.6407012e-02
  8.4942371e-01
 -6.5108931e-01
  1.5866529e+00
  1.3012105e+00
  1.2795948e+00
 -6.6356599e-01
 -5.8194131e-01
 -2.7466438e+00
  1.9740061e-01
 -3.2425806e-01
  9.4651508e-01
 -3.3611119e-01
  5.5496341e-01
  9.2249297e-02
  6.8058681e-01
 -3.0099174e-01
 -5.7999229e-01
 -3.3689666e+00
  7.5034928e-01
 -7.9566711e-01
  4.5914805e-01
  1.8806342e+00
  5.6122434e-01
  2.0815647e+00
 -2.4473662e+00
 -1.0507943e-01
  6.7555320e-01
  2.4321856e-01
  1.0890491e+00
 -7.2495538e-01
 -2.5133991e-01
  1.3458519e+00
  9.6014477e-02
  4.4114366e+00
 -1.5844600e+00
  2.5938621e+00
 -2.1529138e+00
  1.8462625e+00
  2.0823140e+00
  4.2596960e-01
  8.4146982e-01
  2.1187158e-01
  9.9274015e-01
  1.6631784e+00
  8.1827831e-01
  2.8895274e-01
 -1.2172701e+00
 -5.3183889e-01
  1.0330602e+00
  9.2386000e-02
 -8.2352020e-02
  3.2198068e-01
  1.2389926e+00
  1.1184286e+00
  3.0067933e-01
 -1.8297336e-01
 -1.7560225e+00
  3.3732231e+00
 -5.3390694e-01
 -2.1654403e-01
  3.3934122e-01
  8.6926568e-01
 -1.5991074e+00
 -2.4209278e+00
 -3.6577341e-01
  3.0958632e-02
  1.4126233e+00
 -6.5392125e-01
  5.1885456e-01
  5.5347997e-01
  8.5877337e-02
 -1.5064778e+00
 -1.9879054e+00
  2.1597192e+00
 -1.1405878e+00
  9.3959469e-01
 -9.9094725e-01
  3.6852203e-02
  1.2991127e+00
  4.3457109e-01
  7.3751187e-01
  5.4959673e-01
 -4.4643357e-01
  1.6656266e-01
  4.6032754e-01
  5.4204768e-01
 -5.2473086e-01
  6.3599052e+00
  1.4985220e-01
 -1.4811943e+00
 -4.9939427e-01
 -1.7984779e+00
  4.5231848e+00
  9.6044987e-01
 -1.1872476e+00
 -1.1953776e-01
 -3.6912777e+00
  6.4855975e-01
  1.3066320e+00
 -3.2445416e+00
 -9.3039823e-01
 -2.1921084e+00
  1.4767315e+00
 -1.7527944e+00
 -1.3291420e+00
 -1.4913132e+00
 -1.6205850e+00
 -8.9393817e-02
 -1.7923340e+00
  2.3807885e-02
 -2.8124139e+00
 -1.6973478e+00
 -2.1621895e+00
 -1.3560859e+00
  1.3480790e+00
 -4.7553465e-01
 -2.5839740e-01
  7.3649275e-01
 -2.0131296e-01
  7.4639869e-01
 -3.4229305e-02
  1.1956480e+00
 -1.7539475e+00
 -2.6335504e+00
 -1.6098309e+00
 -2.6505725e+00
  2.0489752e+00
  2.1107645e+00
 -6.7749137e-01
  1.2410043e+00
 -3.9218032e-01
 -4.9810454e-01
  1.2487557e+00
 -9.3211317e-01
  3.9847417e+00
 -1.6242535e-01
  5.4458212e-02
  1.2766395e+00
  5.2248806e-01
  1.5272771e+00
 -7.1111864e-01
  7.4463958e-01
  6.7714435e-01
  7.9546943e-02
  3.6569074e-01
  1.5246810e+00
 -3.5837284e-01
  9.1331208e-01
  6.3935183e-02
  2.5886148e-01
  2.7015993e-01
  8.4906322e-01
 -2.5970611e-01
 -3.1299159e-01
  7.5772583e-02
  2.1594128e-02
 -1.1064132e+00
 -3.2927236e-01
  7.4451697e-01
  1.4894037e+00
  1.3013135e+00
 -1.6059612e+00
 -3.2190600e-01
  3.6430150e-01
  2.3425431e+00
 -6.0014814e-01
  4.7586790e-01
 -8.4143740e-01
  3.1429915e+00
  1.6596903e+00
  2.7562284e-01
  3.5196588e+00
 -1.3667369e+00
 -5.0154001e-01
 -1.9473511e+00
  4.4148266e-01
  7.3441929e-01
 -2.6308949e+00
  2.8017654e+00
  1.0953114e+00
  1.4967439e+00
 -1.3732601e+00
  2.3089457e+00
  4.2094648e-01
 -1.6652783e+00
 -5.4693379e-02
 -7.7954167e-01
  9.4573669e-02
  3.6691681e-02
 -7.5067019e-01
 -6.0085064e-01
 -4.5808214e-01
  1.7383759e+00
  1.3689597e+00
  3.8885213e-02
 -2.0431826e+00
  2.3015485e+00
 -1.8349230e+00
 -3.4255109e+00
  5.8822978e-01
 -4.4519444e+00
 -2.0898361e+00
  3.2869627e+00
  4.0178299e+00
  1.1471889e+00
  9.8212111e-01
 -1.4377996e+00
  3.1166937e+00
  1.2821704e-01
  2.0651287e-01
 -5.0383408e-02
  2.2784443e+00
  2.1716895e+00
 -5.9771770e-01
  1.0719299e+00
 -7.6615965e-01
  9.9480426e-01
  2.1851596e-01
 -3.4613464e+00
 -3.9315352e-01
 -1.0614908e-01
 -1.1096420e-01
 -1.4049586e+00
 -2.7351582e-01
 -1.6390811e-01
 -5.8579212e-01
  9.1799140e-01
  3.7342176e-01
  1.3734474e+00
 -4.0011927e-01
  2.6461644e+00
  2.5154035e+00
  9.6013439e-01
  7.6486707e-01
  2.8462905e-01
  1.1355644e+00
 -1.6415829e-02
 -4.0146706e-01
  1.2039431e+00
 -1.4781090e+00
 -1.5798999e-01
 -1.7588928e+00
 -1.5594835e+00
  1.2297384e+00
 -6.6728467e-01
  1.5080558e+00
 -2.4492334e-01
  6.1197996e-02
  6.0132593e-01
  3.0743244e-01
  6.8598521e-01
 -2.6755667e-01
  2.1646495e+00
  2.8981328e-01
  2.1788449e+00
 -9.0755570e-01
 -1.0277580e-01
 -1.3454335e+00
 -4.0839335e-01
  7.9807264e-01
 -1.1616106e-01
  6.9281858e-01
 -4.2221532e+00
 -1.3525003e-01
  8.2539618e-01
 -8.8855112e-01
  7.2779918e-01
 -1.7287753e+00
 -1.0530431e+00
  9.1833150e-01
  1.9683727e+00
  9.5517117e-01
 -8.6219114e-01
  2.7432404e+00
  9.6717525e-01
  3.8182038e-01
 -3.8952407e-01
  2.1654786e-01
  1.0532328e+00
  1.5743909e+00
  7.0176375e-01
  1.9436976e-01
 -2.4568577e+00
  3.1097355e+00
  1.8412796e+00
  2.8567925e-01
 -4.8461518e-01
 -1.1776388e-01
 -2.3042166e+00
  2.0744331e+00
 -1.9052812e+00
  1.3947651e+00
  1.6080463e-01
  8.8136697e-01
 -1.4056159e+00
  2.5063214e+00
 -1.7787974e+00
 -6.0269232e+00
  7.9234427e-01
 -5.0216717e-01
  1.3342886e-01
 -5.5171056e+00
  2.5577242e+00
 -5.2473348e-01
 -2.3821993e+00
  1.1050128e+00
 -7.0793748e-01
 -2.6499894e-01
  1.8670485e+00
 -3.7248217e-02
 -5.5494100e-01
  4.7223291e-01
  6.3997996e-01
  7.8910983e-01
  3.9811260e-01
 -9.6134490e-01
  6.4411622e-01
  1.2179222e-01
  7.6507497e-01
 -9.1452020e-01
  9.0267313e-01
  2.5616279e+00
 -3.3905950e+00
 -1.0870435e+00
  6.6027820e-01
 -7.0688385e-01
 -4.3059397e-01
  2.6111883e-01
  1.7195997e-01
  1.6205651e+00
 -2.4079885e-01
 -9.1148093e-02
  6.5243726e+00
  6.8312603e-01
  4.2177138e-01
  1.0719521e+00
  1.0053282e+00
  2.2988498e+00
  2.1725540e+00
 -3.6059988e+00
 -5.2396643e-01
 -5.5545139e-01
  2.0919991e+00
  1.8244474e+00
  6.6150349e-01
 -3.3121336e-01
 -1.3962940e+00
  1.7651809e+00
  5.5967510e-01
 -1.5075306e+00
 -7.2751349e-01
  2.5299060e+00
  1.6581144e+00
 -2.3921120e+00
  6.8591207e-01
  4.3501580e-01
  6.0145640e-01
 -5.2901068e+00
 -1.0611144e-01
  1.5959882e+00
 -1.3464491e+00
 -1.2761810e+00
  1.2479007e-01
  1.5515298e+00
 -8.0746889e-01
 -1.7320131e-01
  3.0701691e-01
 -1.8079244e+00
 -3.2362313e+00
  1.8254377e+00
  2.4761485e-01
 -8.4403795e-01
 -1.3084723e+00
 -1.4353243e-01
 -5.3732133e+00
  6.9892770e-01
  2.6273206e-01
 -1.0286638e+00
  4.2429090e+00
 -5.1313186e-01
  6.1879480e-01
  8.9381225e-02
  4.2844033e+00
 -2.6722417e+00
  8.2052839e-01
  1.6382219e-01
 -2.9547074e+00
 -1.3236448e+00
  2.1024704e-02
  1.2784908e+00
  5.0994593e-01
  9.1001701e-01
  6.4397925e-01
  1.2881024e+00
  9.2097121e-01
  1.0191278e+00
 -2.0115376e-01
  6.5404582e-01
 -1.1344166e+00
 -7.2769785e-01
  6.0941708e-01
 -5.0150651e-01
 -2.0669522e+00
 -6.6099662e-01
  1.8540983e+00
 -4.1731734e-02
 -1.6382538e+00
  1.1564022e+00
  8.8452733e-01
 -6.1074555e-02
  1.7783966e+00
  2.1762924e+00
 -2.2487104e+00
 -5.8529061e-01
  6.8714261e-01
  1.6005951e+00
 -8.6345541e-01
 -3.7096027e-01
  3.8999560e-01
 -2.5941079e+00
  1.0867406e+00
 -3.5796523e-01
 -1.1451955e+00
 -1.5692431e+00
  3.5824940e-02
 -1.5230309e+00
  7.0751143e-01
  4.4838035e-01
  8.8851607e-01
 -4.7792977e-01
 -7.7705540e-02
 -1.2247438e-01
  5.2424747e-01
  8.7400520e-01
 -4.7167313e-01
  6.1237085e-01
 -2.5279176e-01
 -2.3549442e-01
 -3.7282445e+00
  7.1263683e-01
  4.3798986e-01
  2.0506804e+00
 -4.6383142e-01
  1.1307299e+00
 -1.1949290e+00
 -1.3249658e+00
  2.0666513e+00
  5.4055417e-01
 -1.4949955e+00
 -2.5483973e+00
  5.5443269e-01
 -7.2606754e-01
 -1.1166619e+00
  4.9120483e-01
 -5.1219624e-01
  6.3241619e-01
  7.7535570e-01
  8.3281690e-01
  2.3341739e+00
  1.0508373e-02
  2.2059617e+00
 -7.6371133e-03
  1.0291128e+00
 -1.5046943e+00
  4.7856334e-01
  1.2216737e+00
 -1.9547468e-01
  4.9790576e-01
  6.2236822e-01
 -4.0796262e-01
  7.2029561e-02
 -4.3383873e-01
 -3.3240542e-01
 -5.1857215e-01
  1.1434731e+00
  2.7993681e+00
 -4.3088436e+00
 -1.5443806e-01
  3.0287564e+00
  2.3747613e+00
  3.4823909e-02
  4.9473599e-01
 -3.7378285e+00
  3.2393961e+00
  1.0040103e+00
 -2.8970966e-01
  1.0917720e+00
  6.3800311e-01
 -3.3706365e+00
  3.1324586e-01
 -7.7418804e-01
 -6.1256790e-01
 -1.2988584e+00
 -8.3554548e-01
 -2.7143617e+00
 -5.3776956e-01
  1.8421942e-01
 -1.1577271e+00
 -4.0591902e-01
  1.6928713e+00
 -1.4370380e-01
 -4.7315079e-01
 -1.0001505e-02
  4.2483839e-01
 -6.0933888e-01
 -8.4146947e-01
  3.5934907e-01
 -4.8566895e+00
 -2.8271680e+00
 -2.2275732e+00
 -3.3473558e+00
  7.0650232e-01
 -3.9995210e+00
 -3.8332503e+00
 -1.0372221e+00
 -8.2509547e-02
  4.3196410e-02
 -9.6915704e-01
  2.4858916e+00
  3.2634113e+00
 -5.3399360e-01
  3.2325858e-01
 -8.6279327e-01
  3.5979216e+00
 -3.2622415e-01
  1.8405765e+00
  2.7828595e-01
  5.1514465e-02
  1.6796290e+00
 -5.0967383e-01
  2.6910919e-01
  2.0516646e-01
  1.4488627e+00
 -2.2482662e+00
 -1.8653211e-01
 -4.3052849e-01
 -1.7648821e+00
 -2.3411644e+00
  4.1633987e-01
  4.0659276e-01
 -4.4140730e-02
  2.3845203e-01
 -1.0197350e+00
 -2.8851533e-03
  1.0564214e+00
  1.5992947e+00
  2.7608702e+00
  7.2153878e-01
  3.6381710e-01
 -1.4465430e+00
  4.2203698e-01
 -4.2389929e-01
 -4.7102442e-01
  4.3126845e+00
 -9.3752617e-01
 -4.0533814e+00
  2.8015995e-01
  1.1099567e+00
  1.9413797e+00
  4.4512868e-01
  6.8196976e-01
  1.1443915e+00
  6.2116867e-01
  6.0401577e-01
 -1.9553900e-01
 -7.5918770e-01
  2.1728930e+00
 -7.0553184e-01
 -1.0366225e+00
 -5.1852983e-01
  2.1101265e+00
  1.1828241e+00
  5.0814712e-01
 -6.4371061e-01
  1.2365522e-01
 -5.7428634e-01
  3.2391131e-01
 -3.2486477e-01
 -8.5778761e-01
  1.6763730e+00
  5.3527951e-01
 -5.5508417e-01
 -8.7793028e-01
  1.2543146e-01
 -1.2895280e+00
  2.8512248e-01
  1.9751893e-01
 -7.4896330e-01
  2.2379658e+00
 -2.9424614e-01
 -1.1671852e+00
  4.0200543e-02
 -3.0247791e+00
  1.8564821e+00
 -3.0662525e-01
  1.3534253e+00
  2.2362508e-01
  2.8976967e+00
 -3.4348083e+00
  2.3504419e+00
  2.6454869e-01
 -8.5381144e-01
 -5.9207070e-01
 -4.7841296e+00
  1.2763137e-01
 -7.0014930e-01
  8.8092744e-01
  5.1598564e-02
  1.0011239e-01
 -1.7933310e+00
  5.0489426e-01
 -2.0055076e-01
 -3.1457356e-01
 -6.4786357e-01
 -2.0220835e+00
  2.0988214e+00
  2.0624771e+00
  3.4450689e-01
 -2.6546297e+00
 -3.7266827e-01
  1.2933803e-01
 -2.9120111e+00
  8.7116599e-01
  8.4802061e-01
 -2.2894771e+00
  1.1858981e+00
  9.2381978e-01
  1.4587444e+00
 -2.1126509e+00
 -3.2689540e+00
  9.2707014e-01
  9.3747467e-01
  2.8521273e+00
 -3.0749416e+00
 -5.1026660e-01
  5.4075038e-01
 -1.4705377e+00
  9.1667652e-02
 -1.3320386e+00
  3.7330285e-01
  1.5041151e+00
  1.7436261e-01
 -4.6259293e-01
 -7.9861253e-01
 -2.1914294e-02
 -3.0533308e-01
  3.4799853e-01
  6.1950202e+00
  2.9275239e+00
 -7.0329326e-01
  2.9198191e-01
  6.4693707e-01
  8.9503539e-01
  8.5957873e-01
 -3.3560483e+00
 -9.4862449e-01
  8.5203183e-01
  4.4061174e+00
  1.7867471e+00
 -4.6307063e+00
 -4.1675904e-01
 -2.2941866e+00
  2.8839169e+00
 -1.2683769e+00
 -2.0828679e+00
  1.8414054e+00
 -1.4922047e+00
 -1.1753871e+00
 -2.0463958e+00
  5.5699654e+00
 -1.2082425e+00
 -1.0978005e-01
  2.1981158e+00
  1.2243270e+00
  3.2594255e-01
  3.4799433e-01
 -8.5474618e-02
 -2.4894680e-01
 -5.7151985e-01
  3.6814234e-01
  5.8839548e-01
 -2.1954846e-01
 -2.3006268e+00
 -1.8127791e+00
 -3.3588343e+00
 -1.3750935e+00
 -1.3547983e+00
 -3.6436877e-01
  2.4188738e+00
  2.4189279e+00
  1.4665179e-01
  1.7239782e-01
  3.2572708e-01
  5.2611480e+00
  2.3853152e-01
 -3.1552920e-01
  9.5454764e-01
 -2.5010085e+00
 -1.7308317e-02
 -2.5133786e-01
  3.5836777e-01
  3.6474373e+00
 -5.0351918e-01
  1.3908683e-01
 -3.4923217e-01
  7.8570050e-01
 -1.9394774e+00
  4.3887076e+00
 -1.0641030e+00
  1.4009225e+00
 -5.4962292e-02
 -1.1355524e+00
 -1.6726884e-01
  2.5842357e-03
 -5.0215429e-01
 -1.4198446e+00
  1.2157147e-01
 -1.4949292e+00
  2.0944577e-01
  6.1378103e-01
  7.1304214e-01
 -2.6933720e+00
 -8.0030933e-02
  1.7775668e-01
  1.8838440e+00
  3.6650375e-01
  7.3626864e-01
 -2.8721156e+00
  1.3818468e+00
 -1.2569908e+00
 -1.2025562e-01
 -2.0115054e-01
 -1.0147175e+00
 -9.0874863e-01
  5.9467041e-01
  1.3467984e+00
  2.7183187e-01
  5.9400356e-01
  8.3741361e-01
  7.0031846e-01
 -1.5958492e+00
 -1.7660021e+00
  7.7154595e-01
 -3.7872675e-01
  4.4709158e-01
 -8.7921911e-01
 -1.4221200e-01
 -2.2966656e-01
  3.5571730e-01
 -1.3353019e+00
  1.9033992e-01
  3.6833182e-01
  2.3243830e+00
  2.1330342e-01
 -1.3159450e+00
 -1.9049276e+00
 -1.1676980e+00
 -3.4636363e-01
 -1.5301199e+00
 -2.3946519e+00
  1.8162403e+00
 -1.0484780e+00
  2.1902926e+00
  5.3714645e-01
 -1.7050261e+00
 -1.9917318e+00
  1.2860230e+00
 -8.7931895e-01
  1.5522062e+00
  3.0047947e-01
  1.3078885e+00
  2.2103856e+00
  4.0973830e+00
  6.2963253e-01
  1.2621741e-01
 -7.2361547e-01
  6.2110406e-01
 -5.2004635e-02
 -2.0510509e+00
  2.2885172e+00
 -2.1572199e+00
 -1.0565672e+00
 -2.7567488e-01
  6.4586920e-01
  7.2245586e-01
  3.6264554e-02
 -9.7667134e-01
  9.6507460e-02
 -6.0532320e-01
  7.0552677e-01
 -5.8688617e-01
  9.5727193e-01
  1.6837652e+00
 -2.7045926e-01
  6.1321396e-01
 -3.2608822e-01
  7.1171980e-04
  2.8213409e-01
 -2.0153594e+00
 -1.4914407e+00
 -2.9797997e+00
 -2.6109377e-01
  8.2750762e-01
 -4.1607313e+00
 -6.5439664e-02
 -1.3901324e+00
 -7.9998744e-01
 -3.9354676e-01
 -8.1457269e-01
  9.2145663e-01
 -9.2337030e-01
 -1.4767013e+00
 -9.9083382e-01
 -1.6148682e+00
  3.6972526e-02
  7.3336810e-02
 -4.3276012e-01
  3.0558443e-01
 -4.4383416e-01
 -1.6895173e+00
 -5.0044823e+00
  1.9679935e+00
  3.8506513e+00
  1.3500224e+00
 -3.6061165e-01
 -1.5608144e+00
 -9.3276471e-01
  8.4326917e-01
 -1.7761776e+00
 -1.8282647e+00
 -9.0446687e-01
 -1.2692195e+00
  2.2151539e-01
 -1.4141451e+00
 -8.2885540e-01
 -4.0797186e-01
 -7.5530326e-01
 -3.0944130e+00
  2.6405134e+00
 -8.9029592e-01
  1.1856147e-02
  2.2186019e+00
 -2.5685341e+00
 -1.5987306e+00
 -1.5801803e+00
  5.8792915e-02
  2.1473849e+00
 -2.9736881e+00
  2.1388984e+00
 -2.2623222e+00
 -1.3453406e-01
  1.9469087e+00
 -2.4254598e-01
  1.5866789e-01
  1.3465430e+00
 -4.8566183e-01
  5.5392003e-01
  4.5626727e-01
  2.8388146e-01
 -1.2833778e+00
 -7.5311911e-01
  8.7371635e-01
  4.2058706e-01
  7.2935395e-02
  1.8553373e+00
 -6.0174882e-01
  6.8687969e-01
 -2.4528980e+00
  3.2808993e+00
  2.9535735e-01
 -7.2106159e-01
 -4.9671095e-02
  5.1507765e-01
 -1.5265551e-01
  9.9793345e-01
  6.8097019e-01
  3.8362771e-01
 -1.0360703e+00
  1.2427070e+00
  1.2759538e+00
  1.3439027e+00
 -5.7650268e-01
 -8.9843571e-01
  1.3432840e+00
 -6.1806148e-01
  2.5863867e+00
 -9.5807666e-01
 -2.7146852e-01
 -1.0360593e+00
 -7.0608556e-01
 -1.4962544e-01
 -8.2713574e-01
  1.4189504e+00
 -3.1807787e+00
  2.5890207e+00
 -3.1009059e+00
  1.4108140e+00
  4.6776012e-01
  2.6648371e+00
  1.0004134e+00
  1.4122093e-01
 -3.9169565e-01
  2.2267532e+00
  1.4485517e-01
 -3.3610103e+00
 -8.3855551e-01
 -1.9450991e-01
 -7.4079394e-01
 -2.6533828e+00
 -6.9612974e-01
 -1.2329768e+00
  1.2726369e+00
  6.5328531e-02
 -1.4289070e+00
 -2.1839345e+00
  1.5110199e-01
 -4.1659001e-01
  1.3473514e+00
  1.3397223e+00
  1.0836393e+00
  7.5574261e-01
 -2.0875964e+00
 -5.2237707e-01
 -6.0637194e-01
  2.7918035e-01
  3.0616814e-01
 -1.7106216e-01
  4.2528572e+00
  2.7160239e+00
 -2.3971190e+00
 -2.4469972e-01
 -1.7028680e-01
 -5.1673871e-01
 -1.5213109e+00
  6.2546653e-01
  4.1083014e-01
 -5.4008943e-01
  6.3115174e-01
 -1.6141642e+00
  8.2212257e-01
 -7.9347992e-01
 -2.7274666e-02
 -1.8579559e+00
  5.9466535e-01
  2.5981977e+00
 -1.7924755e+00
 -3.4074283e-01
 -1.1840334e+00
 -7.1767002e-01
 -3.1731167e-01
 -2.3262466e-01
  1.7704568e+00
  1.0084815e+00
 -1.0750616e-01
 -2.6881337e-01
  3.0461892e-02
 -3.3135276e-02
  3.8396727e-02
  1.5801087e-01
  3.2438177e-01
  1.9183131e+00
  2.7281979e-02
  1.6159015e-02
 -3.7798181e+00
 -2.7197952e+00
 -1.3239058e+00
  1.9715759e+00
  6.0317984e+00
 -3.7473574e+00
  2.0956869e+00
 -2.7261770e+00
 -1.5283166e+00
  1.2583284e+00
  4.3750834e-01
  1.9384251e+00
 -1.0930732e+00
 -1.7769033e+00
 -2.0331554e+00
  1.2025365e+00
  4.0376690e-01
 -1.8885490e-01
  1.4057193e+00
  1.7707976e+00
  6.9540896e-02
  2.6476557e+00
 -1.3704509e+00
  1.1238019e+00
 -9.3997419e-01
 -2.7047124e+00
 -9.6874130e-01
 -3.1335050e-01
 -1.5318031e+00
 -1.8086456e-01
  9.1529363e-01
  6.0615860e-02
  6.0797036e-01
  3.2530740e-01
 -5.0289793e+00
 -6.0146242e-01
 -2.5459628e+00
 -1.9134209e-01
 -2.2680483e+00
 -8.2572550e-01
 -6.9494736e-01
 -2.1867619e+00
 -3.7132773e-01
  2.7402768e-01
 -3.6182892e+00
  6.8019843e-01
  2.9342659e+00
 -2.9035720e-01
 -8.2043159e-01
 -6.9339091e-01
 -1.5740936e+00
 -1.5993931e+00
 -1.8481404e-01
  3.7702663e+00
 -1.8731036e+00
 -9.7838467e-01
  6.3028628e-01
 -2.5516272e-01
  1.5546193e+00
  1.6852525e+00
 -2.3923609e+00
  7.7877320e-02
  3.1565621e-02
 -1.7680022e+00
  1.9306198e-01
  9.4930506e-01
  5.6565279e-01
  4.3903956e-01
  1.0142760e+00
  4.1256370e-03
  1.5586565e+00
 -7.4348205e-01
 -7.2799522e-01
 -3.7749209e+00
 -1.5359511e+00
 -8.3522618e-01
 -9.7727185e-01
  6.1503923e-01
 -6.6911525e-01
 -1.3723807e+00
  1.2663437e+00
  1.0418657e+00
 -1.2694845e+00
  4.9225089e-01
  8.2804370e-01
  4.6435815e-01
  1.2028447e+00
  9.0522510e-01
  2.7676294e+00
 -2.5208302e+00
  1.8721553e+00
 -8.6027795e-01
 -1.8208213e-01
 -1.1097041e+00
  1.0463878e+00
 -4.8394549e-01
  3.5797414e-01
  5.0262970e-01
 -2.9537451e+00
 -3.8650282e-02
  4.5401499e-01
 -1.5543723e-01
  2.2678129e-01
 -1.4874719e+00
 -4.9020834e+00
 -3.0120072e+00
  3.8594460e+00
  3.7207358e+00
  4.3750005e+00
  2.8141719e-01
 -1.2838998e+00
 -1.4291502e+00
  1.4300405e+00
 -1.7373209e+00
  1.5012188e+00
  1.0723650e+00
 -2.2599483e+00
  2.6396210e+00
  3.0130261e-01
  5.3101945e-01
  2.2684274e+00
  2.1765008e+00
  6.8281736e+00
  3.7644424e+00
 -3.4694290e-01
  3.9250042e+00
  9.6237051e-01
  5.6585560e+00
 -1.1276857e+00
  1.8875039e-01
  2.3136795e+00
 -1.0079099e-01
 -1.4620162e-02
 -2.0150174e-01
 -4.5487806e-01
  2.8558407e+00
 -6.2081501e-02
 -1.7151362e-01
 -3.2408258e-01
 -1.3131787e+00
  9.6082622e-01
  3.6444356e+00
  2.4546762e+00
  1.6493571e+00
  4.2536488e-01
 -1.7110695e+00
  6.9382131e-01
  3.5618773e-01
 -1.2812169e-01
 -8.3995676e-01
 -1.9048530e+00
 -1.8448008e+00
  6.3844162e-01
 -1.1368467e+00
  4.7854125e-01
  1.1083931e+00
 -2.3580887e+00
 -7.2963679e-01
  9.7854090e-01
  2.2254274e+00
  2.9125929e+00
  2.3014820e-01
 -1.0580059e+00
 -1.6143002e-02
 -1.8395318e-01
 -3.9644959e+00
 -9.4251198e-01
 -7.2427011e-01
 -1.0458462e+00
 -2.5955861e-02
  3.2182360e-01
 -1.4087570e+00
  1.6340986e-01
  6.5137380e-01
 -5.3464806e-01
  7.8569758e-01
  2.1103621e+00
  1.4548066e+00
 -1.4603807e+00
  1.1181116e+00
  8.5573208e-01
  1.6056421e+00
  7.3003858e-01
 -3.8063655e+00
  2.0653415e+00
 -1.4855427e+00
  1.2003123e+00
  1.0088948e+00
 -2.8861394e+00
 -5.1043820e-01
 -1.4600283e+00
 -1.5567591e+00
  4.6389174e-02
 -2.1469581e+00
  3.6132300e+00
 -3.4636562e+00
 -1.2131023e+00
 -8.9248514e-01
  1.9141493e+00
  8.3477920e-01
  2.1049824e+00
 -1.8008071e+00
 -1.7814236e+00
  1.7923812e+00
  2.5001690e-01
  1.6065549e+00
  1.5861400e+00
  7.1370488e-01
  1.8730928e+00
 -8.0975294e-01
 -7.8145212e-01
 -1.3344845e+00
 -9.3939275e-01
  1.7170589e+00
  1.1718973e+00
 -4.1220969e-01
  1.1274880e+00
  7.7762401e-01
 -6.6287056e-02
  1.0678494e+00
 -3.7517491e-01
  1.0866876e+00
 -1.2811205e-01
 -1.0272771e-01
 -1.5720326e+00
  1.9409814e+00
 -1.2247670e+00
  2.3271531e-01
 -1.4184215e+00
  2.5919741e-01
  2.5200167e+00
  4.1526771e-01
  1.7114434e-01
  7.8018445e-01
  1.3828359e+00
  2.3452011e-04
  7.3596346e-01
  2.5026186e+00
 -2.6508871e-01
 -3.5843191e-01
  8.9811969e-01
  7.4103951e-01
 -1.0468842e+00
  1.4349619e+00
 -5.0101924e-01
 -1.8666465e+00
 -1.6806918e+00
 -7.3291990e-03
 -3.5165420e+00
 -1.0230584e+00
 -2.1964111e+00
 -2.5586316e-01
  1.8141356e-01
  7.3830777e-01
  2.8092441e-01
  1.2746823e+00
  3.3048370e-01
 -8.2739151e-01
  3.1127259e-01
  4.1120642e-01
  8.3498442e-01
  8.7959850e-01
  1.9928989e-01
  7.2757781e-01
 -8.9577985e-01
  1.1332778e-01
 -1.3921765e+00
  4.4008517e-01
  2.8525910e-01
  4.6172899e-01
  3.5392213e-01
  3.0992183e-01
 -1.4970551e-01
  2.7489929e+00
 -4.7205210e-01
  5.3287172e-01
 -3.5718504e-01
  5.8165187e-01
 -3.6899963e-01
 -7.1409768e-01
  1.3443644e+00
  5.4813713e-01
  1.5700622e+00
  2.9533526e-01
 -2.0314227e-01
 -7.8075951e-01
 -2.4505825e+00
  1.5436955e-01
 -6.8937826e-01
  1.2666513e-01
  3.0908269e-01
 -4.3817711e-01
 -1.3374798e-01
 -3.2857063e+00
 -6.3751501e-01
  4.2931417e-01
 -1.6719828e+00
 -4.4027218e-01
  5.7123971e-01
  5.9994292e-01
  2.7946606e-01
  5.8326739e-01
 -1.5860336e+00
 -7.1692431e-01
 -6.5247524e-01
  5.4706395e-01
  5.5763614e-01
  6.4256018e-01
 -6.1087030e-01
 -1.7844838e+00
 -1.8884134e+00
 -6.1866593e-01
 -4.6614847e-01
  6.7152399e-01
  3.1693479e-01
 -4.6100891e-01
 -7.4345636e-01
 -7.6149166e-01
 -2.9182377e-01
  3.3189034e-01
  8.4012216e-01
 -3.9605069e-01
 -7.1245092e-01
 -3.3980355e-01
  4.5070308e-01
 -4.1480014e-01
  2.8862917e+00
  2.4642548e-01
 -1.2155697e+00
  9.8087281e-01
 -9.4150251e-01
 -2.3350558e-01
 -2.9852037e+00
 -1.9965887e-01
  2.0046700e+01
 -2.1220167e+00
 -3.5058734e+00
  3.0018988e+00
  1.4276818e+00
 -6.6946158e+00
 -2.5465055e+00
  3.0429623e+00
  5.4183216e+00
 -7.7619028e-01
 -3.4969118e+00
 -7.3016191e+00
 -1.7222154e+00
  2.2435218e-01
 -3.9881647e+00
  5.6196856e-01
  4.2658553e+00
  7.4812281e-01
  3.0529532e+00
  7.1321678e-01
  1.8191031e-01
  8.2629174e-01
 -7.4728590e-01
  2.8126163e+00
 -7.1271653e+00
 -3.1795254e-01
  4.5599957e+00
  5.0689363e+00
 -1.7577537e+00
 -1.3091168e+00
 -1.7473332e+00
  1.1585722e+00
 -7.1945560e-01
 -1.5810995e+00
 -1.0224848e+00
  3.5712593e+00
  3.8867342e+00
 -9.0598041e-01
 -2.1763539e+00
  1.1146898e+00
  6.4989619e+00
  5.4564571e+00
 -3.5949869e+00
 -6.0180402e+00
 -2.1255903e+00
  2.0921965e+00
  1.4204311e-01
  3.1496754e+00
 -4.4526401e+00
 -2.9995444e-01
  3.6035011e+00
  5.2702713e-01
  7.4935865e-01
  1.7975729e+00
  1.3592644e+00
 -1.8973451e+00
 -4.0920115e+00
  6.5448780e+00
  4.2657018e+00
 -2.9347482e+00
 -3.3474650e+00
 -1.6215163e+00
 -7.0250326e-01
 -8.5809392e-01
  1.2769005e+00
  8.3281412e+00
 -1.0009906e+00
 -4.9237709e+00
  1.6992534e+00
  4.6613688e+00
  4.7011173e-01
 -3.4016671e+00
 -1.5866208e+00
 -1.3080939e-02
  2.4487374e+00
  4.1649094e-01
 -3.2598469e-01
 -2.1584206e+00
  1.6456582e-01
  3.2323938e-02
  8.5349256e-01
 -1.2260854e+00
 -3.2826703e+00
 -4.5743780e+00
  1.9408752e+00
  1.5254618e+00
 -2.0270345e+00
  1.6816525e+00
  4.4447951e+00
  1.4934634e+00
 -2.3296809e+00
  4.1251560e-03
  4.1251560e-03
  4.1251560e-03
  4.1251560e-03
  4.1251560e-03
  5.2743582e-03
  5.2743582e-03
  5.2743582e-03
  5.2743582e-03
  5.2743582e-03
  4.1027446e-03
  4.1027446e-03
  4.1027446e-03
  4.1027446e-03
  4.1027446e-03
  2.3731452e-03
  2.3731452e-03
  2.3731452e-03
  2.3731452e-03
  2.3731452e-03
  1.4660439e-03
  1.4660439e-03
  1.4660439e-03
  1.4660439e-03
  1.4660439e-03
  7.1759237e-04
  7.1759237e-04
  7.1759237e-04
  7.1759237e-04
  7.1759237e-04
  5.9611837e-05
  5.9611837e-05
  5.9611837e-05
  5.9611837e-05
  5.9611837e-05
