nep4_zbl 1 C 
zbl 1 2
cutoff 6 5 163 106
n_max 4 4
basis_size 8 8
l_max 4 2 1
ANN 80 0
  1.9255089e+00
  3.2110593e+00
 -1.2682481e+00
 -1.8763083e+00
  3.2795075e-01
  4.1326541e-01
 -1.7002350e-01
  5.7011425e-01
 -2.7304178e-01
 -7.3241001e-01
 -8.7800659e-02
 -1.7219037e+00
 -1.0998675e+00
  1.3470903e-01
  1.7946188e+00
 -6.5865791e-01
 -1.3408992e+00
 -1.1312877e+00
  8.3532035e-01
  1.8611069e+00
 -6.8614888e-01
 -5.8419353e-01
  9.7899753e-01
  1.6254226e+00
 -6.4468557e-01
  5.1948684e-01
 -1.1686988e+00
  9.3760826e-02
  7.6338363e-01
 -1.0020322e-01
 -4.6312496e-01
  2.9663220e-01
  1.5387768e-01
 -4.2317018e-01
 -1.2700621e+00
  1.5092725e+00
  1.3311787e+00
  2.7756898e+00
 -1.1008958e+00
  1.0458121e+00
  2.1905804e+00
  1.7987591e+00
 -3.0367250e+00
  4.8992190e-01
 -1.2173374e+00
  2.1723135e+00
  9.4853920e-01
 -1.0910622e+00
  2.3924725e-01
 -8.7007201e-01
  2.0661378e+00
 -2.7902718e+00
 -1.7489312e+00
 -1.8579408e+00
 -4.0642336e-01
  3.6991847e-01
 -2.6993687e+00
  1.7072302e+00
  3.5928988e-01
 -6.8488711e-01
  9.1058052e-01
  5.4784209e-02
  3.2528963e+00
  3.8227890e+00
 -1.5141374e+00
  3.5438079e-01
 -6.9189078e-01
  1.5181010e+00
 -1.7517948e-01
 -9.9203616e-01
  1.3379350e-03
 -1.2914689e+00
  3.1276500e-01
 -1.6505129e+00
  1.4879639e+00
 -1.4369088e+00
  2.3161557e+00
  2.0389068e-01
 -7.4954498e-01
 -6.9139011e-02
 -5.1925921e-01
  5.8626789e-01
  1.2898777e+00
  1.1871082e+00
  9.5824468e-01
  1.4147969e+00
 -1.9951233e-01
 -1.2463701e+00
  5.7682049e-02
  2.6818008e+00
  6.6305262e-01
  1.9506563e+00
  1.4207991e+00
  1.1437426e+00
  9.4603132e-03
 -8.5778773e-02
 -3.5194352e+00
  3.0817571e-01
  1.6996903e+00
  2.1252787e-01
  3.0106729e-01
 -3.7179530e-01
 -7.7503574e-01
  3.9097570e-02
 -3.7827450e-01
 -2.1285813e+00
 -1.0659291e+00
 -1.6732857e+00
  1.4010425e+00
  4.2939521e-03
 -2.2248662e+00
  2.1441887e-01
  3.0238085e+00
  3.8739496e-01
  5.6665337e-01
 -2.6792890e-01
  2.5864716e+00
  6.9888896e-01
  3.6678967e-01
 -2.3973249e-01
 -2.7501190e-01
  2.2696712e+00
  2.3984890e+00
  3.5117034e-02
 -3.3561003e-01
 -4.0168014e-01
  1.2330444e+00
  1.1028445e+00
 -7.5165379e-01
  3.3171496e-01
  1.2396888e+00
 -6.6895449e-01
 -2.3460670e+00
 -1.4449251e+00
  2.8632006e-01
  9.8898548e-01
  5.6390637e-01
  3.7280492e-02
  1.2185632e+00
  2.0437825e-01
 -3.2720830e-02
 -1.7193247e+00
  2.9019484e-02
 -1.3634181e-01
  6.2097782e-01
  3.3199382e-01
  7.3905045e-01
  2.7571172e-01
 -3.0792281e-01
  7.5985223e-01
 -2.7122372e-01
 -1.4823432e+00
 -4.4159424e-01
 -1.5087786e-01
  1.1292748e+00
 -1.6579609e-01
  7.2535288e-01
  1.5793946e-01
 -7.6907510e-01
 -6.0859501e-01
 -2.3660928e-01
  3.9473128e-01
  1.3068330e-01
 -2.7480397e-01
  5.1939619e-01
  1.1456038e+00
  4.2485195e-01
 -3.7220117e-02
  5.6252581e-01
 -3.3226326e-01
  7.0355244e-02
  2.8210571e-01
 -2.5607464e-01
 -1.9989902e-02
  2.0572194e-01
 -1.7486359e+00
 -2.5286663e+00
  1.1606591e-02
  1.1035703e-01
  2.3754160e+00
 -1.9940661e-01
  1.0635350e+00
  2.1433063e+00
 -3.7424934e-01
  3.6429305e+00
 -2.0806656e+00
 -8.4298128e-01
  2.5740168e+00
 -1.0154558e+00
  1.6205153e+00
 -6.3180524e-01
  1.7829931e+00
  2.9451566e+00
 -4.8292869e-01
  2.9470401e+00
  4.0766278e-01
 -9.5801985e-01
 -3.3785900e-01
  1.0568112e-01
  1.8326638e+00
 -3.1039534e+00
  2.0821123e+00
  3.5595644e-01
  3.1864250e-01
  6.4313173e-01
 -1.5268067e-02
 -1.9565980e-01
  9.6156001e-01
  9.4377853e-02
 -1.3382128e+00
 -1.1428413e+00
 -4.0129656e-01
  1.0489347e+00
  1.3731138e+00
  3.1568999e+00
 -3.3601153e+00
 -4.4219840e-01
  4.1101673e-01
 -2.1608649e-02
  1.5059569e+00
  2.1415770e-01
 -1.7153172e+00
 -1.1060975e+00
  9.8073405e-01
  2.1458261e+00
 -1.4794491e-01
 -1.3732270e+00
 -9.2551202e-01
  2.5932214e+00
 -1.3875663e+00
  1.4782308e+00
 -2.6439035e+00
 -1.3771517e+00
  1.9913722e+00
  1.2847164e+00
  6.4571008e-02
  8.0735236e-01
  3.9821663e-01
  6.4991260e-01
 -5.7747000e-01
 -1.1386170e-01
  5.0964147e-01
 -2.2804278e-01
  2.5365397e-01
 -8.3062077e-01
 -4.8784323e+00
 -8.2822460e-01
 -3.2281148e-01
  6.4344901e-01
  5.1622815e+00
 -3.2502787e+00
 -2.7489722e+00
  1.6319561e+00
 -1.0879186e+00
  2.7498403e-01
  1.6076416e-01
 -1.6963599e+00
  1.1646883e+00
 -1.5243870e-01
  1.0759203e+00
  4.4083846e-01
 -2.0022039e+00
 -1.0158409e+00
  2.3596201e+00
  1.4245983e+00
  1.1136516e+00
  6.3198358e-01
 -1.3479242e+00
 -8.9466792e-01
  1.6669691e+00
 -2.6921415e-01
 -1.0182686e+00
 -6.2129762e-02
  1.0098042e-01
 -4.7640499e-01
 -5.1607269e-01
 -4.1159272e-01
 -4.5124960e-01
 -2.6966983e-01
  2.1326741e-02
 -1.3288357e+00
  1.8958221e-01
 -2.5609803e+00
  2.5628266e+00
  3.2155505e-01
  5.7807083e+00
  5.0399911e-01
  1.9183538e+00
 -5.0031877e-01
  4.8153901e+00
  6.0439169e-01
  1.3572640e+00
 -1.7971641e-01
  1.5208567e+00
 -2.2461501e-01
 -6.6336083e-01
 -6.7891318e-01
  3.8317508e-01
 -1.1890651e+00
 -1.2244005e+00
  1.6303833e+00
 -5.2291024e-01
  8.1842721e-01
 -8.4121794e-02
  9.7159071e+00
 -6.0819703e-01
  1.4703463e+00
 -7.3630375e-01
  9.1823006e-01
  1.1751500e+00
  4.0522479e-02
 -1.7713913e-01
  2.7105758e-01
 -8.9037943e-01
 -2.6043659e-01
  3.5917137e+00
 -3.1961995e-01
 -7.1570730e-01
 -2.6619700e-01
 -2.0001028e+00
 -6.4785498e-01
  1.7443782e-01
 -3.9696280e-02
 -2.8563204e-01
 -6.2471050e-01
  6.1937314e-01
 -1.5931814e+00
 -3.2771501e-01
  1.1662276e+00
 -1.4259933e+00
 -1.7098855e+00
 -1.3785654e+00
  5.5410430e-02
 -2.1595316e+00
  4.9097702e-01
  1.2749844e+00
 -9.7535098e-01
  8.7536275e-01
 -3.8433948e-01
 -2.4703920e+00
  1.6780946e+00
  4.3609980e-01
 -6.1567676e-01
 -8.5440838e-01
 -7.8850836e-02
 -6.9427705e-01
  5.8704883e-01
  8.5914992e-03
  4.4850883e-01
 -4.4373026e-01
  1.4848207e+00
  2.0180330e+00
  8.1916696e-01
  2.1028629e-01
  2.5247446e-01
  1.7212740e+00
  7.8991860e-02
  3.7777929e+00
  1.1217574e-02
 -5.9871358e-01
 -5.4547489e-02
  1.0858925e-01
  7.1658778e-01
  7.3003924e-01
  1.0241547e+00
  8.5091829e-01
  4.8058850e-01
 -3.5752943e-01
 -3.3320829e-01
 -8.0477506e-01
  3.2568767e+00
 -9.7415403e-02
  2.2129808e-01
  6.9822013e-02
  6.6228288e-01
  1.3539230e+00
  3.7448579e-01
  6.5448171e-01
  3.0623436e+00
  1.8366051e+00
  4.7363651e-01
 -1.3677179e+00
 -3.5410842e-01
  7.1728754e-01
  1.2283681e-01
  1.7879757e+00
 -2.9422522e-01
 -1.2854348e+00
  2.1782045e-01
  1.1502404e+00
 -1.6442737e-02
  2.8027630e-01
  7.3378164e-01
  9.5718181e-01
  1.2492806e+00
  5.0133610e-01
  2.9281697e-01
  1.0933684e+00
  4.3681368e-01
  1.2337857e-01
 -1.4181504e+00
 -1.6963218e-01
 -8.0135179e-01
 -6.1210966e-01
 -8.1629139e-01
  1.8205813e+00
 -1.3916368e+00
  1.3545305e+00
 -5.4899693e-01
 -4.9822152e-01
  6.8118364e-01
  3.1971192e+00
  7.2946916e-03
  1.1152736e-01
  8.3748263e-01
  3.5323504e-01
 -4.2488593e-01
 -2.3806278e-02
 -1.5855138e-01
 -1.9126056e-01
  5.5208081e-01
 -1.3698137e-01
  2.7011497e+00
  8.9871585e-01
 -1.9070625e+00
 -2.8474170e-01
  1.4685193e+00
 -1.7745134e+00
 -1.4550818e+00
  2.3428911e-01
  5.9542161e-01
 -2.5265747e-01
 -1.3865524e-02
  1.7104222e+00
  4.4869682e-01
 -9.6877120e-02
 -1.6230177e+00
  4.3171158e-01
 -5.4004568e-01
 -5.5833358e-01
  1.6544292e+00
 -1.2610490e+00
 -3.5227090e-01
 -1.3789096e+00
 -2.5162622e-01
  8.1335270e-01
 -1.6369025e+00
  3.3242118e-01
 -3.2394691e+00
  3.2535690e-01
  2.2695261e-01
  1.1826481e+00
  4.8571247e-01
 -2.2054859e-01
 -2.5716372e+00
 -3.4195334e-01
 -9.1892755e-01
  1.2709424e+00
  1.1943346e+00
  1.9815944e+00
 -1.1801245e+00
  2.7900910e-01
  4.7588419e-02
 -3.2215858e-01
  1.3618914e+00
  9.9896157e-01
  9.5162618e-01
 -1.5249944e+00
 -3.9702756e-03
 -1.6750664e+00
 -1.2663153e+00
 -1.8853450e+00
 -4.6981077e+00
  1.5553845e+00
 -1.5179794e+00
  7.6469421e-01
  9.1765815e-01
 -2.2264320e-01
 -2.6060286e-01
  5.4901505e-01
  1.3513680e-01
 -2.9267969e+00
 -6.3299504e-03
  3.9969128e-01
  4.4328201e-01
 -3.4104252e-01
 -5.8800352e-01
  3.2822680e-01
 -8.9631546e-01
 -4.1855824e-01
  1.3140766e-01
 -8.6457229e-01
 -1.8087836e-01
 -1.8201198e-01
  2.5651702e-01
 -7.7083123e-01
  3.7816933e-01
 -1.0395714e+00
  6.4262158e-01
 -4.3079537e-01
 -1.3448890e+00
 -1.2840934e+00
 -3.1040311e-01
  7.9686767e-01
  6.8631965e-01
 -1.5179797e-01
 -1.4351980e-01
  3.2459718e-01
  1.0119623e+00
  1.2584408e-01
  7.1817148e-01
 -9.6677321e-01
  1.1565816e-01
 -1.0444008e+00
 -2.3624308e-01
  9.9412903e-02
 -9.2909712e-01
  7.0054992e-03
  4.5777595e-01
 -9.1670966e-01
  1.3778473e-01
  1.0622915e+00
 -1.9334291e-01
  2.9406917e-01
 -1.0374132e+00
  4.5092130e-01
 -1.7719209e-01
 -1.7761997e+00
  5.7883990e-01
  1.4310205e-01
  2.1540144e-01
 -1.2226715e+00
 -1.4182599e+00
  1.2289200e+00
  3.1293848e-01
  2.5811126e+00
  2.9956982e+00
 -3.3693388e+00
  1.7561691e+00
  3.2680634e-01
 -2.4846401e+00
  1.6259778e+00
  3.2563478e-01
  1.7783772e+00
 -4.5768851e-01
 -2.6890867e+00
  1.7629857e+00
 -9.7097838e-01
 -6.4148641e-01
 -7.4956948e-01
  8.8538307e-01
 -2.6222968e+00
  1.3581799e+00
  2.3121905e-01
 -8.4915137e-01
 -5.3784621e-01
 -2.0823270e-01
 -6.2302387e-01
 -6.8380713e-01
 -5.2733999e-01
 -3.7000623e-01
  1.9116048e+00
 -2.7609365e+00
 -2.5972865e+00
  1.7358434e+00
 -2.6507711e-01
 -3.5862407e-01
 -1.7878636e+00
  1.7158891e-01
  6.3251662e-01
 -6.4438540e-01
  1.3616782e+00
 -7.6530015e-01
  3.4738335e-01
 -3.2961366e-01
 -1.1469491e-01
  2.4096608e-01
 -9.1256493e-01
 -1.0839250e+00
  6.0043502e-01
  3.3653226e-01
  1.3633350e+00
  4.3101939e-03
  1.3613713e+00
 -3.1208453e-01
 -6.4123845e-01
  1.4430709e+00
 -4.9072036e-01
  1.3286014e+00
 -2.1995701e-01
  3.2693729e-01
 -2.4971707e-01
 -9.9369693e-01
  4.2886448e-01
 -5.6903726e-01
 -3.3753136e-01
  1.1521169e+00
 -2.3406954e+00
  1.0157151e+00
 -2.2355525e+00
 -1.2545104e+00
  4.1366816e-01
  6.5977067e-01
 -3.4181771e-01
  8.6181957e-01
 -3.6199903e+00
  2.9755199e+00
  1.0340030e+00
 -9.0044603e-02
  1.1546291e+00
 -2.0020049e+00
 -2.4908626e+00
  4.9101445e-01
 -6.0572636e-01
 -2.5332940e+00
 -2.6449959e+00
 -9.0170383e-01
  3.8261512e-01
 -3.7190032e-01
  5.7863677e-01
 -1.2684330e-01
  4.3428236e-01
 -8.5328126e-01
  3.5515162e-01
  1.4283496e+00
 -2.9470864e-01
  3.1818080e-01
  8.4996149e-02
  3.6621433e-02
 -1.8560583e-02
 -1.0883260e+00
  4.6400654e-01
  1.5673628e+00
  7.6868904e-01
 -2.6351793e+00
  4.5373175e-01
 -2.7655947e-01
  1.4291909e+00
 -1.0823272e+00
 -9.2779869e-01
 -1.7099135e-01
  5.4643597e-02
 -6.0748018e-02
 -2.4641517e-01
 -4.4458303e-01
  4.3736941e-01
 -6.5114141e-01
  9.7240156e-01
 -1.1016309e-01
 -1.0156344e+00
  5.1331419e-01
  2.6075336e-01
  7.2645292e-02
 -8.2483280e-01
 -9.8124081e-01
  1.1861386e-01
 -5.2132916e-01
 -3.3879933e-01
 -1.1022444e+00
  1.0825598e+00
  2.5869457e-03
  5.9629685e-01
  8.0634642e-01
  7.8343117e-01
  3.8955387e-01
 -3.7928435e-01
  7.0455217e-01
 -3.6197874e-01
 -1.2473955e+00
 -3.5776976e-01
 -4.6404570e-01
  3.6289749e+00
 -3.1913069e-01
 -8.2779330e-01
 -1.4444841e-01
 -5.1372543e-02
 -3.2049274e-01
 -1.6252035e+00
 -4.8515427e-01
 -8.3382219e-01
 -4.9785697e-01
  4.4235373e-01
  1.1079268e+00
 -6.2941745e-02
  8.2642269e-01
 -2.0276289e+00
 -1.1171460e+00
  1.3198013e+00
  1.2665702e-01
 -4.4159228e-01
 -1.2351547e+00
 -2.6627249e-01
  2.4648987e-01
  1.8436797e+00
 -4.3213902e+00
 -4.4826108e-01
 -2.4557944e-01
  1.8144526e+00
 -6.6555426e-02
  3.3086342e-01
 -1.9293126e-01
 -4.5542389e-01
 -7.4459180e-02
  8.9227669e-03
  6.3638315e-02
 -3.8420624e-01
 -7.6003444e-01
  1.8431686e-01
 -2.9477078e-01
 -6.2465197e-01
 -2.8238869e-01
  1.5938939e+00
  1.7851286e+00
  7.0495766e-01
 -1.3312037e+00
  5.8134127e-02
 -5.3935307e-01
 -7.5828701e-02
  8.5495502e-01
 -2.6865527e-01
 -3.0677155e-01
  1.7027034e+00
  4.6460280e-01
  8.3857226e-01
 -3.4272844e-01
 -2.8659305e-02
 -8.5087079e-01
 -1.0548940e-01
 -3.1901318e-01
 -2.2022006e-01
  5.5311304e-01
  2.7398726e-01
  5.3348613e-01
 -1.0788538e+00
 -2.4656124e-01
  2.8399017e+00
  7.8599030e-01
 -9.1323352e-01
 -1.0088594e+00
  1.1474038e+00
 -1.6598483e+00
  1.3738959e+00
  1.4861308e+00
 -2.1133174e-01
 -5.7883912e-01
 -2.9719753e+00
 -1.8536316e-01
 -4.2870182e-01
 -6.4833295e-01
 -1.6932659e+00
 -2.3189066e-01
 -9.3282866e-01
 -2.9100709e+00
 -4.6177587e-01
 -5.3405261e-01
  1.2222056e+00
 -6.0789955e-01
 -2.1472532e-02
 -7.9703486e-01
 -2.7485237e+00
  9.7285643e-02
  1.9940197e-01
  1.2872024e+00
  7.1230792e-02
  2.1094789e-01
  6.5781914e-02
 -7.9413873e-01
 -5.3342175e-01
 -2.1405074e-01
 -5.9315306e-01
  8.1637746e-01
  5.2154636e-01
  2.1339705e+00
 -8.1508839e-01
 -2.9532988e+00
 -5.7784659e-01
  6.3202530e-02
 -2.4705245e-01
 -4.0243301e-01
  8.5159248e-01
 -2.4515872e-01
  1.2721443e-01
 -4.2694572e-01
  1.0330641e+00
 -3.1144250e-02
  1.3543388e+00
 -1.0137597e+00
  9.1618484e-01
  4.6771133e-01
 -2.8000517e+00
 -5.6579065e-01
 -4.5680812e-01
 -5.5960751e-01
 -1.0804569e+00
  1.1892924e+00
 -2.7001274e-01
  9.5906967e-01
 -2.0948978e-01
 -2.0379572e+00
  3.3856663e-01
 -5.1111853e-01
 -1.9720428e-01
  2.6751620e-01
 -8.7773271e-02
  2.6349005e-01
  1.0662676e+00
  2.2440130e-01
 -3.6677191e+00
 -1.8713430e+00
  3.8250092e-01
 -1.5585901e+00
  1.0058601e+00
  3.4836608e-01
 -1.0917646e-01
 -2.2509055e+00
 -2.1320050e+00
  6.1707830e-01
 -9.1589183e-01
 -3.8529101e-01
 -8.3469641e-01
 -1.3046091e+00
 -8.4229290e-02
  9.3367726e-01
 -1.0857110e+00
  3.7691173e-01
 -5.2326149e-01
 -4.9420375e-01
  1.6495862e+00
  2.8909512e+00
  2.6303422e-01
 -2.1870756e+00
  1.7881751e+00
  2.7878803e-01
  1.5393531e+00
 -2.3268257e-01
 -5.4685301e-01
  5.1533055e-01
  4.1851684e-01
  1.5583117e-01
 -4.0446302e-01
 -6.2953842e-01
 -8.8028383e-01
  2.1382978e+00
  8.8467944e-01
  2.2120813e-01
 -2.6463258e+00
 -3.2344794e+00
  2.0310695e+00
  2.6962322e-01
 -5.5595708e+00
 -2.2084272e-01
  2.7423770e+00
  1.1851242e+00
 -9.0777498e-01
 -4.2736382e+00
  1.6206805e+00
 -1.3903466e+00
  1.4596463e+00
 -3.2483209e-02
  1.1301520e+00
  3.5368867e-02
  8.8714927e-01
 -3.2720724e-01
 -6.5378338e-01
  1.0951786e-01
  1.9913058e+00
 -3.6738598e-01
 -4.6933895e-01
  4.4735661e-01
  2.5966299e+00
 -3.6234552e-01
  3.3402163e-01
  6.3143820e-02
  3.5228446e-01
  3.6380124e-01
  2.5618024e+00
 -1.5138595e-01
  3.0133781e+00
  2.9184375e+00
 -3.0868337e+00
 -1.4705211e+00
  8.5409385e-01
 -1.1078819e-01
  1.3167779e-01
  1.0034623e+00
 -1.8170767e+00
 -1.6925592e+00
 -1.4447492e+00
  1.3172592e+00
 -1.5688115e+00
 -2.3486957e-01
  1.0920137e+00
 -4.4353750e-01
 -9.7448474e-01
 -2.7365273e-01
  9.1991091e-01
  9.3731493e-01
 -8.5893643e-01
  8.6114191e-02
 -2.4594038e+00
 -1.8097726e+00
  1.2869481e+00
 -4.8783101e-02
 -5.5530077e-01
 -2.9041007e-01
 -3.0688244e-01
  3.0002668e-01
 -3.5752770e-01
 -1.2214004e-01
 -1.8009101e+00
 -2.2998352e+00
  1.3685255e+00
  7.4280947e-01
 -1.9517884e+00
  1.0477865e+00
 -7.1489644e-01
  1.0964590e+00
  1.9753627e+00
 -7.2531527e-01
  3.4252089e-01
 -1.2496868e+00
  1.8602829e+00
  3.6319204e-02
  1.4678426e+00
 -1.7827804e-01
 -8.8738614e-01
  1.7015840e+00
  1.7257478e+00
 -3.1495634e-01
 -1.1750778e+00
  1.9152491e+00
  5.4298645e-01
  6.6280091e-01
  7.4943952e-02
  1.1334844e+00
 -7.9619992e-01
 -8.9111340e-01
 -2.5700452e+00
 -1.9199900e-01
  7.4856865e-01
 -1.0907036e+00
 -5.4435128e-01
  6.3516706e-01
  1.9116902e-01
  1.0784365e+00
 -1.1257000e+00
  9.8062932e-01
 -3.7426252e+00
  1.2777047e+00
  1.4194510e+00
 -2.8904969e-01
 -6.5063804e-01
 -2.6562852e-01
 -3.1549048e-02
  1.7143859e+00
 -2.1537237e+00
 -8.4474564e-01
 -5.9139144e-01
  9.0047842e-01
  1.1458250e+00
 -1.0368595e-01
 -2.8915679e+00
  2.2547619e+00
 -1.2433188e-01
  9.9612497e-02
 -6.0124642e-01
  2.6852491e-01
 -1.9222912e+00
 -3.5672840e-01
  8.2054442e-01
 -9.4428891e-01
  7.1201438e-01
  3.3292713e+00
  1.3092790e+00
 -7.9034036e-01
  3.6080205e-01
 -2.0143372e-01
 -5.2496141e-01
 -6.8488437e-01
 -9.2377549e-01
 -7.5807929e-01
 -7.1027803e-01
  3.8635085e+00
  1.1198598e+00
  4.1040838e-01
 -6.0376585e-01
 -3.6743023e+00
 -1.1314111e+00
 -8.0168825e-01
  2.2316051e+00
 -4.1918521e+00
  2.6473886e-01
  1.0713518e+00
 -7.6064986e-01
  4.9123573e+00
 -9.3305814e-01
 -6.3052344e-01
  2.2364516e+00
 -1.1394591e-01
  1.0576949e-01
  1.5380657e+00
  9.3308032e-01
  2.8770959e-01
 -1.3605894e+00
  1.5711460e+00
 -1.0389729e+00
 -7.3462462e-01
 -4.6528071e-01
 -8.1967510e-02
  8.9573163e-01
 -1.4951643e-02
 -3.7495416e-01
 -4.5993230e-01
 -3.7507701e-01
 -4.1277584e-01
 -2.5399051e+00
 -1.9132454e+00
 -1.3084388e+00
 -2.9996798e+00
  3.5696218e+00
  7.0613265e-01
 -6.0232192e-01
 -1.5556132e+00
 -5.3448826e-01
  3.5669953e-01
  5.1282370e-01
  1.3797342e+00
  6.2020683e-01
 -2.2647248e-01
  5.6210864e-01
 -4.6769518e-01
  1.6397089e+00
  1.1563141e+00
 -1.6455022e+00
 -1.7458662e-01
 -1.1010853e+00
  6.8410218e-02
  1.4807302e+00
  1.9585360e+00
  7.4203283e-01
  1.6390781e+00
  1.5624687e-01
  1.9748522e-01
  5.6605238e-01
  7.1495146e-01
  1.4873686e-01
 -6.7585003e-01
  8.2863152e-02
 -4.9198989e-02
 -2.6906034e-01
 -9.1182488e-01
 -2.1715648e+00
  3.6397290e-01
 -1.2048644e+00
 -5.5539405e-01
  1.4284129e+00
 -8.5954553e-01
  3.2613388e-01
  4.3527284e-01
  6.9297844e-01
  2.8649512e-01
  5.1417023e-01
  3.0736485e+00
 -1.3254836e+00
 -1.5307723e+00
  3.4667086e-02
 -1.7005750e+00
  1.7270079e+00
 -2.0278575e+00
  4.2028292e-03
  1.2790384e+00
 -4.5272171e-02
  9.8069113e-01
 -2.9095316e-02
 -3.3750253e+00
 -3.3432641e+00
 -4.3872416e-01
 -1.6971461e-01
 -1.2639517e+00
  1.5575285e-01
  3.3832860e-01
 -4.1316506e-02
  1.4362700e-01
  3.7263626e-01
 -1.8104859e-01
 -1.3717947e+00
  1.1437931e-01
  2.6003149e+00
  3.8347530e-01
  4.4874039e-02
  1.3968760e+00
  2.4540062e+00
 -2.5073373e+00
  1.3489491e+00
  5.1160139e-01
  3.1694443e+00
 -4.7639170e+00
  1.0519350e+00
  1.0303515e+00
 -3.1947666e-01
  8.8894522e-01
  2.8425801e-01
  3.9718643e-01
 -3.6469698e-01
  2.5289366e-01
  1.0749946e+00
  1.4056543e+00
 -1.1828550e+00
 -1.3115426e+00
  1.0732230e+00
 -2.3356068e+00
 -1.1282188e+00
  7.2109818e-02
 -3.0205686e+00
  6.7970347e-01
  5.6106310e-02
  1.2054825e+00
  4.7546947e-01
  1.3193808e-01
  4.6219628e-02
 -4.3560562e-01
  5.6880975e-01
  4.0193226e-02
 -1.6299263e-01
 -2.1587315e+00
 -1.7056291e+00
  1.1872145e+00
 -1.2833044e-01
 -2.7014044e-01
  7.9438734e-01
 -3.4717485e-02
 -1.9416113e+00
  6.4589076e-02
  5.1531601e-01
 -7.5908810e-01
  5.6710190e-01
 -1.9229013e+00
  3.7860283e-01
  1.7836307e+00
 -2.4958615e+00
 -1.8764088e+00
 -2.0994800e-01
  6.7675430e-01
 -1.5748809e-01
 -7.5121737e-01
 -9.2808641e-02
  1.2089787e+00
  1.0984417e-01
 -7.1571872e-02
  4.5314237e-01
 -3.8372028e-01
  3.5339537e-01
  1.5439084e-01
  1.3884676e-01
  4.8507768e-01
  1.3463199e-01
 -1.4417243e+00
 -6.7035609e-01
 -2.1034856e+00
  4.8353761e-01
  3.6621043e-01
 -7.3877347e-01
 -3.1950998e-01
 -2.0974232e-01
  9.6637738e-01
 -3.8985407e-01
  2.5334883e-01
  5.2756488e-01
 -1.2372633e-01
 -2.2809771e-01
  8.5538673e-01
  1.2938737e+00
  4.3116037e-02
  2.4150918e-01
 -7.4508406e-02
 -6.1290932e-01
 -3.4512415e+00
 -7.9694277e-01
  1.0218962e+00
  1.2472687e+00
  2.5091581e+00
 -1.1866587e+00
 -5.0224108e-01
 -5.4866260e-01
 -1.2954959e+00
  1.4996234e-01
 -1.2306409e-01
  1.0953955e-02
 -1.2034081e-01
  6.3515015e-02
  4.3863198e-01
  1.1839703e+00
 -1.2998568e+00
 -3.7950132e+00
 -5.4439324e-01
 -1.8722518e-01
  4.0765709e-01
 -6.7001730e-01
  6.9664973e-01
  4.9161859e+00
  3.5034773e+00
  3.7666315e-01
 -2.7730033e+00
  1.4803970e+00
  1.5124935e+00
 -1.4262805e+00
  5.3267336e-01
  1.6542671e+00
 -1.5848206e-02
  6.3524596e-02
 -1.3962413e-01
 -1.0657340e+00
  7.6570195e-01
  1.0084256e+00
  1.4250567e+00
 -1.7138934e+00
  1.8804618e+00
  1.7758470e+00
 -3.4270877e-01
  1.0851216e+00
 -3.9469576e-01
 -3.1537426e-01
  1.2223721e-01
  3.5677782e-01
  1.0488961e+00
  1.0997393e+00
 -2.3314691e+00
 -5.7282424e-01
 -4.4446954e-01
 -1.3880566e+00
  8.8253915e-01
 -2.2421048e+00
 -5.6101710e-01
  7.7346301e-01
  1.5649357e+00
 -3.6807296e-01
 -1.0804361e+00
 -2.3237879e+00
  7.2938275e-01
  3.7977955e+00
 -3.7620381e-02
 -8.6846107e-01
  2.4458958e-01
 -6.3409328e-01
  1.1307754e-01
 -1.3065443e+00
 -7.5093961e-01
 -5.7954127e-01
  4.1333561e+00
  1.7537757e+00
 -6.1137414e-01
 -1.6227632e+00
 -9.8597503e-01
  2.5064349e-01
 -2.4656937e+00
  3.9624292e-01
 -3.3243737e-01
 -1.0134553e+00
  3.1222975e-01
  3.4431142e-01
 -2.1494204e-01
 -4.5452256e-02
 -2.7116380e+00
  3.1447884e-01
  5.9244615e-01
  1.5431260e+00
  3.6337304e-01
  7.6027131e-01
  1.4138432e+00
 -1.2029816e+00
  1.1372600e+00
 -3.9801389e-01
  2.0097044e+00
  3.4155580e-01
 -1.6908056e+00
  3.2856992e-01
 -4.0089336e-01
  2.0314808e+00
  1.1318798e+00
 -8.6538088e-01
  6.6805434e-01
 -5.0433999e-01
  1.5220534e+00
 -1.4921511e+00
 -1.0820129e+00
  3.4353387e-01
 -2.0445080e+00
 -1.6161439e+00
 -2.4234398e-01
  1.9565011e+00
  6.3608803e-02
  1.5002425e-01
 -1.4019591e-01
 -3.7019268e-02
  2.8042415e-01
  1.2322240e+00
  6.1940128e-01
 -1.3094683e+00
  2.5075623e-01
 -2.6302605e+00
 -1.4001037e+00
  8.1811404e-01
  8.1029564e-01
  1.5737550e-01
 -1.2164624e+00
 -2.4495764e+00
 -2.5045890e-02
  1.3780183e+00
 -8.4506053e-01
 -1.2492757e-01
 -3.9483434e-01
 -4.0190015e-02
 -3.6277413e+00
 -1.2021367e-01
  2.4119453e+00
 -2.3112845e+00
  1.7013265e+00
  7.7353162e-01
 -1.5882397e+00
 -6.2868541e-01
 -1.0658727e+00
 -5.3252059e-01
 -5.8930707e-01
 -2.3737190e+00
  1.8501267e+00
 -5.0975281e-01
  3.6460113e-02
  5.6137510e-02
  1.3848649e+00
  9.1250294e-01
  4.2981174e-02
 -1.6831931e-03
 -5.4635093e-02
  5.6063664e-01
  4.0687114e-02
 -9.9479288e-01
 -6.5553421e-01
  3.2921788e-01
  1.4060579e-01
  8.3174717e-01
  2.3674338e+00
  3.0758171e+00
 -5.1383364e-01
  1.6190685e-01
  4.1612276e-01
  6.7374781e-02
 -1.3549811e+00
 -3.7205259e-03
 -4.8710933e-01
 -1.6424725e+00
 -3.2789356e-01
  3.7698632e-01
 -2.3217119e-02
  7.6610488e-01
  1.0542436e+00
 -2.0907128e+00
  2.8394586e-01
  1.2154362e+00
 -3.5809362e-01
 -1.6553439e-01
 -1.7582586e-01
  2.0580892e-01
  6.3710757e-02
 -9.9520051e-01
  1.0219353e-01
  1.0528586e+00
 -1.8707612e+00
 -1.5598609e+00
 -3.2726181e+00
 -3.7623069e+00
  1.8495542e+00
 -1.8832098e+00
  4.0386695e-02
  8.5634053e-02
  1.9986777e+00
  1.7016309e+00
 -7.0233291e-01
  1.1981813e+00
 -2.0580850e+00
  2.8168648e-01
 -7.6360166e-01
  1.2409115e+00
 -1.5790851e+00
  4.5880175e-01
  2.5840861e-01
  1.1744550e+00
 -3.0621216e+00
 -5.8344346e-02
 -2.5489228e+00
 -6.7913830e-01
 -1.7387310e+00
 -1.6970543e+00
  1.0925820e+00
 -6.3803339e-01
  3.8494971e-01
  3.0030683e-02
  7.7162701e-01
  5.2582169e-01
 -7.0083481e-01
  4.7240880e-01
 -4.8292613e+00
 -2.3452413e+00
 -2.0939989e+00
 -4.1905767e-01
  2.9239559e+00
 -1.3243400e+00
 -2.1606038e+00
  7.2079444e+00
 -6.2060177e-01
  1.3528709e-01
  1.9015988e+00
  1.0647566e+00
 -1.0336405e-01
  2.4334679e+00
  1.2878249e+00
  2.6931551e+00
 -1.1320156e+00
  2.5719655e+00
  1.1282496e+00
  1.6889133e+00
  1.6480776e+00
 -1.5687741e+00
  6.9526571e-01
  3.1565204e+00
 -1.8063661e-01
  7.9349804e-01
 -1.2297999e+00
 -1.2040819e+00
  1.8903454e-01
  4.8268679e-01
 -2.5010771e-01
  5.4311667e-02
 -6.3762970e-02
 -2.7815422e-01
  1.2043325e+00
 -1.5463214e+00
  1.2544380e+00
 -2.1598768e+00
 -1.2720594e+00
  1.8021228e+00
  1.3055924e+00
  7.8664565e-01
  6.3521749e-01
 -8.5222274e-01
  1.0332462e+00
 -6.2593484e-01
  8.7751068e-02
 -1.6535032e-01
 -3.7350005e-01
  5.1201344e-01
  6.0576248e-01
 -4.0722132e-01
  4.9866197e-01
 -3.2417259e-01
  1.1193842e-01
  2.0351639e+00
 -5.6864470e-01
  1.4108683e-02
  9.9008274e-01
 -5.6048352e-01
  7.0975071e-01
  1.3600898e-01
 -7.9168028e-01
  2.9915228e-01
 -1.3101840e-01
 -5.0885695e-01
 -3.7872580e-01
  2.4717711e-01
 -3.3392042e-01
 -8.7126359e-02
  3.0995333e+00
  8.6268181e-01
 -1.0830758e+00
  1.7019497e+00
 -6.7005897e-01
 -1.2931173e-01
 -1.0662724e+00
  2.7435958e+00
 -8.5462558e-01
 -3.9976132e-01
 -4.5463693e-01
  2.6084616e+00
  1.7713024e-01
  5.1862210e-01
 -9.5806444e-01
 -4.6823746e-01
  7.5854152e-01
  1.8645813e+00
 -1.1099570e+00
 -4.0111825e-02
  7.5469226e-01
  8.5864770e-01
  4.6843555e-02
 -8.1754476e-01
 -1.2947800e+00
 -2.5443846e-01
 -1.6361977e+00
 -1.8720076e+00
 -5.1635188e-01
 -6.2972661e-03
  2.1541712e+00
  1.6240076e+00
 -1.5390712e+00
  1.0652062e+00
  1.0410894e+00
 -1.7052414e+00
  1.7818925e+00
 -2.1449084e+00
 -1.7637205e+00
 -7.7411395e-01
  1.2452427e+00
  1.2100361e-01
  7.0605272e-01
 -1.0419728e+00
  3.4350902e-01
  3.5015047e+00
 -3.5352242e+00
 -1.0579846e+00
  6.5159464e-01
 -4.7923428e-01
 -5.0016731e-01
  5.1488906e-01
 -1.4588262e+00
 -1.0127611e-01
 -4.4436088e-01
  1.4339273e+00
 -1.9991362e-01
 -6.9165313e-01
  2.9833946e-01
  2.6107144e-01
 -7.2220409e-01
  1.4189970e+00
  4.6721217e-01
  1.3961343e-01
  2.7078146e-01
  1.5687359e-02
  2.4303268e-01
  6.8284529e-01
  2.7332953e-01
 -1.6694865e-01
  3.6261969e+00
  4.0576693e-01
 -2.5196416e+00
 -9.5681719e-02
  1.1704081e+00
 -2.1004314e+00
  3.3521017e-01
 -1.1331427e+00
 -2.1744798e-01
  1.6641538e+00
  2.8997235e+00
 -7.2650337e-01
 -3.2651192e-01
  1.1460999e-01
  8.8330165e-02
 -1.4135903e+00
 -1.5270933e+00
 -6.5139818e-01
 -1.5444994e+00
  1.2349645e+00
  8.2402962e-01
 -1.7518979e+00
 -1.2267185e+00
 -6.2226945e-01
  1.9664890e+00
 -1.4052284e-01
  1.2947302e+00
 -4.6238562e-01
  2.0345817e+00
  5.9377223e-01
 -1.2784526e-01
 -6.0766035e-01
 -4.8663479e-01
 -1.3985012e-02
 -4.6874657e-01
 -1.4839687e+00
 -2.8827128e+00
  5.2976549e-01
 -3.1161020e+00
  8.8593757e-01
  1.8309684e+00
  2.6415894e+00
 -1.5643556e+00
 -1.2887303e+00
  1.0191734e-01
  2.3950837e+00
 -2.0644519e+00
 -2.9671974e+00
 -7.2879213e-01
 -6.5287429e-01
  4.1040354e+00
 -1.9419751e+00
  6.3833088e-02
  1.3051946e+00
 -4.2193192e-01
  9.3455380e-01
 -1.4610958e+00
 -1.1148854e+00
  2.2477396e+00
  1.0741393e-01
 -3.9519606e+00
  3.6727607e+00
  2.9050562e-01
  2.4609091e+00
  2.1145089e+00
 -3.3887416e-01
 -1.0937573e+00
  1.0476680e+00
  1.5964793e-01
 -1.5717241e+00
  4.2217975e+00
  2.7519026e-01
 -4.6210008e+00
 -4.1916656e+00
  1.7421824e+00
 -1.3209522e+00
 -3.4854513e-01
  4.5168060e-01
 -3.6359683e-01
  2.3778602e-01
 -5.0873911e-01
 -4.3421063e-01
  7.3148263e-01
  6.8982840e-01
 -3.2671690e-01
  8.8506883e-01
  7.7869523e-01
 -6.5421849e-01
 -9.2412037e-01
  1.2875810e+00
 -7.0026749e-01
 -2.6312339e+00
  1.1084139e+00
  8.4559143e-01
  1.9964729e-01
  3.0050857e+00
 -7.5230861e-01
 -6.8394475e-02
 -3.8373357e-01
 -3.7442401e-01
 -2.6440668e-01
 -6.6968107e-01
 -1.6611221e-01
 -3.6506271e-01
 -5.5493081e-01
 -2.4441698e+00
 -2.4222037e-01
  6.1158800e-01
 -4.1862047e-01
  3.6033627e-01
  6.7896336e-01
  1.4541854e-01
  1.3056408e+00
  2.4880651e-01
 -1.1864951e+00
  2.4110019e-01
 -2.2723911e+00
  7.4291039e-01
  2.3667330e-01
  6.6135779e-02
  3.9718741e-01
 -9.0860826e-01
  1.0139337e-02
  9.6801573e-01
 -6.5615129e-01
  1.6719291e+00
  1.2844583e+00
  1.2780764e+00
 -6.7553318e-01
 -5.8313829e-01
 -3.1736426e+00
  7.1571881e-01
 -5.9672612e-01
  1.0113614e+00
 -3.3205718e-01
  5.6071663e-01
  1.3644977e-01
  6.6595709e-01
 -3.8708067e-01
 -4.1462368e-01
 -3.3081064e+00
  7.5020421e-01
 -6.9265848e-01
  4.5900336e-01
  1.8799502e+00
  5.5270022e-01
  2.0362916e+00
 -2.4351032e+00
 -1.6632499e-01
  6.8633628e-01
  2.1202730e-01
  1.0927507e+00
 -7.5351346e-01
 -2.4507084e-01
  1.4301287e+00
  9.8159574e-02
  4.4707179e+00
 -1.5842967e+00
  2.3854835e+00
 -2.1499188e+00
  1.8476325e+00
  2.0959563e+00
  4.2573142e-01
  8.2533336e-01
  2.1209131e-01
  8.8186896e-01
  1.6619225e+00
  8.2412905e-01
 -4.5035991e-01
 -1.3360138e+00
 -3.7143189e-01
  1.0503209e+00
  9.2101581e-02
 -4.9291365e-02
  4.0685999e-01
  1.0436752e+00
  1.0961583e+00
  6.8028533e-01
 -1.4191426e-01
 -1.7291620e+00
  3.3951211e+00
 -5.7039708e-01
  2.3552595e-02
  4.2956427e-01
  7.2653240e-01
 -1.5361103e+00
 -2.3931582e+00
 -3.9386678e-01
  2.9248825e-01
  1.3827647e+00
 -6.5156168e-01
  5.7346648e-01
  6.8768930e-01
 -1.5637386e-01
 -1.4189194e+00
 -1.9889896e+00
  2.2035425e+00
 -1.1433266e+00
  8.5975891e-01
 -1.0002351e+00
  5.2370882e-01
  1.2332189e+00
  2.6216304e-01
  7.3946667e-01
  4.4466990e-01
  3.0863467e-01
  2.0330691e-01
  1.3444528e-01
 -6.6689086e-01
 -3.9311865e-01
  6.3522344e+00
  1.5812324e-01
 -1.4569886e+00
 -4.9089387e-01
 -1.8083786e+00
  4.5203323e+00
  8.0074286e-01
 -1.1937753e+00
 -1.1653364e-01
 -3.3581703e+00
  6.3313705e-01
  1.2996489e+00
 -3.2640865e+00
 -9.0699828e-01
 -2.1956792e+00
  1.4767265e+00
 -1.7628199e+00
 -1.3582461e+00
 -1.4814644e+00
 -1.6084484e+00
 -1.1674163e-01
 -1.7922487e+00
  2.0530701e-02
 -2.8126478e+00
 -1.7014825e+00
 -2.3167272e+00
 -1.3761841e+00
  1.3672867e+00
 -8.3923537e-01
 -2.4733675e-01
  7.3339421e-01
 -2.1364832e-01
  1.8466008e-01
  3.9583331e-01
  1.1268364e+00
 -1.7444042e+00
 -2.6470826e+00
 -1.6352153e+00
 -2.6772339e+00
  2.0514438e+00
  2.1079364e+00
 -6.4306724e-01
  1.3034071e+00
 -5.6713068e-01
 -5.1157987e-01
  1.2484099e+00
 -9.2442852e-01
  3.9848218e+00
 -1.5937625e-01
  1.0623453e-01
  1.2943996e+00
  5.3027725e-01
  1.5314969e+00
 -6.9893992e-01
  7.5889266e-01
  6.9723630e-01
  8.2906321e-02
  3.7618247e-01
  1.5506605e+00
 -3.6657053e-01
  9.7409600e-01
  8.1132002e-02
  3.6801472e-01
  2.6207897e-01
  7.7168739e-01
 -2.1537094e-01
  4.8279691e-02
 -7.1570657e-02
  1.0050201e-01
 -3.1373560e-01
 -2.0537370e-01
  6.6062957e-01
  1.5245709e+00
  1.0661343e+00
 -1.6095612e+00
 -5.1680513e-02
  9.7574037e-01
  2.2990618e+00
 -2.7170345e-01
  4.0004322e-01
 -7.6744252e-01
  3.1398950e+00
  1.5922326e+00
  2.7167350e-01
  3.5317976e+00
 -1.3653802e+00
 -5.0097179e-01
 -1.9333305e+00
  4.4209924e-01
  7.3303914e-01
 -2.4058740e+00
  2.8011203e+00
  1.0189383e+00
  1.3322637e+00
 -1.3708545e+00
  2.2204947e+00
  5.4106426e-01
 -1.3696076e+00
  8.5943162e-02
 -8.8048983e-01
 -2.5270215e-01
 -2.4524540e-01
 -4.9776551e-01
 -1.8902576e-01
  2.9330676e-02
  1.7083666e+00
  1.3425995e+00
  6.7772634e-02
 -2.0466886e+00
  2.2944071e+00
 -1.7264556e+00
 -3.4031744e+00
  5.8900517e-01
 -3.7244730e+00
 -2.0872023e+00
  3.1489406e+00
  4.0177393e+00
  1.1482561e+00
  9.8378849e-01
 -1.2783747e+00
  3.0880041e+00
  1.3919686e-01
 -4.5547876e-01
 -5.1023345e-02
  2.2311440e+00
  2.0960701e+00
 -6.0698926e-01
  1.0348839e+00
 -5.4124767e-01
  9.7844052e-01
  2.6305616e-01
 -3.4603913e+00
 -4.2781013e-01
 -2.5194671e-02
 -1.1694379e-01
 -1.4034076e+00
 -3.2892507e-01
 -1.4985482e-01
 -3.3148226e-01
  8.5557985e-01
  4.4861409e-01
  1.5543934e+00
 -3.7631381e-01
  3.6476963e+00
  2.5094829e+00
  1.0737329e+00
  6.6600138e-01
  1.5203041e-01
  1.1417787e+00
 -2.7818132e-02
 -4.0520191e-01
  1.0658858e+00
 -1.5251358e+00
 -3.9833313e-01
 -1.7191818e+00
 -1.5735891e+00
  1.2035027e+00
 -6.2959635e-01
  1.5012808e+00
 -2.5187299e-01
 -1.2456824e-01
  5.9782362e-01
  2.6196033e-01
  6.9183308e-01
 -1.7622110e-01
  2.1608427e+00
  1.1266710e-01
  2.1789734e+00
 -1.2207881e+00
 -9.3951456e-02
 -1.3498875e+00
 -2.9359050e-03
  7.8817767e-01
 -1.4157479e-01
  6.8383358e-02
 -4.1224718e+00
 -1.1897995e-01
  8.1910163e-01
 -8.8682628e-01
  7.1946174e-01
 -1.6768461e+00
 -1.0007731e+00
  9.0209115e-01
  1.9637713e+00
  9.4978374e-01
 -8.4560919e-01
  2.7418499e+00
  9.8312050e-01
  3.8200513e-01
 -3.8758174e-01
  2.1667692e-01
  1.0531487e+00
  1.5788385e+00
  6.6644937e-01
  1.7751656e-01
 -2.4568753e+00
  3.0994995e+00
  1.8413720e+00
  2.8589284e-01
 -4.8727608e-01
 -1.6605577e-01
 -2.4141984e+00
  2.0738761e+00
 -1.8015786e+00
  1.4003589e+00
  5.2926511e-01
  8.8333285e-01
 -1.3096588e+00
  2.5017533e+00
 -1.7634907e+00
 -5.9164195e+00
  7.5006837e-01
 -4.8122612e-01
  2.2214597e-01
 -5.5852947e+00
  2.4952102e+00
 -5.3163868e-01
 -2.1626160e+00
  1.6011238e+00
 -7.2056824e-01
 -2.6203248e-01
  1.8436512e+00
 -3.6092225e-02
 -5.4282784e-01
  4.3155324e-01
  6.3142347e-01
  8.4111470e-01
  4.1325012e-01
 -2.6922682e-01
  6.3233459e-01
  2.1046223e-01
  7.9969984e-01
 -9.4885087e-01
  9.3760419e-01
  2.5764747e+00
 -3.4020832e+00
 -1.0654681e+00
  4.6026728e-01
 -7.4469715e-01
 -3.9861628e-01
 -6.7040920e-02
  7.8121203e-01
  1.6199827e+00
 -4.3618101e-01
 -1.9323266e-01
  6.5325747e+00
  7.9621822e-01
  4.2553547e-01
  1.0670631e+00
  1.0030792e+00
  2.3124392e+00
  1.9739985e+00
 -3.5219855e+00
 -5.2558315e-01
 -5.9125525e-01
  2.0924137e+00
  1.8289175e+00
  6.5692735e-01
 -3.8319445e-01
 -1.4521998e+00
  1.7657821e+00
  5.5878609e-01
 -1.5116296e+00
 -7.1981251e-01
  2.5397398e+00
  1.6477674e+00
 -2.2937589e+00
  7.3592287e-01
  1.1457200e-01
  5.6624150e-01
 -5.2178950e+00
 -1.3375399e-01
  1.9498472e+00
 -1.2877698e+00
 -1.1840558e+00
 -1.5462713e-01
  7.8126019e-01
 -8.2133615e-01
 -4.7942811e-01
  4.1260901e-01
 -1.8354509e+00
 -3.2274208e+00
  1.8262737e+00
  2.6984417e-01
 -1.0279677e+00
 -1.3688157e+00
 -3.2812627e-03
 -5.3733301e+00
  5.8807987e-01
  2.6434198e-01
 -1.0194333e+00
  4.1550889e+00
 -3.6351070e-01
  3.5818797e-01
 -3.0788017e-02
  4.2816677e+00
 -2.6632323e+00
  8.3431041e-01
  1.0671095e-01
 -2.9597085e+00
 -1.4414423e+00
  5.2645124e-02
  1.3449913e+00
  3.5267532e-01
  9.0925658e-01
  6.6843343e-01
  1.2328893e+00
  9.3859208e-01
  1.0213196e+00
 -1.9947979e-01
  3.5156298e-01
 -5.8517945e-01
  8.5391767e-02
  6.1494398e-01
  1.5613177e-01
 -2.0715206e+00
 -6.5994519e-01
  1.8519229e+00
 -2.0243992e-01
 -1.5315857e+00
  1.1512527e+00
  8.8113946e-01
  1.3761285e-02
  1.1466169e+00
  2.1666942e+00
 -2.2080808e+00
 -6.2026250e-01
  6.8204683e-01
  1.6049482e+00
 -8.8158739e-01
 -3.4745526e-01
  3.8366538e-01
 -2.5448179e+00
  1.1111118e+00
 -3.2060373e-01
 -1.1370507e+00
 -1.5921876e+00
  6.0404617e-02
 -1.3502626e+00
  7.2179830e-01
  4.4738561e-01
  1.4337877e+00
 -5.3303570e-01
 -3.8794319e-03
 -1.1080500e-01
  5.1709914e-01
  8.9410996e-01
 -3.6772281e-01
  6.6367173e-01
 -1.6994707e-01
 -2.4744385e-01
 -3.7194006e+00
  7.1947509e-01
  4.2609665e-01
  2.0494149e+00
 -4.9702141e-01
  1.2649593e+00
 -1.1899699e+00
 -1.3372753e+00
  2.1217260e+00
  6.0189706e-01
 -1.4948652e+00
 -2.3992524e+00
  5.4198772e-01
 -7.3003262e-01
 -1.1091496e+00
  4.9567297e-01
 -5.1898390e-01
  2.6846659e-01
  7.9857540e-01
  9.3004322e-01
  2.2448897e+00
 -1.2059329e-02
  1.6020546e+00
 -1.3951783e-02
  1.0153483e+00
 -1.5009220e+00
  4.1463089e-01
  1.3112155e+00
 -1.5076466e-01
  4.8327756e-01
  4.8556337e-01
 -2.3996940e-01
 -1.2144613e-01
 -5.8017415e-01
 -2.9915965e-01
 -4.7302330e-01
  1.1278615e+00
  2.4404430e+00
 -4.2805099e+00
 -1.3982765e-01
  3.0114181e+00
  2.2377784e+00
  4.0678221e-01
  5.0067687e-01
 -3.7060087e+00
  3.2193079e+00
  1.0038966e+00
 -1.8534128e-01
  1.1446912e+00
  6.3657826e-01
 -3.3475904e+00
  3.1180641e-01
 -7.5164640e-01
 -6.1385632e-01
 -1.2936357e+00
 -8.4065115e-01
 -2.1935556e+00
 -3.5239151e-01
  9.5582105e-02
 -1.4369696e+00
 -6.3934326e-01
  1.6063524e+00
 -5.2096818e-02
 -4.4416237e-01
  6.7518125e-03
  3.3047533e-01
 -4.6500865e-01
 -3.6697337e-01
  5.4584090e-03
 -4.6777968e+00
 -2.8057196e+00
 -2.2275748e+00
 -3.3588543e+00
  7.0455939e-01
 -4.0033760e+00
 -3.8366334e+00
 -1.0372568e+00
  4.4346776e-02
  6.6275753e-02
 -9.6691400e-01
  2.5104945e+00
  3.3010325e+00
 -4.9110475e-01
  3.6103922e-01
 -8.6302733e-01
  3.5990443e+00
 -3.9112240e-01
  1.7699975e+00
  2.7417207e-01
  1.0460780e-01
  1.7042575e+00
 -5.0226265e-01
  2.9331881e-01
  2.6807668e-02
  1.4505867e+00
 -3.4396253e+00
 -2.0402582e-01
 -3.9336213e-01
 -1.6980281e+00
 -2.3403919e+00
  2.4122889e-01
  4.1271037e-01
  1.3041164e-02
  1.5537215e-02
 -1.0201752e+00
 -4.6442975e-03
  1.0637330e+00
  1.5867077e+00
  2.7507226e+00
  7.2568762e-01
  1.5152079e-01
 -1.5032641e+00
  4.3694240e-01
 -5.5267292e-01
 -4.5628273e-01
  4.3210721e+00
 -9.6270192e-01
 -4.0035181e+00
  2.8143045e-01
  1.1201347e+00
  1.9412848e+00
  4.7978711e-01
  8.7161320e-01
  1.1513650e+00
  6.2068355e-01
  6.0094851e-01
 -2.0694387e-01
 -6.9464970e-01
  2.1762798e+00
 -7.1364075e-01
 -1.0473607e+00
 -4.9429768e-01
  2.0772848e+00
  1.1827899e+00
  4.9094230e-01
 -1.5612655e-02
  6.7434227e-01
 -5.9132230e-01
  2.3428041e-01
 -2.3442215e-01
 -8.6289567e-01
  1.6945677e+00
  4.9068099e-01
 -5.5279064e-01
 -9.0817928e-01
  1.0268141e-01
 -1.3496814e+00
  2.8284991e-01
 -2.6968980e-02
 -7.4815780e-01
  2.2395422e+00
 -1.0851096e-01
 -7.2596127e-01
  2.8185010e-02
 -3.0166488e+00
  1.8544821e+00
 -3.0374935e-01
  1.3772860e+00
  2.4888946e-01
  3.1182117e+00
 -3.4417946e+00
  2.3487694e+00
  2.6552063e-01
 -8.5210013e-01
 -5.5842984e-01
 -4.7528162e+00
 -5.7201192e-02
 -8.2040972e-01
  9.5603871e-01
  4.4708070e-01
  2.0112425e-01
 -1.6053686e+00
  4.8597759e-01
  6.2788293e-02
 -4.3283677e-01
 -6.8290299e-01
 -2.0624766e+00
  2.0927432e+00
  2.0558295e+00
  3.7208840e-01
 -2.4056427e+00
 -6.0722858e-01
  1.3163726e-01
 -2.7497003e+00
  8.6948282e-01
  8.4850532e-01
 -2.5067520e+00
  1.1737994e+00
  9.3708318e-01
  1.4502285e+00
 -2.1038516e+00
 -3.2925770e+00
  9.2389768e-01
  9.3895185e-01
  2.8340774e+00
 -3.0679829e+00
 -5.1551843e-01
  9.2016774e-01
 -1.4277403e+00
  7.3157281e-02
 -1.4070029e+00
  3.7093899e-01
  1.2406061e+00
 -2.8634328e-01
 -4.6280250e-01
 -7.9653949e-01
 -6.2018935e-02
 -1.0396132e-02
 -1.9934419e-01
  6.1264858e+00
  2.9032378e+00
 -7.2163141e-01
  2.9270226e-01
  6.6300893e-01
  4.6145171e-01
  8.0430144e-01
 -3.4087794e+00
 -6.6669124e-01
  1.1140442e+00
  4.4129014e+00
  1.7850404e+00
 -4.2951913e+00
 -4.1731113e-01
 -2.2734361e+00
  2.8833160e+00
 -1.2705319e+00
 -2.0083959e+00
  1.8811613e+00
 -1.4921783e+00
 -1.2907944e+00
 -2.0398252e+00
  5.5406823e+00
 -1.0288740e+00
  1.7964342e-01
  2.3342423e+00
  1.2978110e+00
  3.2611525e-01
  4.7573152e-01
 -2.3344415e-01
 -5.4599404e-02
  1.5117913e-01
  3.1729448e-01
  5.8458591e-01
  2.6532425e-02
 -2.2907608e+00
 -1.8155713e+00
 -3.3599572e+00
 -1.3928565e+00
 -1.5107659e+00
 -3.2656410e-01
  2.1302564e+00
  2.4191105e+00
 -3.0948952e-01
 -4.5562774e-01
  3.0870825e-01
  5.2119527e+00
  4.1917488e-01
 -2.8960216e-01
  9.5597565e-01
 -2.4911633e+00
 -1.8080354e-02
 -2.3575361e-01
  3.7996802e-01
  3.6285050e+00
 -5.4807091e-01
  1.5960175e-01
 -3.1351376e-01
  6.4733028e-01
 -1.9472136e+00
  3.9961796e+00
 -1.2693179e+00
  1.3910691e+00
  4.4121247e-02
 -8.7023246e-01
 -2.2709918e-01
  1.9654520e-01
 -4.2786035e-01
 -1.3397378e+00
  2.6141673e-01
 -1.4912903e+00
  2.2761488e-01
  6.3864076e-01
  7.5641888e-01
 -2.7458594e+00
 -8.6719111e-02
  1.2534915e-01
  1.9164215e+00
  4.7317520e-01
  7.5919026e-01
 -2.8730013e+00
  1.3830860e+00
 -1.2566583e+00
 -1.0309967e-01
 -1.9591959e-01
 -1.0201489e+00
 -9.3260759e-01
  5.7477605e-01
  1.3518103e+00
  2.7010855e-01
  5.5477899e-01
  8.2958180e-01
  7.0536792e-01
 -1.3071967e+00
 -1.7967654e+00
  7.4339229e-01
 -3.3767533e-01
  3.9133531e-01
 -9.8279554e-01
 -2.0764188e-01
 -4.4221688e-02
  3.5482812e-01
 -2.4885620e-01
  2.5478542e-01
  7.2400582e-01
  2.2986970e+00
  1.5176995e-01
 -1.3160902e+00
 -1.8065873e+00
 -1.1251577e+00
 -2.1727931e-01
 -1.5223663e+00
 -2.2752697e+00
  7.7919251e-01
 -1.0287291e+00
  2.1754713e+00
  5.3879076e-01
 -1.7815498e+00
 -1.9785237e+00
  1.5176488e+00
 -8.6297572e-01
  1.6011827e+00
  2.8922689e-01
  1.2297875e+00
  2.2057264e+00
  4.0844293e+00
  6.2437654e-01
  5.4903716e-01
 -7.6412791e-01
  5.6778884e-01
 -1.5049128e-01
 -2.1488757e+00
  2.2881908e+00
 -1.7003729e+00
 -9.8292547e-01
  6.8000235e-02
  9.0349984e-01
  7.0345211e-01
  3.0679080e-01
 -9.7636646e-01
  1.0567829e-01
 -5.9523654e-01
  6.9076025e-01
 -4.9390069e-01
  9.4572544e-01
  1.6863908e+00
 -2.9552120e-01
  6.1584151e-01
 -5.9734440e-01
 -2.3346820e-01
  2.9681829e-01
 -2.0135555e+00
 -1.4998190e+00
 -2.9821579e+00
 -2.4755767e-01
  8.2204223e-01
 -4.2273993e+00
 -1.0815129e-01
 -1.3900262e+00
 -8.0975646e-01
 -3.9733091e-01
 -8.1325209e-01
  9.1963214e-01
 -8.7112498e-01
 -1.4345435e+00
 -1.0939512e+00
 -1.6145869e+00
 -4.4248648e-02
  6.4098561e-01
 -5.3538793e-01
  3.7050918e-01
 -1.0215897e-01
 -1.7424235e+00
 -5.0045586e+00
  1.9139796e+00
  3.8360741e+00
  1.4003903e+00
 -4.2102137e-01
 -1.3565277e+00
 -9.5146704e-01
  7.8282380e-01
 -1.7823415e+00
 -1.6228921e+00
 -8.9237159e-01
 -1.2651139e+00
  2.2751249e-01
 -1.4048671e+00
 -9.0299863e-01
 -2.7471471e-01
 -1.0636054e+00
 -3.0943668e+00
  2.6354713e+00
 -8.9530039e-01
  9.4404471e-01
  2.2123277e+00
 -2.5704432e+00
 -1.5987707e+00
 -1.6006736e+00
  5.5617172e-02
  2.1242936e+00
 -3.0486517e+00
  2.1350651e+00
 -2.1828837e+00
 -1.5157732e+00
  1.9024110e+00
 -8.7051287e-02
  3.8672778e-01
  1.3402169e+00
 -7.4795425e-01
  4.7588751e-01
  4.5680285e-01
  3.0697083e-01
 -1.3109416e+00
 -7.4260718e-01
  9.9050474e-01
  5.2326226e-01
 -1.4911853e-01
  1.7977246e+00
 -5.5067921e-01
  2.7679038e-01
 -2.5130243e+00
  3.2745116e+00
  3.1783199e-01
 -7.4067175e-01
 -1.3836840e-01
  5.4265678e-01
 -1.6249754e-01
  9.8490644e-01
  4.5621318e-01
  3.8367644e-01
 -1.0417395e+00
  1.1714427e+00
  1.1901319e+00
  7.5223297e-01
 -5.3833055e-01
 -8.9979702e-01
  1.4033678e+00
 -6.2026584e-01
  3.0317771e+00
 -9.6762246e-01
  1.8563220e-01
 -1.0192205e+00
 -8.7309730e-01
 -1.8036348e-01
 -6.5392822e-01
  1.4636538e+00
 -3.1678979e+00
  2.6048019e+00
 -3.0303419e+00
  1.5082554e+00
  2.4656163e-01
  2.6983514e+00
  9.7844905e-01
  4.0520948e-01
 -2.5935459e-01
  2.1905150e+00
  1.4788842e-01
 -3.3623910e+00
 -8.3252728e-01
  3.2758599e-03
 -7.4745494e-01
 -2.5777667e+00
 -6.9020176e-01
 -1.1958871e+00
  1.2823554e+00
  6.4732306e-02
 -1.5171870e+00
 -2.1819594e+00
  2.8390035e-01
 -5.5302614e-01
  1.3023316e+00
  1.3260703e+00
  1.1116021e+00
  6.0160935e-01
 -1.8950945e+00
 -7.0748456e-02
 -7.0223629e-01
  3.2997116e-01
  1.3681807e-01
 -1.4738967e-01
  4.1992307e+00
  2.7111988e+00
 -2.3688021e+00
  2.9167257e-02
 -3.4176368e-01
 -4.8496160e-01
 -1.4727120e+00
  6.8157631e-01
  4.0852913e-01
 -4.0657094e-01
  5.0119537e-01
 -1.6150213e+00
  7.3205805e-01
 -4.3258739e-01
 -9.4063275e-02
 -1.9471941e+00
  5.9689522e-01
  2.5707731e+00
 -1.6992251e+00
 -3.3475107e-01
 -1.3545384e+00
 -5.5822599e-01
 -9.0945113e-01
 -2.6993638e-01
  1.7661074e+00
  8.1375223e-01
  9.2292100e-02
 -2.3565593e-01
  1.1067492e-01
  1.1039315e-01
  3.9586797e-02
 -8.0804132e-02
  2.6153755e-01
  1.8343936e+00
  5.4243559e-01
  1.6190294e-02
 -3.6529644e+00
 -2.6761980e+00
 -1.2752030e+00
  1.9456677e+00
  6.0327148e+00
 -3.7015443e+00
  1.9296910e+00
 -2.7099009e+00
 -2.6353675e-01
  1.2511142e+00
  4.1683495e-01
  1.9469899e+00
 -1.0938619e+00
 -1.7323464e+00
 -2.0447962e+00
  1.1748648e+00
  4.1191223e-01
 -1.9854735e-01
  1.4314210e+00
  1.7279812e+00
  6.9949597e-02
  2.0378215e+00
 -1.3886502e+00
  1.1057457e+00
 -9.0228015e-01
 -2.6308186e+00
 -9.6875381e-01
 -3.0934650e-01
 -1.5322827e+00
 -2.2853433e-01
  8.9777279e-01
 -1.9691244e-01
  5.6783199e-01
  5.3144711e-01
 -4.9915724e+00
 -6.2977332e-01
 -2.5578463e+00
 -1.4425357e-01
 -2.5046134e+00
 -1.9425811e-01
 -4.5423180e-01
 -2.1730587e+00
  6.7979418e-02
  5.7689822e-01
 -3.6082723e+00
  6.3941741e-01
  2.4741814e+00
 -2.7801228e-01
 -7.2948474e-01
 -6.9042450e-01
 -1.5579010e+00
 -1.6180602e+00
 -2.5572968e-01
  3.8136554e+00
 -1.8768365e+00
 -1.1979240e+00
  6.3375664e-01
 -1.8730676e-01
  1.3499016e+00
  1.6862501e+00
 -2.4190457e+00
  3.0328631e-01
 -5.3121156e-01
 -1.7761674e+00
  1.1803189e-01
  6.8489259e-01
  5.1556033e-01
 -8.9562245e-02
  1.0132011e+00
  5.1463809e-02
  1.5534533e+00
 -4.9365085e-01
 -7.5254953e-01
 -3.8661690e+00
 -1.3350295e+00
 -6.4603251e-01
 -8.2362825e-01
  6.6949999e-01
 -6.7349809e-01
 -1.4928557e+00
  1.2668127e+00
  1.1641060e+00
 -7.1856850e-01
  3.9816189e-01
  8.2995266e-01
  4.4657436e-01
  1.2025099e+00
  9.1650623e-01
  2.7319565e+00
 -2.4880152e+00
  1.8517628e+00
 -5.1379484e-01
  1.7328542e-01
 -1.1091560e+00
  9.8977870e-01
 -5.1911366e-01
  6.3015825e-01
  4.9535021e-01
 -2.9558649e+00
 -2.0436297e-01
  1.8173721e-01
  1.9454560e-01
 -5.7788674e-02
 -5.9116656e-01
 -4.8207006e+00
 -2.8949339e+00
  3.8629422e+00
  3.6687598e+00
  4.3414311e+00
  2.2727446e-01
 -1.2796769e+00
 -1.3424363e+00
  1.3966067e+00
 -1.7552375e+00
  1.5184538e+00
  1.1528975e+00
 -2.2610824e+00
  2.6284087e+00
  7.5191420e-01
  5.1900762e-01
  1.9931668e+00
  2.1690550e+00
  4.7939725e+00
  3.7656386e+00
 -3.3332860e-01
  3.9137962e+00
  7.0911700e-01
  5.6214356e+00
 -1.1339823e+00
  2.2532666e-01
  1.2542003e+00
 -7.8795061e-02
  9.0736814e-02
 -2.0454547e-01
 -5.5730677e-01
  2.8726454e+00
 -5.8743969e-02
 -3.4110603e-01
 -3.0629593e-01
 -1.3185196e+00
  9.6066350e-01
  3.9072204e+00
  2.8456059e+00
  1.6550615e+00
  4.5794275e-01
 -1.7151186e+00
  6.1496419e-01
 -1.3612293e-01
 -1.4870560e-01
 -8.5460114e-01
 -1.9459722e+00
 -1.8110248e+00
  4.5873091e-01
 -1.4693060e+00
  4.7822955e-01
  1.0937586e+00
 -2.3186855e+00
 -1.1902039e-01
  1.0078392e+00
  2.1028328e+00
  2.8508096e+00
  2.5839064e-01
 -9.1434950e-01
 -5.6036234e-01
 -1.6741329e-01
 -3.9537704e+00
 -5.8325839e-01
 -1.1484876e+00
 -9.9487877e-01
 -3.8565032e-02
 -2.1003778e-01
 -1.4083328e+00
  2.1380815e-01
  6.1237669e-01
 -5.2757782e-01
  7.8870827e-01
  2.1103423e+00
  1.4543698e+00
 -1.4379876e+00
  1.1182396e+00
  8.5555190e-01
  1.6040502e+00
  7.3057437e-01
 -3.8046486e+00
  2.0650187e+00
 -1.4606018e+00
  1.1794075e+00
  1.0228779e+00
 -2.9327266e+00
 -5.0950801e-01
 -1.4563882e+00
 -1.5583546e+00
  1.0043683e-02
 -2.1405749e+00
  3.4969199e+00
 -3.4624743e+00
 -1.2153637e+00
 -8.9310473e-01
  1.9062742e+00
  8.0102313e-01
  2.1031473e+00
 -1.7980205e+00
 -1.7855092e+00
  1.7928762e+00
  2.4938478e-01
  1.6067303e+00
  1.5870528e+00
  7.2162396e-01
  1.8739979e+00
 -8.1362432e-01
 -7.8303111e-01
 -1.3381437e+00
 -8.7233752e-01
  1.7182857e+00
  1.1327157e+00
 -4.2288113e-01
  1.1288733e+00
  7.7773523e-01
 -6.0939152e-02
  1.0676367e+00
 -3.6062068e-01
  1.0875700e+00
 -1.2342788e-01
 -1.3461640e-01
 -1.5728590e+00
  1.9452652e+00
 -1.2249104e+00
  2.3346548e-01
 -1.4127501e+00
  2.6090589e-01
  2.5153890e+00
  4.1549397e-01
  1.8385214e-01
  7.8047788e-01
  1.3750852e+00
 -9.7596820e-04
  7.3425090e-01
  2.4740505e+00
 -2.6628527e-01
 -3.6170551e-01
  8.9782965e-01
  7.4607569e-01
 -1.0475045e+00
  1.4301587e+00
 -4.9184349e-01
 -1.8524752e+00
 -1.6770060e+00
 -4.7221524e-03
 -3.5092075e+00
 -1.0230882e+00
 -2.1959827e+00
 -2.5710571e-01
  1.8029007e-01
  6.7762762e-01
  2.7791551e-01
  1.2747802e+00
  3.3377171e-01
 -8.2626855e-01
  3.1124690e-01
  4.1108629e-01
  8.3552080e-01
  8.7983048e-01
  2.0545214e-01
  7.2506750e-01
 -8.9566672e-01
  1.1342305e-01
 -1.3921100e+00
  4.4615203e-01
  2.8854746e-01
  4.5568922e-01
  3.5401851e-01
  2.9629323e-01
 -1.5387926e-01
  2.7494667e+00
 -4.7210655e-01
  5.3341323e-01
 -3.5718426e-01
  5.8165866e-01
 -3.6931348e-01
 -7.1382654e-01
  1.3456661e+00
  5.4822648e-01
  1.5704416e+00
  3.0256015e-01
 -2.0433293e-01
 -7.8561527e-01
 -2.4506488e+00
  1.5421847e-01
 -6.9149309e-01
  1.2842348e-01
  3.0995390e-01
 -4.3838888e-01
 -1.3943395e-01
 -3.2857208e+00
 -6.3696527e-01
  4.3834847e-01
 -1.6696720e+00
 -4.4026518e-01
  5.7935101e-01
  5.9936374e-01
  2.8001603e-01
  5.8643681e-01
 -1.5858412e+00
 -7.2887999e-01
 -6.5254390e-01
  5.4901856e-01
  5.5794603e-01
  6.4191252e-01
 -6.1076415e-01
 -1.7827115e+00
 -1.8888266e+00
 -6.1885184e-01
 -4.6363634e-01
  6.7147237e-01
  3.1700876e-01
 -4.5968139e-01
 -7.4243313e-01
 -7.6000178e-01
 -2.9048201e-01
  3.3188581e-01
  8.3981651e-01
 -3.9430100e-01
 -7.1348572e-01
 -3.3832315e-01
  4.4858950e-01
 -4.1490608e-01
  2.8845277e+00
  2.4691701e-01
 -1.2171824e+00
  9.8090255e-01
 -9.4126076e-01
 -2.3458216e-01
 -2.9871328e+00
 -1.9893199e-01
  2.0101040e+01
 -2.1220167e+00
 -3.5058734e+00
  3.0018988e+00
  1.4276818e+00
 -6.6946158e+00
 -2.5465055e+00
  3.0429623e+00
  5.4183216e+00
 -7.7619028e-01
 -3.4969118e+00
 -7.3016191e+00
 -1.7222154e+00
  2.2435218e-01
 -3.9881647e+00
  5.6196856e-01
  4.2658553e+00
  7.4812281e-01
  3.0529532e+00
  7.1321678e-01
  1.8191031e-01
  8.2629174e-01
 -7.4728590e-01
  2.8126163e+00
 -7.1271653e+00
 -3.1795254e-01
  4.5599957e+00
  5.0689363e+00
 -1.7577537e+00
 -1.3091168e+00
 -1.7473332e+00
  1.1585722e+00
 -7.1945560e-01
 -1.5810995e+00
 -1.0224848e+00
  3.5712593e+00
  3.8867342e+00
 -9.0598041e-01
 -2.1763539e+00
  1.1146898e+00
  6.4989619e+00
  5.4564571e+00
 -3.5949869e+00
 -6.0180402e+00
 -2.1255903e+00
  2.0921965e+00
  1.4204311e-01
  3.1496754e+00
 -4.4526401e+00
 -2.9995444e-01
  3.6035011e+00
  5.2702713e-01
  7.4935865e-01
  1.7975729e+00
  1.3592644e+00
 -1.8973451e+00
 -4.0920115e+00
  6.5448780e+00
  4.2657018e+00
 -2.9347482e+00
 -3.3474650e+00
 -1.6215163e+00
 -7.0250326e-01
 -8.5809392e-01
  1.2769005e+00
  8.3281412e+00
 -1.0009906e+00
 -4.9237709e+00
  1.6992534e+00
  4.6613688e+00
  4.7011173e-01
 -3.4016671e+00
 -1.5866208e+00
 -1.3080939e-02
  2.4487374e+00
  4.1649094e-01
 -3.2598469e-01
 -2.1584206e+00
  1.6456582e-01
  3.2323938e-02
  8.5349256e-01
 -1.2260854e+00
 -3.2826703e+00
 -4.5743780e+00
  1.9408752e+00
  1.5254618e+00
 -2.0270345e+00
  1.6816525e+00
  4.4447951e+00
  1.4934634e+00
 -2.3296809e+00
  4.1251560e-03
  4.1251560e-03
  4.1251560e-03
  4.1251560e-03
  4.1251560e-03
  5.2743582e-03
  5.2743582e-03
  5.2743582e-03
  5.2743582e-03
  5.2743582e-03
  4.1027446e-03
  4.1027446e-03
  4.1027446e-03
  4.1027446e-03
  4.1027446e-03
  2.3731452e-03
  2.3731452e-03
  2.3731452e-03
  2.3731452e-03
  2.3731452e-03
  1.4660439e-03
  1.4660439e-03
  1.4660439e-03
  1.4660439e-03
  1.4660439e-03
  7.1759237e-04
  7.1759237e-04
  7.1759237e-04
  7.1759237e-04
  7.1759237e-04
  5.9611837e-05
  5.9611837e-05
  5.9611837e-05
  5.9611837e-05
  5.9611837e-05
