nep4_zbl 1 C 
zbl 1 2
cutoff 6 5 163 106
n_max 4 4
basis_size 8 8
l_max 4 2 1
ANN 80 0
  2.0116110e+00
  3.3958824e+00
 -1.3841667e+00
 -2.0612836e+00
  3.4978217e-01
  1.7812552e-01
 -1.1790421e+00
  1.0665461e+00
 -3.6499527e-01
  7.3327452e-02
 -5.7802435e-02
 -1.7140596e+00
 -1.1394014e+00
  1.7580834e-01
  1.7944193e+00
 -6.8847442e-01
 -1.3085223e+00
 -1.1307302e+00
  9.4710690e-01
  1.8061411e+00
 -6.7435831e-01
 -2.3526973e-01
  9.7491521e-01
  2.0482521e+00
 -5.4266465e-01
  2.9007030e-01
 -1.1724519e+00
  1.2410499e-01
  8.4503585e-01
  8.1056398e-01
 -5.9486890e-01
  2.5532266e-01
  1.7216007e-01
 -7.3984754e-01
 -1.2827951e+00
  1.5136981e+00
  1.2890042e+00
  2.8931525e+00
 -1.1434230e+00
  1.0442128e+00
  2.0898900e+00
  1.7484093e+00
 -3.0182354e+00
  1.0473180e+00
 -1.2173942e+00
  2.1724389e+00
  9.4584823e-01
 -1.0909456e+00
  1.8052317e-01
 -8.7129903e-01
  2.0652454e+00
 -2.7904410e+00
 -1.7534307e+00
 -1.9069899e+00
 -4.0908632e-01
  3.7906069e-01
 -2.3987269e+00
  1.6866318e+00
  4.2777020e-01
 -6.9943994e-01
  9.1349924e-01
  4.7809258e-02
  3.2523808e+00
  2.1694331e+00
 -1.5251055e+00
  3.5277274e-01
 -6.8726051e-01
  1.5170211e+00
 -2.7154309e-01
 -1.0035161e+00
  6.2307097e-02
 -1.2807711e+00
  3.2043678e-01
 -1.4971906e+00
  1.5012740e+00
 -1.4417000e+00
  2.4470208e+00
  3.1425431e-01
 -7.5323164e-01
  6.4337581e-02
 -4.9515256e-01
  5.6665456e-01
  1.0958388e+00
  1.2821746e+00
  9.7445071e-01
  1.3946351e+00
 -2.0913385e-01
 -1.2243931e+00
  5.7072721e-02
  2.6187515e+00
  4.9191651e-01
  2.0388846e+00
  1.0518110e+00
  1.3795544e+00
  4.4628522e-01
 -9.0187639e-02
 -3.5358617e+00
  3.6942014e-01
  1.8111162e+00
 -2.4336408e-01
 -7.3279001e-02
 -8.6519480e-01
 -3.0683175e-01
  1.1516816e-01
 -1.6858910e-01
 -2.1291709e+00
 -1.0600725e+00
 -1.6742502e+00
  1.1608443e+00
 -9.1923686e-04
 -2.2202122e+00
  2.5322843e-01
  3.0253043e+00
  3.8479590e-01
  6.3255584e-01
 -3.1050894e-01
  2.5940540e+00
  7.1062279e-01
  3.5146925e-01
 -2.3941833e-01
 -2.7559763e-01
  2.2739301e+00
  2.3977728e+00
  3.8985137e-02
 -3.3716419e-01
 -3.7002650e-01
  1.2291664e+00
  1.1164088e+00
 -1.2661027e+00
  3.2822594e-01
  1.2750884e+00
 -6.5060711e-01
 -2.3584414e+00
 -1.4543155e+00
  4.0761745e-01
  1.0241643e+00
  3.4401017e-01
  1.5918919e-01
  1.2152586e+00
  2.3189391e-01
 -3.8110927e-01
 -1.9052618e+00
  4.2277295e-02
 -5.1697135e-01
  5.4044890e-01
  2.1684311e-01
  5.4459488e-01
  5.6198549e-01
 -1.0046790e+00
  4.9429870e-01
 -1.9607356e-01
 -1.4777563e+00
 -8.6061895e-01
 -2.3342596e-01
  1.1921275e+00
 -1.6133282e-01
  7.1030366e-01
  2.3321791e-01
 -1.6968207e-01
 -3.7207130e-02
 -1.2764806e-01
  4.2784950e-01
  1.6100129e-01
 -2.8758842e-01
  3.4222260e-01
  1.0301007e+00
  4.3985739e-01
  2.0057303e-01
  5.0383455e-01
 -7.1177292e-01
  3.8418314e-01
 -7.5599231e-02
 -2.3220713e-01
 -7.5466000e-02
  5.3524452e-01
 -1.7946609e+00
 -2.4507351e+00
 -1.9202430e-02
  1.0018960e-01
  1.7985042e+00
 -2.0232770e-01
  4.3681547e-01
  2.1471732e+00
 -3.5753179e-01
  3.5699637e+00
 -2.0730407e+00
 -8.3874708e-01
  2.5824628e+00
 -1.1695148e+00
  1.5945650e+00
 -6.1662292e-01
  1.7829931e+00
  2.9522715e+00
  5.4221362e-01
  2.9507716e+00
  4.1892141e-01
 -9.2831272e-01
 -4.0441161e-01
  1.2836342e-01
  1.8045642e+00
 -3.1413662e+00
  1.9585868e+00
  3.5035563e-01
  2.3923838e-01
  6.3940758e-01
 -1.9136846e-01
 -2.2424886e-01
  9.0799779e-01
 -3.6998439e-01
 -1.2877963e+00
 -1.1123503e+00
 -3.9384186e-01
  1.0371665e+00
  1.3736662e+00
  2.5257699e+00
 -3.3995433e+00
 -1.9719741e-01
  3.4930414e-01
  1.5267317e-01
  1.5804443e+00
  6.3096248e-02
 -1.7380370e+00
 -9.6133983e-01
  1.0097115e+00
  2.0227196e+00
 -3.4214449e-01
 -1.4842528e+00
 -1.0464747e+00
  2.5953259e+00
 -1.5498091e+00
  8.6588824e-01
 -2.6450365e+00
 -1.2500445e+00
  1.9584811e+00
  7.6803690e-01
 -9.5706403e-01
  7.2901326e-01
  3.8083822e-01
  2.7401280e-01
 -1.7171600e-01
  1.2709816e-01
  5.1523465e-01
  1.0717894e-01
 -4.0525470e-02
 -8.3516353e-01
 -4.8783770e+00
 -6.9221765e-01
 -3.5595706e-01
  3.9354309e-01
  4.7310467e+00
 -3.5014491e+00
 -2.7493911e+00
  1.5117968e+00
 -1.7244039e+00
  2.6422288e-02
  6.0998406e-02
 -1.7793920e+00
  1.2603010e+00
 -7.0323721e-02
  1.0728693e+00
  4.2662394e-01
 -2.0580583e+00
 -1.1005043e+00
  2.3700008e+00
  1.3777298e+00
  1.0498667e+00
  6.1540502e-01
 -1.3576654e+00
 -8.8643157e-01
  1.6631895e+00
 -6.1380094e-01
 -1.1842289e+00
 -9.8876525e-03
 -3.6769342e-02
 -2.5564411e-01
  2.4320501e-01
 -6.6374731e-01
 -1.2621750e+00
 -2.1681514e-01
 -1.9279781e-01
 -8.6042476e-01
  2.0608127e-01
 -2.0629737e+00
  2.5714843e+00
  2.8141269e-01
  3.9132226e+00
  4.5693386e-01
  1.3805269e+00
 -2.1566230e-01
  4.7784925e+00
  5.9958768e-01
  1.3217523e+00
 -1.1553501e-01
  1.1572376e+00
 -6.6418552e-01
 -5.6728363e-01
 -3.5622001e-01
  1.6446207e-01
 -1.2411925e+00
 -1.1328987e+00
  1.8827832e+00
 -3.9262396e-01
  8.4354460e-01
 -8.6723864e-02
  9.2634087e+00
 -1.3923204e-01
  1.4897166e+00
 -1.0563486e+00
  9.1115218e-01
  1.3025985e+00
  1.9728644e-01
 -6.3638443e-01
  6.3226616e-01
 -8.9158976e-01
  4.4826573e-01
  3.5953133e+00
 -3.2094079e-01
 -7.7103382e-01
 -1.6473222e-01
 -2.0492494e+00
 -8.1343997e-01
  2.2323489e-01
  4.8940828e-01
  2.2996894e-01
 -8.6354840e-01
  3.3454788e-01
 -1.5942703e+00
 -3.4797925e-01
  1.1775888e+00
 -1.6083292e+00
 -1.8491240e+00
 -1.3726511e+00
 -1.8166861e-01
 -2.1408193e+00
  4.8830685e-01
  1.0797216e+00
 -9.4065934e-01
  4.4611564e-01
 -3.7422326e-01
 -2.5463495e+00
  2.1535499e+00
  4.3560573e-01
 -6.2162524e-01
 -8.5308784e-01
 -8.5174866e-02
 -6.9221210e-01
  5.6346309e-01
 -4.6733147e-01
 -2.3066615e-01
 -5.4896608e-02
  1.4678205e+00
  2.0312741e+00
  8.2039857e-01
 -3.5398006e-02
  3.8237181e-01
  1.7182642e+00
 -1.0767652e-01
  3.8911698e+00
  7.2864704e-02
 -1.1324535e-01
 -2.4979660e-01
  9.9132977e-02
  5.6950092e-01
  9.3162113e-01
  1.0420194e+00
  8.5302716e-01
  5.1750147e-01
 -3.4827951e-01
 -5.3635246e-01
 -8.6251199e-01
  3.2300820e+00
 -1.0014404e-01
 -6.0509515e-01
  7.8792088e-02
  6.3525128e-01
  1.3688592e+00
  3.8018006e-01
  5.6551206e-01
  3.0650945e+00
  1.9451379e+00
  1.4825189e-01
 -1.3226835e+00
  1.4420104e-01
  2.4324033e-01
  2.4097267e-01
  1.9454374e+00
 -2.9657474e-01
 -1.2729189e+00
  3.5467696e-01
  1.4633522e+00
 -3.3459502e-01
  2.0535536e-01
  9.0918499e-01
  9.9838710e-01
  1.1795998e+00
  4.9429065e-01
  3.1131652e-01
  3.4968895e-01
  4.3833041e-01
  5.3890437e-01
 -1.4192778e+00
 -4.6104163e-02
 -3.2231474e-01
 -6.4670873e-01
 -8.1870234e-01
  1.6998605e+00
 -2.1557076e+00
  1.3742701e+00
  8.7382898e-02
 -4.2775047e-01
  6.8877965e-01
  3.1998363e+00
 -4.6353257e-01
  3.0231085e-01
  1.1999264e+00
  1.0857583e+00
 -3.8594168e-01
  2.6238617e-01
 -5.9433591e-01
 -2.8830090e-01
  5.3968424e-01
 -8.3321601e-02
  2.5083544e+00
  6.6123611e-01
 -1.7765864e+00
 -2.8303400e-01
  1.1408509e+00
 -1.6777123e+00
 -1.4069591e+00
  1.9640534e-01
  5.8538663e-01
 -2.5273344e-01
 -4.5369435e-02
  1.2419059e+00
  4.2525530e-01
 -3.2775557e-01
 -1.6286823e+00
  4.0795752e-01
 -4.8357499e-01
 -6.0316873e-01
  1.6386151e+00
 -1.2891381e+00
 -3.7029079e-01
 -9.3886477e-01
 -6.9392276e-01
  7.8834623e-01
 -1.4024597e+00
 -3.0144909e-02
 -1.6512290e+00
  3.2587987e-01
  1.9967920e-01
  1.3777143e+00
  9.5630780e-02
 -3.5624188e-01
 -2.9588637e+00
 -3.2810470e-01
 -8.8195974e-01
  1.4057968e+00
  8.1755775e-01
  1.9786291e+00
 -1.5017848e+00
  3.1669080e-01
 -1.0181017e-03
 -3.6109957e-01
  7.5996768e-01
  9.9711579e-01
  9.5160091e-01
 -2.0177932e+00
 -4.1069832e-01
 -1.6860186e+00
 -1.1626122e+00
 -1.8838642e+00
 -5.9252052e+00
  9.9659872e-01
 -1.5038548e+00
  8.2867622e-01
  9.4471425e-01
 -2.6907107e-01
 -2.1638946e-01
  5.4995394e-01
  1.7975001e-01
 -2.9922307e+00
  5.2960789e-01
  5.3799832e-01
  5.8158332e-01
 -1.6873817e-01
  2.0758374e-01
 -2.3571018e-02
 -8.8052577e-01
 -3.6346659e-01
  1.8672910e-01
 -1.4254540e+00
 -4.1579625e-01
  3.5274243e-01
 -4.0608272e-01
  1.9803451e-01
 -4.7081798e-01
 -1.0536712e+00
  5.7798380e-01
 -3.8471046e-01
 -1.3789213e+00
 -1.2746278e+00
 -5.3955650e-01
  7.8072512e-01
  9.5766973e-01
 -6.1068708e-01
 -5.1707292e-01
  1.8467619e-01
  1.4541780e+00
  1.2903099e-01
  3.6817935e-01
 -9.6374995e-01
  3.8571887e-02
 -9.3802804e-01
  5.7831162e-01
  2.8825700e-01
 -9.3399709e-01
 -5.9467310e-01
  1.6443275e-02
 -7.8929293e-01
 -6.5327942e-01
  1.1305096e+00
 -1.1502095e-01
 -3.8533610e-01
 -1.1926461e+00
  5.8576888e-01
 -1.8303749e-01
 -1.7371566e+00
  5.8028799e-01
  1.6830033e-01
  2.2274038e-01
 -1.2667599e+00
 -1.3801819e+00
  1.7666122e+00
  3.1747785e-01
  2.5152426e+00
  2.9830029e+00
 -3.3852291e+00
  2.3246553e+00
 -1.2117044e-02
 -2.5011125e+00
  1.6272850e+00
  2.8302956e-01
  1.7473257e+00
 -4.7495097e-01
 -2.7216747e+00
  1.7888108e+00
 -9.7254848e-01
 -6.0938090e-01
 -7.2550058e-01
  7.9243743e-01
 -2.5253940e+00
  1.3615127e+00
  2.6258331e-02
 -7.8902966e-01
 -6.2718266e-01
 -3.1950369e-01
 -6.2065756e-01
 -6.4191025e-01
 -5.5264682e-01
 -4.0328005e-01
  1.8826696e+00
 -2.7309372e+00
 -2.5415034e+00
  1.8937256e+00
 -3.9415520e-01
 -2.4083301e-01
 -1.9343579e+00
  1.5569791e-01
  9.6310663e-01
 -5.9867233e-01
  1.4104924e+00
 -7.3525065e-01
  6.5866399e-01
  1.0378093e-02
  2.4465299e-03
  2.2440490e-01
 -9.1076899e-01
 -1.3072953e+00
  6.1464912e-01
  2.7787477e-01
  1.3632184e+00
 -2.5179097e-02
  1.2727848e+00
 -2.4551275e-01
 -6.6257238e-01
  1.3339667e+00
 -2.8225005e-01
  1.0919843e+00
 -4.2899507e-01
 -8.7187909e-02
  9.9527188e-02
 -9.8898238e-01
 -8.5911430e-02
 -1.5927605e-01
 -3.1600925e-01
  1.2782768e+00
 -2.3474779e+00
  1.0191054e+00
 -2.2372713e+00
 -1.8425394e+00
  4.3662417e-01
  6.1932987e-01
 -1.7106484e-01
  9.9600023e-01
 -3.6518164e+00
  2.9787509e+00
  1.0362995e+00
 -6.5218073e-01
  1.4469277e+00
 -2.0009904e+00
 -2.5061409e+00
  5.5575126e-01
 -6.3250285e-01
 -2.5130014e+00
 -2.6325700e+00
 -8.9616156e-01
  2.8919876e-01
 -5.0097150e-01
 -1.8699942e-02
 -1.4312615e+00
  5.7844365e-01
 -1.4806769e+00
 -8.6424232e-01
  1.4549758e+00
 -6.6780186e-01
  4.1804406e-01
 -2.2786725e-02
 -3.1812176e-01
 -8.3804473e-02
 -1.1296477e+00
  4.7419074e-01
  1.5322195e+00
  6.2675941e-01
 -2.2074490e+00
  1.8992184e-01
 -1.0152075e-01
  1.4246519e+00
 -1.1255052e+00
 -9.3891466e-01
 -1.7732300e-01
  6.3019305e-02
 -7.2836444e-02
 -2.0643571e-01
 -3.6279905e-01
  4.3414408e-01
 -7.5840187e-01
  7.9805791e-01
 -1.5356252e-01
 -8.4710360e-01
  4.2291626e-01
  9.1846704e-02
 -6.6303289e-01
 -8.0175638e-01
 -1.0370243e+00
  2.8874043e-01
 -3.2674059e-01
 -3.4472576e-01
 -1.3107733e+00
  1.1857824e+00
  2.9633433e-01
  5.4985064e-01
  8.2213074e-01
 -2.2112034e-02
  1.8422149e-01
 -6.1516446e-01
  6.4496112e-01
 -4.2012304e-02
 -1.2747378e+00
 -4.6159053e-01
 -4.1412103e-01
  1.9977939e+00
 -4.2058843e-01
 -1.7459503e-01
 -1.9834675e-01
  1.4792426e-02
 -2.6003605e-01
 -1.3991514e+00
 -2.4014717e-01
 -7.8501862e-01
 -2.6195207e-01
  4.7841874e-01
  1.0682544e+00
  2.6925606e-01
  9.5981759e-01
 -1.7508318e+00
 -1.0168864e+00
  1.3406047e+00
 -1.3188994e-01
 -3.3593985e-01
 -1.2444863e+00
 -1.9208838e-01
  1.0211876e-01
  1.4679521e+00
 -2.6800516e+00
 -2.0275503e-01
 -2.3183416e-01
  1.7761105e+00
  3.0458739e-01
  3.2947528e-01
 -3.8668162e-01
 -8.1505561e-01
  2.7051264e-01
 -7.3976922e-01
  2.5500047e-01
 -6.1774373e-01
 -7.6577133e-01
 -4.2202583e-01
 -7.5330740e-01
 -6.2386715e-01
 -3.8901803e-01
  1.5944041e+00
  1.7880530e+00
  6.9455034e-01
 -1.3883675e+00
  5.5270355e-02
 -5.4366469e-01
  1.1525594e-01
  8.5488230e-01
 -6.7186409e-01
 -3.2612526e-01
  1.7241052e+00
 -1.1752656e-01
  5.3079361e-01
 -7.6314384e-01
  1.8358639e-01
 -8.5085827e-01
 -6.5602027e-03
 -3.8438982e-01
  1.0628804e-01
  6.0246986e-01
  2.7034900e-01
  5.4847062e-01
 -1.0476112e+00
 -2.3612860e-01
  2.9073739e+00
  7.6902032e-01
 -8.7254572e-01
 -1.0398390e+00
  1.0671151e+00
 -1.6774927e+00
  1.0646236e+00
  1.9641832e+00
 -3.5194603e-01
 -3.7370479e-01
 -2.9618669e+00
 -1.8305108e-01
 -5.4056329e-01
 -5.4928815e-01
 -1.6765125e+00
 -2.3464727e-01
 -9.3288374e-01
 -2.9061430e+00
 -3.7301850e-01
 -5.2953589e-01
  1.2201511e+00
 -5.6828290e-01
  3.1168256e-02
 -7.8888047e-01
 -2.7502398e+00
 -1.5441162e-02
  2.6005349e-01
  1.2763510e+00
 -4.2639497e-01
  2.4019739e-01
 -5.3905535e-01
 -1.0853291e+00
 -3.6610794e-01
 -2.7051312e-01
 -1.0630322e+00
  9.2101985e-01
  4.7789612e-01
  2.1699927e+00
 -8.6767274e-01
 -2.5141888e+00
  3.7196594e-01
  5.9221182e-02
 -1.4233074e-01
 -4.0991282e-01
  8.8620311e-01
 -2.5476068e-01
  1.3950522e-01
 -2.4864060e-01
  4.8945245e-01
 -1.1531904e-02
  1.3344656e+00
 -9.8188746e-01
  8.7200201e-01
  4.2018810e-01
 -2.6882396e+00
 -4.6606073e-01
 -6.7256981e-01
 -5.7488847e-01
 -7.9962844e-01
  1.2015719e+00
 -2.6470411e-01
  9.5765752e-01
 -2.5234187e-01
 -2.1159947e+00
  3.5683486e-01
 -1.2245454e-03
  8.8695729e-01
  2.1838471e-02
 -2.3443678e-01
  6.2711942e-01
  1.0478060e+00
  2.2467509e-01
 -3.6603019e+00
 -1.8659364e+00
  2.8789943e-02
 -1.6395742e+00
  1.0079741e+00
  3.3768412e-01
 -4.3106202e-02
 -2.2492595e+00
 -2.1314557e+00
  6.3767791e-01
 -9.2172754e-01
 -3.8206947e-01
 -8.2663435e-01
 -1.3072757e+00
 -6.6749588e-02
  9.2978400e-01
 -1.0232772e+00
  3.6116818e-01
 -4.8322082e-01
 -5.0502402e-01
  1.7291089e+00
  2.8931870e+00
  2.7413824e-01
 -2.5012381e+00
  1.7744704e+00
  2.8782517e-01
  1.7308217e+00
 -2.7158636e-01
 -5.0665963e-01
  6.2780547e-01
  4.2950529e-01
 -4.4030279e-01
 -2.7328315e-01
 -5.0495481e-01
 -8.7121838e-01
  2.1195381e+00
  7.2625440e-01
  3.3811107e-01
 -2.6945896e+00
 -3.2916737e+00
  2.5510736e+00
  3.1974325e-01
 -5.4267936e+00
 -2.2479852e-01
  2.7451890e+00
  1.2144500e+00
 -9.6845162e-01
 -4.3723860e+00
  1.6197411e+00
 -1.3872209e+00
  1.4503657e+00
 -2.0287421e-01
  1.1258576e+00
 -2.1752952e-02
  8.2906836e-01
 -3.1084517e-01
 -6.8187189e-01
  1.1971734e-01
  1.9913288e+00
 -3.8742337e-01
 -6.0751170e-01
  6.1253327e-01
  2.6318138e+00
  1.5374641e-01
  7.9620975e-01
  5.3210324e-01
  4.3488705e-01
  4.3219179e-01
  2.5973337e+00
 -1.6867262e-01
  3.0057142e+00
  2.4812262e+00
 -3.1131480e+00
 -1.4737861e+00
  2.4936352e+00
 -5.7458431e-01
  1.7250197e-01
  7.8967047e-01
 -2.2257609e+00
 -1.7132748e+00
 -1.4749342e+00
  1.3199029e+00
 -1.5651904e+00
 -2.2116145e-01
  1.0721171e+00
 -6.0488266e-01
 -1.2611320e+00
 -2.8417605e-01
  9.2832017e-01
  9.0418631e-01
 -9.3785065e-01
  1.6345204e-01
 -2.5096536e+00
  8.7398864e-02
  1.6877208e+00
 -1.0752968e-01
  2.4169046e-01
 -3.1767893e-01
 -3.1768790e-01
  1.7433317e-01
 -2.3592916e-01
  1.4923826e-01
 -1.7977153e+00
 -2.3182559e+00
  1.4278644e+00
  6.4813334e-01
 -2.0015481e+00
  1.0409988e+00
 -7.4053669e-01
  1.1324570e+00
  1.9262229e+00
 -2.2496989e+00
  5.4520053e-01
 -1.2922909e+00
  1.8147092e+00
  3.7541386e-02
  1.4253156e+00
 -2.2944276e-01
 -8.9373893e-01
  1.7048672e+00
  1.7119677e+00
 -2.8852922e-01
 -1.1099341e+00
  1.8244019e+00
  5.4288608e-01
  6.2972027e-01
 -7.0476063e-02
  1.2916777e+00
 -7.9236293e-01
 -9.0870130e-01
 -2.3175280e+00
 -2.1268655e-01
  7.4070412e-01
 -1.1073029e+00
 -3.4851474e-01
  5.7170403e-01
  3.6630984e-02
  1.1093149e+00
 -1.0433531e+00
  1.0003803e+00
 -3.6941710e+00
  1.2728786e+00
  1.2974615e+00
 -3.5105184e-01
 -8.7382138e-01
 -2.7350280e-01
 -8.5357986e-02
  1.6787624e+00
 -2.1536064e+00
 -8.4588999e-01
 -5.9482533e-01
  9.8113066e-01
  1.1462921e+00
 -1.3487114e-01
 -2.8158898e+00
  2.3791580e+00
 -1.7631380e-01
  1.0742040e-01
 -6.0414994e-01
  4.6350962e-01
 -1.9119635e+00
 -3.5801089e-01
  6.9239652e-01
 -9.4352102e-01
  6.8970561e-01
  3.3185575e+00
  1.3737154e+00
 -7.6476938e-01
  6.0325438e-01
 -3.7747669e-01
 -1.8411039e-01
 -7.3605835e-01
 -1.4240357e+00
 -7.5642431e-01
 -5.4181242e-01
  4.0003133e+00
  1.0959047e+00
  3.8948250e-01
 -7.5849265e-01
 -3.7014129e+00
 -1.1184678e+00
  4.0181723e-01
  2.2424042e+00
 -4.1918240e+00
  2.6514345e-01
  1.0724044e+00
 -8.0256093e-01
  4.9082198e+00
 -9.4352013e-01
 -6.2265456e-01
  2.2628059e+00
 -1.1384024e-01
  1.0947143e-01
  1.6492258e+00
  9.4486135e-01
  2.9850951e-01
 -1.4420618e+00
  1.5773095e+00
 -1.2401735e+00
 -7.3864871e-01
 -9.4569629e-01
 -7.0264488e-02
  9.5289969e-01
  2.8126693e-01
 -5.3686213e-01
 -6.5385282e-01
 -9.4356470e-02
 -3.0041751e-01
 -2.5447607e+00
 -1.8687508e+00
 -1.2045202e+00
 -2.9523263e+00
  3.1141238e+00
  7.2714007e-01
 -5.4412812e-01
 -1.7617141e+00
 -7.8729677e-01
  3.7256825e-01
  4.9463752e-01
  1.3781468e+00
  6.1392307e-01
 -3.2712954e-01
  6.0374641e-01
 -4.6604207e-01
  1.6334398e+00
  1.1360422e+00
 -1.7608196e+00
 -1.7905076e-01
 -1.1386025e+00
  6.5855160e-02
  1.5010512e+00
  2.4178936e+00
  7.1528119e-01
  1.5681275e+00
  2.0691372e-01
  2.3118080e-01
  4.6543831e-01
  2.0001134e-01
  6.0881639e-01
 -5.2349132e-01
  3.3252650e-01
  3.3388841e-01
 -3.4596795e-01
 -1.6639330e+00
 -2.2699993e+00
  4.1483039e-01
 -1.2524920e+00
 -4.3029842e-01
  1.4554518e+00
 -8.0943984e-01
  1.6017836e-01
  1.0107917e+00
  1.1836737e+00
  3.0175930e-01
  5.1845843e-01
  3.1568203e+00
 -1.4707830e+00
 -1.5863136e+00
  2.5616277e-02
 -1.7069117e+00
  1.7071723e+00
 -2.0114212e+00
  5.2959885e-02
  1.4570379e+00
 -1.4602156e-01
  1.0006495e+00
  4.6284678e-03
 -3.3988478e+00
 -3.3054512e+00
 -4.9127206e-01
  8.8300025e-01
 -1.1353053e+00
  1.5234829e-01
  5.0141042e-01
 -7.8143492e-02
  6.9246638e-01
  3.7939975e-01
  3.8025845e-02
 -1.4041779e+00
  1.4321083e-01
  2.5380733e+00
  4.0388715e-01
  4.5630421e-02
  1.5934672e+00
  2.4517634e+00
 -2.5208726e+00
  1.3247197e+00
  1.9691727e-01
  3.1592760e+00
 -4.7709498e+00
  1.0643604e+00
  8.2526970e-01
 -3.5474491e-01
  9.0951067e-01
  2.8083509e-01
  3.7711486e-01
 -3.7970072e-01
  2.6798359e-01
  1.0707649e+00
  1.4066424e+00
 -1.2943357e+00
 -1.3089117e+00
  1.0762448e+00
 -2.3331578e+00
 -1.0396731e+00
  8.3502077e-02
 -3.9843962e+00
  6.7971402e-01
  8.3428450e-02
  8.5937798e-01
  5.2229404e-01
 -1.0762657e+00
 -9.9723510e-02
 -4.4057441e-01
  5.6233698e-01
 -1.9830042e-01
 -1.2368456e-01
 -2.0956371e+00
 -1.8298186e+00
  1.6531494e+00
  1.9948198e-01
 -2.8565603e-01
  8.6004317e-01
  1.7589344e-01
 -1.9540467e+00
  2.4739961e-01
  4.9250495e-01
 -5.5681270e-01
  5.6093729e-01
 -2.8369710e+00
  1.2972845e+00
  1.7732754e+00
 -2.4832177e+00
 -1.9432958e+00
 -1.1986576e-01
  6.6723090e-01
 -9.5837265e-02
 -7.4738848e-01
 -1.0845309e+00
  1.7849923e+00
  2.6774150e-01
 -6.2004689e-02
  4.2959654e-01
  2.1536157e-01
  3.6287823e-01
 -5.2787530e-01
  2.4118042e-02
  4.8185360e-01
  1.7154436e-01
 -1.2745731e+00
 -5.5732805e-01
 -2.0721490e+00
  4.5709535e-01
  2.2941305e-01
 -7.8445596e-01
 -5.5662853e-01
  1.7312689e-01
  8.6821651e-01
 -3.7740955e-01
  2.5364551e-01
  5.2244443e-01
 -1.8762432e-01
 -2.0559543e-01
  7.5290787e-01
  1.3574573e+00
  1.2229054e-01
  1.8140616e-01
 -7.5616620e-02
 -6.8994719e-01
 -2.9537439e+00
 -7.7900159e-01
  1.4484166e+00
  1.2639323e+00
  2.6446414e+00
 -1.2482103e+00
 -6.7886710e-01
 -5.6366324e-01
 -1.3186561e+00
 -2.0190164e-01
 -3.4508654e-01
 -8.1649697e-01
  8.2463071e-02
  2.8505825e-02
  4.8431480e-01
  1.1984800e+00
 -1.4517294e+00
 -3.4936805e+00
 -5.4322737e-01
 -2.0689023e-01
 -6.1123852e-02
 -6.9105321e-01
  8.9223164e-01
  4.2714815e+00
  3.4941850e+00
  3.6513168e-01
 -2.7281759e+00
  1.5173337e+00
  1.4979936e+00
 -1.3885822e+00
  5.2861285e-01
  1.5675265e+00
 -2.8030777e-02
  6.3460246e-02
 -1.3202275e-01
 -1.0674301e+00
  5.8002496e-01
  9.9596256e-01
  1.3959732e+00
 -1.3961320e+00
  1.8839271e+00
  1.7485679e+00
 -3.7540069e-01
  6.0289776e-01
 -3.2513985e-01
 -4.7690135e-01
 -4.2296702e-04
 -8.8728160e-01
  1.4496766e+00
  1.0055813e+00
 -2.3400574e+00
 -5.3499442e-01
 -2.0856136e-01
 -1.3869706e+00
  1.0206752e+00
 -2.3374341e+00
 -5.5846894e-01
  8.1582528e-01
  1.0655435e+00
 -4.1528571e-01
 -1.1853780e+00
 -2.3063130e+00
  7.2356570e-01
  3.4565852e+00
  2.2472020e-02
 -8.6752385e-01
  2.1985780e-01
 -1.9035567e-01
  8.8048197e-02
 -1.3142715e+00
 -7.0733738e-01
 -4.6644574e-01
  4.1332827e+00
  1.3420659e+00
 -5.9629774e-01
 -1.6327095e+00
 -1.0069218e+00
  2.2474164e-02
 -1.8378897e+00
  3.6653110e-01
  3.3810079e-01
 -1.0707719e+00
  3.3124605e-01
  3.5049072e-01
  2.0765120e-02
 -1.5694495e-01
 -2.5470855e+00
  3.2092357e-01
  6.4313996e-01
  1.3670703e+00
  3.6386338e-01
  7.6163232e-01
  1.4134678e+00
 -1.1107171e+00
  1.1272756e+00
 -4.0582776e-01
  1.9829307e+00
  3.1409860e-01
 -1.5931244e+00
  3.2802877e-01
 -3.8996118e-01
  2.0075572e+00
  1.1174790e+00
 -8.3791393e-01
  6.5659112e-01
 -5.0538075e-01
  1.0217661e+00
 -1.7513118e+00
 -4.2037624e-01
  2.5808802e-01
 -2.0667350e+00
 -2.0371127e+00
 -4.3434224e-01
  4.5953128e-01
 -1.3435718e-01
 -2.3847784e-01
 -3.5324135e-01
 -1.7664346e-03
  2.3231001e-01
  1.2264454e+00
  6.1399424e-01
 -1.3357295e+00
  1.1177887e-01
 -2.5804369e+00
 -1.4067775e+00
  8.2798582e-01
  8.5906309e-01
  1.6537590e-01
 -7.4884111e-01
 -2.4095149e+00
 -2.6008554e-02
  1.3831862e+00
 -8.1807512e-01
 -6.3108966e-02
 -3.9480641e-01
 -2.6702987e-02
 -3.6481707e+00
 -1.3512242e-01
  2.4385567e+00
 -2.3104041e+00
  1.7164205e+00
  7.7816540e-01
 -2.4444861e+00
 -6.6345912e-01
 -1.0350324e+00
 -4.3630618e-01
 -6.1335087e-01
 -2.6397440e+00
  1.9614239e+00
 -5.6161922e-01
 -5.1691465e-02
  3.6191413e-01
  1.4187722e+00
  5.1942718e-01
  5.0303265e-02
 -6.0140807e-03
  4.8013344e-01
  6.0333210e-01
 -3.7220243e-01
 -1.0535014e+00
 -6.9735020e-01
 -5.6562030e-01
  1.2241751e-03
  7.9612970e-01
  2.6137946e+00
  3.0787232e+00
 -4.7378659e-01
 -5.9670991e-01
  6.5768450e-01
  4.0870199e-01
 -1.3627045e+00
  1.4496361e-02
 -4.6570864e-01
  2.4175996e-01
 -3.6265710e-01
  3.9787760e-01
 -3.8587356e-01
  7.6582998e-01
  9.4713748e-01
  9.4510920e-02
 -5.0384033e-01
  1.1603034e+00
 -4.9785656e-01
  2.5257599e-01
 -1.0485532e+00
  1.7323370e-01
 -2.0880805e-01
 -1.0786511e+00
  2.1025953e-01
  1.0524343e+00
 -1.8752631e+00
 -1.5284050e+00
 -3.5049493e+00
 -3.6875184e+00
  1.8160584e+00
 -1.8660209e+00
  6.0945999e-02
  1.3957706e-01
  1.9952793e+00
  1.7218802e+00
 -6.9499218e-01
  1.2161540e+00
 -1.9581720e+00
  3.0346337e-01
 -7.5262904e-01
  1.2421291e+00
 -1.5771720e+00
 -7.1171904e-01
  2.8447241e-01
  1.1836880e+00
 -3.0523989e+00
  2.3076184e-01
 -3.7533307e+00
 -7.1370345e-01
 -1.5278342e+00
 -1.7073997e+00
  1.0041659e+00
 -4.5448396e-01
  4.4105595e-01
  1.4057867e-01
  1.4498900e+00
  5.5873621e-01
  3.6754314e-02
  3.2794356e-01
 -4.9330616e+00
 -2.3430283e+00
 -2.1828537e+00
 -4.5389947e-01
  2.6713059e+00
 -1.3163644e+00
 -3.4828486e+00
  7.2099576e+00
 -9.0201873e-01
  1.4011253e-01
  1.8998233e+00
  1.0421120e+00
 -1.0306224e-01
  2.4375556e+00
  1.2877647e+00
  2.7043281e+00
 -1.1329604e+00
  2.5537262e+00
  1.1971027e+00
  1.5873770e+00
  1.6451921e+00
 -1.5796617e+00
  7.0201302e-01
  3.2092929e+00
 -1.5352510e-01
  7.3631126e-01
 -9.8559749e-01
 -1.1989409e+00
 -1.2116121e+00
 -1.2613872e+00
 -8.8575947e-01
  7.9054445e-01
 -3.3060172e-01
 -2.8762448e-01
  1.4533552e+00
 -1.3419834e+00
  1.2504064e+00
 -2.1031001e+00
 -1.2368765e+00
  1.4788883e+00
  1.3060108e+00
  7.0202762e-01
  5.5423141e-01
 -6.5091282e-01
  1.1742003e+00
 -6.2840766e-01
  8.6160086e-02
 -3.5659564e-01
 -3.3641046e-01
  5.3197050e-01
  5.9655857e-01
 -4.0801659e-01
  5.2257329e-01
 -3.1375256e-01
  9.9543206e-02
  1.6858681e+00
 -4.6877027e-01
  2.9937651e-03
  1.4873588e+00
 -5.6341887e-01
  5.4022628e-01
  1.4169697e-01
 -6.9323510e-01
  2.7322656e-01
  1.5936120e-01
 -1.0305948e+00
 -3.8616362e-01
  4.8400036e-01
  4.5433645e-03
 -6.3343233e-01
  3.1048315e+00
  8.6321944e-01
 -1.0835639e+00
  1.6974623e+00
 -5.8470815e-01
 -1.6259712e-01
 -1.0507139e+00
  2.7953322e+00
 -8.3084780e-01
 -3.7197390e-01
 -4.5188719e-01
  2.6166544e+00
  1.7956917e-01
  5.2700955e-01
 -9.4707131e-01
 -4.6839371e-01
  7.5811255e-01
  1.8420455e+00
 -1.1460952e+00
 -3.5677481e-02
  7.5016195e-01
  8.4771740e-01
  4.6607651e-02
 -8.1752908e-01
 -1.2950217e+00
 -2.4823183e-01
 -1.6379269e+00
 -1.9067422e+00
 -4.9154156e-01
 -7.0985712e-02
  2.2184820e+00
  1.6143792e+00
 -9.4320935e-01
  1.1164479e+00
  8.6311054e-01
 -2.0505877e+00
  1.7849270e+00
 -2.5977371e+00
 -1.7606947e+00
 -7.4718422e-01
  1.2256279e+00
  1.4261886e-01
  6.9551152e-01
 -1.1460972e+00
  4.1900176e-01
  3.5012686e+00
 -3.5486746e+00
 -1.0570123e+00
  6.2563932e-01
 -4.7775647e-01
 -4.9934399e-01
  5.1808506e-01
 -1.4757524e+00
  1.1063880e-01
 -2.3179102e-01
  8.3503205e-01
 -1.8053320e-01
 -7.8874534e-01
  5.7239383e-01
  4.7020686e-01
 -2.5245044e+00
  2.0582256e+00
  1.4466450e+00
  5.0717187e-01
  2.7150327e-01
  7.7041423e-01
  1.6340169e-01
  8.1519765e-01
  3.2374859e-01
 -1.6958408e-01
  3.6469703e+00
  5.1343197e-01
 -2.5231056e+00
 -3.7837949e-01
  1.1431116e+00
 -2.1014087e+00
  2.9073918e-01
 -1.4496306e+00
  1.6880268e-01
  2.3732836e+00
  2.8917999e+00
 -7.4163902e-01
 -3.0690780e-01
  2.8234267e-01
  9.7337618e-02
 -1.4848210e+00
 -1.5139166e+00
 -6.3603449e-01
 -6.7856640e-01
  1.2315497e+00
  8.5785180e-01
 -1.7194479e+00
 -1.2189705e+00
 -6.9590217e-01
  1.6720725e+00
 -2.5812095e-01
  1.2403289e+00
 -5.3941768e-01
  1.2969242e+00
  5.9461504e-01
 -5.6771791e-01
 -1.0056314e+00
 -1.4272074e-01
  5.1939744e-01
  1.1785193e-01
 -1.4799421e+00
 -2.9874668e+00
  5.3037685e-01
 -2.2017064e+00
  8.8031840e-01
  1.8308040e+00
  2.6620522e+00
 -1.5444722e+00
 -8.7294513e-01
  5.9827551e-02
  2.3934045e+00
 -2.0687826e+00
 -2.9715977e+00
 -6.6887009e-01
 -7.1051437e-01
  4.1233773e+00
 -1.9371734e+00
  3.2851268e-02
  1.5254329e+00
 -4.2126137e-01
  9.1965991e-01
 -1.4611166e+00
 -1.1267990e+00
  2.2332761e+00
  1.0505829e-01
 -3.9706845e+00
  3.6824350e+00
 -1.4158270e-01
  2.4418871e+00
  2.1447308e+00
 -3.0853608e-01
 -1.1177044e+00
  1.0733434e+00
 -2.5759819e-01
 -1.5532255e+00
  4.0238004e+00
  6.7951614e-01
 -4.6937485e+00
 -4.1928563e+00
  1.9532779e+00
 -1.3206431e+00
 -2.6541278e-01
  5.5169660e-01
 -1.2123138e-01
  1.0090341e-01
 -4.0958759e-01
 -4.3961403e-01
  7.1324605e-01
  7.5127858e-01
 -4.0942267e-01
  8.2500517e-01
  8.0752856e-01
 -6.3403010e-01
 -7.4044794e-01
  1.2884041e+00
 -7.1449262e-01
 -2.1602278e+00
  1.0109221e+00
  8.0445713e-01
  1.8650298e-01
  2.9891920e+00
 -7.4296713e-01
 -2.1852604e-01
 -3.6680892e-01
 -5.0029600e-01
  1.5550516e-02
 -1.2660539e+00
 -8.5915968e-02
 -5.8432829e-01
  1.8563917e-01
 -1.8799452e+00
 -2.3442748e-01
  6.5772301e-01
 -6.4177084e-01
  1.1258512e-01
  7.4406743e-01
 -3.6080003e-01
  1.4264590e+00
 -1.5147863e-01
 -1.2415552e+00
  8.2832813e-02
 -2.2660167e+00
  7.3127264e-01
  2.3641260e-01
 -4.1186608e-02
  4.1371077e-01
 -8.9182281e-01
 -1.0963506e-01
  8.5283351e-01
 -6.5247416e-01
  1.5895029e+00
  1.3007249e+00
  1.2736875e+00
 -7.0521426e-01
 -5.9637767e-01
 -2.7721047e+00
 -8.8824719e-02
 -9.1163434e-02
  1.3098172e+00
 -2.3705491e-01
  5.6091744e-01
  1.1049894e-01
  6.8156189e-01
 -8.0864735e-02
 -9.9871343e-01
 -3.5045106e+00
  7.5039607e-01
 -8.2659024e-01
  4.5997375e-01
  1.8773292e+00
  5.5905157e-01
  2.1293917e+00
 -2.4081414e+00
 -1.0573833e-01
  6.7109632e-01
  2.4984282e-01
  1.1034598e+00
 -7.0450693e-01
 -2.3738945e-01
  1.3106544e+00
  1.0020122e-01
  4.4127011e+00
 -1.5847235e+00
  2.4766176e+00
 -2.1375635e+00
  1.8928179e+00
  2.0891664e+00
  4.2218047e-01
  8.3118403e-01
  2.1228608e-01
  1.2322644e+00
  1.6657523e+00
  8.2403535e-01
  5.4265803e-01
 -1.2676218e+00
 -5.4114980e-01
  1.1080606e+00
  9.2448458e-02
 -1.1657402e-01
  3.8589528e-01
  1.3449231e+00
  1.1794158e+00
 -3.3396399e-01
 -1.5886852e-01
 -1.9298860e+00
  3.4602168e+00
 -5.1519632e-01
 -2.9193869e-01
 -2.8144449e-01
  8.0676860e-01
 -1.7640444e+00
 -2.3827755e+00
 -3.8977742e-01
  5.1163889e-02
  1.1636389e+00
 -7.0560682e-01
  4.3718976e-01
  4.8737213e-01
  9.6507385e-02
 -1.5433576e+00
 -1.9884652e+00
  2.1760440e+00
 -1.1420280e+00
  8.8835680e-01
 -9.8954540e-01
 -9.0690918e-02
  1.3444185e+00
  4.4776219e-01
  7.3874265e-01
  4.5649678e-01
 -1.8769051e-01
  9.8549962e-02
  8.0601376e-01
  2.2920407e-01
 -4.7210783e-01
  6.3663139e+00
  1.3701050e-01
 -1.4822105e+00
 -5.0097972e-01
 -1.7856725e+00
  4.5236087e+00
  9.2200005e-01
 -1.1815042e+00
 -1.1732257e-01
 -3.8176875e+00
  6.7923939e-01
  1.3067642e+00
 -3.1989598e+00
 -1.0939137e+00
 -2.2022305e+00
  1.4762769e+00
 -1.7452812e+00
 -1.3017803e+00
 -1.4921204e+00
 -1.6141644e+00
 -7.5378977e-02
 -1.7938902e+00
  2.4440346e-02
 -2.8119712e+00
 -1.7114986e+00
 -2.1107340e+00
 -1.3392057e+00
  1.3618413e+00
 -5.9801787e-01
 -2.4030681e-01
  7.3837829e-01
 -2.0030272e-01
  1.0994999e-01
  1.2904504e-01
  1.1690009e+00
 -1.7272950e+00
 -2.6226285e+00
 -1.5791131e+00
 -2.6449065e+00
  2.0451009e+00
  1.9721044e+00
 -7.3978364e-01
  1.2376140e+00
 -3.5679540e-01
 -5.0096750e-01
  1.2483053e+00
 -9.7395867e-01
  3.9851043e+00
 -1.6696586e-01
  2.6900103e-02
  1.2768199e+00
  5.1674259e-01
  1.5156001e+00
 -7.1284485e-01
  7.2305101e-01
  6.6700447e-01
  7.8957833e-02
  3.8362971e-01
  1.5521883e+00
 -3.6888152e-01
  8.6375284e-01
  6.9123790e-02
  2.4920306e-01
  2.7245769e-01
  8.5187978e-01
  9.8687755e-03
 -3.9151353e-01
 -5.4288987e-02
  4.5922312e-01
  1.2375322e-01
 -2.7561811e-01
  7.4265522e-01
  1.4141612e+00
  1.3079222e+00
 -1.6067691e+00
 -3.4312293e-01
  2.8724265e-01
  2.3928893e+00
 -1.3395846e-01
  3.9119834e-01
 -8.2610571e-01
  3.1492851e+00
  1.6751567e+00
  2.7641514e-01
  3.4563539e+00
 -1.3673899e+00
 -4.9750742e-01
 -1.9836239e+00
  4.4191864e-01
  7.1270978e-01
 -2.7682157e+00
  2.8159118e+00
  1.1281133e+00
  1.5044430e+00
 -1.3728449e+00
  2.2708254e+00
  4.6741214e-01
 -2.3981144e+00
 -9.7079508e-02
 -8.7562948e-01
 -3.8696197e-01
  3.1309524e-01
  5.4809142e-02
 -5.3859186e-01
 -5.4917365e-01
  1.6908273e+00
  1.4042375e+00
 -1.4725680e-02
 -2.0411987e+00
  2.2904367e+00
 -1.8469658e+00
 -3.3969436e+00
  5.9330916e-01
 -4.4421015e+00
 -2.0870905e+00
  3.3190763e+00
  4.0173187e+00
  1.1472378e+00
  9.7866493e-01
 -1.4776027e+00
  3.0867362e+00
  1.1567645e-01
 -2.0673584e-02
 -4.9088631e-02
  2.2374895e+00
  2.1775312e+00
 -6.1470366e-01
  1.1624936e+00
 -8.3945739e-01
  9.9104959e-01
  4.9405271e-01
 -3.4629812e+00
 -3.7544230e-01
  1.9650196e-01
 -1.0185783e-01
 -1.4006605e+00
 -1.4951742e-01
 -1.1806905e-01
 -6.3414609e-01
  9.7369504e-01
  4.0489250e-01
  1.1501302e+00
 -4.3210456e-01
  1.4301014e+00
  2.5290494e+00
  1.1332455e+00
  7.8105223e-01
  3.3454731e-01
  1.2555393e+00
  1.3895462e-01
 -3.9886335e-01
  1.2662580e+00
 -1.4578735e+00
 -4.5598936e-01
 -1.6916859e+00
 -1.5561529e+00
  1.2602012e+00
 -6.5993392e-01
  1.5294704e+00
 -2.4030915e-01
  1.2200690e-01
  5.3310239e-01
  3.0183297e-01
  6.8599337e-01
 -3.9975464e-01
  2.1661267e+00
  2.9091257e-01
  2.1787901e+00
 -9.1013169e-01
 -1.5011688e-01
 -1.3808856e+00
  4.6459591e-01
  7.8833097e-01
 -1.1200484e-01
  4.9136475e-01
 -4.3154583e+00
 -1.4705434e-01
  8.4032601e-01
 -8.8862133e-01
  7.3203611e-01
 -1.8040284e+00
 -1.0842229e+00
  9.3227470e-01
  1.9647940e+00
  9.5551640e-01
 -8.6995280e-01
  2.7440562e+00
  9.3259341e-01
  3.7341529e-01
 -3.9012879e-01
  2.1628211e-01
  1.0548283e+00
  1.5757878e+00
  7.2042561e-01
  2.1725938e-01
 -2.4564433e+00
  3.1010590e+00
  1.8412783e+00
  2.9201907e-01
 -4.8489803e-01
 -5.7900984e-02
 -2.2343550e+00
  2.0680029e+00
 -1.9741131e+00
  1.3942540e+00
 -2.3773881e-02
  8.8080347e-01
 -1.5312569e+00
  2.5092435e+00
 -1.7734935e+00
 -6.0374517e+00
  8.5779291e-01
 -5.1077783e-01
  1.0603648e-01
 -5.2411494e+00
  2.6581287e+00
 -5.2484602e-01
 -3.1328127e+00
  4.9873784e-01
 -7.6657331e-01
 -2.6840797e-01
  1.8656733e+00
 -3.5508610e-02
 -5.4701555e-01
  4.7794062e-01
  6.3212818e-01
  7.5800461e-01
  3.7210330e-01
 -1.1389921e+00
  6.2627649e-01
  5.7954062e-02
  6.8245012e-01
 -9.1297537e-01
  1.1000293e+00
  2.6167512e+00
 -3.3957314e+00
 -1.0345637e+00
  7.6325417e-01
 -6.7634350e-01
 -5.8801746e-01
  5.2778834e-01
  8.4018975e-01
  1.6152778e+00
 -1.8086632e-01
 -1.2342656e-01
  6.5266523e+00
  6.3955766e-01
  4.0899014e-01
  1.0557753e+00
  1.0051671e+00
  2.3003004e+00
  2.3265889e+00
 -3.6747534e+00
 -6.3768744e-01
 -5.4470825e-01
  2.0924206e+00
  1.8247741e+00
  6.3550842e-01
 -4.1055971e-01
 -1.2219110e+00
  1.7664796e+00
  5.5952775e-01
 -1.5081712e+00
 -7.1273208e-01
  2.4719317e+00
  1.6807532e+00
 -2.4509337e+00
  6.8915182e-01
  4.3520609e-01
  6.5345061e-01
 -5.3067732e+00
 -8.1561394e-02
  1.4047616e+00
 -1.3112293e+00
 -1.2500000e+00
  1.3163520e-01
  1.4166203e+00
 -8.7705535e-01
 -6.5652937e-01
  4.8534691e-01
 -1.8135315e+00
 -3.2371154e+00
  1.8262807e+00
  1.6217311e-01
 -8.0665487e-01
 -1.0999368e+00
 -1.5482317e-01
 -5.3722067e+00
  7.2268414e-01
  1.7226033e-01
 -1.0457584e+00
  4.2782998e+00
 -5.4283708e-01
  4.5855770e-01
  1.7744210e-02
  4.2759113e+00
 -2.6710336e+00
  8.1346720e-01
  1.5349679e-01
 -2.9502089e+00
 -1.2108371e+00
  1.1109765e-02
  1.2449809e+00
  4.6449807e-01
  9.1027778e-01
  6.7451447e-01
  1.3321451e+00
  1.0112387e+00
  1.0550004e+00
 -2.0101918e-01
  6.3147748e-01
 -1.5326753e+00
  3.7865722e-01
  6.0998410e-01
 -5.6201464e-01
 -2.0828922e+00
 -6.6646796e-01
  1.8563151e+00
 -1.2843844e-01
 -1.7352688e+00
  1.1547374e+00
  8.6169457e-01
 -1.5143323e-01
  1.9496981e+00
  2.2030091e+00
 -2.2733254e+00
 -5.9244835e-01
  6.8328446e-01
  1.6015755e+00
 -9.5064497e-01
 -3.8659272e-01
  3.9116710e-01
 -2.5849295e+00
  1.1761786e+00
 -3.8263974e-01
 -1.1421150e+00
 -1.5845001e+00
 -5.7302419e-02
 -1.4617413e+00
  7.0501566e-01
  4.4481125e-01
  6.7852283e-01
 -5.2778924e-01
 -1.5500323e-01
 -1.0879470e-01
  4.9833617e-01
  7.7380300e-01
 -5.1938432e-01
  4.9293384e-01
 -3.0031371e-01
 -2.3366894e-01
 -3.6924667e+00
  7.7156568e-01
  4.9286425e-01
  2.0501382e+00
 -4.4620237e-01
  1.0667804e+00
 -1.1778502e+00
 -1.4634783e+00
  2.0883672e+00
  5.6672311e-01
 -1.4949380e+00
 -2.6638443e+00
  5.4261202e-01
 -7.1553946e-01
 -1.1185852e+00
  4.4813475e-01
 -5.2051651e-01
  6.9780713e-01
  7.3677105e-01
  7.2016484e-01
  2.3570161e+00
  8.2481448e-03
  1.2923648e+00
 -4.3763277e-05
  1.0360738e+00
 -1.5126053e+00
  5.1139367e-01
  7.3089767e-01
 -3.4232825e-01
  8.2556450e-01
  6.8411803e-01
 -5.1342309e-01
  2.8020987e-01
 -6.0527456e-01
 -3.5404387e-01
 -4.4901904e-01
  1.1460708e+00
  3.0726783e+00
 -4.3341875e+00
 -1.5847099e-01
  3.0291445e+00
  2.4183939e+00
  9.1525450e-02
  4.4494528e-01
 -3.7444379e+00
  3.2456102e+00
  1.0042764e+00
 -1.4348526e-01
  1.0836886e+00
  6.3873935e-01
 -3.3842275e+00
  3.1362164e-01
 -7.5560164e-01
 -6.1397457e-01
 -1.2867594e+00
 -8.8369924e-01
 -2.7393892e+00
 -7.3844671e-01
  4.2471251e-01
 -1.2739217e+00
  4.3259189e-02
  1.6736586e+00
  1.7592937e-01
 -5.0599051e-01
 -1.7436403e-03
  2.7823004e-01
 -2.7541664e-01
 -1.1853558e-01
 -2.0343655e-01
 -4.9531894e+00
 -2.8357255e+00
 -2.2313104e+00
 -3.3502102e+00
  7.0668101e-01
 -3.9990129e+00
 -3.8285847e+00
 -1.0375320e+00
 -1.2859587e-01
  3.1421646e-02
 -1.0581900e+00
  2.4550655e+00
  3.2509179e+00
 -6.5941548e-01
  3.1194443e-01
 -8.6304080e-01
  3.5878043e+00
 -2.8700799e-01
  1.9594944e+00
  2.6132861e-01
  3.9230816e-02
  1.6757396e+00
 -5.2944058e-01
  1.9859485e-01
  3.0063897e-01
  1.4613813e+00
 -1.8305378e+00
 -2.1449158e-01
 -6.2895149e-01
 -1.8594633e+00
 -2.3416450e+00
  5.2800137e-01
  4.0863031e-01
 -1.9930243e-01
  1.3459045e+00
 -1.0179393e+00
  1.5155103e-03
  1.0527887e+00
  1.6044800e+00
  2.7825663e+00
  7.2843385e-01
  5.8377928e-01
 -1.3632843e+00
  3.6549425e-01
 -3.2232568e-01
 -4.8130417e-01
  4.3175068e+00
 -9.1186559e-01
 -4.0564141e+00
  2.7595690e-01
  1.1050298e+00
  1.9413998e+00
  4.0587276e-01
  6.9202757e-01
  1.1303957e+00
  6.0954732e-01
  5.9721678e-01
 -1.8169127e-01
 -7.3670411e-01
  2.1911800e+00
 -7.3513579e-01
 -1.0167483e+00
 -5.5206829e-01
  2.0871394e+00
  1.1669768e+00
  5.1047283e-01
 -6.9000876e-01
 -6.0251606e-01
 -6.8166995e-01
  3.6860949e-01
 -2.9778412e-01
 -8.2655329e-01
  1.7047799e+00
  5.2415705e-01
 -5.5349362e-01
 -8.4296715e-01
  1.1540125e-01
 -1.4131255e+00
 -1.1613212e-01
  2.2785050e-01
 -7.0446664e-01
  2.2421541e+00
 -3.6024430e-01
 -1.3700252e+00
  5.9753340e-02
 -3.0282457e+00
  1.8527797e+00
 -3.0381605e-01
  1.5049556e+00
  2.3819640e-01
  2.7393839e+00
 -3.4349122e+00
  2.3500383e+00
  5.7188667e-02
 -8.5540843e-01
 -4.9381724e-01
 -4.7220502e+00
  9.1151126e-02
 -8.6874408e-01
  1.5083948e+00
 -2.2316252e-01
 -2.7320719e-01
 -2.0194788e+00
  5.2324408e-01
 -4.7242063e-01
 -2.9099667e-01
 -6.4742273e-01
 -1.9921205e+00
  2.1047456e+00
  2.0584326e+00
  3.9353368e-01
 -2.7248368e+00
 -2.5324404e-01
  7.0151001e-02
 -2.6760116e+00
  8.7347084e-01
  8.4963745e-01
 -2.1617734e+00
  1.1861570e+00
  8.6120272e-01
  1.4168452e+00
 -2.1009815e+00
 -3.2068694e+00
  8.8820654e-01
  9.3382198e-01
  2.8391068e+00
 -3.0922666e+00
 -5.1442933e-01
  4.6148753e-01
 -1.5247462e+00
  6.6460364e-02
 -1.3012598e+00
  3.7471905e-01
  1.5645876e+00
  1.6916911e-01
 -4.6259665e-01
 -9.1092569e-01
 -1.4882444e-01
  4.4493112e-01
  5.6715727e-01
  6.2152610e+00
  2.9251783e+00
 -6.4791983e-01
  2.9184133e-01
  6.4377671e-01
  1.1050100e+00
  8.5537100e-01
 -3.3459184e+00
 -9.2242366e-01
  4.2995885e-01
  4.4127507e+00
  1.7852293e+00
 -4.9205475e+00
 -4.2638686e-01
 -2.2996848e+00
  2.8833466e+00
 -1.2736719e+00
 -2.0976219e+00
  1.8522573e+00
 -1.4925338e+00
 -1.1616170e+00
 -2.0411546e+00
  5.4966784e+00
 -1.2516007e+00
 -2.3770541e-01
  2.1185930e+00
  1.2318662e+00
  3.2522961e-01
  2.5633153e-01
 -9.0184391e-02
 -3.1775098e-02
 -5.4918766e-01
  3.3311394e-01
  5.8771276e-01
  2.1333984e-01
 -2.2850871e+00
 -1.8033547e+00
 -3.3536134e+00
 -1.4262030e+00
 -1.3200161e+00
 -4.7993374e-01
  2.4711373e+00
  2.4201114e+00
 -4.8768699e-01
  4.4303691e-01
  3.4507078e-01
  5.3120742e+00
  1.8618913e-01
 -3.3855045e-01
  9.5663631e-01
 -2.4922833e+00
 -1.7651124e-02
 -2.6528814e-01
  4.5496622e-01
  3.6637480e+00
 -4.5367682e-01
  3.1625964e-02
 -4.0469199e-01
  2.1632938e-01
 -1.9376545e+00
  4.6084962e+00
 -8.1319082e-01
  1.4035976e+00
 -1.5747558e-01
 -1.4339659e+00
 -1.3684265e-01
 -3.4768757e-01
 -1.0389161e+00
 -1.4568413e+00
 -1.9037655e-01
 -1.4881834e+00
  1.9849838e-01
  5.6025904e-01
  7.2072661e-01
 -2.6451583e+00
 -1.0118446e-01
  2.3253112e-01
  1.9379967e+00
  3.1151649e-01
  7.2504735e-01
 -2.8721917e+00
  1.3956984e+00
 -1.2572887e+00
 -1.2978430e-01
 -1.9290645e-01
 -9.9904025e-01
 -8.9098591e-01
  5.8408189e-01
  1.3463278e+00
  3.0276877e-01
  6.3385707e-01
  8.3253574e-01
  7.0650971e-01
 -1.6164374e+00
 -1.7672424e+00
  7.8121167e-01
 -3.6663231e-01
  4.4976094e-01
 -8.0678737e-01
 -3.4866613e-01
 -1.2969296e-01
  3.4805536e-01
 -1.6791073e+00
  1.8933417e-01
  5.5418050e-01
  2.2958505e+00
  2.6900932e-01
 -1.3128242e+00
 -1.9776908e+00
 -1.3160011e+00
 -4.3022284e-01
 -1.5168724e+00
 -2.5234077e+00
  1.6701918e+00
 -1.0826176e+00
  2.1917772e+00
  5.4301262e-01
 -1.7138426e+00
 -2.0066519e+00
  1.1727581e+00
 -8.9502460e-01
  1.5349962e+00
  2.7208069e-01
  1.2833654e+00
  2.2095253e+00
  4.1017671e+00
  6.1712253e-01
 -8.2736351e-03
 -1.0276533e+00
  4.7516999e-01
  1.1963295e-01
 -1.8259491e+00
  2.2882895e+00
 -2.0410161e+00
 -1.0416696e+00
  5.2978195e-02
  4.8805141e-01
  7.7808559e-01
 -2.4614243e-01
 -9.7956711e-01
  1.3802944e-01
 -6.0040861e-01
  7.8634483e-01
 -5.9273010e-01
  9.2817843e-01
  1.6667491e+00
 -2.2010849e-01
  6.0511810e-01
 -3.9914575e-01
  1.2253761e-01
  3.2326695e-01
 -2.0144098e+00
 -1.4935051e+00
 -2.9800076e+00
 -2.7467856e-01
  8.2856011e-01
 -4.0696011e+00
 -8.4094815e-02
 -1.3916725e+00
 -7.9664928e-01
 -3.9082646e-01
 -8.2248449e-01
  9.1966826e-01
 -8.9540750e-01
 -1.4884251e+00
 -1.1861928e+00
 -1.6769327e+00
 -1.0361709e-02
 -5.8728677e-01
 -2.7569985e-01
  6.4414996e-01
 -4.9579524e-02
 -1.7349707e+00
 -5.0044451e+00
  1.9755292e+00
  3.8546400e+00
  1.2583907e+00
 -3.7230548e-01
 -1.6185998e+00
 -9.0606725e-01
  7.8272462e-01
 -1.8135908e+00
 -1.9213530e+00
 -8.9823675e-01
 -1.2065603e+00
  2.4034174e-01
 -1.4063394e+00
 -8.2440448e-01
 -7.7798527e-01
 -5.4460692e-01
 -3.0960696e+00
  2.6426637e+00
 -8.9446336e-01
 -2.0415856e-01
  2.2105005e+00
 -2.5680649e+00
 -1.5988051e+00
 -1.5895352e+00
  7.6056264e-02
  2.2127526e+00
 -3.0018728e+00
  2.1337979e+00
 -2.3268690e+00
 -3.5863344e-02
  1.9554826e+00
  2.3100552e-01
 -4.5598456e-01
  1.3285023e+00
 -4.5764804e-01
  5.8153975e-01
  4.5894206e-01
  2.9234317e-01
 -1.2065023e+00
 -8.1636888e-01
  8.0116534e-01
  2.4096562e-01
  2.4369340e-01
  1.8840721e+00
 -5.9510231e-01
  7.8257108e-01
 -2.4095125e+00
  3.2983367e+00
  3.4773129e-01
 -7.0475256e-01
  3.7045844e-02
  4.9237007e-01
 -1.1684710e-01
  1.0232422e+00
  8.9821726e-01
  4.0568972e-01
 -1.0274866e+00
  1.3435369e+00
  1.2713300e+00
  1.3322166e+00
 -6.0905522e-01
 -9.0810204e-01
  1.1899853e+00
 -6.0961097e-01
  2.7837625e+00
 -9.8911804e-01
  2.4872369e-01
 -1.7922086e-01
 -7.6847756e-01
 -3.6133856e-01
 -7.5704955e-02
  1.4305899e+00
 -3.0996745e+00
  2.5528233e+00
 -3.4369102e+00
  1.5465593e+00
  2.9753470e-01
  2.5673575e+00
  1.0078501e+00
  7.4733198e-02
 -4.7824311e-01
  2.1997960e+00
  1.4526398e-01
 -3.3603237e+00
 -7.9047507e-01
 -3.7212873e-01
 -7.3976910e-01
 -2.6310482e+00
 -6.1963922e-01
 -1.2016677e+00
  1.2005528e+00
  6.3765548e-02
 -1.4465293e+00
 -2.1661649e+00
  5.4923546e-01
 -3.7972963e-01
  1.2871773e+00
  1.3283613e+00
  1.0367252e+00
  9.2159134e-01
 -2.2001534e+00
 -6.5575624e-01
 -4.5826012e-01
  6.0394055e-01
 -2.6166096e-01
 -4.9699208e-01
  4.2670116e+00
  2.7077320e+00
 -2.4064898e+00
 -2.2639102e-01
 -2.0126604e-01
 -5.6056511e-01
 -1.5432593e+00
  1.0338485e+00
  4.1591269e-01
 -4.8648533e-01
  8.0738932e-01
 -1.6129820e+00
  8.5695678e-01
 -9.0377921e-01
  1.0580134e-01
 -1.8505555e+00
  5.8976787e-01
  2.6322029e+00
 -1.5809406e+00
 -3.3810806e-01
 -1.0092981e+00
 -7.2995573e-01
 -2.7118092e-02
 -2.4384999e-01
  1.7696770e+00
  1.1713847e+00
 -2.2533470e-01
 -2.0458466e-01
  1.5700844e-01
  3.9024669e-01
  3.6389206e-02
  2.1503341e-01
  5.6899595e-01
  1.9151152e+00
 -1.5799972e-01
  1.7747365e-02
 -3.9086816e+00
 -2.8127899e+00
 -1.1685630e+00
  1.9511621e+00
  6.0320301e+00
 -3.7761557e+00
  2.2180555e+00
 -2.7184899e+00
 -2.2690802e+00
  1.2699134e+00
  4.2012751e-01
  1.9341584e+00
 -1.1166934e+00
 -1.8131272e+00
 -2.0445731e+00
  1.2065961e+00
  3.7201428e-01
 -1.6052294e-01
  1.4486393e+00
  1.7371893e+00
  7.1492881e-02
  2.7509463e+00
 -1.3704616e+00
  1.1639043e+00
 -9.2161328e-01
 -2.7254765e+00
 -9.6890914e-01
 -4.5711356e-01
 -1.5289937e+00
 -9.3630813e-02
  1.1361980e+00
 -6.5330631e-01
  2.7830404e-01
  5.8727252e-01
 -5.0387125e+00
 -6.1467367e-01
 -2.5513198e+00
 -2.0580213e-01
 -1.9840698e+00
 -1.1497786e+00
 -7.9115707e-01
 -2.0959594e+00
 -9.3986791e-01
  1.4997649e-01
 -3.6067612e+00
  7.1593767e-01
  3.1055982e+00
 -2.8984746e-01
 -8.3127213e-01
 -7.3082066e-01
 -1.5849401e+00
 -1.5074613e+00
 -1.6569835e-01
  3.7491291e+00
 -1.8787504e+00
 -6.9112992e-01
  6.2682635e-01
 -3.2371441e-01
  1.8576955e+00
  1.6850483e+00
 -2.3647857e+00
 -1.0559668e-01
  2.7809158e-01
 -1.8063471e+00
  2.4437805e-01
  1.0921258e+00
  5.8661067e-01
  3.2911459e-01
  1.0472119e+00
 -7.9596020e-02
  1.5516347e+00
 -7.1531600e-01
 -8.5592240e-01
 -3.6905086e+00
 -1.6139935e+00
 -8.8094103e-01
 -1.1706076e+00
  6.0109538e-01
 -7.9340202e-01
 -1.2968848e+00
  1.3136170e+00
  1.0159153e+00
 -1.4413472e+00
  5.3961551e-01
  8.2846010e-01
  3.8325989e-01
  1.2030231e+00
  9.1354090e-01
  2.7910447e+00
 -2.5312073e+00
  1.8756319e+00
 -1.4415033e+00
  5.2985865e-01
 -1.1075894e+00
  9.8632658e-01
 -3.8850635e-01
  4.3575534e-01
  5.1961118e-01
 -2.9582655e+00
  1.8037488e-01
 -1.4638187e-01
 -2.0629919e-01
  3.4412429e-01
 -1.4921249e+00
 -4.9796624e+00
 -3.1040697e+00
  3.8559465e+00
  3.7037940e+00
  4.3978524e+00
  3.0313769e-01
 -1.2847277e+00
 -1.3755600e+00
  1.5818505e+00
 -1.7459935e+00
  1.4856763e+00
  9.3978059e-01
 -2.2622435e+00
  2.6858408e+00
 -1.2782727e-02
  5.5566829e-01
  2.3092210e+00
  2.1794045e+00
  7.0935144e+00
  3.7630935e+00
 -3.3805725e-01
  3.9272563e+00
  8.2690626e-01
  5.7668414e+00
 -1.0149950e+00
  5.5992270e-01
  2.5868728e+00
 -1.8785873e-02
 -3.4164390e-01
 -2.4806155e-01
 -2.2630127e-01
  2.8504322e+00
 -4.7929142e-02
 -3.6220908e-01
 -3.1849134e-01
 -1.3107833e+00
  9.6092087e-01
  3.3061829e+00
  1.9203484e+00
  1.6445961e+00
  4.5695314e-01
 -1.7186537e+00
  4.1086665e-01
  3.9063013e-01
 -1.2472745e-01
 -8.8058555e-01
 -1.9067529e+00
 -1.8770137e+00
  6.3123697e-01
 -8.3120620e-01
  4.5062166e-01
  1.1012027e+00
 -2.3556297e+00
 -9.1895032e-01
  1.0023825e+00
  2.2886038e+00
  3.0317688e+00
  2.8164846e-01
 -1.2834884e+00
  8.2113311e-02
 -1.8592751e-01
 -3.9584208e+00
 -9.8996133e-01
 -1.0564489e+00
 -1.0040193e+00
  1.6723756e-02
  6.4610854e-02
 -1.4074664e+00
  1.9289897e-01
  6.2675530e-01
 -5.2849203e-01
  7.8040248e-01
  2.1083837e+00
  1.4550307e+00
 -1.4652288e+00
  1.1181389e+00
  8.5537982e-01
  1.6067488e+00
  7.3449874e-01
 -3.8066885e+00
  2.0627108e+00
 -1.5405728e+00
  1.2197274e+00
  1.0073150e+00
 -2.8830433e+00
 -5.0918150e-01
 -1.5005302e+00
 -1.5534036e+00
  9.8639876e-02
 -2.1452744e+00
  3.6301074e+00
 -3.4635730e+00
 -1.2075518e+00
 -8.9115787e-01
  1.9307930e+00
  8.3810282e-01
  2.1061254e+00
 -1.8057464e+00
 -1.7772285e+00
  1.7924398e+00
  2.4981508e-01
  1.6072490e+00
  1.5882000e+00
  7.1199423e-01
  1.8733127e+00
 -8.1877202e-01
 -7.8010947e-01
 -1.3305477e+00
 -9.1808134e-01
  1.7172167e+00
  1.1997099e+00
 -4.1154703e-01
  1.1278999e+00
  7.7786583e-01
 -6.5577701e-02
  1.0677426e+00
 -3.7928188e-01
  1.0811437e+00
 -1.2180997e-01
 -6.5089054e-02
 -1.5715660e+00
  1.9395415e+00
 -1.2246821e+00
  2.3273188e-01
 -1.4262165e+00
  2.5783205e-01
  2.5207341e+00
  4.1685957e-01
  1.7214666e-01
  7.7834588e-01
  1.3834822e+00
 -2.8883643e-03
  7.3665941e-01
  2.5171766e+00
 -2.6582381e-01
 -3.6022824e-01
  8.9378977e-01
  7.3716873e-01
 -1.0471854e+00
  1.4578112e+00
 -5.0539744e-01
 -1.8658848e+00
 -1.6860276e+00
 -1.9733021e-02
 -3.5225892e+00
 -1.0230463e+00
 -2.1991851e+00
 -2.5772366e-01
  1.8230394e-01
  7.5863767e-01
  2.8044620e-01
  1.2746028e+00
  3.3030188e-01
 -8.2784003e-01
  3.1079856e-01
  4.1112942e-01
  8.3512664e-01
  8.7975293e-01
  1.9780454e-01
  7.3412806e-01
 -8.9503843e-01
  1.1332983e-01
 -1.3921399e+00
  4.4054687e-01
  2.8555423e-01
  4.6316895e-01
  3.5395733e-01
  3.5057315e-01
 -1.4852993e-01
  2.7483315e+00
 -4.7208577e-01
  5.3273356e-01
 -3.5718477e-01
  5.8160752e-01
 -3.6920023e-01
 -7.1405149e-01
  1.3442093e+00
  5.4551554e-01
  1.5698816e+00
  2.9314220e-01
 -2.0438771e-01
 -7.7653378e-01
 -2.4505458e+00
  1.5432820e-01
 -6.8944567e-01
  1.2544155e-01
  3.0538532e-01
 -4.3737879e-01
 -1.3154979e-01
 -3.2857356e+00
 -6.3787013e-01
  4.0720111e-01
 -1.6714898e+00
 -4.4028154e-01
  5.7108527e-01
  6.0008854e-01
  2.7591085e-01
  5.7868636e-01
 -1.5864019e+00
 -7.1846819e-01
 -6.5237898e-01
  5.4461908e-01
  5.5729568e-01
  6.4300555e-01
 -6.1063427e-01
 -1.7849258e+00
 -1.8861252e+00
 -6.1863184e-01
 -4.6593335e-01
  6.7308939e-01
  3.1700906e-01
 -4.5715728e-01
 -7.4778122e-01
 -7.6265728e-01
 -2.9073283e-01
  3.3184272e-01
  8.4022170e-01
 -3.9441383e-01
 -7.1089101e-01
 -3.4105283e-01
  4.5149925e-01
 -4.1469678e-01
  2.8897181e+00
  2.4675500e-01
 -1.2149431e+00
  9.8088938e-01
 -9.4126558e-01
 -2.3414214e-01
 -2.9842131e+00
 -1.9890374e-01
  2.0010513e+01
 -2.1220167e+00
 -3.5058734e+00
  3.0018988e+00
  1.4276818e+00
 -6.6946158e+00
 -2.5465055e+00
  3.0429623e+00
  5.4183216e+00
 -7.7619028e-01
 -3.4969118e+00
 -7.3016191e+00
 -1.7222154e+00
  2.2435218e-01
 -3.9881647e+00
  5.6196856e-01
  4.2658553e+00
  7.4812281e-01
  3.0529532e+00
  7.1321678e-01
  1.8191031e-01
  8.2629174e-01
 -7.4728590e-01
  2.8126163e+00
 -7.1271653e+00
 -3.1795254e-01
  4.5599957e+00
  5.0689363e+00
 -1.7577537e+00
 -1.3091168e+00
 -1.7473332e+00
  1.1585722e+00
 -7.1945560e-01
 -1.5810995e+00
 -1.0224848e+00
  3.5712593e+00
  3.8867342e+00
 -9.0598041e-01
 -2.1763539e+00
  1.1146898e+00
  6.4989619e+00
  5.4564571e+00
 -3.5949869e+00
 -6.0180402e+00
 -2.1255903e+00
  2.0921965e+00
  1.4204311e-01
  3.1496754e+00
 -4.4526401e+00
 -2.9995444e-01
  3.6035011e+00
  5.2702713e-01
  7.4935865e-01
  1.7975729e+00
  1.3592644e+00
 -1.8973451e+00
 -4.0920115e+00
  6.5448780e+00
  4.2657018e+00
 -2.9347482e+00
 -3.3474650e+00
 -1.6215163e+00
 -7.0250326e-01
 -8.5809392e-01
  1.2769005e+00
  8.3281412e+00
 -1.0009906e+00
 -4.9237709e+00
  1.6992534e+00
  4.6613688e+00
  4.7011173e-01
 -3.4016671e+00
 -1.5866208e+00
 -1.3080939e-02
  2.4487374e+00
  4.1649094e-01
 -3.2598469e-01
 -2.1584206e+00
  1.6456582e-01
  3.2323938e-02
  8.5349256e-01
 -1.2260854e+00
 -3.2826703e+00
 -4.5743780e+00
  1.9408752e+00
  1.5254618e+00
 -2.0270345e+00
  1.6816525e+00
  4.4447951e+00
  1.4934634e+00
 -2.3296809e+00
  4.1251560e-03
  4.1251560e-03
  4.1251560e-03
  4.1251560e-03
  4.1251560e-03
  5.2743582e-03
  5.2743582e-03
  5.2743582e-03
  5.2743582e-03
  5.2743582e-03
  4.1027446e-03
  4.1027446e-03
  4.1027446e-03
  4.1027446e-03
  4.1027446e-03
  2.3731452e-03
  2.3731452e-03
  2.3731452e-03
  2.3731452e-03
  2.3731452e-03
  1.4660439e-03
  1.4660439e-03
  1.4660439e-03
  1.4660439e-03
  1.4660439e-03
  7.1759237e-04
  7.1759237e-04
  7.1759237e-04
  7.1759237e-04
  7.1759237e-04
  5.9611837e-05
  5.9611837e-05
  5.9611837e-05
  5.9611837e-05
  5.9611837e-05
