nep4_zbl 1 C 
zbl 1 2
cutoff 6 5 163 106
n_max 4 4
basis_size 8 8
l_max 4 2 1
ANN 80 0
  2.0028119e+00
  3.3573551e+00
 -1.3971841e+00
 -1.9309776e+00
  3.3050990e-01
  5.6207258e-01
 -7.5324440e-01
  8.8779783e-01
 -4.0717751e-01
 -2.6154036e-02
 -8.7123886e-02
 -1.7404727e+00
 -1.0959830e+00
  1.3556945e-01
  1.7934370e+00
 -6.7321455e-01
 -1.3054652e+00
 -1.1716354e+00
  8.6168188e-01
  1.8291103e+00
 -6.8524647e-01
 -3.1420049e-01
  1.0029658e+00
  1.7809970e+00
 -6.1320716e-01
  4.9994242e-01
 -1.1702253e+00
  1.2256733e-01
  6.8556273e-01
  1.2410254e-01
 -4.9128267e-01
  2.9101726e-01
  1.6033120e-01
  1.3998026e-01
 -1.2521074e+00
  1.5240142e+00
  1.3311067e+00
  2.8542340e+00
 -1.1020715e+00
  1.0451199e+00
  2.1760936e+00
  1.8060118e+00
 -3.0355005e+00
  6.3909984e-01
 -1.2132682e+00
  2.1724248e+00
  9.4640970e-01
 -1.0969269e+00
  2.3527008e-01
 -8.7070471e-01
  2.0665855e+00
 -2.7901583e+00
 -1.7466124e+00
 -1.8894230e+00
 -4.0500635e-01
  3.6683828e-01
 -2.5875657e+00
  1.7141470e+00
  4.1060227e-01
 -6.9145858e-01
  9.1283613e-01
  6.0276397e-02
  3.2524524e+00
  3.3529220e+00
 -1.4977423e+00
  3.5390490e-01
 -6.7984366e-01
  1.5168128e+00
 -2.8150463e-01
 -9.8726261e-01
  5.1523332e-02
 -1.2855357e+00
  3.1012180e-01
 -1.5627593e+00
  1.4784825e+00
 -1.4357281e+00
  2.3186393e+00
  2.7519011e-01
 -6.7538577e-01
  8.0180191e-02
 -5.2717906e-01
  5.8170766e-01
  1.2820199e+00
  1.3294874e+00
  1.0195926e+00
  1.4078916e+00
 -2.1374041e-01
 -1.2298868e+00
  6.1476164e-02
  2.6645260e+00
  6.0757905e-01
  1.9813526e+00
  1.3128179e+00
  1.3968517e+00
  1.4445418e-01
 -8.7612383e-02
 -3.5275078e+00
  3.6757979e-01
  1.5139360e+00
  1.9180691e-01
 -1.1833160e-01
 -5.1009357e-01
 -5.4170823e-01
  5.7037985e-01
 -3.7556791e-01
 -2.1282284e+00
 -1.0609634e+00
 -1.6738368e+00
  1.3217480e+00
  2.1552593e-03
 -2.2220750e+00
  2.0926371e-01
  3.0250435e+00
  3.8280424e-01
  5.8996665e-01
 -2.8500482e-01
  2.5924628e+00
  7.1273309e-01
  3.5345826e-01
 -2.3971318e-01
 -2.7485344e-01
  2.2699893e+00
  2.3987401e+00
  4.4091567e-02
 -3.3544070e-01
 -3.9431852e-01
  1.2331846e+00
  1.1114978e+00
 -6.2060630e-01
  3.3280647e-01
  1.2587107e+00
 -6.5383244e-01
 -2.3466134e+00
 -1.4540229e+00
  3.3102536e-01
  8.7968814e-01
  5.5659729e-01
 -5.0557118e-02
  1.2076151e+00
  2.3580648e-01
 -1.6214621e-01
 -1.6327149e+00
  3.8767945e-02
 -7.3216200e-02
  5.1639587e-01
  3.3748615e-01
  8.2196683e-01
  2.9308248e-01
  4.1675088e-01
  4.1000006e-01
 -2.4750790e-01
 -1.4784181e+00
 -6.3442504e-01
 -1.6064186e-01
  1.1576861e+00
 -1.5634567e-01
  7.3326105e-01
  1.6014032e-02
 -3.5592389e-01
 -2.1788843e-01
 -2.3673527e-01
  4.1178218e-01
 -3.2598253e-02
 -2.9978758e-01
  1.0852666e-01
  1.0527263e+00
  4.3433812e-01
  3.2105744e-01
  5.7609725e-01
 -2.9513517e-01
  4.3674019e-01
  4.0046728e-01
 -1.2897375e-01
 -9.2152797e-02
  1.0674632e-01
 -1.8051221e+00
 -2.4985175e+00
  1.2261613e-03
  1.0463014e-01
  2.0372622e+00
 -1.9608708e-01
  6.2440068e-01
  2.1436021e+00
 -3.5271943e-01
  3.6268613e+00
 -2.0822983e+00
 -8.4910852e-01
  2.5706768e+00
 -1.0287728e+00
  1.6111292e+00
 -6.2122691e-01
  1.7829865e+00
  2.9441047e+00
 -9.1500655e-02
  2.9471481e+00
  4.0956911e-01
 -9.7002953e-01
 -3.3087403e-01
  1.1596035e-01
  1.8282679e+00
 -3.0997427e+00
  2.0683489e+00
  3.5036507e-01
  3.2840902e-01
  6.3774979e-01
 -4.1272807e-01
 -1.9099738e-01
  9.3920869e-01
  3.6526516e-01
 -1.3480041e+00
 -1.1293896e+00
 -3.9617836e-01
  1.0338166e+00
  1.3733056e+00
  2.9026370e+00
 -3.4893677e+00
 -3.3530277e-01
  3.1957954e-01
  2.3876932e-01
  1.5394706e+00
  2.1476686e-01
 -1.7071677e+00
 -1.0660825e+00
  9.6744353e-01
  2.1463840e+00
 -1.7431045e-01
 -1.3801005e+00
 -9.4728357e-01
  2.5947711e+00
 -1.4571986e+00
  1.3600198e+00
 -2.6463480e+00
 -1.5265951e+00
  1.9752384e+00
  1.1515554e+00
 -3.0339572e-01
  8.1876612e-01
  3.8845009e-01
  3.5288534e-01
 -4.0403801e-01
 -3.4810044e-02
  5.0356889e-01
 -2.2400625e-01
  1.0787536e-02
 -8.1213629e-01
 -4.8782535e+00
 -7.9525101e-01
 -3.2677215e-01
  5.5420882e-01
  5.0971265e+00
 -3.4292111e+00
 -2.7505155e+00
  1.6131490e+00
 -8.7088484e-01
  1.7789927e-01
  1.3923310e-01
 -1.7382134e+00
  1.1468695e+00
 -1.6123126e-01
  1.0730555e+00
  4.4008160e-01
 -2.0323286e+00
 -1.0639488e+00
  2.3680489e+00
  1.4229256e+00
  1.0929942e+00
  6.2533790e-01
 -1.3461683e+00
 -8.8374805e-01
  1.6619997e+00
 -2.9081997e-01
 -1.0555007e+00
 -2.4110381e-01
  8.9462817e-02
 -5.2884358e-01
  2.0390601e-01
 -8.6670834e-01
 -2.8103834e-01
 -1.1206370e-01
 -2.1257505e-01
 -1.1872842e+00
  1.9468182e-01
 -2.2751713e+00
  2.5680528e+00
  3.1592676e-01
  5.6062002e+00
  4.8997065e-01
  1.7371346e+00
 -7.0246655e-01
  4.8092103e+00
  6.1063820e-01
  1.3518394e+00
 -1.3627231e-01
  1.5971240e+00
 -3.5092416e-01
 -6.2452167e-01
 -6.4391434e-01
  2.8736618e-01
 -1.2008224e+00
 -1.1940148e+00
  1.7118618e+00
 -5.2856803e-01
  8.2566667e-01
 -8.8742346e-02
  9.4008083e+00
 -4.0048999e-01
  1.4842634e+00
 -8.3183968e-01
  9.1775030e-01
  1.2387661e+00
  1.3669054e-01
 -5.0656271e-01
  5.8140248e-01
 -1.0698689e+00
 -7.7385813e-01
  3.5917561e+00
 -3.3633545e-01
 -7.3584920e-01
 -2.1036778e-01
 -2.0204456e+00
 -7.0787436e-01
  1.3590842e-01
  1.8823579e-01
 -5.5323590e-02
 -5.9462684e-01
  4.7973636e-01
 -1.5938015e+00
 -3.2412672e-01
  1.1826812e+00
 -1.4787347e+00
 -1.7590188e+00
 -1.3665200e+00
  2.5055673e-02
 -2.1542974e+00
  4.8916599e-01
  1.2118993e+00
 -9.6075201e-01
  6.5123558e-01
 -3.7929821e-01
 -2.4998882e+00
  2.0129073e+00
  4.3880361e-01
 -6.2591720e-01
 -8.5461444e-01
 -1.8780136e-01
 -6.9379681e-01
  5.8338171e-01
 -4.0170372e-01
  4.8540387e-01
 -2.5815526e-01
  1.4770014e+00
  2.0113358e+00
  8.1874102e-01
  1.1093685e-01
  3.4980360e-01
  1.7437217e+00
 -3.9242774e-01
  3.8513715e+00
  3.1209979e-03
 -4.9332630e-02
 -6.4044297e-02
  9.6463904e-02
  5.8892936e-01
  7.5394970e-01
  1.0341433e+00
  8.5071528e-01
  4.5824045e-01
 -3.7579942e-01
 -4.3330750e-01
 -8.9588290e-01
  3.2331493e+00
 -1.3021731e-01
 -1.8669233e-01
  6.3884296e-02
  6.5875560e-01
  1.3429636e+00
  3.7515584e-01
  4.6960339e-01
  3.0635448e+00
  2.7348685e+00
  5.4621673e-01
 -1.3334459e+00
  8.2959227e-02
  6.1671501e-01
  3.7949583e-01
  1.8946508e+00
 -2.9322258e-01
 -1.1827766e+00
  2.4275379e-01
  1.1664675e+00
 -2.3115075e-01
  2.2152120e-01
  8.2264251e-01
  9.8461759e-01
  1.3107282e+00
  4.9869701e-01
  2.9838848e-01
  5.9261841e-01
  4.3940723e-01
  1.7437273e-01
 -1.4179039e+00
 -2.5100587e-02
 -5.6549704e-01
 -4.3086001e-01
 -8.0075622e-01
  1.6770593e+00
 -1.7838731e+00
  1.3614637e+00
 -2.7448604e-01
 -6.9516814e-01
  6.6611660e-01
  3.1974692e+00
 -2.1336523e-01
  5.1168796e-02
  5.2205825e-01
  1.0029488e+00
 -3.0842531e-01
  3.5251421e-01
  2.5581521e-01
 -5.9023356e-01
  5.5542773e-01
 -9.1487467e-02
  2.6364584e+00
  8.5413665e-01
 -1.8998313e+00
 -2.8408447e-01
  1.4779612e+00
 -1.7848566e+00
 -1.4359152e+00
  2.0358552e-01
  5.8750343e-01
 -2.5255498e-01
 -2.5725633e-02
  1.7561829e+00
  4.4895348e-01
 -1.7222366e-01
 -1.6253297e+00
  4.0815422e-01
 -5.1740426e-01
 -5.7175332e-01
  1.6575843e+00
 -1.2688032e+00
 -3.5235769e-01
 -1.0110625e+00
 -3.8623658e-01
  7.9956055e-01
 -1.5501872e+00
  2.3661384e-01
 -2.2095466e+00
  3.0295545e-01
 -4.5407850e-02
  1.0151846e+00
  5.4367673e-01
 -5.1036179e-02
 -2.7509563e+00
 -3.4522131e-01
 -9.1146344e-01
  1.3469276e+00
  9.2963582e-01
  1.9788783e+00
 -1.1740556e+00
  2.1942903e-01
  4.2958967e-02
 -3.3102426e-01
  1.2180153e+00
  9.9771738e-01
  9.4982678e-01
 -1.6432744e+00
 -2.5330397e-01
 -1.6631734e+00
 -1.2187217e+00
 -1.8795493e+00
 -5.2008138e+00
  1.1183519e+00
 -1.5080640e+00
  7.7459055e-01
  9.3144792e-01
 -3.1591177e-02
 -2.8409457e-01
  5.4259861e-01
  1.6187604e-01
 -2.9790492e+00
  1.9585876e-01
  4.6626630e-01
  4.6566984e-01
  3.1882930e-01
 -1.4246856e-01
  1.2060875e-01
 -8.9444542e-01
 -3.9212862e-01
 -2.6512407e-03
 -6.3282084e-01
 -3.4544459e-01
  1.2912618e-01
  3.4981858e-02
 -4.1167688e-01
 -4.3670304e-02
 -1.0686839e+00
  6.1871684e-01
 -4.2382312e-01
 -1.3744016e+00
 -1.2717675e+00
 -4.6069157e-01
  8.2762700e-01
  7.0209974e-01
 -7.9469639e-01
 -3.2508424e-01
  5.4314315e-01
  1.1776364e+00
  1.2866822e-01
  8.8098896e-01
 -9.6188027e-01
 -1.0987232e-02
 -8.6661321e-01
  1.4348967e+00
 -1.4394683e-01
 -9.2656016e-01
 -2.4005461e-01
 -4.2676604e-01
 -9.5239639e-01
 -3.8420182e-01
  1.0649385e+00
 -8.2887091e-02
 -5.7760764e-02
 -1.0577720e+00
  4.6562102e-01
 -1.9163473e-01
 -1.7770915e+00
  5.8363366e-01
  1.4746861e-01
  2.0531070e-01
 -1.1682900e+00
 -1.3717568e+00
  1.3306831e+00
  3.1246647e-01
  2.5613351e+00
  3.0060182e+00
 -3.3728650e+00
  1.6745597e+00
  1.8713833e-01
 -2.4841089e+00
  1.6265324e+00
  3.1551522e-01
  1.7468170e+00
 -4.5824596e-01
 -2.7350702e+00
  1.7839633e+00
 -9.7169733e-01
 -6.5224057e-01
 -7.2747535e-01
  8.0898207e-01
 -2.5636261e+00
  1.3431519e+00
 -5.8907386e-02
 -8.0413318e-01
 -6.6718978e-01
 -3.0990493e-01
 -6.3593644e-01
 -6.1273938e-01
 -5.3450125e-01
 -3.9743084e-01
  1.9062985e+00
 -2.7625587e+00
 -2.5444198e+00
  1.8115468e+00
 -1.9056390e-01
 -2.4234994e-01
 -1.8683709e+00
  1.4349383e-01
  8.8912022e-01
 -6.2419039e-01
  1.3908982e+00
 -7.4458450e-01
  4.6692258e-01
 -1.1929935e-01
 -8.3983772e-02
  2.4007739e-01
 -9.0728295e-01
 -1.2242967e+00
  6.0551912e-01
  3.1087402e-01
  1.3614258e+00
 -2.4882304e-03
  1.3766519e+00
 -2.5215042e-01
 -6.4551413e-01
  1.3525267e+00
 -5.4314607e-01
  1.2489715e+00
 -3.2792234e-01
  3.2019594e-01
 -3.4324303e-02
 -9.8980021e-01
  1.4116441e-01
 -5.0214022e-01
 -3.1861895e-01
  1.2634240e+00
 -2.3305478e+00
  1.0216193e+00
 -2.2341745e+00
 -1.2799381e+00
  4.3928617e-01
  6.3684046e-01
 -2.0918383e-01
  9.6630865e-01
 -3.6417739e+00
  2.9751072e+00
  1.0325040e+00
 -1.2022891e-01
  1.2631289e+00
 -1.9931113e+00
 -2.4903340e+00
  5.0053710e-01
 -7.2887897e-01
 -2.5272932e+00
 -2.6381021e+00
 -8.6725914e-01
  3.3894610e-01
 -3.5070518e-01
  4.4106114e-01
 -7.1804732e-01
  4.5265538e-01
 -9.5396250e-01
 -2.9015476e-01
  1.4229733e+00
 -2.6933348e-01
  3.3668664e-01
  1.3135444e-01
 -4.7969457e-02
 -1.5712969e-01
 -1.1380231e+00
  4.6462670e-01
  1.6748533e+00
  5.4678333e-01
 -2.9522369e+00
  2.0120144e-01
 -2.6400554e-01
  1.4280188e+00
 -1.1025130e+00
 -9.2696512e-01
 -1.6224574e-01
  2.9018797e-02
 -8.2049675e-02
 -3.2359582e-01
 -3.9986652e-01
  4.3697894e-01
 -6.8492687e-01
  9.2864895e-01
 -1.7990562e-01
 -9.3508536e-01
  4.6107101e-01
  2.6119468e-01
  9.5699176e-02
 -8.3939928e-01
 -1.0191853e+00
  1.7517364e-01
 -4.3325779e-01
 -3.4328562e-01
 -1.3966933e+00
  1.2139872e+00
  1.7045537e-01
  5.9756351e-01
  8.0866486e-01
  3.2151946e-01
  5.8447486e-01
 -4.0763488e-01
  6.6786766e-01
 -2.9316425e-01
 -1.2285482e+00
 -3.8351032e-01
 -4.1170257e-01
  3.3886645e+00
 -3.4185517e-01
 -6.9672126e-01
 -1.8931283e-01
 -1.7305663e-02
 -3.0565175e-01
 -1.5609769e+00
 -5.4283863e-01
 -8.3377087e-01
 -4.3689030e-01
  4.8003954e-01
  1.1141347e+00
 -1.3014777e-01
  8.3345819e-01
 -1.9940825e+00
 -1.0840629e+00
  1.3436441e+00
 -2.2242249e-03
 -4.2293882e-01
 -1.2441591e+00
 -2.0268039e-01
  2.0317009e-01
  1.5685437e+00
 -3.3901484e+00
 -4.0725896e-01
 -3.3043826e-01
  1.8085601e+00
 -1.5491579e-01
  3.3023962e-01
  3.1803586e-02
 -6.7954487e-01
 -1.0403969e-01
 -1.1225902e-01
  2.6376897e-01
 -5.8281183e-01
 -7.5531280e-01
 -4.6372518e-01
  4.2186868e-01
 -6.2587023e-01
 -5.0612319e-01
  1.5929301e+00
  1.7838738e+00
  6.9819474e-01
 -1.2933450e+00
  6.3220374e-02
 -5.3978318e-01
  4.9738407e-02
  8.5492313e-01
 -5.2334273e-01
 -2.8409350e-01
  1.6826020e+00
 -4.4329530e-01
  5.7558888e-01
 -2.7920821e-01
 -3.8710579e-02
 -8.5088378e-01
  1.4678942e-02
 -2.7765477e-01
 -2.6506677e-01
  6.0222751e-01
  2.8069985e-01
  5.3668302e-01
 -1.0656968e+00
 -2.4704002e-01
  2.8659878e+00
  7.6904106e-01
 -8.7561339e-01
 -1.0084997e+00
  1.1105455e+00
 -1.6601082e+00
  1.3007944e+00
  1.8773367e+00
 -3.0244949e-01
 -4.5469201e-01
 -2.9713461e+00
 -1.8488143e-01
 -4.4882599e-01
 -5.9502184e-01
 -1.6979635e+00
 -2.3044099e-01
 -9.3219668e-01
 -2.9062626e+00
 -3.2220021e-01
 -5.3329319e-01
  1.2194287e+00
 -5.9077984e-01
  3.1523094e-02
 -7.9615998e-01
 -2.7468176e+00
  7.6821111e-02
  2.2863795e-01
  1.3035953e+00
 -6.6237287e-03
  2.1988131e-01
 -2.8488684e-01
 -7.2396642e-01
 -1.9278687e-01
  5.9312783e-02
 -3.8343433e-01
  8.0616504e-01
  5.1437718e-01
  2.1631856e+00
 -8.2245779e-01
 -2.8495460e+00
 -2.8870535e-01
  5.7579484e-02
 -2.1416166e-01
 -4.1429719e-01
  8.7709391e-01
 -2.4310543e-01
  1.4047788e-01
 -3.9814037e-01
  7.8938192e-01
 -2.5917975e-02
  1.3345243e+00
 -9.9831164e-01
  8.9916414e-01
  4.9350125e-01
 -2.7802541e+00
 -5.2988040e-01
 -4.5003718e-01
 -5.7186562e-01
 -1.1314790e+00
  1.1337044e+00
 -2.6927021e-01
  9.5999390e-01
 -2.4232703e-01
 -1.9909950e+00
  3.4597877e-01
 -5.6061530e-01
 -2.3628938e-01
 -1.5735455e-01
 -3.7582733e-02
  5.9862816e-01
  1.0651265e+00
  2.2460096e-01
 -3.6681859e+00
 -1.8624104e+00
  8.2522064e-02
 -1.6118212e+00
  1.0065340e+00
  3.4150684e-01
 -5.8957111e-02
 -2.2530892e+00
 -2.1319771e+00
  6.4335716e-01
 -9.2191899e-01
 -3.7799239e-01
 -8.4428960e-01
 -1.3062067e+00
 -7.4081212e-02
  9.0237039e-01
 -1.0168351e+00
  3.6743060e-01
 -5.3716218e-01
 -5.0180560e-01
  1.6697333e+00
  2.8894091e+00
  2.6912031e-01
 -2.2491045e+00
  1.7812096e+00
  2.8137785e-01
  1.3772228e+00
 -2.3344885e-01
 -8.6331254e-01
  7.7212787e-01
  4.1751090e-01
 -3.5604108e-02
 -1.0701511e+00
 -5.9603870e-01
 -8.7970853e-01
  2.1156034e+00
  7.5895149e-01
  2.9882455e-01
 -2.5983210e+00
 -3.2115858e+00
  2.4287238e+00
  2.4708766e-01
 -5.5853844e+00
 -2.2579105e-01
  2.7410243e+00
  1.1586984e+00
 -8.9784682e-01
 -4.3003087e+00
  1.6215318e+00
 -1.3887365e+00
  1.4390581e+00
 -4.4045243e-02
  1.1308357e+00
  2.1154939e-03
  8.8610905e-01
 -3.3419108e-01
 -6.6137135e-01
  1.0706393e-01
  1.9922576e+00
 -3.5299003e-01
 -5.3426677e-01
  5.3079087e-01
  2.6386082e+00
  8.1064063e-01
  4.7699517e-01
  2.6300603e-01
  3.0894968e-01
  3.7049115e-01
  2.5779624e+00
 -1.4981060e-01
  3.0061376e+00
  2.9897208e+00
 -3.0981264e+00
 -1.4734787e+00
  1.4229115e+00
 -2.6504523e-01
  1.5818197e-01
  9.0087843e-01
 -2.0633352e+00
 -1.7177665e+00
 -1.4963719e+00
  1.3035824e+00
 -1.5580909e+00
 -2.4175517e-01
  1.0863850e+00
 -5.5298084e-01
 -3.6236203e-01
 -2.7506453e-01
  9.2640811e-01
  9.0855294e-01
 -9.7615516e-01
  2.7092854e-02
 -2.5058084e+00
 -1.0198961e+00
  1.4919829e+00
  1.5827900e-02
  1.9436048e-01
 -3.0608299e-01
 -3.1745848e-01
  1.6448511e-01
 -2.4047084e-01
  6.6234894e-02
 -1.7998530e+00
 -2.3043628e+00
  1.4040580e+00
  7.1823126e-01
 -1.9670122e+00
  1.0382360e+00
 -6.9215816e-01
  1.1210364e+00
  1.9724120e+00
 -1.3966124e+00
  3.3478963e-01
 -1.2636812e+00
  1.8436286e+00
  3.7272088e-02
  1.4360199e+00
 -2.0669208e-01
 -8.8399714e-01
  1.7078164e+00
  1.7100354e+00
 -3.0695555e-01
 -1.1405810e+00
  1.9068528e+00
  5.4047465e-01
  6.4487749e-01
 -1.2964857e-01
  1.1691821e+00
 -8.0714619e-01
 -9.1159952e-01
 -2.3886979e+00
 -1.7504193e-01
  7.4392861e-01
 -1.0429730e+00
 -9.4644862e-01
  6.0653985e-01
  1.8272908e-01
  1.1022112e+00
 -1.0798554e+00
  9.8738539e-01
 -3.7472701e+00
  1.2807208e+00
  1.3798598e+00
 -3.3406451e-01
 -7.3333883e-01
 -2.6928791e-01
 -4.9649995e-02
  1.6933354e+00
 -2.1537099e+00
 -8.4496850e-01
 -6.0070562e-01
  9.1949630e-01
  1.1455182e+00
 -1.1226613e-01
 -2.8568032e+00
  2.2753987e+00
 -8.6694948e-02
  1.0371473e-01
 -6.0162359e-01
  3.5126168e-01
 -1.9113711e+00
 -3.5701305e-01
  7.4262023e-01
 -9.4058299e-01
  6.9900131e-01
  3.3269897e+00
  1.3713051e+00
 -7.6210630e-01
  2.9678166e-01
 -6.2083489e-01
 -5.6908011e-01
 -7.4163413e-01
 -4.8013017e-01
 -7.5099486e-01
 -7.0702344e-01
  3.9125397e+00
  1.1213325e+00
  3.7935221e-01
 -7.3625195e-01
 -3.6975555e+00
 -1.1381208e+00
 -5.3223795e-01
  2.2321825e+00
 -4.1919150e+00
  2.6430669e-01
  1.0722133e+00
 -7.8066909e-01
  4.8978586e+00
 -9.4160903e-01
 -6.2793767e-01
  2.2486963e+00
 -1.1448555e-01
  1.0510673e-01
  1.5704774e+00
  9.5823961e-01
  2.9520354e-01
 -1.4163740e+00
  1.5705755e+00
 -1.0834752e+00
 -7.5292969e-01
 -5.9273559e-01
 -7.9182379e-02
  1.0005499e+00
 -2.6588046e-03
 -6.0483712e-01
 -5.2448863e-01
 -3.1271866e-01
 -4.8255295e-01
 -2.5501726e+00
 -1.9135734e+00
 -1.2557179e+00
 -2.9890513e+00
  3.5199590e+00
  6.5007901e-01
 -5.5267948e-01
 -1.6374775e+00
 -1.0721644e+00
  3.5705039e-01
  5.1016974e-01
  1.3826220e+00
  6.1125398e-01
 -3.2419586e-01
  5.6376481e-01
 -4.6765697e-01
  1.6521281e+00
  1.1471050e+00
 -1.6409652e+00
 -1.8671069e-01
 -1.1292071e+00
  6.7744151e-02
  1.4795647e+00
  2.2024300e+00
  7.3354149e-01
  1.6296329e+00
  1.7988789e-01
  2.2250348e-01
  5.6608057e-01
  3.9644614e-01
  3.5641381e-01
 -5.1680905e-01
  2.2825454e-01
 -1.5062906e-01
 -2.5234303e-01
 -1.1491505e+00
 -2.2132041e+00
  3.7655869e-01
 -1.2124140e+00
 -5.4291481e-01
  1.4448476e+00
 -8.4041005e-01
  2.8743711e-01
  1.0520990e+00
  7.6184446e-01
  2.9303208e-01
  5.3370816e-01
  3.0469751e+00
 -1.3633645e+00
 -1.5040714e+00
  3.2996789e-02
 -1.7060722e+00
  1.7388321e+00
 -2.0316780e+00
  3.2155145e-02
  1.3726832e+00
 -7.5799480e-02
  1.0570793e+00
 -3.2656081e-02
 -3.3859026e+00
 -3.3185592e+00
 -4.3918544e-01
  2.5720635e-01
 -1.2426249e+00
  1.5819937e-01
  4.0801233e-01
 -1.6178505e-01
  7.5324672e-01
  3.8104507e-01
 -1.6932238e-02
 -1.3718362e+00
  1.3017076e-01
  2.5857930e+00
  3.8314983e-01
  4.4501666e-02
  1.5301727e+00
  2.4540935e+00
 -2.5111339e+00
  1.5885808e+00
  4.4870490e-01
  3.1647000e+00
 -4.7610579e+00
  1.0687286e+00
  1.0619379e+00
 -3.4409791e-01
  8.9892244e-01
  2.8599086e-01
  3.9264753e-01
 -3.8753307e-01
  2.5472802e-01
  1.0733689e+00
  1.4058201e+00
 -1.2493742e+00
 -1.3105090e+00
  1.0752535e+00
 -2.3342221e+00
 -1.0657610e+00
  8.8118397e-02
 -2.9930396e+00
  7.3243880e-01
  6.3478224e-02
  1.2105466e+00
  4.9085176e-01
 -8.8658199e-02
 -3.0561559e-02
 -5.0582343e-01
  5.6267554e-01
  2.1631192e-01
  8.0633238e-02
 -2.1125903e+00
 -1.8376822e+00
  1.3675964e+00
  1.1451970e-01
 -3.0905020e-01
  8.7629300e-01
 -1.1148937e-01
 -1.9250673e+00
  1.7220598e-01
  3.9431858e-01
 -7.0743984e-01
  5.6863475e-01
 -2.2980726e+00
  9.8932916e-01
  1.7679880e+00
 -2.4961839e+00
 -1.8977185e+00
 -3.9635608e-01
  6.4370424e-01
 -7.5426444e-02
 -7.4840790e-01
 -7.5989151e-01
  1.4660167e+00
  1.9780082e-01
 -7.3423691e-02
  4.7274056e-01
 -6.6076618e-01
  3.5922766e-01
 -8.8994183e-02
  1.5592559e-01
 -1.1008617e-01
  1.1232632e-01
 -1.3590159e+00
 -6.3954860e-01
 -2.0238793e+00
  4.6810526e-01
  3.3500224e-01
 -7.6379478e-01
 -4.4941270e-01
 -5.7862258e-01
  9.3851316e-01
 -4.0079242e-01
  2.5264171e-01
  5.3300583e-01
 -1.2431082e-01
 -2.4626163e-01
  8.0765897e-01
  1.3113210e+00
  5.9403867e-02
  2.3807742e-01
 -7.5182855e-02
 -6.8788224e-01
 -3.4106793e+00
 -7.8416359e-01
  1.4173853e+00
  1.2850332e+00
  2.5154734e+00
 -1.1959586e+00
 -5.3459185e-01
 -5.5358869e-01
 -1.1540505e+00
  1.7329296e-02
 -1.3295777e-01
 -3.4014833e-01
  2.7733266e-01
  4.6754874e-02
  4.3859953e-01
  1.1827346e+00
 -1.3461343e+00
 -3.4165862e+00
 -5.4422891e-01
 -1.9530864e-01
  3.0793208e-01
 -6.7736340e-01
  8.5072875e-01
  4.6394024e+00
  3.5032310e+00
  3.7346256e-01
 -2.7644002e+00
  1.2336198e+00
  1.4988811e+00
 -1.4182525e+00
  5.4397869e-01
  1.6148043e+00
  3.7645053e-02
  6.3537173e-02
 -1.3321221e-01
 -1.0642518e+00
  7.4494308e-01
  1.0029191e+00
  1.4486440e+00
 -1.6550535e+00
  1.8850523e+00
  1.7573800e+00
 -4.4198281e-01
  1.0262438e+00
 -3.4188566e-01
 -2.7727133e-01
  7.6852083e-02
 -8.6459562e-02
  1.2032512e+00
  1.0860206e+00
 -2.3395452e+00
 -5.4725671e-01
 -5.6701031e-02
 -1.3866249e+00
  8.6793000e-01
 -2.2866540e+00
 -4.9001053e-01
  7.8697848e-01
  1.1272743e+00
 -4.4808093e-01
 -1.1122621e+00
 -2.3199854e+00
  7.1791673e-01
  3.4804296e+00
 -1.8236790e-03
 -8.7022430e-01
  2.2995438e-01
 -5.2789360e-01
  1.1187015e-01
 -1.3095388e+00
 -7.0746738e-01
 -3.8392654e-01
  4.1333909e+00
  1.6465092e+00
 -4.8554289e-01
 -1.6313865e+00
 -1.0027653e+00
  2.0781262e-01
 -2.4026074e+00
  3.8913423e-01
 -1.7195462e-01
 -1.0189598e+00
  3.1593001e-01
  3.5331005e-01
 -2.1502471e-01
 -3.7878238e-02
 -2.6252639e+00
  3.1940493e-01
  6.9526947e-01
  1.4661881e+00
  3.6289752e-01
  7.5243765e-01
  1.4104209e+00
 -1.2018883e+00
  1.1246703e+00
 -4.0206373e-01
  2.0045884e+00
  1.6007955e-01
 -1.6405510e+00
  3.2879522e-01
 -3.9911753e-01
  2.0282869e+00
  1.1332933e+00
 -8.6952686e-01
  6.5515226e-01
 -5.0473040e-01
  1.2277888e+00
 -1.4816176e+00
 -9.0096956e-01
  2.7280650e-01
 -2.0559292e+00
 -1.4557871e+00
 -1.7607838e-01
  1.3890524e+00
 -3.7625206e-01
 -6.2019117e-02
  1.2858519e-01
  9.9755779e-02
  2.2921889e-01
  1.2369205e+00
  6.1825943e-01
 -1.3112072e+00
  1.6830562e-01
 -2.6197190e+00
 -1.2651331e+00
  8.3419067e-01
  8.2161564e-01
  7.0075117e-02
 -1.1487731e+00
 -2.4271588e+00
 -2.4018127e-02
  1.3806510e+00
 -8.2948369e-01
 -1.3020559e-01
 -3.9467657e-01
 -3.3080950e-02
 -3.6445935e+00
 -1.2348423e-01
  2.4167342e+00
 -2.3101285e+00
  1.7101842e+00
  7.7206963e-01
 -1.9440582e+00
 -6.5188897e-01
 -1.0424843e+00
 -4.6558121e-01
 -5.9979773e-01
 -2.5512755e+00
  1.8345983e+00
 -7.4227758e-02
  2.0970966e-01
 -1.6455343e-01
  1.4015800e+00
  7.5968802e-01
  6.8037987e-02
 -1.4417044e-02
  2.8436092e-01
  5.8611548e-01
 -4.8251774e-02
 -1.0047432e+00
 -7.2754675e-01
  2.3667833e-01
 -3.9196661e-01
  8.3513010e-01
  2.4966707e+00
  3.0791528e+00
 -3.8606298e-01
  1.4653982e-01
  5.2471060e-01
  4.4960001e-01
 -1.3452824e+00
  1.1949207e-02
 -4.4243234e-01
 -5.3652805e-01
 -3.2594553e-01
  3.9464602e-01
 -1.2031794e-01
  7.6639265e-01
  9.0762299e-01
 -3.4113947e-01
 -2.4368782e-01
  1.2370534e+00
 -3.5150939e-01
  1.2127542e-01
 -5.8821261e-01
  1.4122741e-01
 -9.0866193e-02
 -1.0540303e+00
 -2.0577633e-01
  1.0551578e+00
 -1.8742697e+00
 -1.5360080e+00
 -3.3654702e+00
 -3.7635610e+00
  1.8436023e+00
 -1.8908324e+00
  5.1151868e-02
  8.5875124e-02
  1.9962083e+00
  1.7045946e+00
 -7.0212764e-01
  1.2080131e+00
 -2.0397854e+00
  2.9723498e-01
 -7.5484502e-01
  1.2411224e+00
 -1.5785484e+00
 -9.6129708e-02
  2.6901641e-01
  1.1801013e+00
 -3.0613692e+00
  1.0025338e-01
 -2.6982136e+00
 -6.8718553e-01
 -1.6560427e+00
 -1.6972343e+00
  1.0280781e+00
 -5.8073449e-01
  4.0879673e-01
  5.8774360e-02
  9.8505777e-01
  4.0122008e-01
 -1.7410104e-01
  5.1128018e-01
 -4.8762264e+00
 -2.3412521e+00
 -2.1810129e+00
 -4.2304671e-01
  2.8248632e+00
 -1.3315609e+00
 -3.3054655e+00
  7.2144842e+00
 -7.4120855e-01
  1.3824430e-01
  1.9007154e+00
  1.0566143e+00
 -1.0450990e-01
  2.4429224e+00
  1.2853646e+00
  2.6938205e+00
 -1.1309341e+00
  2.5699570e+00
  1.2118243e+00
  1.6329346e+00
  1.6484617e+00
 -1.5737314e+00
  6.9791561e-01
  3.1683736e+00
 -1.7759770e-01
  7.9819518e-01
 -9.8842770e-01
 -1.1968125e+00
  2.5823259e-01
 -4.6843901e-01
 -5.0913095e-01
  9.9663086e-02
 -1.8335417e-02
 -3.0940148e-01
  1.3193905e+00
 -1.5021477e+00
  1.2560947e+00
 -2.1348701e+00
 -1.2686598e+00
  1.7392651e+00
  1.3051150e+00
  7.4607903e-01
  6.2637496e-01
 -8.6594915e-01
  1.0927240e+00
 -6.2183738e-01
  8.7322637e-02
 -1.8802838e-01
 -3.8598189e-01
  5.2926159e-01
  6.2084144e-01
 -4.0747255e-01
  4.9930602e-01
 -3.2984862e-01
  9.6475229e-02
  1.9788438e+00
 -5.3092116e-01
 -4.2543843e-02
  1.1161892e+00
 -5.6732929e-01
  6.5209955e-01
  1.4185299e-01
 -8.2848078e-01
  2.4122553e-01
 -1.2082995e-01
 -6.6184461e-01
 -3.8213778e-01
  4.7730669e-01
 -6.3232370e-03
 -3.7342712e-01
  3.1022422e+00
  8.6056256e-01
 -1.0824265e+00
  1.6895534e+00
 -6.3187796e-01
 -1.4033777e-01
 -1.0512840e+00
  2.7778594e+00
 -8.6193806e-01
 -3.1952712e-01
 -4.5155779e-01
  2.6110833e+00
  1.8068381e-01
  5.2446806e-01
 -9.5180303e-01
 -4.6832615e-01
  7.5733399e-01
  1.8628343e+00
 -1.1250325e+00
 -3.8804434e-02
  7.6098937e-01
  8.6089242e-01
  4.6589382e-02
 -8.1787908e-01
 -1.2945341e+00
 -2.4997956e-01
 -1.6244955e+00
 -1.8784549e+00
 -5.2414477e-01
 -5.1503230e-02
  2.1720922e+00
  1.6191825e+00
 -1.5355359e+00
  1.0496995e+00
  1.0259111e+00
 -1.8067727e+00
  1.7791319e+00
 -2.5324144e+00
 -1.7632946e+00
 -7.6568556e-01
  1.2531465e+00
  1.0015245e-01
  6.8262643e-01
 -1.1376926e+00
  4.7893888e-01
  3.5013125e+00
 -3.5329404e+00
 -1.0567755e+00
  5.9564972e-01
 -4.7654837e-01
 -4.7690246e-01
  5.1861620e-01
 -1.4341041e+00
 -6.7898139e-02
 -2.5953469e-01
  1.0091887e+00
 -1.8768375e-01
 -7.0692730e-01
  1.5459641e+00
  3.9204460e-01
 -1.1987269e+00
  1.8233020e+00
  1.1406962e+00
  1.8585674e-01
  2.7273604e-01
 -9.4227895e-02
 -2.6640713e-01
  7.1294165e-01
  3.0399308e-01
 -1.6680174e-01
  3.6363037e+00
  4.1854721e-01
 -2.5186572e+00
 -2.0168357e-01
  1.1734645e+00
 -2.1014800e+00
  3.4262910e-01
 -1.2182322e+00
 -3.3245750e-02
  1.8337002e+00
  2.8926206e+00
 -7.4682021e-01
 -3.2164362e-01
  1.4099753e-01
  7.9881907e-02
 -1.4379708e+00
 -1.5122653e+00
 -6.3565511e-01
 -1.8064220e+00
  1.2261691e+00
  8.4226662e-01
 -1.7626786e+00
 -1.1394920e+00
 -6.6362339e-01
  1.8919970e+00
 -2.0511241e-01
  1.2676502e+00
 -4.7436640e-01
  1.6733268e+00
  6.0882342e-01
 -2.7169561e-01
 -7.6701856e-01
 -4.9912700e-01
 -3.2415244e-01
 -3.1127912e-01
 -1.4792665e+00
 -2.9041433e+00
  5.2994955e-01
 -2.7614229e+00
  8.7515938e-01
  1.8310901e+00
  2.6216447e+00
 -1.5826529e+00
 -7.4294269e-01
  7.5534880e-02
  2.3950913e+00
 -2.0690138e+00
 -2.9606092e+00
 -6.9234657e-01
 -6.8381208e-01
  4.1136999e+00
 -1.9385542e+00
  5.5535529e-02
  1.3993890e+00
 -4.2152730e-01
  9.3411112e-01
 -1.4613268e+00
 -1.1237136e+00
  2.2271228e+00
  1.0447996e-01
 -3.9719348e+00
  3.6780984e+00
  1.2566184e-01
  2.4369338e+00
  2.1158338e+00
 -9.8786063e-02
 -8.9826584e-01
  1.0155312e+00
  4.3716970e-01
 -1.5569081e+00
  4.2086477e+00
  3.5941991e-01
 -4.6470838e+00
 -4.6410956e+00
  1.6215277e+00
 -1.3245711e+00
 -3.4167838e-01
  4.6864018e-01
 -3.0484071e-01
  2.7919775e-01
 -4.8932487e-01
 -4.3855137e-01
  7.2950864e-01
  7.1241140e-01
 -3.3649102e-01
  8.1879026e-01
  8.0456293e-01
 -6.3757896e-01
 -9.4143873e-01
  1.2898797e+00
 -6.9813734e-01
 -2.2856219e+00
  1.0755866e+00
  8.7166345e-01
  1.9770731e-01
  3.0073504e+00
 -7.4714649e-01
  6.0144532e-03
 -3.6836815e-01
 -4.8742849e-01
 -2.1106146e-01
 -9.3782830e-01
 -2.6853368e-01
  1.1384902e-01
 -3.4083393e-01
 -2.2516580e+00
 -2.3986962e-01
  6.3023007e-01
 -5.5043179e-01
  2.0791742e-01
  7.2927529e-01
  1.1154383e-01
  1.3190951e+00
 -3.0544421e-01
 -1.2414143e+00
  1.9778731e-01
 -2.2709923e+00
  7.4424481e-01
  2.3642057e-01
 -2.3170099e-02
  3.8820443e-01
 -9.1337568e-01
 -2.5201514e-02
  8.9464217e-01
 -6.4639693e-01
  1.6506435e+00
  1.2803152e+00
  1.2755486e+00
 -6.5944505e-01
 -5.8503640e-01
 -2.9174147e+00
  3.8628325e-01
 -3.4974778e-01
  1.0043250e+00
 -2.9662088e-01
  5.6285638e-01
  2.0737064e-01
  6.6781539e-01
 -4.5672244e-01
 -5.4130149e-01
 -3.3526812e+00
  7.5042236e-01
 -7.6537770e-01
  4.5985648e-01
  1.8812914e+00
  5.6294650e-01
  2.0366316e+00
 -2.4360042e+00
 -1.2470524e-01
  6.7610061e-01
  2.2544068e-01
  1.0856440e+00
 -7.2523123e-01
 -1.7363164e-01
  1.3505057e+00
  1.0512294e-01
  4.4194002e+00
 -1.5845183e+00
  2.4562454e+00
 -2.1583898e+00
  1.8431236e+00
  2.0841630e+00
  4.2599019e-01
  8.4916276e-01
  2.1250096e-01
  9.1561657e-01
  1.6634614e+00
  8.2325304e-01
  8.1634447e-02
 -1.2539634e+00
 -3.2346234e-01
  1.0547277e+00
  9.0071820e-02
 -6.3549802e-02
 -8.5440250e-03
  1.1767646e+00
  1.1026337e+00
  5.8820230e-01
 -1.5945837e-01
 -1.7391163e+00
  3.3887489e+00
 -5.4616022e-01
 -1.1637691e-01
  3.8111550e-01
  8.6877567e-01
 -1.5799745e+00
 -2.4209986e+00
 -3.6911476e-01
  9.4894849e-02
  1.3589243e+00
 -6.7370820e-01
  5.3807402e-01
  6.1866134e-01
 -1.6343251e-01
 -1.4757519e+00
 -1.9887992e+00
  2.1710162e+00
 -1.1387328e+00
  8.2682288e-01
 -9.9324387e-01
  1.7760405e-01
  1.3051792e+00
  5.9327739e-01
  7.3826849e-01
  5.3583115e-01
 -7.3505938e-02
  1.9756371e-01
  4.6396658e-02
  5.1597589e-01
 -3.2994199e-01
  6.3535943e+00
  1.5392467e-01
 -1.4678248e+00
 -4.8855308e-01
 -1.8080835e+00
  4.5264368e+00
  9.4781923e-01
 -1.1932971e+00
 -1.1351584e-01
 -3.6782086e+00
  6.4218408e-01
  1.3056508e+00
 -3.2499053e+00
 -9.3166178e-01
 -2.1844783e+00
  1.4763842e+00
 -1.7764319e+00
 -1.3385265e+00
 -1.4874831e+00
 -1.6147369e+00
 -8.5580952e-02
 -1.7914631e+00
  2.2156445e-02
 -2.8125567e+00
 -1.6926197e+00
 -2.1958120e+00
 -1.3659072e+00
  1.3560160e+00
 -5.7649541e-01
 -2.5638387e-01
  7.3458707e-01
 -2.0544568e-01
  1.8487871e-01
 -3.6462769e-02
  1.1910620e+00
 -1.7446969e+00
 -2.6401162e+00
 -1.6197934e+00
 -2.6517291e+00
  2.0495627e+00
  2.1653907e+00
 -6.7338783e-01
  1.2494597e+00
 -5.6306297e-01
 -5.0438553e-01
  1.2564168e+00
 -9.3502355e-01
  3.9848974e+00
 -1.6508608e-01
  6.4861678e-02
  1.2958468e+00
  5.2423334e-01
  1.5283866e+00
 -6.9909650e-01
  7.4876225e-01
  6.8684024e-01
  8.1739098e-02
  3.7513441e-01
  1.5496150e+00
 -3.6605251e-01
  9.5133191e-01
  7.4300133e-02
  3.1686091e-01
  2.5500408e-01
  8.3825642e-01
 -1.7614408e-01
 -1.7877278e-01
 -9.8253995e-02
 -1.1762904e-01
 -5.7848316e-01
 -2.7270016e-01
  7.2172379e-01
  1.5085267e+00
  1.3596113e+00
 -1.6075983e+00
 -3.3822000e-01
  5.6832361e-01
  2.3000360e+00
 -7.4897565e-02
  4.0857658e-01
 -8.1501746e-01
  3.1437151e+00
  1.6473750e+00
  2.6875111e-01
  3.4900417e+00
 -1.3666830e+00
 -4.9972984e-01
 -1.9426286e+00
  4.4182482e-01
  7.4910617e-01
 -2.4829514e+00
  2.7953553e+00
  1.0418993e+00
  1.4793124e+00
 -1.3847340e+00
  2.3559041e+00
  4.6563143e-01
 -1.4332161e+00
 -6.5783202e-04
 -7.7678913e-01
  5.7139289e-02
  3.9535772e-02
  3.5110638e-02
 -4.9959543e-01
 -1.2014924e-01
  1.7194614e+00
  1.3573812e+00
  5.4447670e-02
 -2.0439839e+00
  2.2757952e+00
 -1.7810073e+00
 -3.4130297e+00
  5.8688718e-01
 -4.2076526e+00
 -2.0877671e+00
  3.2752569e+00
  4.0177178e+00
  1.1478747e+00
  9.7662520e-01
 -1.3710938e+00
  3.1018109e+00
  1.3674401e-01
  1.6470449e-02
 -5.0261863e-02
  2.2542484e+00
  2.1311195e+00
 -6.0036480e-01
  1.0243609e+00
 -7.5009072e-01
  9.9083489e-01
  1.6890027e-01
 -3.4606168e+00
 -3.9536089e-01
 -1.4692986e-01
 -1.1704622e-01
 -1.3962747e+00
 -3.7946087e-01
 -1.6379273e-01
 -3.8824418e-01
  8.3917195e-01
  4.0658444e-01
  1.4268099e+00
 -3.8675246e-01
  2.9069760e+00
  2.5098886e+00
  9.6033251e-01
  6.8507397e-01
  2.6873472e-01
  1.2073759e+00
 -9.9336646e-02
 -4.0272778e-01
  1.1646088e+00
 -1.4709311e+00
 -1.9509572e-01
 -1.7374867e+00
 -1.5506674e+00
  1.2175877e+00
 -6.7100406e-01
  1.5167372e+00
 -2.4810174e-01
  5.4260544e-02
  5.5006272e-01
  3.1952044e-01
  6.4917326e-01
 -2.8679371e-01
  2.1631401e+00
  2.3885910e-01
  2.1787062e+00
 -1.1119962e+00
 -1.0081574e-01
 -1.3219455e+00
 -5.8201890e-02
  8.0623090e-01
 -1.1984514e-01
  5.3916818e-01
 -4.1754985e+00
 -1.2507460e-01
  8.2468975e-01
 -8.9155382e-01
  7.2571146e-01
 -1.7273920e+00
 -1.0407509e+00
  9.1014504e-01
  1.9677284e+00
  9.5595479e-01
 -8.5712719e-01
  2.7420161e+00
  9.5517641e-01
  3.7328213e-01
 -3.8714913e-01
  2.1659002e-01
  1.0517772e+00
  1.5731626e+00
  6.8760955e-01
  1.8778706e-01
 -2.4568384e+00
  3.1046271e+00
  1.8413299e+00
  2.8843766e-01
 -4.8412821e-01
 -1.5037942e-01
 -2.3354092e+00
  2.0741246e+00
 -2.2430871e+00
  1.4012241e+00
  1.8977235e-01
  8.8236946e-01
 -1.3852140e+00
  2.5045836e+00
 -1.7805887e+00
 -6.0076604e+00
  7.7662295e-01
 -4.8958588e-01
  1.7669484e-01
 -5.5543203e+00
  2.5000823e+00
 -5.2389801e-01
 -2.2594609e+00
  1.0932424e+00
 -6.6593766e-01
 -2.6196820e-01
  1.8445407e+00
 -3.7156209e-02
 -5.4538715e-01
  4.6160474e-01
  6.2819141e-01
  8.1180161e-01
  3.9821696e-01
 -5.5404520e-01
  6.3571000e-01
  1.3945311e-01
  7.7338552e-01
 -9.1414589e-01
  9.2278397e-01
  2.5750160e+00
 -3.3905909e+00
 -1.0707568e+00
  6.6104203e-01
 -7.2453666e-01
 -3.9655626e-01
 -2.0144047e-01
  2.3719785e-01
  1.6159245e+00
 -2.9644394e-01
 -1.1046561e-01
  6.5209093e+00
  7.1556789e-01
  4.2819682e-01
  1.0733558e+00
  1.0045481e+00
  2.3022563e+00
  2.1196818e+00
 -3.5926096e+00
 -5.6941587e-01
 -5.7108992e-01
  2.0922179e+00
  1.8215261e+00
  6.5128750e-01
 -3.4932974e-01
 -1.4264910e+00
  1.7658402e+00
  5.5870938e-01
 -1.5076988e+00
 -7.1266055e-01
  2.5302017e+00
  1.6633096e+00
 -2.3441067e+00
  6.9781774e-01
  2.5315639e-01
  5.8069152e-01
 -5.2535028e+00
 -1.1216726e-01
  1.7584212e+00
 -1.2831855e+00
 -1.2293007e+00
 -3.4716731e-01
  1.2568123e+00
 -8.1489968e-01
 -2.0037028e-01
  5.1685327e-01
 -1.8237888e+00
 -3.2348092e+00
  1.8278240e+00
  2.8539458e-01
 -9.3299490e-01
 -1.3352724e+00
 -5.1754016e-02
 -5.3722548e+00
  6.0628748e-01
  3.7674257e-01
 -1.0263541e+00
  4.2170329e+00
 -4.3320292e-01
  6.1391109e-01
 -2.3205785e-02
  4.2750759e+00
 -2.6736243e+00
  8.2095689e-01
  1.6794264e-01
 -2.9538527e+00
 -1.3781388e+00
  2.6877556e-02
  1.3131237e+00
  5.1298779e-01
  9.1018122e-01
  6.3996220e-01
  1.2842481e+00
  9.3346393e-01
  1.0489215e+00
 -2.0114022e-01
  9.8097163e-01
 -9.3189782e-01
  2.7246809e-01
  6.1301708e-01
 -1.2359685e-01
 -2.0602827e+00
 -6.6254336e-01
  1.8534652e+00
 -1.3129699e-01
 -1.6234317e+00
  1.1568601e+00
  8.6900020e-01
 -2.5639490e-03
  1.4982493e+00
  2.1773570e+00
 -2.2309530e+00
 -6.0111958e-01
  6.8656164e-01
  1.5992863e+00
 -8.5287100e-01
 -3.7039295e-01
  3.8805592e-01
 -2.5829484e+00
  1.0619692e+00
 -3.1430808e-01
 -1.1362902e+00
 -1.5784563e+00
  4.8724968e-02
 -1.4518521e+00
  7.0856303e-01
  4.4767112e-01
  1.1500015e+00
 -5.0761151e-01
 -1.1216928e-01
 -1.5875970e-01
  4.8287824e-01
  8.4088403e-01
 -3.5066274e-01
  6.2165082e-01
 -1.9812934e-01
 -2.4878863e-01
 -3.7184596e+00
  6.9999391e-01
  4.2690548e-01
  2.0509059e+00
 -4.9740461e-01
  1.1839600e+00
 -1.1958690e+00
 -1.3281529e+00
  2.0396440e+00
  5.5746317e-01
 -1.4948812e+00
 -2.4846506e+00
  5.5117786e-01
 -7.2754800e-01
 -1.1137866e+00
  4.9970993e-01
 -5.1566708e-01
  6.1416030e-01
  7.7981675e-01
  8.8694221e-01
  2.2267103e+00
  2.3562845e-02
  1.9042929e+00
 -8.5816998e-03
  1.0191039e+00
 -1.5016565e+00
  4.3784496e-01
  1.3177623e+00
 -1.7572206e-01
  3.0373660e-01
  6.0659760e-01
 -9.5345937e-02
  6.4520523e-02
 -7.4738109e-01
 -3.2119980e-01
 -4.9018967e-01
  1.1410817e+00
  2.6263840e+00
 -4.2860842e+00
 -1.5030618e-01
  3.0258391e+00
  2.2737205e+00
  6.8935651e-01
  4.3482220e-01
 -3.7279189e+00
  3.2398901e+00
  1.0039985e+00
 -2.0228569e-01
  1.1272401e+00
  6.3757819e-01
 -3.3516488e+00
  3.1386650e-01
 -7.9554784e-01
 -6.1318409e-01
 -1.2980775e+00
 -8.1128740e-01
 -2.6758864e+00
 -3.5486054e-01
  1.3705921e-01
 -1.2369996e+00
 -6.2655795e-01
  1.6810509e+00
 -3.3159760e-01
 -4.2049822e-01
 -6.4399913e-03
  9.5947146e-02
 -4.2202723e-01
 -3.2630619e-01
  6.7851215e-04
 -4.8148289e+00
 -2.8090620e+00
 -2.2381334e+00
 -3.3745830e+00
  7.0589060e-01
 -3.9974868e+00
 -3.8278317e+00
 -1.0368670e+00
  5.0549183e-02
  6.6468418e-02
 -9.4962090e-01
  2.5017395e+00
  3.2775288e+00
 -5.1767975e-01
  3.3865875e-01
 -8.6287022e-01
  3.5954061e+00
 -3.4245130e-01
  1.8211036e+00
  2.6519665e-01
  8.8040836e-02
  1.6860645e+00
 -5.1158363e-01
  2.7498978e-01
  1.4607678e-01
  1.4756762e+00
 -2.7624686e+00
 -1.9567518e-01
 -5.1988274e-01
 -1.7338215e+00
 -2.3419964e+00
  3.6823770e-01
  4.0894124e-01
  6.8436406e-04
  4.2726257e-01
 -1.0211974e+00
 -8.7645343e-03
  1.0600133e+00
  1.6300086e+00
  2.7250948e+00
  7.2095692e-01
  2.8097102e-01
 -1.4856352e+00
  4.1238058e-01
 -4.5204780e-01
 -4.6636227e-01
  4.3152618e+00
 -9.3407470e-01
 -4.0278955e+00
  2.8074965e-01
  1.1152344e+00
  1.9413587e+00
  4.6759325e-01
  7.0747530e-01
  1.1484686e+00
  6.2351274e-01
  6.0153717e-01
 -2.0484667e-01
 -7.5057507e-01
  2.1720850e+00
 -7.1574575e-01
 -1.0436108e+00
 -5.0361836e-01
  2.0936069e+00
  1.1726711e+00
  5.0595808e-01
 -4.2653558e-01
  4.4549969e-01
 -5.3259218e-01
  3.0741474e-01
 -2.7565351e-01
 -8.7780005e-01
  1.6721284e+00
  5.4129976e-01
 -5.6374276e-01
 -8.5845596e-01
  1.2449027e-01
 -1.2746496e+00
  7.1882081e-01
  1.6512260e-01
 -7.4846512e-01
  2.2393570e+00
 -2.2212143e-01
 -1.3242120e+00
  2.2214610e-02
 -3.0228691e+00
  1.8544474e+00
 -3.0452871e-01
  1.3300797e+00
  2.2565502e-01
  3.0094855e+00
 -3.4400861e+00
  2.3482556e+00
  3.4757882e-01
 -8.5374779e-01
 -6.1919045e-01
 -4.7713246e+00
  9.5337238e-03
 -7.3629236e-01
  8.1086427e-01
  5.9344012e-01
  1.4060116e-01
 -1.6547264e+00
  4.8588446e-01
  6.9080561e-02
 -3.9411044e-01
 -6.5888709e-01
 -2.0476189e+00
  2.0948830e+00
  2.0640321e+00
  3.7795949e-01
 -2.6065710e+00
 -4.7258139e-01
  1.1668611e-01
 -2.7530835e+00
  8.6861384e-01
  8.4866434e-01
 -2.3686414e+00
  1.1841793e+00
  9.6397251e-01
  1.4570017e+00
 -2.1051424e+00
 -3.2807348e+00
  9.1837472e-01
  9.3377084e-01
  2.8410587e+00
 -3.0826521e+00
 -5.1389498e-01
  7.1222907e-01
 -1.4492505e+00
  8.1073485e-02
 -1.3184316e+00
  3.7349039e-01
  1.6682193e+00
  2.0552153e-02
 -4.6279356e-01
 -1.1787813e+00
 -7.1871720e-02
  8.8497154e-02
 -8.8916533e-02
  6.1586390e+00
  2.9260528e+00
 -6.9565779e-01
  2.9283634e-01
  6.4153236e-01
  8.1294256e-01
  8.3603680e-01
 -3.3780458e+00
 -7.7927363e-01
  9.3934768e-01
  4.4124837e+00
  1.7886415e+00
 -4.5144014e+00
 -4.1484654e-01
 -2.2861891e+00
  2.8844898e+00
 -1.2726612e+00
 -2.0244098e+00
  1.8492888e+00
 -1.4924220e+00
 -1.2126007e+00
 -2.0381200e+00
  5.5378776e+00
 -1.4806463e+00
 -3.0583901e-02
  2.2306828e+00
  1.2465754e+00
  3.2602364e-01
  3.9304236e-01
 -1.4606367e-01
 -1.7292361e-01
 -7.1911895e-01
  3.1288967e-01
  5.8707547e-01
 -5.8816586e-02
 -2.2851727e+00
 -1.8143102e+00
 -3.3585942e+00
 -1.3873024e+00
 -1.3861276e+00
 -3.3733508e-01
  2.3019912e+00
  2.4189920e+00
  1.2039980e-01
  2.6911071e-01
  3.1980631e-01
  5.2073226e+00
  2.4515617e-01
 -3.0600229e-01
  9.5351166e-01
 -2.5006876e+00
 -1.7437888e-02
 -2.6775643e-01
  3.6887139e-01
  3.6340270e+00
 -5.2171332e-01
  1.4412457e-01
 -3.3684295e-01
  1.0759709e+00
 -1.9368598e+00
  4.2076693e+00
 -1.1600407e+00
  1.4012324e+00
 -5.1192347e-02
 -8.6835462e-01
 -3.2547405e-01
 -7.7466995e-02
 -4.4549257e-01
 -1.3490303e+00
  1.5318428e-01
 -1.4918816e+00
  2.1198295e-01
  6.3642776e-01
  7.2133040e-01
 -2.7200186e+00
 -8.1629582e-02
  1.7149718e-01
  1.9110390e+00
  4.9527788e-01
  7.4301392e-01
 -2.8739374e+00
  1.3846699e+00
 -1.2567904e+00
 -1.1414441e-01
 -2.0040523e-01
 -1.0236428e+00
 -9.2380524e-01
  5.9121567e-01
  1.3487927e+00
  2.6640084e-01
  5.8065420e-01
  8.3162868e-01
  7.1096897e-01
 -1.7034724e+00
 -1.7437958e+00
  7.7776116e-01
 -3.5214067e-01
  4.6262568e-01
 -9.7619295e-01
 -1.5131538e-01
 -1.3118924e-01
  3.5384789e-01
 -9.1810030e-01
  1.9760464e-01
  7.2134221e-01
  2.3159366e+00
  2.0192948e-01
 -1.3162296e+00
 -1.8878024e+00
 -1.1482176e+00
 -2.9478872e-01
 -1.5182875e+00
 -2.3042104e+00
  1.7897524e+00
 -1.0244714e+00
  2.1810973e+00
  5.3085440e-01
 -1.7119726e+00
 -1.9825408e+00
  1.3824692e+00
 -8.6854714e-01
  1.5601686e+00
  3.0103117e-01
  1.3342069e+00
  2.2071476e+00
  4.0815268e+00
  6.3569897e-01
  3.1804684e-01
 -7.2272408e-01
  6.0589284e-01
 -1.5528673e-01
 -2.0839968e+00
  2.2899542e+00
 -1.7349193e+00
 -1.0543357e+00
 -2.2106500e-01
  6.8262786e-01
  6.0326719e-01
  1.9094270e-01
 -9.7598255e-01
  1.0755892e-01
 -5.7792819e-01
  7.1024370e-01
 -5.7067740e-01
  9.4762474e-01
  1.6812738e+00
 -2.9945588e-01
  6.1878043e-01
 -3.8355437e-01
  4.1633844e-02
  2.6440161e-01
 -2.0161405e+00
 -1.4923220e+00
 -2.9811122e+00
 -2.5420058e-01
  8.3131540e-01
 -4.1951532e+00
 -8.1895940e-02
 -1.3890822e+00
 -8.0638528e-01
 -3.9688775e-01
 -8.1475109e-01
  9.2101550e-01
 -9.2081022e-01
 -1.4646153e+00
 -1.0592297e+00
 -1.6096436e+00
 -5.6711314e-03
  3.1175080e-01
 -4.8974320e-01
 -3.8972977e-01
 -2.6773587e-01
 -1.7863811e+00
 -5.0042520e+00
  1.9561820e+00
  3.8452790e+00
  1.3892882e+00
 -4.1292930e-01
 -1.4322109e+00
 -9.5650822e-01
  8.5218632e-01
 -1.7525347e+00
 -1.7496133e+00
 -8.6365134e-01
 -1.2526028e+00
  2.1977943e-01
 -1.4061891e+00
 -8.9531016e-01
 -3.7195194e-01
 -8.8109380e-01
 -3.0949585e+00
  2.6392136e+00
 -8.9270532e-01
  2.8385732e-01
  2.2198648e+00
 -2.5714684e+00
 -1.5987618e+00
 -1.5924729e+00
  5.3276196e-02
  2.1459520e+00
 -3.0099530e+00
  2.1360846e+00
 -2.2268736e+00
 -1.2596104e-01
  1.9520252e+00
 -5.6089312e-01
  2.8857067e-01
  1.3448271e+00
 -2.3365931e-01
  5.0265568e-01
  4.5778957e-01
  2.8371736e-01
 -1.3046222e+00
 -7.5276387e-01
  9.1760558e-01
  5.2007407e-01
  2.1623706e-02
  1.8349737e+00
 -6.1894751e-01
  4.4566593e-01
 -2.4872975e+00
  3.2806611e+00
  3.3432704e-01
 -7.4519074e-01
 -1.0395994e-01
  5.1071906e-01
 -1.5655413e-01
  9.9102187e-01
  5.8230180e-01
  3.8671505e-01
 -1.0313557e+00
  1.2033378e+00
  1.2352972e+00
  1.3249687e+00
 -5.7856345e-01
 -8.9388406e-01
  1.3545780e+00
 -6.1180145e-01
  2.6071718e+00
 -9.1941595e-01
 -6.3013285e-02
 -1.1890364e+00
 -8.0639756e-01
 -2.1090066e-01
 -2.5470820e-01
  1.4443352e+00
 -3.1662693e+00
  2.5883999e+00
 -2.7946994e+00
  1.4158655e+00
  3.7626600e-01
  2.8164511e+00
  1.0210828e+00
  1.3262746e-01
 -2.9227135e-01
  2.2068536e+00
  1.4555742e-01
 -3.3613489e+00
 -8.5510296e-01
 -7.5573348e-02
 -7.4502355e-01
 -2.6254570e+00
 -7.3721725e-01
 -1.2234782e+00
  1.2667898e+00
  6.5413408e-02
 -1.4117832e+00
 -2.1898513e+00
  6.5190285e-01
 -4.0208873e-01
  1.3282115e+00
  1.3342500e+00
  1.1116973e+00
  7.4602395e-01
 -1.7095478e+00
 -5.9278971e-01
 -6.2655139e-01
  2.8682366e-01
  4.5597143e-02
 -2.7968457e-01
  4.2183104e+00
  2.7120817e+00
 -2.3844447e+00
 -1.4067188e-01
 -2.1116909e-01
 -5.5130696e-01
 -1.4679614e+00
  4.8033929e-01
  4.1427782e-01
 -4.4203535e-01
  5.6451708e-01
 -1.6148527e+00
  7.8943449e-01
 -6.1819142e-01
 -2.3119289e-02
 -1.8682493e+00
  5.9365672e-01
  2.5900712e+00
 -2.0304351e+00
 -3.3662257e-01
 -1.3065163e+00
 -6.5663558e-01
 -6.1363977e-01
 -2.6474631e-01
  1.7664157e+00
  9.2963225e-01
 -8.3941013e-02
 -2.5620618e-01
  5.6309823e-02
  2.2810100e-01
  3.9117388e-02
 -5.1284186e-04
  2.0465894e-01
  1.8683094e+00
 -2.4418528e-01
  1.5723500e-02
 -3.7340720e+00
 -2.7329788e+00
 -1.3621776e+00
  1.9687228e+00
  6.0320525e+00
 -3.7257421e+00
  2.0798361e+00
 -2.7259142e+00
 -1.0571786e+00
  1.2539512e+00
  4.2485866e-01
  1.9484400e+00
 -1.0786465e+00
 -1.8123389e+00
 -2.0375726e+00
  1.1954361e+00
  3.9991647e-01
 -2.0709065e-01
  1.3960872e+00
  1.7670491e+00
  7.0913352e-02
  2.4030123e+00
 -1.3590182e+00
  1.1468138e+00
 -9.1979891e-01
 -2.7096429e+00
 -9.6871018e-01
 -2.9837072e-01
 -1.5310559e+00
 -1.9905658e-01
  9.6007794e-01
  3.7968669e-02
  7.9040396e-01
  2.4950224e-01
 -5.0027380e+00
 -6.1723095e-01
 -2.5495155e+00
 -1.9502722e-01
 -2.3264396e+00
 -6.8489343e-01
 -6.3210022e-01
 -2.2096205e+00
 -9.2557311e-02
  3.5155696e-01
 -3.6168492e+00
  6.7227393e-01
  2.9236314e+00
 -2.9692659e-01
 -8.0591601e-01
 -6.8374330e-01
 -1.5641055e+00
 -1.6006719e+00
 -2.1941765e-01
  3.7929981e+00
 -1.8755425e+00
 -1.1404603e+00
  6.3167983e-01
 -2.0628828e-01
  1.5438241e+00
  1.6867802e+00
 -2.3776896e+00
  2.1976508e-01
 -2.8129607e-01
 -1.7720901e+00
  1.5023236e-01
  6.8477726e-01
  5.6986254e-01
 -2.6301894e-01
  9.7845626e-01
  2.1179514e-02
  1.5796890e+00
 -6.0568875e-01
 -7.9000765e-01
 -3.8286994e+00
 -1.3989925e+00
 -7.3546064e-01
 -9.9974227e-01
  6.2151760e-01
 -6.4207947e-01
 -1.4389549e+00
  1.2628070e+00
  1.0943792e+00
 -1.1179110e+00
  4.4601923e-01
  8.2584274e-01
  4.5483989e-01
  1.2028319e+00
  9.1678756e-01
  2.7733922e+00
 -2.5158420e+00
  1.8934656e+00
 -7.6012075e-01
 -1.0344382e-01
 -1.1098497e+00
  1.1741529e+00
 -4.9772310e-01
  2.8966972e-01
  5.0469494e-01
 -2.9538620e+00
 -1.8170676e-01
  1.4571777e-01
 -2.2295292e-01
 -3.7340920e-02
 -1.1914899e+00
 -4.8898878e+00
 -2.9559331e+00
  3.8616052e+00
  3.6850407e+00
  4.3705878e+00
  2.8072754e-01
 -1.2813644e+00
 -1.4396664e+00
  1.4067559e+00
 -1.7286685e+00
  1.5127978e+00
  1.0792805e+00
 -2.2574227e+00
  2.6342132e+00
  5.8447403e-01
  5.2386707e-01
  2.2258565e+00
  2.1959178e+00
  6.1960025e+00
  3.7655466e+00
 -3.7203631e-01
  3.9162841e+00
  9.2723393e-01
  5.6279993e+00
 -1.2027359e+00
  1.5867232e-01
  2.0070653e+00
 -8.9025058e-02
 -4.6437639e-01
 -1.5724285e-01
 -4.3534869e-01
  2.8783097e+00
 -4.8078295e-02
 -3.5420164e-01
 -3.1236142e-01
 -1.3137022e+00
  9.6073920e-01
  3.7307410e+00
  2.7399051e+00
  1.6510762e+00
  4.2087975e-01
 -1.7524117e+00
  6.6520011e-01
  2.6912355e-01
 -1.4306062e-01
 -8.0269563e-01
 -1.9008710e+00
 -1.8297354e+00
  6.5247160e-01
 -1.2141126e+00
  4.5185807e-01
  1.1124109e+00
 -2.3420622e+00
 -4.8306125e-01
  1.0137317e+00
  2.1915939e+00
  2.8917978e+00
  2.3489104e-01
 -9.4968534e-01
 -3.7972781e-01
 -1.7717174e-01
 -3.9563234e+00
 -8.0887687e-01
 -8.6793727e-01
 -9.3210495e-01
  8.2761306e-01
  3.1961930e-01
 -1.4088033e+00
  1.6161172e-01
  6.2655705e-01
 -5.3288025e-01
  7.8735489e-01
  2.1097922e+00
  1.4544429e+00
 -1.4340440e+00
  1.1179808e+00
  8.5557050e-01
  1.6051013e+00
  7.1984738e-01
 -3.8050685e+00
  2.0651941e+00
 -1.4653150e+00
  1.1942892e+00
  1.0108426e+00
 -2.8975861e+00
 -5.1052034e-01
 -1.4630860e+00
 -1.5578191e+00
  3.7114494e-02
 -2.1426246e+00
  3.5903039e+00
 -3.4628649e+00
 -1.2157748e+00
 -8.9267290e-01
  1.9129654e+00
  8.1932694e-01
  2.1001401e+00
 -1.7989297e+00
 -1.7825183e+00
  1.7923167e+00
  2.4979810e-01
  1.6074048e+00
  1.5867871e+00
  7.1100295e-01
  1.8730352e+00
 -8.1172460e-01
 -7.8009099e-01
 -1.3354099e+00
 -8.9805180e-01
  1.7171136e+00
  1.1586586e+00
 -4.1376054e-01
  1.1280420e+00
  7.7791190e-01
 -6.6711076e-02
  1.0678188e+00
 -3.7193659e-01
  1.0861715e+00
 -1.2411693e-01
 -1.0647290e-01
 -1.5716056e+00
  1.9435599e+00
 -1.2246041e+00
  2.3285763e-01
 -1.4330326e+00
  2.5930294e-01
  2.5185091e+00
  4.1586083e-01
  1.7535716e-01
  7.8019887e-01
  1.3832989e+00
 -8.6817465e-04
  7.3523861e-01
  2.4949546e+00
 -2.6446667e-01
 -3.5990402e-01
  8.9822626e-01
  7.4523771e-01
 -1.0469754e+00
  1.4322964e+00
 -4.9158078e-01
 -1.8622237e+00
 -1.6805958e+00
 -3.5807230e-03
 -3.5192244e+00
 -1.0230987e+00
 -2.1953375e+00
 -2.5704607e-01
  1.8110350e-01
  7.2055286e-01
  2.8135827e-01
  1.2747877e+00
  3.3150530e-01
 -8.2694411e-01
  3.1143183e-01
  4.1123414e-01
  8.3512819e-01
  8.7980759e-01
  1.9990373e-01
  7.3350519e-01
 -8.9594400e-01
  1.1391030e-01
 -1.3921648e+00
  4.4251877e-01
  2.8622448e-01
  4.5711616e-01
  3.5395116e-01
  2.9903668e-01
 -1.5200621e-01
  2.7495863e+00
 -4.7197172e-01
  5.3347659e-01
 -3.5718471e-01
  5.8165228e-01
 -3.6910996e-01
 -7.1384996e-01
  1.3444465e+00
  5.4547578e-01
  1.5700375e+00
  2.9852009e-01
 -2.0501654e-01
 -7.8214198e-01
 -2.4506068e+00
  1.5425274e-01
 -6.9048727e-01
  1.2788455e-01
  3.0714631e-01
 -4.3817693e-01
 -1.3617454e-01
 -3.2856801e+00
 -6.3744009e-01
  4.3340433e-01
 -1.6691077e+00
 -4.4025293e-01
  5.7614022e-01
  5.9965682e-01
  2.7975985e-01
  5.8316928e-01
 -1.5866959e+00
 -7.2107625e-01
 -6.5253150e-01
  5.4712856e-01
  5.5740637e-01
  6.4206237e-01
 -6.1044103e-01
 -1.7817589e+00
 -1.8886859e+00
 -6.1869586e-01
 -4.6510765e-01
  6.7107671e-01
  3.1685221e-01
 -4.6063694e-01
 -7.4269027e-01
 -7.6081163e-01
 -2.8937009e-01
  3.3189693e-01
  8.4001827e-01
 -3.9518782e-01
 -7.1194243e-01
 -3.3941492e-01
  4.5043075e-01
 -4.1476744e-01
  2.8928034e+00
  2.4682739e-01
 -1.2157398e+00
  9.8088628e-01
 -9.4118309e-01
 -2.3389238e-01
 -2.9859047e+00
 -1.9954048e-01
  2.0087742e+01
 -2.1220167e+00
 -3.5058734e+00
  3.0018988e+00
  1.4276818e+00
 -6.6946158e+00
 -2.5465055e+00
  3.0429623e+00
  5.4183216e+00
 -7.7619028e-01
 -3.4969118e+00
 -7.3016191e+00
 -1.7222154e+00
  2.2435218e-01
 -3.9881647e+00
  5.6196856e-01
  4.2658553e+00
  7.4812281e-01
  3.0529532e+00
  7.1321678e-01
  1.8191031e-01
  8.2629174e-01
 -7.4728590e-01
  2.8126163e+00
 -7.1271653e+00
 -3.1795254e-01
  4.5599957e+00
  5.0689363e+00
 -1.7577537e+00
 -1.3091168e+00
 -1.7473332e+00
  1.1585722e+00
 -7.1945560e-01
 -1.5810995e+00
 -1.0224848e+00
  3.5712593e+00
  3.8867342e+00
 -9.0598041e-01
 -2.1763539e+00
  1.1146898e+00
  6.4989619e+00
  5.4564571e+00
 -3.5949869e+00
 -6.0180402e+00
 -2.1255903e+00
  2.0921965e+00
  1.4204311e-01
  3.1496754e+00
 -4.4526401e+00
 -2.9995444e-01
  3.6035011e+00
  5.2702713e-01
  7.4935865e-01
  1.7975729e+00
  1.3592644e+00
 -1.8973451e+00
 -4.0920115e+00
  6.5448780e+00
  4.2657018e+00
 -2.9347482e+00
 -3.3474650e+00
 -1.6215163e+00
 -7.0250326e-01
 -8.5809392e-01
  1.2769005e+00
  8.3281412e+00
 -1.0009906e+00
 -4.9237709e+00
  1.6992534e+00
  4.6613688e+00
  4.7011173e-01
 -3.4016671e+00
 -1.5866208e+00
 -1.3080939e-02
  2.4487374e+00
  4.1649094e-01
 -3.2598469e-01
 -2.1584206e+00
  1.6456582e-01
  3.2323938e-02
  8.5349256e-01
 -1.2260854e+00
 -3.2826703e+00
 -4.5743780e+00
  1.9408752e+00
  1.5254618e+00
 -2.0270345e+00
  1.6816525e+00
  4.4447951e+00
  1.4934634e+00
 -2.3296809e+00
  4.1251560e-03
  4.1251560e-03
  4.1251560e-03
  4.1251560e-03
  4.1251560e-03
  5.2743582e-03
  5.2743582e-03
  5.2743582e-03
  5.2743582e-03
  5.2743582e-03
  4.1027446e-03
  4.1027446e-03
  4.1027446e-03
  4.1027446e-03
  4.1027446e-03
  2.3731452e-03
  2.3731452e-03
  2.3731452e-03
  2.3731452e-03
  2.3731452e-03
  1.4660439e-03
  1.4660439e-03
  1.4660439e-03
  1.4660439e-03
  1.4660439e-03
  7.1759237e-04
  7.1759237e-04
  7.1759237e-04
  7.1759237e-04
  7.1759237e-04
  5.9611837e-05
  5.9611837e-05
  5.9611837e-05
  5.9611837e-05
  5.9611837e-05
