nep4_zbl 1 C 
zbl 1 2
cutoff 6 5 163 106
n_max 4 4
basis_size 8 8
l_max 4 2 1
ANN 80 0
  2.1293635e+00
  3.3956144e+00
 -1.1906153e+00
 -1.6596124e+00
  6.0622358e-01
  2.3976496e-01
 -1.4522387e+00
  1.0215503e+00
 -7.1411043e-01
  1.2302831e-01
 -2.5447806e-02
 -1.6650487e+00
 -1.1746461e+00
  8.2176924e-02
  1.7971567e+00
 -7.0342869e-01
 -1.2861304e+00
 -1.3104254e+00
  9.2443955e-01
  1.7999377e+00
 -7.0544118e-01
  2.1636011e-01
  1.0023158e+00
  2.2611189e+00
 -5.5468088e-01
 -4.5625859e-01
 -1.1729783e+00
  9.4145879e-02
  5.6141907e-01
  1.2550268e+00
 -5.3237069e-01
  5.6323417e-02
  1.6644098e-01
  1.6109872e-01
 -1.4119267e+00
  1.5119215e+00
  1.2418790e+00
  2.9546523e+00
 -1.2047275e+00
  1.0412121e+00
  2.0355954e+00
  1.7691716e+00
 -3.0512838e+00
  1.2985466e+00
 -1.2192756e+00
  2.1729674e+00
  9.4795787e-01
 -1.1569220e+00
  3.4826204e-01
 -8.7322593e-01
  2.0621419e+00
 -2.7900717e+00
 -1.7519580e+00
 -1.8856128e+00
 -4.0555257e-01
  4.0463811e-01
 -2.1941273e+00
  1.6709865e+00
  4.3811852e-01
 -7.1262199e-01
  9.1451174e-01
  3.2767374e-02
  3.2523863e+00
  1.8091290e+00
 -1.3888620e+00
  3.5516205e-01
 -6.9059670e-01
  1.5272803e+00
 -6.0712570e-01
 -9.1833401e-01
  1.3684769e-01
 -1.2563407e+00
  3.2697567e-01
 -1.4572229e+00
  1.4374129e+00
 -1.4461180e+00
  2.4080367e+00
  3.7298065e-01
 -6.1201179e-01
  6.8877465e-01
 -4.7308561e-01
  5.4832172e-01
  9.5342326e-01
  1.6788280e+00
  8.5880339e-01
  1.4099854e+00
 -2.3590228e-01
 -1.2550546e+00
  4.8884615e-02
  2.5890393e+00
  2.8650552e-01
  2.0833573e+00
  5.5666542e-01
  5.9480262e-01
  6.8224633e-01
 -1.0011411e-01
 -3.5375154e+00
  5.0523305e-01
  2.1170051e+00
 -6.7634636e-01
 -1.1616645e+00
 -8.0460738e-03
  3.1322548e-01
 -4.0424100e-01
 -2.2958973e-01
 -2.1285386e+00
 -1.0608667e+00
 -1.6748708e+00
  1.0094688e+00
 -1.3132980e-03
 -2.2208211e+00
  2.3268157e-01
  3.0276814e+00
  4.0062249e-01
  5.3438199e-01
 -2.9529190e-01
  2.5881393e+00
  7.1721786e-01
  3.2687396e-01
 -2.3884274e-01
 -2.7495649e-01
  2.2790360e+00
  2.3975234e+00
  6.2321823e-02
 -3.3787259e-01
 -3.4191084e-01
  1.2216692e+00
  1.1167313e+00
 -1.3300002e+00
  3.2740611e-01
  1.3101214e+00
 -6.5577060e-01
 -2.3608840e+00
 -1.4395541e+00
  3.1502807e-01
  1.0358988e+00
 -2.6104834e-02
  2.1176149e-01
  1.2216758e+00
  2.4326693e-01
 -6.2314290e-01
 -1.4001778e+00
  6.5323532e-02
 -7.5887716e-01
  4.5438254e-01
  2.2599384e-01
 -4.3411374e-01
  3.9268062e-01
 -1.1740819e+00
  3.6338323e-01
 -1.7530978e-01
 -1.4768913e+00
 -8.6683255e-01
 -2.2254083e-01
  1.1846597e+00
 -1.8727134e-01
  7.1926886e-01
  3.1060314e-01
  1.4138816e-01
 -1.5046823e-02
 -1.3890962e-02
  4.2361081e-01
  3.1048456e-01
 -3.2759294e-01
  1.2659080e+00
  9.9072397e-01
  4.3304834e-01
 -1.9703873e-02
  4.5773283e-01
 -4.6121624e-01
  3.3274546e-01
  1.7569938e-01
 -3.0452117e-01
 -5.0826663e-01
  3.6793360e-01
 -1.7914528e+00
 -2.4465604e+00
  1.4994618e-02
  8.9604087e-02
  1.6890641e+00
 -2.0502226e-01
  2.2840396e-01
  2.1490190e+00
 -3.5729104e-01
  3.5306199e+00
 -2.0716724e+00
 -8.5381317e-01
  2.5523846e+00
 -1.1686174e+00
  1.5869250e+00
 -6.0356736e-01
  1.7829994e+00
  2.9456589e+00
  6.2271339e-01
  2.9956656e+00
  4.4737345e-01
 -9.2443430e-01
 -4.3937087e-01
  1.7702533e-01
  1.7131166e+00
 -3.0960481e+00
  1.7564151e+00
  3.3880532e-01
  2.1255976e-01
  6.3459837e-01
 -2.9321986e-01
 -2.4029033e-01
  9.1277313e-01
 -6.4336121e-01
 -1.4233425e+00
 -1.0961720e+00
 -3.9296457e-01
  1.0295128e+00
  1.3826098e+00
  2.4786105e+00
 -3.6971140e+00
 -2.5420657e-01
  3.8001344e-01
 -2.5612241e-02
  1.5841208e+00
 -1.3898591e+00
 -1.7286789e+00
  7.1307242e-01
  1.0113218e+00
  1.8290950e+00
 -4.8708799e-01
 -1.6132053e+00
 -1.1240838e+00
  2.5978389e+00
 -1.6519896e+00
 -1.0233133e+00
 -2.6515062e+00
 -1.3318202e+00
  1.9388616e+00
  7.7159220e-01
 -1.2113280e+00
  7.5753719e-01
  3.4520859e-01
  4.4152278e-01
 -2.2849126e-01
  5.0585663e-01
  4.2505902e-01
  1.0549676e+00
 -8.2285619e-01
 -8.1184947e-01
 -4.8777471e+00
 -5.4672694e-01
 -5.3621286e-01
 -2.0292641e-01
  4.1302967e+00
 -3.5159175e+00
 -2.7478683e+00
  1.3421538e+00
 -8.6718845e-01
 -1.7438167e-01
 -1.8627428e-02
 -1.8178539e+00
  1.3034000e+00
  9.3447529e-02
  1.0749763e+00
  4.2083916e-01
 -2.0813441e+00
 -1.1051913e+00
  2.3519692e+00
  1.2810780e+00
  1.0558895e+00
  6.1882645e-01
 -1.3534279e+00
 -8.9197671e-01
  1.6668092e+00
 -8.0400836e-01
 -1.6497782e+00
 -5.2238524e-01
 -3.7997651e-01
  9.4801649e-02
  2.6014268e-01
 -2.2190522e-01
  1.9191587e-01
 -3.6240321e-01
 -4.5549828e-01
 -7.2493607e-01
  2.0569710e-01
 -1.6722295e+00
  2.5728540e+00
  2.2908953e-01
  1.6430860e+00
  4.6478882e-01
  1.1607919e+00
 -5.1935542e-01
  4.3645301e+00
  5.8785522e-01
  1.2149011e+00
  1.3195622e-01
  1.4883058e+00
 -7.2615254e-01
 -4.3118641e-01
 -2.4577411e-01
  1.2796520e-01
 -1.1258285e+00
 -1.1076343e+00
  1.9458838e+00
 -2.7157268e-01
  9.1698629e-01
 -9.0534531e-02
  8.7041426e+00
  2.5989705e-01
  1.4958990e+00
 -8.5948592e-01
  9.1829967e-01
  1.3357242e+00
 -7.1417630e-02
 -6.9153368e-01
  1.2398258e+00
 -6.2426442e-01
 -3.3641627e-01
  3.5936248e+00
 -3.1169990e-01
 -7.9444039e-01
 -1.5443659e-01
 -1.9953569e+00
 -8.7865847e-01
  2.4321027e-01
  8.9473784e-01
 -8.4007865e-01
 -9.3013555e-01
  2.3418128e-01
 -1.5905151e+00
 -3.7491044e-01
  1.1767160e+00
 -1.7363960e+00
 -1.8782285e+00
 -1.3895636e+00
 -1.4153214e-01
 -2.1508176e+00
  4.8534921e-01
  8.1918573e-01
 -9.4008625e-01
  2.2125629e-01
 -3.7958047e-01
 -2.5410547e+00
  2.7612994e+00
  4.2957851e-01
 -5.4559165e-01
 -8.4998947e-01
 -4.2405225e-02
 -6.9202834e-01
  5.6627280e-01
 -8.0007386e-01
  1.4301547e-01
 -9.2107934e-01
  1.4549555e+00
  2.0032928e+00
  7.5703311e-01
 -9.0649299e-02
 -1.0725880e-02
  1.6842153e+00
  3.7364760e-01
  3.9039226e+00
  7.1671315e-02
 -3.4090084e-01
 -4.6427134e-01
  1.0859820e-01
  7.0770067e-01
  9.1920567e-01
  1.0404174e+00
  8.5238379e-01
  6.0852218e-01
 -3.2524166e-01
 -5.5959427e-01
 -9.9504989e-01
  3.2349703e+00
 -1.3584442e-01
 -1.2573127e+00
  9.5794447e-02
  6.6326505e-01
  1.3547299e+00
  3.8921058e-01
  3.4606840e-02
  3.0654049e+00
  1.0089645e+00
 -7.8516491e-02
 -1.3452778e+00
  5.6846523e-01
 -7.4793905e-02
  3.9181748e-01
  1.8445380e+00
 -3.7512395e-01
 -4.8613602e-01
  6.4299427e-02
  1.3106089e+00
 -6.0545081e-01
 -5.2435774e-02
  1.0673918e+00
  9.9178088e-01
  1.0878776e+00
  4.9479264e-01
  2.8278494e-01
 -1.8640085e-01
  4.3630451e-01
  9.5560342e-01
 -1.4192814e+00
 -7.6022230e-02
 -2.0402354e-01
 -6.2980449e-01
 -1.0157497e+00
  1.2859393e+00
 -2.3965554e+00
  1.3653781e+00
  3.4030196e-01
 -3.3053207e-01
  7.4067396e-01
  3.1966188e+00
 -5.9237963e-01
 -3.6608544e-01
  7.5354075e-01
  1.0657656e+00
 -8.3087653e-01
  5.5343515e-01
 -3.8890798e-02
 -3.4660518e-01
  5.0834095e-01
 -1.8375157e-01
  1.8892254e+00
  2.7770793e-01
 -1.1642618e+00
 -3.1143823e-01
  6.2976462e-01
 -1.0339432e+00
 -1.3913267e+00
  1.6190976e-01
  4.4464636e-01
 -2.5253549e-01
 -3.2709196e-01
  5.7042211e-01
  4.4703591e-01
 -3.8464999e-01
 -1.6468562e+00
  4.9507391e-01
 -3.8033363e-01
 -8.4465063e-01
  1.6317338e+00
 -1.2977148e+00
 -3.6759841e-01
 -1.0015244e+00
 -1.2786783e+00
  7.8043681e-01
 -1.2401639e+00
 -1.7729641e-01
 -1.9492270e-01
  2.2337155e-01
  6.6433728e-02
  7.4305570e-01
 -1.2653475e-01
  7.8697246e-01
 -3.0966411e+00
 -2.7360070e-01
 -8.8402218e-01
  1.3415858e+00
  4.9201363e-01
  1.9708247e+00
 -1.7237911e+00
  4.1407144e-01
  1.8396359e-03
 -4.2355689e-01
  1.1066878e+00
  9.9227357e-01
  9.4548261e-01
 -2.2199473e+00
  3.0940038e-01
 -1.6494734e+00
 -1.2018732e+00
 -1.8896825e+00
 -7.6262450e+00
  1.7032465e+00
 -1.4831594e+00
  8.7006968e-01
  9.5439380e-01
 -4.8570377e-01
 -1.2934949e-01
  5.2371240e-01
  1.0369563e-01
 -2.9673121e+00
  1.0926663e+00
  5.4630846e-02
  6.1412024e-01
 -4.7384089e-01
 -8.7338173e-01
 -1.5851583e-02
 -8.6652601e-01
 -3.8808003e-01
  1.2875216e+00
 -1.0276088e+00
 -3.9455938e-01
  3.2862046e-01
  6.7308152e-01
 -5.9602076e-01
 -3.2948887e-01
 -1.0573697e+00
  5.8625406e-01
 -4.0042096e-01
 -1.3017895e+00
 -1.2926196e+00
 -5.4051632e-01
  7.7902597e-01
  1.1122922e+00
 -5.9319711e-01
 -5.5192685e-01
  5.8532584e-01
  1.5076524e+00
  1.3431112e-01
  6.4216101e-01
 -9.6664691e-01
  9.3692042e-02
 -7.4657148e-01
  2.1344654e-01
 -3.5271013e-01
 -9.2403960e-01
 -8.0812413e-01
 -2.0039108e-01
 -7.5304800e-01
 -2.4802871e-01
  1.1307793e+00
 -1.0252053e-01
 -4.0817559e-01
 -1.0652941e+00
  9.0577877e-01
 -1.8211351e-01
 -1.7068436e+00
  5.9793913e-01
  1.9796146e-01
  1.9133042e-01
 -1.5430523e+00
 -1.2659886e+00
  1.8518680e+00
  3.1510338e-01
  2.4197581e+00
  3.0414860e+00
 -3.3825889e+00
  3.0074365e+00
 -3.4366310e-01
 -2.5163579e+00
  1.6286139e+00
  2.7763504e-01
  1.7310981e+00
 -4.6471164e-01
 -2.7627597e+00
  1.7962930e+00
 -9.7655863e-01
 -6.2113363e-01
 -7.1758974e-01
  7.6113009e-01
 -2.5124536e+00
  1.4332063e+00
 -2.8067225e-01
 -7.9896832e-01
 -5.2233791e-01
 -4.8696715e-01
 -6.3079506e-01
 -6.5094823e-01
 -6.0729039e-01
 -4.2293575e-01
  1.8774129e+00
 -2.7365170e+00
 -2.7244408e+00
  1.8995121e+00
 -5.0260288e-01
 -2.7183256e-01
 -1.8783761e+00
  1.5169372e-01
  9.9790156e-01
 -5.6452876e-01
  1.3173411e+00
 -7.5608212e-01
  8.6493737e-01
  2.4250415e-01
 -7.5322157e-03
  2.3369898e-01
 -9.2082351e-01
 -7.6996005e-01
  5.9862608e-01
  1.7595898e-01
  1.3585323e+00
 -2.8829694e-01
  1.6980332e+00
 -2.6733962e-01
 -6.9425076e-01
  1.2174784e+00
 -2.7665395e-01
  3.2044798e-02
 -8.6423028e-01
 -5.2927011e-01
  3.7983149e-01
 -9.9936903e-01
  3.7142430e-02
 -1.0662335e+00
 -3.1867069e-01
  1.2340704e+00
 -2.3336463e+00
  1.0034380e+00
 -2.2426026e+00
 -2.0829141e+00
  4.9556834e-01
  6.6243553e-01
 -1.6733797e-01
  9.9803162e-01
 -3.7006149e+00
  2.9770916e+00
  1.0356685e+00
 -1.1789804e+00
  1.6878368e+00
 -2.0025406e+00
 -2.0596893e+00
  5.1278776e-01
 -7.2337323e-01
 -2.4841766e+00
 -2.6197240e+00
 -8.5234195e-01
  1.4212061e-01
 -5.9787560e-01
 -7.5857854e-01
 -2.1982050e+00
  6.7972916e-01
 -1.3620574e+00
 -9.6032515e-02
  1.4445556e+00
 -8.0580080e-01
  4.2123091e-01
 -6.8889338e-01
 -2.0869306e-01
 -4.0409368e-01
 -1.4018376e+00
  4.7548178e-01
  1.0960389e+00
  1.9616619e-01
 -1.2244182e+00
 -3.1542644e-01
 -1.0239255e-01
  1.4286485e+00
 -1.1259685e+00
 -9.2889380e-01
 -2.0300563e-01
  1.8146068e-01
 -6.4723976e-02
 -5.5949152e-01
 -3.6250558e-01
  4.4128415e-01
 -8.9745212e-01
  7.6896167e-01
 -5.1076484e-01
 -8.0424309e-01
  4.8435792e-01
  1.0908538e-01
 -5.4059899e-01
 -8.8522661e-01
 -1.0929855e+00
  4.5693141e-01
 -9.3457319e-02
 -3.6492810e-01
 -1.0588676e+00
  9.8725313e-01
  8.3633435e-01
  6.1172736e-01
  8.1685692e-01
  3.4358028e-02
  2.0670310e-01
 -6.1560506e-01
  5.5949157e-01
  1.0313857e-01
 -1.2622524e+00
 -4.3963170e-01
 -4.5574123e-01
  7.5068951e-01
 -4.7343883e-01
 -6.3305730e-01
 -2.0269901e-01
  1.3423455e-01
 -2.1458150e-01
 -1.3140752e+00
  1.7966446e-01
 -8.2422328e-01
 -1.4244020e-01
  4.5618212e-01
  7.2556055e-01
  2.9021555e-01
  1.6552345e+00
 -8.8255709e-01
 -9.8914629e-01
  1.3520647e+00
 -6.0859531e-02
 -3.5752910e-01
 -1.3430598e+00
 -1.8510866e-01
  3.6569193e-02
  1.5715580e+00
 -9.8674381e-01
 -5.0009227e-01
 -3.9610228e-01
  1.7756107e+00
 -1.8802996e-01
  3.3065698e-01
 -1.0900205e+00
 -1.3020748e+00
  3.8225597e-01
 -5.7723486e-01
 -7.1027124e-01
 -5.7457566e-01
 -8.1688392e-01
 -3.6095256e-01
 -4.0589729e-01
 -6.2492102e-01
 -4.0984210e-01
  1.5896060e+00
  1.8333755e+00
  6.8816036e-01
 -1.4266273e+00
  3.9322715e-02
 -5.5635744e-01
  7.5702578e-01
  8.5484588e-01
 -6.5607232e-01
 -2.2614175e-01
  1.7325935e+00
 -2.6595855e-01
  6.1110550e-01
 -8.8640922e-01
  2.8163919e-01
 -8.5081601e-01
  2.3373796e-01
 -5.3807420e-01
  4.0937176e-01
  6.7639410e-01
  2.6179805e-01
  5.5117339e-01
 -1.0721679e+00
 -2.4241801e-01
  2.9339066e+00
  7.7566928e-01
 -8.8037318e-01
 -1.0504475e+00
  9.0128714e-01
 -1.6834247e+00
  2.0851827e-01
  2.0943437e+00
 -5.7814777e-01
 -2.0505209e-01
 -2.9641962e+00
 -1.8028022e-01
 -6.2249458e-01
 -5.7588911e-01
 -1.7130184e+00
 -2.4010269e-01
 -9.3082756e-01
 -2.9018099e+00
 -2.4691924e-01
 -5.3793281e-01
  1.2490144e+00
 -5.0998622e-01
 -1.8771775e-03
 -8.0787432e-01
 -2.7546186e+00
 -1.1060638e-02
  2.7594694e-01
  1.3231561e+00
 -5.1830083e-01
  2.0458424e-01
 -9.4842124e-01
 -9.4422984e-01
 -3.4423053e-01
 -1.6681220e-01
 -8.8145059e-01
  9.7651428e-01
  4.0127772e-01
  2.0812178e+00
 -9.9139333e-01
 -2.0637233e+00
  6.8068260e-01
  6.1899111e-02
 -4.9265626e-01
 -4.0166405e-01
  1.0681553e+00
 -2.5914919e-01
  1.4877068e-01
 -1.8718612e-01
 -4.0068823e-01
 -1.2438479e-02
  1.3492666e+00
 -9.7480351e-01
  8.6342657e-01
  4.5869419e-01
 -2.6904140e+00
 -4.5486197e-01
 -8.9052916e-01
 -5.2571893e-01
 -9.8477238e-01
  1.1278466e+00
 -1.8377039e-01
  9.7542518e-01
 -3.1087869e-01
 -2.0062008e+00
  3.5044312e-01
 -1.1760879e-01
  5.0254434e-01
 -2.9947868e-01
  3.7987447e-01
  7.2633189e-01
  1.0514607e+00
  2.2460616e-01
 -3.6680365e+00
 -1.8631501e+00
  3.8133092e-02
 -1.6539210e+00
  9.9586278e-01
  3.4543353e-01
 -8.9579195e-02
 -2.2222123e+00
 -2.1364245e+00
  6.0580581e-01
 -9.9969465e-01
 -3.7909353e-01
 -8.3610779e-01
 -1.3134749e+00
 -3.8211670e-02
  9.8134500e-01
 -9.8342639e-01
  3.4620035e-01
 -6.6656697e-01
 -4.7211811e-01
  1.7591920e+00
  2.8971372e+00
  1.5973125e-01
 -2.5592606e+00
  1.7737366e+00
  2.7543032e-01
  1.0839206e+00
 -3.1130230e-01
 -1.1371141e-01
  1.0152744e+00
  4.2826030e-01
  6.9540210e-02
 -1.1158189e+00
 -3.7792015e-01
 -8.6969376e-01
  2.1029510e+00
  1.0758767e+00
  4.7696367e-01
 -2.1482108e+00
 -2.9239504e+00
  2.5433967e+00
  2.5969595e-01
 -5.7216969e+00
 -2.2131862e-01
  2.7421374e+00
  1.1758885e+00
 -1.1981636e+00
 -4.3356156e+00
  1.6114447e+00
 -1.3879585e+00
  1.4573579e+00
 -2.8538001e-01
  1.1305496e+00
 -3.1603880e-02
  7.1387112e-01
 -1.7573620e-01
 -6.7576259e-01
  1.1076044e-01
  1.9928787e+00
 -3.5416657e-01
 -2.3590030e-01
  6.8342859e-01
  2.4563813e+00
  2.8585805e-02
  1.0762892e+00
  3.0311027e-01
  3.7644348e-01
  3.9668149e-01
  2.6341782e+00
 -1.5540770e-01
  3.0084403e+00
  1.6023198e+00
 -3.1199038e+00
 -1.4750910e+00
  2.5832248e+00
 -8.3225876e-01
  4.2205748e-01
  7.3433924e-01
 -2.2670043e+00
 -1.7258848e+00
 -1.5265558e+00
  1.3368727e+00
 -1.5645647e+00
 -2.3038909e-01
  1.0846301e+00
 -6.4785194e-01
 -6.5826452e-01
 -2.6586661e-01
  9.2339212e-01
  9.2271304e-01
 -1.1968536e+00
  1.2777552e-01
 -2.6769903e+00
  2.0645678e-01
  1.7633584e+00
 -1.5338473e-01
  2.2350119e-01
 -2.8891629e-01
 -3.2754380e-01
  2.1762899e-01
 -5.0127286e-01
  1.9198690e-01
 -1.7834632e+00
 -2.3051612e+00
  1.5957812e+00
  4.3077680e-01
 -2.0553930e+00
  1.0400496e+00
 -4.0527921e-02
  1.1976353e+00
  1.9525678e+00
 -2.4775929e+00
  7.0856243e-01
 -1.3530921e+00
  1.7821162e+00
  3.5602864e-02
  1.4263589e+00
 -2.9814827e-01
 -8.8396633e-01
  1.7020590e+00
  1.6973444e+00
 -2.8543723e-01
 -1.0371082e+00
  1.7182102e+00
  5.3383350e-01
  6.0715961e-01
 -1.1730689e-01
  1.0687999e+00
 -7.5828689e-01
 -9.0249056e-01
 -2.2637382e+00
 -3.0962253e-01
  7.2841197e-01
 -1.2052922e+00
 -1.7487615e-03
 -3.0660072e-01
 -1.5833892e-02
  1.1105899e+00
 -9.8055476e-01
  9.9698776e-01
 -3.6579683e+00
  1.3225676e+00
  1.2251419e+00
 -4.0425250e-01
 -9.5220423e-01
 -2.7651006e-01
 -2.2246905e-02
  1.6371261e+00
 -2.1534026e+00
 -8.4590620e-01
 -6.2060171e-01
  8.9939159e-01
  1.1388562e+00
 -1.2383765e-01
 -2.8252873e+00
  2.4503927e+00
 -2.2044948e-01
  1.0710675e-01
 -6.0479754e-01
  6.3395631e-01
 -1.9553319e+00
 -3.5821125e-01
  5.9835798e-01
 -9.6513069e-01
  6.1373723e-01
  3.3228333e+00
  1.3296430e+00
 -7.5921816e-01
 -2.3160516e-01
 -2.0560774e-01
 -6.9171387e-01
 -7.5896090e-01
 -5.3468156e-01
 -6.9831336e-01
 -3.7359479e-01
  3.9999235e+00
  1.0987457e+00
  3.7538138e-01
 -8.2272357e-01
 -3.7207570e+00
 -1.1175708e+00
  6.1249053e-01
  2.2600827e+00
 -4.1917644e+00
  2.6460880e-01
  1.0697045e+00
 -8.5855633e-01
  4.9039392e+00
 -9.4723147e-01
 -6.2574160e-01
  2.2598188e+00
 -1.1437859e-01
  1.0210237e-01
  1.6826791e+00
  9.3224412e-01
  2.8420359e-01
 -1.4464022e+00
  1.5844758e+00
 -1.4435079e+00
 -7.7783579e-01
  3.9022129e-02
 -7.9990521e-02
  1.3992071e+00
 -3.3055454e-02
 -2.5304148e-01
 -8.8624871e-01
 -8.1232059e-01
 -3.8752702e-01
 -2.5601325e+00
 -1.8349216e+00
 -1.1877166e+00
 -2.9806495e+00
  3.0259857e+00
  9.0899205e-01
 -5.3866953e-01
 -1.7600428e+00
 -1.1535028e+00
  3.8409150e-01
  4.2319506e-01
  1.3716694e+00
  5.6556123e-01
 -3.2857493e-01
  6.2994051e-01
 -4.6570176e-01
  1.6363385e+00
  1.1493077e+00
 -1.9022593e+00
 -1.8483984e-01
 -1.2145504e+00
  6.8469211e-02
  1.5160402e+00
  2.2562711e+00
  7.3562121e-01
  1.5787812e+00
  2.4717614e-01
  1.6384944e-01
  4.3092847e-01
  2.6172987e-01
  6.5275419e-01
 -5.0955158e-01
  6.8993485e-01
 -1.3231704e-01
 -4.0697464e-01
 -1.9537598e+00
 -2.3102710e+00
  4.6200535e-01
 -1.2650701e+00
 -3.3169103e-01
  1.4451551e+00
 -8.0874068e-01
 -1.8413615e-01
  4.6303454e-01
  1.1946990e+00
  3.2594573e-01
  5.3664517e-01
  2.9500690e+00
 -1.5012498e+00
 -1.5207398e+00
  6.3089104e-03
 -1.6342943e+00
  1.6009465e+00
 -1.9745442e+00
  1.2064440e-01
  1.4615510e+00
 -3.1387159e-01
  7.0455337e-01
  1.5453885e-02
 -3.3898396e+00
 -3.3070529e+00
 -4.5465252e-01
  8.9627057e-01
 -1.5139159e+00
  1.4115316e-01
  3.8013917e-01
 -1.9275430e-01
  9.5747364e-01
  3.8089505e-01
 -1.0345817e-01
 -1.4641348e+00
  1.5692252e-01
  2.5342715e+00
  5.3021628e-01
  3.9940514e-02
  1.5723954e+00
  2.4550333e+00
 -2.5002594e+00
  1.3229715e+00
  8.4881254e-02
  3.1445377e+00
 -4.8221817e+00
  1.0570940e+00
  8.2490999e-01
 -3.6253273e-01
  9.1293079e-01
  2.8042686e-01
  3.6864373e-01
 -3.5965818e-01
  2.3306942e-01
  1.0714108e+00
  1.4039375e+00
 -1.3616980e+00
 -1.3101088e+00
  1.0770105e+00
 -2.3321409e+00
 -1.0392669e+00
  9.1028005e-02
 -3.0826008e+00
  6.9561481e-01
  4.3425288e-02
  5.7760161e-01
  5.3775018e-01
  2.1866696e-01
 -8.9074031e-02
 -4.4929850e-01
  5.4286593e-01
 -9.6565747e-01
 -1.3423485e+00
 -2.1390030e+00
 -2.0246751e+00
  2.1241052e+00
  7.5757140e-01
 -2.7673090e-01
  1.1133813e+00
  2.5688323e-01
 -1.9991344e+00
  5.0193453e-01
 -1.3895223e-01
 -3.7860167e-01
  6.1903518e-01
 -3.0416586e+00
  1.7417767e+00
  1.7740116e+00
 -2.4803164e+00
 -1.8934830e+00
 -7.2780997e-02
  7.6487070e-01
 -1.4033929e-01
 -7.1477503e-01
 -1.3701360e+00
  1.8575008e+00
  5.4560506e-01
 -4.0971253e-02
  3.7658918e-01
 -7.4153727e-01
  3.7855366e-01
 -7.4160948e-02
  4.5982670e-02
  5.0973469e-01
  2.8553712e-01
 -1.1349672e+00
 -5.5595475e-01
 -2.0534008e+00
  4.4420972e-01
  8.1016064e-02
 -8.3147365e-01
 -6.5961474e-01
  9.0678923e-02
  7.8695297e-01
 -3.6296180e-01
  2.5917539e-01
  5.2478373e-01
 -3.2631439e-01
 -3.8254496e-01
  8.0919260e-01
  1.5561106e+00
  1.2841327e-01
  2.3580985e-01
 -7.0215017e-02
 -7.7813941e-01
 -1.7684397e+00
 -7.4535292e-01
  1.7693663e+00
  1.2481540e+00
  2.5029976e+00
 -1.2006960e+00
 -3.9580035e-01
 -5.7998806e-01
 -1.7777781e+00
 -2.3644981e-01
 -5.3107524e-01
  1.4453706e-01
 -2.4317262e-01
  1.4595169e-01
  8.1460804e-01
  1.2511284e+00
 -1.4693649e+00
 -1.2157116e+00
 -5.4342335e-01
 -2.0290247e-01
 -4.5408180e-01
 -6.9670701e-01
  5.3928328e-01
  4.0769501e+00
  3.5183084e+00
  3.6101192e-01
 -2.6910381e+00
  6.8961459e-01
  1.4945627e+00
 -1.4270107e+00
  4.5191658e-01
  1.3948847e+00
 -1.4353360e-01
  6.5806083e-02
 -1.6481464e-01
 -1.0805374e+00
  5.0483167e-01
  1.0153265e+00
  1.3815784e+00
 -1.2843066e+00
  1.8847860e+00
  1.9421642e+00
 -4.5783383e-01
  5.0112653e-01
 -2.8287292e-01
 -6.1668700e-01
 -1.8831398e-02
 -1.2774521e-01
  9.3895417e-01
  1.0124798e+00
 -2.3483474e+00
 -5.6194532e-01
 -1.0576194e-01
 -1.3861990e+00
  7.9898196e-01
 -2.7459857e+00
  1.9379994e-01
  8.1789458e-01
  1.2656859e+00
 -3.9543727e-01
 -1.3046043e+00
 -2.2824130e+00
  7.1098226e-01
  3.2569811e+00
 -3.2011788e-02
 -8.7745029e-01
  2.0904426e-01
  1.1773784e-01
  3.6023445e-02
 -1.3077252e+00
 -7.0742440e-01
 -4.6782824e-01
  4.1336350e+00
  1.0719987e+00
 -6.9574475e-01
 -1.6313556e+00
 -1.1076784e+00
  6.1471142e-02
 -1.7382339e+00
  3.4988475e-01
 -1.8294066e-01
 -1.0678142e+00
  2.9386947e-01
  3.6527741e-01
  4.4752172e-01
 -4.1497669e-01
 -2.4813187e+00
  3.1829479e-01
  5.9676862e-01
  1.4494852e+00
  3.6331528e-01
  7.5634587e-01
  1.4328372e+00
 -1.1290617e+00
  1.1779341e+00
 -4.0355226e-01
  1.9714998e+00
  1.4758903e-01
 -1.5610572e+00
  3.2551068e-01
 -4.4321549e-01
  1.9398926e+00
  1.1194186e+00
 -8.0103141e-01
  6.5074086e-01
 -5.0106788e-01
  7.4352807e-01
 -1.7416586e+00
 -4.5480931e-01
  2.5692081e-01
 -2.0210853e+00
 -1.6506516e+00
 -4.9882233e-01
 -5.2409429e-02
 -2.7822360e-01
 -6.4581037e-01
 -5.1713592e-01
 -3.8030037e-01
  2.5253361e-01
  1.2267343e+00
  6.1916071e-01
 -1.4235715e+00
  9.5957585e-02
 -2.2599847e+00
 -1.4201024e+00
  8.1212217e-01
  8.5249311e-01
  1.0290465e-01
 -9.9579549e-01
 -2.4560716e+00
 -2.6464881e-02
  1.3830951e+00
 -1.1350198e+00
 -9.7094597e-03
 -3.9452314e-01
 -2.8958663e-02
 -3.7112379e+00
 -1.6584186e-01
  2.4757817e+00
 -2.3108783e+00
  1.7164928e+00
  7.7613497e-01
 -2.5861614e+00
 -6.8586469e-01
 -9.7661483e-01
 -5.1974124e-01
 -6.1771840e-01
 -1.5646036e+00
  1.7301465e+00
  1.4891276e-01
 -9.2001063e-01
 -1.1487565e-01
  1.4111631e+00
  6.5704548e-01
  1.1251485e-01
 -3.2569412e-03
  3.3368662e-01
  6.0029048e-01
 -1.4836742e+00
 -1.0079017e+00
 -6.7658710e-01
  9.1267012e-02
 -3.4260267e-01
  7.8020227e-01
  2.8389134e+00
  3.0812976e+00
  6.7284578e-03
 -7.4844319e-01
  5.4168934e-01
  4.7166151e-01
 -1.3614106e+00
  8.3718691e-03
 -4.7364762e-01
  1.3861841e+00
 -3.8003519e-01
  3.5383049e-01
 -3.0163810e-01
  7.6233232e-01
  1.1854184e+00
  7.2398269e-01
 -3.0512682e-01
  1.3540705e+00
 -1.5837806e-01
 -3.2082569e-02
  1.0887353e+00
 -2.4009552e-02
 -6.9528139e-01
 -1.1932870e+00
 -1.0437881e-01
  1.0443428e+00
 -1.8769463e+00
 -1.5095645e+00
 -3.6991968e+00
 -3.4966400e+00
  1.8130881e+00
 -1.8706270e+00
  7.6281205e-02
  1.5965910e-01
  1.9958992e+00
  1.7426842e+00
 -6.7779142e-01
  1.2141179e+00
 -1.7835038e+00
  3.1394979e-01
 -7.4917179e-01
  1.2468265e+00
 -1.5723485e+00
 -9.5179045e-01
  3.2399291e-01
  1.2277869e+00
 -3.0469358e+00
  3.0494437e-01
 -6.1226902e+00
 -7.5534499e-01
 -1.4028499e+00
 -1.7440948e+00
  9.7804290e-01
 -4.9046531e-02
  4.4621381e-01
  1.7528480e-01
  1.8331330e+00
  5.9775066e-01
  9.8112985e-02
  3.2450303e-01
 -5.0085630e+00
 -2.3459806e+00
 -2.1812963e+00
 -5.3445667e-01
  1.9780819e+00
 -1.3468736e+00
 -3.5712800e+00
  7.2418737e+00
 -1.0030483e+00
  1.3216355e-01
  1.9001731e+00
  1.0340647e+00
 -1.0691696e-01
  2.4527898e+00
  1.2889861e+00
  2.6225629e+00
 -1.1499146e+00
  2.5040588e+00
  1.1945424e+00
  1.4716408e+00
  1.6453623e+00
 -1.5630963e+00
  7.0154953e-01
  3.2326391e+00
 -1.5156101e-01
  7.3802316e-01
 -9.5205086e-01
 -1.1897063e+00
 -1.3625437e+00
 -1.8071104e+00
 -7.9442620e-01
  5.3118730e-01
 -7.0527965e-01
 -3.1548581e-01
  1.3888173e+00
 -7.5057578e-01
  1.2531047e+00
 -2.0702782e+00
 -1.2470804e+00
  1.3304280e+00
  1.3100165e+00
  6.9180614e-01
  5.1656705e-01
 -2.0021231e+00
  1.4457513e+00
 -6.5299124e-01
  8.5681826e-02
 -5.3163803e-01
 -3.0889902e-01
  5.3263509e-01
  5.9184748e-01
 -4.0531015e-01
  5.3319860e-01
 -3.0842432e-01
  1.1275007e-01
  1.0704442e+00
 -4.2504331e-01
  1.5745743e-01
  1.4758295e+00
 -6.5825003e-01
  4.4975108e-01
  1.4361019e-01
 -5.7613218e-01
  3.0536857e-01
  1.3735566e-01
 -9.3845767e-01
 -3.8936406e-01
  3.0867830e-02
  4.3130967e-01
 -2.8722301e-01
  3.1099164e+00
  8.1263876e-01
 -1.0825406e+00
  1.6815102e+00
 -5.1716471e-01
 -2.0048098e-01
 -1.0564214e+00
  2.7939863e+00
 -8.5823750e-01
 -3.9117944e-01
 -4.5054647e-01
  2.6260262e+00
  1.7971191e-01
  5.3059828e-01
 -9.2559862e-01
 -4.6806687e-01
  7.5532967e-01
  1.8197970e+00
 -1.1451049e+00
 -3.5591368e-02
  7.5630528e-01
  8.2744539e-01
  4.6541087e-02
 -8.1976300e-01
 -1.2951349e+00
 -2.4479841e-01
 -1.6322167e+00
 -1.9024581e+00
 -4.7757986e-01
 -1.0963002e-01
  2.3079307e+00
  1.6052130e+00
 -5.2462053e-01
  1.1682302e+00
  9.2062819e-01
 -2.1791418e+00
  1.7962919e+00
 -2.7082195e+00
 -1.7579271e+00
 -7.7407658e-01
  1.2348508e+00
  1.8720022e-01
  7.0478427e-01
 -1.1494082e+00
  3.9268103e-01
  3.5008764e+00
 -3.5489879e+00
 -1.0628555e+00
  6.5065920e-01
 -4.7810310e-01
 -5.0984651e-01
  5.1872867e-01
 -1.4783362e+00
  5.4716736e-01
 -8.4460825e-02
  7.0035994e-01
 -2.0256354e-01
 -1.0322758e+00
  1.1801486e+00
  4.7878212e-01
 -3.3326690e+00
  2.1088910e+00
  1.7930379e+00
  7.7045262e-01
  2.7311495e-01
  2.0366678e-01
 -1.9921866e-01
  8.4388632e-01
  4.7059524e-01
 -1.6895305e-01
  3.6532707e+00
  6.1120474e-01
 -2.5280015e+00
 -4.4108513e-01
  1.1485697e+00
 -2.1018393e+00
  3.1824446e-01
 -1.7835028e+00
  8.6520553e-01
  2.5200002e+00
  2.8473322e+00
 -7.5091356e-01
 -3.4122822e-01
  2.0538302e-01
  1.0479086e-01
 -1.5867485e+00
 -1.5058917e+00
 -6.9024193e-01
  7.4482001e-02
  1.2068462e+00
  8.4377593e-01
 -1.6632740e+00
 -1.3541716e+00
 -6.8056595e-01
  1.0767558e+00
 -3.2055834e-01
  1.1674297e+00
 -7.0755589e-01
  2.8254387e-01
  5.9257197e-01
 -4.2284113e-01
 -1.9929934e-02
 -3.4726414e-01
  7.1811497e-01
  3.7130234e-03
 -1.4783638e+00
 -3.0103807e+00
  5.2998263e-01
 -1.9617690e+00
  7.7417892e-01
  1.8308932e+00
  2.6276994e+00
 -1.5568223e+00
 -7.1072382e-01
  5.8086310e-02
  2.3972187e+00
 -2.0695100e+00
 -3.0198188e+00
 -5.9884334e-01
 -8.2722384e-01
  4.1577592e+00
 -1.9520935e+00
  6.6619772e-03
  1.5015301e+00
 -4.1892865e-01
  9.0726310e-01
 -1.4640111e+00
 -1.1260977e+00
  2.2243896e+00
  1.0627458e-01
 -3.9865878e+00
  3.6801925e+00
 -3.3080462e-01
  2.4371037e+00
  2.1589613e+00
 -2.9717454e-01
 -4.9838644e-01
  1.0077869e+00
  1.3439460e-02
 -1.5548319e+00
  3.9121540e+00
  9.8240972e-01
 -4.7507253e+00
 -3.2016516e+00
  1.9088579e+00
 -1.3186053e+00
 -5.5016434e-01
  7.5044709e-01
 -6.1206613e-02
  1.4816268e-01
 -3.3230934e-01
 -4.4262677e-01
  7.0663160e-01
  7.9750735e-01
 -3.2421687e-01
  8.2638377e-01
  8.4612221e-01
 -6.3289738e-01
 -5.3063065e-01
  1.2879630e+00
 -7.2942162e-01
 -1.7275670e+00
  9.5372385e-01
  6.5097892e-01
  2.1451171e-01
  2.8107779e+00
 -7.6235116e-01
  2.1368085e-01
 -3.6768752e-01
 -1.4673902e-01
 -1.5629284e-01
 -1.0576527e+00
  2.0566097e-01
 -4.0265732e-02
  5.2213138e-01
 -1.7266750e+00
 -2.2973861e-01
  6.7246878e-01
 -5.3384864e-01
  1.1820274e-01
  8.0180544e-01
 -4.6171236e-01
  1.4647459e+00
 -7.5784097e-03
 -1.2590741e+00
  3.0327942e-02
 -2.2861519e+00
  7.3208266e-01
  2.3693502e-01
 -4.2058308e-02
  3.9309931e-01
 -9.0389615e-01
 -1.7403364e-01
  8.5619295e-01
 -6.3819289e-01
  1.4999117e+00
  1.3091378e+00
  1.2772462e+00
 -7.7229720e-01
 -5.8485842e-01
 -2.5801697e+00
 -2.3230599e-01
 -1.5940728e-02
  4.6528202e-01
 -3.0711770e-01
  6.3125062e-01
  4.4991040e-01
  6.7421168e-01
 -1.9495389e-01
 -1.4537766e+00
 -3.5821517e+00
  7.5195837e-01
 -8.8150221e-01
  4.6066818e-01
  1.8697360e+00
  5.4458851e-01
  2.3123631e+00
 -2.4291317e+00
 -1.0413904e-01
  7.1206802e-01
  2.9974988e-01
  1.1161119e+00
 -7.1247393e-01
 -5.5129625e-02
  1.2749829e+00
  9.8932385e-02
  4.3080969e+00
 -1.5846908e+00
  2.2558644e+00
 -2.1484971e+00
  1.9432578e+00
  2.0784810e+00
  4.1620812e-01
  8.4290707e-01
  2.1205699e-01
  1.3522379e+00
  1.6803538e+00
  8.2036906e-01
  8.7666541e-01
 -9.9006712e-01
 -5.0427910e-02
  1.2195185e+00
  9.0900399e-02
  2.5096988e-02
  4.6238150e-02
  1.5217770e+00
  1.1673745e+00
 -2.9223769e+00
 -1.7262980e-01
 -2.0222392e+00
  3.7124219e+00
 -5.4437941e-01
 -3.8590205e-01
 -2.1306042e-01
  5.2098137e-01
 -1.8644962e+00
 -2.4691560e+00
 -3.2212257e-01
  1.3549246e-01
  1.9584382e-01
 -7.2091937e-01
  3.6978051e-01
  4.3119544e-01
  3.9693236e-02
 -1.7023716e+00
 -1.9876059e+00
  2.1650739e+00
 -1.1311781e+00
  1.0435970e+00
 -9.9288094e-01
 -2.2700742e-01
  1.3904822e+00
  1.2682215e+00
  7.3918027e-01
  3.7597737e-01
 -1.0192051e+00
  1.4317171e-01
  4.1906065e-01
  6.8834996e-01
 -6.2197477e-01
  6.3806005e+00
  1.3154741e-01
 -1.4756438e+00
 -4.9253574e-01
 -1.7891518e+00
  4.5353041e+00
  9.2404383e-01
 -1.1709694e+00
 -1.2835428e-01
 -3.8938706e+00
  6.9581085e-01
  1.3241326e+00
 -3.1274228e+00
 -1.2611543e+00
 -2.1328824e+00
  1.4730495e+00
 -1.6935701e+00
 -1.2250047e+00
 -1.4962002e+00
 -1.6017897e+00
 -4.6717715e-02
 -1.7965131e+00
  2.3059148e-02
 -2.8125529e+00
 -1.7144246e+00
 -2.0639315e+00
 -1.2812176e+00
  1.3700973e+00
 -4.8841411e-01
 -2.2567500e-01
  7.3396194e-01
 -2.0138323e-01
 -9.0446390e-02
 -1.7118245e-02
  1.1772090e+00
 -1.7072301e+00
 -2.6254556e+00
 -1.5767391e+00
 -2.6400414e+00
  2.0364804e+00
  2.1387827e+00
 -7.8662896e-01
  1.2573928e+00
 -1.7482361e-01
 -5.0584900e-01
  1.2050598e+00
 -1.0530431e+00
  3.9841855e+00
 -1.5135980e-01
 -9.0945415e-02
  1.2592273e+00
  5.0591302e-01
  1.5089557e+00
 -7.3392415e-01
  6.5712029e-01
  5.7567513e-01
  8.1261531e-02
  3.7451941e-01
  1.5292019e+00
 -3.8830283e-01
  7.4679518e-01
  1.2425263e-01
  1.2025462e-01
  2.7647114e-01
  9.2340338e-01
 -2.9454890e-01
 -5.2148128e-01
  1.6078746e-01
  1.4149475e-01
 -1.7037435e-01
 -2.5791684e-01
  7.7839679e-01
  1.5068930e+00
  1.4407971e+00
 -1.5997232e+00
 -3.7478197e-01
  2.5199497e-01
  2.5909164e+00
 -2.6333892e-01
  3.0445680e-01
 -8.3559674e-01
  3.1489792e+00
  1.3921267e+00
  2.5416988e-01
  3.4647052e+00
 -1.3679450e+00
 -4.8869726e-01
 -1.8354859e+00
  4.4075745e-01
  6.6285688e-01
 -3.0317409e+00
  2.8497844e+00
  1.2780012e+00
  1.5012802e+00
 -1.3870065e+00
  1.8704160e+00
  3.0401820e-01
 -2.7146010e+00
 -9.8547086e-02
 -8.4290069e-01
 -6.2498903e-01
 -6.3626510e-01
 -1.0389357e+00
 -4.5694461e-01
 -4.7058612e-01
  1.7124221e+00
  1.4127927e+00
 -1.5902257e-02
 -2.0371840e+00
  2.2852685e+00
 -1.9931667e+00
 -3.4312570e+00
  6.2827343e-01
 -4.5151119e+00
 -2.0925899e+00
  3.3013399e+00
  4.0171542e+00
  1.1457509e+00
  9.7505271e-01
 -1.5308911e+00
  3.0580342e+00
  9.7947769e-02
  5.3151011e-01
 -5.1148381e-02
  2.2052050e+00
  2.1778045e+00
 -6.1066961e-01
  1.1400405e+00
 -1.1729693e+00
  9.8599923e-01
  6.8213660e-01
 -3.4606972e+00
 -3.9369977e-01
  4.4106063e-01
 -1.1903470e-01
 -1.3962185e+00
 -1.4409474e-01
 -8.5576050e-02
 -1.1040472e+00
  8.6198783e-01
  4.3187535e-01
  1.0623069e+00
 -4.2885488e-01
 -4.3891826e-01
  2.5310068e+00
 -5.9769702e-01
  9.0350479e-01
  3.0043241e-01
  1.1585566e+00
  1.1551029e-01
 -3.9941534e-01
  1.2251620e+00
 -1.4276222e+00
  1.6497041e-01
 -1.6722082e+00
 -1.4966811e+00
  1.2863122e+00
 -6.5257174e-01
  1.5728505e+00
 -2.7164134e-01
  2.1512118e-01
  5.5692828e-01
  3.4308243e-01
  6.8828946e-01
 -4.5050225e-01
  2.1905012e+00
  3.7924120e-01
  2.1795173e+00
 -1.0045248e+00
 -9.6450202e-02
 -1.3660502e+00
  3.1231808e-02
  7.7574801e-01
 -1.0282855e-01
  1.0659845e+00
 -4.5313826e+00
 -1.7666499e-01
  8.4670776e-01
 -9.1865087e-01
  7.4245691e-01
 -1.8553101e+00
 -1.0593520e+00
  9.5334697e-01
  1.9628664e+00
  9.5264995e-01
 -8.6308169e-01
  2.7445099e+00
  8.7257761e-01
  3.5035008e-01
 -3.8756603e-01
  2.1601133e-01
  1.0565370e+00
  1.5998213e+00
  7.1757090e-01
  2.4474566e-01
 -2.4566216e+00
  3.0961666e+00
  1.8413136e+00
  3.0386910e-01
 -4.8701447e-01
 -5.5093803e-03
 -2.1656806e+00
  2.0525668e+00
 -1.3891358e+00
  1.3913877e+00
 -1.7025892e-01
  8.8159692e-01
 -1.9208795e+00
  2.5061553e+00
 -1.7630733e+00
 -6.1715770e+00
  8.6682945e-01
 -4.8272654e-01
  9.1751084e-02
 -4.7012577e+00
  2.7586365e+00
 -5.2346915e-01
 -4.2488422e+00
  1.7675661e+00
 -7.8471613e-01
 -2.9048261e-01
  1.8822129e+00
 -3.1124180e-02
 -5.5112743e-01
  5.1006573e-01
  6.1415172e-01
  6.4818537e-01
  2.9778585e-01
 -1.2753296e+00
  5.5054414e-01
  2.6240923e-02
  6.7452204e-01
 -9.0654516e-01
  1.6484795e+00
  2.6893108e+00
 -3.3532343e+00
 -9.0555584e-01
  8.4124136e-01
 -6.2519908e-01
 -3.7400040e-01
  1.1987550e+00
  7.6551777e-01
  1.6159178e+00
  3.1982309e-01
  3.7228413e-02
  6.5249162e+00
  5.7285988e-01
  4.0099394e-01
  1.0555147e+00
  1.0062255e+00
  2.2976193e+00
  2.4569380e+00
 -3.6804874e+00
 -8.3097768e-01
 -5.3180444e-01
  2.0930128e+00
  1.8260310e+00
  6.0346335e-01
 -4.0684006e-01
 -1.2174190e+00
  1.7630141e+00
  5.5766153e-01
 -1.5159739e+00
 -6.9116682e-01
  2.4049790e+00
  1.6384594e+00
 -2.6362946e+00
  6.6556627e-01
  4.5322224e-01
  6.8179536e-01
 -5.2775011e+00
 -8.5903250e-04
  1.3544962e+00
 -9.0330702e-01
 -1.2758588e+00
 -2.3319055e-01
  1.2236298e+00
 -1.1012199e+00
 -5.2264279e-01
 -6.7780547e-02
 -1.7689409e+00
 -3.2320321e+00
  1.8223095e+00
  1.2461636e-01
 -6.6433787e-01
 -3.7390450e-01
 -4.0517774e-01
 -5.3811831e+00
  7.5830328e-01
  2.7242514e-01
 -1.0758989e+00
  4.3037038e+00
 -4.9001947e-01
  4.5674795e-01
  2.1085609e-02
  4.2466245e+00
 -2.6737032e+00
  8.1721431e-01
  1.0618008e-01
 -2.9462895e+00
 -1.2441763e+00
  1.6274905e-02
  1.2435273e+00
  5.3932518e-01
  9.0874332e-01
  6.7560571e-01
  1.3942087e+00
  1.0169504e+00
  1.0678754e+00
 -2.1295926e-01
  5.4490995e-01
 -1.7621801e+00
  7.0753586e-01
  6.0531974e-01
 -7.3524606e-01
 -2.0931826e+00
 -6.7020774e-01
  1.8542809e+00
  9.6690115e-03
 -1.7700491e+00
  1.1367031e+00
  8.7678981e-01
 -8.6929075e-02
  2.8727837e+00
  2.1992488e+00
 -2.3289518e+00
 -5.8713943e-01
  6.7662418e-01
  1.6047437e+00
 -1.0116260e+00
 -4.0328076e-01
  3.9166033e-01
 -2.5509374e+00
  1.1686888e+00
 -3.9269733e-01
 -1.1551254e+00
 -1.6278619e+00
 -1.3630404e-01
 -1.3709755e+00
  6.8446767e-01
  4.4478834e-01
  9.9658765e-02
 -4.6091530e-01
  1.1008621e-01
 -2.2972220e-01
  4.8156330e-01
  9.1892183e-01
 -7.4373847e-01
  3.4399429e-01
 -2.5011531e-01
 -1.8619356e-01
 -3.6140742e+00
  8.1417698e-01
  5.4145050e-01
  2.0504291e+00
 -4.1082177e-01
  1.0252331e+00
 -1.2528708e+00
 -1.5042913e+00
  2.1006112e+00
  5.6965333e-01
 -1.4949201e+00
 -2.7815673e+00
  5.5338299e-01
 -7.4047309e-01
 -1.0957750e+00
  3.7677664e-01
 -5.2523834e-01
  8.6836070e-01
  6.7328399e-01
  2.3274636e-01
  2.2461894e+00
 -2.0167608e-02
  1.2813683e+00
  6.7301402e-03
  9.9710160e-01
 -1.5065746e+00
  4.9152681e-01
  5.4149997e-01
 -5.6320494e-01
  4.6893933e-01
  6.8207300e-01
  9.5862679e-02
  1.2016553e-01
 -1.2627025e+00
 -3.2987335e-01
 -4.3051228e-01
  1.1101062e+00
  2.5544567e+00
 -4.3367643e+00
 -1.4097263e-02
  3.0214717e+00
  2.5157347e+00
  5.5681932e-01
  4.6405995e-01
 -3.7550879e+00
  3.2258732e+00
  1.0038868e+00
 -4.1578943e-01
  1.0179590e+00
  6.3777715e-01
 -3.3919146e+00
  3.1374198e-01
 -8.3185774e-01
 -6.1471885e-01
 -1.3081824e+00
 -9.6357346e-01
 -2.9468338e+00
 -8.4195673e-01
  5.4789042e-01
 -1.1062982e+00
  8.5863870e-01
  1.6846330e+00
 -4.2769367e-01
 -6.5063930e-01
 -8.2915965e-03
  7.3256755e-01
 -4.8216847e-01
  8.5014902e-02
 -5.7597727e-01
 -5.2253942e+00
 -2.7960384e+00
 -2.2264385e+00
 -3.3798373e+00
  7.0487237e-01
 -3.9954998e+00
 -3.8171170e+00
 -1.0378875e+00
 -2.4745345e-01
  4.4245727e-02
 -1.0849760e+00
  2.4088862e+00
  3.2209044e+00
 -6.4420688e-01
  3.1060618e-01
 -8.6435694e-01
  3.5488994e+00
 -3.2070085e-01
  1.9595164e+00
  2.6110384e-01
  1.0148378e-02
  1.6788945e+00
 -6.1329734e-01
  2.4850233e-01
  8.2421321e-01
  1.2943188e+00
 -1.5012174e+00
 -2.7103075e-01
  1.6153541e-01
 -1.9393276e+00
 -2.3454950e+00
  9.9353947e-02
  3.7204775e-01
  3.3080620e-01
  2.6614681e-01
 -1.0166458e+00
  9.4014667e-03
  1.0480287e+00
  1.5845741e+00
  2.7921653e+00
  6.8871701e-01
  1.0187975e+00
 -1.2526340e+00
  4.4132093e-01
 -2.5292069e-01
 -5.1374006e-01
  4.2940521e+00
 -8.4458554e-01
 -4.0648422e+00
  2.6818487e-01
  1.0960776e+00
  1.9418806e+00
  3.5364932e-01
  6.4774412e-01
  1.1203669e+00
  5.3642613e-01
  5.9746540e-01
 -1.5640552e-01
 -7.9790825e-01
  2.2098982e+00
 -7.7416790e-01
 -9.8056179e-01
 -6.7003262e-01
  2.0786960e+00
  1.1979896e+00
  5.2164406e-01
 -9.2406434e-01
  1.6271773e-01
 -8.8314700e-01
  2.3196128e-01
 -3.6136746e-01
 -8.2402045e-01
  1.7835779e+00
  5.3510153e-01
 -5.4696923e-01
 -8.1366915e-01
  3.1711704e-01
 -2.1376665e+00
 -1.7541191e-01
  2.4820592e-01
 -6.4627045e-01
  2.2422509e+00
 -5.4103756e-01
 -4.1447648e-01
  6.7163065e-02
 -3.0275064e+00
  1.8562635e+00
 -3.0991614e-01
  1.5263140e+00
  1.9486630e-01
  2.6129208e+00
 -3.4497478e+00
  2.3504362e+00
 -5.3054792e-01
 -8.5388809e-01
 -4.2495024e-01
 -4.3022170e+00
  9.0473905e-02
 -9.7145379e-01
  1.0156835e+00
 -5.6949362e-02
  1.2008653e-01
 -2.3206401e+00
  4.9864584e-01
 -7.0115721e-01
 -2.2707412e-01
 -5.9436601e-01
 -1.9880780e+00
  2.0992794e+00
  2.0707984e+00
  3.4215608e-01
 -2.9102089e+00
 -9.5101735e-03
  5.2397076e-02
 -1.7509154e+00
  8.8328969e-01
  8.4951890e-01
 -1.9557683e+00
  1.2043698e+00
  6.3160729e-01
  1.4106314e+00
 -2.1077371e+00
 -3.1447499e+00
  8.7013823e-01
  9.2767864e-01
  2.8005438e+00
 -3.0807643e+00
 -4.5844024e-01
  1.7767143e-01
 -1.5737684e+00
  6.0197558e-02
 -1.3206447e+00
  3.7599367e-01
  1.0614381e+00
  5.6490481e-01
 -4.6321413e-01
 -1.4642105e+00
 -7.1474232e-02
  6.1298454e-01
 -3.4849736e-01
  6.3335185e+00
  2.9108036e+00
 -5.7423460e-01
  2.8798831e-01
  6.7887741e-01
  1.0964452e+00
  1.0003649e+00
 -3.3517179e+00
 -9.1978198e-01
 -4.9101233e-01
  4.4256330e+00
  1.7858105e+00
 -5.2981853e+00
 -4.2699468e-01
 -2.3278520e+00
  2.8787267e+00
 -1.2636987e+00
 -2.0960555e+00
  1.8384334e+00
 -1.4922632e+00
 -1.0186769e+00
 -2.0139644e+00
  5.3049474e+00
 -5.4037583e-01
 -2.3671050e-01
  1.7464659e+00
  1.2261082e+00
  3.2475337e-01
  1.0705386e-01
 -9.4278371e-01
 -1.6091508e-01
 -5.7559860e-01
  3.4138614e-01
  5.8742350e-01
  8.6980931e-02
 -2.3423107e+00
 -1.8527517e+00
 -3.3513017e+00
 -1.5007219e+00
 -1.3540921e+00
 -3.3424285e-01
  2.6219022e+00
  2.4191079e+00
 -6.2850714e-02
  1.6537240e+00
  3.5204831e-01
  5.1589150e+00
  1.8595973e-01
 -3.6491027e-01
  9.5395356e-01
 -2.4987719e+00
 -1.7389869e-02
 -3.9724526e-01
  5.0679135e-01
  3.6839900e+00
 -3.9434561e-01
  1.6484482e-02
 -4.8446354e-01
  1.7009887e+00
 -1.9725273e+00
  4.6393566e+00
 -6.8663657e-01
  1.3972845e+00
 -1.7019165e-01
 -1.5911852e+00
 -5.7902980e-01
 -2.6340640e-01
 -1.1681271e+00
 -1.4169345e+00
 -9.1841978e-01
 -1.4895475e+00
  1.2663175e-01
  4.9272937e-01
  7.2207773e-01
 -2.5594995e+00
 -9.6916169e-02
  4.8662829e-01
  1.9265518e+00
  1.1661901e-01
  7.1371818e-01
 -2.8700957e+00
  1.4011979e+00
 -1.2579356e+00
 -9.0049036e-02
 -1.9432379e-01
 -1.0069704e+00
 -8.6944216e-01
  5.8128852e-01
  1.3581953e+00
  3.2308221e-01
  6.9481051e-01
  7.8387862e-01
  6.9449288e-01
 -1.6537600e+00
 -1.7863905e+00
  8.8586432e-01
 -3.6086422e-01
  4.1601211e-01
 -6.6201091e-01
 -4.8773482e-01
 -3.5371765e-01
  3.9241236e-01
 -1.6911540e+00
  1.7569877e-01
  6.5113670e-01
  2.3252997e+00
  4.5786762e-01
 -1.3126867e+00
 -2.0257328e+00
 -1.4000618e+00
 -4.5096570e-01
 -1.8993926e+00
 -2.9205480e+00
  2.2975886e+00
 -1.1245725e+00
  2.1804984e+00
  5.1529700e-01
 -1.6842963e+00
 -1.9597251e+00
  9.9199027e-01
 -9.5718271e-01
  1.5138561e+00
  2.1306774e-01
  1.2759665e+00
  2.2041116e+00
  4.1145625e+00
  6.1248595e-01
 -3.2713357e-01
 -9.5473891e-01
 -8.6265363e-02
  2.2083503e-01
 -1.5328596e+00
  2.2910199e+00
 -2.8851550e+00
 -9.2518193e-01
 -3.3911756e-01
  4.2338175e-01
  7.5078231e-01
  2.6361564e-02
 -9.7427464e-01
  1.2946905e-01
 -6.2279677e-01
  8.0921078e-01
 -5.0322771e-01
  8.8642180e-01
  1.6744543e+00
 -1.2911987e-01
  6.0249358e-01
 -2.9814649e-01
  1.1562067e-01
  3.8913059e-01
 -2.0127108e+00
 -1.4882115e+00
 -2.9802606e+00
 -3.1007206e-01
  8.2251483e-01
 -4.0038667e+00
  2.3296980e-02
 -1.3902009e+00
 -7.9195261e-01
 -3.9342901e-01
 -8.1882578e-01
  9.2035860e-01
 -1.0215210e+00
 -1.4788556e+00
 -1.2184795e+00
 -1.6732576e+00
  9.2579819e-02
 -1.2739153e+00
  1.9000870e-01
  2.9579347e-01
  5.3579159e-02
 -1.7542983e+00
 -5.0043321e+00
  1.9856198e+00
  3.8477817e+00
  1.1959914e+00
 -3.3442140e-01
 -1.6667165e+00
 -9.0736628e-01
  7.6096112e-01
 -1.9422938e+00
 -2.0417137e+00
 -1.1279436e+00
 -1.2635790e+00
  2.5384748e-01
 -1.3833144e+00
 -8.2225215e-01
 -8.0648702e-01
 -4.0035012e-01
 -3.1000471e+00
  2.6395602e+00
 -8.7886691e-01
 -5.9432995e-01
  2.2081754e+00
 -2.5671587e+00
 -1.5989760e+00
 -1.5882263e+00
  6.1036099e-02
  2.2680089e+00
 -2.9923410e+00
  2.1389458e+00
 -2.4506662e+00
  6.5236442e-02
  1.7293668e+00
 -6.8498150e-02
 -3.4340891e-01
  1.3287636e+00
 -7.6810920e-01
  6.1295640e-01
  4.6602318e-01
  3.1638065e-01
 -1.0669441e+00
 -9.2285532e-01
  7.3382413e-01
 -3.1540859e-01
  6.7215002e-01
  1.8618817e+00
 -4.9343684e-01
  6.4908892e-01
 -2.2421947e+00
  3.3850899e+00
  3.6129758e-01
 -6.6502267e-01
  2.6453939e-01
  4.7769600e-01
 -1.0495572e-02
  1.0844221e+00
  8.1137288e-01
  4.4275045e-01
 -1.0223583e+00
  1.4038444e+00
  1.3719923e+00
  2.0162530e+00
 -5.9420246e-01
 -9.9733406e-01
  9.2667347e-01
 -5.9724802e-01
  2.4550416e+00
 -6.8940258e-01
  3.6994278e-01
 -5.3132600e-01
 -8.3441865e-01
 -2.6653472e-01
 -3.0017021e-01
  1.3364156e+00
 -2.8449605e+00
  2.5691555e+00
 -2.3348830e+00
  1.2644950e+00
  3.2985505e-01
  1.7901940e+00
  1.0938648e+00
 -8.9730299e-01
 -5.5725837e-01
  2.2172618e+00
  1.4543210e-01
 -3.3622375e+00
 -1.1456326e+00
 -4.4866061e-01
 -7.5295740e-01
 -2.4943235e+00
 -3.9705256e-01
 -1.1693733e+00
  1.2377242e+00
  6.2893935e-02
 -1.3769985e+00
 -2.1220181e+00
 -1.1515712e+00
 -1.9240813e-01
  9.9610227e-01
  1.3195090e+00
  1.0544305e+00
  3.4386986e-01
 -1.9236209e+00
 -2.2306678e-01
 -3.3212456e-01
  1.0419450e+00
  5.1718992e-01
 -1.1014201e-01
  4.1409135e+00
  2.7085309e+00
 -2.4179175e+00
 -2.7374086e-01
 -2.2276887e-01
 -5.8954006e-01
 -1.5633062e+00
  1.1356878e+00
  4.1702116e-01
 -4.5951584e-01
  1.5210202e+00
 -1.6133468e+00
  9.0630728e-01
 -1.1684867e+00
  2.5700963e-01
 -1.8529478e+00
  6.0921180e-01
  2.6399858e+00
 -1.1621884e+00
 -3.3851773e-01
 -9.1603786e-01
 -7.1655512e-01
  5.2359384e-01
 -2.6104939e-01
  1.7739838e+00
  1.1789511e+00
 -4.0485561e-01
 -3.1037423e-01
  2.2030024e-01
 -2.1776222e-01
  4.7089044e-02
 -9.9405237e-02
  4.4999197e-01
  1.9965256e+00
 -5.9797949e-01
  1.1824260e-02
 -3.9045436e+00
 -2.9490228e+00
 -1.2043461e+00
  1.9650869e+00
  6.0324993e+00
 -3.7759330e+00
  2.3332675e+00
 -2.7310240e+00
 -2.6729100e+00
  1.2424544e+00
  3.7647924e-01
  1.9357103e+00
 -1.1276995e+00
 -1.8082530e+00
 -2.0453722e+00
  1.2051632e+00
  3.8281354e-01
 -1.0866320e-01
  1.4825686e+00
  1.8608799e+00
  6.9634654e-02
  2.9720168e+00
 -1.3841420e+00
  1.2009065e+00
 -1.0120013e+00
 -2.7108815e+00
 -9.6880573e-01
 -4.5215514e-01
 -1.5265434e+00
  2.7039906e-01
  1.1030986e+00
 -1.9253200e-01
 -1.6936626e-01
 -4.3585548e-01
 -5.0290017e+00
 -7.8743011e-01
 -2.5599523e+00
 -1.8071844e-01
 -1.6606485e+00
 -1.3597054e+00
 -8.7176007e-01
 -2.0535989e+00
 -1.2599891e-01
  1.3197154e-01
 -3.6131063e+00
  7.3978180e-01
  3.4365256e+00
 -3.9615116e-01
 -8.0870736e-01
 -1.0605226e+00
 -1.5879054e+00
 -1.1933253e+00
 -2.0022647e-01
  3.7161601e+00
 -1.8102753e+00
 -4.9108243e-01
  5.9429544e-01
 -3.4987009e-01
  2.1958838e+00
  1.6865516e+00
 -2.2764359e+00
 -2.9807198e-01
  7.3954064e-01
 -1.8325669e+00
  3.1035274e-01
  8.1051487e-01
  4.9328333e-01
  2.2126748e-01
  5.1656073e-01
 -1.2438599e-01
  1.3194493e+00
 -8.3410287e-01
 -8.1867093e-01
 -3.6814880e+00
 -1.8928436e+00
 -8.6963886e-01
 -1.0997934e+00
  6.0873973e-01
 -6.1074901e-01
 -9.4535673e-01
  1.3524784e+00
  1.0647582e+00
 -1.5084282e+00
  5.4042566e-01
  8.3112764e-01
  2.8263861e-01
  1.1988771e+00
  9.2737001e-01
  2.8086348e+00
 -2.5764308e+00
  1.8573815e+00
 -1.6269275e+00
  5.2368540e-01
 -1.1045684e+00
  1.4407010e+00
 -3.4637323e-01
  3.8709033e-01
  5.1103169e-01
 -2.9803894e+00
  7.1998495e-01
  9.0484309e-01
 -7.2213423e-01
 -5.4797029e-01
 -1.4600477e+00
 -5.1014771e+00
 -3.5157459e+00
  3.8476505e+00
  3.7304227e+00
  4.3939700e+00
  3.0255830e-01
 -1.2808350e+00
 -1.4186928e+00
  2.2534859e+00
 -1.6925004e+00
  1.5093132e+00
  9.4849426e-01
 -2.2457581e+00
  2.9726889e+00
 -5.3556287e-01
  5.5279750e-01
  2.2987845e+00
  2.1749504e+00
  7.4260297e+00
  3.7631681e+00
 -1.0272626e-01
  3.9288397e+00
  8.4979880e-01
  6.2303114e+00
 -1.0892110e+00
  8.0306256e-01
  2.6779721e+00
 -2.0693855e-02
 -1.0977188e-01
 -1.0215075e-01
 -4.1403165e-01
  2.8734775e+00
 -1.4256288e-01
 -5.4187275e-02
 -3.1373245e-01
 -1.3265818e+00
  9.6218210e-01
  2.8805308e+00
  7.7988595e-01
  1.6610408e+00
  4.7902259e-01
 -1.9783865e+00
  5.5067444e-01
  9.2421365e-01
 -1.2593231e-01
 -9.0212470e-01
 -1.7314899e+00
 -1.8559319e+00
  2.0814499e-01
 -7.5647867e-01
  4.0807715e-01
  1.0340952e+00
 -2.3846486e+00
 -1.1154221e+00
  1.0661556e+00
  2.2527277e+00
  1.9977466e+00
  2.2448833e-01
 -1.1757537e+00
  1.8533805e-01
 -2.0455208e-01
 -3.9704456e+00
 -1.2579648e+00
 -5.3232384e-01
 -8.0824912e-01
  1.6184734e-01
  1.9976437e-01
 -1.4076374e+00
  1.4394957e-01
  6.6806847e-01
 -5.2337104e-01
  7.7443081e-01
  2.1146839e+00
  1.4551296e+00
 -1.5015672e+00
  1.1182140e+00
  8.5571963e-01
  1.6058364e+00
  7.3980838e-01
 -3.8069425e+00
  2.0700023e+00
 -1.5845991e+00
  1.3522153e+00
  1.0089216e+00
 -2.9489260e+00
 -5.0812930e-01
 -1.5236875e+00
 -1.5580924e+00
  1.5351491e-01
 -2.1867795e+00
  3.6358423e+00
 -3.4577026e+00
 -1.1846728e+00
 -8.9603907e-01
  1.9494195e+00
  8.4093314e-01
  2.1096661e+00
 -1.8056558e+00
 -1.7742087e+00
  1.7921704e+00
  2.5094810e-01
  1.6093664e+00
  1.5881943e+00
  7.1539277e-01
  1.8738855e+00
 -8.1698596e-01
 -7.8541952e-01
 -1.3169978e+00
 -9.0322953e-01
  1.7143581e+00
  1.2234856e+00
 -4.0525565e-01
  1.1287098e+00
  7.7660620e-01
 -5.7007536e-02
  1.0674268e+00
 -3.6985487e-01
  1.0776500e+00
 -1.1590520e-01
 -7.9959780e-03
 -1.5700673e+00
  1.9654367e+00
 -1.2248187e+00
  2.3232737e-01
 -1.4165535e+00
  2.5424513e-01
  2.5788815e+00
  4.1709706e-01
  1.9439510e-01
  7.7884579e-01
  1.3776015e+00
 -3.9889733e-03
  7.3625863e-01
  2.5314200e+00
 -2.6645160e-01
 -3.5982609e-01
  8.8885552e-01
  7.4067640e-01
 -1.0457901e+00
  1.4765160e+00
 -5.0805533e-01
 -1.8633820e+00
 -1.7008932e+00
 -4.4406407e-02
 -3.5262852e+00
 -1.0231334e+00
 -2.1940718e+00
 -2.5550446e-01
  1.8265827e-01
  7.6164043e-01
  2.8316516e-01
  1.2746551e+00
  3.1266126e-01
 -8.2905364e-01
  3.0984217e-01
  4.1094145e-01
  8.3386439e-01
  8.7939000e-01
  1.9344169e-01
  7.3346949e-01
 -8.9547163e-01
  1.1394470e-01
 -1.3920655e+00
  4.4009247e-01
  2.8536683e-01
  4.7084618e-01
  3.5382870e-01
  3.7721685e-01
 -1.4707771e-01
  2.7519732e+00
 -4.7204423e-01
  5.3326994e-01
 -3.5718396e-01
  5.8164430e-01
 -3.6795902e-01
 -7.1439999e-01
  1.3455259e+00
  5.4427063e-01
  1.5702186e+00
  2.9046702e-01
 -2.0336723e-01
 -7.7539998e-01
 -2.4504039e+00
  1.5403022e-01
 -6.8984598e-01
  1.2111543e-01
  3.0331710e-01
 -4.3585294e-01
 -1.3959686e-01
 -3.2858171e+00
 -6.3818026e-01
  3.2792026e-01
 -1.6706344e+00
 -4.4033116e-01
  5.6795430e-01
  5.9847772e-01
  2.6264697e-01
  5.8685464e-01
 -1.5829498e+00
 -7.2439831e-01
 -6.5237153e-01
  5.4240716e-01
  5.5711943e-01
  6.4389724e-01
 -6.0971493e-01
 -1.7857696e+00
 -1.8834169e+00
 -6.1890680e-01
 -4.6391127e-01
  6.7381251e-01
  3.1284598e-01
 -4.5568794e-01
 -7.4652207e-01
 -7.6326197e-01
 -2.9343572e-01
  3.3181435e-01
  8.4226686e-01
 -3.9502558e-01
 -7.0986032e-01
 -3.4260026e-01
  4.5533544e-01
 -4.1485795e-01
  2.8916893e+00
  2.4607474e-01
 -1.2152592e+00
  9.8082042e-01
 -9.4176668e-01
 -2.3389789e-01
 -2.9837883e+00
 -1.9881795e-01
  1.9953094e+01
 -2.1220167e+00
 -3.5058734e+00
  3.0018988e+00
  1.4276818e+00
 -6.6946158e+00
 -2.5465055e+00
  3.0429623e+00
  5.4183216e+00
 -7.7619028e-01
 -3.4969118e+00
 -7.3016191e+00
 -1.7222154e+00
  2.2435218e-01
 -3.9881647e+00
  5.6196856e-01
  4.2658553e+00
  7.4812281e-01
  3.0529532e+00
  7.1321678e-01
  1.8191031e-01
  8.2629174e-01
 -7.4728590e-01
  2.8126163e+00
 -7.1271653e+00
 -3.1795254e-01
  4.5599957e+00
  5.0689363e+00
 -1.7577537e+00
 -1.3091168e+00
 -1.7473332e+00
  1.1585722e+00
 -7.1945560e-01
 -1.5810995e+00
 -1.0224848e+00
  3.5712593e+00
  3.8867342e+00
 -9.0598041e-01
 -2.1763539e+00
  1.1146898e+00
  6.4989619e+00
  5.4564571e+00
 -3.5949869e+00
 -6.0180402e+00
 -2.1255903e+00
  2.0921965e+00
  1.4204311e-01
  3.1496754e+00
 -4.4526401e+00
 -2.9995444e-01
  3.6035011e+00
  5.2702713e-01
  7.4935865e-01
  1.7975729e+00
  1.3592644e+00
 -1.8973451e+00
 -4.0920115e+00
  6.5448780e+00
  4.2657018e+00
 -2.9347482e+00
 -3.3474650e+00
 -1.6215163e+00
 -7.0250326e-01
 -8.5809392e-01
  1.2769005e+00
  8.3281412e+00
 -1.0009906e+00
 -4.9237709e+00
  1.6992534e+00
  4.6613688e+00
  4.7011173e-01
 -3.4016671e+00
 -1.5866208e+00
 -1.3080939e-02
  2.4487374e+00
  4.1649094e-01
 -3.2598469e-01
 -2.1584206e+00
  1.6456582e-01
  3.2323938e-02
  8.5349256e-01
 -1.2260854e+00
 -3.2826703e+00
 -4.5743780e+00
  1.9408752e+00
  1.5254618e+00
 -2.0270345e+00
  1.6816525e+00
  4.4447951e+00
  1.4934634e+00
 -2.3296809e+00
  4.1251560e-03
  4.1251560e-03
  4.1251560e-03
  4.1251560e-03
  4.1251560e-03
  5.2743582e-03
  5.2743582e-03
  5.2743582e-03
  5.2743582e-03
  5.2743582e-03
  4.1027446e-03
  4.1027446e-03
  4.1027446e-03
  4.1027446e-03
  4.1027446e-03
  2.3731452e-03
  2.3731452e-03
  2.3731452e-03
  2.3731452e-03
  2.3731452e-03
  1.4660439e-03
  1.4660439e-03
  1.4660439e-03
  1.4660439e-03
  1.4660439e-03
  7.1759237e-04
  7.1759237e-04
  7.1759237e-04
  7.1759237e-04
  7.1759237e-04
  5.9611837e-05
  5.9611837e-05
  5.9611837e-05
  5.9611837e-05
  5.9611837e-05
