nep4_zbl 1 C 
zbl 1 2
cutoff 6 5 44 34
n_max 4 4
basis_size 8 8
l_max 4 2 1
ANN 80 0
  2.3627055e+00
  3.3956907e+00
 -1.4601373e-02
 -1.6268597e+00
  2.3179328e-01
 -3.8824703e-03
 -1.4905810e+00
  5.8399498e-01
 -4.7716677e-01
  6.5964782e-01
 -8.0015995e-02
 -1.4217652e+00
 -1.0998055e+00
  2.0158136e-01
  1.8261579e+00
 -6.5565246e-01
 -1.3126246e+00
 -2.2559988e+00
  9.7981328e-01
  1.7232374e+00
 -9.2194176e-01
 -8.2274652e-01
  8.9314830e-01
  2.0515430e+00
 -5.5681497e-01
 -1.0233904e-01
 -1.1729572e+00
  8.5219974e-03
 -5.2236754e-01
  1.2458407e+00
 -5.0781399e-01
  1.2888110e-01
  1.7785953e-01
 -8.7170750e-01
 -1.8878263e+00
  1.4832000e+00
  1.1143335e+00
  3.0926414e+00
 -1.3640249e+00
  1.0392592e+00
  1.2386760e+00
  2.0639124e+00
 -3.0184493e+00
  1.3983837e+00
 -1.2091882e+00
  2.1747608e+00
  9.4811159e-01
 -9.5113665e-01
  5.7092440e-01
 -8.7333632e-01
  2.0721507e+00
 -2.7893186e+00
 -1.7490867e+00
 -1.9122511e+00
 -3.3355993e-01
  4.2144954e-01
 -2.0410457e+00
  1.6625998e+00
  4.8033151e-01
 -7.2547138e-01
  9.2492205e-01
  3.1183435e-02
  3.2549040e+00
 -1.4596044e-01
 -1.2895736e+00
  3.5040465e-01
 -7.0660365e-01
  1.6833465e+00
 -9.9899866e-02
 -1.0134686e+00
 -3.2556444e-01
 -1.2170365e+00
  3.3530983e-01
 -1.3218248e+00
  1.3775343e+00
 -1.4437802e+00
  2.6777165e+00
  1.1748051e-01
  7.0065272e-01
  8.7512231e-01
 -4.1703981e-01
  5.8415163e-01
  4.5943817e-01
  1.9626343e+00
  7.5655288e-01
  1.2267878e+00
 -2.6542684e-01
 -1.4355028e+00
  4.8268545e-02
  2.5938485e+00
 -1.3102716e-01
  1.5713238e+00
  8.9896435e-01
 -2.3994312e-01
  8.5455596e-01
 -1.1751357e-01
 -3.5397477e+00
  9.6326905e-01
 -4.2998543e-01
 -9.0196556e-01
 -1.1242473e+00
 -6.6218877e-01
  8.0652726e-01
 -1.0390857e+00
  2.3360288e-01
 -2.1292922e+00
 -1.0617284e+00
 -1.6765568e+00
  4.3619460e-01
  4.2408016e-03
 -2.2259173e+00
  2.2751009e-01
  3.0315435e+00
  3.6946541e-01
  4.3747553e-01
 -3.0551723e-01
  2.6054642e+00
  7.8409433e-01
  1.7651273e-01
 -2.2078563e-01
 -2.7526611e-01
  2.2983305e+00
  2.3995295e+00
  6.9752708e-02
 -3.2997414e-01
 -3.3323562e-01
  1.3066528e+00
  1.1181968e+00
 -9.1881728e-01
  3.0959380e-01
  1.3345948e+00
 -1.0498561e+00
 -2.1214325e+00
 -1.4811709e+00
  1.3079910e+00
  1.0652161e+00
  7.2206020e-01
 -8.7376639e-02
  1.2494549e+00
  3.0264691e-01
 -6.7441636e-01
  1.1396731e+00
  1.6000989e-01
 -2.1874731e+00
  4.9786901e-01
  2.5696188e-01
  4.2496896e+00
  9.4122016e-01
 -1.0265912e+00
  3.6918703e-01
 -2.2619857e-01
 -1.5068452e+00
 -1.5736387e+00
 -1.6547187e-01
  1.1618638e+00
 -1.7557284e-01
  6.9492900e-01
  1.9221297e-01
  7.6409310e-01
 -3.0180517e-01
 -1.2685130e+00
  4.3557605e-01
  4.8738843e-01
 -3.7688947e-01
  1.4491354e+00
  9.5481527e-01
  4.4517305e-01
 -2.3192309e-01
  3.0673322e-01
 -5.5978352e-01
  1.0292856e+00
 -1.7712316e-01
 -7.2530317e-01
 -1.7756213e-01
  5.0805521e-01
 -1.7783283e+00
 -2.5883827e+00
  6.9069964e-01
  1.3376556e-01
  1.6578488e+00
 -2.5596604e-01
  3.1126490e-01
  2.1523740e+00
 -3.5504606e-01
  3.5345602e+00
 -2.0575275e+00
 -1.9587117e-01
  2.7606366e+00
 -1.1043880e+00
  1.5938829e+00
 -6.2119770e-01
  1.7832137e+00
  2.9460731e+00
  6.6688287e-01
  3.0529711e+00
  4.5103648e-01
 -7.8244752e-01
 -6.2406844e-01
  7.8205884e-02
  1.6705824e+00
 -3.7326417e+00
  4.4020638e-01
  3.9610153e-01
  2.5463879e-01
  6.7232370e-01
 -2.1357635e-01
 -2.1938889e-01
  9.6146870e-01
 -1.1468791e+00
 -1.3070062e+00
 -1.1836621e+00
 -3.9339787e-01
  1.0356042e+00
  1.4004933e+00
  2.5915487e+00
 -3.6664274e+00
  2.0429121e-02
  7.8126055e-01
 -2.2227909e-01
  1.5573980e+00
 -5.0698638e-01
 -1.6946830e+00
  1.7545429e+00
  9.5943427e-01
  1.5169860e+00
 -5.3012383e-01
 -1.6379353e+00
 -8.8861024e-01
  2.5924423e+00
 -1.6454033e+00
 -1.1166778e+00
 -2.6535606e+00
 -1.3196458e+00
  1.9899319e+00
  8.9607382e-01
 -1.3639146e+00
  6.5361178e-01
  3.2158679e-01
 -1.1473650e+00
  3.7041247e-01
 -4.2543611e-01
  4.7185799e-01
  4.8013288e-01
  1.3199902e-01
 -1.1364059e+00
 -4.8714085e+00
 -4.7924113e-01
 -4.4905066e-01
 -8.5089725e-01
  2.5435228e+00
 -3.5963266e+00
 -2.7471864e+00
  1.3637911e+00
 -2.9302013e-01
 -1.0435002e-01
 -3.1898506e-02
 -1.8413520e+00
  1.5033345e+00
  6.2074906e-01
  1.0728798e+00
  2.5667453e-01
 -2.0928502e+00
 -1.0673742e+00
  2.3545234e+00
  1.0508318e+00
  1.0462705e+00
  6.3441950e-01
 -1.3660681e+00
 -8.8884342e-01
  1.6575229e+00
 -7.6775026e-01
 -1.6492879e+00
 -8.5730273e-01
 -4.5464948e-01
  1.2006519e+00
 -5.2138865e-02
 -2.5651035e-01
  7.8302032e-01
 -2.9710487e-01
 -1.5143485e-01
 -4.4255030e-01
  1.5771665e-01
 -8.9436525e-01
  2.5675159e+00
  2.7565870e-01
 -1.8419700e+00
  4.8434284e-01
 -1.9972470e-01
 -6.7925608e-01
  3.2890928e-01
  5.8523655e-01
  1.6799457e+00
  1.6597745e+00
  1.0249488e+00
 -4.9826774e-01
 -4.1437921e-01
 -6.4240682e-01
 -2.8829893e-01
 -1.0013543e+00
 -1.4429291e+00
  2.0210536e+00
  3.1693462e-01
  1.0149773e+00
 -8.3191194e-02
  3.5533085e+00
  1.5678477e+00
  1.4882466e+00
 -1.4946538e+00
  9.2446268e-01
  1.2362800e+00
 -1.7634195e-01
 -1.1125894e+00
  3.2285756e-01
 -9.1635400e-01
  1.1619877e-01
  3.5882716e+00
 -3.1315091e-01
 -7.7827519e-01
 -2.8609234e-01
 -1.4517804e+00
 -8.0256742e-01
  4.4817215e-01
 -2.8735024e-01
  3.3424252e-01
 -9.1178036e-01
  6.5756041e-01
 -1.5837190e+00
 -3.8073310e-01
  1.1824268e+00
 -1.7110684e+00
 -1.8443902e+00
 -1.4010257e+00
 -1.1395518e-01
 -2.0829790e+00
  4.3220797e-01
  7.1430236e-01
 -9.2123979e-01
  4.6705404e-01
 -3.8307756e-01
 -2.5447106e+00
  1.4001995e+00
  4.5188847e-01
 -2.3342095e-01
 -8.5928011e-01
 -1.0678011e-01
 -6.7659646e-01
  5.8037210e-01
 -9.1053557e-01
  3.0723745e-01
 -2.1732132e-01
  1.4609396e+00
  2.1028695e+00
  7.8028488e-01
 -8.4496641e-01
 -2.2611745e-01
  1.6614162e+00
  5.1808667e-01
  3.9530308e+00
  1.3385642e-01
  3.1973213e-01
 -4.6897972e-01
  1.1588483e-01
  5.6300157e-01
  6.8690789e-01
  1.0602578e+00
  8.5172826e-01
  7.2981173e-01
 -3.3759680e-01
 -4.4837406e-01
 -4.7388411e-01
  3.2768657e+00
 -1.6377859e-01
 -5.4116476e-01
  9.9997176e-03
  4.6256045e-01
  1.3755403e+00
  3.9300004e-01
  3.8139918e-01
  3.0673652e+00
  1.0895485e+00
  3.8935834e-01
 -1.3072023e+00
  1.4678471e-01
  3.3035621e-01
  2.5399730e-01
  1.8377950e+00
 -3.2460263e-01
 -4.1347605e-01
 -5.0633323e-01
  9.5730227e-01
 -1.1146884e+00
  3.1716596e-02
  9.6166903e-01
  9.7248906e-01
  1.6729064e+00
  4.9823862e-01
  2.7910441e-01
 -9.0238512e-01
  4.3901792e-01
  1.1012232e+00
 -1.4217945e+00
  1.8736277e-02
  1.7145976e-01
  3.6502033e-02
 -1.1053345e+00
 -2.2264667e+00
 -2.5465870e+00
  1.3533839e+00
 -1.1071069e+00
  1.2967783e+00
  6.2978661e-01
  3.1837728e+00
 -6.3588160e-01
  2.7193016e-01
  1.2385204e+00
  9.1073918e-01
  3.0622501e-02
  2.6496959e-01
 -1.2319976e+00
  3.5127401e-01
  4.8249602e-01
 -2.9974258e-01
  7.7980779e-02
 -2.7080223e-01
 -8.8467437e-01
 -1.8445893e-01
 -5.1503223e-01
 -2.2860665e+00
 -1.4917911e+00
  1.8757099e-01
 -1.4017580e+00
 -2.5644735e-01
 -7.2117817e-01
 -9.6613085e-01
  4.4272095e-01
 -7.6141882e-01
 -1.5729494e+00
  3.4094141e+00
 -4.9521062e-01
 -1.0452812e+00
  1.1829048e+00
 -1.2882667e+00
 -2.9130793e-01
  1.0357003e+00
 -4.6704683e-01
  8.1190449e-01
  4.0882070e-02
 -1.0669885e-01
  2.5502858e-01
  1.7443809e-03
  3.7002221e-01
 -2.4811095e-01
 -1.5926601e-01
  1.6783358e-01
 -3.1441417e+00
 -2.7352798e-01
 -7.3554182e-01
  8.6949337e-01
 -4.6733516e-01
  1.9548725e+00
 -2.5488904e+00
  1.1857400e+00
 -2.9877143e-02
 -4.8357797e-01
  1.9359703e+00
  9.8289543e-01
  9.4249845e-01
 -1.0311913e+00
  7.1062040e-01
 -1.2276880e+00
 -1.0875444e+00
 -1.8888366e+00
 -8.2612324e+00
  1.7421566e+00
 -1.2069013e+00
  7.5598627e-01
  9.5605767e-01
  1.9172304e+00
 -1.3295643e-02
  4.8837370e-01
 -2.2038109e+00
 -2.8246431e+00
  1.0898271e+00
  3.4980494e-01
  6.2359118e-01
 -5.0549138e-01
 -3.0740112e-01
  7.6759428e-02
 -1.0643195e+00
 -3.1805488e-01
  5.5698889e-01
 -3.3352941e-01
  3.4978426e-01
 -5.2878976e-01
 -1.3675115e+00
 -1.1106615e-01
 -1.0378145e-01
 -1.0454394e+00
  6.0135615e-01
 -4.4501352e-01
 -1.0497842e+00
 -1.3063748e+00
 -5.1465136e-01
  7.1433961e-01
  1.1753926e+00
 -1.2343110e+00
  2.1039980e-02
  4.0124473e-01
  1.5171670e+00
  1.6194640e-01
  9.1020995e-01
 -9.8260957e-01
  1.1433925e-01
 -1.0771438e+00
  1.0312282e+00
 -4.5839688e-01
 -9.3267715e-01
 -5.5558182e-02
 -6.1461848e-01
 -1.1250349e+00
  7.1024448e-01
  1.1729136e+00
  3.9646268e-02
  4.4073954e-01
 -1.0489265e+00
  1.2218968e+00
 -1.5650074e-01
 -1.4990443e+00
  5.8904511e-01
  2.4676013e-01
  7.1631677e-02
 -1.3100681e+00
 -1.1903938e+00
  1.5568422e+00
  3.3011687e-01
  2.2596862e+00
  3.0927930e+00
 -3.4107203e+00
  1.7064452e+00
 -7.8799695e-02
 -2.6330812e+00
  1.6315899e+00
  2.2921406e-01
  1.7375658e+00
 -5.1334405e-01
 -2.9371305e+00
  1.8013207e+00
 -9.7085273e-01
 -5.7386374e-01
 -7.3290795e-01
  7.2772908e-01
 -2.2486064e+00
  1.4264995e+00
 -5.5180317e-01
 -7.6870954e-01
 -1.9115676e-01
 -5.3962588e-01
 -6.4075106e-01
 -5.5974388e-01
 -2.0985654e-02
 -3.7323797e-01
  1.8691053e+00
 -2.4671171e+00
 -1.8540485e+00
  1.6381742e+00
  2.9689237e-01
 -6.0180396e-01
 -1.5745245e+00
  1.5296552e-01
  9.5000017e-01
  1.1024160e+00
  2.1260297e+00
 -7.4255401e-01
  4.3372759e-01
  1.1471715e+00
 -1.1524393e-01
  2.2668301e-01
 -9.1543609e-01
  1.0368598e-01
  8.2813054e-01
  2.1142027e-01
  1.3734378e+00
  1.1261659e+00
 -3.5923561e-01
 -3.1633496e-01
 -6.8187743e-01
  4.8891342e-01
 -6.0365343e-01
  7.3341757e-01
 -4.2313418e-01
 -5.5275083e-01
  3.6851424e-01
 -1.0177218e+00
 -4.7917581e-01
 -7.3628443e-01
 -3.0044264e-01
  1.3168476e+00
 -2.2774990e+00
  1.0876091e+00
 -2.2486308e+00
 -2.4892583e+00
  7.2249019e-01
  6.8367708e-01
 -2.3548417e-01
  9.5691800e-01
 -3.5648828e+00
  2.9803283e+00
  1.0391603e+00
 -1.5257576e+00
  2.2825582e+00
 -2.0018640e+00
 -1.8154417e+00
 -1.0168396e+00
 -1.1997802e-01
 -2.4802828e+00
 -2.6176822e+00
 -7.7028245e-01
 -7.3312247e-01
 -3.2241318e-01
 -1.8116788e+00
 -2.1547565e+00
  5.0457162e-01
 -6.7454493e-01
 -9.1370022e-01
  1.4476690e+00
 -1.5637122e-01
 -4.6939495e-01
 -9.0996218e-01
  2.0138916e-01
  6.5200800e-01
 -1.3764369e+00
  4.6818069e-01
  6.5765154e-01
 -1.6446994e-01
 -7.8179538e-01
 -3.7790731e-01
 -8.9879788e-02
  1.4287058e+00
 -1.0849820e+00
 -9.1899902e-01
 -2.1508320e-01
  1.3041448e-02
 -1.5626171e-01
 -4.5791262e-01
 -3.2696900e-01
  4.5571318e-01
 -1.0994489e+00
  7.5197881e-01
  5.5255108e-02
 -4.5118698e-01
  2.0975487e-01
 -5.2503943e-01
 -1.3835697e+00
 -7.9617393e-01
 -1.2707368e+00
 -1.5799144e-01
  1.0359357e-01
 -3.5771620e-01
 -5.8954126e-01
  6.9216663e-01
  8.7192410e-01
  4.5058927e-01
  7.9360247e-01
 -1.8702468e-01
  3.1627813e-01
 -9.3801391e-01
  7.9496890e-01
  1.4430359e-02
 -1.3194317e+00
 -4.8377082e-01
 -4.5990983e-01
 -2.9947340e-02
 -3.8097325e-01
 -2.6753336e-01
 -1.8796761e-01
  4.0560216e-01
 -2.5901222e-01
 -1.4859991e+00
  4.6612558e-01
 -9.1061145e-01
 -2.4593335e-01
  4.7166392e-01
  8.1911480e-01
  5.6774050e-01
  1.6977000e+00
 -8.5294878e-01
 -9.4598436e-01
  1.1168823e+00
 -6.2037047e-02
 -1.8830135e+00
 -9.8484272e-01
 -2.0016715e-01
  2.6238849e-02
  1.6710145e+00
 -2.9476612e+00
 -5.0524485e-01
  1.6327710e-01
  1.3479296e+00
 -6.2797689e-03
  3.3414823e-01
 -6.1256391e-01
 -1.4548088e+00
  8.6928743e-01
 -2.1667956e-01
  2.8717080e-01
 -4.6860445e-01
 -8.1696433e-01
  1.8587689e-01
 -1.9425771e-01
 -6.7548883e-01
 -3.6520952e-01
  1.5899435e+00
  1.8760670e+00
  6.6888708e-01
 -1.4789854e+00
  3.0588740e-02
 -5.6429011e-01
  1.3506190e+00
  8.5498637e-01
 -5.2371866e-01
 -1.1418544e+00
  1.7520136e+00
 -1.6697405e-01
  5.7108527e-01
 -1.3065945e+00
  2.8080916e-01
 -8.5081744e-01
 -3.8078761e-01
  1.3376679e-01
  5.1543468e-01
  2.9359561e-01
  2.8973088e-01
  5.1883793e-01
 -1.0888884e+00
 -2.7598584e-01
  3.3090649e+00
  8.5637289e-01
 -8.9752662e-01
 -1.2705437e+00
  2.6792297e-01
 -2.1637859e+00
  1.2343655e-01
  1.5947981e+00
 -7.0513004e-01
  1.0972182e-01
 -2.9713297e+00
 -1.8698853e-01
 -2.6052779e-01
 -5.9500951e-01
 -1.7270856e+00
 -2.5225505e-01
 -9.3501931e-01
 -2.9045713e+00
 -3.6865184e-01
 -5.3739226e-01
  1.1970363e+00
 -5.3587109e-01
 -3.0856529e-01
 -7.7513951e-01
 -2.7710431e+00
 -2.7278385e-01
  9.0245801e-01
  1.3244289e+00
 -2.5394985e-01
 -4.6980702e-03
 -8.5352957e-01
 -1.0499561e+00
 -6.8908936e-01
 -6.5356988e-01
 -1.1066637e+00
  1.0967429e+00
  4.9293932e-01
  1.6326838e+00
 -1.0229750e+00
 -1.6248668e+00
  1.9713311e+00
  6.3713059e-02
 -5.1188034e-01
 -3.8739616e-01
  1.1657280e+00
 -2.7256453e-01
  1.3688365e-01
 -1.5842949e-01
 -1.6124349e+00
  1.3251993e-02
  1.3555779e+00
 -1.0491837e+00
  8.6091030e-01
  5.2584112e-01
 -2.7172925e+00
 -4.6567708e-01
 -8.3132446e-01
 -1.2737061e+00
 -8.9182729e-01
  9.9563754e-01
 -3.0405971e-01
  2.2075598e-01
 -4.3231362e-01
 -1.1122531e+00
  3.5973337e-01
 -5.2219253e-02
  1.7876713e+00
 -5.9514779e-01
  1.3610704e-01
  1.2787097e+00
  1.1210548e+00
  2.2462079e-01
 -3.7314196e+00
 -1.8682281e+00
  5.2993145e-02
 -2.2687352e+00
  1.0003011e+00
  3.4802109e-01
 -7.6153710e-02
 -2.2065387e+00
 -2.1751041e+00
  5.7332373e-01
 -1.0251056e+00
 -3.9130896e-01
 -8.6187661e-01
 -1.3241196e+00
 -1.1569846e-01
  5.9650272e-01
 -1.0287132e+00
  3.6195311e-01
 -1.0860920e+00
 -5.2739096e-01
  1.6737341e+00
  2.8765137e+00
 -1.5600507e-01
 -2.6384375e+00
  1.7775154e+00
  3.0809277e-01
  7.0092744e-01
 -3.5175389e-01
  4.0030859e-02
  1.1013000e+00
  6.4845330e-01
  5.5457342e-01
 -1.3281504e+00
  1.8089612e-01
 -9.0545928e-01
  1.9896618e+00
  1.4295356e+00
  9.7544527e-01
  1.6713008e+00
 -8.1665621e+00
  5.9088103e-02
  2.3878071e-01
 -2.4595807e+00
 -2.9564846e-01
  2.7736132e+00
  1.1407610e+00
 -6.6688806e-01
 -2.4472153e+00
  1.6277201e+00
 -1.3930544e+00
  1.4729489e+00
 -9.9647924e-02
  1.1056381e+00
  2.1278711e-01
  6.9611746e-01
 -5.2786011e-01
 -6.9367957e-01
  1.0150923e-01
  2.0021310e+00
 -5.4689574e-01
 -5.6261069e-01
  7.5882798e-01
  3.7545011e+00
  4.2768574e-01
  1.4595377e+00
  7.2902405e-01
  2.6729134e-01
  5.0632203e-01
  2.6287014e+00
 -1.3118930e-01
  3.0015383e+00
  8.3969235e-01
 -3.1337221e+00
 -1.4843383e+00
  2.3933067e+00
 -1.9240062e+00
  8.5006708e-01
  7.3357099e-01
 -2.3524468e+00
 -1.7022893e+00
 -1.4486362e+00
  1.3081676e+00
 -1.8174332e+00
 -2.1647029e-01
  1.0938458e+00
 -5.9538656e-01
 -5.8353305e-01
 -3.5994753e-01
  9.2948306e-01
  9.3898672e-01
 -1.0810702e+00
  1.7701295e-01
 -2.6313729e+00
 -4.2920031e-02
  1.4983608e+00
 -1.3751262e-01
  6.0323879e-02
 -2.4775776e-01
 -3.3947489e-01
  4.8619974e-01
 -8.9451127e-02
  1.1303594e-01
 -1.7826438e+00
 -2.4722574e+00
  1.6458983e+00
  3.1598330e-01
 -1.9950308e+00
  1.0415105e+00
 -6.3851643e-01
  1.1433971e+00
  1.9327798e+00
 -2.4176786e+00
  3.2533538e-01
 -1.3847197e+00
  1.7284434e+00
  3.2009788e-02
  1.4120604e+00
 -2.2110704e-01
 -8.6780667e-01
  1.6796118e+00
  1.6762369e+00
 -2.9968125e-01
 -1.0568044e+00
  4.0771326e-01
  6.1311436e-01
  3.5904488e-01
 -1.0578102e-01
  1.7693877e+00
 -7.5684059e-01
 -8.7616622e-01
 -2.1097670e+00
 -1.6269603e-01
  7.2273046e-01
 -1.2065847e+00
 -4.7374263e-02
 -6.1471754e-01
 -3.6989357e-02
  1.0956751e+00
 -5.1870781e-01
  9.9930263e-01
 -3.9581456e+00
  1.2999209e+00
  1.1880479e+00
 -4.5993045e-01
 -8.7253857e-01
 -2.7620888e-01
  1.7192402e-01
  1.7881188e+00
 -2.1536734e+00
 -8.4565717e-01
 -6.5445209e-01
  8.0360502e-01
  1.1330940e+00
 -2.6551229e-01
 -2.8640113e+00
  2.4205666e+00
 -1.9836795e-01
  9.2442788e-02
 -6.0072154e-01
  3.1454498e-01
 -2.1247799e+00
 -3.5395873e-01
  5.6065542e-01
 -9.8111928e-01
  9.6377468e-01
  3.3151937e+00
  1.2909199e+00
 -9.4099277e-01
  9.0891635e-01
 -9.6811002e-01
 -2.6722854e-01
 -6.3287038e-01
 -2.5109160e+00
 -5.9283998e-02
  2.8555566e-02
  4.0405364e+00
  1.0378467e+00
  3.5106280e-01
 -9.8040628e-01
 -3.5117445e+00
 -1.1408128e+00
  8.2642287e-01
  2.3032396e+00
 -4.1918001e+00
  2.6637733e-01
  1.0846608e+00
 -7.5786471e-01
  4.2744017e+00
 -9.4701672e-01
 -6.0920060e-01
  2.2710154e+00
 -8.3743207e-02
 -9.4141908e-02
  1.6543202e+00
  9.5691901e-01
  1.1573724e-01
 -1.6877240e+00
  1.7122648e+00
 -1.5875487e+00
 -3.6059645e-01
  3.8442421e+00
 -1.3628093e-03
  1.2250085e+00
 -1.3533431e-01
 -1.2412096e-01
  4.9936020e-01
 -9.6481049e-01
 -4.1445696e-01
 -2.5818684e+00
 -1.6899843e+00
 -3.2798418e-01
 -2.9192376e+00
  2.7703786e+00
 -5.3623848e-02
 -4.1851780e-01
 -1.6914337e+00
 -9.9569041e-01
  4.1531438e-01
  4.7970062e-01
  1.3393450e+00
  6.0216022e-01
 -3.3358535e-01
  5.0199842e-01
 -4.6646190e-01
  1.6494461e+00
  1.1355352e+00
 -2.7604840e+00
 -2.4802755e-01
 -1.2326162e+00
  6.7866974e-02
  1.5385667e+00
  1.8276241e+00
  7.0908463e-01
  1.6422627e+00
  2.2552072e-01
  9.2393899e-01
  4.9933827e-01
 -1.6537801e+00
  8.2535768e-01
 -1.3082297e-01
  6.6222525e-01
  6.2945753e-01
 -6.3326645e-01
 -1.8303047e+00
 -2.2970819e+00
  2.3148435e-01
 -1.2645240e+00
 -3.4325334e-01
  1.4627007e+00
 -8.7318808e-01
  3.7651291e-01
  5.2363962e-01
  1.0696303e+00
  8.7670040e-01
  4.9664795e-01
  3.1243904e+00
 -1.3329179e+00
 -1.8073424e+00
  9.6023148e-03
 -1.6543715e+00
  2.2232232e+00
 -2.0127480e+00
  1.0351341e-01
  1.5651031e+00
 -6.7706829e-01
  8.8626778e-01
 -5.3545360e-02
 -3.5022168e+00
 -4.5027823e+00
 -4.0550864e-01
 -1.7454748e-01
 -1.3166449e+00
  1.4109904e-01
  5.0484264e-01
  2.1787826e-02
 -8.4645890e-02
  3.5578436e-01
 -8.2050818e-01
 -9.2781496e-01
  2.3304924e-01
  2.5073848e+00
  7.9785240e-01
  3.6893174e-02
  1.6066891e+00
  2.4495072e+00
 -2.5388746e+00
  1.0946316e+00
 -1.6397403e-01
  3.1372914e+00
 -5.1825938e+00
  1.0495148e+00
  6.9309497e-01
 -3.7390047e-01
  8.7449932e-01
  2.8357926e-01
  3.5846576e-01
 -3.5353449e-01
 -3.8826052e-02
  1.0786388e+00
  1.4050672e+00
 -1.2996066e+00
 -1.3054110e+00
  1.0887936e+00
 -2.3349781e+00
 -1.4421890e+00
  8.7781526e-02
 -5.8050698e-01
  7.5157994e-01
  3.0726770e-02
  2.2377717e+00
  5.2910823e-01
 -1.1256737e+00
 -3.2205558e-01
 -2.1257313e-01
  5.0363976e-01
 -1.9799272e+00
 -2.3128738e-01
 -2.0721631e+00
 -1.9559596e+00
  2.4526415e+00
  2.5160842e+00
 -4.7271582e-03
  1.5986768e+00
  3.1002751e-01
 -2.1092536e+00
  1.0702699e+00
  8.7787975e-03
 -4.2936021e-01
  6.5317088e-01
 -3.0712545e+00
  2.0115385e+00
  1.7834545e+00
 -2.4798117e+00
 -1.9676509e+00
 -2.3520999e-01
  7.1307087e-01
 -1.1919950e-01
 -7.4557942e-01
 -1.5340446e+00
  1.8862891e+00
  4.4115698e-01
 -7.7663533e-02
  5.4507351e-01
  4.3700090e-01
  3.8885689e-01
 -2.4083099e-01
  7.6556569e-01
  1.4386443e+00
  1.2952249e-01
 -7.0105946e-01
 -5.2190423e-02
 -1.9922132e+00
  4.5097303e-01
 -2.3853898e+00
 -4.7358456e-01
 -1.0563242e+00
  1.6182785e-01
  7.1024835e-01
 -3.7981713e-01
  2.5146642e-01
  5.1581353e-01
 -5.6611985e-01
 -3.9979345e-01
  7.9788083e-01
  1.7133228e+00
 -2.2127172e-02
  2.3514280e-01
 -6.8771861e-02
 -2.1622093e+00
 -2.0474193e+00
 -7.0178437e-01
  1.0575444e+00
  1.3166776e+00
  2.2230039e+00
 -1.0494181e+00
  4.1254755e-02
 -5.2969503e-01
 -8.9191657e-01
 -1.4389764e-01
 -3.9760441e-01
  6.9829243e-01
 -2.5797394e-01
  5.4605275e-01
  4.3548322e-01
  1.1578783e+00
 -3.6989117e-01
  5.5262309e-01
 -5.4250044e-01
 -2.2550684e-01
 -1.6657585e+00
 -8.0350709e-01
  1.2079629e+00
  2.4929667e+00
  3.5067825e+00
  3.6265901e-01
 -2.6212275e+00
 -2.6746746e-02
  1.4908657e+00
 -1.3899685e+00
  5.1238555e-01
  1.4624777e+00
 -1.1637270e+00
  7.1455382e-02
  2.1619167e-02
 -1.0267476e+00
  1.4020722e+00
  1.2587017e+00
  1.5699043e+00
 -6.8615723e-01
  1.8367581e+00
  1.1935096e+00
  7.2195776e-02
  1.2226158e+00
 -4.1761410e-01
 -3.4623423e-01
  6.2858514e-02
  2.7564064e-01
  8.0667466e-01
  9.3377614e-01
 -2.3502378e+00
 -6.8645900e-01
 -1.6877062e+00
 -1.3854063e+00
  4.8021558e-01
 -1.8922244e+00
  4.3633831e-01
  8.0626416e-01
  1.0844778e+00
 -3.3664575e-01
 -1.3981826e+00
 -2.2844486e+00
  7.0322084e-01
  3.0492985e+00
 -2.9706818e-01
 -8.9005584e-01
  2.0310643e-01
 -5.5535746e-01
 -3.0907622e-02
 -1.3157153e+00
 -7.1575385e-01
 -6.0402095e-01
  4.1335630e+00
  7.1878785e-01
  5.7734776e-01
 -1.6542705e+00
 -1.1281579e+00
  2.8459379e-02
 -1.2115633e+00
  6.0285795e-01
  8.2309961e-02
 -1.2603272e+00
  1.4737538e-01
  3.8065720e-01
  3.6167368e-01
 -5.3583199e-01
 -2.3167233e+00
  3.0139813e-01
  5.8666986e-01
 -3.1209201e-01
  3.6351836e-01
  7.7253056e-01
  1.4937978e+00
 -1.1625130e+00
  1.3259422e+00
 -4.0486729e-01
  1.8734887e+00
  9.1905433e-01
 -1.4879700e+00
  3.1133592e-01
 -2.5601107e-01
  1.2143512e+00
  1.1322954e+00
 -5.2231669e-01
  6.5527606e-01
 -5.3391182e-01
  3.8351521e-01
 -1.3311870e+00
 -4.7553930e-01
  2.5558662e-01
 -2.2236354e+00
 -3.5085171e-01
 -5.9551883e-01
 -1.6010954e+00
 -5.9093398e-01
  1.9948456e-01
 -5.0310731e-01
  4.0528691e-01
 -2.2929156e-02
  1.2269690e+00
  6.0865831e-01
 -1.9167149e+00
  5.6285602e-03
 -2.0628192e+00
 -1.3442397e+00
  7.9341739e-01
  1.1451445e+00
 -8.9084297e-01
 -4.5229811e-02
 -2.4002457e+00
 -2.2161875e-02
  1.3598536e+00
 -1.4723339e+00
  7.4406274e-02
 -3.9480719e-01
 -5.5214860e-02
 -3.7462928e+00
 -1.5379034e-01
  2.4582748e+00
 -2.3126638e+00
  1.6989177e+00
  8.0543983e-01
 -1.5835831e-02
 -6.5350235e-01
 -1.0424045e+00
 -4.0912193e-01
 -6.1496848e-01
  1.0617512e-01
  2.1912425e+00
  2.2260411e-01
 -3.5996687e-01
  9.3755752e-02
  1.0132502e+00
  4.9813819e-01
  1.1284302e-01
  4.1385025e-02
  2.0879766e-01
  5.8493441e-01
 -1.8854499e+00
 -1.0245864e+00
 -7.0500714e-01
  1.7595202e-01
  1.0531310e+00
  6.7006075e-01
  2.8358061e+00
  3.0702264e+00
 -8.7435365e-01
 -7.0661753e-01
  6.2504047e-01
 -9.8997235e-02
 -1.3462905e+00
 -6.0200594e-02
 -4.4819435e-01
  1.0388677e+00
 -3.9625269e-01
  5.3687614e-01
  2.7109284e-02
  7.5494063e-01
  8.7665206e-01
  4.7728980e-01
 -1.1138684e+00
  1.3109215e+00
  3.2729644e-01
 -2.5782824e-01
  7.7528864e-01
  5.2171475e-01
  3.1665033e-01
 -9.9054229e-01
  3.4424165e-01
  1.0341392e+00
 -1.9311130e+00
 -1.3056442e+00
 -3.4561493e+00
 -3.1418743e+00
  2.2418485e+00
 -1.8832814e+00
  5.9629973e-02
  1.1627971e-01
  2.0053341e+00
  1.7552745e+00
 -4.8524103e-01
  1.2307760e+00
 -1.7260395e+00
  3.0282182e-01
 -7.4548781e-01
  1.2480572e+00
 -1.5699284e+00
 -1.0480847e+00
  3.5826668e-01
  1.3087958e+00
 -2.8711171e+00
  3.5789669e-03
 -9.2112195e-01
 -7.8332955e-01
 -1.4963399e+00
 -1.8962061e+00
  9.6696979e-01
  1.8950179e-01
  4.9029100e-01
 -5.3155148e-01
  2.1538520e+00
  1.1975727e-01
  6.4417815e-01
  4.4143087e-01
 -4.8307037e+00
 -2.2737203e+00
 -2.2255008e+00
 -6.5896779e-01
  1.1386541e+00
 -1.2784230e+00
 -4.2721567e+00
  7.1984668e+00
 -1.3767958e+00
  1.5172639e-01
  1.9150288e+00
  1.0402278e+00
 -1.1021714e-01
  2.4322019e+00
  1.2875892e+00
  2.3835852e+00
 -1.1531440e+00
  2.5056975e+00
  1.2301104e+00
  1.2076484e+00
  1.6409940e+00
 -1.5594622e+00
  7.0468724e-01
  3.1877706e+00
 -1.5135126e-01
  4.9351603e-01
 -9.1795385e-01
 -1.1908408e+00
 -1.1081902e+00
 -2.2154615e+00
 -5.6045933e-04
  6.1642307e-01
 -1.0198188e+00
 -2.9789269e-01
  9.4423878e-01
 -8.7791151e-01
  1.2476908e+00
 -2.8663051e-01
 -1.2078180e+00
  1.1345114e+00
  1.3121302e+00
  1.0467013e+00
 -5.2392952e-02
 -1.8341558e-01
  1.3002264e+00
 -5.7818526e-01
  8.0380373e-02
 -7.5691301e-01
 -2.9477939e-01
  5.9507298e-01
  3.6575037e-01
 -4.1003472e-01
  5.4331565e-01
 -3.3439520e-01
  2.9276392e-01
  9.9907744e-01
 -3.9292476e-01
 -1.5817700e-01
 -1.6887258e-01
 -7.7985877e-01
  8.4397189e-02
  1.8004148e-01
  8.5503101e-01
  3.7571973e-01
  7.6842040e-02
 -7.1406698e-01
 -4.0358955e-01
 -1.4152995e-01
 -6.4532870e-01
 -3.3486685e-01
  3.1106336e+00
  7.4097204e-01
 -1.0876166e+00
  1.7510551e+00
 -2.3065035e-01
  3.4010574e-01
 -1.0451382e+00
  2.8060400e+00
 -8.5064304e-01
  1.9983095e-01
 -4.3498725e-01
  2.6805437e+00
  1.8739328e-01
  5.4943049e-01
 -8.5001695e-01
 -4.7068483e-01
  7.6180851e-01
  1.8191512e+00
 -1.1774889e+00
 -2.9115578e-02
  7.8008509e-01
  8.3557832e-01
  4.6512999e-02
 -8.1333625e-01
 -1.2967613e+00
 -2.2900972e-01
 -1.6600093e+00
 -1.9200501e+00
 -4.7680375e-01
 -1.2691762e-01
  1.9575059e+00
  1.6339949e+00
  6.0043401e-01
  1.0809237e+00
  1.2297114e+00
 -2.4257059e+00
  1.7853895e+00
 -2.3570275e+00
 -1.7984340e+00
 -7.5261313e-01
  1.2331394e+00
  1.7750040e-01
  6.2627864e-01
 -1.0770272e+00
  3.6701441e-01
  3.5008698e+00
 -3.5367928e+00
 -1.0696739e+00
  6.5474868e-01
 -4.6879593e-01
 -4.7895816e-01
  5.1921475e-01
 -1.4089988e+00
 -9.5801368e-02
 -4.9812463e-03
  6.9440711e-01
 -2.2475787e-01
 -5.6138533e-01
  1.4497427e+00
  7.3599380e-01
 -5.1587834e+00
  2.1380618e+00
  5.0040708e+00
  6.4273483e-01
  2.8437296e-01
  1.3961688e-01
  1.8325320e-01
  6.2399936e-01
  4.4969779e-01
 -1.8437228e-01
  3.6627688e+00
  5.3774720e-01
 -2.4841413e+00
 -3.5828450e-01
  1.2231396e+00
 -2.1011295e+00
  6.2693131e-01
 -1.6821220e+00
  6.8200636e-01
  1.6185228e+00
  2.7905893e+00
 -5.4307532e-01
 -2.4884164e-01
 -6.7062259e-01
  1.0996531e-01
 -1.4760175e+00
 -1.5889223e+00
 -9.1715866e-01
  2.0256071e+00
  8.4809589e-01
  1.0802498e+00
 -1.5350152e+00
 -1.4916253e+00
 -6.4944261e-01
  2.9271675e-04
 -1.2983744e-01
  9.6609735e-01
 -1.0305966e+00
 -7.9426301e-01
  6.2659204e-01
 -1.7977102e-01
 -7.6717889e-01
  9.1710079e-01
  6.4085883e-01
 -3.2340893e-01
 -1.4720229e+00
 -3.0468655e+00
  5.3011012e-01
 -1.9399229e+00
  1.1475579e+00
  1.8299941e+00
  2.6824965e+00
 -1.5645202e+00
 -1.3388124e-01
  3.3099040e-02
  2.3874669e+00
 -2.0757134e+00
 -3.0175631e+00
 -5.0347388e-01
 -8.0718511e-01
  4.4734411e+00
 -1.9834480e+00
 -2.2048214e-02
  1.5419502e+00
 -4.2030555e-01
  1.0361543e+00
 -1.4660103e+00
 -1.2068359e+00
  2.1414797e+00
  5.6055374e-02
 -3.9457128e+00
  3.6909420e+00
 -3.1518334e-01
  2.4959166e+00
  2.1506417e+00
  4.2771697e-01
 -9.2592061e-01
  1.2728790e+00
 -2.0732799e-01
 -1.5589670e+00
  1.4124144e+00
  1.3392982e+00
 -3.5413952e+00
 -1.9813305e+00
  2.0389450e+00
 -1.3222291e+00
 -2.3717405e-01
  9.6445960e-01
 -2.4390101e-01
 -4.9763620e-01
 -3.4920272e-01
 -4.8059654e-01
  7.8908104e-01
  8.0322123e-01
 -2.8910738e-01
  8.5371363e-01
  9.2662519e-01
 -9.0483999e-01
 -1.3824992e-01
  1.2848192e+00
 -5.9727877e-01
 -7.4341714e-01
  3.1552362e-01
  5.8145094e-01
  2.8982922e-01
  2.7720392e+00
 -6.9807291e-01
 -1.0902363e+00
 -3.9457804e-01
 -3.9639592e-01
  8.8613182e-03
 -1.3237848e+00
 -1.1209236e+00
 -8.0247849e-01
 -6.2369215e-01
 -1.6084671e+00
 -2.2068325e-01
  6.6558844e-01
  4.7317314e-01
  3.0534020e-01
  6.3027561e-01
 -3.3840954e-01
  1.5232853e+00
 -8.3464605e-01
 -1.3988650e+00
  3.3947292e-01
 -2.1854043e+00
  1.0240176e+00
  2.3419465e-01
 -2.8973347e-02
  3.3669907e-01
 -9.0388834e-01
 -6.9340217e-01
  6.6613728e-01
 -6.7016488e-01
  9.1292793e-01
  1.3151228e+00
  1.2567972e+00
 -7.8566360e-01
 -7.1554869e-01
 -2.6833553e+00
 -2.0396706e-02
 -3.1988290e-01
  3.7770146e-01
 -2.2275780e-01
  7.3623681e-01
  3.7546775e-01
  7.2239238e-01
 -8.6358674e-02
 -1.5653832e+00
 -3.6189141e+00
  7.5182015e-01
 -9.7941923e-01
  4.5823467e-01
  1.8624249e+00
  5.7583952e-01
  2.1755748e+00
 -2.4075847e+00
 -4.7153997e-01
  7.4106419e-01
  2.4005337e-01
  1.1187859e+00
 -7.0447218e-01
  1.0929854e-02
  1.2097591e+00
  9.3991503e-02
  4.4037132e+00
 -1.5841906e+00
  2.1365762e+00
 -2.2517481e+00
  1.5636402e+00
  2.0288208e+00
  4.1521567e-01
  8.5277355e-01
  2.1413183e-01
  1.4342000e+00
  1.7104232e+00
  8.2132000e-01
  8.1577772e-01
 -4.3609491e-01
  2.1782322e-01
  7.7880090e-01
  9.8656654e-02
 -1.9331950e-01
 -5.6782436e-01
  1.5412657e+00
  1.2174712e+00
 -2.9750214e+00
 -6.8869680e-02
 -1.9448652e+00
  3.5883119e+00
 -4.8267031e-01
 -1.2362504e-01
  1.4147936e-01
  6.8731934e-01
 -1.7861279e+00
 -2.3178709e+00
 -5.8932120e-01
  1.6388354e-01
  7.4178174e-02
 -4.3314001e-01
  9.5327270e-01
  4.3370616e-01
  1.2949954e+00
 -1.1512217e-01
 -1.9864546e+00
  2.3298554e+00
 -1.1506109e+00
  9.2884952e-01
 -9.7167641e-01
 -8.9534295e-01
  1.3688680e+00
  1.4367583e+00
  7.4728632e-01
  6.3116330e-01
 -9.8347855e-01
  1.1569817e-01
 -9.3222499e-02
  8.6561763e-01
 -8.7159467e-01
  6.4057956e+00
  1.2357994e-01
 -1.4942800e+00
 -5.0361449e-01
 -1.8903037e+00
  4.5349689e+00
  3.9246678e-01
 -1.1375387e+00
 -1.6277069e-01
 -3.9432545e+00
  7.0818835e-01
  1.3637272e+00
 -3.1967330e+00
 -1.0287478e+00
 -2.1433582e+00
  1.4719239e+00
 -1.5926327e+00
 -1.2412918e+00
 -1.4985383e+00
 -1.5325557e+00
  4.2070444e-03
 -1.7882185e+00
  2.6890056e-02
 -2.8121943e+00
 -1.6858391e+00
 -2.1056945e+00
 -1.2064153e+00
  1.3727561e+00
 -3.7391940e-01
 -2.9918939e-01
  7.3399323e-01
 -2.0047648e-01
 -2.2554907e-01
  1.7726655e-01
  1.2078882e+00
 -1.6157883e+00
 -2.6247134e+00
 -1.6217458e+00
 -2.6486173e+00
  2.0557849e+00
 -2.0421919e-01
 -7.2679782e-01
  9.2176622e-01
 -2.1846998e-02
 -4.8214990e-01
  1.1053630e+00
 -1.3337450e+00
  3.9844689e+00
 -1.9012481e-01
 -1.4541749e+00
  1.2424785e+00
  3.1214818e-01
  1.5479496e+00
 -7.4092013e-01
  3.3673054e-01
  3.4873945e-01
  6.9242880e-02
  3.7951705e-01
  1.5304885e+00
 -2.6130110e-01
  7.1761847e-01
  5.2733928e-01
  6.2420839e-01
  2.9219925e-01
  8.6226869e-01
  5.3493094e-01
 -6.8681771e-01
  1.1929189e-01
  2.1504539e-01
  5.8079594e-01
 -3.8015351e-01
  9.3961281e-01
  1.1291866e+00
  8.3424866e-01
 -1.6026034e+00
 -3.0683070e-01
  3.2776672e-01
  2.4394598e+00
 -1.8739767e-01
  3.2584003e-01
 -7.1400487e-01
  3.1198001e+00
  9.7306770e-01
  2.2497152e-01
  2.7996838e+00
 -1.3708668e+00
 -5.0234455e-01
 -1.4566870e+00
  4.2748249e-01
  5.4819089e-01
 -3.6051183e+00
  2.6968777e+00
  7.4117023e-01
  1.4903568e+00
 -1.0449235e+00
  3.0367532e+00
 -1.4837672e-01
 -4.4071624e-01
 -1.9331625e-01
 -9.8934913e-01
  4.9529463e-01
  1.0621248e+00
  2.0180312e-01
  2.5141132e-01
 -9.9125914e-02
  1.7658527e+00
  1.5409515e+00
 -5.3684793e-02
 -2.0405750e+00
  2.2772450e+00
 -1.8670452e+00
 -3.4035866e+00
  5.7951486e-01
 -4.6139145e+00
 -2.0932341e+00
  3.3191280e+00
  4.0170865e+00
  1.1488504e+00
  9.6385282e-01
 -1.3752613e+00
  2.9290764e+00
  1.8500976e-01
  7.9777253e-01
 -4.7453053e-02
  2.2055562e+00
  2.1966155e+00
 -6.3631779e-01
  1.2087263e+00
 -1.3943254e+00
  1.0035847e+00
  8.7524205e-01
 -3.4594598e+00
 -4.9171409e-01
  9.6754110e-01
  9.9497132e-02
 -1.6457394e+00
 -8.8147867e-01
 -2.2233625e-01
 -1.1971425e+00
  7.7620667e-01
  5.0466841e-01
  1.2005831e+00
 -3.8593170e-01
 -1.7670712e+00
  2.5198174e+00
 -4.9071500e-01
 -5.0509125e-01
  3.3222803e-01
  1.3212471e+00
  1.5578063e-01
 -3.8534474e-01
  1.1996292e+00
 -1.1053774e+00
 -2.2489302e-01
 -1.6689433e+00
 -1.4686688e+00
  1.2798188e+00
 -6.4812624e-01
  1.4809854e+00
 -1.6294207e-01
  3.1380337e-01
  3.9239424e-01
  3.5501313e-01
  6.8226886e-01
 -4.7311831e-01
  2.1591144e+00
  4.0140232e-01
  2.1791918e+00
 -5.4810965e-01
  4.1846934e-01
 -1.4412903e+00
  1.1068408e+00
  7.8872693e-01
 -1.0945884e-01
  2.1074851e-01
 -4.6579723e+00
 -2.1836290e-01
  8.2946748e-01
 -9.1701669e-01
  7.3720431e-01
 -1.8159796e+00
 -1.2092249e+00
  7.7433252e-01
  1.9735458e+00
  9.6342456e-01
 -8.4504700e-01
  2.7459662e+00
  7.4583840e-01
  3.6457050e-01
 -3.8390422e-01
  2.1655773e-01
  1.0612248e+00
  1.7012525e+00
  7.8369564e-01
  2.0987616e-01
 -2.4579442e+00
  3.0999475e+00
  1.8406525e+00
  2.9977638e-01
 -4.8839489e-01
 -2.1229893e-02
 -2.1278682e+00
  2.0744250e+00
  1.0476565e-01
  1.3877242e+00
 -1.9175774e-01
  8.8153297e-01
 -2.0971014e+00
  2.5132158e+00
 -1.7468047e+00
 -9.5821267e-01
 -5.8905374e-02
 -3.9433716e-03
  1.7659110e-01
 -2.5566211e-01
  2.6116679e+00
 -5.2491355e-01
 -2.7873259e+00
  7.5704616e-01
 -6.9262761e-01
 -5.0840205e-01
  1.9203882e+00
 -2.0430863e-02
 -5.4469204e-01
  2.8681360e-02
 -3.1532145e-01
 -1.3339689e-02
  2.7245024e-01
 -1.7979348e-01
  2.2524263e-01
  9.6284568e-01
  6.6723332e-02
 -9.3619597e-01
  1.4864464e+00
  2.2742393e+00
 -2.5701649e+00
  3.3942983e-01
  6.4690298e-01
 -6.4186537e-01
  6.7323977e-01
  6.8432492e-01
  7.3304695e-01
  1.6163369e+00
 -9.5562035e-01
 -3.0619523e-01
  6.5226460e+00
  6.5144485e-01
  3.8197595e-01
  1.0297608e+00
  1.0116632e+00
  2.2833922e+00
  2.6720717e+00
 -3.9107661e+00
 -6.4486063e-01
 -4.8759198e-01
  2.0959880e+00
  1.8308278e+00
  4.2694175e-01
 -4.6208128e-01
 -1.1799085e+00
  1.7672880e+00
  5.4968315e-01
 -1.5394018e+00
 -7.9924363e-01
  2.3940187e+00
  1.5449752e+00
 -2.6463313e+00
  6.7837256e-01
  4.7568738e-01
  7.9984045e-01
 -5.6553187e+00
  1.7547786e-01
  1.4618001e+00
  4.2205881e-02
 -1.3904175e+00
  7.9264961e-02
  1.4504002e+00
 -1.0246311e+00
 -6.9987321e-01
  1.1925508e+00
 -1.8157164e+00
 -3.2127841e+00
  1.7961971e+00
  2.7017150e-02
 -7.1485692e-01
  7.3804957e-01
  1.2682895e-01
 -5.3692579e+00
 -2.0198031e-01
  2.4028549e-01
 -1.1476978e+00
  4.4117398e+00
  9.4092727e-02
  6.7001492e-01
  2.9695678e-01
  4.1005397e+00
 -2.5661054e+00
  8.3239079e-01
  2.0827340e-01
 -2.9745119e+00
 -1.6065704e+00
  3.2293007e-02
  1.2592763e+00
  3.5736042e-01
  9.0124637e-01
  5.6942767e-01
  1.2649045e+00
  5.1441407e-01
  9.0055507e-01
 -1.8485482e-01
  4.3564898e-01
 -1.7982737e+00
 -8.4768617e-01
  6.0996884e-01
  3.9092430e-01
 -2.0722029e+00
 -6.5447938e-01
  1.8629236e+00
  1.3433078e-01
 -1.7784802e+00
  1.0788063e+00
  8.2661945e-01
 -1.9172199e-01
  2.9152830e+00
  2.2764587e+00
 -2.3798313e+00
 -5.4692394e-01
  6.8210876e-01
  1.6102115e+00
 -8.8743889e-01
 -4.2252976e-01
  4.0121844e-01
 -2.3669877e+00
  9.9244785e-01
 -3.1616244e-01
 -1.1277218e+00
 -1.6103921e+00
 -1.7118056e-01
 -1.3828692e+00
  7.2082359e-01
  4.4579872e-01
  6.3397475e-02
 -1.8397839e-01
 -2.4411944e-01
 -3.4776187e-01
  5.6242180e-01
  4.1820443e-01
 -8.6350823e-03
 -2.5060612e-01
 -9.0619937e-02
 -2.3170257e-01
 -3.6344185e+00
  1.4511151e+00
  5.6961036e-01
  2.0539093e+00
 -4.8690003e-01
  1.0905367e+00
 -1.2132212e+00
 -1.5335374e+00
  2.0739565e+00
  1.1399792e+00
 -1.4928644e+00
 -2.6778159e+00
  5.9454548e-01
 -7.1061844e-01
 -9.4919926e-01
  6.1231381e-01
 -5.1001209e-01
  4.0787166e-01
  8.5350060e-01
  5.8864307e-01
  2.7851245e+00
 -5.2285071e-02
  1.6116985e+00
  1.0480826e-02
  2.5506961e+00
 -1.4977190e+00
  4.8069119e-01
  2.8800654e-01
 -3.1663162e-01
  6.1086965e-01
  7.6648265e-01
 -6.0602707e-01
  2.6405716e-01
 -1.9525387e+00
 -2.0105593e-01
  4.2858911e-01
  1.0428677e+00
  5.3443754e-01
 -4.3489141e+00
 -4.1025764e-01
  3.0064778e+00
  2.5876412e+00
 -3.2686120e-01
  5.9858960e-01
 -3.7628257e+00
  3.1374652e+00
  1.0031796e+00
 -9.3440598e-01
  9.1170961e-01
  6.3694644e-01
 -3.2553177e+00
  3.1173685e-01
 -6.9800442e-01
 -6.1646634e-01
 -1.2880883e+00
 -7.6287061e-01
 -2.8027635e+00
 -6.4230579e-01
  8.9640403e-01
 -1.2464187e+00
  1.0476457e+00
  6.3537604e-01
 -8.7197812e-04
 -6.1251813e-01
  1.4782357e-01
  5.6570417e-01
  8.5236150e-01
  4.5566407e-01
  4.2684725e-01
 -5.5141964e+00
 -2.7168949e+00
 -2.2302096e+00
 -3.4133508e+00
  7.0074421e-01
 -4.0041614e+00
 -3.8154175e+00
 -1.0375111e+00
 -1.7573497e-01
  1.3289085e-01
 -8.9736599e-01
  2.3602870e+00
  2.9316301e+00
 -6.0063601e-01
  3.0645725e-01
 -8.6206871e-01
  3.5367744e+00
 -3.0012819e-01
  1.9822530e+00
  2.3494993e-01
  2.8854322e-02
  1.6874585e+00
 -6.1554396e-01
  1.1563005e-01
  1.7372656e+00
  1.3593308e+00
 -2.9848547e+00
 -2.5746655e-01
 -4.5210991e-02
 -2.3541036e+00
 -2.3856728e+00
  1.2308552e-01
  4.2397428e-01
 -8.1708722e-02
 -2.7649438e-01
 -1.0108497e+00
  2.6520457e-02
  1.0053073e+00
  1.6733321e+00
  2.6936297e+00
  7.3959482e-01
  7.9360574e-01
 -1.2834221e+00
 -1.5574013e-01
 -4.0562063e-01
 -6.6577733e-01
  4.2755728e+00
 -8.5461479e-01
 -4.1072793e+00
  2.7644643e-01
  1.0737398e+00
  1.9392469e+00
  2.3243974e-01
  4.6979058e-01
  1.1093755e+00
  4.3386540e-01
  5.9165925e-01
 -1.3726307e-01
 -9.0212584e-01
  1.9500859e+00
 -8.9770061e-01
 -9.8119307e-01
 -1.3033003e+00
  2.1066785e+00
  1.2302347e+00
  5.0163335e-01
 -6.3174617e-01
  1.3963758e+00
 -5.5330265e-01
  3.4058839e-01
 -4.8289636e-01
 -9.2624146e-01
  1.1845809e+00
  5.5623394e-01
 -6.0225737e-01
 -7.2427714e-01
 -9.1549075e-01
 -9.6958023e-01
 -1.3845699e-01
  8.6247429e-02
 -3.0234841e-01
  2.2315331e+00
 -6.0016108e-01
  6.6516054e-01
  6.7387238e-02
 -3.0242691e+00
  1.8923600e+00
 -2.9818243e-01
  1.5711595e+00
  2.6221674e-02
  2.6436281e+00
 -3.4654846e+00
  2.3427463e+00
  6.1505139e-01
 -8.5314757e-01
 -1.6124983e-01
 -2.7576110e+00
 -6.7885149e-01
 -2.8865039e-01
 -3.2177919e-01
  2.1295430e-02
 -5.3773731e-01
 -1.7881596e+00
  4.7575337e-01
 -9.7355914e-01
 -4.8912016e-01
 -9.6833050e-01
 -1.5869129e+00
  2.1287425e+00
  2.0481617e+00
 -1.0278549e+00
 -2.8510313e+00
 -1.5224500e-01
  2.3522871e-02
 -1.1680371e+00
  9.1122872e-01
  8.5253942e-01
 -1.1224133e+00
  1.2052461e+00
  9.3737793e-01
  1.4284334e+00
 -2.0628486e+00
 -2.8272369e+00
  1.0681787e+00
  9.4381231e-01
  2.8692045e+00
 -3.0822968e+00
 -4.9191537e-01
 -6.1982866e-02
 -1.5439664e+00
  1.5944391e+00
 -1.3348652e+00
  3.8216826e-01
  3.6134893e-01
 -3.7038517e-01
 -4.6108046e-01
 -1.6746609e+00
 -4.9054718e-01
 -5.5992353e-01
  1.5965514e-01
  6.8284645e+00
  3.0658815e+00
 -5.1601362e-01
  2.9224896e-01
  5.9201926e-01
  9.5031965e-01
  1.1863949e+00
 -4.9625821e+00
 -2.0341220e-01
  1.1766572e+00
  4.1723785e+00
  1.7827271e+00
 -5.2483468e+00
 -4.3559697e-01
 -2.2286215e+00
  2.8738081e+00
 -1.2495574e+00
 -3.4833016e+00
  1.9163586e+00
 -1.4942360e+00
 -1.8329431e-01
 -2.0093303e+00
  2.8116921e-01
 -1.1741771e+00
 -4.2352599e-01
  1.4469315e+00
  1.1924527e+00
  3.2554808e-01
 -2.5280380e-01
 -1.9219893e+00
 -2.5963780e-01
 -1.7624310e-01
  3.7126812e-01
  5.8837247e-01
  1.3215683e+00
 -2.3843131e+00
 -1.6858025e+00
 -3.3502550e+00
 -1.7931728e+00
 -1.4001777e+00
 -4.5822456e-01
  2.4575915e+00
  2.4176035e+00
 -7.8698903e-01
 -1.0393631e+00
  3.4964475e-01
  5.4010539e+00
  2.3580353e-01
 -3.3728167e-01
  9.5349091e-01
 -2.4406984e+00
 -2.0558944e-02
 -2.0571245e-01
  1.0981675e+00
  3.4853072e+00
  2.0403847e-02
  4.4984505e-02
 -5.1367462e-01
  2.3807974e+00
 -1.8831165e+00
  4.4904871e+00
 -7.5668740e-01
  1.4061296e+00
 -2.5591341e-01
 -2.4127018e+00
  1.4059563e+00
 -1.8869005e-01
 -1.2329559e+00
 -1.4992256e+00
 -1.3010151e+00
 -1.4900845e+00
  1.5899125e-02
  4.3666703e-01
  7.7584106e-01
 -2.5496020e+00
 -5.0246902e-02
  6.8118252e-02
  2.0431316e+00
 -2.9529460e-02
  7.0736736e-01
 -2.8398633e+00
  1.4095207e+00
 -1.2542853e+00
 -9.3868956e-02
 -1.9037239e-01
 -1.0126601e+00
 -8.4926099e-01
  6.1405915e-01
  1.3529739e+00
  3.3451641e-01
  8.2734948e-01
  8.1760961e-01
  6.3733876e-01
  2.6294571e-01
 -1.8330685e+00
  6.3572317e-01
 -3.0774823e-01
  1.0639745e-01
 -5.9050977e-01
 -6.2962133e-01
 -4.8106891e-01
  3.8042787e-01
 -1.3690211e+00
  2.0709239e-01
 -9.6478231e-02
  2.3148866e+00
  4.1062528e-01
 -1.3210074e+00
 -1.9992220e+00
 -1.2877290e+00
 -2.5978866e-01
 -3.7317176e+00
 -2.1444242e+00
  8.8819307e-01
 -1.1317213e+00
  2.1809368e+00
  9.2491448e-01
 -1.8967024e+00
 -2.0023239e+00
  1.2057921e+00
 -7.1789610e-01
  1.5280039e+00
  2.1870720e-01
  1.2186372e+00
  2.2539744e+00
  4.1396971e+00
  6.9158679e-01
 -3.3772287e-01
  1.1560963e+00
  2.2679556e-02
  2.0548847e-01
 -1.5089517e+00
  2.2939506e+00
 -3.2777664e-01
 -7.8947288e-01
 -7.0073915e-01
  9.6438938e-01
  1.0960546e+00
  3.2924151e-01
 -9.9187046e-01
  4.5308014e-03
 -6.1479902e-01
  1.5569115e+00
 -6.7261374e-01
  9.5466185e-01
  1.3802098e+00
 -3.6010355e-02
  5.7653737e-01
  2.9266575e-01
 -1.6095119e-02
  2.6875827e-01
 -2.0810108e+00
 -1.4927276e+00
 -2.9851909e+00
 -2.1067007e-01
  8.2090497e-01
 -4.0711541e+00
 -2.4395789e-01
 -1.3982702e+00
 -8.0182695e-01
 -4.3277761e-01
 -8.5588640e-01
  9.1936618e-01
 -1.3316784e+00
 -2.0036268e+00
 -1.4770179e+00
 -1.6034713e+00
  2.2948083e-01
 -1.4998341e+00
 -6.8784219e-01
 -2.7819857e-01
 -1.0672604e+00
 -1.3296672e+00
 -5.0045214e+00
  1.9591721e+00
  3.8660848e+00
  1.2947365e+00
 -4.4986841e-01
 -1.2881120e+00
 -9.7448754e-01
  7.9516459e-01
 -2.4116421e+00
 -3.2330842e+00
 -1.2783471e+00
 -1.0901831e+00
  1.4238177e-01
 -1.3252689e+00
 -8.5672462e-01
 -1.9573449e+00
 -8.1074029e-01
 -3.0995777e+00
  2.6458354e+00
 -8.0979812e-01
  1.6060799e-01
  2.2053235e+00
 -2.5691798e+00
 -1.5987383e+00
 -1.5819625e+00
  5.5812269e-02
  2.0451653e+00
 -2.9040461e+00
  2.1351376e+00
 -1.8103635e+00
  5.1306117e-01
  3.1021464e-01
 -2.4056783e-01
  8.6438406e-01
  1.2683058e+00
 -7.6078004e-01
  6.1811006e-01
  4.6443921e-01
  4.9713039e-01
 -1.1007075e+00
 -1.0826145e+00
  5.7722205e-01
 -3.0140543e+00
  4.1964250e+00
  3.4610372e+00
 -4.3479833e-01
  2.9177660e-01
 -2.4296608e+00
  3.1640399e+00
  1.3340127e-01
 -5.9053165e-01
 -6.6434473e-01
  4.7542578e-01
  1.4736396e-01
  1.2533997e+00
  8.6452317e-01
  6.8338907e-01
 -1.0295447e+00
  1.3581116e+00
  1.5958626e+00
  1.3841743e+00
 -9.2409939e-01
 -9.7063321e-01
  9.0691018e-01
 -6.0778415e-01
  1.0535769e+00
 -1.9826961e+00
  7.4927616e-01
 -7.1567023e-01
  3.3123007e-01
 -1.1770421e-01
 -6.7396402e-01
  1.3718861e+00
 -2.3784320e+00
  2.5768483e+00
 -2.9799130e+00
  8.9165664e-01
  2.7539232e-01
  3.0780458e+00
  4.5770010e-01
 -2.0097603e-01
 -5.0244266e-01
  2.2032442e+00
  1.3978127e-01
 -3.3665690e+00
 -6.1819357e-01
 -4.1538206e-01
 -8.5493040e-01
 -2.5081475e+00
 -5.4697406e-01
 -8.6626422e-01
  9.0253055e-01
  5.1568840e-02
 -1.1985317e+00
 -2.1273909e+00
  2.2936456e-01
  2.7049365e+00
  4.7580269e-01
  1.2967875e+00
  1.1738362e+00
  7.7998209e-01
  1.2625068e+00
  1.6525000e-01
  8.8412374e-02
  5.9366804e-01
  6.0116541e-01
 -8.1582022e-01
  3.8372812e+00
  2.6661389e+00
 -2.3250275e+00
  2.9690096e-01
 -2.4031988e-01
 -1.9368525e-01
 -1.7062763e+00
  1.8052615e+00
  3.9365435e-01
 -3.3859599e-01
  1.5374326e+00
 -1.6296009e+00
  1.4849833e+00
 -1.1945932e+00
 -5.1534098e-02
 -1.8333853e+00
  5.7974797e-01
  2.6802237e+00
 -9.5579529e-01
 -3.3295536e-01
 -6.8889159e-01
 -7.2132528e-01
  6.9176412e-01
 -2.5244778e-01
  1.7849969e+00
  1.2545701e+00
 -3.0710694e-01
 -6.9784552e-01
  1.4555866e-01
 -2.2032136e-01
  4.0109914e-02
  2.3227528e-01
 -6.5005985e-03
  1.9728189e+00
 -2.1353675e-01
  9.8933652e-03
 -4.1168923e+00
 -1.9753137e+00
 -1.0132324e+00
  1.9115853e+00
  6.0326095e+00
 -3.6732683e+00
  3.0983000e+00
 -2.7710469e+00
 -1.3251383e+00
  1.1780680e+00
  4.8327750e-01
  1.9259895e+00
 -1.2676628e+00
 -1.8233533e+00
 -2.0318310e+00
  1.2141069e+00
  3.9070746e-01
 -1.0105936e-01
  1.4815032e+00
  1.8769095e+00
  5.0955750e-02
  2.5183785e+00
 -1.3270793e+00
  1.2041624e+00
 -8.9880532e-01
 -2.7405195e+00
 -9.6873575e-01
 -4.5663944e-01
 -1.5203776e+00
  8.8866580e-01
  9.0810132e-01
 -1.7042656e-01
 -4.8342600e-01
 -5.6600726e-01
 -5.0284033e+00
 -4.0603766e-01
 -2.5991440e+00
 -9.2731856e-02
 -2.0661285e+00
 -9.4645077e-01
 -1.2653794e+00
 -2.2352927e+00
  4.3162474e-01
  1.2778121e-01
 -3.5968339e+00
  7.4619800e-01
  3.5235436e+00
 -3.9800885e-01
 -8.4705108e-01
 -1.3057754e+00
 -1.5430357e+00
 -1.2448107e+00
 -2.9842126e-01
  3.6512773e+00
 -1.7608364e+00
 -6.8523651e-01
  6.0512364e-01
 -1.2648915e-01
  1.8162131e+00
  1.6867459e+00
 -2.5524907e+00
 -1.6555159e-01
  8.6961859e-01
 -1.8266246e+00
  5.5613959e-01
  8.3017761e-01
  4.3985209e-01
 -3.3928555e-01
  1.9182945e+00
 -9.1730013e-02
  1.6741984e+00
 -1.3993738e+00
 -7.5831306e-01
 -3.5534461e+00
 -6.1383963e-01
 -1.2390631e+00
 -1.1810831e+00
  4.6437880e-01
  8.9529282e-01
 -8.8539618e-01
  1.3467354e+00
  5.9021580e-01
 -1.9015979e+00
  5.4557925e-01
  8.2162923e-01
  1.8784688e-01
  1.1781356e+00
  8.9382654e-01
  2.6391053e+00
 -2.7511446e+00
  1.8586059e+00
 -1.5952358e+00
  1.1502680e+00
 -1.1135241e+00
  2.3661923e-01
 -5.9404403e-01
  4.8887187e-01
  5.0550836e-01
 -2.9816139e+00
 -3.2205400e-01
  6.1913991e-01
  2.4181595e-01
 -5.2077889e-01
 -1.3524604e+00
 -5.2179236e+00
 -3.5057757e+00
  3.8261955e+00
  3.7141020e+00
  4.3208833e+00
  4.1837972e-01
 -1.3043457e+00
 -1.4156449e+00
  1.8102802e+00
 -1.6211373e+00
  1.4520540e+00
  1.1204075e+00
 -2.2484798e+00
  2.8785882e+00
 -6.0941797e-01
  4.9186170e-01
  1.9847718e+00
  2.1897500e+00
  7.0370812e+00
  3.7656350e+00
 -2.6571643e-01
  3.9166448e+00
  8.3135337e-01
  6.9752102e+00
 -2.9937819e-01
  9.3742460e-01
  3.4075325e+00
 -2.2697538e-02
 -6.8469197e-01
 -2.7955118e-01
 -6.8562126e-01
  2.8328087e+00
 -1.1246709e-01
 -1.0975782e+00
 -3.0895188e-01
 -1.2541150e+00
  9.6134013e-01
  1.9899529e+00
  9.9776381e-01
  1.6625960e+00
  5.7257205e-01
 -1.9053547e+00
  8.9316577e-01
  5.4583311e-01
 -8.9420199e-02
 -1.0119988e+00
 -1.5676141e+00
 -1.2135030e+00
  1.5171331e-01
 -3.0024683e-01
  5.5382305e-01
  1.0818459e+00
 -2.0887651e+00
 -1.3688632e+00
  1.0061156e+00
  2.2945869e+00
  2.3920133e+00
 -1.3816506e+00
 -1.1454101e+00
 -4.4509584e-01
 -1.7545402e-01
 -3.9739563e+00
 -1.0199180e+00
 -2.4575407e-02
 -5.2827311e-01
  7.8659290e-01
  1.5609837e-02
 -1.3980070e+00
  3.5236543e-01
  7.1567774e-01
 -5.3433216e-01
  7.6461792e-01
  2.1040847e+00
  1.4570619e+00
 -1.5016876e+00
  1.1165605e+00
  8.5601181e-01
  1.6043905e+00
  7.3711944e-01
 -3.8078544e+00
  2.0594952e+00
 -1.5674875e+00
  2.2174697e+00
  9.8473758e-01
 -2.7049892e+00
 -5.0771600e-01
 -1.6325514e+00
 -1.6800321e+00
  5.0895013e-02
 -2.2268050e+00
  3.6089377e+00
 -3.4684145e+00
 -1.0182953e+00
 -8.8835841e-01
  1.9618802e+00
  8.4684175e-01
  2.1280537e+00
 -1.7891476e+00
 -1.7608398e+00
  1.7919832e+00
  2.4786393e-01
  1.6106175e+00
  1.5890671e+00
  7.1649361e-01
  1.8685803e+00
 -8.3868450e-01
 -7.9114562e-01
 -1.3712417e+00
 -8.9273590e-01
  1.7197248e+00
  1.2649468e+00
 -4.4662476e-01
  1.1255565e+00
  7.7697819e-01
 -4.5897268e-02
  1.0663183e+00
 -4.2202535e-01
  1.0538477e+00
 -1.0198288e-01
 -4.3925572e-02
 -1.5682665e+00
  2.0579422e+00
 -1.2251812e+00
  2.3026548e-01
 -1.4611248e+00
  2.5147438e-01
  2.5834603e+00
  4.1732526e-01
  2.2733554e-01
  7.7709198e-01
  1.3423626e+00
  3.0131396e-04
  7.3593813e-01
  2.5448995e+00
 -2.6060680e-01
 -3.7552834e-01
  9.0402085e-01
  7.6056486e-01
 -1.0477363e+00
  1.3569721e+00
 -5.1507473e-01
 -1.8654643e+00
 -1.6589355e+00
 -1.7942740e-02
 -3.5953553e+00
 -1.0232172e+00
 -2.1869686e+00
 -2.5507316e-01
  1.9922100e-01
  7.6408440e-01
  2.8447846e-01
  1.2743850e+00
  2.5969881e-01
 -8.2836127e-01
  3.1186867e-01
  4.1115710e-01
  8.3266377e-01
  8.8160402e-01
  1.6142695e-01
  7.3847020e-01
 -8.9498258e-01
  1.1435603e-01
 -1.3920696e+00
  4.4977114e-01
  2.8951499e-01
  4.6448341e-01
  3.5357106e-01
  3.9367816e-01
 -1.4790423e-01
  2.7492659e+00
 -4.7263855e-01
  5.3140986e-01
 -3.5717615e-01
  5.8160454e-01
 -3.6439291e-01
 -7.1325010e-01
  1.3393737e+00
  5.4192191e-01
  1.5713694e+00
  2.8937954e-01
 -2.0583256e-01
 -7.4110502e-01
 -2.4509399e+00
  1.5388083e-01
 -6.8836784e-01
  1.1767580e-01
  3.0406553e-01
 -4.3318054e-01
 -1.4799568e-01
 -3.2842708e+00
 -6.3858640e-01
  2.6520827e-01
 -1.6809765e+00
 -4.4023994e-01
  5.6820506e-01
  5.9782535e-01
  2.5945690e-01
  5.9684134e-01
 -1.5816332e+00
 -7.1940184e-01
 -6.5249509e-01
  5.3533059e-01
  5.5674195e-01
  6.4243138e-01
 -6.1194015e-01
 -1.7858155e+00
 -1.8799735e+00
 -6.1890924e-01
 -4.6609211e-01
  6.7792869e-01
  3.3011237e-01
 -4.5143443e-01
 -7.4804479e-01
 -7.6586914e-01
 -2.5371057e-01
  3.3192104e-01
  8.4121543e-01
 -3.7748104e-01
 -7.0883340e-01
 -3.4484547e-01
  4.5442376e-01
 -4.1499829e-01
  2.8826976e+00
  2.4765758e-01
 -1.2146848e+00
  9.8065275e-01
 -9.4209331e-01
 -2.3429717e-01
 -2.9827781e+00
 -1.9965926e-01
  2.0081205e+01
 -2.1220167e+00
 -3.5058734e+00
  3.0018988e+00
  1.4276818e+00
 -6.6946158e+00
 -2.5465055e+00
  3.0429623e+00
  5.4183216e+00
 -7.7619028e-01
 -3.4969118e+00
 -7.3016191e+00
 -1.7222154e+00
  2.2435218e-01
 -3.9881647e+00
  5.6196856e-01
  4.2658553e+00
  7.4812281e-01
  3.0529532e+00
  7.1321678e-01
  1.8191031e-01
  8.2629174e-01
 -7.4728590e-01
  2.8126163e+00
 -7.1271653e+00
 -3.1795254e-01
  4.5599957e+00
  5.0689363e+00
 -1.7577537e+00
 -1.3091168e+00
 -1.7473332e+00
  1.1585722e+00
 -7.1945560e-01
 -1.5810995e+00
 -1.0224848e+00
  3.5712593e+00
  3.8867342e+00
 -9.0598041e-01
 -2.1763539e+00
  1.1146898e+00
  6.4989619e+00
  5.4564571e+00
 -3.5949869e+00
 -6.0180402e+00
 -2.1255903e+00
  2.0921965e+00
  1.4204311e-01
  3.1496754e+00
 -4.4526401e+00
 -2.9995444e-01
  3.6035011e+00
  5.2702713e-01
  7.4935865e-01
  1.7975729e+00
  1.3592644e+00
 -1.8973451e+00
 -4.0920115e+00
  6.5448780e+00
  4.2657018e+00
 -2.9347482e+00
 -3.3474650e+00
 -1.6215163e+00
 -7.0250326e-01
 -8.5809392e-01
  1.2769005e+00
  8.3281412e+00
 -1.0009906e+00
 -4.9237709e+00
  1.6992534e+00
  4.6613688e+00
  4.7011173e-01
 -3.4016671e+00
 -1.5866208e+00
 -1.3080939e-02
  2.4487374e+00
  4.1649094e-01
 -3.2598469e-01
 -2.1584206e+00
  1.6456582e-01
  3.2323938e-02
  8.5349256e-01
 -1.2260854e+00
 -3.2826703e+00
 -4.5743780e+00
  1.9408752e+00
  1.5254618e+00
 -2.0270345e+00
  1.6816525e+00
  4.4447951e+00
  1.4934634e+00
 -2.3296809e+00
  4.1251560e-03
  4.1251560e-03
  4.1251560e-03
  4.1251560e-03
  4.1251560e-03
  5.2743582e-03
  5.2743582e-03
  5.2743582e-03
  5.2743582e-03
  5.2743582e-03
  4.1027446e-03
  4.1027446e-03
  4.1027446e-03
  4.1027446e-03
  4.1027446e-03
  2.3731452e-03
  2.3731452e-03
  2.3731452e-03
  2.3731452e-03
  2.3731452e-03
  1.4660439e-03
  1.4660439e-03
  1.4660439e-03
  1.4660439e-03
  1.4660439e-03
  7.1759237e-04
  7.1759237e-04
  7.1759237e-04
  7.1759237e-04
  7.1759237e-04
  5.9611837e-05
  5.9611837e-05
  5.9611837e-05
  5.9611837e-05
  5.9611837e-05
