nep4_zbl 1 C 
zbl 1 2
cutoff 6 5 44 34
n_max 4 4
basis_size 8 8
l_max 4 2 1
ANN 80 0
  2.3139436e+00
  3.3734200e+00
 -1.3902599e-01
 -1.6107454e+00
  5.4958558e-01
  3.7976962e-02
 -1.5972606e+00
  6.0659176e-01
 -6.1088514e-01
  5.0948042e-01
 -6.3441515e-02
 -1.4096988e+00
 -1.1572266e+00
  2.2910786e-01
  1.8212715e+00
 -6.5552026e-01
 -1.3155514e+00
 -2.1062915e+00
  9.8064780e-01
  1.7551018e+00
 -8.8426226e-01
 -5.0419933e-01
  9.2784661e-01
  2.2849309e+00
 -5.7964581e-01
 -2.5529754e-01
 -1.1728020e+00
  5.3623751e-02
 -8.4043063e-02
  1.2185702e+00
 -4.9122804e-01
  8.0250822e-02
  1.7196624e-01
 -8.5261405e-02
 -1.9246176e+00
  1.4907988e+00
  1.1460860e+00
  3.0751202e+00
 -1.3546925e+00
  1.0395995e+00
  1.2340350e+00
  2.0350206e+00
 -3.0226264e+00
  1.4590892e+00
 -1.2165021e+00
  2.1747160e+00
  9.4890124e-01
 -9.6991992e-01
  4.7355101e-01
 -8.7420273e-01
  2.0705981e+00
 -2.7890103e+00
 -1.7479030e+00
 -1.9039335e+00
 -3.7007022e-01
  4.1918346e-01
 -2.0168748e+00
  1.6641001e+00
  4.4345641e-01
 -7.1841294e-01
  9.2329705e-01
  2.9386871e-02
  3.2539163e+00
 -2.3158295e-02
 -1.3043226e+00
  3.5141715e-01
 -6.7400318e-01
  1.6957783e+00
 -9.1105185e-02
 -1.1888649e+00
 -2.6567680e-01
 -1.2158028e+00
  3.4877050e-01
 -1.2473803e+00
  1.3205193e+00
 -1.4438277e+00
  2.7155991e+00
  1.5280013e-01
  5.3928739e-01
  1.0105805e+00
 -4.2189273e-01
  5.5520868e-01
  4.6095219e-01
  1.5996667e+00
  7.9517567e-01
  1.2450370e+00
 -2.7468878e-01
 -1.4392431e+00
  5.1010855e-02
  2.4862869e+00
 -1.6642599e-01
  1.7697669e+00
  8.1035256e-01
 -4.4918161e-02
  8.7345773e-01
 -1.2779637e-01
 -3.5369167e+00
  1.0129110e+00
  5.8878684e-01
 -1.0087793e+00
 -1.3569047e+00
 -8.4742045e-01
  7.8959811e-01
 -9.8479450e-01
  6.9633532e-01
 -2.1299870e+00
 -1.0632153e+00
 -1.6771512e+00
  3.1868246e-01
  4.9063805e-03
 -2.2237258e+00
  2.2975911e-01
  3.0265205e+00
  3.7406531e-01
  4.0743789e-01
 -2.9901615e-01
  2.6024082e+00
  7.7681923e-01
  2.6045921e-01
 -2.2294940e-01
 -2.7444980e-01
  2.2994990e+00
  2.3986030e+00
  7.4645810e-02
 -3.2394439e-01
 -3.0471784e-01
  1.2877978e+00
  1.1146029e+00
 -8.8280457e-01
  3.1469297e-01
  1.3324639e+00
 -9.3847173e-01
 -2.1572948e+00
 -1.4714406e+00
  1.1319786e+00
  1.0623881e+00
  4.2449215e-01
  1.1541712e-02
  1.2237593e+00
  2.9683405e-01
 -9.2131817e-01
  1.2516867e+00
  1.7653269e-01
 -1.9388086e+00
  5.3090429e-01
  2.3990853e-01
  2.3122411e+00
  8.0937576e-01
 -1.4266452e+00
  6.9628143e-01
 -2.1523243e-01
 -1.5017191e+00
 -8.9316773e-01
 -2.2526348e-01
  1.1817933e+00
 -1.8190785e-01
  6.7655551e-01
  2.2740383e-01
  9.9565226e-01
 -2.8477204e-01
 -6.3815010e-01
  4.4213945e-01
  5.0810504e-01
 -4.0375528e-01
  1.2489865e+00
  9.8907793e-01
  4.3568444e-01
 -5.2254683e-01
  1.7927478e-01
 -4.3307707e-01
  7.8622377e-01
  1.0961634e-01
 -7.7496707e-01
 -3.2154268e-01
  8.7092680e-01
 -1.7814060e+00
 -2.5337596e+00
  7.3753679e-01
  1.2700860e-01
  1.7768512e+00
 -2.4990210e-01
  2.7342129e-01
  2.1525180e+00
 -3.6580026e-01
  3.5367944e+00
 -2.0618455e+00
 -4.3824530e-01
  2.7107265e+00
 -1.1446084e+00
  1.6020709e+00
 -6.2291801e-01
  1.7832036e+00
  2.9491429e+00
  6.4223009e-01
  3.0775511e+00
  4.4880754e-01
 -7.7247334e-01
 -6.1795390e-01
  1.0356512e-01
  1.6456412e+00
 -3.6663170e+00
  3.9353466e-01
  5.1787776e-01
  1.8089516e-01
  6.4658386e-01
 -3.2875282e-01
 -2.2808440e-01
  9.2827564e-01
  3.2436648e-01
 -1.3530836e+00
 -1.1376134e+00
 -3.9421278e-01
  1.0180211e+00
  1.4015172e+00
  2.4856782e+00
 -3.7011626e+00
 -2.6706088e-01
  7.9002333e-01
  2.6206601e-01
  1.5751191e+00
 -9.0545017e-01
 -1.7523232e+00
  2.2655928e+00
  9.4677550e-01
  1.6316940e+00
 -5.0182229e-01
 -1.6035995e+00
 -1.0061549e+00
  2.5948219e+00
 -1.6522309e+00
 -1.3589371e+00
 -2.6571558e+00
 -1.3499041e+00
  1.9722192e+00
  8.4011900e-01
 -8.4862316e-01
  7.2450995e-01
  2.9362392e-01
 -8.7926984e-01
  4.6355027e-01
 -7.6739842e-01
  4.2866254e-01
  1.2282830e-01
 -1.1870719e-02
 -1.0208617e+00
 -4.8722363e+00
 -4.7831339e-01
 -4.9696705e-01
 -6.2791979e-01
  2.5293655e+00
 -3.5600691e+00
 -2.7478688e+00
  1.3425424e+00
 -2.9899898e-01
 -1.4746110e-01
 -5.8496699e-02
 -1.8443089e+00
  1.5168555e+00
  1.8509741e-01
  1.0760252e+00
  3.5522804e-01
 -2.0989223e+00
 -1.0655102e+00
  2.3519003e+00
  1.0779219e+00
  1.0520259e+00
  6.3358140e-01
 -1.3622514e+00
 -8.9416325e-01
  1.6658951e+00
 -7.8181285e-01
 -1.7604665e+00
 -1.3616900e+00
 -5.8185250e-01
  6.5767229e-01
  2.0170553e-01
 -6.8174189e-01
  8.5286021e-01
 -4.4911519e-01
 -5.3277510e-01
 -4.9236000e-01
  1.7181279e-01
 -7.5482303e-01
  2.5707126e+00
  2.3706263e-01
 -1.8144468e+00
  4.8544112e-01
 -1.7740744e-01
 -6.0795802e-01
  6.6813660e-01
  5.8866340e-01
  1.6798711e+00
  1.4382766e+00
  8.3693290e-01
 -4.4302285e-01
 -3.7969196e-01
 -5.4177433e-01
 -3.1338304e-01
 -1.0505369e+00
 -1.4518198e+00
  1.9443531e+00
  2.3984316e-01
  1.1629602e+00
 -8.0529377e-02
  2.9011202e+00
  1.4853220e+00
  1.5012997e+00
 -1.3152740e+00
  9.2682308e-01
  1.2383052e+00
 -2.5535727e-01
 -1.1067082e+00
  1.4218861e+00
 -1.1102860e+00
  3.2168818e-01
  3.5952787e+00
 -3.1633869e-01
 -7.3730499e-01
 -2.7198905e-01
 -1.5500519e+00
 -8.2359099e-01
  3.7436903e-01
  4.5216903e-01
 -1.7927447e-01
 -1.0014477e+00
  7.6418674e-01
 -1.5808908e+00
 -3.6036804e-01
  1.1913625e+00
 -1.7207679e+00
 -1.8487090e+00
 -1.4000946e+00
 -5.1358979e-02
 -2.0685575e+00
  4.5185491e-01
  6.5985286e-01
 -9.6256143e-01
  2.9423779e-02
 -3.7938190e-01
 -2.5685725e+00
  2.4540803e+00
  4.5107245e-01
 -2.8189749e-01
 -8.5380423e-01
 -1.4253479e-01
 -6.7337316e-01
  5.8964437e-01
 -9.4583499e-01
  3.8866648e-01
 -4.7288877e-01
  1.4545282e+00
  2.0349100e+00
  7.5848305e-01
 -8.2090437e-01
 -3.2760870e-02
  1.5828934e+00
  8.1001252e-01
  3.9731140e+00
  1.2708411e-01
 -1.2222426e-02
 -4.4814503e-01
  1.1981197e-01
  7.6139158e-01
  1.0183369e+00
  1.0519735e+00
  8.5085785e-01
  7.0054722e-01
 -3.0291712e-01
 -4.3593302e-01
 -5.0049520e-01
  3.2671533e+00
 -1.6459028e-01
 -7.2182059e-01
 -7.8355260e-03
  5.4410499e-01
  1.3722371e+00
  4.0824369e-01
  3.2574749e-01
  3.0733545e+00
  1.0173941e+00
  3.2452229e-01
 -1.3091863e+00
  6.4932786e-02
  3.7751484e-01
  4.8254868e-01
  1.7920108e+00
 -3.3721575e-01
 -3.4623492e-01
 -3.2997432e-01
  1.7081556e+00
 -1.3353416e+00
  2.5048127e-02
  9.9575645e-01
  9.8944384e-01
  1.8364478e+00
  4.9395075e-01
  2.7241808e-01
 -8.2094067e-01
  4.3764102e-01
  1.1113228e+00
 -1.4210329e+00
  2.9705945e-02
  1.5344504e-01
  4.7581429e-03
 -1.2660646e+00
 -2.4698985e+00
 -2.3094263e+00
  1.3683583e+00
  2.3792691e-03
  1.3211260e+00
  5.9270442e-01
  3.1965477e+00
 -6.6651922e-01
  2.0101063e-01
  7.4787475e-02
  9.6923852e-01
  1.3618490e-01
  2.9866928e-03
 -3.0737346e-01
  3.2694879e-01
  5.2930921e-01
 -2.4291809e-01
  2.4647728e-01
 -4.2840338e-01
 -2.0439048e+00
 -1.8052018e-01
 -4.0275115e-01
 -2.1035321e+00
 -1.4567431e+00
  1.7749119e-01
 -1.4748173e+00
 -2.5416705e-01
 -7.0408732e-01
 -8.1627882e-01
  4.5484909e-01
 -7.2410661e-01
 -1.5647514e+00
  3.9366686e+00
 -4.0209121e-01
 -1.0460650e+00
  1.3387340e+00
 -1.2897445e+00
 -2.9886249e-01
 -1.6036096e-01
 -9.3135633e-02
  8.0618304e-01
  2.3957349e-01
 -6.3688070e-02
 -1.7840463e-01
  2.2246247e-02
  4.2461169e-01
  5.5218619e-01
 -2.5518826e-01
  1.5395232e-01
 -3.0775115e+00
 -2.6436895e-01
 -8.6246085e-01
  7.4560738e-01
 -5.7037783e-01
  1.9725266e+00
 -2.2193077e+00
  1.3320178e+00
 -1.2541748e-02
 -4.4098085e-01
  1.8056444e+00
  9.8194975e-01
  9.4333988e-01
 -1.3223414e+00
  6.8245262e-01
 -1.2623186e+00
 -1.0823749e+00
 -1.9020238e+00
 -8.1208029e+00
  2.3850632e+00
 -1.2678517e+00
  7.4117845e-01
  9.6642774e-01
  1.0824810e+00
  1.6261189e-01
  4.9600047e-01
 -2.0925698e+00
 -2.8303432e+00
  1.1400405e+00
  2.9760158e-01
  6.3470888e-01
 -3.4159580e-01
 -1.1073726e+00
  2.0941491e-01
 -1.0044824e+00
 -3.0022532e-01
  1.1255051e+00
 -2.4583741e-01
  3.3695826e-01
 -1.7278938e-01
 -2.5090296e-02
 -6.1036098e-01
 -1.4344810e-01
 -1.0418478e+00
  5.9722370e-01
 -4.5465025e-01
 -1.0554559e+00
 -1.3074316e+00
 -4.9897933e-01
  6.9129068e-01
  1.4279033e+00
 -1.4959326e+00
  2.0534238e-01
  4.2543226e-01
  1.4418436e+00
  1.2911446e-01
  9.3127632e-01
 -9.9691147e-01
  7.8046992e-02
 -1.1358187e+00
  4.6094596e-01
 -9.8543566e-01
 -9.0969157e-01
 -1.0735716e+00
 -5.3284812e-01
 -1.1614974e+00
  3.9786726e-01
  1.1401101e+00
  9.2720844e-02
 -1.7601855e-01
 -1.0143944e+00
  1.2453121e+00
 -1.4421110e-01
 -1.5712318e+00
  5.9442586e-01
  2.1615346e-01
  8.2613230e-02
 -1.3988541e+00
 -1.3009324e+00
  1.8371618e+00
  3.2671037e-01
  2.2254159e+00
  3.1319818e+00
 -3.4109156e+00
  1.7542351e+00
 -3.3827916e-01
 -2.6245563e+00
  1.6308364e+00
  2.3053165e-01
  1.7488071e+00
 -5.5158269e-01
 -2.9451513e+00
  1.8122085e+00
 -9.7725600e-01
 -5.7946831e-01
 -7.0670176e-01
  7.0314842e-01
 -2.2340574e+00
  1.4235228e+00
 -6.8446755e-01
 -7.7415556e-01
 -9.5810962e-01
 -1.1243441e+00
 -6.4709276e-01
 -5.5531991e-01
 -1.6603839e-01
 -3.5413706e-01
  1.8722861e+00
 -2.6300609e+00
 -1.9172837e+00
  1.8249604e+00
  7.3834366e-01
 -6.6189414e-01
 -1.5800424e+00
  1.6406816e-01
  9.7710598e-01
  9.3037802e-01
  1.9923326e+00
 -7.5478125e-01
  3.2085532e-01
  8.3872092e-01
 -8.2393393e-02
  2.3251410e-01
 -9.2039502e-01
 -1.1767577e+00
  6.6066706e-01
  2.0978884e-01
  1.3795837e+00
  1.0278519e+00
 -4.0300938e-01
 -6.5734518e-01
 -6.9357151e-01
  5.4052883e-01
 -5.3192407e-01
 -6.7523706e-01
 -7.0171052e-01
 -6.6414922e-01
  7.7231073e-01
 -1.0209662e+00
  6.4429648e-02
 -1.5653863e+00
 -3.0703261e-01
  1.2696759e+00
 -2.2806635e+00
  1.0776680e+00
 -2.2489090e+00
 -2.1703198e+00
  6.5566409e-01
  6.9430745e-01
 -2.4040513e-01
  9.4372702e-01
 -3.5906165e+00
  2.9792407e+00
  1.0380059e+00
 -1.8329997e+00
  2.2604818e+00
 -1.9965780e+00
 -1.7520871e+00
 -9.6458089e-01
 -1.6012283e-01
 -2.4901736e+00
 -2.6197920e+00
 -7.9439771e-01
 -7.3936796e-01
 -3.8889635e-01
 -1.9028556e+00
 -2.3093295e+00
  5.2006668e-01
 -1.0976746e+00
  8.8225949e-01
  1.4568833e+00
 -4.4279283e-01
  1.6209232e-02
 -1.0910919e+00
  8.1280828e-01
  1.8072437e-01
 -1.2183660e+00
  4.6954411e-01
  5.4206038e-01
 -2.4690673e-01
 -9.2426807e-01
 -3.2813385e-01
 -1.0068378e-01
  1.4295826e+00
 -1.0689399e+00
 -9.1011149e-01
 -2.1464908e-01
  1.5779801e-02
 -1.4042540e-01
 -5.1176870e-01
 -3.8836119e-01
  4.6386492e-01
 -1.0118864e+00
  7.5988311e-01
 -5.6921315e-01
 -4.4430873e-01
  2.0604901e-01
 -5.3637832e-01
 -1.3984221e+00
 -7.7032769e-01
 -1.2446789e+00
  9.6272148e-02
  1.1468226e-01
 -3.7230608e-01
 -5.2164739e-01
  8.0021417e-01
  8.2053417e-01
  4.1941237e-01
  8.0371451e-01
 -3.2297248e-01
  5.3607786e-01
 -1.1367698e+00
  7.7320784e-01
  3.3312600e-02
 -1.2557372e+00
 -5.2769071e-01
 -4.8144242e-01
 -1.9513002e-01
 -3.6411741e-01
 -1.0780226e-01
 -1.8839265e-01
  4.1726688e-01
 -2.3442265e-01
 -1.3851080e+00
  3.9779416e-01
 -9.8605269e-01
 -1.8340811e-01
  5.4102969e-01
  6.5519273e-01
  3.7829724e-01
  1.7458175e+00
 -8.0383676e-01
 -9.1944706e-01
  1.2976635e+00
 -2.8902575e-02
 -1.6573297e+00
 -9.3443429e-01
 -1.8403277e-01
  3.0045250e-02
  1.5874248e+00
 -2.1473026e+00
 -5.8972174e-01
  3.4623355e-01
  1.4864124e+00
 -4.1181639e-01
  3.3431852e-01
 -1.6990230e+00
 -1.3631926e+00
  8.5955185e-01
  6.6775302e-03
  1.9947149e-01
 -5.4991955e-01
 -8.0344862e-01
  2.3218331e-01
 -2.1793203e-01
 -6.4428931e-01
 -3.6648592e-01
  1.5825839e+00
  1.8475515e+00
  6.6572291e-01
 -1.4910389e+00
  2.0314135e-02
 -5.6368512e-01
  1.4562137e+00
  8.5476500e-01
 -5.3730148e-01
 -1.0169069e+00
  1.7543850e+00
 -2.2588119e-01
  6.5388191e-01
 -1.2528006e+00
  3.9611501e-01
 -8.5078394e-01
  1.2074063e-01
  3.0064521e-05
 -3.1816408e-01
  6.1185181e-01
  2.9057115e-01
  5.0364643e-01
 -1.0900205e+00
 -2.6889464e-01
  3.3087630e+00
  8.7421745e-01
 -9.0246052e-01
 -1.2600912e+00
  2.2110881e-01
 -2.1795690e+00
  1.0647956e-01
  1.6629603e+00
 -8.9427197e-01
  1.5962170e-01
 -2.9867833e+00
 -1.8821332e-01
 -2.9669192e-01
 -6.3952732e-01
 -1.7279160e+00
 -2.4986048e-01
 -9.4581020e-01
 -2.9057312e+00
 -4.5395854e-01
 -5.3812647e-01
  1.2149774e+00
 -5.1325369e-01
 -3.2045412e-01
 -7.7647513e-01
 -2.7621107e+00
 -2.7254844e-01
  9.3019122e-01
  2.5059493e+00
 -3.2551420e-01
 -2.0442610e-03
 -9.1288275e-01
 -1.2896755e+00
 -9.0198392e-01
 -6.2630129e-01
 -1.3257542e+00
  1.1174271e+00
  4.3277392e-01
  1.6175736e+00
 -1.0660565e+00
 -1.7511905e+00
  1.7503556e+00
  6.7310706e-02
 -5.9859127e-01
 -3.8482177e-01
  9.7226298e-01
 -2.7321729e-01
  1.6195621e-01
 -1.5147480e-01
 -1.7022870e+00
  1.4335263e-02
  1.3631833e+00
 -1.0330914e+00
  8.6465579e-01
  4.6597642e-01
 -2.7182839e+00
 -4.7989613e-01
 -9.0918940e-01
 -1.2558286e+00
 -1.1637989e+00
  1.0658772e+00
 -2.6095477e-01
  6.2723386e-01
 -3.6141583e-01
 -4.6579161e-01
  3.5982779e-01
 -4.6996686e-01
  1.3179806e+00
 -1.0677345e+00
  3.9225537e-02
  2.1176198e+00
  1.1131073e+00
  2.2457950e-01
 -3.7193816e+00
 -1.8671710e+00
  4.6082124e-02
 -1.7184001e+00
  9.9991441e-01
  3.4768453e-01
 -7.4122787e-02
 -2.1999569e+00
 -2.1645658e+00
  5.5719632e-01
 -1.0383964e+00
 -3.8977343e-01
 -8.6719286e-01
 -1.3198147e+00
 -6.7158967e-02
  5.8400798e-01
 -9.9947262e-01
  3.6090368e-01
 -1.0645933e+00
 -5.2103472e-01
  1.7213230e+00
  2.8751135e+00
 -2.1958992e-02
 -2.6334891e+00
  1.7682950e+00
  3.2111582e-01
  6.6668344e-01
 -3.4662387e-01
  3.3392191e-02
  1.1902981e+00
  5.1374167e-01
  2.1663287e-01
 -1.7338154e-01
  2.5661582e-01
 -8.9896303e-01
  1.9616160e+00
  1.1598307e+00
  9.8680866e-01
  1.2077167e+00
 -7.7665286e+00
  1.2389327e-01
  2.2945875e-01
 -2.5468609e+00
 -2.9167002e-01
  2.7692473e+00
  8.9648098e-01
 -8.3356702e-01
 -2.6202917e+00
  1.6384683e+00
 -1.3967848e+00
  1.4581945e+00
 -1.3105929e-01
  1.1038713e+00
  1.6336228e-01
  6.6180795e-01
 -5.4506236e-01
 -6.7933863e-01
  1.2499072e-01
  2.0025082e+00
 -5.2547395e-01
  1.0920461e-01
  7.5783336e-01
  3.3942409e+00
  7.5646770e-01
  1.5262605e+00
  6.6726369e-01
  3.4639785e-01
  4.0617418e-01
  2.6475370e+00
 -1.3562571e-01
  3.0027435e+00
  9.6261996e-01
 -3.1297731e+00
 -1.4833351e+00
  2.6623940e+00
 -1.9413766e+00
  1.2642791e+00
  7.0081866e-01
 -2.3649349e+00
 -1.7104458e+00
 -1.4639506e+00
  1.2934119e+00
 -1.7624922e+00
 -2.2103789e-01
  1.0962403e+00
 -6.1196417e-01
 -5.7916570e-01
 -3.3025569e-01
  9.2727757e-01
  9.2555588e-01
 -1.0773314e+00
  1.3949244e-01
 -2.7533753e+00
  1.3763873e-01
  1.6183350e+00
 -2.5553718e-01
 -2.6156044e-02
 -2.6283920e-01
 -3.3895543e-01
  3.4453619e-01
 -1.2356622e-01
  2.1768415e-01
 -1.7922767e+00
 -2.4293439e+00
  1.6693630e+00
  2.8027606e-01
 -2.0127566e+00
  1.0357610e+00
 -4.7567567e-01
  1.1388116e+00
  1.9350995e+00
 -2.4468124e+00
  5.9891558e-01
 -1.4242113e+00
  1.7164046e+00
  3.3052005e-02
  1.4169854e+00
 -2.6141691e-01
 -8.8989383e-01
  1.6683784e+00
  1.6802263e+00
 -2.9178959e-01
 -1.0574862e+00
  2.5322488e-01
  5.6101668e-01
  3.8438955e-01
 -1.0172763e-01
  1.4674137e+00
 -7.5285816e-01
 -8.6880565e-01
 -2.2018003e+00
 -2.4111536e-01
  7.1466261e-01
 -1.2550187e+00
  1.5586155e-02
 -1.8590885e-01
 -2.1216612e-01
  1.0914985e+00
 -5.2175117e-01
  1.0032836e+00
 -3.9652212e+00
  1.3088005e+00
  1.2008712e+00
 -4.6217126e-01
 -9.1476500e-01
 -2.7500969e-01
  1.8840493e-01
  1.7928530e+00
 -2.1527565e+00
 -8.4597790e-01
 -6.4453906e-01
  7.9645848e-01
  1.1352826e+00
 -2.5349170e-01
 -2.8648849e+00
  2.3977110e+00
 -7.9376012e-02
  1.0139461e-01
 -6.0559946e-01
  3.9395440e-01
 -2.1181536e+00
 -3.6880282e-01
  5.4392195e-01
 -1.0003172e+00
  8.7096983e-01
  3.3156502e+00
  1.2870835e+00
 -9.0331841e-01
  1.8633972e+00
 -2.7359045e-01
 -2.9108149e-01
 -6.0842133e-01
 -9.9912333e-01
 -9.1551952e-02
  1.2724920e-01
  4.0443001e+00
  1.0609405e+00
  3.5738117e-01
 -1.0180964e+00
 -3.6521702e+00
 -1.1462681e+00
  8.0124134e-01
  2.2768278e+00
 -4.1918945e+00
  2.6552039e-01
  1.0800775e+00
 -7.7172410e-01
  4.4240737e+00
 -9.4646353e-01
 -6.1139286e-01
  2.2659247e+00
 -8.3319604e-02
 -1.2069637e-01
  1.6419133e+00
  9.5618868e-01
  2.5481126e-01
 -1.6663716e+00
  1.6339645e+00
 -1.6603804e+00
 -4.8238704e-01
  3.9049826e+00
 -3.8729321e-02
  1.7815329e+00
 -1.0570239e-01
 -1.7012443e-01
  5.5274636e-01
 -1.0625621e+00
 -1.2150339e-01
 -2.5881441e+00
 -1.6959563e+00
 -3.1040421e-01
 -2.9398978e+00
  2.8401580e+00
 -8.3531108e-04
 -5.3443992e-01
 -1.7183536e+00
 -9.3858111e-01
  4.4301203e-01
  4.9689090e-01
  1.3327166e+00
  5.3300273e-01
 -5.1936328e-01
  5.3209043e-01
 -4.6632507e-01
  1.6482252e+00
  1.1326252e+00
 -2.7472360e+00
 -2.3560564e-01
 -1.2484738e+00
  6.6974752e-02
  1.6202111e+00
  1.7093514e+00
  7.1862447e-01
  1.6019077e+00
  2.1488683e-01
  7.3980373e-01
  5.1471496e-01
 -1.1667086e+00
  8.4254348e-01
 -2.0281631e-01
  1.5790427e+00
  6.7816252e-01
 -4.2218122e-01
 -1.9349842e+00
 -2.3083766e+00
  2.0518614e-01
 -1.2753841e+00
 -3.2547519e-01
  1.5191774e+00
 -7.9186225e-01
  3.7475514e-01
 -7.0765603e-01
  1.2334579e+00
  8.6656582e-01
  6.0306436e-01
  3.1084619e+00
 -1.3463424e+00
 -1.8012024e+00
 -9.3624191e-03
 -1.6397407e+00
  2.2301273e+00
 -2.0267732e+00
  1.1810839e-01
  1.4911140e+00
 -8.2966375e-01
  7.7425945e-01
 -2.9051313e-02
 -3.4432464e+00
 -4.0826979e+00
 -4.3170935e-01
 -3.9112102e-02
 -1.3601052e+00
  1.4185506e-01
  4.9466389e-01
  1.5989399e-02
  3.2659534e-01
  3.9538282e-01
 -8.4079731e-01
 -1.0122010e+00
  2.4658041e-01
  2.5043416e+00
  8.2015824e-01
  3.5467468e-02
  1.6028420e+00
  2.4383574e+00
 -2.5401232e+00
  9.4384372e-01
 -1.0510807e-01
  3.1416874e+00
 -5.1624703e+00
  1.0550079e+00
  7.1636516e-01
 -3.8012171e-01
  8.7532479e-01
  2.8622541e-01
  3.5683388e-01
 -3.5480222e-01
  7.7181025e-03
  1.0787929e+00
  1.4027131e+00
 -1.4089961e+00
 -1.3057293e+00
  1.0851710e+00
 -2.3343215e+00
 -1.1133628e+00
  9.3683481e-02
  3.1999585e-01
  7.4238026e-01
  2.9039776e-02
  2.4521346e+00
  5.1148081e-01
 -1.2740344e+00
 -3.6370328e-01
 -2.9331204e-01
  5.2952373e-01
 -2.6495485e+00
 -1.8658143e+00
 -2.1192873e+00
 -2.0991075e+00
  2.4546666e+00
  2.8016748e+00
 -5.1129805e-03
  1.1958508e+00
  3.6705971e-02
 -2.1130242e+00
  1.0072669e+00
  2.7106825e-01
 -4.7647104e-01
  6.1772162e-01
 -3.0976062e+00
  2.0380437e+00
  1.7733389e+00
 -2.4803030e+00
 -1.9315289e+00
 -1.7048539e-01
  7.6695132e-01
 -1.0822297e-01
 -7.4857974e-01
 -1.5724051e+00
  1.8682804e+00
  4.1106880e-01
 -7.8512512e-02
  5.5733120e-01
 -2.2988302e-01
  3.7676096e-01
 -4.4776326e-01
 -3.6380878e-01
  1.0036243e+00
  1.9772881e-01
 -4.1174966e-01
 -2.2009037e-01
 -1.9324676e+00
  4.6433279e-01
 -2.4308312e+00
 -5.7243228e-01
 -1.1534032e+00
 -2.6703501e-01
  6.0863918e-01
 -3.8214695e-01
  2.5158921e-01
  5.3137207e-01
 -6.9358426e-01
 -3.7913680e-01
  7.9366142e-01
  1.6754583e+00
 -5.6761611e-02
  2.6088169e-01
 -6.7996435e-02
 -1.8108968e+00
 -1.0425311e+00
 -6.9282746e-01
  1.3995751e+00
  1.3161130e+00
  2.1997015e+00
 -1.1834503e+00
  5.7855397e-02
 -5.4577732e-01
 -1.4430270e+00
 -3.8612968e-01
 -4.4847319e-01
  9.0969121e-01
  1.7375760e-01
  1.4674203e-01
  4.2882344e-01
  1.1615634e+00
 -3.6488983e-01
  1.0772368e+00
 -5.4348016e-01
 -2.1756095e-01
 -1.9022614e+00
 -7.8609759e-01
  7.0864499e-01
  1.9585097e+00
  3.5086744e+00
  3.6195943e-01
 -2.6659746e+00
  2.5534114e-02
  1.4907682e+00
 -1.4048638e+00
  5.0735444e-01
  1.4352529e+00
 -8.5291374e-01
  7.0927419e-02
  3.0433303e-02
 -1.0411379e+00
  1.2625730e+00
  1.2065744e+00
  1.5987164e+00
 -6.7512482e-01
  1.8253311e+00
  1.3385528e+00
  1.0712713e-01
  1.2054642e+00
 -3.5440513e-01
 -4.4233903e-01
  2.5814685e-01
  4.0342534e-01
  1.8830638e+00
  9.1741151e-01
 -2.3417854e+00
 -6.5491968e-01
 -7.2448242e-01
 -1.3846133e+00
  4.3130279e-01
 -1.9960670e+00
  2.6275489e-01
  8.0534923e-01
  9.6589595e-01
 -3.0573821e-01
 -1.3813400e+00
 -2.3191397e+00
  6.8424392e-01
  3.2129445e+00
 -1.4723034e-01
 -8.9288092e-01
  2.0628181e-01
 -6.8293530e-01
 -5.1960289e-02
 -1.3163661e+00
 -7.1294534e-01
 -8.2392210e-01
  4.1328340e+00
  5.3059036e-01
  6.2047487e-01
 -1.6525096e+00
 -1.1190411e+00
  8.1252921e-03
 -1.3064593e+00
  4.3764213e-01
 -4.5591837e-01
 -1.1292616e+00
  2.1304761e-01
  3.8601676e-01
  3.0210119e-01
 -5.3424263e-01
 -2.3395076e+00
  3.0350983e-01
  5.8688742e-01
 -1.2835278e-01
  3.6311927e-01
  8.4685498e-01
  1.4685626e+00
 -1.1608591e+00
  1.2783085e+00
 -4.0312493e-01
  1.8870120e+00
  4.0427610e-01
 -1.5624639e+00
  3.1973538e-01
 -3.1801432e-01
  1.2216727e+00
  1.1313893e+00
 -5.3027225e-01
  6.6147703e-01
 -5.2861595e-01
  4.8004821e-01
 -1.1968930e+00
 -4.3483487e-01
  2.5736919e-01
 -2.2133741e+00
 -6.2727898e-01
 -6.2224972e-01
 -1.4784908e+00
 -3.4146273e-01
  4.4885669e-02
 -3.0289996e-01
  5.3839791e-01
 -7.7417538e-02
  1.2256570e+00
  6.1095792e-01
 -1.9619792e+00
  3.1891409e-02
 -2.1724019e+00
 -1.3484607e+00
  7.9514390e-01
  1.1206000e+00
 -8.8026375e-01
 -4.2340094e-01
 -2.4446981e+00
 -2.5194027e-02
  1.3769208e+00
 -1.4575039e+00
  5.3798474e-02
 -3.9482474e-01
 -5.0721135e-02
 -3.7922418e+00
 -1.5558951e-01
  2.4651577e+00
 -2.3099298e+00
  1.6750963e+00
  8.0280274e-01
 -1.1918994e+00
 -6.6641295e-01
 -1.0394479e+00
 -3.3674222e-01
 -6.0134673e-01
  3.4065318e-01
  1.9296247e+00
  1.8090355e-01
 -6.1896914e-01
  1.5441939e-01
  1.1112316e+00
  3.5262927e-01
  1.7003693e-01
  6.4233188e-03
  2.3269425e-01
  5.9273696e-01
 -1.8812591e+00
 -1.0313029e+00
 -7.5292432e-01
  3.0418718e-01
  5.1504195e-01
  6.7701811e-01
  2.8640261e+00
  3.0764129e+00
  4.8587918e-02
 -1.2617414e+00
  6.2607270e-01
  9.1383904e-02
 -1.3553369e+00
 -4.0877398e-02
 -4.5343482e-01
  1.4657898e+00
 -3.9071259e-01
  5.5100429e-01
  1.2018970e-01
  7.6008511e-01
  9.4088352e-01
  1.0695181e+00
 -5.3307718e-01
  1.2701360e+00
  2.6448896e-02
 -1.2716866e-01
  1.3875439e+00
  5.1940376e-01
  2.3095919e-01
 -1.0026971e+00
  2.5099587e-01
  1.0330439e+00
 -1.9349213e+00
 -1.2693051e+00
 -3.5841706e+00
 -3.1110957e+00
  2.2263486e+00
 -1.9443854e+00
  6.8936214e-02
  1.2180396e-01
  2.0052984e+00
  1.7570535e+00
 -4.7909662e-01
  1.2305890e+00
 -1.7154502e+00
  3.0949461e-01
 -7.4526227e-01
  1.2459996e+00
 -1.5698906e+00
 -1.0441095e+00
  3.7072909e-01
  1.3124205e+00
 -2.9616368e+00
  4.7407743e-02
 -1.0902072e+00
 -7.8366137e-01
 -1.3996027e+00
 -1.8562088e+00
  9.6478897e-01
  2.0264307e-01
  4.4884640e-01
 -1.1312079e-01
  2.0856640e+00
  2.2881997e-01
  6.7571145e-01
  3.7908667e-01
 -4.8339458e+00
 -2.2815826e+00
 -2.2237840e+00
 -6.5894920e-01
  1.1253241e+00
 -1.3157915e+00
 -4.2400665e+00
  7.1885781e+00
 -1.4145144e+00
  1.4287540e-01
  1.9144008e+00
  1.0163668e+00
 -1.1276096e-01
  2.4527199e+00
  1.2895511e+00
  2.3684070e+00
 -1.1527950e+00
  2.5025365e+00
  1.2052751e+00
  1.1755099e+00
  1.6432489e+00
 -1.5610183e+00
  7.0378155e-01
  3.2018564e+00
 -1.5085427e-01
  6.1467963e-01
 -9.5650381e-01
 -1.1865107e+00
 -9.9536562e-01
 -2.3660562e+00
 -1.2544672e-01
  1.7345496e+00
 -8.0860406e-01
 -3.1559661e-01
  1.1416894e+00
 -7.6457822e-01
  1.2512153e+00
 -2.8402293e-01
 -1.2257965e+00
  1.2013642e+00
  1.3133711e+00
  9.2178071e-01
  2.3132255e-02
  1.8649395e-01
  1.2420781e+00
 -5.9054476e-01
  8.1914097e-02
 -6.3629097e-01
 -3.0334094e-01
  6.1420596e-01
  3.7932524e-01
 -4.1179657e-01
  5.4492909e-01
 -3.3572283e-01
  3.1430471e-01
  7.5835252e-01
 -3.9838454e-01
 -1.0824148e-01
  9.1277152e-02
 -9.0880328e-01
  1.2883584e-01
  1.8001883e-01
 -1.3318354e-01
  3.8284302e-01
 -1.5787542e-01
 -6.5988326e-01
 -4.0377852e-01
 -6.4839405e-01
 -4.6310514e-01
 -1.5053448e-01
  3.1097319e+00
  7.4037272e-01
 -1.0872097e+00
  1.7622929e+00
 -2.6679271e-01
  2.7479711e-01
 -1.0445114e+00
  2.8038373e+00
 -8.4628105e-01
 -9.0314947e-02
 -4.4007850e-01
  2.6809671e+00
  1.8530762e-01
  5.5088949e-01
 -8.4807366e-01
 -4.7007585e-01
  7.6126146e-01
  1.8220626e+00
 -1.1667625e+00
 -2.7358500e-02
  7.7817291e-01
  8.3273584e-01
  4.6586357e-02
 -8.1465578e-01
 -1.2951996e+00
 -2.2670059e-01
 -1.6446455e+00
 -1.9190369e+00
 -4.3492046e-01
 -1.4204861e-01
  2.0125120e+00
  1.6218663e+00
  4.4082341e-01
  1.0795419e+00
  1.2034166e+00
 -2.6208827e+00
  1.7769843e+00
 -2.3684955e+00
 -1.7987349e+00
 -7.5514638e-01
  1.2236155e+00
  2.1267198e-01
  7.0041394e-01
 -1.1270238e+00
  3.3699808e-01
  3.5008550e+00
 -3.5311973e+00
 -1.0888336e+00
  6.4536583e-01
 -4.6965802e-01
 -4.7816217e-01
  5.1944256e-01
 -1.4568237e+00
  5.8803725e-01
  4.9144803e-03
  6.8447918e-01
 -1.9786528e-01
 -6.7528665e-01
  1.4976850e+00
  6.3268495e-01
 -4.5518947e+00
  2.1199129e+00
  5.4128761e+00
  6.7482316e-01
  2.8570971e-01
  2.2643743e-01
 -4.2400834e-01
  8.3811849e-01
  4.3726313e-01
 -1.8532950e-01
  3.6645517e+00
  5.6634158e-01
 -2.4878650e+00
 -3.5878932e-01
  1.2042421e+00
 -2.1004663e+00
  6.0873926e-01
 -1.7459698e+00
  7.4862164e-01
  1.8014251e+00
  2.7687781e+00
 -5.5349571e-01
 -2.5181064e-01
 -7.6130569e-01
  1.1735135e-01
 -1.4673164e+00
 -1.6140964e+00
 -9.0338910e-01
  6.4652848e-01
  7.1168929e-01
  1.0599998e+00
 -1.5293949e+00
 -1.4535170e+00
 -6.0494965e-01
 -1.0763688e-02
 -1.3432615e-01
  9.0475476e-01
 -9.0927643e-01
 -9.3466753e-01
  6.2694818e-01
  1.2062126e-01
 -6.1262357e-01
  2.5305757e-01
  6.7331868e-01
 -8.5826255e-02
 -1.4737322e+00
 -3.0445323e+00
  5.2977359e-01
 -1.8907205e+00
  1.1330671e+00
  1.8305116e+00
  2.6767759e+00
 -1.5511920e+00
 -1.9854863e-01
  3.8598493e-02
  2.4046061e+00
 -2.0731637e+00
 -3.0316100e+00
 -5.0676662e-01
 -8.1075954e-01
  4.4852734e+00
 -1.9800279e+00
 -2.6671436e-02
  1.6127378e+00
 -4.1967431e-01
  1.0507913e+00
 -1.4677356e+00
 -1.1992931e+00
  2.2094438e+00
  5.6737717e-02
 -3.9527562e+00
  3.6936367e+00
 -3.0928081e-01
  2.4915559e+00
  2.1742013e+00
 -2.4846184e-01
 -7.4859113e-01
  1.2301719e+00
 -2.3806554e-01
 -1.5546457e+00
  1.4998507e+00
  1.3340763e+00
 -3.4460258e+00
 -1.9795943e+00
  2.0724421e+00
 -1.3217093e+00
 -2.2285898e-01
  1.0172209e+00
 -1.0184609e-01
 -3.5354370e-01
 -3.4124112e-01
 -4.6555844e-01
  7.5123453e-01
  7.9208457e-01
 -1.9857903e-01
  8.4865886e-01
  9.3726659e-01
 -8.8062328e-01
 -1.1889263e-01
  1.2893261e+00
 -6.3473344e-01
 -5.0295699e-01
  4.8237920e-01
  5.0097364e-01
  2.3452425e-01
  2.8104250e+00
 -7.4726415e-01
 -9.6701479e-01
 -4.0884927e-01
 -2.6372328e-01
 -3.5442695e-01
 -1.2578267e+00
 -8.0988097e-01
  3.1459507e-01
  2.0038215e-02
 -1.6543944e+00
 -2.2240429e-01
  6.5451705e-01
  5.8334666e-01
  2.8089741e-01
  7.9103357e-01
 -3.0946177e-01
  1.6057332e+00
 -5.2637315e-01
 -1.2474862e+00
  2.3991367e-01
 -2.1996043e+00
  1.1209910e+00
  2.3487253e-01
  3.1539910e-02
  3.6322361e-01
 -9.0430170e-01
 -8.5699373e-01
  6.8640602e-01
 -6.5105784e-01
  1.2653943e+00
  1.3854182e+00
  1.2579370e+00
 -7.6293343e-01
 -6.7409080e-01
 -2.4768536e+00
 -1.8724719e-01
 -1.7632838e-01
  6.6528630e-01
 -1.3458340e-01
  7.4071491e-01
  4.8885471e-01
  7.2518617e-01
 -1.2942109e-01
 -1.7575302e+00
 -3.5957568e+00
  7.5154459e-01
 -9.7614098e-01
  4.5697343e-01
  1.8676367e+00
  5.6606901e-01
  2.1624537e+00
 -2.4094737e+00
 -4.5784384e-01
  7.1387827e-01
  2.7957240e-01
  1.1172097e+00
 -6.9536424e-01
  3.2730024e-02
  1.1935219e+00
  1.0292942e-01
  4.5414762e+00
 -1.5844327e+00
  2.3161776e+00
 -2.2478762e+00
  1.9171637e+00
  2.0252573e+00
  4.1724846e-01
  8.5071445e-01
  2.1403597e-01
  1.4256930e+00
  1.7091904e+00
  8.3497602e-01
  5.1912630e-01
 -5.6817734e-01
  3.5114568e-01
  8.7757921e-01
  9.4228543e-02
 -1.7915541e-01
 -3.2066363e-01
  1.5199306e+00
  1.1981760e+00
 -2.9571295e+00
 -4.0818909e-03
 -2.2115352e+00
  3.6286469e+00
 -4.8685092e-01
 -1.7436297e-01
  8.5002251e-02
  7.9502672e-01
 -1.8182334e+00
 -2.3733993e+00
 -5.6606627e-01
  1.2693457e-01
 -2.9821312e-02
 -7.1836835e-01
  6.4707309e-01
  4.2151144e-01
  3.4254128e-01
 -5.3035879e-01
 -1.9865143e+00
  2.2787409e+00
 -1.1555858e+00
  9.7368193e-01
 -9.7344834e-01
 -7.0039517e-01
  1.4130511e+00
  9.4993192e-01
  7.4830300e-01
  6.3133764e-01
 -1.1433103e+00
  1.2464476e-01
  1.4555883e-01
  9.7104520e-01
 -1.0542741e+00
  6.4021745e+00
  1.2604597e-01
 -1.4872749e+00
 -4.9726468e-01
 -1.8654732e+00
  4.5337400e+00
  7.0308715e-01
 -1.1390272e+00
 -9.3341678e-02
 -4.0111437e+00
  6.9968617e-01
  1.3604656e+00
 -3.1805596e+00
 -9.1104066e-01
 -2.1633413e+00
  1.4695733e+00
 -1.6332071e+00
 -1.2488512e+00
 -1.4994611e+00
 -1.5758011e+00
 -9.2166467e-03
 -1.7892429e+00
  2.2694822e-02
 -2.8118782e+00
 -1.6660669e+00
 -2.0887299e+00
 -1.1574628e+00
  1.3854893e+00
 -4.2032269e-01
 -2.8754556e-01
  7.3393571e-01
 -2.0972881e-01
 -4.0199790e-02
  7.1185488e-01
  1.2126449e+00
 -1.6235240e+00
 -2.6238842e+00
 -1.6499424e+00
 -2.6518233e+00
  2.0789647e+00
 -1.2107341e-01
 -7.6104146e-01
  1.0680722e+00
 -3.5180856e-02
 -4.9395320e-01
  1.1040944e+00
 -1.3158752e+00
  3.9847987e+00
 -2.8573266e-01
 -1.4763825e+00
  1.2335159e+00
  3.2226041e-01
  1.5425644e+00
 -7.3502278e-01
  3.3695993e-01
  3.6108300e-01
  6.9315776e-02
  3.7515509e-01
  1.5120231e+00
 -3.3257359e-01
  7.1032679e-01
  4.1528893e-01
  2.0385955e-01
  2.9542878e-01
  9.0460366e-01
  8.8607752e-01
 -6.5269107e-01
  1.4504230e-01
  8.0789290e-03
  5.6952220e-01
 -4.3303910e-01
  9.2656153e-01
  1.1230264e+00
  9.3378377e-01
 -1.6047578e+00
 -3.4781694e-01
  3.2925349e-01
  2.5373995e+00
 -5.2645683e-01
  2.7228001e-01
 -6.9345784e-01
  3.1264510e+00
  1.0066118e+00
  2.0738190e-01
  2.8338883e+00
 -1.3723527e+00
 -4.9816462e-01
 -1.3262749e+00
  4.1674331e-01
  5.6613433e-01
 -3.6088629e+00
  2.7078080e+00
  1.1963646e+00
  1.4906902e+00
 -1.0066051e+00
  2.8910863e+00
 -2.0320763e-01
  1.4645733e+00
 -1.6987815e-01
 -9.6790141e-01
  2.1686314e-02
 -4.0170246e-01
  2.5494149e-01
  8.9570448e-02
 -7.1769021e-02
  1.8407173e+00
  1.5040591e+00
 -2.8682090e-02
 -2.0399740e+00
  2.2449844e+00
 -2.0232549e+00
 -3.4283948e+00
  5.7636303e-01
 -4.5913639e+00
 -2.0955687e+00
  3.3654613e+00
  4.0172892e+00
  1.1461666e+00
  9.7934663e-01
 -1.3742362e+00
  2.9923522e+00
  1.7889826e-01
  8.6944115e-01
 -4.7025554e-02
  2.2098486e+00
  2.1942284e+00
 -6.3622510e-01
  1.1597854e+00
 -1.3641437e+00
  1.0011899e+00
  7.9790229e-01
 -3.4590523e+00
 -4.5478836e-01
  4.5841718e-01
  1.8172329e-02
 -1.6178998e+00
 -6.2814844e-01
 -2.2924185e-01
 -5.1427215e-01
  7.6786023e-01
  4.6301123e-01
  1.0977405e+00
 -3.9005047e-01
 -1.9165728e+00
  2.5148816e+00
 -7.1035439e-01
  1.1020610e-01
  3.1815210e-01
  7.4154931e-01
  1.3924342e-01
 -3.8585716e-01
  1.1964126e+00
 -1.1641122e+00
  1.0410732e+00
 -1.7122090e+00
 -1.4643646e+00
  1.2722510e+00
 -6.5754080e-01
  1.6373872e+00
 -1.6041970e-01
  3.2386348e-01
  4.6376249e-01
  3.6066380e-01
  7.0490402e-01
 -4.4612128e-01
  2.2890289e+00
  4.0846518e-01
  2.1792531e+00
 -5.3573132e-01
  5.0510073e-01
 -1.3758965e+00
  7.6560783e-01
  7.8542584e-01
 -1.0300825e-01
  3.0801171e-01
 -4.6702576e+00
 -2.2258592e-01
  8.2985377e-01
 -9.1839141e-01
  7.3759967e-01
 -1.8264445e+00
 -1.1511995e+00
  8.8032389e-01
  1.9461467e+00
  9.4054258e-01
 -8.4616029e-01
  2.7455602e+00
  7.0884913e-01
  3.5419378e-01
 -3.8382506e-01
  2.1679553e-01
  1.0637350e+00
  1.6937392e+00
  7.9034549e-01
  2.1743904e-01
 -2.4576402e+00
  3.1040678e+00
  1.8415034e+00
  2.9415372e-01
 -4.9061316e-01
 -2.0017054e-02
 -2.0394523e+00
  2.0684466e+00
  2.4501325e-01
  1.3834939e+00
 -2.0324510e-01
  8.8154984e-01
 -2.1716309e+00
  2.5097237e+00
 -1.7628251e+00
 -1.0318794e+00
 -6.9372870e-02
  3.8764585e-04
  1.7443237e-01
 -1.6577208e-02
  2.4396186e+00
 -5.2477229e-01
 -2.4906225e+00
  1.0337102e+00
 -7.3322159e-01
 -4.6829876e-01
  1.8758090e+00
 -2.3981221e-02
 -5.5427969e-01
  5.3115766e-02
 -4.6121821e-01
 -2.7731504e-02
  2.5757262e-01
 -6.6301502e-02
  3.3487582e-01
  7.3532587e-01
  6.4196661e-02
 -9.2573595e-01
  1.6100059e+00
  2.1576507e+00
 -2.5366518e+00
 -3.5507163e-01
  6.5699524e-01
 -6.3346928e-01
  6.9156033e-01
  4.3624821e-01
  7.0710248e-01
  1.6151024e+00
 -2.9160288e-01
 -2.4608971e-01
  6.5212789e+00
  6.3903004e-01
  3.7821227e-01
  1.0158601e+00
  1.0092131e+00
  2.2849455e+00
  2.7391300e+00
 -3.8628576e+00
 -8.4435278e-01
 -5.4033536e-01
  2.0966215e+00
  1.8308393e+00
  4.4121030e-01
 -4.3812886e-01
 -1.1979481e+00
  1.7658962e+00
  5.5354029e-01
 -1.5360798e+00
 -7.2145075e-01
  2.3946178e+00
  1.5517598e+00
 -2.6483269e+00
  6.7037213e-01
  5.2973515e-01
  8.3016092e-01
 -5.6366267e+00
  1.6815761e-01
  1.4478105e+00
 -2.5397643e-01
 -1.3650382e+00
 -6.7969269e-01
  1.4124978e+00
 -1.2416017e+00
 -6.8619692e-01
  1.1346828e+00
 -1.6086552e+00
 -3.2366390e+00
  1.7928118e+00
  5.7820302e-02
 -7.0867550e-01
  6.7596787e-01
  1.2619257e-01
 -5.3718433e+00
 -3.3891365e-01
  2.4445282e-01
 -1.1804825e+00
  4.3928127e+00
  6.6111915e-02
  6.7837369e-01
  2.1910882e-01
  4.0575037e+00
 -2.6171837e+00
  8.2877344e-01
  1.8969184e-01
 -2.9703584e+00
 -1.5981908e+00
  2.4500424e-02
  1.2529324e+00
  3.3011797e-01
  9.0258020e-01
  5.6179333e-01
  1.3192750e+00
  4.7609410e-01
  9.8142964e-01
 -1.9960831e-01
  3.7797129e-01
 -1.7399399e+00
  1.8087263e-01
  6.0485405e-01
 -4.0886319e-01
 -2.0753736e+00
 -6.5623617e-01
  1.8555126e+00
  1.2476888e-01
 -1.7562035e+00
  1.0906370e+00
  8.1598729e-01
 -2.4009566e-01
  2.8613293e+00
  2.2161319e+00
 -2.4348297e+00
 -5.8062369e-01
  6.5589559e-01
  1.6067667e+00
 -8.4426725e-01
 -4.1781545e-01
  4.0180358e-01
 -2.4489498e+00
  1.0333508e+00
 -3.2937858e-01
 -1.1294138e+00
 -1.6258539e+00
 -1.9806051e-01
 -1.5597248e+00
  7.1855813e-01
  4.4521949e-01
 -3.6389522e-02
 -2.6407975e-01
 -2.3046111e-01
 -3.5104093e-01
  5.7258660e-01
  6.2177157e-01
 -3.6195734e-01
 -2.8733400e-01
 -3.5981131e-01
 -2.4533859e-01
 -3.6308606e+00
  1.2698455e+00
  5.7974571e-01
  2.0533249e+00
 -5.2389675e-01
  9.6390176e-01
 -1.2101324e+00
 -1.4914833e+00
  2.1629298e+00
  1.1504281e+00
 -1.4925631e+00
 -2.8178473e+00
  5.8743840e-01
 -7.0752591e-01
 -8.4090948e-01
  6.3773191e-01
 -5.0857264e-01
  4.3216020e-01
  8.1890386e-01
  5.2910960e-01
  2.7790003e+00
 -2.5603130e-02
  1.6037169e+00
  1.0970372e-02
  2.2079597e+00
 -1.4785048e+00
  4.8446137e-01
  2.6802009e-01
 -2.3450987e-01
  4.2844850e-01
  7.7320391e-01
 -3.0905181e-01
  1.6103841e-01
 -1.0914376e+00
 -1.8319841e-01
  3.8473520e-01
  1.0498035e+00
  8.7233102e-01
 -4.3371158e+00
 -4.2822549e-01
  2.9925163e+00
  2.5782557e+00
  1.6931784e-01
  6.0523546e-01
 -3.7444711e+00
  3.1841958e+00
  1.0032634e+00
 -7.3261762e-01
  8.7095910e-01
  6.3474858e-01
 -3.3778467e+00
  3.1781581e-01
 -6.7620915e-01
 -6.1556441e-01
 -1.3093258e+00
 -8.4601396e-01
 -3.2315199e+00
 -7.5839651e-01
  7.6557374e-01
 -9.7553241e-01
  1.2340629e+00
  6.7180783e-01
 -2.1389288e-01
 -6.4683723e-01
  1.4740667e-01
  6.4333379e-01
 -1.0638000e-02
  3.3060098e-01
 -5.8948326e-01
 -5.4851694e+00
 -2.6990621e+00
 -2.2362950e+00
 -3.4263031e+00
  6.9951183e-01
 -4.0184731e+00
 -3.8118281e+00
 -1.0377067e+00
 -2.2463509e-01
  1.1435197e-01
 -9.3109375e-01
  2.3556466e+00
  2.9576261e+00
 -5.6793010e-01
  3.1452543e-01
 -8.6211360e-01
  3.5248201e+00
 -3.0431557e-01
  1.9482880e+00
  2.3728502e-01
 -5.0118272e-03
  1.6464854e+00
 -6.3665760e-01
  1.4173794e-01
  1.7435371e+00
  1.2258365e+00
 -1.7762074e+00
 -3.3784866e-01
  2.9948616e-01
 -2.1326780e+00
 -2.3777847e+00
  3.3967420e-02
  3.1401733e-01
  1.3585746e+00
 -1.8578883e-01
 -1.0030781e+00
  1.7963685e-02
  1.0074800e+00
  1.6116261e+00
  2.7202978e+00
  7.3830611e-01
  1.1328968e+00
 -1.3258755e+00
 -1.6646469e-01
 -3.6137965e-01
 -6.6638410e-01
  4.2773390e+00
 -8.7694860e-01
 -4.1001253e+00
  2.7107754e-01
  1.0754875e+00
  1.9393826e+00
  2.2722766e-01
  4.9392852e-01
  1.1103957e+00
  4.1875565e-01
  5.8807445e-01
 -1.5280305e-01
 -8.6429298e-01
  2.0502000e+00
 -8.7935412e-01
 -9.7142136e-01
 -1.3307229e+00
  2.1090009e+00
  1.2309939e+00
  5.0237989e-01
 -7.1890336e-01
  1.8176638e+00
 -5.6551349e-01
  2.9564103e-01
 -5.0265259e-01
 -9.4350374e-01
  1.3039638e+00
  5.5290675e-01
 -5.7105219e-01
 -6.5128165e-01
 -4.1700161e-01
 -1.0159305e+00
 -1.3395101e-01
  1.0766207e-01
 -2.8040567e-01
  2.2267301e+00
 -3.2835978e-01
  7.2644961e-01
  4.0398832e-02
 -3.0294981e+00
  1.8842791e+00
 -3.0409661e-01
  1.5505767e+00
 -2.2518219e-02
  2.8082597e+00
 -3.4619372e+00
  2.3492844e+00
  5.0480354e-01
 -8.5242420e-01
 -2.4981031e-01
 -2.6225381e+00
 -6.6303313e-01
 -9.8535818e-01
 -2.0984942e-02
  4.4161931e-02
  6.1901797e-02
 -2.1640401e+00
  4.6461898e-01
 -1.0059062e+00
 -5.4609954e-01
 -9.2303520e-01
 -1.5737690e+00
  2.1048272e+00
  2.0366440e+00
 -9.2978871e-01
 -2.8477297e+00
 -8.1137046e-02
 -1.9040292e-02
 -1.0119337e+00
  9.2455268e-01
  8.5060877e-01
 -1.1861864e+00
  1.2169970e+00
  9.3498534e-01
  1.4317464e+00
 -2.0869169e+00
 -2.7856781e+00
  9.1089708e-01
  9.4507670e-01
  2.8406093e+00
 -3.0786626e+00
 -4.8412973e-01
 -1.1217017e-01
 -1.5402113e+00
  1.3785733e+00
 -1.3368671e+00
  3.8173473e-01
  1.4615117e-01
 -3.0162036e-01
 -4.6228820e-01
 -1.7980878e+00
 -4.2977968e-01
  2.3067582e-01
 -9.3842757e-01
  6.9451551e+00
  3.0636873e+00
 -5.5525398e-01
  2.9550835e-01
  6.0942435e-01
  9.5307392e-01
  1.1687722e+00
 -5.0458031e+00
 -1.7425416e-01
  5.8912343e-01
  4.1831293e+00
  1.7834926e+00
 -5.2691288e+00
 -4.3998942e-01
 -2.2967260e+00
  2.8765087e+00
 -1.2472922e+00
 -3.3314917e+00
  1.9170896e+00
 -1.4928969e+00
 -1.8313137e-01
 -2.0014439e+00
  9.4009772e-02
 -6.3035178e-01
 -3.8632995e-01
  1.1982586e+00
  1.1836684e+00
  3.2526466e-01
 -4.7954208e-01
 -2.0684519e+00
 -1.2643476e-01
 -3.9094242e-01
  3.6299261e-01
  5.8765095e-01
  1.2651806e+00
 -2.3244221e+00
 -1.6667656e+00
 -3.3493285e+00
 -1.8514798e+00
 -1.4044043e+00
 -3.6813384e-01
  2.4751878e+00
  2.4185462e+00
 -6.7616308e-01
  5.2624619e-01
  3.4232756e-01
  5.3745437e+00
  2.3468438e-01
 -3.2661715e-01
  9.5145971e-01
 -2.4827271e+00
 -1.8554991e-02
 -2.0389155e-01
  1.0828640e+00
  3.5004318e+00
 -2.2625647e-02
  4.6715420e-02
 -5.1292914e-01
  2.1334338e+00
 -1.8935410e+00
  4.4583220e+00
 -7.0463556e-01
  1.4045464e+00
 -3.1775630e-01
 -2.1313801e+00
 -8.8488364e-01
 -4.3313411e-01
 -1.3412071e+00
 -1.5033593e+00
 -1.4661061e+00
 -1.4843721e+00
  8.7388023e-04
  4.3161583e-01
  6.4023370e-01
 -2.5485337e+00
 -5.2584108e-02
  3.1518808e-01
  2.0039134e+00
 -2.2271346e-01
  7.1548003e-01
 -2.8471198e+00
  1.4278920e+00
 -1.2548257e+00
 -9.3168192e-02
 -1.8638964e-01
 -1.0128725e+00
 -8.4951377e-01
  6.1359614e-01
  1.3506099e+00
  3.3652377e-01
  8.2984543e-01
  8.0768675e-01
  6.3920057e-01
 -6.6655572e-03
 -1.8311126e+00
  6.8000811e-01
 -1.7203902e-01
  3.1477392e-01
 -6.8870014e-01
 -6.5588987e-01
 -4.5148534e-01
  3.8710186e-01
 -1.3143618e+00
  4.2692462e-01
 -1.0043615e-01
  2.3101773e+00
  4.1448176e-01
 -1.3158315e+00
 -1.9683725e+00
 -1.3198593e+00
 -2.6647359e-01
 -3.6496420e+00
 -2.4417825e+00
  1.5046127e+00
 -1.1506785e+00
  2.1729856e+00
  8.1791323e-01
 -1.7659438e+00
 -1.9881402e+00
  1.1723632e+00
 -7.1699297e-01
  1.5272717e+00
  1.6330393e-01
  1.3245814e+00
  2.2494330e+00
  4.1506310e+00
  7.1684504e-01
 -4.4662610e-01
  9.4345772e-01
  9.5405564e-02
  2.3096754e-01
 -1.5295660e+00
  2.2921028e+00
  2.0900919e-01
 -7.6198125e-01
 -4.9409005e-01
  1.1249615e+00
  5.8461148e-01
  7.0938045e-01
 -9.8944712e-01
  2.0471672e-02
 -6.6080475e-01
  1.5400788e+00
 -5.0367326e-01
  9.9689865e-01
  1.5368518e+00
 -4.7759000e-02
  5.8340883e-01
  1.3609941e-01
 -2.4273153e-02
  3.6261228e-01
 -2.0320516e+00
 -1.4918909e+00
 -2.9829400e+00
 -2.3883678e-01
  8.3339590e-01
 -4.0019188e+00
 -1.5206780e-01
 -1.3959581e+00
 -8.0460417e-01
 -3.9715782e-01
 -8.4936714e-01
  9.1953534e-01
 -1.3327394e+00
 -1.9331361e+00
 -1.4626694e+00
 -1.6037757e+00
  2.2471015e-01
 -1.8502486e+00
 -8.3409977e-01
 -8.1031150e-01
 -8.2115722e-01
 -1.2467532e+00
 -5.0044265e+00
  1.9663610e+00
  3.9084969e+00
  1.2814997e+00
 -4.3802488e-01
 -1.2301799e+00
 -9.8396200e-01
  7.9205513e-01
 -2.2926393e+00
 -3.1993778e+00
 -1.1823652e+00
 -1.1797664e+00
  1.6120350e-01
 -1.3363177e+00
 -8.8128370e-01
 -1.8284003e+00
 -5.7485360e-01
 -3.0997024e+00
  2.6465714e+00
 -8.1122172e-01
 -1.0425515e-02
  2.2013044e+00
 -2.5673075e+00
 -1.5987934e+00
 -1.5822673e+00
  5.7146933e-02
  2.2159245e+00
 -2.9311788e+00
  2.1369224e+00
 -1.8470105e+00
  4.5311177e-01
 -6.4108722e-02
 -4.3458547e-02
  3.5066912e-01
  1.2815663e+00
 -3.5299811e-01
  6.1521620e-01
  4.6628833e-01
  4.8487592e-01
 -1.0407958e+00
 -1.0639821e+00
  6.0868293e-01
 -2.8786952e+00
  3.6035132e+00
  3.4433079e+00
 -3.3384690e-01
  2.4425220e-01
 -2.3615780e+00
  3.2537451e+00
  2.2895510e-01
 -6.1951244e-01
 -6.6426528e-01
  4.7271043e-01
  1.7979921e-01
  1.2738138e+00
  7.5493270e-01
  6.5766954e-01
 -1.0275648e+00
  1.3795464e+00
  1.5958670e+00
  1.3397951e+00
 -9.6124643e-01
 -9.4624531e-01
  8.1907547e-01
 -6.0496396e-01
  9.5493156e-01
 -1.4768149e+00
  6.1886519e-01
 -1.3360665e+00
  2.1045095e-01
 -1.9988991e-01
 -6.0647064e-01
  1.3349466e+00
 -2.1909382e+00
  2.5722494e+00
 -2.8732920e+00
  1.4788533e+00
  2.7507004e-01
  1.0322323e+00
  3.6783016e-01
 -5.1061112e-01
 -5.7861996e-01
  2.2077751e+00
  1.4476499e-01
 -3.3632646e+00
 -9.4858843e-01
 -3.3292174e-01
 -8.0735129e-01
 -2.5067194e+00
 -5.0009567e-01
 -9.2997813e-01
  9.7065431e-01
  5.1397886e-02
 -1.2070341e+00
 -2.1104641e+00
  1.3323198e-01
  2.8615541e+00
  3.7041882e-01
  1.3109970e+00
  1.1552536e+00
  7.0260388e-01
  8.3944619e-01
  8.0952835e-01
 -6.1201531e-02
  1.0916666e+00
 -9.6055537e-01
 -3.4558070e-01
  3.8109307e+00
  2.6638308e+00
 -2.3038955e+00
 -8.6408250e-02
 -2.6634812e-01
 -2.6897421e-01
 -1.5589638e+00
  1.7234366e+00
  4.2887187e-01
 -3.4730408e-01
  1.7726276e+00
 -1.6223048e+00
  1.5052003e+00
 -1.1045119e+00
  1.4803596e-01
 -1.8326759e+00
  5.9710509e-01
  2.6865594e+00
 -1.0582591e+00
 -3.3212101e-01
 -6.6913182e-01
 -7.2422218e-01
  7.2716975e-01
 -2.7105719e-01
  1.7814586e+00
  1.2535748e+00
 -3.9991203e-01
 -6.4747703e-01
  2.0749101e-01
 -9.3139613e-01
  3.0174399e-02
  3.9590728e-02
  5.0841057e-01
  1.9968874e+00
 -1.3717867e-01
  9.0847816e-03
 -4.1126289e+00
 -1.9823811e+00
 -1.2763680e+00
  1.9225990e+00
  6.0322752e+00
 -3.7361910e+00
  2.8640723e+00
 -2.7572885e+00
 -2.1622434e+00
  1.2347797e+00
  4.9887827e-01
  1.9254885e+00
 -1.2730361e+00
 -1.8378928e+00
 -2.0336256e+00
  1.2103375e+00
  3.8016087e-01
 -9.1068938e-02
  1.4838246e+00
  2.0033021e+00
  5.3071607e-02
  2.4587026e+00
 -1.3473408e+00
  1.1886976e+00
 -8.7304813e-01
 -2.7459710e+00
 -9.6873206e-01
 -4.8107570e-01
 -1.5330493e+00
  6.7721927e-01
  8.6931896e-01
 -1.1410991e-02
 -4.9539766e-01
 -2.3970629e-01
 -5.0353165e+00
 -4.1818994e-01
 -2.5801895e+00
 -1.1359848e-01
 -1.9159741e+00
 -1.1974245e+00
 -1.2780823e+00
 -2.2946165e+00
 -8.1368673e-01
  1.2511589e-01
 -3.5977912e+00
  7.4387312e-01
  3.5306826e+00
 -4.4083315e-01
 -8.4297216e-01
 -1.3128370e+00
 -1.5822585e+00
 -1.1651714e+00
 -2.8169736e-01
  3.5859854e+00
 -1.7582390e+00
 -6.6255188e-01
  5.8656716e-01
 -1.1690318e-01
  2.1256189e+00
  1.6877238e+00
 -2.3536639e+00
 -2.2033632e-01
  1.1012987e+00
 -1.8338057e+00
  5.3179371e-01
  8.5042411e-01
  4.1606891e-01
  4.9573445e-01
  1.0122863e+00
 -1.5309429e-01
  1.6091506e+00
 -1.3685960e+00
 -7.1163404e-01
 -3.6545689e+00
 -8.7567598e-01
 -1.2807299e+00
 -1.2134767e+00
  4.8803711e-01
  4.9783033e-01
 -8.9097875e-01
  1.3562319e+00
  6.1291790e-01
 -1.9327418e+00
  5.7190704e-01
  8.2177734e-01
  2.2585337e-01
  1.1794699e+00
  8.9014739e-01
  2.7251432e+00
 -2.7314584e+00
  1.8606404e+00
 -1.6361213e+00
  1.2849236e-01
 -1.1129107e+00
  3.1989571e-01
 -5.6870526e-01
  4.7646126e-01
  5.0284022e-01
 -2.9763813e+00
  3.5614792e-01
  2.4575269e-01
 -1.2830185e+00
 -1.0605700e+00
 -1.2967681e+00
 -5.2789388e+00
 -3.5740702e+00
  3.8397355e+00
  3.7025626e+00
  4.3462691e+00
  3.5261860e-01
 -1.2929265e+00
 -1.3976578e+00
  2.2238011e+00
 -1.6151882e+00
  1.4302460e+00
  1.1728776e+00
 -2.2487679e+00
  2.8805387e+00
 -4.7371045e-01
  5.0878429e-01
  2.2497303e+00
  2.1855326e+00
  7.1748204e+00
  3.7648017e+00
 -2.3006788e-01
  3.9269185e+00
  9.5647675e-01
  7.0177169e+00
 -5.3963000e-01
  7.0130181e-01
  3.3971786e+00
 -2.1578902e-02
 -2.3990776e-01
 -4.4996509e-01
 -9.0694368e-01
  2.8520572e+00
 -9.8647103e-02
 -7.9623187e-01
 -3.1460652e-01
 -1.2631655e+00
  9.6021640e-01
  1.9921405e+00
  8.5429275e-01
  1.6639431e+00
  5.3669286e-01
 -1.8468157e+00
  9.8816276e-01
 -6.5515321e-01
 -9.7087063e-02
 -1.0335842e+00
 -1.5839051e+00
 -1.2072761e+00
  9.1108158e-02
 -2.6773706e-01
  5.3129345e-01
  1.0777715e+00
 -2.0768607e+00
 -1.3712257e+00
  1.0010655e+00
  2.2891815e+00
  2.1931746e+00
 -1.4132769e+00
 -8.9430857e-01
 -3.5653639e-01
 -1.7624557e-01
 -3.9713881e+00
 -2.5701201e+00
  3.0092048e-03
 -6.5718180e-01
 -1.7082918e-01
 -3.8152811e-01
 -1.3974379e+00
  2.1637627e-01
  6.9062442e-01
 -5.3433794e-01
  7.6357400e-01
  2.1176708e+00
  1.4539808e+00
 -1.5420531e+00
  1.1164048e+00
  8.5542572e-01
  1.6044374e+00
  7.3598588e-01
 -3.8076422e+00
  2.0629895e+00
 -1.5567583e+00
  2.1211493e+00
  9.7642606e-01
 -2.8214271e+00
 -5.0887173e-01
 -1.6189665e+00
 -1.6782453e+00
  1.1299095e-01
 -2.2281389e+00
  3.6356809e+00
 -3.4667797e+00
 -9.8863530e-01
 -8.8955152e-01
  1.9673064e+00
  8.4400427e-01
  2.1317060e+00
 -1.7902445e+00
 -1.7615597e+00
  1.7913899e+00
  2.5215241e-01
  1.6101514e+00
  1.5892662e+00
  7.1493596e-01
  1.8728262e+00
 -8.2642955e-01
 -7.8912413e-01
 -1.3590024e+00
 -9.0813440e-01
  1.7170696e+00
  1.2668886e+00
 -4.4519031e-01
  1.1277733e+00
  7.7662975e-01
 -4.5157343e-02
  1.0672321e+00
 -4.2232612e-01
  1.0642692e+00
 -1.0152231e-01
 -1.9042255e-02
 -1.5695659e+00
  2.0712318e+00
 -1.2252986e+00
  2.3181053e-01
 -1.4614340e+00
  2.5156251e-01
  2.6134853e+00
  4.1743302e-01
  2.2147667e-01
  7.7783567e-01
  1.3553431e+00
 -4.5320168e-04
  7.3632401e-01
  2.5376120e+00
 -2.6412833e-01
 -3.7168679e-01
  9.0653956e-01
  7.5937408e-01
 -1.0463433e+00
  1.3773389e+00
 -5.1356697e-01
 -1.8675001e+00
 -1.6609581e+00
 -7.3008642e-02
 -3.5890727e+00
 -1.0230178e+00
 -2.1858702e+00
 -2.5497854e-01
  1.8527322e-01
  7.6731521e-01
  2.8548637e-01
  1.2744769e+00
  2.5838193e-01
 -8.2907796e-01
  3.1185144e-01
  4.1116667e-01
  8.3651805e-01
  8.8121361e-01
  1.6456324e-01
  7.3717523e-01
 -8.9488763e-01
  1.1420883e-01
 -1.3920536e+00
  4.4659981e-01
  2.8915998e-01
  4.6711120e-01
  3.5361925e-01
  3.9637128e-01
 -1.4814913e-01
  2.7511234e+00
 -4.7225767e-01
  5.3229129e-01
 -3.5718071e-01
  5.8147615e-01
 -3.5914379e-01
 -7.1398562e-01
  1.3393149e+00
  5.4593754e-01
  1.5713292e+00
  2.8960714e-01
 -2.0438531e-01
 -7.3904610e-01
 -2.4506624e+00
  1.5383261e-01
 -6.8817782e-01
  1.1822517e-01
  3.0349138e-01
 -4.3380123e-01
 -1.4636758e-01
 -3.2846434e+00
 -6.3894242e-01
  2.6049200e-01
 -1.6797200e+00
 -4.4032544e-01
  5.6757754e-01
  5.9278661e-01
  2.5739187e-01
  5.7915735e-01
 -1.5800445e+00
 -7.1970278e-01
 -6.5253645e-01
  5.3716922e-01
  5.5645406e-01
  6.4326376e-01
 -6.1134171e-01
 -1.7879207e+00
 -1.8857201e+00
 -6.1897928e-01
 -4.6531019e-01
  6.7865348e-01
  3.2718351e-01
 -4.5245367e-01
 -7.4762207e-01
 -7.6582676e-01
 -2.5316995e-01
  3.3195221e-01
  8.3537900e-01
 -3.8650420e-01
 -7.0907217e-01
 -3.4469450e-01
  4.6009895e-01
 -4.1456318e-01
  2.8840954e+00
  2.4693058e-01
 -1.2146177e+00
  9.8064005e-01
 -9.4145805e-01
 -2.3319057e-01
 -2.9827690e+00
 -2.0006192e-01
  2.0119612e+01
 -2.1220167e+00
 -3.5058734e+00
  3.0018988e+00
  1.4276818e+00
 -6.6946158e+00
 -2.5465055e+00
  3.0429623e+00
  5.4183216e+00
 -7.7619028e-01
 -3.4969118e+00
 -7.3016191e+00
 -1.7222154e+00
  2.2435218e-01
 -3.9881647e+00
  5.6196856e-01
  4.2658553e+00
  7.4812281e-01
  3.0529532e+00
  7.1321678e-01
  1.8191031e-01
  8.2629174e-01
 -7.4728590e-01
  2.8126163e+00
 -7.1271653e+00
 -3.1795254e-01
  4.5599957e+00
  5.0689363e+00
 -1.7577537e+00
 -1.3091168e+00
 -1.7473332e+00
  1.1585722e+00
 -7.1945560e-01
 -1.5810995e+00
 -1.0224848e+00
  3.5712593e+00
  3.8867342e+00
 -9.0598041e-01
 -2.1763539e+00
  1.1146898e+00
  6.4989619e+00
  5.4564571e+00
 -3.5949869e+00
 -6.0180402e+00
 -2.1255903e+00
  2.0921965e+00
  1.4204311e-01
  3.1496754e+00
 -4.4526401e+00
 -2.9995444e-01
  3.6035011e+00
  5.2702713e-01
  7.4935865e-01
  1.7975729e+00
  1.3592644e+00
 -1.8973451e+00
 -4.0920115e+00
  6.5448780e+00
  4.2657018e+00
 -2.9347482e+00
 -3.3474650e+00
 -1.6215163e+00
 -7.0250326e-01
 -8.5809392e-01
  1.2769005e+00
  8.3281412e+00
 -1.0009906e+00
 -4.9237709e+00
  1.6992534e+00
  4.6613688e+00
  4.7011173e-01
 -3.4016671e+00
 -1.5866208e+00
 -1.3080939e-02
  2.4487374e+00
  4.1649094e-01
 -3.2598469e-01
 -2.1584206e+00
  1.6456582e-01
  3.2323938e-02
  8.5349256e-01
 -1.2260854e+00
 -3.2826703e+00
 -4.5743780e+00
  1.9408752e+00
  1.5254618e+00
 -2.0270345e+00
  1.6816525e+00
  4.4447951e+00
  1.4934634e+00
 -2.3296809e+00
  4.1251560e-03
  4.1251560e-03
  4.1251560e-03
  4.1251560e-03
  4.1251560e-03
  5.2743582e-03
  5.2743582e-03
  5.2743582e-03
  5.2743582e-03
  5.2743582e-03
  4.1027446e-03
  4.1027446e-03
  4.1027446e-03
  4.1027446e-03
  4.1027446e-03
  2.3731452e-03
  2.3731452e-03
  2.3731452e-03
  2.3731452e-03
  2.3731452e-03
  1.4660439e-03
  1.4660439e-03
  1.4660439e-03
  1.4660439e-03
  1.4660439e-03
  7.1759237e-04
  7.1759237e-04
  7.1759237e-04
  7.1759237e-04
  7.1759237e-04
  5.9611837e-05
  5.9611837e-05
  5.9611837e-05
  5.9611837e-05
  5.9611837e-05
