nep4_zbl 1 C 
zbl 1 2
cutoff 6 5 44 34
n_max 4 4
basis_size 8 8
l_max 4 2 1
ANN 80 0
  2.1104517e+00
  3.3684547e+00
  4.5104187e-02
  1.7303555e-01
  1.4734799e+00
  1.9750428e-01
 -1.8696336e+00
  7.4002230e-01
 -7.6822811e-01
  2.7330986e-01
  2.7273279e-02
 -1.5211095e+00
 -1.1554296e+00
  1.7109673e-01
  1.8070434e+00
 -6.6073978e-01
 -1.2865444e+00
 -1.7273932e+00
  9.8401630e-01
  1.7617064e+00
 -6.9656539e-01
  3.8496611e-01
  1.0585754e+00
  2.3691282e+00
 -5.4612887e-01
 -8.0352122e-01
 -1.1733220e+00
  6.5338314e-02
  3.2851672e-01
  1.0650197e+00
 -4.7444543e-01
  1.3361238e-01
  1.7204680e-01
 -1.4595982e-01
 -1.6283314e+00
  1.5037993e+00
  1.1711034e+00
  3.0742910e+00
 -1.0324905e+00
  1.0422045e+00
  1.6355137e+00
  1.8519895e+00
 -3.0271065e+00
  1.5019292e+00
 -1.2089738e+00
  2.1740940e+00
  9.4795859e-01
 -1.1662948e+00
  3.8344762e-01
 -8.7395900e-01
  2.0714364e+00
 -2.7896383e+00
 -1.7505994e+00
 -1.8578162e+00
 -3.8629779e-01
  4.1480294e-01
 -1.9228898e+00
  1.6845243e+00
  4.5549932e-01
 -7.2627777e-01
  9.1843963e-01
  3.0305168e-02
  3.2549314e+00
  5.2747732e-01
 -1.1973002e+00
  3.5098967e-01
 -6.8141323e-01
  1.6702414e+00
  8.7422058e-03
 -9.0573293e-01
 -2.0607762e-01
 -1.1746318e+00
  3.2018062e-01
 -1.1053056e+00
  1.2875668e+00
 -1.4462129e+00
  2.7209077e+00
  4.3024945e-01
  2.1141165e-01
  1.0035745e+00
 -4.5820281e-01
  5.4063356e-01
  3.2743087e-01
  1.1591181e+00
  6.9449991e-01
  1.1175905e+00
 -2.6322103e-01
 -1.4112593e+00
  4.7031045e-02
  2.3140543e+00
  1.2794870e-02
  2.4082134e+00
  2.5152501e-01
  1.9282015e-01
  7.9952484e-01
 -1.3340308e-01
 -3.5085104e+00
  6.8420720e-01
  6.1429936e-01
 -7.6404083e-01
 -1.4224713e+00
 -1.7565960e-01
  6.5257972e-01
 -1.3976686e+00
  2.5258058e-01
 -2.1299512e+00
 -1.0602498e+00
 -1.6770363e+00
  1.7190993e-01
  3.8760195e-03
 -2.2204299e+00
  2.3173161e-01
  3.0283844e+00
  4.0918073e-01
  4.1611007e-01
 -2.8047320e-01
  2.6011028e+00
  7.8889138e-01
  3.6865073e-01
 -2.2362392e-01
 -2.7391529e-01
  2.3026147e+00
  2.3975749e+00
  7.0578106e-02
 -3.2624871e-01
 -2.7770770e-01
  1.2212064e+00
  1.1235026e+00
 -5.5011803e-01
  3.2837400e-01
  1.3682572e+00
 -6.9400769e-01
 -2.4678569e+00
 -1.4505023e+00
 -3.1538825e-02
  1.0165546e+00
 -8.1067491e-01
 -6.2528688e-01
  1.2068968e+00
  3.4299025e-01
 -1.1802254e+00
 -4.7639397e-01
  2.0911965e-01
 -8.4961206e-01
  4.6635351e-01
  2.5990504e-01
 -5.3616768e-01
  3.6235866e-01
 -1.4755706e+00
  1.1655229e+00
 -2.2718675e-01
 -1.4829222e+00
 -8.9254582e-01
 -5.0541084e-02
  1.1538897e+00
 -1.7692991e-01
  6.9279706e-01
  2.5033560e-01
  8.1316137e-01
  9.0402877e-01
  2.3813111e-01
  4.2209917e-01
  5.7068908e-01
 -3.5936850e-01
  1.1039934e+00
  1.0141089e+00
  4.3842953e-01
 -9.4940580e-02
  3.8094053e-01
 -6.7984372e-01
  8.5405213e-01
 -5.4778910e-01
 -6.3242459e-01
 -9.0315956e-01
 -4.0678233e-01
 -1.7823062e+00
 -2.5379984e+00
  7.3317736e-01
  1.2996650e-01
  1.8066767e+00
 -2.3324132e-01
  1.1761644e-01
  2.1499684e+00
 -3.7318915e-01
  3.5446577e+00
 -2.0633056e+00
 -4.5732436e-01
  2.5949876e+00
 -1.3231755e+00
  1.5744699e+00
 -5.9304565e-01
  1.7829959e+00
  2.9519377e+00
  7.0180243e-01
  3.0273092e+00
  4.5188549e-01
 -8.2213718e-01
 -6.0125774e-01
  1.8798324e-01
  1.6493291e+00
 -3.6657445e+00
  6.7817524e-02
  8.7207210e-01
  2.1649630e-01
  6.5368581e-01
 -6.3110554e-01
 -2.2352597e-01
  9.2637211e-01
 -4.3350673e-01
 -1.3998032e+00
 -1.1713779e+00
 -3.9089280e-01
  1.0241941e+00
  1.3818110e+00
  2.3775697e+00
 -3.8762581e+00
 -5.3752381e-01
  9.0300113e-01
  2.9920083e-01
  1.5740882e+00
 -1.9727465e+00
 -1.7074668e+00
  1.4695412e+00
  9.5436478e-01
  1.6006641e+00
 -5.2643162e-01
 -1.6156045e+00
 -1.1482060e+00
  2.5945182e+00
 -1.6251408e+00
 -1.7489971e+00
 -2.6502984e+00
 -1.3830793e+00
  1.9286318e+00
  6.8724316e-01
 -1.0180068e+00
  8.9472866e-01
  2.8875095e-01
 -4.3861118e-01
  3.1166229e-01
  3.9308900e-01
  3.9147177e-01
  6.1740845e-01
  1.6785797e-01
 -8.7425345e-01
 -4.8710155e+00
 -4.7690111e-01
 -6.0190797e-01
 -3.0302531e-01
  2.5534456e+00
 -3.6031406e+00
 -2.7480769e+00
  1.2977819e+00
 -3.8653022e-01
 -2.2156893e-01
 -6.7751296e-02
 -1.8312303e+00
  1.1873975e+00
 -4.5131780e-03
  1.0794753e+00
  3.9168334e-01
 -2.0983443e+00
 -1.0653700e+00
  2.3635235e+00
  1.1090585e+00
  1.0507462e+00
  6.3304371e-01
 -1.3645927e+00
 -9.0167439e-01
  1.6649922e+00
 -8.0254835e-01
 -1.9970866e+00
 -1.6405178e+00
 -5.1692408e-01
 -6.2724215e-01
  1.6287808e-01
 -4.6387547e-01
  1.1669481e+00
 -7.0514232e-01
 -1.2800770e+00
 -5.6249726e-01
  1.7732692e-01
 -9.1371095e-01
  2.5726080e+00
  1.7192397e-01
 -2.2020862e+00
  4.6333638e-01
 -1.9598731e-01
 -5.5986363e-01
  8.4024990e-01
  5.9925628e-01
  1.3722954e+00
  7.5900453e-01
 -1.5089914e-01
 -5.4782414e-01
 -4.1976890e-01
 -2.5957882e-01
 -1.9495410e-01
 -9.7156090e-01
 -1.3179343e+00
  1.9095708e+00
  3.7943149e-01
  1.0203774e+00
 -9.0157501e-02
  1.1176838e+00
  1.2533586e+00
  1.5153576e+00
 -1.1405435e+00
  9.1879296e-01
  1.2910596e+00
 -5.6114990e-01
 -7.4418628e-01
  8.9457697e-01
 -8.3481693e-01
 -2.1390920e+00
  3.5957298e+00
 -3.1833541e-01
 -8.2540667e-01
 -3.5303697e-01
 -2.0354347e+00
 -8.6703616e-01
  1.9318177e-01
  7.9504400e-01
  4.8753610e-01
 -1.0580881e+00
  3.0200137e-02
 -1.5951241e+00
 -3.8096166e-01
  1.1921109e+00
 -1.7769560e+00
 -1.8546516e+00
 -1.4271286e+00
  3.1130085e-02
 -2.1179492e+00
  4.6600279e-01
  7.2756207e-01
 -9.5802128e-01
 -4.1579261e-01
 -3.7622657e-01
 -2.6463399e+00
  2.1619725e+00
  4.4398656e-01
 -1.6517553e-01
 -8.5059601e-01
 -7.6302119e-02
 -6.7857265e-01
  5.6669772e-01
 -9.0288228e-01
  3.5799477e-01
 -1.4564022e+00
  1.4508753e+00
  1.9964527e+00
  7.4026686e-01
 -8.5756385e-01
 -6.9144137e-02
  1.6628883e+00
  7.1439767e-01
  4.1326742e+00
  1.1142461e-02
 -2.4534182e-01
 -4.6319526e-01
  1.0875845e-01
  7.7750093e-01
  1.0111581e+00
  1.0447251e+00
  8.5234475e-01
  9.0295494e-01
 -3.2097697e-01
 -5.4747427e-01
 -5.4424995e-01
  3.3060033e+00
 -1.6769558e-01
 -9.8902935e-01
  4.9170092e-02
  6.5940738e-01
  1.3653476e+00
  4.0487164e-01
  3.0151734e-01
  3.0685186e+00
 -1.0588510e-01
  5.4927297e-02
 -1.3145183e+00
  1.0775878e+00
  1.0374013e+00
  5.4743218e-01
  1.6838169e+00
 -3.4496969e-01
 -4.1169000e-01
  3.8723341e-01
  1.8336219e+00
 -1.4126902e+00
  7.9121992e-02
  1.1102641e+00
  1.0204899e+00
  1.6151073e+00
  5.0501508e-01
  2.8604117e-01
 -8.5681719e-01
  4.3717772e-01
  1.1639485e+00
 -1.4213014e+00
  9.7743981e-02
  8.1160235e-01
 -4.7930765e-01
 -9.8322874e-01
 -2.1659014e+00
 -2.8482556e-01
  1.3751279e+00
 -9.7565591e-01
 -4.7629929e-01
  6.5463227e-01
  3.1949105e+00
 -5.8456528e-01
 -4.6840432e-01
  4.7386515e-01
  9.0540308e-01
 -8.8587183e-01
 -2.7990291e-02
  2.0996230e-02
 -9.3093669e-01
  5.3952354e-01
 -2.1310844e-01
  4.3932629e-01
 -9.4477654e-01
 -1.5025939e+00
 -2.0452030e-01
 -5.8480412e-01
 -1.7930502e+00
 -1.4321386e+00
  1.2496143e-01
 -1.0792482e+00
 -2.5465232e-01
 -8.5017323e-01
 -2.6578855e-02
  5.7852226e-01
 -4.9403957e-01
 -1.5716351e+00
  4.7328739e+00
 -4.2420596e-01
 -1.3115070e+00
  1.6104649e+00
 -1.3008944e+00
 -3.1696984e-01
 -2.3823371e+00
  1.3001809e+00
  8.1299406e-01
 -1.0390529e-01
 -2.0418173e-01
  5.1481545e-01
  5.7108577e-02
  3.5186681e-01
 -2.3745558e-01
 -4.6753535e-01
 -6.6251355e-01
 -3.1806421e+00
 -2.5358549e-01
 -8.9852166e-01
  8.6428124e-01
  1.0294370e-01
  1.9703320e+00
 -2.1123474e+00
  5.5534524e-01
 -1.3058526e-02
 -4.0778220e-01
  1.1901067e+00
  9.8655766e-01
  9.4069809e-01
 -1.6178064e+00
  6.3599843e-01
 -1.4488928e+00
 -1.1108574e+00
 -1.8930248e+00
 -7.2686672e+00
  2.0694690e+00
 -1.4215590e+00
  8.0541217e-01
  9.5647329e-01
 -6.3493133e-02
 -1.7642051e-01
  5.3173202e-01
 -2.6966697e-01
 -2.9209449e+00
  1.1521071e+00
  3.2028046e-01
  6.1356074e-01
 -4.3517929e-01
 -1.4507146e+00
  6.4664912e-01
 -9.3973929e-01
 -3.0025941e-01
  1.1135050e+00
 -6.4811283e-01
  2.3621410e-01
  3.9069751e-01
  5.1481313e-01
 -7.7566373e-01
  3.3568472e-02
 -1.0512916e+00
  5.9556180e-01
 -4.5532480e-01
 -1.0679686e+00
 -1.3015124e+00
 -5.2026647e-01
  7.4174094e-01
  1.2058547e+00
 -8.6064017e-01
  3.0606130e-01
  7.2541130e-01
  1.3045104e+00
  1.3352181e-01
  7.8113323e-01
 -9.5405197e-01
  3.1431377e-02
 -1.0679381e+00
  4.3190324e-01
 -1.2005936e+00
 -9.3481338e-01
 -5.7288218e-01
 -7.9806823e-01
 -7.6772004e-01
 -1.0849966e+00
  1.1723329e+00
 -3.8062219e-02
  1.3313046e+00
 -1.0378176e+00
  1.2936910e+00
 -7.8400269e-02
 -1.7167437e+00
  5.8964258e-01
  2.3769067e-01
  1.6017611e-01
 -1.6035441e+00
 -1.3162760e+00
  1.8590742e+00
  3.3337682e-01
  2.1670911e+00
  3.0372474e+00
 -3.3859067e+00
  1.2931798e+00
 -5.8591187e-01
 -2.5786834e+00
  1.6293925e+00
  2.4564877e-01
  1.7488254e+00
 -5.8465296e-01
 -2.9392529e+00
  1.7908405e+00
 -9.7539026e-01
 -5.9661967e-01
 -7.3626083e-01
  7.2719663e-01
 -2.2993269e+00
  1.4155937e+00
 -2.8918546e-01
 -7.7242321e-01
 -1.3328846e+00
 -5.2888829e-01
 -6.4829350e-01
 -6.7871737e-01
 -3.6823148e-01
 -3.9757752e-01
  1.8690456e+00
 -2.6618676e+00
 -1.7593136e+00
  1.7916406e+00
  4.3900400e-01
 -7.2588062e-01
 -1.4353466e+00
  1.6683356e-01
  9.3218654e-01
  5.2576065e-01
  1.8709108e+00
 -7.7415371e-01
  4.3366310e-01
  3.7099132e-01
  9.5601007e-02
  2.2287649e-01
 -8.8992471e-01
 -7.7636063e-01
  5.8108681e-01
  1.8973355e-01
  1.3860387e+00
  2.8717107e-01
  1.0759324e+00
 -7.7149159e-01
 -6.9799739e-01
  5.3149122e-01
 -3.2490686e-01
  7.4557434e-03
 -5.6948918e-01
 -4.0101051e-01
  1.0049112e+00
 -9.5184499e-01
  1.4310796e+00
  1.1510736e-01
 -3.1475964e-01
  1.1651189e+00
 -2.2929389e+00
  1.0539570e+00
 -2.2383080e+00
 -1.4165056e+00
  7.1072799e-01
  7.3370421e-01
 -1.5925431e-01
  1.0166882e+00
 -3.6250303e+00
  2.9837859e+00
  1.0276240e+00
 -2.0846317e+00
  2.4191406e+00
 -1.9930183e+00
 -1.5345935e+00
 -1.4512926e-01
 -4.6307144e-01
 -2.4614873e+00
 -2.6223190e+00
 -6.1580563e-01
  8.7120362e-02
 -3.9145267e-01
 -1.4228268e+00
 -2.6484206e+00
  8.1057900e-01
 -4.6728098e-01
  5.7678050e-01
  1.4539033e+00
 -4.0207148e-01
  3.5411504e-01
 -6.1945295e-01
 -2.8572440e-01
  4.5667198e-02
 -5.6894606e-01
  4.7031260e-01
  6.5785295e-01
 -6.4051676e-01
 -1.0957520e+00
 -4.5497030e-01
 -8.1020355e-02
  1.4304807e+00
 -1.0987066e+00
 -9.3871319e-01
 -1.9900990e-01
  1.0578412e-01
 -1.1451562e-01
  2.3495767e-01
 -3.6433575e-01
  4.5241854e-01
 -1.0664196e+00
  8.1810701e-01
 -9.7056454e-01
 -4.7862223e-01
  8.0926740e-01
 -1.0102323e+00
 -2.0584233e+00
 -8.0714977e-01
 -1.1124960e+00
  2.1494950e-01
  3.1484911e-01
 -3.7702820e-01
  1.6522977e+00
  4.9193427e-01
  7.4594557e-01
  6.2860471e-01
  7.9058295e-01
 -5.6519860e-01
 -7.0806581e-01
 -7.8113228e-01
  5.9958756e-01
  7.7114798e-02
 -1.2392842e+00
 -5.7401776e-01
 -4.8228163e-01
 -5.7005328e-01
 -4.0383133e-01
  7.2733778e-01
 -1.9579777e-01
  4.4130266e-01
 -1.9738552e-01
 -1.3538412e+00
  5.7262939e-01
 -9.1240954e-01
 -3.3395028e-01
  4.6044183e-01
  3.4582248e-01
  3.8918728e-01
  1.8459736e+00
 -5.3299230e-01
 -9.5509267e-01
  1.3417716e+00
 -3.8453281e-02
 -9.8420221e-01
 -9.6172452e-01
 -1.9691770e-01
  4.1162167e-02
  1.5745809e+00
  1.4605051e-02
 -6.2515450e-01
  2.0447452e-01
  1.6027725e+00
 -1.1245700e+00
  3.3509052e-01
 -9.0157908e-01
 -1.4503292e+00
  8.0120707e-01
  4.3499795e-01
  1.9264519e+00
 -5.7330883e-01
 -7.6107204e-01
  1.2594517e-01
 -6.3235790e-01
 -6.3171953e-01
 -3.5626987e-01
  1.5868691e+00
  1.8542008e+00
  6.5299851e-01
 -1.5145158e+00
  1.3349732e-02
 -5.7242823e-01
  5.1774627e-01
  8.5477859e-01
 -8.6574024e-01
 -1.8028475e-02
  1.7465863e+00
 -1.3016778e-01
  5.7437658e-01
 -1.3224145e+00
  7.3771097e-02
 -8.5087013e-01
 -5.8828795e-01
  2.7662411e-01
  1.2359536e-01
  6.8690026e-01
  2.3363359e-01
  5.2742678e-01
 -1.0614724e+00
 -2.3406969e-01
  3.3958282e+00
  8.4494960e-01
 -8.8889498e-01
 -1.2485554e+00
  1.5361106e-01
 -1.9652483e+00
  9.0864412e-03
  1.7842933e+00
 -4.9996808e-01
  3.3512905e-01
 -3.0143642e+00
 -1.7758742e-01
 -5.5260348e-01
 -5.8676749e-01
 -1.7441529e+00
 -2.4329758e-01
 -9.3253696e-01
 -2.9057651e+00
 -4.5124567e-01
 -5.3897673e-01
  1.1619784e+00
 -4.9374783e-01
 -4.2481908e-01
 -7.9557472e-01
 -2.7574940e+00
 -2.9215094e-01
  8.5961497e-01
  1.6783670e+00
 -4.0822756e-01
  1.0003199e-01
 -1.0158138e+00
 -5.9835595e-01
 -1.5905694e+00
  3.0604950e-01
 -4.3090659e-01
  1.2368121e+00
  3.6667386e-01
  1.6007502e+00
 -1.0747035e+00
 -2.0774050e+00
  1.0549332e+00
  5.6971110e-02
 -6.6951030e-01
 -3.8672134e-01
  1.1241904e+00
 -3.0097595e-01
  1.6251107e-01
 -1.6820280e-01
 -1.1639390e+00
  2.0995144e-02
  1.3893945e+00
 -9.9020910e-01
  8.3818018e-01
 -4.1213548e-01
 -2.6777840e+00
 -4.0258408e-01
 -1.1377031e+00
 -1.2294514e+00
 -7.8556693e-01
  1.3764453e+00
 -1.8500528e-01
  9.4267392e-01
 -3.1871572e-01
 -1.2586671e+00
  3.4011933e-01
 -1.7857979e-01
 -4.9780045e-02
  5.8699131e-01
 -1.0143613e+00
 -9.6345425e-02
  1.0414246e+00
  2.2501789e-01
 -3.6971262e+00
 -1.8695128e+00
  6.0331289e-02
 -1.5255934e+00
  1.0017116e+00
  3.5090446e-01
 -1.0004760e-01
 -2.2115095e+00
 -2.1646230e+00
  5.6706607e-01
 -1.0188582e+00
 -3.8911203e-01
 -7.9370958e-01
 -1.3096269e+00
 -4.7266573e-02
  9.2116910e-01
 -9.9049395e-01
  3.6941576e-01
 -1.2104264e+00
 -4.4471094e-01
  1.7584848e+00
  2.8969662e+00
  6.6865473e-03
 -2.6182609e+00
  1.7624545e+00
  3.1252545e-01
  7.7321577e-01
 -2.8544420e-01
 -1.5184182e+00
  1.1493156e+00
  3.7733689e-01
 -9.0092883e-02
  6.7051506e-01
  8.0393285e-01
 -8.6806947e-01
  1.8793411e+00
  5.4682463e-01
  3.6472997e-01
  8.2217950e-01
 -3.4979386e+00
  6.6086799e-01
  1.4933811e-01
 -3.6820276e+00
 -3.0473873e-01
  2.7327874e+00
  7.5074303e-01
 -1.1619225e+00
 -3.4021056e+00
  1.6089385e+00
 -1.3960835e+00
  1.4568226e+00
 -1.4676520e-01
  1.1190300e+00
 -3.4157403e-02
  5.9690070e-01
 -3.4423050e-01
 -7.0423436e-01
  7.7658884e-02
  1.9985780e+00
 -4.4688118e-01
  6.9124401e-01
  7.5856227e-01
  1.9988081e+00
  7.6194048e-02
  1.4199426e+00
  5.8604205e-01
  4.0203705e-01
  4.2172325e-01
  2.7188225e+00
 -1.4513087e-01
  3.0062408e+00
  8.8667542e-01
 -3.1316254e+00
 -1.4754964e+00
  2.5118766e+00
 -1.9297454e+00
  3.5756749e-01
  7.4566472e-01
 -2.3758543e+00
 -1.7109758e+00
 -1.5354227e+00
  1.3300750e+00
 -1.5721420e+00
 -2.1288875e-01
  1.0991718e+00
 -6.3486081e-01
 -4.5464769e-01
 -2.5946635e-01
  9.2538494e-01
  9.3373626e-01
 -1.1711949e+00
  6.8212435e-02
 -2.8064828e+00
  5.1395178e-01
  1.7677865e+00
 -1.8714578e-01
  1.4976518e-01
 -2.6100010e-01
 -3.3268216e-01
  5.2616113e-01
 -2.6430529e-01
  1.5199518e-01
 -1.7432963e+00
 -2.2811019e+00
  1.7216517e+00
  2.7454790e-01
 -2.0404761e+00
  1.0196030e+00
 -6.0830947e-02
  1.1430398e+00
  1.9375733e+00
 -2.4822063e+00
  7.8702080e-01
 -1.4415926e+00
  1.7247154e+00
  3.2986462e-02
  1.4274621e+00
 -2.1964507e-01
 -9.2171097e-01
  1.6716350e+00
  1.6732318e+00
 -2.8173295e-01
 -1.0849415e+00
 -2.9796550e-01
  5.5323488e-01
  5.1228565e-01
 -1.0491970e-01
  7.6129293e-01
 -8.0157298e-01
 -8.6942363e-01
 -2.1339440e+00
 -4.1798919e-01
  7.1764058e-01
 -1.1598828e+00
 -8.7043144e-02
 -1.2509482e+00
 -1.9065638e-01
  1.1116606e+00
 -5.7533652e-01
  1.0055909e+00
 -3.9847367e+00
  1.2857624e+00
  1.1559464e+00
 -4.2353624e-01
 -1.0199591e+00
 -2.7510953e-01
  1.4908139e-01
  1.6450511e+00
 -2.1513028e+00
 -8.4597838e-01
 -6.8372345e-01
  7.9656821e-01
  1.1322620e+00
 -2.4941722e-01
 -2.8592472e+00
  2.4099827e+00
 -1.7871533e-01
  1.0812817e-01
 -6.0888284e-01
  7.5135767e-01
 -2.0280874e+00
 -3.5535395e-01
  5.5479479e-01
 -1.0355376e+00
  5.2248943e-01
  3.3126440e+00
  1.2832793e+00
 -8.4962291e-01
 -3.5141501e+00
  6.6130221e-02
 -1.0831540e+00
 -5.6037015e-01
 -6.7719269e-01
  6.4606309e-02
  5.1828533e-01
  4.0236816e+00
  1.1269116e+00
  3.1367183e-01
 -1.0594770e+00
 -3.7954345e+00
 -1.1074020e+00
  7.9803896e-01
  2.2743015e+00
 -4.1917863e+00
  2.6351196e-01
  1.0635877e+00
 -9.8826897e-01
  4.2992115e+00
 -9.4749254e-01
 -6.4272833e-01
  2.2677851e+00
 -1.0036422e-01
 -1.7820440e-01
  1.7881646e+00
  9.5238471e-01
  2.3878118e-01
 -1.5050607e+00
  1.5966212e+00
 -1.7958039e+00
 -7.3283863e-01
  2.3739576e+00
 -1.1176103e-01
  1.8011951e+00
  3.8756821e-01
  4.3925665e-02
  1.0228399e+00
 -1.0761571e+00
 -4.9936485e-01
 -2.5476835e+00
 -1.7339094e+00
 -2.6728493e-01
 -2.9141862e+00
  3.0242250e+00
  6.8966573e-01
 -5.6527358e-01
 -1.7471658e+00
 -1.1752315e+00
  3.8515729e-01
  6.5037543e-01
  1.3647815e+00
  4.9416256e-01
 -5.2898926e-01
  6.0326630e-01
 -4.6598762e-01
  1.6283574e+00
  1.1415036e+00
 -2.7759721e+00
 -2.2553751e-01
 -1.2481016e+00
  6.6194959e-02
  1.7252895e+00
  1.5465689e+00
  7.4464518e-01
  1.5732764e+00
  1.7220585e-01
  5.4169673e-01
  4.0697551e-01
  6.7366010e-01
  5.6297261e-01
 -2.6915997e-01
  8.8694131e-01
 -7.1038800e-01
 -1.4189395e-01
 -2.0207567e+00
 -2.3408356e+00
  3.0255669e-01
 -1.2770770e+00
 -2.6828733e-01
  1.4747432e+00
 -6.6640013e-01
  3.9689502e-01
 -8.7290674e-02
  1.3175013e+00
  9.9929613e-01
  7.4250358e-01
  3.1034241e+00
 -1.4539800e+00
 -1.7365662e+00
 -1.5977314e-02
 -1.5931852e+00
  2.2916019e+00
 -2.1345959e+00
  1.5407749e-01
  1.4904263e+00
 -7.9636461e-01
  9.6038669e-01
  7.5980569e-03
 -3.4325011e+00
 -9.2876768e-01
 -4.4768792e-01
  2.8123409e-02
 -1.6107616e+00
  1.4883463e-01
  4.6441001e-01
 -1.9545048e-01
 -8.0414557e-01
  3.7813368e-01
 -6.8356800e-01
 -1.3301322e+00
  1.1054084e-01
  2.5165548e+00
  8.4406209e-01
  3.2256208e-02
  1.6001983e+00
  2.4430945e+00
 -2.4947624e+00
  1.0381547e+00
 -5.9684411e-02
  3.1365383e+00
 -4.9973569e+00
  1.0672216e+00
  7.2629285e-01
 -3.4794810e-01
  8.7537593e-01
  2.8477687e-01
  3.5519081e-01
 -3.6816046e-01
 -6.8165637e-03
  1.0754415e+00
  1.3976262e+00
 -1.4230618e+00
 -1.3100528e+00
  1.0840080e+00
 -2.3320651e+00
 -8.7916076e-01
  9.6050933e-02
 -1.1860343e+00
  7.0080519e-01
  6.1586373e-02
  2.2892563e+00
  5.4169184e-01
 -5.8946925e-01
 -1.8225414e-01
 -5.1395142e-01
  5.4401851e-01
 -3.3811781e+00
 -2.3318632e+00
 -2.0894794e+00
 -2.4479074e+00
  2.3439758e+00
  2.7282076e+00
 -3.1760004e-01
  1.2778312e+00
  2.9958972e-01
 -2.0715792e+00
  8.1413013e-01
 -4.0073171e-02
 -5.7169652e-01
  6.5034676e-01
 -3.1348925e+00
  1.9701444e+00
  1.7669235e+00
 -2.4801211e+00
 -1.9233279e+00
  1.4506133e-01
  6.5315169e-01
 -1.7001168e-01
 -7.1686500e-01
 -1.4766705e+00
  1.9491606e+00
  4.1451779e-01
 -7.4930377e-02
  5.2611142e-01
 -2.5323376e-02
  3.5938409e-01
 -3.6292326e-01
  7.7569187e-01
  2.5619894e-01
  1.5735695e-01
 -9.7207591e-02
 -2.5753635e-01
 -1.4625896e+00
  4.7372034e-01
 -1.0150455e+00
 -7.0755851e-01
 -8.2696390e-01
 -2.3712106e-01
  5.4308671e-01
 -3.5398397e-01
  2.4449094e-01
  5.2774268e-01
 -9.1294783e-01
 -4.8327208e-01
  8.7032449e-01
  1.4517717e+00
  5.2126002e-02
  3.1238136e-01
 -6.3831262e-02
 -1.3742142e+00
 -1.8905295e-01
 -6.1057019e-01
  9.6608955e-01
  1.2719356e+00
  1.7266775e+00
 -1.3740010e+00
 -8.8350236e-02
 -6.4700770e-01
 -6.9524670e-01
 -8.6984979e-03
  5.0473845e-01
 -9.5795190e-01
  1.5174388e+00
  2.9671624e-01
  4.4683486e-01
  1.1764885e+00
 -5.2595884e-01
  6.2545907e-01
 -5.4416412e-01
 -2.0510086e-01
 -1.5907427e+00
 -7.3200458e-01
 -6.2496830e-02
  5.5768019e-01
  3.5229619e+00
  3.6079881e-01
 -2.6745675e+00
 -1.2325910e-02
  1.4806608e+00
 -1.4001154e+00
  4.4271332e-01
  1.3998456e+00
 -2.5371906e-01
  6.8583570e-02
 -3.2586150e-02
 -1.0758972e+00
  6.7204988e-01
  9.7897416e-01
  1.4749520e+00
 -5.2846563e-01
  1.8951991e+00
  1.8643755e+00
  6.4097025e-02
  5.9237373e-01
 -4.5337349e-01
 -5.9166169e-01
  5.3925782e-02
 -7.9862398e-01
 -1.5501909e-01
  8.8884670e-01
 -2.3397233e+00
 -6.0130322e-01
  1.6884867e+00
 -1.3900652e+00
  4.8276144e-01
 -2.9029803e+00
  4.8397335e-01
  8.1213045e-01
  1.1022044e+00
 -4.0575725e-01
 -1.3271258e+00
 -2.3149214e+00
  7.1583873e-01
  3.2805519e+00
 -2.0052248e-01
 -8.7593430e-01
  2.1670564e-01
  5.0218296e-01
 -3.0251905e-02
 -1.3131407e+00
 -6.9716060e-01
 -4.0621448e-01
  4.1325121e+00
  7.1394838e-02
  8.1354803e-01
 -1.6522146e+00
 -1.1614162e+00
 -4.8768204e-03
 -9.5072728e-01
  4.2139417e-01
 -7.8835487e-01
 -1.0256919e+00
  2.0591938e-01
  3.7840354e-01
  5.8704519e-01
 -3.9857674e-01
 -2.3687603e+00
  3.1813663e-01
  6.2640357e-01
  7.2860008e-01
  3.6334842e-01
  7.3811013e-01
  1.4417403e+00
 -1.1231706e+00
  1.2834181e+00
 -3.9653087e-01
  1.8975286e+00
  2.0145511e-02
 -1.5755531e+00
  3.2822946e-01
 -3.9328924e-01
  1.4468465e+00
  1.1339587e+00
 -6.2599355e-01
  6.4861912e-01
 -5.2966261e-01
  1.5391500e+00
 -1.5811075e+00
 -4.8259684e-01
  2.5707057e-01
 -2.1253526e+00
 -9.2824644e-01
 -5.4699069e-01
 -9.1794819e-01
 -1.7401727e+00
 -4.0033296e-01
 -1.2231935e+00
 -1.8184757e-01
  2.7150305e-02
  1.2420568e+00
  6.1589646e-01
 -2.0787792e+00
  4.1591667e-02
 -2.1698108e+00
 -1.4093776e+00
  7.9065430e-01
  1.0120324e+00
 -9.2838258e-01
 -7.2890097e-01
 -2.5850306e+00
 -2.5387911e-02
  1.3402687e+00
 -9.8853844e-01
  2.4641755e-03
 -3.9392418e-01
 -2.7568934e-02
 -3.8508725e+00
 -1.6074240e-01
  2.4847052e+00
 -2.3111715e+00
  1.6871393e+00
  7.9119068e-01
 -1.1697510e+00
 -6.7668611e-01
 -1.0560557e+00
 -3.2457918e-01
 -6.0633361e-01
 -4.6826847e-02
  1.7108604e+00
  3.3122128e-01
 -4.2766410e-01
 -9.6091226e-02
  1.3357154e+00
 -1.1236044e-01
  9.2910834e-02
  1.9505598e-03
  2.4438229e-01
  6.0152364e-01
 -2.7316701e+00
 -1.0049373e+00
 -7.4729484e-01
 -9.2438027e-02
  1.5483870e-01
  7.1516168e-01
  2.9094748e+00
  3.0912366e+00
 -1.5949145e-01
 -2.8221720e-01
  5.8356327e-01
 -1.8292483e-02
 -1.4325746e+00
 -4.3984234e-02
 -4.3998283e-01
  1.4753870e+00
 -4.0572098e-01
  5.0525326e-01
  2.5987092e-01
  7.5638235e-01
  1.0071460e+00
  1.5807518e+00
 -1.2057438e-01
  1.3061279e+00
 -7.4685872e-01
 -1.8888996e+00
  1.5361511e+00
  4.7978941e-01
  1.7287420e-01
 -1.1496347e+00
  9.0351516e-01
  1.0300584e+00
 -1.9383757e+00
 -1.1018099e+00
 -4.3210750e+00
 -3.0046477e+00
  1.9535488e+00
 -1.8945806e+00
  7.7783071e-02
  1.0249766e-01
  1.9981161e+00
  1.7673742e+00
 -4.6272969e-01
  1.2344792e+00
 -7.9871559e-01
  3.3180022e-01
 -7.4574167e-01
  1.2618322e+00
 -1.5711882e+00
 -9.2452782e-01
  3.8568112e-01
  1.3191822e+00
 -3.0801277e+00
  9.6730977e-02
 -4.6405604e-01
 -7.9829395e-01
 -1.2931138e+00
 -1.8612000e+00
  9.8554325e-01
  2.1186416e-01
  3.9789468e-01
 -2.3278104e-02
  2.0659163e+00
  3.9164940e-01
  3.9690253e-01
  3.3466089e-01
 -4.9252982e+00
 -2.3111186e+00
 -2.2316017e+00
 -6.1103576e-01
  1.1465223e+00
 -1.3203628e+00
 -4.0538969e+00
  7.1543174e+00
 -1.4721336e+00
  1.1913798e-01
  1.9049774e+00
  1.0175812e+00
 -1.1126240e-01
  2.4426377e+00
  1.2823601e+00
  2.3751671e+00
 -1.1447077e+00
  2.5147288e+00
  1.2643882e+00
  1.1850586e+00
  1.6428623e+00
 -1.5616579e+00
  7.0433271e-01
  3.1839311e+00
 -1.5523398e-01
  6.3787186e-01
 -9.4910908e-01
 -1.1899128e+00
 -9.3876457e-01
 -2.3887405e+00
  1.0248573e+00
  6.2917048e-01
 -7.8751624e-01
 -3.6917469e-01
  1.6729667e+00
 -4.9305439e-01
  1.2539825e+00
 -7.9321742e-01
 -1.1945060e+00
  1.2828248e+00
  1.3089633e+00
  5.6953758e-01
  2.0566987e-01
 -1.3157285e+00
  1.2510445e+00
 -6.9595635e-01
  8.1149228e-02
 -5.8013588e-01
 -2.7222291e-01
  5.4648685e-01
  4.2106080e-01
 -4.0443316e-01
  5.2698666e-01
 -3.2303900e-01
  4.9758755e-02
  1.3018221e-01
 -3.7714210e-01
  2.4292214e-01
 -5.2816652e-02
 -9.6104109e-01
 -9.6418047e-03
  1.6563772e-01
 -4.8849159e-01
  3.9714193e-01
  1.7345020e-01
 -6.3366592e-01
 -4.0972510e-01
  9.6464351e-02
 -8.4300715e-01
 -6.2514997e-01
  3.1077058e+00
  7.5553769e-01
 -1.0833806e+00
  1.6698439e+00
 -3.0665985e-01
 -7.2249286e-02
 -1.0452552e+00
  2.8153639e+00
 -8.4900403e-01
 -5.9059280e-01
 -4.6412459e-01
  2.6601942e+00
  1.8738417e-01
  5.4287159e-01
 -8.9562625e-01
 -4.6851557e-01
  7.5980622e-01
  1.8429556e+00
 -1.1437476e+00
 -3.3811826e-02
  7.8084737e-01
  8.3148164e-01
  4.6858799e-02
 -8.1850535e-01
 -1.2964997e+00
 -2.4653281e-01
 -1.6404964e+00
 -1.9082298e+00
 -4.2209232e-01
 -1.6510862e-01
  2.0581179e+00
  1.6276789e+00
  1.0638162e-01
  1.0662622e+00
  8.5212380e-01
 -2.9063363e+00
  1.7810822e+00
 -1.9380625e+00
 -1.7888752e+00
 -7.4302042e-01
  1.2537423e+00
  2.3985343e-01
  6.7641681e-01
 -1.1746444e+00
  3.5086480e-01
  3.5007019e+00
 -3.5336764e+00
 -1.0706906e+00
  6.2806129e-01
 -4.7042942e-01
 -4.8423728e-01
  5.1905739e-01
 -1.4660944e+00
  8.4133726e-01
  3.0477023e-02
  6.9321382e-01
 -2.0484868e-01
 -9.6000707e-01
  1.5133699e+00
  6.3126945e-01
 -3.6353955e+00
  2.1997585e+00
  3.1779388e-01
  7.9047769e-01
  2.8308690e-01
  2.3080464e-01
 -4.9624783e-01
  7.8409040e-01
  7.6869100e-01
 -1.7333478e-01
  3.6591980e+00
  7.2567636e-01
 -2.4773631e+00
 -2.8935620e-01
  1.1620961e+00
 -2.1014316e+00
  3.1226116e-01
 -2.4029896e+00
  8.1832445e-01
  2.0175080e+00
  2.7502930e+00
 -7.8830963e-01
 -2.9353979e-01
 -1.0694586e+00
  1.1543742e-01
 -1.5890869e+00
 -1.7628939e+00
 -7.2428703e-01
 -1.2889707e+00
  5.4884863e-01
  1.0874054e+00
 -1.5620995e+00
 -1.3394687e+00
 -7.0766234e-01
 -1.8092124e-01
 -2.2180063e-01
  3.3250374e-01
 -8.7944973e-01
 -1.6352239e+00
  5.7867229e-01
 -9.2671114e-01
 -4.8830950e-01
 -3.1493820e-02
  4.8531976e-01
 -3.1247720e-01
 -1.4778930e+00
 -2.8689625e+00
  5.3238070e-01
 -1.9082571e+00
  1.1139532e+00
  1.8304014e+00
  2.6473947e+00
 -1.5441520e+00
  4.4332820e-01
  5.1066045e-02
  2.4096756e+00
 -2.0556488e+00
 -3.0235939e+00
 -5.2921027e-01
 -7.9579532e-01
  4.5080690e+00
 -1.9477911e+00
 -3.0229528e-02
  1.5857220e+00
 -4.2085519e-01
  9.2485535e-01
 -1.4665036e+00
 -1.1835836e+00
  2.2152700e+00
  6.9916703e-02
 -3.9981947e+00
  3.6721249e+00
 -3.2671562e-01
  2.4913390e+00
  2.1867027e+00
 -9.6573406e-01
 -5.5339772e-01
  1.2199888e+00
 -6.5861297e-01
 -1.5238556e+00
  1.2223912e+00
  1.2081860e+00
 -3.4737132e+00
 -1.4006910e+00
  2.1676257e+00
 -1.3194551e+00
 -2.7198321e-01
  1.1360652e+00
 -6.0963299e-02
 -2.8844580e-01
 -2.3467351e-01
 -4.6474534e-01
  7.2322530e-01
  8.2076037e-01
 -3.5921761e-01
  8.5159743e-01
  9.8916388e-01
 -8.0164242e-01
 -2.6135927e-01
  1.2885996e+00
 -7.5705743e-01
 -9.6951768e-02
  8.0622834e-01
  5.5471998e-01
  1.7296544e-01
  2.6453514e+00
 -7.6730108e-01
 -1.2537881e+00
 -3.7080359e-01
 -1.1443868e-01
 -2.8422645e-01
 -1.0980396e+00
 -4.2268860e-01
 -5.1934999e-01
  5.6928140e-01
 -1.5834805e+00
 -2.3139583e-01
  6.5775973e-01
  4.6363160e-01
  2.0052189e-01
  8.1531560e-01
 -4.6426928e-01
  1.5160817e+00
  8.1756425e-01
 -1.3036877e+00
 -2.3518525e-01
 -2.2342184e+00
  8.2488358e-01
  2.3560856e-01
  8.0044176e-03
  4.2696443e-01
 -8.9569658e-01
 -4.4992998e-01
  6.9399780e-01
 -6.2818414e-01
  1.3589475e+00
  1.2446954e+00
  1.2553821e+00
 -8.0456150e-01
 -6.4435071e-01
 -1.7052747e+00
 -2.4845059e-01
 -2.4238855e-01
  2.3813702e-01
 -2.6644105e-01
  6.4396125e-01
  3.0146757e-01
  7.0595497e-01
 -9.2798524e-02
 -1.6536928e+00
 -3.6105983e+00
  7.5280750e-01
 -9.6250165e-01
  4.5672500e-01
  1.8707112e+00
  5.2680558e-01
  2.2662499e+00
 -2.4267738e+00
 -3.6151940e-01
  6.9320774e-01
  3.5199666e-01
  1.1177502e+00
 -6.9717997e-01
  1.2996492e-01
  1.1530586e+00
  1.0130531e-01
  4.6352978e+00
 -1.5856011e+00
  2.1903203e+00
 -2.1304264e+00
  1.8996685e+00
  1.9981027e+00
  4.1723624e-01
  8.3413690e-01
  2.1402597e-01
  1.5664316e+00
  1.7126790e+00
  8.1810480e-01
  5.3976423e-01
 -6.3805634e-01
  8.7997675e-01
  8.9256102e-01
  8.6678661e-02
 -2.0334908e-01
 -8.3921134e-01
  1.5856104e+00
  1.1867344e+00
 -4.0674529e+00
 -9.6831024e-02
 -2.1244459e+00
  3.7368007e+00
 -4.7959819e-01
 -4.0697289e-01
  3.4828451e-02
  7.8531516e-01
 -1.9256881e+00
 -2.4750314e+00
 -6.0797220e-01
  1.2390471e-01
  5.7582065e-02
 -1.1983067e+00
  4.0853152e-01
  4.0349308e-01
  2.1807238e-01
 -1.7615105e+00
 -1.9873101e+00
  2.2194319e+00
 -1.1455086e+00
  1.0472306e+00
 -9.9133587e-01
 -4.5629022e-01
  1.3215853e+00
  1.2541057e+00
  7.4506545e-01
  7.7295709e-01
 -1.3470069e+00
  9.1405034e-02
 -3.2471520e-01
  9.5828271e-01
 -9.1964245e-01
  6.4027886e+00
  1.2390127e-01
 -1.4921160e+00
 -4.9816373e-01
 -1.8435235e+00
  4.5345030e+00
  1.0535735e+00
 -1.1487098e+00
 -9.6562795e-02
 -4.1213260e+00
  6.4828509e-01
  1.3312089e+00
 -3.1111245e+00
 -8.9138097e-01
 -2.1644773e+00
  1.4658552e+00
 -1.6522725e+00
 -1.3495718e+00
 -1.4981316e+00
 -1.6012255e+00
  2.7367240e-03
 -1.7907728e+00
  2.7895743e-02
 -2.8119931e+00
 -1.6536640e+00
 -2.0507832e+00
 -9.5508772e-01
  1.3787663e+00
 -2.8299898e-01
 -2.4276862e-01
  7.3131752e-01
 -1.8940575e-01
 -5.6876993e-01
  4.0215376e-01
  1.2605584e+00
 -1.5759732e+00
 -2.6238420e+00
 -1.6563008e+00
 -2.6318753e+00
  2.0380173e+00
 -8.6480446e-02
 -7.8437853e-01
  1.2255050e+00
  2.3350783e-01
 -4.8607695e-01
  1.0830704e+00
 -1.3284913e+00
  3.9842596e+00
 -2.6981932e-01
 -1.8334925e+00
  1.2411461e+00
  3.0608290e-01
  1.5239760e+00
 -7.1420288e-01
  3.4344074e-01
  3.7964866e-01
  7.3681362e-02
  3.7604091e-01
  1.5338559e+00
 -4.8124608e-01
  7.0015961e-01
  1.9366287e-01
 -4.9592122e-01
  2.7777129e-01
  9.1134214e-01
 -7.7737808e-01
 -5.4966325e-01
  6.2620535e-02
  9.6416807e-01
 -2.0547376e+00
 -3.9984718e-01
  1.1256068e+00
  1.1533312e+00
  1.2983744e+00
 -1.5993073e+00
 -3.8815743e-01
  1.7530526e-01
  2.7920711e+00
  4.8770241e-02
  1.8791345e-01
 -8.5750633e-01
  3.1393356e+00
  8.5596615e-01
  1.5791929e-01
  2.8845322e+00
 -1.3749825e+00
 -5.0438333e-01
 -1.4900322e+00
  4.5631599e-01
  5.4959255e-01
 -3.5229850e+00
  2.8693016e+00
  1.4873769e+00
  1.4319379e+00
 -1.4186795e+00
  1.9617199e+00
 -1.6486441e-01
  2.3893170e+00
 -2.0789720e-01
 -9.1516668e-01
 -8.3724225e-01
 -7.6984739e-01
 -8.1781757e-01
  4.3190673e-01
  1.0125642e-01
  1.8077625e+00
  1.5024906e+00
 -1.6712775e-02
 -2.0381126e+00
  2.2773135e+00
 -2.2119248e+00
 -3.4542611e+00
  5.9256917e-01
 -4.6023397e+00
 -2.0936582e+00
  3.3143411e+00
  4.0167470e+00
  1.1507391e+00
  9.6128553e-01
 -1.4947969e+00
  3.0406470e+00
  1.1401905e-01
  8.9491862e-01
 -5.2762970e-02
  2.2566466e+00
  2.1697674e+00
 -6.3219613e-01
  1.1547885e+00
 -1.3924980e+00
  9.8880136e-01
  7.8062713e-01
 -3.4568028e+00
 -4.1796523e-01
  9.1112012e-01
 -2.1256484e-01
 -1.3823799e+00
 -1.7280570e-01
 -1.8977980e-01
 -6.3951337e-01
  7.9254413e-01
  4.4790035e-01
  9.9596107e-01
 -4.1683444e-01
 -2.4086452e+00
  2.5203755e+00
 -8.7813675e-01
  9.3826383e-01
  2.7238405e-01
  9.9085110e-01
  1.4459820e-01
 -3.8886410e-01
  1.2347262e+00
 -1.1994742e+00
  1.1488528e+00
 -1.6469388e+00
 -1.4694647e+00
  1.2240226e+00
 -6.5307784e-01
  1.6130133e+00
 -1.7272693e-01
  3.3391520e-01
  5.2123415e-01
  3.3871055e-01
  6.7631906e-01
 -3.9355081e-01
  2.2775257e+00
  3.8929835e-01
  2.1794064e+00
 -9.5745230e-01
  3.6916184e-01
 -1.3864732e+00
  7.2777289e-01
  7.6025444e-01
 -4.9740452e-02
  8.0630535e-01
 -4.6675591e+00
 -2.6407826e-01
  8.4622687e-01
 -9.2769295e-01
  7.3737043e-01
 -1.8741289e+00
 -1.0421450e+00
  9.1223925e-01
  1.9400531e+00
  9.7293055e-01
 -8.3928931e-01
  2.7394137e+00
  9.8459888e-01
  3.5652626e-01
 -3.8664207e-01
  2.1668771e-01
  1.0640666e+00
  1.7062758e+00
  7.1540296e-01
  2.6317450e-01
 -2.4575648e+00
  3.1077237e+00
  1.8413167e+00
  2.9089993e-01
 -4.8572123e-01
  1.2640403e-01
 -1.9166099e+00
  2.0490937e+00
  2.4435493e-01
  1.3887923e+00
 -2.8418267e-01
  8.8220090e-01
 -2.1015067e+00
  2.5066087e+00
 -1.8019530e+00
 -1.7416884e+00
  1.1827124e-01
 -1.0141423e-02
  1.5522520e-01
  1.0383853e-01
  1.1013088e+00
 -5.2363873e-01
 -2.2284338e+00
 -1.0145379e+00
 -7.6115847e-01
 -4.7301203e-01
  1.8699267e+00
 -3.0436857e-02
 -5.5187511e-01
  4.5290064e-02
 -2.1869864e-01
 -4.1115966e-02
  2.1351764e-01
  3.4382924e-01
  3.3078805e-01
 -7.8268844e-01
  4.8065323e-02
 -9.3717217e-01
  1.4878664e+00
  1.9263043e+00
 -1.9145652e+00
 -8.6079967e-01
  6.2516505e-01
 -6.3502365e-01
 -5.1104254e-01
  1.4931754e+00
  6.9212663e-01
  1.6150192e+00
  2.4859516e-01
 -1.1978284e-01
  6.5263848e+00
  6.4787692e-01
  3.6524186e-01
  1.0221568e+00
  1.0083039e+00
  2.2960827e+00
  3.1473396e+00
 -3.8604980e+00
 -1.2210193e+00
 -5.2466935e-01
  2.0910726e+00
  1.8321425e+00
  4.6861586e-01
 -1.8904638e-01
 -1.0849378e+00
  1.7660751e+00
  5.4146457e-01
 -1.5391920e+00
 -7.5317723e-01
  2.3893430e+00
  1.5340496e+00
 -2.6920357e+00
  5.7429099e-01
  5.3392422e-01
  1.0181420e+00
 -5.5906944e+00
  2.5870311e-01
  1.4421871e+00
 -7.1755129e-01
 -1.3674216e+00
  3.4216337e+00
  1.4709957e+00
 -8.3173770e-01
 -5.8505428e-01
  6.5791512e-01
 -1.5912495e+00
 -3.2313383e+00
  1.7868716e+00
  1.6433433e-01
 -7.2081918e-01
  1.1241932e-01
 -2.5529802e-01
 -5.3760509e+00
 -1.1905110e-01
  2.0474730e-01
 -1.1983113e+00
  4.3883948e+00
  1.5024900e-02
  6.7702383e-01
  9.2989835e-04
  4.0065289e+00
 -2.6796777e+00
  8.3445650e-01
  1.0963450e-01
 -2.9491503e+00
 -1.6920626e+00
  1.3206067e-02
  1.2337648e+00
  6.5375704e-01
  9.0576363e-01
  6.2145805e-01
  1.4377842e+00
  5.1814818e-01
  1.0530666e+00
 -2.0953985e-01
  7.1066636e-01
 -1.6128225e+00
  1.3585697e-01
  5.9833783e-01
 -1.5842631e-01
 -2.0949280e+00
 -6.4902431e-01
  1.8544815e+00
  1.7186469e-01
 -1.7155272e+00
  1.1478655e+00
  8.6126202e-01
 -1.8362714e-01
  2.9529793e+00
  2.1952147e+00
 -2.4730918e+00
 -5.8185607e-01
  6.4355540e-01
  1.6077284e+00
 -8.4136653e-01
 -3.8908598e-01
  3.9462358e-01
 -2.4612970e+00
  1.1119313e+00
 -3.9747304e-01
 -1.1440167e+00
 -1.6312993e+00
 -2.3584300e-01
 -1.4550939e+00
  6.6953343e-01
  4.3926764e-01
 -6.5355635e-01
 -3.5410222e-01
 -1.8208675e-02
 -1.1165274e-01
  5.5764562e-01
  7.9454249e-01
 -7.5393534e-01
  5.5691257e-02
 -5.4623002e-01
 -1.5865758e-01
 -3.5448072e+00
  1.0438654e+00
  5.5755126e-01
  2.0491126e+00
 -4.5829663e-01
  9.3801022e-01
 -1.2836717e+00
 -1.4123496e+00
  2.2025220e+00
  1.0494477e+00
 -1.4943150e+00
 -2.9388509e+00
  5.4951620e-01
 -7.1985120e-01
 -1.0321729e+00
  4.0302324e-01
 -5.1787740e-01
  6.1329854e-01
  6.0656440e-01
 -3.7953237e-01
  2.7426918e+00
 -1.6384749e-02
 -3.2024884e-01
  1.4386063e-02
  1.4707869e+00
 -1.5070201e+00
  4.7740480e-01
  2.2792500e-01
 -3.8946775e-01
  3.5778782e-01
  9.2347908e-01
 -5.1345974e-01
 -1.8085715e-01
  6.1618608e-01
 -2.3301582e-01
 -1.6438331e-02
  1.0717362e+00
  1.5716089e+00
 -4.3428497e+00
 -5.9106368e-01
  3.0164485e+00
  2.5961335e+00
  8.5173196e-01
  6.3207883e-01
 -3.7856877e+00
  3.2869430e+00
  1.0027275e+00
 -2.7096331e-01
  9.1636735e-01
  6.3696784e-01
 -3.3915110e+00
  3.1572270e-01
 -8.3856726e-01
 -6.1387914e-01
 -1.2995542e+00
 -8.7402672e-01
 -3.8276558e+00
 -8.2280165e-01
  7.4245191e-01
 -1.4082825e+00
  1.1133416e+00
  5.2390075e-01
 -6.7894667e-01
 -6.3065219e-01
  7.1351506e-02
 -7.6037818e-01
 -8.0618829e-01
  5.1376730e-01
 -1.4252721e+00
 -5.5091577e+00
 -2.6837068e+00
 -2.2333121e+00
 -3.4183362e+00
  7.0520008e-01
 -4.0224733e+00
 -3.8208354e+00
 -1.0385206e+00
 -3.9590913e-01
  4.5270618e-02
 -1.0579346e+00
  2.3482804e+00
  3.2064986e+00
 -7.0407778e-01
  2.9890609e-01
 -8.6261928e-01
  3.3864560e+00
 -3.1617039e-01
  1.9621743e+00
  2.2151192e-01
 -2.4802279e-02
  1.6275468e+00
 -6.5320092e-01
  2.6596981e-01
  1.6230634e+00
  8.7764251e-01
 -9.7588515e-01
 -3.4893686e-01
  4.3455552e-02
 -1.8979899e+00
 -2.3757293e+00
 -2.0025606e-01
  4.1356605e-01
  1.6874099e-01
 -3.0486077e-01
 -1.0066495e+00
  4.7907960e-02
  1.0051473e+00
  1.6318063e+00
  2.6960757e+00
  7.5445646e-01
  1.5202361e+00
 -1.2486544e+00
 -2.4999121e-01
 -4.0974727e-01
 -6.8781018e-01
  4.2539549e+00
 -9.0205991e-01
 -4.1263080e+00
  2.6869556e-01
  1.0730031e+00
  1.9383318e+00
  2.0981964e-01
  5.7888377e-01
  1.1112777e+00
  3.6905080e-01
  5.7827443e-01
 -1.8703414e-01
 -7.4333459e-01
  2.2312546e+00
 -8.4822685e-01
 -9.7087187e-01
 -6.8471956e-01
  2.0711541e+00
  1.2112930e+00
  5.1894397e-01
 -1.2905376e+00
  1.6427168e+00
 -6.0998088e-01
  1.5212150e-01
 -3.2405570e-01
 -9.6248388e-01
  1.5971135e+00
  5.4797226e-01
 -5.6691271e-01
 -6.2833440e-01
  1.2611650e-01
 -1.4513637e+00
 -2.3907235e-01
  2.4640739e-01
 -2.4221379e-01
  2.2399685e+00
  4.6595263e-01
  9.9775660e-01
  4.0414136e-02
 -3.0218773e+00
  1.8589544e+00
 -3.1159756e-01
  1.5154577e+00
 -7.4922880e-03
  2.9382315e+00
 -3.4635425e+00
  2.3467185e+00
  4.5929986e-01
 -8.5739660e-01
 -1.7750680e-01
  1.5164354e+00
 -7.4307317e-01
 -4.8478431e-01
  1.3492680e+00
  4.1614535e-01
  1.6718253e-02
 -2.4415653e+00
  4.3920302e-01
 -7.2088128e-01
 -5.1766920e-01
 -9.1048944e-01
 -1.7056675e+00
  2.1146498e+00
  2.0966244e+00
 -3.9306334e-01
 -2.9937174e+00
  8.4280416e-02
  2.4361737e-02
 -5.3761023e-01
  9.4048160e-01
  8.5052115e-01
 -1.4861516e+00
  1.2101283e+00
  1.0671527e+00
  1.4197888e+00
 -2.0920148e+00
 -2.8364854e+00
  8.4640932e-01
  9.2961347e-01
  2.8390939e+00
 -3.0726116e+00
 -4.3074960e-01
 -1.3486834e-01
 -1.5195867e+00
  8.1172079e-01
 -1.3409470e+00
  3.7750909e-01
  3.3073148e-01
  7.4614835e-01
 -4.6232182e-01
 -1.9634089e+00
 -3.7500745e-01
 -2.9527444e-01
 -6.2456524e-01
  6.7831621e+00
  3.0420132e+00
 -4.8425210e-01
  2.9154313e-01
  6.3531655e-01
  1.0050093e+00
  1.1977619e+00
 -5.4462113e+00
 -1.3153662e-01
 -1.8246179e+00
  4.2508063e+00
  1.7846423e+00
 -5.9419127e+00
 -4.3773052e-01
 -2.3134410e+00
  2.8770063e+00
 -1.2501277e+00
 -2.3585286e+00
  1.9127127e+00
 -1.4922395e+00
 -1.5577279e-01
 -2.0008912e+00
 -1.6597742e-01
 -7.9111242e-01
 -3.7472975e-01
  1.3310815e+00
  1.1695279e+00
  3.2465148e-01
 -2.6022667e-01
 -1.6722306e+00
  1.7385399e-01
 -1.7065642e+00
  3.9608222e-01
  5.8801788e-01
  5.5058205e-01
 -2.4000621e+00
 -1.6284902e+00
 -3.3544540e+00
 -1.8508071e+00
 -1.4189346e+00
 -2.6142567e-01
  3.1474049e+00
  2.4172113e+00
  1.1218124e-01
  2.2251313e+00
  3.6576232e-01
  5.2288313e+00
  2.3148888e-01
 -3.6418557e-01
  9.5462263e-01
 -2.5601447e+00
 -1.8993011e-02
 -2.4825980e-01
  3.7617552e-01
  3.3136582e+00
 -1.3997245e-01
  3.6744557e-02
 -5.2577400e-01
  2.1957636e+00
 -1.8820872e+00
  4.5592675e+00
 -6.6829699e-01
  1.3960409e+00
 -2.3609969e-01
 -1.5125108e+00
 -7.0572942e-01
 -8.9487803e-01
 -1.2995975e+00
 -1.3667839e+00
 -1.7121437e+00
 -1.4934636e+00
 -2.8827453e-02
  4.5138597e-01
  6.5973675e-01
 -2.5576823e+00
 -6.4149149e-02
  6.2013113e-01
  2.0346329e+00
 -4.4169381e-01
  7.0733923e-01
 -2.8512220e+00
  1.4435508e+00
 -1.2558671e+00
 -6.5453485e-02
 -1.9822818e-01
 -1.0094882e+00
 -7.9363191e-01
  6.1872172e-01
  1.3621396e+00
  3.4691074e-01
  8.2941741e-01
  7.5686282e-01
  6.4294320e-01
 -1.3045595e-02
 -1.7373552e+00
  1.0336848e+00
 -1.2522861e-01
  2.1632794e-02
 -7.2468865e-01
 -1.0970374e+00
 -4.6594489e-01
  4.0546799e-01
 -1.3706402e+00
  8.0031343e-02
  2.4587411e-02
  2.3268943e+00
  4.4975227e-01
 -1.3113784e+00
 -2.0834835e+00
 -1.3425473e+00
 -3.9150187e-01
 -3.7956841e+00
 -3.2329133e+00
  5.2242827e-01
 -1.1853586e+00
  2.1798611e+00
  6.4467454e-01
 -1.6603187e+00
 -1.9834406e+00
  8.6013728e-01
 -7.5751513e-01
  1.5185640e+00
  2.0786868e-01
  1.2646756e+00
  2.2649522e+00
  4.1447549e+00
  5.9429777e-01
 -6.1258084e-01
  1.2289229e-01
 -3.3156699e-01
  3.1716314e-01
 -1.4661520e+00
  2.2938838e+00
 -8.3250040e-01
 -8.2824761e-01
 -1.8234147e-01
  5.7027704e-01
  3.8715893e-01
  8.7256169e-01
 -9.7006494e-01
  3.4661133e-02
 -7.0523864e-01
  1.5879065e+00
 -3.8374975e-01
  1.0051495e+00
  1.6868486e+00
 -7.0801131e-02
  5.3179640e-01
 -1.0650047e-01
 -6.7728800e-03
  4.6149805e-01
 -2.0314498e+00
 -1.4908692e+00
 -2.9813905e+00
 -2.1034147e-01
  8.6932522e-01
 -3.7954836e+00
 -3.1895116e-02
 -1.3922389e+00
 -7.9888326e-01
 -3.7841082e-01
 -7.9300421e-01
  9.1837317e-01
 -1.2488018e+00
 -1.8867010e+00
 -1.1975203e+00
 -1.6666726e+00
  3.2462761e-01
 -2.2187026e+00
 -1.2855023e+00
 -1.1494097e+00
 -1.7190931e+00
 -2.0854998e+00
 -5.0044336e+00
  1.9652833e+00
  3.9512856e+00
  1.2702973e+00
 -4.0099612e-01
 -1.9251949e+00
 -8.5781926e-01
  8.0895531e-01
 -2.0853887e+00
 -3.0307996e+00
 -1.2867467e+00
 -1.2245936e+00
  1.6151297e-01
 -1.4289463e+00
 -9.0489382e-01
 -7.0312244e-01
 -6.0559601e-02
 -3.0999656e+00
  2.6568432e+00
 -8.0552381e-01
 -4.9255587e-02
  2.2101009e+00
 -2.5672159e+00
 -1.5988759e+00
 -1.5854672e+00
  5.7459243e-02
  2.3089647e+00
 -3.1309423e+00
  2.1396546e+00
 -4.6694750e-01
  4.7018284e-01
  9.0653375e-02
 -2.6030114e-01
 -1.3963783e+00
  1.3111732e+00
  1.8226463e-01
  6.2395364e-01
  4.6861362e-01
  4.4376639e-01
 -8.6979657e-01
 -1.0250087e+00
  7.1701640e-01
 -1.6626989e+00
  1.3124322e+00
  2.4093974e+00
 -2.7477762e-01
 -5.2427256e-01
 -2.2052052e+00
  3.6531713e+00
  6.4938150e-02
 -7.1097589e-01
 -3.6688071e-01
  4.6051008e-01
  5.3476915e-02
  1.2526747e+00
  6.1565864e-01
  5.6470001e-01
 -1.0205708e+00
  1.4285212e+00
  1.5778234e+00
  1.6436949e+00
 -9.1140765e-01
 -8.4680772e-01
  7.3763126e-01
 -6.1751986e-01
  2.5477246e-03
  5.6917340e-02
  8.5282511e-01
 -2.4889788e-01
  6.0781771e-01
 -2.0720772e-01
 -7.0952630e-01
 -3.9230230e-01
 -2.7230053e+00
  2.5606267e+00
 -3.0732849e+00
  1.4187989e+00
  2.7213231e-01
 -3.7243646e-01
  6.0261494e-01
 -7.6839858e-01
 -3.0806893e-01
  2.2117071e+00
  1.4414905e-01
 -3.3704784e+00
 -1.2588084e+00
 -3.1933990e-01
 -7.6772714e-01
 -2.3938489e+00
 -4.3233398e-01
 -1.0617721e+00
  1.2310854e+00
  5.5384398e-02
 -1.1297401e+00
 -2.2109654e+00
 -1.1157471e+00
  1.4947104e+00
  3.2587662e-01
  1.3218505e+00
  1.2408522e+00
  8.2423967e-01
  6.1539704e-01
 -3.7573352e-01
  1.9575596e-01
  9.7304904e-01
  2.7173117e-01
 -1.4162260e-01
  3.9600463e+00
  2.6751196e+00
 -2.3197284e+00
 -2.9354367e-01
 -2.8953889e-01
 -3.3305144e-01
 -1.5834163e+00
  2.3916726e+00
  3.8862342e-01
 -3.6236218e-01
  2.2208455e+00
 -1.6188151e+00
  1.4858096e+00
 -1.1461216e+00
  3.6061323e-01
 -1.8285636e+00
  5.8786148e-01
  2.6700840e+00
 -1.0970422e+00
 -3.3350503e-01
 -6.9915789e-01
 -7.2150695e-01
  8.3272684e-01
 -2.7077961e-01
  1.7812564e+00
  1.2749951e+00
 -4.3541229e-01
 -9.0108371e-01
  1.6935784e-01
 -9.7044450e-01
  4.3576892e-02
  2.4769258e-02
  1.7288299e+00
  2.0088468e+00
 -8.1998301e-01
  8.0870846e-03
 -4.1400857e+00
 -2.2806840e+00
 -1.3889848e+00
  2.0393434e+00
  6.0323701e+00
 -3.7408533e+00
  2.7025402e+00
 -2.7606599e+00
 -3.2515628e+00
  1.2471735e+00
  4.1942284e-01
  1.9365981e+00
 -1.1646293e+00
 -1.8033890e+00
 -2.0477571e+00
  1.2136732e+00
  4.2443049e-01
 -9.5247619e-02
  1.4659265e+00
  1.9609567e+00
  6.1999425e-02
  2.9654140e+00
 -1.3809118e+00
  1.1243656e+00
 -9.3889892e-01
 -2.7352974e+00
 -9.6882552e-01
 -4.8665103e-01
 -1.5265909e+00
  5.9379828e-01
  9.4108188e-01
 -5.1493749e-02
 -1.7914274e+00
 -2.2797078e-01
 -5.0352898e+00
 -7.8008956e-01
 -2.5493002e+00
 -1.1540084e-01
 -1.6894779e+00
 -1.6686493e+00
 -7.9833496e-01
 -2.0301809e+00
  7.1665965e-02
  9.0258472e-02
 -3.5963173e+00
  7.4325138e-01
  3.5463607e+00
 -3.9080960e-01
 -7.8161454e-01
 -1.2554485e+00
 -1.6209590e+00
 -8.2490641e-01
 -2.9541191e-01
  3.5312560e+00
 -1.7563179e+00
 -6.0624760e-01
  5.5743986e-01
 -8.7986052e-02
  2.2556651e+00
  1.6886684e+00
 -2.0047483e+00
 -2.8570631e-01
  1.0724001e+00
 -1.8297653e+00
  4.4149840e-01
  9.1769809e-01
  4.3768206e-01
  8.1559114e-02
  3.9123300e-01
 -1.2832110e-01
  1.3621603e+00
 -1.2022665e+00
 -9.1367918e-01
 -3.6711996e+00
 -1.2347825e+00
 -1.0704341e+00
 -1.1004139e+00
  5.3387141e-01
 -2.4934421e-01
 -5.4454637e-01
  1.3698219e+00
  7.6223940e-01
 -1.7994229e+00
  5.8141732e-01
  8.3996558e-01
  2.5423086e-01
  1.1908445e+00
  8.5590851e-01
  2.8354702e+00
 -2.5929060e+00
  1.8538276e+00
 -1.6768794e+00
  3.5453370e-01
 -1.1145391e+00
  7.2150975e-01
 -2.6673785e-01
  5.2160525e-01
  5.0056374e-01
 -2.9768877e+00
 -1.0227487e+00
 -1.7724031e-01
  1.3301954e+00
 -1.4436399e+00
 -1.4454577e+00
 -5.3395801e+00
 -3.4951441e+00
  3.8478389e+00
  3.7407928e+00
  4.3778439e+00
  2.9547149e-01
 -1.2855036e+00
 -1.3822747e+00
  2.9681442e+00
 -1.6009539e+00
  1.3991936e+00
  1.0163161e+00
 -2.2499728e+00
  2.8891826e+00
 -5.1473427e-01
  5.3804785e-01
  2.3391113e+00
  2.1793249e+00
  7.7095699e+00
  3.7637930e+00
 -1.5709162e-01
  3.9280763e+00
  9.7260201e-01
  7.0410862e+00
 -5.0906914e-01
  1.3522567e+00
  3.4554551e+00
 -3.9473861e-02
 -1.3789506e+00
 -6.1690301e-01
 -7.4011195e-01
  2.8748291e+00
 -3.2855964e-01
 -1.3776306e+00
 -2.9706195e-01
 -1.2134407e+00
  9.6032393e-01
  1.8931100e+00
 -1.4724347e-04
  1.6632028e+00
  7.0109212e-01
 -1.8835046e+00
 -4.1006029e-01
 -6.6533083e-01
 -7.8208931e-02
 -1.3069932e+00
 -1.6878173e+00
 -1.0234528e+00
  2.4936621e-01
 -3.7147126e-01
  4.4222116e-01
  1.0178477e+00
 -2.0866253e+00
 -1.3253974e+00
  1.1473781e+00
  2.2511654e+00
  4.2534154e-02
 -1.6079447e+00
 -6.2992054e-01
  3.3957261e-01
 -2.0294596e-01
 -3.9713194e+00
 -5.9352565e-01
 -2.2259176e-01
 -7.6488525e-01
 -9.9356897e-02
 -1.0844019e-01
 -1.4007673e+00
  2.1587177e-01
  7.5013047e-01
 -5.5243784e-01
  7.6244915e-01
  2.1227565e+00
  1.4568602e+00
 -1.5483632e+00
  1.1184504e+00
  8.5564452e-01
  1.6036037e+00
  7.3759472e-01
 -3.8064628e+00
  2.0552385e+00
 -1.5474197e+00
  1.6320876e+00
  1.0094249e+00
 -2.9272664e+00
 -5.0973493e-01
 -1.5580627e+00
 -1.7094940e+00
  1.8103619e-01
 -2.2201395e+00
  3.6537468e+00
 -3.4625597e+00
 -1.0154473e+00
 -8.8854122e-01
  2.0118608e+00
  8.3594954e-01
  2.1456378e+00
 -1.7902770e+00
 -1.7601824e+00
  1.7917531e+00
  2.5106704e-01
  1.6093853e+00
  1.5886359e+00
  7.1426135e-01
  1.8758221e+00
 -8.2451445e-01
 -7.9914057e-01
 -1.3187765e+00
 -8.9373624e-01
  1.7122186e+00
  1.2668359e+00
 -4.1423738e-01
  1.1264803e+00
  7.7556884e-01
 -1.3471731e-03
  1.0670177e+00
 -4.3526450e-01
  1.0685089e+00
 -1.0609087e-01
 -1.7176343e-02
 -1.5706774e+00
  2.0719376e+00
 -1.2245646e+00
  2.3204923e-01
 -1.4433534e+00
  2.5040075e-01
  2.7410564e+00
  4.1737065e-01
  2.3941885e-01
  7.7735871e-01
  1.3886589e+00
  1.7957456e-03
  7.3605520e-01
  2.5449355e+00
 -2.6017079e-01
 -3.5593432e-01
  9.0463549e-01
  7.6191419e-01
 -1.0460887e+00
  1.3887624e+00
 -5.1748049e-01
 -1.8682637e+00
 -1.6644390e+00
 -2.4752073e-01
 -3.5933592e+00
 -1.0226692e+00
 -2.1963086e+00
 -2.5507551e-01
  1.7899054e-01
  7.6554155e-01
  2.8492662e-01
  1.2746412e+00
  2.5740749e-01
 -8.2886773e-01
  3.1035739e-01
  4.1114396e-01
  8.3390397e-01
  8.7944716e-01
  1.5973578e-01
  7.3612517e-01
 -8.9493704e-01
  1.1420461e-01
 -1.3920321e+00
  4.4847536e-01
  2.8871959e-01
  4.7535813e-01
  3.5368037e-01
  3.9527228e-01
 -1.4694853e-01
  2.7498462e+00
 -4.7221613e-01
  5.3593326e-01
 -3.5717115e-01
  5.8151102e-01
 -3.3995590e-01
 -7.1386558e-01
  1.3495364e+00
  5.5381376e-01
  1.5714854e+00
  2.8798750e-01
 -2.0527449e-01
 -7.7020168e-01
 -2.4503028e+00
  1.5387000e-01
 -6.9033986e-01
  1.1913221e-01
  3.0191359e-01
 -4.3623519e-01
 -1.4839619e-01
 -3.2847974e+00
 -6.3883078e-01
  2.9928496e-01
 -1.6771125e+00
 -4.4037849e-01
  5.6658232e-01
  5.9117562e-01
  2.5626883e-01
  5.8474749e-01
 -1.5828605e+00
 -7.1802557e-01
 -6.5228355e-01
  5.3848088e-01
  5.5653024e-01
  6.4430505e-01
 -6.0932791e-01
 -1.7885528e+00
 -1.8802006e+00
 -6.1902601e-01
 -4.6110871e-01
  6.7779064e-01
  3.2080445e-01
 -4.5616072e-01
 -7.4666744e-01
 -7.6413733e-01
 -2.8448334e-01
  3.3185861e-01
  8.4026027e-01
 -3.9775655e-01
 -7.0932853e-01
 -3.4404022e-01
  4.6105000e-01
 -4.1385791e-01
  2.8919730e+00
  2.4733120e-01
 -1.2152703e+00
  9.8067969e-01
 -9.4167864e-01
 -2.3244120e-01
 -2.9830313e+00
 -1.9829172e-01
  1.9906452e+01
 -2.1220167e+00
 -3.5058734e+00
  3.0018988e+00
  1.4276818e+00
 -6.6946158e+00
 -2.5465055e+00
  3.0429623e+00
  5.4183216e+00
 -7.7619028e-01
 -3.4969118e+00
 -7.3016191e+00
 -1.7222154e+00
  2.2435218e-01
 -3.9881647e+00
  5.6196856e-01
  4.2658553e+00
  7.4812281e-01
  3.0529532e+00
  7.1321678e-01
  1.8191031e-01
  8.2629174e-01
 -7.4728590e-01
  2.8126163e+00
 -7.1271653e+00
 -3.1795254e-01
  4.5599957e+00
  5.0689363e+00
 -1.7577537e+00
 -1.3091168e+00
 -1.7473332e+00
  1.1585722e+00
 -7.1945560e-01
 -1.5810995e+00
 -1.0224848e+00
  3.5712593e+00
  3.8867342e+00
 -9.0598041e-01
 -2.1763539e+00
  1.1146898e+00
  6.4989619e+00
  5.4564571e+00
 -3.5949869e+00
 -6.0180402e+00
 -2.1255903e+00
  2.0921965e+00
  1.4204311e-01
  3.1496754e+00
 -4.4526401e+00
 -2.9995444e-01
  3.6035011e+00
  5.2702713e-01
  7.4935865e-01
  1.7975729e+00
  1.3592644e+00
 -1.8973451e+00
 -4.0920115e+00
  6.5448780e+00
  4.2657018e+00
 -2.9347482e+00
 -3.3474650e+00
 -1.6215163e+00
 -7.0250326e-01
 -8.5809392e-01
  1.2769005e+00
  8.3281412e+00
 -1.0009906e+00
 -4.9237709e+00
  1.6992534e+00
  4.6613688e+00
  4.7011173e-01
 -3.4016671e+00
 -1.5866208e+00
 -1.3080939e-02
  2.4487374e+00
  4.1649094e-01
 -3.2598469e-01
 -2.1584206e+00
  1.6456582e-01
  3.2323938e-02
  8.5349256e-01
 -1.2260854e+00
 -3.2826703e+00
 -4.5743780e+00
  1.9408752e+00
  1.5254618e+00
 -2.0270345e+00
  1.6816525e+00
  4.4447951e+00
  1.4934634e+00
 -2.3296809e+00
  4.1251560e-03
  4.1251560e-03
  4.1251560e-03
  4.1251560e-03
  4.1251560e-03
  5.2743582e-03
  5.2743582e-03
  5.2743582e-03
  5.2743582e-03
  5.2743582e-03
  4.1027446e-03
  4.1027446e-03
  4.1027446e-03
  4.1027446e-03
  4.1027446e-03
  2.3731452e-03
  2.3731452e-03
  2.3731452e-03
  2.3731452e-03
  2.3731452e-03
  1.4660439e-03
  1.4660439e-03
  1.4660439e-03
  1.4660439e-03
  1.4660439e-03
  7.1759237e-04
  7.1759237e-04
  7.1759237e-04
  7.1759237e-04
  7.1759237e-04
  5.9611837e-05
  5.9611837e-05
  5.9611837e-05
  5.9611837e-05
  5.9611837e-05
