nep4_zbl 1 C 
zbl 1 2
cutoff 6 5 44 34
n_max 4 4
basis_size 8 8
l_max 4 2 1
ANN 80 0
  2.2427709e+00
  3.4044991e+00
 -7.3799118e-02
 -1.0868948e+00
  1.2428623e+00
  1.7119744e-01
 -1.4794129e+00
  5.9400392e-01
 -7.9978359e-01
  4.7998378e-01
 -2.0491654e-02
 -1.4264369e+00
 -1.1652478e+00
  1.7484123e-01
  1.8167694e+00
 -6.4627278e-01
 -1.3149407e+00
 -1.9795407e+00
  9.8003101e-01
  1.7323405e+00
 -8.4194368e-01
  2.6413409e-02
  9.6956611e-01
  2.4671526e+00
 -5.7156396e-01
 -7.2318107e-01
 -1.1728677e+00
 -9.7162295e-03
  6.1440283e-01
  1.1633515e+00
 -5.1730347e-01
  2.4007151e-01
  1.6989265e-01
  2.3063584e-01
 -1.8972731e+00
  1.4975640e+00
  1.1585219e+00
  3.0655046e+00
 -1.2213944e+00
  1.0413283e+00
  1.3247889e+00
  1.9301270e+00
 -3.0228415e+00
  1.4830192e+00
 -1.2169936e+00
  2.1728897e+00
  9.4783938e-01
 -9.8881948e-01
  4.0880257e-01
 -8.7441224e-01
  2.0696824e+00
 -2.7895956e+00
 -1.7498561e+00
 -1.9035392e+00
 -3.7776190e-01
  4.1551191e-01
 -2.0128181e+00
  1.6810808e+00
  4.3852648e-01
 -7.3695481e-01
  9.1723192e-01
  3.1723097e-02
  3.2536957e+00
  3.5015535e-01
 -1.2517242e+00
  3.4575033e-01
 -6.8459851e-01
  1.6887065e+00
  1.7012560e-01
 -9.6188450e-01
 -1.2754607e-01
 -1.2049274e+00
  3.3244959e-01
 -1.1258548e+00
  1.2720810e+00
 -1.4454732e+00
  2.7049663e+00
  2.8232554e-01
  6.2386096e-01
  1.2929271e+00
 -4.3194300e-01
  5.4607534e-01
  4.4181499e-01
  1.7552102e+00
  7.2146428e-01
  1.1463233e+00
 -2.7366638e-01
 -1.4474385e+00
  5.0250068e-02
  2.3796093e+00
  7.4822523e-02
  2.1204705e+00
  5.0699925e-01
  1.2225709e-01
  8.7167013e-01
 -1.2886903e-01
 -3.5086653e+00
  7.6019299e-01
  9.0026331e-01
 -8.8816124e-01
 -1.3533846e+00
 -5.4532593e-01
  7.1187890e-01
 -1.1094488e+00
  5.9137124e-01
 -2.1305723e+00
 -1.0614976e+00
 -1.6765691e+00
  3.1754559e-01
  4.6715257e-03
 -2.2219303e+00
  2.3107708e-01
  3.0276074e+00
  3.8507304e-01
  3.9930421e-01
 -2.9267931e-01
  2.5981205e+00
  7.7332592e-01
  3.2711038e-01
 -2.2626701e-01
 -2.7408317e-01
  2.3033304e+00
  2.3974733e+00
  7.7216320e-02
 -3.2477665e-01
 -2.9119998e-01
  1.2392292e+00
  1.1162628e+00
 -9.4000453e-01
  3.2712975e-01
  1.3424523e+00
 -8.6957186e-01
 -2.2670307e+00
 -1.4668456e+00
  6.5816325e-01
  1.0555055e+00
  3.4252125e-01
 -2.0991501e-01
  1.2337860e+00
  2.7452999e-01
 -1.0704941e+00
  2.0481777e-01
  2.2227010e-01
 -1.4585150e+00
  4.4274679e-01
  2.5186729e-01
  9.5324129e-01
  2.2627683e-01
 -1.7097715e+00
  9.0085816e-01
 -2.0170636e-01
 -1.4988439e+00
 -9.7837186e-01
 -1.0206115e-01
  1.1651561e+00
 -1.8448901e-01
  6.7612636e-01
  2.2210756e-01
  1.2781615e+00
  1.5439603e-01
  4.3960802e-02
  4.3144476e-01
  6.6060746e-01
 -3.9423621e-01
  1.5132507e+00
  1.0116202e+00
  4.3089023e-01
 -4.7756714e-01
  4.6669036e-01
 -4.3917966e-01
  6.9733018e-01
  1.2488038e-01
 -7.5422066e-01
  6.3831526e-01
 -4.2559508e-02
 -1.7923285e+00
 -2.5342715e+00
  7.2585934e-01
  1.1162674e-01
  1.7881668e+00
 -2.3549865e-01
  1.5748434e-01
  2.1509938e+00
 -3.6338523e-01
  3.5300648e+00
 -2.0652151e+00
 -5.1631194e-01
  2.6621249e+00
 -1.1890808e+00
  1.5741508e+00
 -6.0430521e-01
  1.7831616e+00
  2.9411223e+00
  6.1001062e-01
  3.0465186e+00
  4.4972354e-01
 -8.2922024e-01
 -5.7261908e-01
 -5.7018179e-02
  1.6475884e+00
 -3.6786957e+00
  3.4671906e-01
  7.0181644e-01
  1.5414585e-01
  6.5740895e-01
 -7.8827149e-01
 -2.2268517e-01
  9.3504047e-01
  5.6043392e-01
 -1.3878884e+00
 -1.1327429e+00
 -3.9188102e-01
  1.0198451e+00
  1.3801464e+00
  2.4228909e+00
 -3.8327129e+00
 -5.2081114e-01
  8.2403666e-01
 -4.9724169e-02
  1.5776712e+00
 -1.0525845e+00
 -1.7379897e+00
  2.4211941e+00
  9.4228113e-01
  1.6699280e+00
 -5.1875734e-01
 -1.5296187e+00
 -1.0264390e+00
  2.5871480e+00
 -1.6513606e+00
 -1.6886562e+00
 -2.6593375e+00
 -1.3060092e+00
  1.9219426e+00
  8.4437889e-01
 -8.3317024e-01
  8.2947713e-01
  3.0956966e-01
 -4.5611385e-01
  4.2739791e-01
 -5.8279800e-01
  3.9576739e-01
  3.9441344e-01
 -4.8050699e-01
 -9.2074317e-01
 -4.8703070e+00
 -4.7331196e-01
 -6.3640940e-01
 -4.5452645e-01
  2.5444913e+00
 -3.5922134e+00
 -2.7476201e+00
  1.3000636e+00
  4.3006387e-01
 -2.1173480e-01
 -6.3516319e-02
 -1.8440630e+00
  1.3431295e+00
  5.7752058e-02
  1.0817550e+00
  3.6803788e-01
 -2.1042185e+00
 -1.0634695e+00
  2.3626189e+00
  1.1056136e+00
  1.0523022e+00
  6.2844014e-01
 -1.3601564e+00
 -8.8850772e-01
  1.6679227e+00
 -7.9982525e-01
 -1.8268605e+00
 -1.6607337e+00
 -4.6088380e-01
 -1.7987403e-01
 -1.1556260e-01
 -6.9586116e-01
  9.8756105e-01
 -6.1723280e-01
 -8.4119350e-01
 -4.8721778e-01
  1.6981263e-01
 -5.7778084e-01
  2.5713017e+00
  2.6517969e-01
 -1.8445495e+00
  4.6473125e-01
 -2.8314319e-01
 -5.7722628e-01
  1.9151605e+00
  5.8969229e-01
  1.6891053e+00
  1.1441143e+00
  3.6903385e-03
 -3.1173447e-01
 -3.6050320e-01
 -3.3951464e-01
 -3.5694504e-01
 -1.0553132e+00
 -1.4160917e+00
  1.9255317e+00
  2.7734342e-01
  1.1075234e+00
 -7.7902101e-02
  2.1211748e+00
  1.3632901e+00
  1.4918668e+00
 -1.6059539e+00
  9.2917657e-01
  1.2497777e+00
 -6.4058411e-01
 -7.7658099e-01
  1.3345481e+00
 -8.0855751e-01
  3.5134900e-01
  3.5960846e+00
 -3.2763135e-01
 -7.9283774e-01
 -3.3054361e-01
 -1.7566515e+00
 -8.8758266e-01
  4.0419966e-01
  7.2096235e-01
  5.4589689e-02
 -8.0653322e-01
  4.2185554e-01
 -1.6025056e+00
 -3.9061710e-01
  1.1941530e+00
 -1.7651855e+00
 -1.8493245e+00
 -1.4166902e+00
 -6.1408659e-03
 -2.0510287e+00
  4.4217783e-01
  6.9233215e-01
 -9.4148314e-01
 -2.0309928e-01
 -3.8263109e-01
 -2.6251249e+00
  3.4600244e+00
  4.5206639e-01
 -2.3639545e-01
 -8.5160494e-01
  4.5364354e-02
 -6.8018639e-01
  5.8260518e-01
 -9.7436154e-01
  1.8279839e-01
 -1.5632809e+00
  1.4557748e+00
  2.0134099e+00
  7.4676180e-01
 -8.3526838e-01
 -4.3757491e-02
  1.5918658e+00
  5.9839892e-01
  3.8952701e+00
  7.2648391e-02
 -3.2957768e-01
 -4.4556800e-01
  1.3443576e-01
  8.0815607e-01
  9.9344236e-01
  1.0518583e+00
  8.5308218e-01
  7.1725488e-01
 -2.9416379e-01
 -5.0147021e-01
 -5.9622139e-01
  3.2721977e+00
 -1.5824227e-01
 -7.2125483e-01
  5.6938576e-03
  6.4041746e-01
  1.3660588e+00
  4.0578762e-01
  2.6958832e-01
  3.0730140e+00
  3.2982764e-01
  1.0201408e+00
 -1.3051577e+00
 -9.1500878e-01
 -5.3147507e-01
  8.1796479e-01
  1.8011169e+00
 -3.4029722e-01
 -3.9361289e-01
  2.9093167e-01
  1.7539362e+00
 -1.1410328e+00
  3.9458860e-02
  1.0227849e+00
  9.7416294e-01
  1.7124485e+00
  4.9418047e-01
  2.6802915e-01
 -8.9413786e-01
  4.3718293e-01
  1.1197643e+00
 -1.4217806e+00
  5.9502065e-02
  2.8517875e-01
  1.1400572e-01
 -1.1124413e+00
 -2.4942422e+00
 -1.3814096e+00
  1.3687016e+00
 -3.4646773e-01
  7.0381916e-01
  5.8524895e-01
  3.1965656e+00
 -7.4272668e-01
 -5.8610463e-01
  4.9229571e-01
  9.5893973e-01
 -1.1510683e+00
  1.4838947e-01
 -3.9796969e-01
 -1.1631645e-01
  5.1904637e-01
 -2.2356392e-01
  5.4360014e-01
 -9.4813131e-02
 -2.2490349e+00
 -1.7555700e-01
 -3.6600590e-01
 -2.2941320e+00
 -1.4588723e+00
  1.7036822e-01
 -1.5882446e+00
 -2.5259030e-01
 -1.0838083e+00
 -2.3959790e-01
  5.2551663e-01
 -7.4407911e-01
 -1.5462297e+00
  4.3775439e+00
 -3.8989034e-01
 -1.2030460e+00
  1.4740030e+00
 -1.2907898e+00
 -3.0220124e-01
 -1.6511141e+00
  5.7774717e-01
  8.0818695e-01
  7.3724598e-01
 -2.0758858e-01
 -4.4961281e-02
 -2.1472499e-03
  5.0508785e-01
 -5.0171834e-01
 -1.2355402e+00
 -2.1255839e+00
 -3.0330076e+00
 -2.4234268e-01
 -8.9200008e-01
  7.0999312e-01
 -7.7499890e-01
  1.9765184e+00
 -1.9640322e+00
  8.7859112e-01
 -1.5387789e-02
 -3.9893830e-01
  1.6126095e+00
  9.8002487e-01
  9.4176084e-01
 -1.5500101e+00
  6.5134591e-01
 -1.3510301e+00
 -1.0760151e+00
 -1.8990340e+00
 -7.8139253e+00
  2.0808573e+00
 -1.4172013e+00
  7.2891879e-01
  9.6020371e-01
  6.6457850e-01
 -2.1707226e-01
  4.8952830e-01
 -1.8071915e+00
 -2.9065664e+00
  1.1802179e+00
 -3.8418926e-02
  6.4006937e-01
 -4.8678049e-01
 -1.2433449e+00
  5.3961581e-01
 -1.0336986e+00
 -2.9191047e-01
  1.3427852e+00
 -5.6309760e-01
  6.0981786e-01
  1.6440479e-01
  2.0755140e-02
 -6.4355767e-01
 -1.1848291e-01
 -1.0499625e+00
  5.9760213e-01
 -4.5460740e-01
 -1.1034640e+00
 -1.3041551e+00
 -5.0203091e-01
  7.1158743e-01
  1.3327467e+00
 -1.5360214e+00
  1.2079054e-01
  6.6093719e-01
  1.4666067e+00
  1.2230203e-01
  9.6591449e-01
 -9.8652190e-01
  1.8086612e-01
 -1.1299503e+00
  1.2587717e+00
 -3.7147373e-01
 -9.0920132e-01
 -9.8528749e-01
 -1.1951714e+00
 -1.0299636e+00
 -4.4026387e-01
  1.1189685e+00
 -5.3575832e-02
  1.2857093e+00
 -1.0491493e+00
  1.2308795e+00
 -9.8441772e-02
 -1.5749758e+00
  5.8471316e-01
  2.2510275e-01
  1.1114740e-01
 -1.5052748e+00
 -1.2970852e+00
  1.8412787e+00
  3.3132544e-01
  2.2264535e+00
  3.0692401e+00
 -3.4105647e+00
  1.5612353e+00
 -5.2387446e-01
 -2.5975144e+00
  1.6293383e+00
  2.1490614e-01
  1.7398074e+00
 -5.5863219e-01
 -2.9113705e+00
  1.8013979e+00
 -9.7674501e-01
 -5.6744629e-01
 -7.0787728e-01
  7.0676780e-01
 -2.2578995e+00
  1.4178419e+00
 -4.0034387e-01
 -7.7246577e-01
 -9.5029455e-01
 -8.0132484e-01
 -6.4732343e-01
 -7.0966345e-01
 -3.4476188e-01
 -3.4612122e-01
  1.8702879e+00
 -2.6105299e+00
 -1.8753988e+00
  1.9596945e+00
 -1.7190103e-01
 -6.5586388e-01
 -1.4141921e+00
  1.5833439e-01
  9.6133214e-01
  7.2068232e-01
  1.9705141e+00
 -7.7596450e-01
  4.4528070e-01
  6.5623069e-01
 -8.1228882e-02
  2.4042343e-01
 -9.0791982e-01
 -8.8890910e-01
  6.3485301e-01
  1.7979628e-01
  1.3771484e+00
  5.1967210e-01
  5.0790586e-02
 -5.3147668e-01
 -6.7980927e-01
  6.4854115e-01
 -2.9938376e-01
 -1.4055437e+00
 -3.3701253e-01
 -6.8196535e-01
  9.5933419e-01
 -1.0029432e+00
  4.5979708e-01
 -9.5888251e-01
 -3.1683812e-01
  1.2465956e+00
 -2.2914176e+00
  1.0481457e+00
 -2.2452333e+00
 -1.8791386e+00
  6.1845207e-01
  6.8104672e-01
 -2.7644533e-01
  9.6163076e-01
 -3.6110153e+00
  2.9817345e+00
  1.0318015e+00
 -2.1549349e+00
  2.1544685e+00
 -1.9873977e+00
 -1.6964358e+00
 -9.2083567e-01
 -3.0159476e-01
 -2.4678445e+00
 -2.6169612e+00
 -7.0313030e-01
 -3.9908117e-01
 -3.8263986e-01
 -1.7119998e+00
 -2.5191216e+00
  5.6654316e-01
 -4.9882081e-01
 -5.2477814e-02
  1.4449209e+00
 -3.8559511e-01
  3.2027990e-01
 -6.6796505e-01
  7.4355537e-01
 -1.3232880e-03
 -5.2063465e-01
  4.7341928e-01
  7.1726137e-01
 -4.1661745e-01
 -1.1142781e+00
 -3.3250073e-01
 -1.1101562e-01
  1.4295665e+00
 -1.0948744e+00
 -9.3228889e-01
 -2.1425042e-01
  1.9972971e-01
 -1.0315507e-01
  1.5087976e-01
 -3.6923981e-01
  4.6248159e-01
 -9.9971741e-01
  6.3984334e-01
 -9.2758816e-01
 -4.6356842e-01
  4.2447063e-01
 -6.0479361e-01
 -1.6928688e+00
 -8.3043736e-01
 -1.1928667e+00
  1.8306445e-01
  2.9599947e-01
 -3.7060314e-01
  6.7445022e-01
  9.5681858e-01
  8.7515551e-01
  4.6215785e-01
  8.0321020e-01
 -7.1484971e-01
 -4.6092829e-01
 -1.0755869e+00
  6.5645170e-01
  6.9813490e-02
 -1.2319944e+00
 -5.1791984e-01
 -4.9074328e-01
 -4.5187357e-01
 -3.7973401e-01
 -3.4514984e-01
 -1.9247194e-01
  4.2857835e-01
 -2.0438302e-01
 -1.3543746e+00
  5.3273988e-01
 -8.9822286e-01
 -2.1485054e-01
  4.6661702e-01
  4.9720484e-01
  4.7773203e-01
  1.8095152e+00
 -6.9154298e-01
 -9.6212405e-01
  1.3375347e+00
  3.3960726e-02
 -1.2653885e+00
 -1.0558175e+00
 -1.9945252e-01
  3.2434918e-02
  1.5322433e+00
 -3.4005469e-01
 -6.7914313e-01
  4.5694160e-01
  1.6134064e+00
 -4.8132575e-01
  3.3481699e-01
 -1.4108735e+00
 -1.4803402e+00
  7.7106309e-01
  2.6090410e-01
  6.5368807e-01
 -4.5042884e-01
 -8.0956662e-01
  1.3353355e-01
 -5.1395118e-01
 -6.1902916e-01
 -3.9874125e-01
  1.5858115e+00
  1.8664922e+00
  6.7719316e-01
 -1.4976412e+00
  2.4178224e-02
 -5.6567627e-01
  1.3281074e+00
  8.5511535e-01
 -6.3706702e-01
 -1.8183702e-01
  1.7502829e+00
 -2.2376746e-01
  5.3774345e-01
 -1.1797693e+00
  1.9720696e-01
 -8.5079795e-01
  3.8983142e-01
  1.3273530e-01
  3.4253484e-01
  6.8063927e-01
  2.6421112e-01
  5.2492273e-01
 -1.0902951e+00
 -2.4509118e-01
  3.3477142e+00
  8.7426829e-01
 -9.0429765e-01
 -1.2449465e+00
  1.8130213e-01
 -2.0983679e+00
  5.8239818e-02
  1.6309866e+00
 -9.3999350e-01
  3.2284343e-01
 -2.9986560e+00
 -1.8596913e-01
 -3.7245923e-01
 -6.2945288e-01
 -1.7372545e+00
 -2.4517415e-01
 -9.3984812e-01
 -2.9063106e+00
 -4.2177916e-01
 -5.3824675e-01
  1.1364651e+00
 -5.4511482e-01
 -4.1025490e-01
 -7.7643871e-01
 -2.7555621e+00
 -2.7756679e-01
  9.3872344e-01
  2.0066516e+00
 -5.2055591e-01
  3.8477737e-02
 -1.0333205e+00
 -2.1631584e+00
 -9.7540814e-01
 -2.0753559e-01
 -7.0269144e-01
  1.1876900e+00
  4.1484424e-01
  1.6553514e+00
 -1.0889744e+00
 -1.9062371e+00
  1.5467230e+00
  5.9788723e-02
 -6.3615936e-01
 -3.8919714e-01
  1.0145690e+00
 -2.8915986e-01
  1.6327512e-01
 -1.5716894e-01
 -1.4570529e+00
  1.5639240e-02
  1.3662241e+00
 -1.0236981e+00
  8.7590373e-01
  1.9438504e-01
 -2.6840200e+00
 -3.5076082e-01
 -1.0699652e+00
 -1.2355784e+00
 -8.0162936e-01
  1.1931676e+00
 -2.3237333e-01
  9.0738535e-01
 -3.6530656e-01
 -1.2712048e+00
  3.6145756e-01
 -1.4023659e-01
  6.1144841e-01
  4.7704916e-02
 -8.2060850e-01
  1.7716824e+00
  1.0900248e+00
  2.2487207e-01
 -3.7059464e+00
 -1.8651527e+00
  6.5299958e-02
 -1.6464190e+00
  1.0037031e+00
  3.4799388e-01
 -9.9781446e-02
 -2.2057612e+00
 -2.1681836e+00
  5.7224661e-01
 -1.0179708e+00
 -3.8925922e-01
 -8.4804779e-01
 -1.3155047e+00
 -5.0227400e-02
  6.0080105e-01
 -1.0174004e+00
  3.6577088e-01
 -1.1231034e+00
 -5.1331699e-01
  1.7504345e+00
  2.8887744e+00
 -1.5643587e-02
 -2.6197979e+00
  1.7636245e+00
  3.1566766e-01
  6.9110650e-01
 -3.4260741e-01
 -2.2708933e-01
  1.0523341e+00
  5.0048518e-01
 -4.8131689e-01
  5.2534926e-01
  3.7752017e-01
 -8.7969315e-01
  1.9158385e+00
  9.0412074e-01
  8.2753855e-01
  1.0630451e+00
 -7.0471554e+00
  4.2561579e-01
  2.2614126e-01
 -3.3821237e+00
 -2.8161025e-01
  2.7592072e+00
  7.4046743e-01
 -1.0983386e+00
 -2.9971924e+00
  1.6193799e+00
 -1.4091126e+00
  1.4845923e+00
 -1.0351133e-01
  1.0988952e+00
  1.6470013e-02
  6.6342974e-01
 -5.1902580e-01
 -7.0847642e-01
  1.2484793e-01
  2.0014772e+00
 -5.1628596e-01
  5.2517587e-01
  7.5979435e-01
  2.5514157e+00
  8.0457324e-01
  1.5052078e+00
  7.2703850e-01
  3.2146347e-01
  3.8748774e-01
  2.6512983e+00
 -1.4408280e-01
  3.0018308e+00
  9.2736489e-01
 -3.1313972e+00
 -1.4903780e+00
  2.5133758e+00
 -1.9616284e+00
  1.0305937e-01
  7.0498246e-01
 -2.3720672e+00
 -1.7193687e+00
 -1.5240897e+00
  1.2919554e+00
 -1.6941725e+00
 -2.1647494e-01
  1.0946746e+00
 -6.3021302e-01
 -5.2580273e-01
 -2.6551977e-01
  9.2708582e-01
  9.4397104e-01
 -1.1018229e+00
  1.0859782e-01
 -2.6731689e+00
  4.1176775e-01
  1.7414166e+00
 -2.9081288e-01
  8.1298053e-02
 -2.9006895e-01
 -3.4059966e-01
  4.6580493e-01
 -3.4246260e-01
  2.6140246e-01
 -1.7758843e+00
 -2.3120651e+00
  1.7072328e+00
  2.8640771e-01
 -2.0292084e+00
  1.0261514e+00
 -5.5204821e-01
  1.1310415e+00
  1.9344416e+00
 -2.4620953e+00
  5.6670803e-01
 -1.4428666e+00
  1.7096826e+00
  3.3722430e-02
  1.4265196e+00
 -2.7761191e-01
 -9.0309161e-01
  1.6771643e+00
  1.6767832e+00
 -2.8601214e-01
 -1.0604351e+00
  1.0616814e-01
  5.4740489e-01
  4.1433814e-01
 -1.0417552e-01
  1.1578382e+00
 -7.9900527e-01
 -8.5821295e-01
 -2.1627312e+00
 -3.3737105e-01
  7.1448338e-01
 -1.1475323e+00
  8.4828831e-02
 -1.4178536e+00
 -3.2293364e-01
  1.0836325e+00
 -5.7410699e-01
  1.0003687e+00
 -3.9932978e+00
  1.2894362e+00
  1.1441746e+00
 -4.5898187e-01
 -8.9062762e-01
 -2.7571532e-01
  1.2884547e-01
  1.7029088e+00
 -2.1519406e+00
 -8.4601140e-01
 -6.5916258e-01
  8.3148474e-01
  1.1315849e+00
 -2.4601935e-01
 -2.8594913e+00
  2.3819497e+00
 -2.3608331e-01
  1.1049207e-01
 -6.0170454e-01
  5.4857254e-01
 -2.1543615e+00
 -3.5679120e-01
  5.4354322e-01
 -1.0307723e+00
  6.8193066e-01
  3.3137171e+00
  1.3069494e+00
 -8.8870132e-01
 -9.2851120e-01
  3.5406627e-02
 -7.3753142e-01
 -6.0899740e-01
 -4.6317674e-02
 -1.4107806e-02
  3.9155191e-01
  4.0354757e+00
  1.0538416e+00
  3.3122796e-01
 -1.0344260e+00
 -3.6889462e+00
 -1.1389256e+00
  7.8176552e-01
  2.2758505e+00
 -4.1918898e+00
  2.6351121e-01
  1.0704234e+00
 -8.4035307e-01
  4.4047546e+00
 -9.4933331e-01
 -6.3005167e-01
  2.2724402e+00
 -7.9840034e-02
 -1.4770979e-01
  1.7651267e+00
  9.6219760e-01
  2.6683834e-01
 -1.5271771e+00
  1.6002707e+00
 -1.7631619e+00
 -5.4523367e-01
  3.9459856e+00
 -8.0783121e-02
  1.7748795e+00
 -2.3456326e-01
 -2.3652032e-01
 -3.0738232e-01
 -1.1304185e+00
 -5.0483346e-01
 -2.5508003e+00
 -1.7090369e+00
 -3.3388543e-01
 -2.9517817e+00
  2.9030347e+00
  3.2283640e-01
 -5.5851740e-01
 -1.7256093e+00
 -7.1634823e-01
  4.4808054e-01
  5.1245058e-01
  1.3618996e+00
  6.3101482e-01
 -5.8198893e-01
  5.5009723e-01
 -4.6601415e-01
  1.6361098e+00
  1.1359880e+00
 -2.6476858e+00
 -2.4345386e-01
 -1.2436507e+00
  6.6472195e-02
  1.7354183e+00
  1.6813558e+00
  7.2794330e-01
  1.5668305e+00
  1.8706726e-01
  6.7801291e-01
  4.0612909e-01
  3.4699395e-02
  7.0880687e-01
  1.8767426e-02
  1.6790620e+00
 -1.9411716e-01
  1.1358358e-01
 -1.9588742e+00
 -2.3362799e+00
  3.2664478e-01
 -1.2762717e+00
 -2.2409670e-01
  1.5042015e+00
 -7.6877809e-01
  4.3824324e-01
 -2.8054795e-01
  1.5010352e+00
  8.6110038e-01
  7.1447951e-01
  3.1156728e+00
 -1.3529460e+00
 -1.7759398e+00
 -8.8976109e-03
 -1.6377513e+00
  2.3276944e+00
 -2.0784731e+00
  1.2363432e-01
  1.4841923e+00
 -8.6937928e-01
  8.3028132e-01
  4.4234130e-03
 -3.4421778e+00
 -3.5799937e+00
 -4.4348916e-01
  3.5922688e-02
 -1.5037445e+00
  1.4292309e-01
  4.5840019e-01
 -1.2374949e-01
 -7.1069568e-01
  4.0025949e-01
 -6.6413248e-01
 -1.0250394e+00
  1.9960643e-01
  2.5117252e+00
  8.7694150e-01
  3.4962535e-02
  1.6032913e+00
  2.4496677e+00
 -2.5266852e+00
  1.0421641e+00
 -2.1315099e-01
  3.1350148e+00
 -5.0937653e+00
  1.0565993e+00
  7.2388589e-01
 -3.8845843e-01
  8.7308270e-01
  2.8585705e-01
  3.5426766e-01
 -3.6295602e-01
 -9.8138358e-03
  1.0776670e+00
  1.4029044e+00
 -1.4232181e+00
 -1.3107208e+00
  1.0819100e+00
 -2.3339260e+00
 -9.1363347e-01
  9.2500776e-02
  3.3348590e-01
  7.4612659e-01
  3.8640354e-02
  2.0288181e+00
  5.3422672e-01
 -8.0354536e-01
 -2.7033436e-01
 -3.7233827e-01
  5.2575505e-01
 -3.2902358e+00
 -1.7023554e+00
 -2.1480601e+00
 -2.5688200e+00
  2.4642835e+00
  2.7644160e+00
 -1.5267247e-01
  1.3980644e+00
  2.4902728e-01
 -2.0372083e+00
  7.8385967e-01
 -1.0717577e-01
 -5.2416319e-01
  6.2668532e-01
 -3.1153738e+00
  2.0998526e+00
  1.7713482e+00
 -2.4803519e+00
 -1.9033639e+00
  6.7775689e-02
  6.7133957e-01
 -6.2973507e-02
 -7.3966944e-01
 -1.5433044e+00
  1.9946743e+00
  4.8586521e-01
 -6.4473242e-02
  5.8780545e-01
 -1.1030364e+00
  3.6608025e-01
 -5.1999676e-01
  1.8759911e-01
  1.8141747e+00
  1.6718574e-01
 -4.0310842e-01
 -2.3113483e-01
 -1.5839889e+00
  5.0338453e-01
 -2.6500647e+00
 -5.3458977e-01
 -1.1984712e+00
  2.1690965e-01
  6.9869459e-01
 -3.5503709e-01
  2.5183234e-01
  5.3073466e-01
 -7.5690675e-01
 -4.4148153e-01
  8.4524477e-01
  1.5963196e+00
 -2.3468938e-02
  2.3568733e-01
 -6.3458666e-02
 -1.4059229e+00
 -5.6923050e-01
 -6.4614278e-01
  1.4952765e+00
  1.2935377e+00
  2.0717270e+00
 -1.2755502e+00
 -3.9361920e-02
 -5.3592294e-01
 -9.9239212e-01
 -2.5319880e-01
  6.8021590e-01
  5.5238676e-01
  1.6368862e+00
  5.9506065e-01
  4.5033407e-01
  1.1728312e+00
 -3.7391949e-01
  8.5150367e-01
 -5.4438215e-01
 -2.1247314e-01
 -1.9292870e+00
 -7.9840219e-01
  9.2789245e-01
  1.6133367e+00
  3.5155187e+00
  3.6162391e-01
 -2.6655228e+00
 -1.4322208e-01
  1.4820203e+00
 -1.4249794e+00
  4.5604488e-01
  1.4117497e+00
 -5.5365789e-01
  7.1953580e-02
  4.4645671e-02
 -1.0372610e+00
  9.7739470e-01
  1.0591787e+00
  1.6629025e+00
 -6.8657959e-01
  1.8673806e+00
  1.6494222e+00
  1.2454267e-01
  8.7761390e-01
 -3.9240107e-01
 -4.6770298e-01
  2.3009510e-01
  5.7561614e-02
  1.9055549e+00
  9.1288549e-01
 -2.3472514e+00
 -5.9913027e-01
  5.7843655e-01
 -1.3887432e+00
  1.6235445e-01
 -2.4588530e+00
  6.0984737e-01
  8.0727434e-01
  1.3066438e+00
 -3.3156726e-01
 -1.3743489e+00
 -2.3195002e+00
  6.8868685e-01
  3.4522824e+00
 -1.8980524e-01
 -8.9472646e-01
  2.0636708e-01
 -3.0449095e-01
 -3.2095708e-02
 -1.3135020e+00
 -6.9610137e-01
 -5.9735829e-01
  4.1329322e+00
  4.7457802e-01
  4.1060677e-01
 -1.6487702e+00
 -1.1819052e+00
 -1.1465293e-02
 -1.0461375e+00
  4.5943904e-01
 -6.2030363e-01
 -1.0067104e+00
  2.2602266e-01
  3.9097834e-01
  4.7820240e-01
 -5.7362854e-01
 -2.3053842e+00
  3.1722403e-01
  5.9875959e-01
  2.1441066e-01
  3.6321259e-01
  8.2169449e-01
  1.4737995e+00
 -1.1295619e+00
  1.2997806e+00
 -3.9493954e-01
  1.9440070e+00
 -1.0750727e-02
 -1.5953513e+00
  3.2555580e-01
 -3.8638207e-01
  1.2014759e+00
  1.1321636e+00
 -5.7054627e-01
  6.6059327e-01
 -5.2534485e-01
  9.3908900e-01
 -1.4864240e+00
 -5.2480823e-01
  2.7580407e-01
 -2.1335566e+00
 -5.6105667e-01
 -5.4082888e-01
 -1.5862597e+00
 -5.8921158e-01
  2.0727408e-01
 -3.7803200e-01
 -1.5709484e-01
 -5.7241276e-02
  1.2366989e+00
  6.1692935e-01
 -2.0076461e+00
  3.5471998e-02
 -2.1271219e+00
 -1.3465987e+00
  7.9010391e-01
  1.1817036e+00
 -9.4912326e-01
 -8.5835075e-01
 -2.4418952e+00
 -2.6452115e-02
  1.3490549e+00
 -1.1218194e+00
  1.6653122e-02
 -3.9429712e-01
 -3.4929197e-02
 -3.8200631e+00
 -1.5919575e-01
  2.4847913e+00
 -2.3107171e+00
  1.6857661e+00
  8.0387807e-01
 -1.2195492e+00
 -6.8123668e-01
 -1.0684565e+00
 -3.6081767e-01
 -5.6949008e-01
  2.0533189e-01
  1.6871340e+00
  5.1408178e-01
 -3.5147631e-01
 -1.8431293e-02
  1.2382066e+00
  1.9822590e-01
  9.5328927e-02
  5.7203826e-03
  3.5440210e-01
  5.9867185e-01
 -2.3158951e+00
 -1.0103796e+00
 -7.3564982e-01
  4.0169308e-01
  5.7407793e-02
  6.4762193e-01
  2.9193110e+00
  3.0828204e+00
 -7.4492049e-01
 -7.6340896e-01
  5.6972706e-01
  3.1666696e-01
 -1.3790489e+00
 -3.2553434e-02
 -4.5505536e-01
  1.7710100e+00
 -3.9967394e-01
  4.7530514e-01
 -1.3356416e-01
  7.5823724e-01
  1.0518059e+00
  1.3718818e+00
 -7.4330544e-01
  1.3793076e+00
  1.6754685e-01
 -5.6506884e-01
  1.4952852e+00
  2.0010659e-01
 -4.8534784e-01
 -1.0595788e+00
  6.3318264e-01
  1.0330529e+00
 -1.9344105e+00
 -1.2346700e+00
 -3.8441050e+00
 -3.2149262e+00
  2.1556532e+00
 -1.8904490e+00
  7.5555786e-02
  1.0068467e-01
  2.0041077e+00
  1.7577248e+00
 -4.8365560e-01
  1.2315685e+00
 -1.5451174e+00
  3.2006088e-01
 -7.4368638e-01
  1.2449830e+00
 -1.5726186e+00
 -9.8545575e-01
  3.8087457e-01
  1.2949226e+00
 -3.0208719e+00
  4.6574038e-02
 -9.3757623e-01
 -7.9811519e-01
 -1.3266879e+00
 -1.8068286e+00
  9.8033804e-01
  3.4665158e-01
  4.4742101e-01
  6.2994488e-02
  2.0823822e+00
  2.3980275e-01
  2.6829168e-01
  3.0975163e-01
 -4.8863444e+00
 -2.2894390e+00
 -2.2464635e+00
 -6.4677531e-01
  1.2230282e+00
 -1.3079509e+00
 -4.2242928e+00
  7.1436958e+00
 -1.3821393e+00
  1.2837440e-01
  1.9087460e+00
  1.0127279e+00
 -1.0969958e-01
  2.4547648e+00
  1.2896947e+00
  2.3732407e+00
 -1.1424671e+00
  2.5071456e+00
  1.2177398e+00
  1.1567720e+00
  1.6450239e+00
 -1.5628088e+00
  7.0335472e-01
  3.1834471e+00
 -1.5272625e-01
  5.8801103e-01
 -9.3496507e-01
 -1.1868367e+00
 -1.1026959e+00
 -2.4387705e+00
  8.8524723e-01
  1.1967001e+00
 -7.1089894e-01
 -3.4428072e-01
  1.2695676e+00
 -5.8952814e-01
  1.2543454e+00
 -4.9020737e-01
 -1.2157824e+00
  9.6081018e-01
  1.3114671e+00
  8.0439192e-01
 -1.9531922e-02
 -1.0002662e+00
  1.2128654e+00
 -6.5409666e-01
  8.3971873e-02
 -6.3448656e-01
 -2.9048306e-01
  5.8160031e-01
  4.0953600e-01
 -4.0706083e-01
  5.3967547e-01
 -3.2148165e-01
  1.2774523e-01
  4.1801450e-01
 -3.6305499e-01
  3.7853859e-02
  3.7961867e-01
 -9.3710613e-01
  1.4368975e-01
  1.6501020e-01
 -2.4900037e-01
  3.6323130e-01
  4.7715586e-02
 -8.6678725e-01
 -4.0693617e-01
 -5.3630871e-01
 -4.8047721e-01
  9.3264006e-02
  3.1082320e+00
  7.4887776e-01
 -1.0830557e+00
  1.6901693e+00
 -2.6898476e-01
  4.1708879e-02
 -1.0441041e+00
  2.8032873e+00
 -8.4325463e-01
 -3.7114000e-01
 -4.4967917e-01
  2.6687362e+00
  1.8226962e-01
  5.4477680e-01
 -8.8164413e-01
 -4.6896341e-01
  7.6013583e-01
  1.8314805e+00
 -1.1558783e+00
 -3.0140096e-02
  7.8028923e-01
  8.3226103e-01
  4.6672422e-02
 -8.1734967e-01
 -1.2959033e+00
 -2.3010752e-01
 -1.6497148e+00
 -1.9286230e+00
 -4.6545762e-01
 -1.5856175e-01
  2.1140680e+00
  1.6232157e+00
  3.8913727e-01
  1.0785724e+00
  1.3831822e+00
 -2.8281512e+00
  1.7901632e+00
 -2.3722076e+00
 -1.7926407e+00
 -7.6601779e-01
  1.2425699e+00
  1.9602422e-01
  6.9701529e-01
 -1.1556826e+00
  3.4009221e-01
  3.5008049e+00
 -3.5378249e+00
 -1.0869263e+00
  6.5741247e-01
 -4.7072649e-01
 -4.6379593e-01
  5.1942271e-01
 -1.4395534e+00
  6.1516237e-01
 -6.9814749e-02
  6.6335297e-01
 -2.1103945e-01
 -1.0228699e+00
  1.4458381e+00
  6.0923803e-01
 -4.3604784e+00
  2.1485839e+00
  2.0026352e+00
  7.5011414e-01
  2.8607512e-01
 -8.4041711e-03
 -5.5550563e-01
  6.4184839e-01
  7.0585954e-01
 -1.7803526e-01
  3.6637650e+00
  7.0638663e-01
 -2.4885848e+00
 -3.3076796e-01
  1.1840596e+00
 -2.1017401e+00
  3.6048529e-01
 -1.9934202e+00
  8.1667268e-01
  1.9718783e+00
  2.7781408e+00
 -6.3166034e-01
 -2.6439926e-01
 -8.0398172e-01
  1.2268472e-01
 -1.4706384e+00
 -1.6201518e+00
 -9.0200853e-01
 -1.1840461e+00
  6.5624934e-01
  1.0151502e+00
 -1.5321478e+00
 -1.3906049e+00
 -6.1377966e-01
 -1.3719648e-01
 -2.3532823e-01
  7.2801626e-01
 -8.8484544e-01
 -1.5866219e+00
  5.7636875e-01
 -1.2360868e+00
 -4.6842125e-01
 -2.8850567e-01
  4.7697788e-01
 -1.1810061e-01
 -1.4769000e+00
 -3.0085702e+00
  5.3000021e-01
 -1.8839157e+00
  1.1281517e+00
  1.8303202e+00
  2.6629305e+00
 -1.5572184e+00
 -6.5244593e-02
  4.7818694e-02
  2.4043992e+00
 -2.0651567e+00
 -3.0335860e+00
 -5.2793229e-01
 -8.0602103e-01
  4.5027938e+00
 -1.9688629e+00
 -2.9411014e-02
  1.6568578e+00
 -4.2024609e-01
  1.0184340e+00
 -1.4666985e+00
 -1.1836010e+00
  2.2188869e+00
  6.1188981e-02
 -3.9573481e+00
  3.6787183e+00
 -3.2843605e-01
  2.4896719e+00
  2.1620827e+00
 -7.8006047e-01
 -7.3249322e-01
  1.2876335e+00
 -6.4244998e-01
 -1.5565915e+00
  1.3159209e+00
  1.2674214e+00
 -3.4536257e+00
 -1.5161630e+00
  2.0856712e+00
 -1.3198845e+00
 -2.2269666e-01
  1.1721854e+00
 -9.0955392e-02
 -3.1134218e-01
 -2.7422127e-01
 -4.7498387e-01
  7.4676597e-01
  8.0801016e-01
 -2.8983599e-01
  8.5458511e-01
  1.0225725e+00
 -8.6028528e-01
 -9.7512558e-02
  1.2888429e+00
 -6.4691156e-01
 -3.1230775e-01
  6.6512769e-01
  4.7791523e-01
  2.0205888e-01
  2.7122495e+00
 -7.5313759e-01
 -1.6241821e+00
 -3.9190257e-01
 -1.5304041e-01
 -3.2100472e-01
 -1.1293821e+00
 -4.5528215e-01
  6.2389225e-01
  2.7258548e-01
 -1.7219111e+00
 -2.2355719e-01
  6.7854434e-01
  6.2189096e-01
  2.3336659e-01
  7.8433824e-01
 -4.3381667e-01
  1.5745366e+00
  6.7481112e-01
 -1.2636784e+00
  1.0317352e-01
 -2.2153606e+00
  1.0554013e+00
  2.3587675e-01
  2.2323273e-02
  3.7653369e-01
 -8.9607048e-01
 -7.9181832e-01
  6.7314047e-01
 -6.4430398e-01
  1.4093828e+00
  1.1828555e+00
  1.2529504e+00
 -8.1255114e-01
 -6.6668290e-01
 -2.3073385e+00
 -2.2783254e-01
 -1.8652938e-01
  6.2711619e-02
 -3.0747357e-01
  7.2593892e-01
  4.6325195e-01
  6.9982082e-01
 -6.0633328e-02
 -1.8381585e+00
 -3.6248353e+00
  7.5184733e-01
 -9.6295893e-01
  4.5637214e-01
  1.8659135e+00
  5.4389763e-01
  2.2162793e+00
 -2.4165936e+00
 -3.6358920e-01
  6.8926024e-01
  3.3469400e-01
  1.1185023e+00
 -7.0466721e-01
  7.0403934e-02
  1.1888793e+00
  1.0190006e-01
  4.5935912e+00
 -1.5850953e+00
  2.3005311e+00
 -2.2040932e+00
  1.9627223e+00
  1.9976470e+00
  4.1748062e-01
  8.4199595e-01
  2.1317926e-01
  1.5205246e+00
  1.7122657e+00
  8.2135165e-01
  6.6127717e-01
 -5.3922558e-01
  4.2832047e-01
  8.8346475e-01
  9.1909319e-02
 -2.2047091e-01
 -3.5203969e-01
  1.6052122e+00
  1.1935368e+00
 -3.3971291e+00
 -4.5138009e-02
 -2.1100612e+00
  3.6924577e+00
 -4.5808521e-01
 -3.7895474e-01
  5.4185110e-01
  8.7638938e-01
 -1.8681828e+00
 -2.4244926e+00
 -5.7105243e-01
  1.1943887e-01
 -1.4899558e-02
 -9.5863044e-01
  4.8088402e-01
  4.3810400e-01
  3.3250123e-01
 -1.5424734e+00
 -1.9879891e+00
  2.2255797e+00
 -1.1368216e+00
  1.0829381e+00
 -9.8597705e-01
 -6.9042832e-01
  1.3261840e+00
  1.3512154e+00
  7.4813753e-01
  6.7508471e-01
 -8.8019133e-01
  9.8257624e-02
 -1.1878337e+00
  9.1418028e-01
 -1.1468738e+00
  6.4142771e+00
  1.2349020e-01
 -1.4905505e+00
 -5.1070827e-01
 -1.8788555e+00
  4.5379925e+00
  8.8742924e-01
 -1.1322188e+00
 -1.1054879e-01
 -4.0192862e+00
  6.5727961e-01
  1.3371115e+00
 -3.1309996e+00
 -8.7427974e-01
 -2.1620607e+00
  1.4669116e+00
 -1.6583447e+00
 -1.2502843e+00
 -1.4987867e+00
 -1.5900607e+00
 -2.7401266e-03
 -1.7926412e+00
  2.4861190e-02
 -2.8119926e+00
 -1.6639570e+00
 -2.0746076e+00
 -1.0280348e+00
  1.3822166e+00
 -3.6326545e-01
 -2.2597952e-01
  7.3497039e-01
 -2.1868362e-01
  1.3547565e-02
  9.2458838e-01
  1.2377065e+00
 -1.6207423e+00
 -2.6240571e+00
 -1.6623199e+00
 -2.6532555e+00
  2.0579233e+00
 -9.1179848e-02
 -7.9420692e-01
  1.1260800e+00
  1.4454579e-01
 -4.9667579e-01
  1.1053934e+00
 -1.3092510e+00
  3.9849148e+00
 -2.6259822e-01
 -1.6942682e+00
  1.2302876e+00
  3.3254606e-01
  1.5357575e+00
 -7.1037132e-01
  3.0100638e-01
  3.5669759e-01
  7.1232177e-02
  3.7464264e-01
  1.5296843e+00
 -3.7976882e-01
  7.1018291e-01
  2.4560700e-01
 -8.1302144e-02
  2.9081059e-01
  8.9992982e-01
 -8.4477079e-01
 -5.0858682e-01
 -1.7282440e-01
  3.2527599e-01
 -1.3958908e+00
 -5.0847161e-01
  1.0325483e+00
  1.1330981e+00
  1.0773758e+00
 -1.6065748e+00
 -3.4257242e-01
  3.1786752e-01
  2.5566287e+00
 -8.1338488e-02
  2.4337848e-01
 -7.3807245e-01
  3.1374705e+00
  9.5496958e-01
  1.6788679e-01
  2.8340719e+00
 -1.3726188e+00
 -4.9622640e-01
 -1.3862317e+00
  4.2297897e-01
  5.7775712e-01
 -3.5675075e+00
  2.7508535e+00
  1.5076977e+00
  1.4471598e+00
 -1.0633217e+00
  2.4474514e+00
 -8.7872826e-02
  3.8811076e+00
 -1.6471732e-01
 -9.2031777e-01
 -1.1060698e+00
 -8.6574441e-01
  8.7892908e-01
  8.2838756e-01
 -1.6247673e-02
  1.8164887e+00
  1.5038468e+00
 -9.1256816e-03
 -2.0373528e+00
  2.2562437e+00
 -2.1410871e+00
 -3.4314160e+00
  5.8816493e-01
 -4.6278005e+00
 -2.0989497e+00
  3.3561089e+00
  4.0171351e+00
  1.1465338e+00
  9.6096200e-01
 -1.4761032e+00
  3.0056496e+00
  1.7903049e-01
  8.8642704e-01
 -5.3683493e-02
  2.2385993e+00
  2.1861672e+00
 -6.2764347e-01
  1.1685483e+00
 -1.4038832e+00
  1.0010072e+00
  7.7779508e-01
 -3.4572310e+00
 -4.0563890e-01
  7.7429545e-01
 -2.1533759e-01
 -1.5689160e+00
 -1.0934103e-01
 -1.9507673e-01
 -2.5842828e-01
  7.9501069e-01
  3.6255243e-01
  9.8317397e-01
 -4.1159064e-01
 -2.3081157e+00
  2.5233302e+00
 -7.7338380e-01
  7.8990763e-01
  3.1190863e-01
  1.0142996e+00
  1.0548645e-01
 -3.9064074e-01
  1.2030464e+00
 -1.2911278e+00
  1.0614182e+00
 -1.7324688e+00
 -1.4832821e+00
  1.2466952e+00
 -6.4548868e-01
  1.6485943e+00
 -1.5504198e-01
  3.3695501e-01
  4.1620949e-01
  3.8547865e-01
  6.4269543e-01
 -4.0263897e-01
  2.2699554e+00
  4.1595069e-01
  2.1792579e+00
 -8.0204624e-01
  5.5723280e-01
 -1.3528703e+00
  8.5749412e-01
  7.7434063e-01
 -8.4139884e-02
  8.2918990e-01
 -4.6696048e+00
 -2.4154189e-01
  8.4612077e-01
 -9.1817892e-01
  7.3492795e-01
 -1.8856648e+00
 -1.1099881e+00
  8.8755107e-01
  1.9406149e+00
  9.6376967e-01
 -8.4049499e-01
  2.7422819e+00
  7.6978546e-01
  3.5846299e-01
 -3.8459158e-01
  2.1663801e-01
  1.0636414e+00
  1.6992476e+00
  6.9762290e-01
  2.6472569e-01
 -2.4574757e+00
  3.1106384e+00
  1.8419043e+00
  2.8469625e-01
 -4.9126995e-01
  8.2243998e-03
 -1.9773707e+00
  2.0488772e+00
  2.4375398e-01
  1.3903285e+00
 -2.3755372e-01
  8.8173521e-01
 -2.0872610e+00
  2.5078082e+00
 -1.7531556e+00
 -1.5108452e+00
 -7.5721592e-02
 -3.2810790e-03
  1.5853873e-01
  1.5152869e-01
  2.2052920e+00
 -5.2360725e-01
 -2.3898976e+00
  1.7533741e+00
 -7.8167242e-01
 -4.3522874e-01
  1.8617798e+00
 -2.8849777e-02
 -5.5284238e-01
  8.0040567e-02
 -4.9281639e-01
  2.5898956e-02
  2.5882441e-01
  9.9420048e-02
  3.8099879e-01
  4.8806158e-01
  6.6864975e-02
 -9.2459780e-01
  1.5966868e+00
  1.7851913e+00
 -2.6269815e+00
 -7.4679822e-01
  6.7601043e-01
 -6.2980711e-01
  6.3012558e-01
  5.8550560e-01
  5.5808747e-01
  1.6143411e+00
 -2.6701212e-01
 -2.3868622e-01
  6.5222917e+00
  6.4221656e-01
  3.8198051e-01
  1.0149759e+00
  1.0097145e+00
  2.2930043e+00
  2.8554449e+00
 -3.7933595e+00
 -7.7395189e-01
 -4.8826820e-01
  2.0943007e+00
  1.8307700e+00
  4.1978645e-01
 -2.8918323e-01
 -1.1182503e+00
  1.7662115e+00
  5.5222803e-01
 -1.5440251e+00
 -7.2963178e-01
  2.3986120e+00
  1.5285497e+00
 -2.6693649e+00
  6.0799122e-01
  4.4215387e-01
  8.0968291e-01
 -5.6353407e+00
  2.1013954e-01
  1.4442481e+00
 -4.0158466e-01
 -1.3526363e+00
  3.8784128e-01
  1.3718961e+00
 -1.0624919e+00
 -7.5970930e-01
  1.0192077e+00
 -1.6288716e+00
 -3.2262368e+00
  1.7973212e+00
  1.2568049e-01
 -7.0899516e-01
  6.5400964e-01
 -1.0270287e-02
 -5.3669419e+00
 -1.0959157e-01
  2.2649939e-01
 -1.1837188e+00
  4.4173226e+00
  1.7077599e-02
  6.7519015e-01
  9.4193019e-02
  4.0123434e+00
 -2.6618307e+00
  8.1981570e-01
  1.6491166e-01
 -2.9513745e+00
 -1.6864525e+00
  1.8058207e-02
  1.2380894e+00
  2.4685973e-01
  9.0595561e-01
  5.8323067e-01
  1.3771918e+00
  5.3769553e-01
  1.0268377e+00
 -2.0550302e-01
  7.2900897e-01
 -1.7980736e+00
 -2.4229737e-01
  6.0547870e-01
 -1.6395310e-01
 -2.0738885e+00
 -6.4507097e-01
  1.8533819e+00
  1.5117769e-01
 -1.7313173e+00
  1.1150963e+00
  8.7446827e-01
 -3.0465591e-01
  2.9486258e+00
  2.2299747e+00
 -2.4795208e+00
 -5.7893753e-01
  6.5745598e-01
  1.6049893e+00
 -8.6731416e-01
 -4.0933725e-01
  4.0086415e-01
 -2.4864757e+00
  1.0884752e+00
 -3.9246526e-01
 -1.1398512e+00
 -1.6216755e+00
 -2.3516144e-01
 -1.5495899e+00
  6.7789006e-01
  4.4290853e-01
 -3.4941590e-01
 -2.4650228e-01
 -7.0001721e-02
 -1.9969527e-01
  5.8412194e-01
  9.6125865e-01
 -9.1916001e-01
 -6.0584150e-02
 -2.5213507e-01
 -2.4363843e-01
 -3.5509186e+00
  1.2389090e+00
  5.3156477e-01
  2.0547271e+00
 -5.4496562e-01
  9.1980392e-01
 -1.2426761e+00
 -1.5518612e+00
  2.1455855e+00
  1.1213737e+00
 -1.4934838e+00
 -2.7582273e+00
  5.7471502e-01
 -7.1223110e-01
 -8.8984209e-01
  6.1125004e-01
 -5.1405436e-01
  5.3610194e-01
  7.6516795e-01
  2.0717561e-02
  2.7482102e+00
 -4.9890846e-02
  1.0443239e+00
  1.0745467e-02
  1.7513983e+00
 -1.4866281e+00
  4.7856015e-01
  5.0816602e-01
 -6.5250319e-01
  1.7803141e-01
  8.3820915e-01
  2.8552076e-01
  3.1657144e-01
  5.4516576e-02
 -2.2874144e-01
  1.3459162e-01
  1.0615022e+00
  9.6449625e-01
 -4.3274012e+00
 -4.9774054e-01
  2.9976139e+00
  2.6053064e+00
 -2.7702010e-01
  6.0184538e-01
 -3.7539346e+00
  3.1684792e+00
  1.0029830e+00
 -5.6091225e-01
  8.6171341e-01
  6.3627213e-01
 -3.3735151e+00
  3.1876799e-01
 -7.7723110e-01
 -6.1370701e-01
 -1.3060770e+00
 -8.5363871e-01
 -3.4185278e+00
 -8.0013132e-01
  6.8482250e-01
 -5.0716084e-01
  1.1562272e+00
  7.6184410e-01
 -5.3382283e-01
 -5.9194446e-01
  1.2911437e-01
  4.3422710e-02
 -1.2407331e+00
  8.6973232e-01
 -1.3108019e+00
 -5.4391680e+00
 -2.6760919e+00
 -2.2397075e+00
 -3.4086053e+00
  7.0011330e-01
 -4.0158153e+00
 -3.8147225e+00
 -1.0374304e+00
 -2.8423932e-01
  1.0723697e-01
 -1.0217289e+00
  2.3764372e+00
  3.0124545e+00
 -5.8979595e-01
  3.1362101e-01
 -8.6258096e-01
  3.5104663e+00
 -3.1993237e-01
  1.9440801e+00
  2.3902397e-01
  4.8056748e-04
  1.6564357e+00
 -6.6529620e-01
  2.3853868e-01
  1.7155995e+00
  9.6532404e-01
 -1.2812819e+00
 -3.4795502e-01
  2.4401177e-01
 -2.0780468e+00
 -2.3673315e+00
 -2.1249305e-02
  3.3133861e-01
 -7.6130390e-01
  1.3796896e-01
 -1.0031972e+00
  2.0549679e-02
  1.0039867e+00
  1.6079787e+00
  2.7406950e+00
  7.6175785e-01
  1.3180091e+00
 -1.3005737e+00
 -2.2476929e-01
 -3.7952662e-01
 -6.5958136e-01
  4.2653160e+00
 -9.1201645e-01
 -4.1292486e+00
  2.7104753e-01
  1.0706000e+00
  1.9394031e+00
  2.2566487e-01
  5.3118199e-01
  1.1125402e+00
  4.2619070e-01
  5.8860385e-01
 -1.6966917e-01
 -8.9152056e-01
  2.1534243e+00
 -8.5526091e-01
 -9.7344464e-01
 -9.3523955e-01
  2.0725539e+00
  1.2220001e+00
  5.0370598e-01
 -1.1545857e+00
  1.7862102e+00
 -6.6560888e-01
  1.2651467e-01
 -4.8846230e-01
 -9.4279164e-01
  1.4124360e+00
  5.4586709e-01
 -5.9111285e-01
 -6.1838436e-01
  1.6299181e-01
 -1.0014592e+00
 -2.1616845e-01
  2.1500219e-01
 -2.6637310e-01
  2.2371392e+00
 -9.9526728e-03
  5.1334131e-01
  5.6315836e-02
 -3.0236261e+00
  1.8705534e+00
 -3.0786294e-01
  1.4840298e+00
 -5.3785900e-03
  2.7521324e+00
 -3.4631805e+00
  2.3519311e+00
  1.6099156e-01
 -8.5268199e-01
 -1.8957999e-01
 -7.7682465e-01
 -7.8499365e-01
 -9.3968660e-01
  8.2218093e-01
 -4.5859900e-01
  1.9874877e-01
 -2.2574677e+00
  4.3266433e-01
 -7.9855853e-01
 -4.8920193e-01
 -9.1232955e-01
 -1.6540807e+00
  2.1150851e+00
  2.0561421e+00
 -6.5473682e-01
 -2.8968225e+00
  2.3691831e-02
 -5.6144660e-03
 -7.4217296e-01
  9.3719810e-01
  8.5025543e-01
 -1.3884670e+00
  1.2174903e+00
  1.0268648e+00
  1.4200418e+00
 -2.0942950e+00
 -2.8278685e+00
  8.0126572e-01
  9.3168515e-01
  2.7987378e+00
 -3.0758784e+00
 -4.5119891e-01
 -9.0336643e-02
 -1.5178992e+00
  1.2797323e+00
 -1.3586767e+00
  3.8053802e-01
  3.9330196e-01
  3.1468216e-01
 -4.6243504e-01
 -1.7684600e+00
 -4.5516127e-01
 -3.7964401e-01
 -4.6519974e-01
  7.0542498e+00
  3.0675559e+00
 -5.0812477e-01
  2.9609093e-01
  6.3993841e-01
  9.6923041e-01
  1.1740080e+00
 -5.1587291e+00
 -1.9804837e-01
 -1.0394593e+00
  4.1889839e+00
  1.7845849e+00
 -5.4916534e+00
 -4.3080583e-01
 -2.3053691e+00
  2.8767915e+00
 -1.2496109e+00
 -2.8570299e+00
  1.8754262e+00
 -1.4920988e+00
 -1.9678172e-01
 -2.0078833e+00
  3.9193042e-02
 -4.7130516e-01
 -3.8576809e-01
  1.1819130e+00
  1.1780651e+00
  3.2509848e-01
 -2.9099923e-01
 -1.7713745e+00
  1.2281565e-03
 -6.7181128e-01
  3.6335525e-01
  5.8716875e-01
  8.0820745e-01
 -2.3875015e+00
 -1.6366193e+00
 -3.3475094e+00
 -1.7584274e+00
 -1.4085144e+00
 -3.5313624e-01
  2.7216070e+00
  2.4179614e+00
 -2.2467630e-01
  1.6979039e+00
  3.6547944e-01
  5.3044710e+00
  2.3958765e-01
 -3.6933061e-01
  9.5268351e-01
 -2.5094874e+00
 -1.8546285e-02
 -2.4739084e-01
  8.2028764e-01
  3.4027779e+00
 -1.7877600e-01
  2.7745575e-02
 -5.2700430e-01
  2.1896436e+00
 -1.9296111e+00
  4.4589667e+00
 -7.0010889e-01
  1.3998057e+00
 -2.0479763e-01
 -1.7809254e+00
 -1.9046007e-01
 -1.0254705e+00
 -1.4064941e+00
 -1.4745901e+00
 -1.5236888e+00
 -1.4828742e+00
 -1.1597553e-02
  4.4222236e-01
  6.4682108e-01
 -2.5496359e+00
 -6.3461393e-02
  5.1125550e-01
  2.0135348e+00
 -5.6558096e-01
  7.1234161e-01
 -2.8488021e+00
  1.4337269e+00
 -1.2549332e+00
 -7.5960711e-02
 -1.9716185e-01
 -1.0080000e+00
 -8.4136897e-01
  6.3217485e-01
  1.3842664e+00
  3.3620858e-01
  8.1339157e-01
  7.6731056e-01
  6.6462320e-01
 -1.1246424e-01
 -1.7873323e+00
  8.0792302e-01
 -1.1567654e-01
  4.9035531e-02
 -6.6259170e-01
 -5.7158375e-01
 -4.6613750e-01
  4.1164836e-01
 -1.5035913e+00
  4.4717798e-01
 -3.6520991e-02
  2.3191128e+00
  4.7712621e-01
 -1.3134341e+00
 -2.0420802e+00
 -1.3078921e+00
 -3.0770752e-01
 -3.7690551e+00
 -2.8197200e+00
  4.9230561e-01
 -1.1475354e+00
  2.1701615e+00
  7.1893680e-01
 -1.6820506e+00
 -1.9794145e+00
  9.4068241e-01
 -7.4954498e-01
  1.5237372e+00
  2.1357843e-01
  1.3357539e+00
  2.2506578e+00
  4.1358137e+00
  6.3595176e-01
 -5.6639177e-01
  4.4977191e-01
 -9.8998472e-02
  2.7922073e-01
 -1.4193304e+00
  2.2954655e+00
 -2.4431558e-02
 -7.3623377e-01
 -6.0971129e-01
  7.3339885e-01
  2.0566642e-01
  2.7947152e-01
 -9.7634679e-01
 -5.2495901e-02
 -6.9836128e-01
  1.5404000e+00
 -4.7037211e-01
  9.8600918e-01
  1.5896312e+00
 -4.6967831e-02
  5.6890154e-01
  5.2468371e-02
  3.7262682e-02
  4.1083652e-01
 -2.0185661e+00
 -1.4905372e+00
 -2.9816706e+00
 -2.1591370e-01
  8.4518254e-01
 -3.9641986e+00
 -1.2752850e-01
 -1.3946035e+00
 -8.0961639e-01
 -3.8553572e-01
 -8.1952059e-01
  9.1915745e-01
 -1.1500050e+00
 -1.8762393e+00
 -1.2911597e+00
 -1.6179823e+00
  2.6235384e-01
 -2.5305912e+00
 -1.1170474e+00
 -1.0221299e+00
 -1.0844139e+00
 -1.5534724e+00
 -5.0043893e+00
  1.9669437e+00
  3.8836081e+00
  1.2700443e+00
 -3.9168388e-01
 -1.5766566e+00
 -9.2578721e-01
  8.0136329e-01
 -2.1849740e+00
 -3.1108897e+00
 -1.2162290e+00
 -1.2962173e+00
  1.6895357e-01
 -1.3577175e+00
 -9.4041806e-01
 -1.7077717e+00
 -4.0357137e-01
 -3.0996609e+00
  2.6462874e+00
 -8.2622194e-01
 -1.9003071e-02
  2.2023346e+00
 -2.5670307e+00
 -1.5988729e+00
 -1.5867795e+00
  5.4516416e-02
  2.3046103e+00
 -2.9681020e+00
  2.1379545e+00
 -1.3384968e+00
  5.2602935e-01
  6.2198293e-01
  9.5406950e-02
 -8.7359995e-01
  1.2810062e+00
 -3.3130813e-01
  6.1572266e-01
  4.6549922e-01
  4.7720286e-01
 -9.8006910e-01
 -1.0278707e+00
  6.3847351e-01
 -2.1457765e+00
  2.8336968e+00
  3.1653662e+00
 -2.1675707e-01
  7.2817288e-02
 -2.3126366e+00
  3.3547351e+00
  3.3864734e-01
 -6.5620279e-01
 -6.1910981e-01
  4.5814216e-01
  1.2595987e-01
  1.2774547e+00
  6.6511053e-01
  6.3145036e-01
 -1.0239370e+00
  1.3959136e+00
  1.5691379e+00
  1.4670223e+00
 -9.7818100e-01
 -9.3793517e-01
  7.1493548e-01
 -6.0722250e-01
 -5.6782824e-01
 -1.2621292e+00
  7.5847811e-01
 -1.5096408e+00
 -1.3929254e+00
 -8.3252564e-02
 -7.5728387e-01
  5.0729597e-01
 -2.3173740e+00
  2.5707223e+00
 -2.6966450e+00
  1.4124321e+00
  2.9522467e-01
 -7.5940275e-01
  4.3080479e-01
 -3.9394400e-01
 -6.1667156e-01
  2.2073796e+00
  1.4410265e-01
 -3.3683066e+00
 -1.2438405e+00
 -3.2158214e-01
 -7.7690506e-01
 -2.3834238e+00
 -4.2809302e-01
 -9.5872420e-01
  1.0735385e+00
  5.4363180e-02
 -1.2077171e+00
 -2.1738687e+00
 -4.7579432e-01
  1.8823684e+00
  3.5897237e-01
  1.3344554e+00
  1.1525527e+00
  6.7769945e-01
  1.2521908e+00
  2.1806668e-01
  3.5295030e-01
  1.0616553e+00
  1.1790018e+00
 -8.8758707e-01
  3.9391012e+00
  2.6728842e+00
 -2.3071735e+00
 -1.7844738e-01
 -2.8654280e-01
 -2.4266258e-01
 -1.5459845e+00
  1.9821423e+00
  3.9782578e-01
 -4.0505335e-01
  2.1594522e+00
 -1.6241289e+00
  1.5216640e+00
 -1.1428213e+00
  3.3075556e-01
 -1.8463625e+00
  6.0646951e-01
  2.6796603e+00
 -1.0303103e+00
 -3.3371517e-01
 -6.8788308e-01
 -7.1160597e-01
  7.4611032e-01
 -2.6992121e-01
  1.7865689e+00
  1.2528892e+00
 -4.5116913e-01
 -6.6889989e-01
  1.5859887e-01
 -9.7454435e-01
  4.6728734e-02
  6.0493957e-02
  2.9350445e-01
  1.9969243e+00
  6.7656344e-01
  6.2232334e-03
 -4.1353321e+00
 -2.6482444e+00
 -1.5525392e+00
  2.0101781e+00
  6.0313716e+00
 -3.7207942e+00
  2.6204071e+00
 -2.7489362e+00
 -3.0697839e+00
  1.2954259e+00
  4.6287578e-01
  1.9293544e+00
 -1.2049086e+00
 -1.7869805e+00
 -2.0436840e+00
  1.2148286e+00
  3.9877799e-01
 -9.3611635e-02
  1.4657938e+00
  1.8920875e+00
  5.8706332e-02
  2.9356077e+00
 -1.3638026e+00
  1.1052114e+00
 -9.1105235e-01
 -2.7400982e+00
 -9.6876281e-01
 -4.8534238e-01
 -1.5312452e+00
  2.0479415e-01
  9.9525851e-01
  2.0502999e-01
 -6.2702912e-01
  4.0718818e-01
 -5.0355263e+00
 -4.4471458e-01
 -2.5826085e+00
 -1.0177992e-01
 -1.7428715e+00
 -1.4566784e+00
 -1.2595550e+00
 -2.1231873e+00
 -4.7414920e-01
  1.1883730e-01
 -3.6046920e+00
  7.4226505e-01
  3.5493484e+00
 -4.0503767e-01
 -8.2230830e-01
 -1.3489270e+00
 -1.6576916e+00
 -9.8176461e-01
 -2.9394832e-01
  3.6269646e+00
 -1.7603542e+00
 -6.2450755e-01
  5.7748675e-01
 -8.9414708e-02
  2.1940548e+00
  1.6873792e+00
 -2.0774217e+00
 -3.2533357e-01
  1.0208532e+00
 -1.8310655e+00
  4.7028294e-01
  8.8854414e-01
  3.1323582e-01
 -5.9852767e-01
  1.0045648e+00
 -1.3736555e-01
  1.5210041e+00
 -1.3576488e+00
 -8.3824903e-01
 -3.6540864e+00
 -6.3693827e-01
 -1.1460297e+00
 -1.2282798e+00
  5.1697874e-01
  1.1782702e-01
 -8.3567214e-01
  1.3727430e+00
  6.9145280e-01
 -1.9025769e+00
  5.5341822e-01
  8.3367682e-01
  2.3300126e-01
  1.1864599e+00
  8.4016341e-01
  2.8155763e+00
 -2.6920192e+00
  1.8586413e+00
 -1.7252035e+00
  1.0335010e-01
 -1.1151069e+00
  5.2116704e-01
 -4.3248469e-01
  4.7908100e-01
  4.9694353e-01
 -2.9836404e+00
  5.0523099e-03
  7.0616651e-01
  6.5367326e-02
 -7.4394125e-01
 -1.3979310e+00
 -5.2913618e+00
 -3.5659800e+00
  3.8497941e+00
  3.7248149e+00
  4.3771119e+00
  2.3823425e-01
 -1.2927849e+00
 -1.3840895e+00
  2.4936175e+00
 -1.6027796e+00
  1.4576349e+00
  1.0998905e+00
 -2.2488501e+00
  2.8786235e+00
 -6.0293025e-01
  5.1508117e-01
  2.2920671e+00
  2.1806881e+00
  7.3551936e+00
  3.7635734e+00
 -2.2094575e-01
  3.9293866e+00
  9.3993211e-01
  7.0097208e+00
 -6.6002882e-01
  8.0758876e-01
  3.5897725e+00
 -2.5207290e-02
 -1.1169770e+00
 -5.0357592e-01
 -9.4386911e-01
  2.8469262e+00
 -2.3194459e-01
 -1.6500708e+00
 -3.1423527e-01
 -1.2460749e+00
  9.5848322e-01
  2.0331056e+00
  4.9107745e-01
  1.6632124e+00
  6.2623841e-01
 -1.8429080e+00
  4.6478173e-01
 -3.8819784e-01
 -8.1646197e-02
 -1.0045638e+00
 -1.5801609e+00
 -1.1854314e+00
  2.9477197e-01
 -3.1956583e-01
  4.5928073e-01
  1.0244331e+00
 -2.1053727e+00
 -1.3144714e+00
  1.0739343e+00
  2.2788084e+00
  1.4989421e+00
 -1.4414488e+00
 -6.0002720e-01
 -6.8179481e-02
 -2.0548768e-01
 -3.9683838e+00
 -2.4328916e+00
 -1.6002785e-02
 -8.6279798e-01
 -3.1906477e-01
 -3.7997949e-01
 -1.4022715e+00
  2.1592441e-01
  5.8587372e-01
 -5.4490721e-01
  7.6224011e-01
  2.1203132e+00
  1.4554311e+00
 -1.5431536e+00
  1.1176604e+00
  8.5571218e-01
  1.6043034e+00
  7.3534197e-01
 -3.8065658e+00
  2.0649810e+00
 -1.5421287e+00
  1.8947257e+00
  9.8703557e-01
 -2.9183223e+00
 -5.0931150e-01
 -1.5686761e+00
 -1.6951663e+00
  1.9933496e-01
 -2.2252152e+00
  3.6371365e+00
 -3.4660161e+00
 -9.9949735e-01
 -8.9143294e-01
  1.9807360e+00
  8.3987451e-01
  2.1364360e+00
 -1.7909631e+00
 -1.7615539e+00
  1.7918385e+00
  2.5202468e-01
  1.6096742e+00
  1.5888940e+00
  7.1394950e-01
  1.8761121e+00
 -8.1956184e-01
 -7.8709298e-01
 -1.3314935e+00
 -8.9909416e-01
  1.7129642e+00
  1.2716796e+00
 -4.3314981e-01
  1.1281823e+00
  7.7673638e-01
 -5.7236217e-02
  1.0672292e+00
 -4.2074370e-01
  1.0789812e+00
 -1.0997450e-01
 -9.5034139e-03
 -1.5709851e+00
  2.0753539e+00
 -1.2248716e+00
  2.3179840e-01
 -1.4399171e+00
  2.5139713e-01
  2.6652386e+00
  4.1745692e-01
  2.3958230e-01
  7.7807939e-01
  1.3860868e+00
  6.9712580e-04
  7.3600990e-01
  2.5407822e+00
 -2.6087344e-01
 -3.6608166e-01
  9.0544224e-01
  7.6060927e-01
 -1.0465547e+00
  1.3862214e+00
 -5.1466924e-01
 -1.8677245e+00
 -1.6629654e+00
 -1.6396403e-01
 -3.5915048e+00
 -1.0234919e+00
 -2.1898303e+00
 -2.5440431e-01
  1.8164368e-01
  7.7535611e-01
  2.8383461e-01
  1.2745328e+00
  2.6100105e-01
 -8.3006120e-01
  3.1116274e-01
  4.1115141e-01
  8.3576661e-01
  8.8090432e-01
  1.6206329e-01
  7.3597038e-01
 -8.9474291e-01
  1.1365381e-01
 -1.3920534e+00
  4.4858116e-01
  2.8893927e-01
  4.7413364e-01
  3.5362706e-01
  3.9431098e-01
 -1.4779176e-01
  2.7502103e+00
 -4.7217315e-01
  5.3312677e-01
 -3.5717684e-01
  5.8147514e-01
 -3.5227108e-01
 -7.1419251e-01
  1.3444649e+00
  5.4990220e-01
  1.5713189e+00
  2.8990865e-01
 -2.0396014e-01
 -7.5152689e-01
 -2.4503305e+00
  1.5385664e-01
 -6.8783408e-01
  1.1832154e-01
  3.0248705e-01
 -4.3612927e-01
 -1.4420475e-01
 -3.2851088e+00
 -6.3938141e-01
  2.7730736e-01
 -1.6758842e+00
 -4.4042122e-01
  5.6608766e-01
  5.9371907e-01
  2.5949532e-01
  5.9834594e-01
 -1.5816623e+00
 -7.2111118e-01
 -6.5281618e-01
  5.3711331e-01
  5.5685598e-01
  6.4308196e-01
 -6.0892707e-01
 -1.7822565e+00
 -1.8829225e+00
 -6.1905223e-01
 -4.6358475e-01
  6.7853391e-01
  3.2369393e-01
 -4.5585802e-01
 -7.4792522e-01
 -7.6410913e-01
 -2.6548359e-01
  3.3189622e-01
  8.4044039e-01
 -3.9026421e-01
 -7.0906872e-01
 -3.4419465e-01
  4.5782557e-01
 -4.1404870e-01
  2.8884344e+00
  2.4738912e-01
 -1.2151648e+00
  9.8066133e-01
 -9.4189441e-01
 -2.3272960e-01
 -2.9826469e+00
 -1.9912024e-01
  2.0090212e+01
 -2.1220167e+00
 -3.5058734e+00
  3.0018988e+00
  1.4276818e+00
 -6.6946158e+00
 -2.5465055e+00
  3.0429623e+00
  5.4183216e+00
 -7.7619028e-01
 -3.4969118e+00
 -7.3016191e+00
 -1.7222154e+00
  2.2435218e-01
 -3.9881647e+00
  5.6196856e-01
  4.2658553e+00
  7.4812281e-01
  3.0529532e+00
  7.1321678e-01
  1.8191031e-01
  8.2629174e-01
 -7.4728590e-01
  2.8126163e+00
 -7.1271653e+00
 -3.1795254e-01
  4.5599957e+00
  5.0689363e+00
 -1.7577537e+00
 -1.3091168e+00
 -1.7473332e+00
  1.1585722e+00
 -7.1945560e-01
 -1.5810995e+00
 -1.0224848e+00
  3.5712593e+00
  3.8867342e+00
 -9.0598041e-01
 -2.1763539e+00
  1.1146898e+00
  6.4989619e+00
  5.4564571e+00
 -3.5949869e+00
 -6.0180402e+00
 -2.1255903e+00
  2.0921965e+00
  1.4204311e-01
  3.1496754e+00
 -4.4526401e+00
 -2.9995444e-01
  3.6035011e+00
  5.2702713e-01
  7.4935865e-01
  1.7975729e+00
  1.3592644e+00
 -1.8973451e+00
 -4.0920115e+00
  6.5448780e+00
  4.2657018e+00
 -2.9347482e+00
 -3.3474650e+00
 -1.6215163e+00
 -7.0250326e-01
 -8.5809392e-01
  1.2769005e+00
  8.3281412e+00
 -1.0009906e+00
 -4.9237709e+00
  1.6992534e+00
  4.6613688e+00
  4.7011173e-01
 -3.4016671e+00
 -1.5866208e+00
 -1.3080939e-02
  2.4487374e+00
  4.1649094e-01
 -3.2598469e-01
 -2.1584206e+00
  1.6456582e-01
  3.2323938e-02
  8.5349256e-01
 -1.2260854e+00
 -3.2826703e+00
 -4.5743780e+00
  1.9408752e+00
  1.5254618e+00
 -2.0270345e+00
  1.6816525e+00
  4.4447951e+00
  1.4934634e+00
 -2.3296809e+00
  4.1251560e-03
  4.1251560e-03
  4.1251560e-03
  4.1251560e-03
  4.1251560e-03
  5.2743582e-03
  5.2743582e-03
  5.2743582e-03
  5.2743582e-03
  5.2743582e-03
  4.1027446e-03
  4.1027446e-03
  4.1027446e-03
  4.1027446e-03
  4.1027446e-03
  2.3731452e-03
  2.3731452e-03
  2.3731452e-03
  2.3731452e-03
  2.3731452e-03
  1.4660439e-03
  1.4660439e-03
  1.4660439e-03
  1.4660439e-03
  1.4660439e-03
  7.1759237e-04
  7.1759237e-04
  7.1759237e-04
  7.1759237e-04
  7.1759237e-04
  5.9611837e-05
  5.9611837e-05
  5.9611837e-05
  5.9611837e-05
  5.9611837e-05
